~o
<STREAMINFO> 1 25
<VECSIZE> 25<NULLD><MFCC_D_N_Z_0><DIAGC>
~h "A"
<BEGINHMM>
<NUMSTATES> 5
<STATE> 2
<MEAN> 25
 2.891823e-01 -5.020546e-01 -2.680345e-01 -2.142281e-01 2.106815e-01 9.091052e-02 -3.387542e-02 2.621606e-01 3.203233e-01 -5.080335e-02 -3.126569e-01 -3.292546e-01 1.450646e-03 2.004584e-03 -2.571026e-04 -1.566396e-03 2.898815e-03 3.070488e-03 8.269502e-04 -2.009299e-03 1.712453e-03 5.987829e-04 -4.123389e-03 -3.089764e-03 -5.906125e-04
<VARIANCE> 25
 6.305145e+01 5.777077e+01 6.708195e+01 5.829848e+01 6.262647e+01 5.524084e+01 5.693540e+01 6.194802e+01 5.582729e+01 3.753965e+01 4.220724e+01 3.875891e+01 2.595856e+00 2.862825e+00 2.804014e+00 3.085715e+00 3.384774e+00 3.078395e+00 3.290148e+00 4.011504e+00 3.483313e+00 2.806509e+00 2.889648e+00 2.489828e+00 5.038727e+00
<GCONST> 1.087414e+02
<STATE> 3
<MEAN> 25
 2.936378e-01 -4.954816e-01 -2.693045e-01 -2.192843e-01 2.210381e-01 1.008546e-01 -3.093977e-02 2.547882e-01 3.261103e-01 -4.894681e-02 -3.266039e-01 -3.387996e-01 4.663870e-04 3.428911e-03 4.961503e-04 -9.763449e-04 1.859656e-03 2.532242e-03 5.771350e-04 -2.451156e-03 6.945164e-04 8.584519e-04 -3.239252e-03 -2.022242e-03 -3.111762e-03
<VARIANCE> 25
 6.297606e+01 5.779500e+01 6.716665e+01 5.824149e+01 6.260903e+01 5.518145e+01 5.686732e+01 6.183950e+01 5.577916e+01 3.752706e+01 4.220741e+01 3.871938e+01 2.594754e+00 2.862091e+00 2.804087e+00 3.082953e+00 3.383343e+00 3.077309e+00 3.287571e+00 4.008344e+00 3.479871e+00 2.804643e+00 2.887702e+00 2.487715e+00 5.040709e+00
<GCONST> 1.087276e+02
<STATE> 4
<MEAN> 25
 3.168472e-01 -4.885963e-01 -2.586701e-01 -2.494566e-01 2.150249e-01 1.165888e-01 -5.811136e-02 2.226202e-01 3.266330e-01 -4.275466e-02 -3.380692e-01 -3.582825e-01 -4.879151e-04 4.090153e-03 9.403709e-04 -7.411494e-04 1.087406e-03 1.867886e-03 5.490711e-04 -2.803222e-03 -7.097778e-05 8.144446e-04 -2.373740e-03 -1.036963e-03 -4.417103e-03
<VARIANCE> 25
 6.280705e+01 5.747108e+01 6.709426e+01 5.840549e+01 6.209739e+01 5.459090e+01 5.658551e+01 6.044673e+01 5.516698e+01 3.704912e+01 4.182778e+01 3.831244e+01 2.529802e+00 2.804035e+00 2.758094e+00 3.027815e+00 3.306250e+00 3.014899e+00 3.220859e+00 3.901235e+00 3.405931e+00 2.757469e+00 2.835836e+00 2.441160e+00 4.904875e+00
<GCONST> 1.083566e+02
<TRANSP> 5
 0.000000e+00 1.000000e+00 0.000000e+00 0.000000e+00 0.000000e+00
 0.000000e+00 7.108596e-01 2.891403e-01 0.000000e+00 0.000000e+00
 0.000000e+00 0.000000e+00 7.108437e-01 2.891563e-01 0.000000e+00
 0.000000e+00 0.000000e+00 0.000000e+00 8.366294e-01 1.633706e-01
 0.000000e+00 0.000000e+00 0.000000e+00 0.000000e+00 0.000000e+00
<ENDHMM>
~h "B"
<BEGINHMM>
<NUMSTATES> 5
<STATE> 2
<MEAN> 25
 5.759255e-01 2.551307e-01 3.186333e-01 -1.735090e-01 -2.939352e-01 3.077664e-01 -4.716684e-01 -1.253020e-01 -1.559072e-01 -1.117963e-02 2.395615e-01 -1.594777e-01 1.033655e-02 2.615029e-03 4.524665e-03 -5.805898e-03 -4.879202e-04 7.632054e-03 -4.276778e-03 -5.399886e-03 2.047275e-03 4.410509e-03 -5.715372e-04 -7.804434e-03 1.595041e-02
<VARIANCE> 25
 6.680543e+01 5.707297e+01 6.774446e+01 5.998874e+01 6.418288e+01 5.776083e+01 5.830674e+01 6.327288e+01 5.817207e+01 3.739232e+01 4.250402e+01 3.810247e+01 2.533825e+00 2.881718e+00 2.840498e+00 3.228098e+00 3.487661e+00 3.186163e+00 3.449039e+00 3.962547e+00 3.660204e+00 2.858757e+00 2.977431e+00 2.524911e+00 5.019656e+00
<GCONST> 1.092145e+02
<STATE> 3
<MEAN> 25
 6.127113e-01 2.660000e-01 3.343498e-01 -1.955975e-01 -2.972144e-01 3.361255e-01 -4.879227e-01 -1.474530e-01 -1.496587e-01 6.833489e-03 2.363244e-01 -1.883939e-01 8.554507e-03 2.775294e-03 3.853311e-03 -5.033294e-03 -1.050497e-04 7.454459e-03 -3.005328e-03 -5.472862e-03 2.544764e-03 5.040143e-03 -1.098196e-03 -7.274223e-03 1.323447e-02
<VARIANCE> 25
 6.679093e+01 5.717528e+01 6.786594e+01 5.985344e+01 6.435291e+01 5.780857e+01 5.845771e+01 6.308929e+01 5.826357e+01 3.740100e+01 4.257710e+01 3.792052e+01 2.530619e+00 2.886054e+00 2.845239e+00 3.227362e+00 3.490764e+00 3.184310e+00 3.459205e+00 3.955702e+00 3.667381e+00 2.860018e+00 2.981692e+00 2.521971e+00 5.017555e+00
<GCONST> 1.092229e+02
<STATE> 4
<MEAN> 25
 6.908243e-01 2.610963e-01 3.681467e-01 -2.547650e-01 -3.362667e-01 3.671400e-01 -5.471408e-01 -1.688173e-01 -1.540999e-01 2.817657e-02 2.301452e-01 -2.363063e-01 7.203497e-03 2.702596e-03 3.516245e-03 -2.501176e-03 -5.861770e-04 5.116621e-03 -1.919970e-03 -3.840152e-03 2.049205e-03 4.210008e-03 -1.026992e-03 -5.293303e-03 1.084924e-02
<VARIANCE> 25
 6.660086e+01 5.699146e+01 6.800190e+01 5.995962e+01 6.413448e+01 5.742692e+01 5.859931e+01 6.169778e+01 5.776498e+01 3.710440e+01 4.233112e+01 3.747406e+01 2.463920e+00 2.835178e+00 2.800322e+00 3.179532e+00 3.415417e+00 3.117235e+00 3.403121e+00 3.853021e+00 3.601660e+00 2.820843e+00 2.935924e+00 2.477376e+00 4.887522e+00
<GCONST> 1.089040e+02
<TRANSP> 5
 0.000000e+00 1.000000e+00 0.000000e+00 0.000000e+00 0.000000e+00
 0.000000e+00 7.109825e-01 2.890175e-01 0.000000e+00 0.000000e+00
 0.000000e+00 0.000000e+00 7.109823e-01 2.890177e-01 0.000000e+00
 0.000000e+00 0.000000e+00 0.000000e+00 8.364843e-01 1.635158e-01
 0.000000e+00 0.000000e+00 0.000000e+00 0.000000e+00 0.000000e+00
<ENDHMM>
~h "C"
<BEGINHMM>
<NUMSTATES> 5
<STATE> 2
<MEAN> 25
 -2.093168e-01 -1.242157e-01 1.640041e-01 -1.690841e-03 -3.336526e-01 -6.350545e-01 -1.392693e-01 1.978172e-01 9.073972e-03 -9.755345e-02 -1.975962e-03 9.378227e-02 4.961349e-04 -3.704281e-04 -1.031210e-02 -6.343217e-03 6.275550e-03 2.398353e-03 -2.052952e-04 5.202119e-03 4.664908e-03 2.642702e-03 -2.656275e-03 -2.297897e-03 7.424838e-05
<VARIANCE> 25
 6.733176e+01 5.568182e+01 6.461916e+01 5.370368e+01 6.302639e+01 5.545970e+01 5.827297e+01 6.412064e+01 5.523103e+01 3.772705e+01 4.062294e+01 3.665991e+01 3.492805e+00 2.988827e+00 2.982256e+00 3.120298e+00 3.668893e+00 3.182208e+00 3.510592e+00 4.144102e+00 3.566103e+00 2.888174e+00 2.872030e+00 2.481858e+00 5.671301e+00
<GCONST> 1.094039e+02
<STATE> 3
<MEAN> 25
 -2.084165e-01 -1.230384e-01 1.321069e-01 -2.350391e-02 -3.131433e-01 -6.241516e-01 -1.400829e-01 2.174305e-01 2.221831e-02 -8.819620e-02 -8.579629e-03 8.576525e-02 1.645638e-03 -3.116755e-05 -1.035329e-02 -6.840051e-03 6.879817e-03 5.178868e-03 -9.574454e-04 5.636121e-03 4.260068e-03 2.056604e-03 -2.132730e-03 -3.161493e-03 -1.329584e-05
<VARIANCE> 25
 6.724860e+01 5.560672e+01 6.439101e+01 5.356295e+01 6.273537e+01 5.537494e+01 5.845901e+01 6.379673e+01 5.516758e+01 3.770368e+01 4.069968e+01 3.656370e+01 3.520030e+00 2.988306e+00 2.986760e+00 3.120448e+00 3.664674e+00 3.190004e+00 3.521503e+00 4.130329e+00 3.568867e+00 2.883856e+00 2.876049e+00 2.478794e+00 5.706329e+00
<GCONST> 1.094004e+02
<STATE> 4
<MEAN> 25
 -1.850257e-01 -1.247386e-01 1.166361e-01 -5.341404e-02 -3.003924e-01 -5.816664e-01 -1.759221e-01 2.200137e-01 5.773474e-02 -5.652155e-02 -6.904157e-03 4.092170e-02 3.367719e-03 -6.130610e-04 -8.515208e-03 -6.570166e-03 5.680900e-03 6.044036e-03 -1.980136e-03 5.738771e-03 3.011580e-03 9.831763e-04 -1.213824e-03 -3.477428e-03 2.015253e-03
<VARIANCE> 25
 6.679485e+01 5.519171e+01 6.429818e+01 5.357832e+01 6.219650e+01 5.472127e+01 5.869766e+01 6.232367e+01 5.475471e+01 3.721799e+01 4.061156e+01 3.618034e+01 3.457888e+00 2.928818e+00 2.949837e+00 3.066750e+00 3.582058e+00 3.141842e+00 3.470741e+00 4.025362e+00 3.512305e+00 2.828839e+00 2.832579e+00 2.435674e+00 5.591912e+00
<GCONST> 1.090778e+02
<TRANSP> 5
 0.000000e+00 1.000000e+00 0.000000e+00 0.000000e+00 0.000000e+00
 0.000000e+00 7.113508e-01 2.886492e-01 0.000000e+00 0.000000e+00
 0.000000e+00 0.000000e+00 7.113491e-01 2.886509e-01 0.000000e+00
 0.000000e+00 0.000000e+00 0.000000e+00 8.363349e-01 1.636651e-01
 0.000000e+00 0.000000e+00 0.000000e+00 0.000000e+00 0.000000e+00
<ENDHMM>
~h "D"
<BEGINHMM>
<NUMSTATES> 5
<STATE> 2
<MEAN> 25
 4.463387e-01 -1.346790e-01 8.074450e-01 1.249433e-01 -6.918133e-01 -3.538656e-01 -5.763759e-01 1.137088e-01 5.264447e-02 -1.463565e-01 -6.876415e-02 -9.612609e-02 8.792073e-03 3.301859e-05 1.025104e-02 -8.549361e-04 -4.955333e-03 1.368574e-03 -4.679421e-03 -2.314262e-03 -2.747200e-04 3.453298e-04 -3.058197e-03 -3.476151e-03 1.273303e-02
<VARIANCE> 25
 6.313538e+01 5.714307e+01 7.561347e+01 5.866505e+01 6.758097e+01 5.574537e+01 6.028116e+01 6.629082e+01 5.897421e+01 3.808950e+01 4.417673e+01 3.735629e+01 2.565878e+00 2.918159e+00 2.947536e+00 3.190608e+00 3.719840e+00 3.122564e+00 3.487648e+00 4.207182e+00 3.624305e+00 2.862505e+00 3.009798e+00 2.490216e+00 5.258029e+00
<GCONST> 1.095943e+02
<STATE> 3
<MEAN> 25
 4.771443e-01 -1.338439e-01 8.439464e-01 1.224225e-01 -7.091353e-01 -3.474630e-01 -5.924535e-01 1.056656e-01 5.129017e-02 -1.452776e-01 -7.899789e-02 -1.100723e-01 8.134890e-03 7.312919e-05 8.708314e-03 -1.038807e-03 -3.915391e-03 2.219088e-03 -3.693040e-03 -2.023518e-03 -2.073095e-04 4.915917e-04 -2.967644e-03 -3.706844e-03 1.119025e-02
<VARIANCE> 25
 6.298351e+01 5.728077e+01 7.585366e+01 5.857976e+01 6.773782e+01 5.583119e+01 6.035725e+01 6.633017e+01 5.909853e+01 3.807988e+01 4.428045e+01 3.723392e+01 2.562292e+00 2.922845e+00 2.953968e+00 3.191252e+00 3.728769e+00 3.124068e+00 3.494565e+00 4.207346e+00 3.629626e+00 2.862608e+00 3.013120e+00 2.488715e+00 5.272130e+00
<GCONST> 1.096148e+02
<STATE> 4
<MEAN> 25
 5.341638e-01 -1.417160e-01 8.685136e-01 8.126669e-02 -7.315138e-01 -3.181312e-01 -6.382142e-01 8.026698e-02 4.549221e-02 -1.273969e-01 -9.691746e-02 -1.463750e-01 7.642192e-03 3.168444e-04 7.325172e-03 -4.318293e-04 -3.200040e-03 2.271759e-03 -3.029184e-03 -9.949242e-04 -5.192413e-04 6.867838e-05 -2.574547e-03 -3.180696e-03 9.839061e-03
<VARIANCE> 25
 6.292427e+01 5.733102e+01 7.613371e+01 5.873337e+01 6.752175e+01 5.558656e+01 6.031350e+01 6.525096e+01 5.881342e+01 3.774759e+01 4.405777e+01 3.674350e+01 2.510642e+00 2.880869e+00 2.912626e+00 3.151150e+00 3.653306e+00 3.074524e+00 3.442654e+00 4.110701e+00 3.570389e+00 2.820523e+00 2.968438e+00 2.445321e+00 5.154911e+00
<GCONST> 1.093420e+02
<TRANSP> 5
 0.000000e+00 1.000000e+00 0.000000e+00 0.000000e+00 0.000000e+00
 0.000000e+00 7.101096e-01 2.898904e-01 0.000000e+00 0.000000e+00
 0.000000e+00 0.000000e+00 7.101089e-01 2.898911e-01 0.000000e+00
 0.000000e+00 0.000000e+00 0.000000e+00 8.347996e-01 1.652005e-01
 0.000000e+00 0.000000e+00 0.000000e+00 0.000000e+00 0.000000e+00
<ENDHMM>
~h "E"
<BEGINHMM>
<NUMSTATES> 5
<STATE> 2
<MEAN> 25
 -2.132549e-01 -3.805311e-01 6.048535e-01 1.024377e-01 -1.024169e+00 -8.511857e-01 4.968444e-01 5.982708e-01 -1.348417e-01 1.596427e-01 4.207535e-01 8.748533e-02 -3.615011e-03 4.857334e-03 4.978324e-03 4.731148e-03 1.003527e-03 -2.223930e-03 6.503403e-03 -1.002215e-03 -1.245988e-03 -2.149856e-04 -3.408786e-05 6.804524e-04 -6.176039e-03
<VARIANCE> 25
 6.403917e+01 5.762561e+01 7.136210e+01 5.597518e+01 7.504414e+01 5.782241e+01 5.865216e+01 6.408312e+01 5.267290e+01 3.790477e+01 4.311124e+01 3.510571e+01 2.519376e+00 2.707791e+00 2.593171e+00 2.823586e+00 3.548513e+00 2.952497e+00 3.243640e+00 3.939094e+00 3.218752e+00 2.736269e+00 2.730259e+00 2.227816e+00 5.215892e+00
<GCONST> 1.084222e+02
<STATE> 3
<MEAN> 25
 -2.252353e-01 -3.637629e-01 6.233161e-01 1.200513e-01 -1.021425e+00 -8.593460e-01 5.199072e-01 5.947486e-01 -1.398255e-01 1.587212e-01 4.218624e-01 8.900896e-02 -3.425935e-03 5.856558e-03 3.748289e-03 5.189842e-03 3.100513e-03 -1.390700e-03 5.755167e-03 -1.795379e-03 -1.390346e-03 -6.729669e-04 -7.130235e-04 8.403299e-04 -9.303018e-03
<VARIANCE> 25
 6.401023e+01 5.766082e+01 7.143803e+01 5.590481e+01 7.519327e+01 5.774493e+01 5.864080e+01 6.403522e+01 5.260917e+01 3.790411e+01 4.311045e+01 3.503034e+01 2.520295e+00 2.703090e+00 2.591748e+00 2.815952e+00 3.542999e+00 2.945329e+00 3.242554e+00 3.932603e+00 3.215781e+00 2.732977e+00 2.725809e+00 2.222291e+00 5.203063e+00
<GCONST> 1.083992e+02
<STATE> 4
<MEAN> 25
 -1.964425e-01 -3.457195e-01 6.479427e-01 1.329415e-01 -1.027046e+00 -8.615477e-01 5.277312e-01 5.711831e-01 -1.343147e-01 1.704996e-01 4.305298e-01 7.497805e-02 -3.222394e-03 6.131818e-03 2.615405e-03 5.320056e-03 4.166748e-03 -5.280958e-04 4.748437e-03 -1.936196e-03 -1.623432e-03 -1.125388e-03 -8.764756e-04 8.583443e-04 -1.102669e-02
<VARIANCE> 25
 6.351243e+01 5.752964e+01 7.181786e+01 5.622085e+01 7.483231e+01 5.743097e+01 5.826619e+01 6.249914e+01 5.201749e+01 3.747128e+01 4.269813e+01 3.452566e+01 2.450190e+00 2.649760e+00 2.547469e+00 2.766216e+00 3.450274e+00 2.884702e+00 3.179972e+00 3.814641e+00 3.143864e+00 2.677016e+00 2.668552e+00 2.178548e+00 5.064788e+00
<GCONST> 1.080204e+02
<TRANSP> 5
 0.000000e+00 1.000000e+00 0.000000e+00 0.000000e+00 0.000000e+00
 0.000000e+00 7.168511e-01 2.831489e-01 0.000000e+00 0.000000e+00
 0.000000e+00 0.000000e+00 7.168496e-01 2.831504e-01 0.000000e+00
 0.000000e+00 0.000000e+00 0.000000e+00 8.435606e-01 1.564393e-01
 0.000000e+00 0.000000e+00 0.000000e+00 0.000000e+00 0.000000e+00
<ENDHMM>
~h "F"
<BEGINHMM>
<NUMSTATES> 5
<STATE> 2
<MEAN> 25
 -8.745343e-01 -3.921543e-01 -1.734209e-01 -9.511760e-03 -1.668782e-01 -1.264699e-01 -5.059050e-03 6.959803e-02 4.563676e-02 9.733807e-02 4.150862e-01 1.492642e-01 4.874167e-03 6.244570e-03 2.393476e-03 -1.694323e-03 -1.871552e-05 5.870058e-03 3.048980e-03 -5.244786e-03 -2.372569e-03 1.843412e-03 -3.946363e-03 -4.008690e-03 -9.295967e-03
<VARIANCE> 25
 7.646899e+01 5.362835e+01 7.297679e+01 6.000216e+01 6.797709e+01 5.723597e+01 5.570209e+01 5.769535e+01 5.278844e+01 3.609780e+01 3.984676e+01 3.625467e+01 3.306428e+00 2.687413e+00 2.940025e+00 3.192134e+00 3.581715e+00 3.149186e+00 3.204304e+00 3.732023e+00 3.365277e+00 2.742948e+00 2.748916e+00 2.356047e+00 4.590629e+00
<GCONST> 1.087628e+02
<STATE> 3
<MEAN> 25
 -8.593009e-01 -3.683434e-01 -1.633475e-01 -1.269296e-02 -1.676057e-01 -1.060455e-01 7.038109e-03 5.095287e-02 3.316118e-02 1.006990e-01 4.001152e-01 1.352669e-01 4.854282e-03 8.113212e-03 2.891670e-03 -2.758994e-04 1.158952e-03 5.231463e-03 4.299573e-03 -5.218690e-03 -3.461540e-03 6.648657e-04 -5.039754e-03 -3.569009e-03 -1.274336e-02
<VARIANCE> 25
 7.618047e+01 5.358985e+01 7.315611e+01 5.997460e+01 6.793918e+01 5.719988e+01 5.569843e+01 5.763563e+01 5.275438e+01 3.605204e+01 3.989621e+01 3.625719e+01 3.304787e+00 2.685521e+00 2.939219e+00 3.190161e+00 3.578964e+00 3.143515e+00 3.205498e+00 3.724248e+00 3.366570e+00 2.740621e+00 2.750882e+00 2.359836e+00 4.581312e+00
<GCONST> 1.087509e+02
<STATE> 4
<MEAN> 25
 -7.603539e-01 -3.367057e-01 -1.238357e-01 -5.200530e-02 -2.167967e-01 -9.974748e-02 -1.487588e-02 2.192231e-03 3.755018e-02 1.052598e-01 3.812398e-01 8.260483e-02 3.585752e-03 9.289898e-03 3.629897e-03 2.084342e-03 1.587971e-03 3.933447e-03 4.643008e-03 -5.044172e-03 -4.563132e-03 -3.414497e-04 -4.891857e-03 -2.963334e-03 -1.429101e-02
<VARIANCE> 25
 7.543526e+01 5.330981e+01 7.340743e+01 6.032828e+01 6.743810e+01 5.648741e+01 5.550655e+01 5.677722e+01 5.240590e+01 3.568288e+01 3.943272e+01 3.576315e+01 3.213720e+00 2.635327e+00 2.891921e+00 3.129474e+00 3.489350e+00 3.075314e+00 3.148870e+00 3.636467e+00 3.309982e+00 2.692684e+00 2.702281e+00 2.320870e+00 4.456228e+00
<GCONST> 1.083964e+02
<TRANSP> 5
 0.000000e+00 1.000000e+00 0.000000e+00 0.000000e+00 0.000000e+00
 0.000000e+00 7.159926e-01 2.840073e-01 0.000000e+00 0.000000e+00
 0.000000e+00 0.000000e+00 7.159940e-01 2.840060e-01 0.000000e+00
 0.000000e+00 0.000000e+00 0.000000e+00 8.427927e-01 1.572073e-01
 0.000000e+00 0.000000e+00 0.000000e+00 0.000000e+00 0.000000e+00
<ENDHMM>
~h "G"
<BEGINHMM>
<NUMSTATES> 5
<STATE> 2
<MEAN> 25
 4.709333e-01 2.851002e-01 5.572307e-01 -3.691609e-02 -4.643897e-01 -4.692762e-02 -3.890719e-01 -1.411931e-01 -1.622053e-01 1.847146e-01 1.504239e-01 -2.485463e-01 3.869218e-03 2.413889e-03 4.405169e-03 -3.411120e-03 -3.879400e-03 1.150110e-03 -5.678595e-05 2.047589e-04 -2.341957e-03 4.803586e-03 -7.520599e-04 -5.510964e-03 9.672048e-03
<VARIANCE> 25
 6.153023e+01 5.652112e+01 7.399042e+01 6.077041e+01 6.599961e+01 5.718448e+01 5.967179e+01 6.277733e+01 5.817616e+01 3.866275e+01 4.301582e+01 3.827648e+01 2.454641e+00 2.830736e+00 2.941607e+00 3.234071e+00 3.739179e+00 3.222684e+00 3.484013e+00 3.950636e+00 3.633720e+00 2.856939e+00 2.929436e+00 2.492896e+00 5.007650e+00
<GCONST> 1.093428e+02
<STATE> 3
<MEAN> 25
 4.825731e-01 2.945932e-01 5.728528e-01 -4.936358e-02 -4.773116e-01 -4.215801e-02 -3.895842e-01 -1.419841e-01 -1.691441e-01 2.020556e-01 1.467761e-01 -2.675417e-01 2.395245e-03 1.802779e-03 2.038266e-03 -3.449973e-03 -2.469458e-03 1.733851e-03 1.284433e-03 5.146627e-04 -1.041101e-03 4.513012e-03 -1.137922e-03 -5.025621e-03 6.729614e-03
<VARIANCE> 25
 6.137027e+01 5.660611e+01 7.397351e+01 6.060775e+01 6.630676e+01 5.730589e+01 5.971572e+01 6.274006e+01 5.822078e+01 3.865693e+01 4.307929e+01 3.818353e+01 2.452299e+00 2.826323e+00 2.941669e+00 3.227386e+00 3.747900e+00 3.215941e+00 3.482070e+00 3.940738e+00 3.629984e+00 2.853540e+00 2.929518e+00 2.489157e+00 5.001828e+00
<GCONST> 1.093331e+02
<STATE> 4
<MEAN> 25
 5.176151e-01 3.002446e-01 5.878182e-01 -9.259994e-02 -5.006030e-01 -2.394602e-02 -4.205938e-01 -1.470109e-01 -1.750609e-01 2.285241e-01 1.365398e-01 -3.107162e-01 1.151305e-03 1.291028e-03 4.817512e-04 -2.941607e-03 -1.947682e-03 1.427562e-03 1.429375e-03 8.644116e-04 -2.635874e-04 3.484564e-03 -1.549474e-03 -3.779758e-03 4.600966e-03
<VARIANCE> 25
 6.133044e+01 5.647115e+01 7.406660e+01 6.075981e+01 6.619799e+01 5.691710e+01 5.971818e+01 6.155832e+01 5.781069e+01 3.824052e+01 4.280456e+01 3.781838e+01 2.400597e+00 2.772827e+00 2.887903e+00 3.170938e+00 3.666395e+00 3.143091e+00 3.414714e+00 3.837936e+00 3.556766e+00 2.803506e+00 2.884601e+00 2.446344e+00 4.872614e+00
<GCONST> 1.090081e+02
<TRANSP> 5
 0.000000e+00 1.000000e+00 0.000000e+00 0.000000e+00 0.000000e+00
 0.000000e+00 7.095788e-01 2.904212e-01 0.000000e+00 0.000000e+00
 0.000000e+00 0.000000e+00 7.095733e-01 2.904267e-01 0.000000e+00
 0.000000e+00 0.000000e+00 0.000000e+00 8.345692e-01 1.654308e-01
 0.000000e+00 0.000000e+00 0.000000e+00 0.000000e+00 0.000000e+00
<ENDHMM>
~h "H"
<BEGINHMM>
<NUMSTATES> 5
<STATE> 2
<MEAN> 25
 5.341412e-02 -2.463855e-01 -2.911347e-01 -2.090780e-01 3.078808e-01 4.702372e-01 8.460391e-02 -7.520976e-03 1.156041e-01 -8.232994e-02 3.689438e-03 9.163765e-03 2.235125e-04 4.416722e-03 3.791922e-04 -1.769618e-03 5.152849e-03 3.419796e-03 4.290620e-04 -3.837811e-03 1.633008e-04 1.342445e-03 -2.962302e-03 -2.008466e-03 -1.730399e-03
<VARIANCE> 25
 6.206220e+01 5.588747e+01 6.884547e+01 5.984365e+01 6.616248e+01 5.642269e+01 6.008384e+01 6.032964e+01 5.437459e+01 3.766296e+01 4.102994e+01 3.706927e+01 2.527549e+00 2.683018e+00 2.744910e+00 3.121197e+00 3.479810e+00 3.077511e+00 3.341736e+00 3.834673e+00 3.393783e+00 2.774598e+00 2.802752e+00 2.414513e+00 4.602510e+00
<GCONST> 1.084592e+02
<STATE> 3
<MEAN> 25
 5.458881e-02 -2.337197e-01 -2.901726e-01 -2.139445e-01 3.259231e-01 4.807601e-01 8.527184e-02 -1.948673e-02 1.150772e-01 -7.932749e-02 -5.418877e-03 3.297304e-03 -5.806985e-04 4.205948e-03 9.500337e-04 -1.208080e-03 4.106167e-03 1.678577e-03 1.229700e-04 -3.418611e-03 -7.040282e-04 1.257174e-03 -2.750569e-03 -1.617790e-03 -2.551424e-03
<VARIANCE> 25
 6.199330e+01 5.584880e+01 6.896670e+01 5.976776e+01 6.628107e+01 5.641970e+01 5.998746e+01 6.019463e+01 5.431989e+01 3.759286e+01 4.107520e+01 3.697921e+01 2.524660e+00 2.680816e+00 2.742778e+00 3.114422e+00 3.476405e+00 3.074856e+00 3.341489e+00 3.822982e+00 3.391064e+00 2.770874e+00 2.801480e+00 2.409192e+00 4.599254e+00
<GCONST> 1.084362e+02
<STATE> 4
<MEAN> 25
 6.437294e-02 -2.404331e-01 -2.738055e-01 -2.406758e-01 3.321213e-01 4.889461e-01 5.881755e-02 -3.232978e-02 1.302908e-01 -7.056187e-02 -1.148104e-02 -1.249590e-02 -8.357236e-04 3.370603e-03 1.480598e-03 -5.315907e-04 2.929612e-03 7.938987e-05 6.778275e-05 -2.824544e-03 -1.443150e-03 1.137114e-03 -1.856412e-03 -1.291055e-03 -1.017447e-03
<VARIANCE> 25
 6.202387e+01 5.546175e+01 6.905039e+01 5.991724e+01 6.594067e+01 5.572776e+01 5.951749e+01 5.880408e+01 5.378691e+01 3.703726e+01 4.067094e+01 3.646618e+01 2.464408e+00 2.621897e+00 2.690691e+00 3.049376e+00 3.392440e+00 3.006104e+00 3.271383e+00 3.709256e+00 3.318544e+00 2.718195e+00 2.747072e+00 2.358043e+00 4.463747e+00
<GCONST> 1.080392e+02
<TRANSP> 5
 0.000000e+00 1.000000e+00 0.000000e+00 0.000000e+00 0.000000e+00
 0.000000e+00 7.120033e-01 2.879967e-01 0.000000e+00 0.000000e+00
 0.000000e+00 0.000000e+00 7.119999e-01 2.880001e-01 0.000000e+00
 0.000000e+00 0.000000e+00 0.000000e+00 8.378315e-01 1.621685e-01
 0.000000e+00 0.000000e+00 0.000000e+00 0.000000e+00 0.000000e+00
<ENDHMM>
~h "I"
<BEGINHMM>
<NUMSTATES> 5
<STATE> 2
<MEAN> 25
 -2.468774e-01 3.610076e-01 1.266995e+00 3.169936e-01 -7.137004e-01 -4.172921e-01 -1.008299e-01 -2.582255e-01 -5.638917e-01 -4.744891e-02 2.670026e-01 1.278138e-01 -2.142997e-03 3.699686e-03 -3.091928e-04 3.038691e-03 4.754290e-04 -1.958380e-03 4.187266e-03 1.727257e-04 -2.591186e-03 2.885485e-04 -2.915594e-03 -4.792883e-04 -1.208618e-02
<VARIANCE> 25
 6.379414e+01 5.382505e+01 8.271808e+01 5.573515e+01 7.001304e+01 5.443118e+01 5.917044e+01 6.168282e+01 5.867599e+01 3.698181e+01 4.179904e+01 3.605060e+01 2.632546e+00 2.676328e+00 3.116762e+00 3.016158e+00 3.665651e+00 3.082885e+00 3.397501e+00 3.926066e+00 3.556327e+00 2.782825e+00 2.852712e+00 2.374679e+00 4.758459e+00
<GCONST> 1.089466e+02
<STATE> 3
<MEAN> 25
 -2.542133e-01 3.743979e-01 1.265243e+00 3.286468e-01 -7.122105e-01 -4.232059e-01 -8.611694e-02 -2.578886e-01 -5.727335e-01 -4.612673e-02 2.565860e-01 1.256266e-01 -2.007639e-03 3.451148e-03 -3.050741e-03 2.814459e-03 1.660658e-03 -1.563035e-03 4.549160e-03 5.307340e-04 -1.257187e-03 4.027728e-04 -3.349526e-03 -5.966648e-04 -1.326158e-02
<VARIANCE> 25
 6.363861e+01 5.370225e+01 8.241657e+01 5.563099e+01 7.003969e+01 5.434628e+01 5.915898e+01 6.153764e+01 5.864211e+01 3.690312e+01 4.180712e+01 3.595505e+01 2.626277e+00 2.672481e+00 3.109521e+00 3.007758e+00 3.662882e+00 3.076503e+00 3.393455e+00 3.920579e+00 3.553275e+00 2.778150e+00 2.852523e+00 2.370912e+00 4.755912e+00
<GCONST> 1.089084e+02
<STATE> 4
<MEAN> 25
 -2.256353e-01 3.718615e-01 1.244115e+00 3.102310e-01 -7.086300e-01 -4.083457e-01 -1.014684e-01 -2.618759e-01 -5.664834e-01 -2.715888e-02 2.337927e-01 9.694670e-02 -1.742053e-03 3.057606e-03 -4.768090e-03 2.365787e-03 2.131556e-03 -9.274177e-04 4.382819e-03 5.724080e-04 -3.196884e-05 5.561008e-04 -3.433253e-03 -1.090679e-03 -1.255515e-02
<VARIANCE> 25
 6.325051e+01 5.321977e+01 8.203424e+01 5.552484e+01 6.943414e+01 5.373236e+01 5.895501e+01 6.012925e+01 5.819907e+01 3.642283e+01 4.139045e+01 3.546181e+01 2.552388e+00 2.611287e+00 3.045796e+00 2.946630e+00 3.565841e+00 3.010992e+00 3.321989e+00 3.813512e+00 3.486253e+00 2.727268e+00 2.802030e+00 2.323018e+00 4.621861e+00
<GCONST> 1.085009e+02
<TRANSP> 5
 0.000000e+00 1.000000e+00 0.000000e+00 0.000000e+00 0.000000e+00
 0.000000e+00 7.114574e-01 2.885426e-01 0.000000e+00 0.000000e+00
 0.000000e+00 0.000000e+00 7.114496e-01 2.885504e-01 0.000000e+00
 0.000000e+00 0.000000e+00 0.000000e+00 8.371481e-01 1.628519e-01
 0.000000e+00 0.000000e+00 0.000000e+00 0.000000e+00 0.000000e+00
<ENDHMM>
~h "J"
<BEGINHMM>
<NUMSTATES> 5
<STATE> 2
<MEAN> 25
 2.085746e-01 3.533621e-01 7.980683e-01 8.450840e-02 -5.614142e-01 -5.509739e-01 -4.679188e-01 2.097723e-01 -1.207982e-01 -2.519947e-01 8.662713e-02 1.692248e-01 2.410009e-03 -7.634967e-05 9.818967e-03 1.812436e-03 -4.575382e-03 -2.051997e-03 -3.107483e-03 1.417765e-03 1.487724e-05 -2.456603e-03 1.687225e-03 -2.489579e-03 8.435510e-03
<VARIANCE> 25
 6.181097e+01 5.900302e+01 7.247204e+01 5.648697e+01 6.371732e+01 5.579323e+01 5.958263e+01 6.454405e+01 5.663292e+01 3.768252e+01 4.288850e+01 3.711572e+01 3.073743e+00 3.051636e+00 2.978307e+00 3.092304e+00 3.841460e+00 3.236000e+00 3.605152e+00 4.152027e+00 3.609159e+00 2.821225e+00 2.947199e+00 2.562701e+00 5.124306e+00
<GCONST> 1.095966e+02
<STATE> 3
<MEAN> 25
 2.158274e-01 3.557220e-01 8.301296e-01 9.025560e-02 -5.762809e-01 -5.560696e-01 -4.792873e-01 2.146528e-01 -1.212229e-01 -2.599584e-01 9.259359e-02 1.623050e-01 8.348004e-04 5.507302e-04 8.572750e-03 2.214967e-03 -3.691870e-03 -1.588696e-03 -2.359230e-03 1.148272e-03 6.152010e-04 -2.516034e-03 1.937778e-03 -2.199218e-03 6.425627e-03
<VARIANCE> 25
 6.160651e+01 5.893844e+01 7.267422e+01 5.639492e+01 6.380252e+01 5.571573e+01 5.960684e+01 6.436470e+01 5.669702e+01 3.767545e+01 4.288941e+01 3.709459e+01 3.071917e+00 3.048746e+00 2.979662e+00 3.087829e+00 3.845587e+00 3.234670e+00 3.602360e+00 4.147692e+00 3.610024e+00 2.817868e+00 2.944727e+00 2.562675e+00 5.116748e+00
<GCONST> 1.095844e+02
<STATE> 4
<MEAN> 25
 2.625471e-01 3.278013e-01 8.454294e-01 4.391683e-02 -6.075988e-01 -5.238870e-01 -5.256996e-01 1.912373e-01 -1.147186e-01 -2.503752e-01 8.355565e-02 1.108279e-01 -4.271356e-05 1.427725e-03 6.138857e-03 2.270978e-03 -2.229415e-03 -3.836108e-04 -1.430992e-03 8.029970e-04 5.763498e-04 -1.853644e-03 1.677934e-03 -1.795551e-03 4.655925e-03
<VARIANCE> 25
 6.154054e+01 5.851596e+01 7.286678e+01 5.652971e+01 6.361813e+01 5.533822e+01 5.931298e+01 6.296774e+01 5.634738e+01 3.723842e+01 4.259841e+01 3.667055e+01 3.000602e+00 2.978567e+00 2.927051e+00 3.030589e+00 3.766448e+00 3.169185e+00 3.520189e+00 4.033545e+00 3.543527e+00 2.761238e+00 2.896710e+00 2.513305e+00 4.973810e+00
<GCONST> 1.092297e+02
<TRANSP> 5
 0.000000e+00 1.000000e+00 0.000000e+00 0.000000e+00 0.000000e+00
 0.000000e+00 7.100819e-01 2.899181e-01 0.000000e+00 0.000000e+00
 0.000000e+00 0.000000e+00 7.100781e-01 2.899219e-01 0.000000e+00
 0.000000e+00 0.000000e+00 0.000000e+00 8.353211e-01 1.646789e-01
 0.000000e+00 0.000000e+00 0.000000e+00 0.000000e+00 0.000000e+00
<ENDHMM>
~h "K"
<BEGINHMM>
<NUMSTATES> 5
<STATE> 2
<MEAN> 25
 5.376315e-02 -1.318374e-01 -1.787456e-01 -2.016565e-01 4.352469e-02 -1.276139e-01 -4.648888e-02 1.503346e-02 -8.183268e-02 1.210706e-01 -6.031484e-02 -8.846225e-02 5.352222e-03 4.744837e-04 -2.515166e-03 -5.914342e-03 2.742186e-03 2.202579e-03 -1.711285e-03 -6.169718e-03 1.180977e-03 5.155533e-03 -4.542580e-03 -6.504851e-03 9.472308e-03
<VARIANCE> 25
 6.162169e+01 5.558593e+01 6.810786e+01 5.831094e+01 6.309166e+01 5.613855e+01 5.753518e+01 6.088829e+01 5.447898e+01 3.775505e+01 4.146410e+01 3.833139e+01 2.639051e+00 2.880216e+00 2.986045e+00 3.145398e+00 3.560370e+00 3.195839e+00 3.390058e+00 3.996661e+00 3.501588e+00 2.894484e+00 2.892372e+00 2.499211e+00 5.651731e+00
<GCONST> 1.090389e+02
<STATE> 3
<MEAN> 25
 7.263459e-02 -1.306448e-01 -1.881659e-01 -2.193903e-01 5.135489e-02 -1.233985e-01 -5.240009e-02 -2.831360e-03 -7.886639e-02 1.379218e-01 -7.619578e-02 -1.079505e-01 5.505152e-03 4.339583e-04 -2.920365e-03 -4.267239e-03 2.019947e-03 1.522318e-03 -1.348284e-03 -5.052788e-03 1.103117e-03 4.065353e-03 -4.318228e-03 -5.086853e-03 8.655757e-03
<VARIANCE> 25
 6.152164e+01 5.566734e+01 6.824969e+01 5.821932e+01 6.319157e+01 5.620019e+01 5.748592e+01 6.082014e+01 5.449104e+01 3.776387e+01 4.150310e+01 3.820843e+01 2.644120e+00 2.885350e+00 2.995011e+00 3.148173e+00 3.568968e+00 3.200528e+00 3.396056e+00 3.996771e+00 3.502118e+00 2.900047e+00 2.897298e+00 2.500770e+00 5.680834e+00
<GCONST> 1.090609e+02
<STATE> 4
<MEAN> 25
 1.181347e-01 -1.344864e-01 -1.763966e-01 -2.626802e-01 3.496918e-02 -1.146647e-01 -9.041158e-02 -3.683762e-02 -6.944501e-02 1.569646e-01 -9.683891e-02 -1.422421e-01 5.058921e-03 9.354046e-05 -3.035629e-03 -2.805682e-03 1.125573e-03 5.737013e-04 -8.466095e-04 -3.186783e-03 1.083811e-03 2.936666e-03 -3.385739e-03 -3.300226e-03 7.948351e-03
<VARIANCE> 25
 6.135411e+01 5.529134e+01 6.833921e+01 5.831783e+01 6.275208e+01 5.572888e+01 5.726612e+01 5.956882e+01 5.400248e+01 3.738386e+01 4.117341e+01 3.776649e+01 2.584893e+00 2.830331e+00 2.953831e+00 3.099150e+00 3.490128e+00 3.142503e+00 3.339769e+00 3.897360e+00 3.436402e+00 2.855777e+00 2.850224e+00 2.461120e+00 5.545274e+00
<GCONST> 1.087308e+02
<TRANSP> 5
 0.000000e+00 1.000000e+00 0.000000e+00 0.000000e+00 0.000000e+00
 0.000000e+00 7.107796e-01 2.892204e-01 0.000000e+00 0.000000e+00
 0.000000e+00 0.000000e+00 7.107757e-01 2.892243e-01 0.000000e+00
 0.000000e+00 0.000000e+00 0.000000e+00 8.362586e-01 1.637413e-01
 0.000000e+00 0.000000e+00 0.000000e+00 0.000000e+00 0.000000e+00
<ENDHMM>
~h "L"
<BEGINHMM>
<NUMSTATES> 5
<STATE> 2
<MEAN> 25
 4.512325e-01 -2.470407e-01 -1.149510e-01 -5.720846e-01 -1.488946e-01 3.260913e-01 -4.322121e-01 -3.958719e-01 2.189009e-01 1.480847e-01 1.612456e-01 -1.585708e-01 -9.619696e-04 4.934385e-03 2.090980e-03 -1.234962e-03 1.817161e-03 3.517638e-03 -9.470239e-04 -3.806823e-03 -6.989710e-04 1.310497e-03 9.506059e-05 -5.820741e-04 -1.710439e-04
<VARIANCE> 25
 6.494243e+01 5.513837e+01 6.909443e+01 6.459067e+01 6.477775e+01 5.943720e+01 6.307821e+01 6.481701e+01 5.782900e+01 3.928819e+01 4.297174e+01 3.858776e+01 2.571484e+00 2.683185e+00 2.786022e+00 3.216749e+00 3.504683e+00 3.217357e+00 3.490439e+00 4.071548e+00 3.542399e+00 2.896282e+00 2.930802e+00 2.446287e+00 4.528497e+00
<GCONST> 1.092572e+02
<STATE> 3
<MEAN> 25
 4.476466e-01 -2.309220e-01 -1.073114e-01 -5.781875e-01 -1.436363e-01 3.384480e-01 -4.365002e-01 -4.087194e-01 2.171083e-01 1.526013e-01 1.617188e-01 -1.608433e-01 -1.896624e-03 5.552860e-03 2.414386e-03 -4.535854e-04 1.731865e-03 3.002352e-03 -7.868772e-04 -2.968838e-03 -1.490100e-03 9.362244e-04 -6.554792e-04 -4.251662e-04 -2.540231e-03
<VARIANCE> 25
 6.492108e+01 5.511744e+01 6.919998e+01 6.469384e+01 6.474478e+01 5.941207e+01 6.318301e+01 6.485191e+01 5.781335e+01 3.931308e+01 4.299986e+01 3.856234e+01 2.568374e+00 2.679544e+00 2.783430e+00 3.214965e+00 3.502623e+00 3.216796e+00 3.492235e+00 4.068658e+00 3.538868e+00 2.898203e+00 2.933232e+00 2.446065e+00 4.520556e+00
<GCONST> 1.092549e+02
<STATE> 4
<MEAN> 25
 4.679324e-01 -2.269773e-01 -8.068798e-02 -6.070464e-01 -1.549251e-01 3.403162e-01 -4.645043e-01 -4.387270e-01 2.098371e-01 1.639972e-01 1.483782e-01 -1.748067e-01 -2.502475e-03 5.669062e-03 2.708518e-03 -7.256430e-04 1.735878e-03 2.820484e-03 -5.269882e-04 -2.614412e-03 -1.618518e-03 1.160446e-03 -1.219396e-03 -7.495881e-04 -3.271470e-03
<VARIANCE> 25
 6.482188e+01 5.466355e+01 6.945274e+01 6.509267e+01 6.430759e+01 5.871889e+01 6.301186e+01 6.342216e+01 5.731615e+01 3.892215e+01 4.260484e+01 3.810374e+01 2.499952e+00 2.615243e+00 2.732942e+00 3.148423e+00 3.423537e+00 3.147563e+00 3.422693e+00 3.951876e+00 3.463385e+00 2.849830e+00 2.882733e+00 2.400542e+00 4.382441e+00
<GCONST> 1.088816e+02
<TRANSP> 5
 0.000000e+00 1.000000e+00 0.000000e+00 0.000000e+00 0.000000e+00
 0.000000e+00 7.105252e-01 2.894749e-01 0.000000e+00 0.000000e+00
 0.000000e+00 0.000000e+00 7.105210e-01 2.894790e-01 0.000000e+00
 0.000000e+00 0.000000e+00 0.000000e+00 8.362533e-01 1.637467e-01
 0.000000e+00 0.000000e+00 0.000000e+00 0.000000e+00 0.000000e+00
<ENDHMM>
~h "M"
<BEGINHMM>
<NUMSTATES> 5
<STATE> 2
<MEAN> 25
 5.423006e-01 -2.296603e-01 -2.595648e-02 -9.952244e-02 -1.007169e-01 4.887710e-01 -1.286058e-01 -4.731709e-01 -2.824147e-01 -1.281808e-01 -1.895001e-02 -1.796104e-01 1.466446e-02 8.761344e-04 4.069000e-03 -3.482643e-03 -4.838611e-03 1.005709e-02 -3.564016e-03 -9.214611e-03 -4.093720e-03 -1.106119e-03 -3.897115e-03 -6.826178e-03 2.052081e-02
<VARIANCE> 25
 6.410892e+01 5.408701e+01 6.637443e+01 6.050449e+01 6.315236e+01 5.846461e+01 5.842347e+01 6.576860e+01 5.880033e+01 3.808492e+01 4.235017e+01 3.821120e+01 2.449273e+00 2.675035e+00 2.842680e+00 3.280210e+00 3.354076e+00 3.102832e+00 3.306182e+00 4.160890e+00 3.673914e+00 2.795182e+00 2.967319e+00 2.451594e+00 4.544576e+00
<GCONST> 1.088709e+02
<STATE> 3
<MEAN> 25
 5.912139e-01 -2.289519e-01 -1.136012e-02 -1.108066e-01 -1.174574e-01 5.225892e-01 -1.410672e-01 -5.037257e-01 -2.963046e-01 -1.317523e-01 -3.268119e-02 -2.024405e-01 1.311524e-02 1.016848e-03 4.551499e-03 -3.079167e-03 -5.118563e-03 8.863201e-03 -3.482359e-03 -8.134305e-03 -3.471842e-03 -7.095625e-04 -3.699785e-03 -6.460918e-03 1.910191e-02
<VARIANCE> 25
 6.394566e+01 5.409376e+01 6.647113e+01 6.050454e+01 6.324308e+01 5.853621e+01 5.837213e+01 6.581695e+01 5.891307e+01 3.813993e+01 4.243389e+01 3.812869e+01 2.445212e+00 2.674337e+00 2.849305e+00 3.288406e+00 3.356526e+00 3.106878e+00 3.306936e+00 4.166963e+00 3.682843e+00 2.797732e+00 2.972281e+00 2.451828e+00 4.539840e+00
<GCONST> 1.088864e+02
<STATE> 4
<MEAN> 25
 6.502572e-01 -2.559788e-01 2.296120e-02 -1.375442e-01 -1.524914e-01 5.179634e-01 -1.807232e-01 -5.154129e-01 -3.054439e-01 -1.383994e-01 -5.889005e-02 -2.370059e-01 1.137629e-02 5.827203e-04 4.916255e-03 -2.823170e-03 -5.201076e-03 7.245066e-03 -3.406356e-03 -6.231232e-03 -2.860742e-03 -4.256621e-04 -3.836767e-03 -6.007928e-03 1.741602e-02
<VARIANCE> 25
 6.361905e+01 5.375694e+01 6.664084e+01 6.038557e+01 6.284315e+01 5.793851e+01 5.790959e+01 6.431053e+01 5.843187e+01 3.775483e+01 4.213855e+01 3.760015e+01 2.377697e+00 2.615170e+00 2.804301e+00 3.223564e+00 3.283139e+00 3.045603e+00 3.239752e+00 4.048990e+00 3.615379e+00 2.755130e+00 2.922397e+00 2.406200e+00 4.405335e+00
<GCONST> 1.085115e+02
<TRANSP> 5
 0.000000e+00 1.000000e+00 0.000000e+00 0.000000e+00 0.000000e+00
 0.000000e+00 7.107396e-01 2.892604e-01 0.000000e+00 0.000000e+00
 0.000000e+00 0.000000e+00 7.107417e-01 2.892583e-01 0.000000e+00
 0.000000e+00 0.000000e+00 0.000000e+00 8.365601e-01 1.634399e-01
 0.000000e+00 0.000000e+00 0.000000e+00 0.000000e+00 0.000000e+00
<ENDHMM>
~h "N"
<BEGINHMM>
<NUMSTATES> 5
<STATE> 2
<MEAN> 25
 6.545717e-01 -2.055916e-01 4.237927e-01 1.616475e-01 -3.763080e-01 -8.908204e-03 -2.743644e-01 -3.158368e-01 -6.409721e-03 5.157116e-02 -4.276250e-01 -2.002431e-01 -3.113711e-03 3.953081e-03 -1.408903e-03 2.013518e-03 1.696402e-03 1.931059e-03 1.703781e-03 -3.763833e-03 -3.164682e-04 -1.651374e-03 -3.335599e-03 1.143950e-03 -5.062593e-03
<VARIANCE> 25
 6.213416e+01 5.610493e+01 6.867234e+01 5.865403e+01 6.395229e+01 5.506779e+01 5.825725e+01 6.613330e+01 5.598808e+01 3.837923e+01 4.413255e+01 3.772082e+01 2.500841e+00 2.840079e+00 2.923170e+00 3.214579e+00 3.477782e+00 3.141450e+00 3.401619e+00 4.402119e+00 3.553587e+00 2.913791e+00 2.967282e+00 2.449677e+00 4.864326e+00
<GCONST> 1.091189e+02
<STATE> 3
<MEAN> 25
 6.442843e-01 -1.914614e-01 4.181034e-01 1.679118e-01 -3.699103e-01 -2.340878e-03 -2.682821e-01 -3.281821e-01 -7.078246e-03 4.667636e-02 -4.386401e-01 -1.963940e-01 -4.365203e-03 4.522986e-03 -2.501652e-03 5.411592e-04 2.233348e-03 1.656924e-03 1.653920e-03 -3.038140e-03 -6.085507e-04 -1.582416e-03 -1.407696e-03 8.267860e-04 -5.981012e-03
<VARIANCE> 25
 6.223257e+01 5.611413e+01 6.852881e+01 5.850216e+01 6.395750e+01 5.497178e+01 5.827394e+01 6.609804e+01 5.590806e+01 3.836654e+01 4.410396e+01 3.765423e+01 2.506081e+00 2.841358e+00 2.919810e+00 3.207297e+00 3.477595e+00 3.139328e+00 3.400064e+00 4.398772e+00 3.551375e+00 2.913517e+00 2.965016e+00 2.446134e+00 4.863564e+00
<GCONST> 1.091040e+02
<STATE> 4
<MEAN> 25
 6.515307e-01 -1.839707e-01 4.177428e-01 1.438287e-01 -3.629369e-01 7.001378e-03 -2.909752e-01 -3.384859e-01 -9.371208e-03 4.323117e-02 -4.464732e-01 -2.096145e-01 -4.789220e-03 4.829735e-03 -3.781519e-03 -1.313224e-03 2.388058e-03 1.211367e-03 1.074597e-03 -2.253121e-03 -7.910687e-04 -1.134281e-03 3.666831e-04 1.896906e-04 -5.749597e-03
<VARIANCE> 25
 6.236411e+01 5.567288e+01 6.841249e+01 5.843089e+01 6.350101e+01 5.442139e+01 5.809087e+01 6.458205e+01 5.531292e+01 3.790630e+01 4.372890e+01 3.724674e+01 2.451455e+00 2.779159e+00 2.865581e+00 3.143864e+00 3.395577e+00 3.076269e+00 3.335880e+00 4.270270e+00 3.479078e+00 2.860741e+00 2.912620e+00 2.398625e+00 4.747046e+00
<GCONST> 1.087332e+02
<TRANSP> 5
 0.000000e+00 1.000000e+00 0.000000e+00 0.000000e+00 0.000000e+00
 0.000000e+00 7.083983e-01 2.916017e-01 0.000000e+00 0.000000e+00
 0.000000e+00 0.000000e+00 7.083963e-01 2.916038e-01 0.000000e+00
 0.000000e+00 0.000000e+00 0.000000e+00 8.334478e-01 1.665522e-01
 0.000000e+00 0.000000e+00 0.000000e+00 0.000000e+00 0.000000e+00
<ENDHMM>
~h "O"
<BEGINHMM>
<NUMSTATES> 5
<STATE> 2
<MEAN> 25
 6.258537e-01 1.182416e-01 -5.885425e-01 -1.176912e+00 -2.562214e-01 8.885449e-01 -2.980791e-01 -3.458481e-01 3.342896e-03 2.732179e-01 5.247769e-01 7.551523e-02 -1.791457e-03 4.842720e-03 -2.486092e-03 -1.704105e-03 2.780953e-03 6.579439e-03 4.931198e-03 -4.147844e-03 -1.401372e-03 5.703905e-04 3.309806e-03 -5.575058e-04 -6.225554e-03
<VARIANCE> 25
 6.900855e+01 5.199180e+01 7.047443e+01 7.442776e+01 6.490277e+01 6.316742e+01 6.135907e+01 6.022422e+01 5.470419e+01 3.947783e+01 4.467938e+01 3.703473e+01 2.727474e+00 2.629925e+00 2.980960e+00 3.591763e+00 3.589031e+00 3.382316e+00 3.411071e+00 3.916806e+00 3.503282e+00 2.918784e+00 2.965188e+00 2.416809e+00 4.963961e+00
<GCONST> 1.096463e+02
<STATE> 3
<MEAN> 25
 6.182290e-01 1.356787e-01 -5.954988e-01 -1.182342e+00 -2.457101e-01 9.111247e-01 -2.820127e-01 -3.600326e-01 -1.605513e-03 2.751524e-01 5.360672e-01 7.483444e-02 -4.176765e-03 5.274754e-03 -8.515308e-04 9.847126e-04 3.269827e-03 4.355558e-03 5.110478e-03 -3.559287e-03 -1.502100e-03 -2.654917e-05 2.463159e-03 -1.443153e-04 -9.341823e-03
<VARIANCE> 25
 6.900537e+01 5.181857e+01 7.059292e+01 7.442950e+01 6.490391e+01 6.311856e+01 6.138710e+01 6.011300e+01 5.460257e+01 3.949020e+01 4.473130e+01 3.691993e+01 2.722010e+00 2.619705e+00 2.980119e+00 3.587163e+00 3.582779e+00 3.376624e+00 3.407839e+00 3.903607e+00 3.499038e+00 2.914400e+00 2.963670e+00 2.411697e+00 4.946166e+00
<GCONST> 1.096148e+02
<STATE> 4
<MEAN> 25
 6.479344e-01 1.530408e-01 -5.486868e-01 -1.192786e+00 -2.669508e-01 9.193436e-01 -2.927248e-01 -3.804044e-01 -4.502218e-03 2.738635e-01 5.185699e-01 6.541908e-02 -6.444079e-03 5.405304e-03 7.799647e-04 3.081170e-03 3.856402e-03 2.023992e-03 5.244934e-03 -2.990950e-03 -1.321324e-03 -3.614453e-04 1.196967e-03 5.245655e-04 -1.203445e-02
<VARIANCE> 25
 6.893953e+01 5.131702e+01 7.058923e+01 7.499337e+01 6.431284e+01 6.229242e+01 6.115284e+01 5.903303e+01 5.408109e+01 3.905997e+01 4.428028e+01 3.650331e+01 2.649046e+00 2.559043e+00 2.924600e+00 3.526794e+00 3.489871e+00 3.298534e+00 3.338778e+00 3.803747e+00 3.429851e+00 2.857476e+00 2.907568e+00 2.369498e+00 4.788175e+00
<GCONST> 1.092340e+02
<TRANSP> 5
 0.000000e+00 1.000000e+00 0.000000e+00 0.000000e+00 0.000000e+00
 0.000000e+00 7.118594e-01 2.881406e-01 0.000000e+00 0.000000e+00
 0.000000e+00 0.000000e+00 7.118530e-01 2.881470e-01 0.000000e+00
 0.000000e+00 0.000000e+00 0.000000e+00 8.376517e-01 1.623483e-01
 0.000000e+00 0.000000e+00 0.000000e+00 0.000000e+00 0.000000e+00
<ENDHMM>
~h "P"
<BEGINHMM>
<NUMSTATES> 5
<STATE> 2
<MEAN> 25
 4.188313e-02 -1.381969e-02 -3.724403e-01 -1.560853e-01 6.067652e-02 9.147406e-02 3.858792e-02 2.588369e-02 1.345714e-02 8.748329e-02 1.725975e-01 -6.086039e-02 5.909097e-03 -4.134683e-05 1.232908e-03 -5.268090e-03 -2.294369e-03 6.725027e-03 6.030019e-04 -3.514390e-03 1.720059e-04 4.006119e-04 2.086815e-04 -4.871288e-03 1.235468e-02
<VARIANCE> 25
 6.481639e+01 5.552393e+01 6.523136e+01 6.027174e+01 6.253806e+01 5.622593e+01 5.657546e+01 5.977781e+01 5.373145e+01 3.633524e+01 4.069704e+01 3.802418e+01 2.681739e+00 2.867123e+00 2.775963e+00 3.270472e+00 3.469575e+00 3.266038e+00 3.320001e+00 3.882242e+00 3.426187e+00 2.815269e+00 2.888233e+00 2.465672e+00 5.990517e+00
<GCONST> 1.088741e+02
<STATE> 3
<MEAN> 25
 6.195125e-02 -1.508337e-02 -3.682625e-01 -1.723989e-01 5.159614e-02 1.106007e-01 4.352373e-02 1.651552e-02 1.530523e-02 8.880503e-02 1.732370e-01 -7.563811e-02 6.113801e-03 5.889791e-05 1.610928e-03 -4.817279e-03 -3.034839e-03 5.618345e-03 1.234139e-03 -2.680459e-03 2.775177e-04 4.066491e-04 -8.325201e-05 -4.349409e-03 1.252152e-02
<VARIANCE> 25
 6.480934e+01 5.557480e+01 6.531936e+01 6.026411e+01 6.261157e+01 5.629955e+01 5.655547e+01 5.979522e+01 5.370050e+01 3.639489e+01 4.078779e+01 3.799387e+01 2.690964e+00 2.873215e+00 2.779440e+00 3.280667e+00 3.473796e+00 3.275156e+00 3.322015e+00 3.883995e+00 3.425807e+00 2.817781e+00 2.894853e+00 2.470027e+00 6.025864e+00
<GCONST> 1.089068e+02
<STATE> 4
<MEAN> 25
 9.835710e-02 -2.090275e-02 -3.447431e-01 -1.782299e-01 3.514739e-02 1.240121e-01 6.160108e-02 1.382642e-02 2.300983e-02 9.005949e-02 1.670292e-01 -9.037430e-02 5.596600e-03 4.752092e-04 2.396377e-03 -3.271280e-03 -3.350593e-03 3.410274e-03 1.851529e-03 -2.071110e-03 5.817767e-04 4.025828e-04 -4.628238e-04 -2.907778e-03 1.095298e-02
<VARIANCE> 25
 6.449523e+01 5.521390e+01 6.518126e+01 6.069439e+01 6.237459e+01 5.590167e+01 5.636872e+01 5.878068e+01 5.303128e+01 3.607423e+01 4.045689e+01 3.773120e+01 2.619892e+00 2.810934e+00 2.726694e+00 3.234056e+00 3.395528e+00 3.211766e+00 3.247312e+00 3.797995e+00 3.352447e+00 2.771532e+00 2.841861e+00 2.429473e+00 5.859803e+00
<GCONST> 1.085618e+02
<TRANSP> 5
 0.000000e+00 1.000000e+00 0.000000e+00 0.000000e+00 0.000000e+00
 0.000000e+00 7.094547e-01 2.905453e-01 0.000000e+00 0.000000e+00
 0.000000e+00 0.000000e+00 7.094631e-01 2.905369e-01 0.000000e+00
 0.000000e+00 0.000000e+00 0.000000e+00 8.349184e-01 1.650816e-01
 0.000000e+00 0.000000e+00 0.000000e+00 0.000000e+00 0.000000e+00
<ENDHMM>
~h "Q"
<BEGINHMM>
<NUMSTATES> 5
<STATE> 2
<MEAN> 25
 -1.240425e+00 4.297234e-01 -1.011822e+00 -4.686351e-01 6.119788e-01 1.959495e-01 8.721923e-01 -3.970341e-01 1.147541e-01 3.145928e-01 5.019916e-01 1.489749e-02 5.365493e-03 2.715719e-02 -3.538769e-03 -1.025351e-02 1.787381e-02 2.016114e-02 1.495088e-02 9.597860e-03 -5.669257e-03 -1.584433e-02 -1.198724e-03 3.206091e-03 -7.556619e-02
<VARIANCE> 25
 6.275631e+01 5.017690e+01 6.765652e+01 6.943295e+01 6.400344e+01 4.987108e+01 5.374290e+01 5.072376e+01 5.612785e+01 3.531908e+01 3.866871e+01 3.531960e+01 2.359202e+00 2.516760e+00 2.768969e+00 2.909151e+00 3.253704e+00 2.853600e+00 2.952970e+00 3.300617e+00 3.083513e+00 2.652200e+00 2.619950e+00 2.170203e+00 4.869006e+00
<GCONST> 1.070423e+02
<STATE> 3
<MEAN> 25
 -1.218456e+00 5.358303e-01 -1.024246e+00 -5.104516e-01 6.772123e-01 2.718287e-01 9.354092e-01 -3.594278e-01 9.487625e-02 2.607184e-01 4.938560e-01 2.950234e-02 2.580726e-03 3.084441e-02 3.285416e-03 -1.851468e-03 1.284581e-02 1.526509e-02 1.496058e-02 1.091769e-02 -3.465957e-03 -1.424709e-02 -1.172318e-03 4.767227e-03 -7.910468e-02
<VARIANCE> 25
 6.220257e+01 4.975489e+01 6.703025e+01 6.974568e+01 6.309393e+01 4.901741e+01 5.312207e+01 4.989492e+01 5.495709e+01 3.529686e+01 3.841774e+01 3.479611e+01 2.316155e+00 2.439002e+00 2.726055e+00 2.912427e+00 3.208212e+00 2.806658e+00 2.880712e+00 3.239803e+00 3.022336e+00 2.617692e+00 2.575821e+00 2.123112e+00 4.741030e+00
<GCONST> 1.066803e+02
<STATE> 4
<MEAN> 25
 -1.151227e+00 6.336220e-01 -8.765440e-01 -5.214497e-01 6.067022e-01 4.313832e-01 1.041165e+00 -4.944273e-01 9.052712e-02 1.316553e-01 5.450671e-01 9.029426e-02 1.445357e-03 2.947665e-02 5.722633e-03 4.498981e-03 8.764979e-03 1.054264e-02 1.625727e-02 1.367157e-02 -2.356507e-03 -1.286222e-02 -8.941804e-06 9.131528e-03 -7.530203e-02
<VARIANCE> 25
 5.910344e+01 4.701503e+01 6.527327e+01 7.215210e+01 5.967436e+01 4.671988e+01 5.100470e+01 4.868541e+01 5.262852e+01 3.473633e+01 3.712931e+01 3.407743e+01 2.117340e+00 2.242722e+00 2.575946e+00 2.841652e+00 3.024313e+00 2.662980e+00 2.658207e+00 3.108247e+00 2.873271e+00 2.515494e+00 2.427893e+00 2.012977e+00 4.240506e+00
<GCONST> 1.054940e+02
<TRANSP> 5
 0.000000e+00 1.000000e+00 0.000000e+00 0.000000e+00 0.000000e+00
 0.000000e+00 7.322190e-01 2.677810e-01 0.000000e+00 0.000000e+00
 0.000000e+00 0.000000e+00 7.322188e-01 2.677811e-01 0.000000e+00
 0.000000e+00 0.000000e+00 0.000000e+00 8.663967e-01 1.336033e-01
 0.000000e+00 0.000000e+00 0.000000e+00 0.000000e+00 0.000000e+00
<ENDHMM>
~h "R"
<BEGINHMM>
<NUMSTATES> 5
<STATE> 2
<MEAN> 25
 4.241445e-01 -4.778139e-01 -1.964954e-01 -1.349047e-01 -1.555895e-01 -2.755183e-02 -3.025606e-01 1.298033e-01 2.920032e-01 1.285729e-01 4.073239e-02 -2.040655e-01 -1.050724e-03 4.476174e-03 7.257577e-04 1.070335e-03 1.749196e-03 6.125295e-04 2.208962e-03 -7.822254e-04 -6.281665e-04 -2.831446e-04 1.767086e-04 -7.335944e-04 -9.437987e-04
<VARIANCE> 25
 6.564082e+01 5.728907e+01 7.023353e+01 5.835813e+01 6.607973e+01 5.686531e+01 5.995979e+01 6.215993e+01 5.741437e+01 3.780812e+01 4.293315e+01 3.777797e+01 2.690092e+00 2.790550e+00 2.850063e+00 3.175699e+00 3.542469e+00 3.185297e+00 3.416280e+00 3.949662e+00 3.579897e+00 2.858797e+00 2.930103e+00 2.476478e+00 5.095370e+00
<GCONST> 1.092070e+02
<STATE> 3
<MEAN> 25
 4.204031e-01 -4.628468e-01 -1.943883e-01 -1.306659e-01 -1.482893e-01 -2.582738e-02 -2.945201e-01 1.267114e-01 2.900030e-01 1.273717e-01 4.069815e-02 -2.066255e-01 -2.461342e-03 5.781463e-03 6.897352e-04 1.668940e-03 2.397781e-03 3.112104e-04 2.924698e-03 -9.099414e-04 -1.191112e-03 -2.884771e-04 -9.432122e-05 -1.139286e-04 -4.144258e-03
<VARIANCE> 25
 6.577383e+01 5.731768e+01 7.038578e+01 5.822459e+01 6.611056e+01 5.684336e+01 6.000232e+01 6.206823e+01 5.746699e+01 3.774361e+01 4.295128e+01 3.775875e+01 2.690274e+00 2.786903e+00 2.848968e+00 3.170530e+00 3.538303e+00 3.180502e+00 3.415015e+00 3.941861e+00 3.580180e+00 2.854676e+00 2.927412e+00 2.473690e+00 5.087941e+00
<GCONST> 1.091946e+02
<STATE> 4
<MEAN> 25
 4.448965e-01 -4.521902e-01 -1.701682e-01 -1.522037e-01 -1.577596e-01 -1.592388e-02 -3.138306e-01 1.142988e-01 2.878141e-01 1.216667e-01 3.588169e-02 -2.202550e-01 -3.539622e-03 6.433812e-03 3.908776e-04 2.114392e-03 3.203187e-03 1.150536e-04 3.783048e-03 -9.701124e-04 -1.606821e-03 -3.445256e-04 -2.711710e-04 2.735303e-04 -7.451188e-03
<VARIANCE> 25
 6.584783e+01 5.710220e+01 7.057201e+01 5.844234e+01 6.577447e+01 5.636622e+01 5.995926e+01 6.095942e+01 5.714859e+01 3.729389e+01 4.255790e+01 3.740164e+01 2.625717e+00 2.730713e+00 2.804196e+00 3.121430e+00 3.457400e+00 3.114456e+00 3.354444e+00 3.844107e+00 3.518448e+00 2.802185e+00 2.871681e+00 2.428254e+00 4.949252e+00
<GCONST> 1.088653e+02
<TRANSP> 5
 0.000000e+00 1.000000e+00 0.000000e+00 0.000000e+00 0.000000e+00
 0.000000e+00 7.100103e-01 2.899897e-01 0.000000e+00 0.000000e+00
 0.000000e+00 0.000000e+00 7.100078e-01 2.899922e-01 0.000000e+00
 0.000000e+00 0.000000e+00 0.000000e+00 8.351586e-01 1.648414e-01
 0.000000e+00 0.000000e+00 0.000000e+00 0.000000e+00 0.000000e+00
<ENDHMM>
~h "S"
<BEGINHMM>
<NUMSTATES> 5
<STATE> 2
<MEAN> 25
 -1.249168e+00 2.518818e-01 -2.805294e-01 9.180813e-02 4.435813e-01 -4.109922e-01 2.350542e-01 3.781632e-01 1.268869e-01 5.341631e-02 1.246090e-01 2.605244e-01 -2.120106e-03 5.242344e-03 1.012148e-03 -3.498017e-03 5.637089e-03 3.903893e-03 -2.155137e-04 -3.374204e-03 2.633565e-03 1.905023e-03 -1.026531e-03 -4.053534e-03 1.858768e-03
<VARIANCE> 25
 8.776072e+01 5.669758e+01 6.890018e+01 5.686082e+01 6.578384e+01 5.489325e+01 6.149709e+01 6.080217e+01 5.429155e+01 3.611511e+01 4.066480e+01 3.754436e+01 3.769299e+00 2.911834e+00 2.875599e+00 3.045769e+00 3.501085e+00 3.086177e+00 3.482040e+00 3.954993e+00 3.412234e+00 2.759507e+00 2.808672e+00 2.448260e+00 4.515299e+00
<GCONST> 1.093092e+02
<STATE> 3
<MEAN> 25
 -1.255398e+00 2.690945e-01 -2.781367e-01 8.002152e-02 4.621629e-01 -3.967095e-01 2.328660e-01 3.663608e-01 1.362804e-01 5.964581e-02 1.202048e-01 2.460435e-01 5.582549e-04 4.697727e-03 4.093572e-04 -3.141501e-03 4.748153e-03 4.659005e-03 -5.552201e-04 -3.917275e-03 2.153941e-03 1.860655e-03 -1.492421e-03 -4.264861e-03 -9.815705e-04
<VARIANCE> 25
 8.775536e+01 5.673004e+01 6.897794e+01 5.667152e+01 6.582590e+01 5.483373e+01 6.147057e+01 6.067955e+01 5.427159e+01 3.605271e+01 4.062452e+01 3.741067e+01 3.784548e+00 2.913032e+00 2.875517e+00 3.038197e+00 3.499978e+00 3.081189e+00 3.484793e+00 3.944769e+00 3.410280e+00 2.753426e+00 2.805464e+00 2.442732e+00 4.514782e+00
<GCONST> 1.092898e+02
<STATE> 4
<MEAN> 25
 -1.204710e+00 2.790845e-01 -2.725158e-01 6.507606e-02 4.521854e-01 -3.605441e-01 2.166164e-01 3.338428e-01 1.600770e-01 6.755526e-02 1.259260e-01 2.169238e-01 2.682399e-03 3.432406e-03 -5.068863e-04 -2.275905e-03 3.235857e-03 4.496502e-03 -8.600231e-04 -3.415974e-03 1.386327e-03 1.194468e-03 -1.770669e-03 -3.610432e-03 -2.366164e-03
<VARIANCE> 25
 8.685725e+01 5.625106e+01 6.889843e+01 5.691063e+01 6.518561e+01 5.416961e+01 6.116341e+01 5.933376e+01 5.383243e+01 3.558591e+01 4.020979e+01 3.689615e+01 3.676534e+00 2.846727e+00 2.820692e+00 2.985938e+00 3.410684e+00 3.015296e+00 3.404422e+00 3.841546e+00 3.343196e+00 2.700716e+00 2.749846e+00 2.394887e+00 4.383316e+00
<GCONST> 1.088850e+02
<TRANSP> 5
 0.000000e+00 1.000000e+00 0.000000e+00 0.000000e+00 0.000000e+00
 0.000000e+00 7.113375e-01 2.886625e-01 0.000000e+00 0.000000e+00
 0.000000e+00 0.000000e+00 7.113375e-01 2.886625e-01 0.000000e+00
 0.000000e+00 0.000000e+00 0.000000e+00 8.369199e-01 1.630801e-01
 0.000000e+00 0.000000e+00 0.000000e+00 0.000000e+00 0.000000e+00
<ENDHMM>
~h "T"
<BEGINHMM>
<NUMSTATES> 5
<STATE> 2
<MEAN> 25
 1.655974e-01 -4.618161e-02 -2.836856e-01 -3.378975e-01 1.235967e-02 -1.663142e-01 -1.758596e-01 -8.038989e-02 1.054326e-01 1.737812e-01 -1.116212e-01 -1.906656e-01 -7.241983e-05 4.638183e-03 9.430649e-04 -4.742418e-04 1.149929e-03 1.733750e-03 8.612120e-04 -4.387336e-03 1.988340e-03 1.050876e-03 -7.716918e-04 -1.075708e-03 -5.919767e-03
<VARIANCE> 25
 6.257162e+01 5.600468e+01 6.784029e+01 5.943145e+01 6.212611e+01 5.613922e+01 5.856740e+01 5.996311e+01 5.582795e+01 3.698685e+01 4.168385e+01 3.734375e+01 2.787481e+00 2.920292e+00 2.877882e+00 3.214714e+00 3.480282e+00 3.238944e+00 3.480467e+00 3.951931e+00 3.533845e+00 2.834300e+00 2.888670e+00 2.500096e+00 6.251005e+00
<GCONST> 1.091941e+02
<STATE> 3
<MEAN> 25
 1.648091e-01 -3.019364e-02 -2.806805e-01 -3.398163e-01 1.603946e-02 -1.598928e-01 -1.722376e-01 -9.503894e-02 1.119980e-01 1.771116e-01 -1.144294e-01 -1.947808e-01 -4.790520e-04 4.755218e-03 1.374575e-03 1.767973e-04 1.066892e-03 1.938814e-03 1.009766e-03 -4.092764e-03 1.640295e-03 8.465900e-04 -3.580998e-04 -9.150096e-04 -6.641851e-03
<VARIANCE> 25
 6.245106e+01 5.594607e+01 6.787437e+01 5.935958e+01 6.209687e+01 5.605151e+01 5.854694e+01 5.987164e+01 5.579406e+01 3.694700e+01 4.171773e+01 3.728013e+01 2.785763e+00 2.919209e+00 2.879528e+00 3.212180e+00 3.477093e+00 3.237021e+00 3.482322e+00 3.945388e+00 3.532029e+00 2.832701e+00 2.888478e+00 2.499281e+00 6.275681e+00
<GCONST> 1.091825e+02
<STATE> 4
<MEAN> 25
 1.932333e-01 -2.237439e-02 -2.536444e-01 -3.557144e-01 -2.811344e-03 -1.432349e-01 -1.778257e-01 -1.211354e-01 1.179685e-01 1.754138e-01 -1.147076e-01 -2.143975e-01 -8.624143e-04 4.628483e-03 1.491556e-03 6.366689e-04 9.084045e-04 1.912431e-03 1.205380e-03 -3.599754e-03 1.245656e-03 4.067319e-04 5.012282e-06 -5.947461e-04 -6.589556e-03
<VARIANCE> 25
 6.226337e+01 5.553849e+01 6.789088e+01 5.952282e+01 6.175194e+01 5.544848e+01 5.832354e+01 5.857893e+01 5.531855e+01 3.647066e+01 4.145093e+01 3.686723e+01 2.712170e+00 2.858739e+00 2.832982e+00 3.154297e+00 3.397123e+00 3.168203e+00 3.409734e+00 3.835347e+00 3.461660e+00 2.779885e+00 2.839526e+00 2.455970e+00 6.126789e+00
<GCONST> 1.088203e+02
<TRANSP> 5
 0.000000e+00 1.000000e+00 0.000000e+00 0.000000e+00 0.000000e+00
 0.000000e+00 7.104090e-01 2.895910e-01 0.000000e+00 0.000000e+00
 0.000000e+00 0.000000e+00 7.104055e-01 2.895945e-01 0.000000e+00
 0.000000e+00 0.000000e+00 0.000000e+00 8.356755e-01 1.643244e-01
 0.000000e+00 0.000000e+00 0.000000e+00 0.000000e+00 0.000000e+00
<ENDHMM>
~h "U"
<BEGINHMM>
<NUMSTATES> 5
<STATE> 2
<MEAN> 25
 4.864970e-01 6.925143e-01 5.098632e-02 -4.179532e-01 -2.926639e-01 4.883671e-01 -7.256421e-01 -6.014392e-01 -3.696972e-01 3.581287e-02 2.300709e-01 1.332433e-01 3.062798e-03 7.297490e-03 1.487189e-03 -1.006257e-03 -1.451721e-03 8.014474e-03 -1.076961e-03 -7.121692e-03 -2.888457e-03 4.411286e-04 1.532523e-03 -6.853120e-04 2.348853e-03
<VARIANCE> 25
 6.778009e+01 5.551335e+01 6.486480e+01 6.169572e+01 6.466851e+01 5.730346e+01 6.406910e+01 6.467952e+01 5.662896e+01 3.804169e+01 4.279422e+01 3.723728e+01 2.797663e+00 2.762298e+00 2.823752e+00 3.375153e+00 3.585021e+00 3.304241e+00 3.603097e+00 4.061324e+00 3.558058e+00 2.908715e+00 2.986321e+00 2.483733e+00 4.918556e+00
<GCONST> 1.094587e+02
<STATE> 3
<MEAN> 25
 4.972826e-01 7.164411e-01 5.666737e-02 -4.221415e-01 -2.991610e-01 5.156326e-01 -7.298977e-01 -6.246678e-01 -3.795228e-01 3.658276e-02 2.354999e-01 1.311797e-01 2.124767e-03 6.234623e-03 1.659569e-03 -2.599689e-04 -9.651533e-04 6.995155e-03 -2.853557e-04 -6.358440e-03 -2.291707e-03 1.079555e-04 1.064261e-03 -1.055656e-03 1.371463e-03
<VARIANCE> 25
 6.781591e+01 5.545624e+01 6.487352e+01 6.174596e+01 6.480709e+01 5.728193e+01 6.413047e+01 6.473759e+01 5.663134e+01 3.806397e+01 4.286095e+01 3.721888e+01 2.801746e+00 2.761431e+00 2.824073e+00 3.379099e+00 3.590959e+00 3.304865e+00 3.607147e+00 4.063427e+00 3.560529e+00 2.914124e+00 2.990726e+00 2.484578e+00 4.920582e+00
<GCONST> 1.094751e+02
<STATE> 4
<MEAN> 25
 5.320722e-01 7.007936e-01 8.042007e-02 -4.511219e-01 -3.250934e-01 5.338970e-01 -7.380042e-01 -6.274175e-01 -3.855530e-01 4.207584e-02 2.390514e-01 1.046231e-01 1.464069e-03 4.864544e-03 1.504565e-03 -2.607855e-04 -9.576746e-04 5.991365e-03 8.126600e-05 -5.131877e-03 -1.422774e-03 -8.097273e-07 7.748340e-04 -1.181243e-03 9.515342e-04
<VARIANCE> 25
 6.782544e+01 5.498020e+01 6.488667e+01 6.186304e+01 6.445385e+01 5.669588e+01 6.386686e+01 6.353707e+01 5.629401e+01 3.772670e+01 4.266833e+01 3.686704e+01 2.740066e+00 2.703815e+00 2.777004e+00 3.318115e+00 3.509480e+00 3.234032e+00 3.534911e+00 3.964314e+00 3.501359e+00 2.870151e+00 2.945137e+00 2.443559e+00 4.793690e+00
<GCONST> 1.091433e+02
<TRANSP> 5
 0.000000e+00 1.000000e+00 0.000000e+00 0.000000e+00 0.000000e+00
 0.000000e+00 7.107794e-01 2.892207e-01 0.000000e+00 0.000000e+00
 0.000000e+00 0.000000e+00 7.107821e-01 2.892179e-01 0.000000e+00
 0.000000e+00 0.000000e+00 0.000000e+00 8.362284e-01 1.637716e-01
 0.000000e+00 0.000000e+00 0.000000e+00 0.000000e+00 0.000000e+00
<ENDHMM>
~h "V"
<BEGINHMM>
<NUMSTATES> 5
<STATE> 2
<MEAN> 25
 -8.959625e-01 -2.335032e-01 -7.502366e-02 1.114784e-01 -3.293155e-02 1.976944e-01 1.693744e-01 2.640093e-01 -5.273660e-02 -7.162766e-02 4.680788e-01 2.358528e-01 -6.764436e-03 1.110420e-02 7.150830e-03 -7.182902e-04 -1.034022e-02 8.585140e-04 8.446138e-04 -1.517382e-03 -3.167714e-03 4.118715e-03 7.770567e-03 2.527110e-03 2.684507e-02
<VARIANCE> 25
 7.466149e+01 5.303810e+01 7.395203e+01 6.192495e+01 6.684584e+01 5.785273e+01 5.680362e+01 5.784606e+01 5.149067e+01 3.589478e+01 4.049530e+01 3.764895e+01 3.445133e+00 2.664604e+00 2.925857e+00 3.253802e+00 3.638131e+00 3.214465e+00 3.269480e+00 3.708013e+00 3.213592e+00 2.727202e+00 2.776021e+00 2.429542e+00 4.501666e+00
<GCONST> 1.088779e+02
<STATE> 3
<MEAN> 25
 -9.183826e-01 -2.021828e-01 -4.905754e-02 1.076670e-01 -6.870468e-02 1.935361e-01 1.726422e-01 2.595880e-01 -6.257717e-02 -5.649221e-02 4.914078e-01 2.391594e-01 -6.049409e-03 1.109925e-02 7.162377e-03 -4.420571e-04 -1.076503e-02 -1.223433e-03 1.580062e-03 -3.945789e-03 -2.793543e-03 4.055145e-03 6.308820e-03 1.907470e-03 2.367489e-02
<VARIANCE> 25
 7.512135e+01 5.296351e+01 7.484160e+01 6.208065e+01 6.679233e+01 5.803857e+01 5.709758e+01 5.800761e+01 5.157028e+01 3.588588e+01 4.045187e+01 3.778547e+01 3.476602e+00 2.661356e+00 2.943392e+00 3.265889e+00 3.645062e+00 3.224234e+00 3.285549e+00 3.711305e+00 3.216832e+00 2.730730e+00 2.767573e+00 2.431257e+00 4.473377e+00
<GCONST> 1.089333e+02
<STATE> 4
<MEAN> 25
 -8.423930e-01 -2.136705e-01 8.784854e-03 3.674903e-02 -1.876901e-01 2.105795e-01 1.033963e-01 2.236806e-01 -7.799765e-02 9.057212e-04 4.857605e-01 1.796419e-01 -5.429998e-03 7.513636e-03 5.810132e-03 -1.575797e-03 -9.119018e-03 -3.725795e-03 3.485202e-03 -6.019982e-03 -2.350112e-03 4.730218e-03 3.079846e-03 -4.647945e-04 2.100523e-02
<VARIANCE> 25
 7.452810e+01 5.286863e+01 7.630401e+01 6.208722e+01 6.632465e+01 5.812925e+01 5.693592e+01 5.754646e+01 5.152632e+01 3.541427e+01 3.997169e+01 3.752975e+01 3.394351e+00 2.607922e+00 2.923337e+00 3.230725e+00 3.567042e+00 3.180824e+00 3.235201e+00 3.647431e+00 3.183000e+00 2.693715e+00 2.707116e+00 2.392464e+00 4.377828e+00
<GCONST> 1.086800e+02
<TRANSP> 5
 0.000000e+00 1.000000e+00 0.000000e+00 0.000000e+00 0.000000e+00
 0.000000e+00 7.127199e-01 2.872801e-01 0.000000e+00 0.000000e+00
 0.000000e+00 0.000000e+00 7.127210e-01 2.872790e-01 0.000000e+00
 0.000000e+00 0.000000e+00 0.000000e+00 8.380238e-01 1.619762e-01
 0.000000e+00 0.000000e+00 0.000000e+00 0.000000e+00 0.000000e+00
<ENDHMM>
~h "W"
<BEGINHMM>
<NUMSTATES> 5
<STATE> 2
<MEAN> 25
 7.790035e-01 -2.962863e-02 -1.405127e-01 -1.186693e+00 -3.348716e-01 6.489476e-01 -5.646047e-01 2.293154e-02 -7.618467e-02 1.682136e-01 3.143214e-01 -2.136534e-01 2.330399e-03 5.264822e-03 -1.064344e-02 -3.594987e-03 9.176626e-03 1.181307e-02 5.462467e-03 1.182000e-04 5.633644e-03 -2.392192e-04 1.319194e-03 -6.033122e-04 -7.260776e-03
<VARIANCE> 25
 6.738074e+01 5.684287e+01 7.085855e+01 7.553988e+01 6.567035e+01 6.435406e+01 5.834735e+01 5.867260e+01 5.618183e+01 3.798217e+01 4.443407e+01 3.841239e+01 2.507929e+00 2.773925e+00 2.740961e+00 3.234733e+00 3.502020e+00 3.223953e+00 3.317919e+00 3.766671e+00 3.378274e+00 2.770968e+00 2.907974e+00 2.521222e+00 4.471936e+00
<GCONST> 1.091765e+02
<STATE> 3
<MEAN> 25
 7.861375e-01 -1.427563e-02 -1.734739e-01 -1.197233e+00 -3.071001e-01 6.843349e-01 -5.433947e-01 2.664366e-02 -5.517356e-02 1.628258e-01 3.183115e-01 -2.112587e-01 3.510800e-04 5.133268e-03 -1.193212e-02 -2.596647e-03 9.477116e-03 1.043002e-02 7.073841e-03 9.475179e-04 6.989294e-03 -1.505745e-03 1.125588e-03 2.655040e-04 -1.103695e-02
<VARIANCE> 25
 6.726194e+01 5.657745e+01 7.061126e+01 7.588463e+01 6.560082e+01 6.436409e+01 5.856862e+01 5.867401e+01 5.596119e+01 3.796713e+01 4.450290e+01 3.844183e+01 2.497452e+00 2.765178e+00 2.729188e+00 3.231668e+00 3.494411e+00 3.218848e+00 3.315162e+00 3.763930e+00 3.368961e+00 2.766786e+00 2.904243e+00 2.517655e+00 4.449145e+00
<GCONST> 1.091420e+02
<STATE> 4
<MEAN> 25
 7.878391e-01 5.356932e-03 -1.827951e-01 -1.191312e+00 -2.797020e-01 7.014415e-01 -5.053660e-01 2.697351e-02 -3.273918e-02 1.537652e-01 2.961634e-01 -1.927183e-01 -1.876421e-03 5.393580e-03 -1.170350e-02 -4.734763e-04 9.298337e-03 7.924828e-03 7.865898e-03 2.316181e-04 6.942625e-03 -2.624072e-03 9.568504e-04 1.629894e-03 -1.682335e-02
<VARIANCE> 25
 6.735883e+01 5.578388e+01 7.008109e+01 7.634765e+01 6.456623e+01 6.308428e+01 5.837459e+01 5.751245e+01 5.529725e+01 3.746112e+01 4.375647e+01 3.802578e+01 2.410221e+00 2.679789e+00 2.659578e+00 3.160791e+00 3.387302e+00 3.121139e+00 3.226717e+00 3.660514e+00 3.284431e+00 2.706907e+00 2.835285e+00 2.449009e+00 4.271241e+00
<GCONST> 1.086439e+02
<TRANSP> 5
 0.000000e+00 1.000000e+00 0.000000e+00 0.000000e+00 0.000000e+00
 0.000000e+00 7.136931e-01 2.863069e-01 0.000000e+00 0.000000e+00
 0.000000e+00 0.000000e+00 7.136922e-01 2.863078e-01 0.000000e+00
 0.000000e+00 0.000000e+00 0.000000e+00 8.407556e-01 1.592444e-01
 0.000000e+00 0.000000e+00 0.000000e+00 0.000000e+00 0.000000e+00
<ENDHMM>
~h "X"
<BEGINHMM>
<NUMSTATES> 5
<STATE> 2
<MEAN> 25
 -3.131092e+00 6.963100e-01 -2.984855e-01 1.579853e+00 3.108475e-01 -1.435972e+00 1.915569e+00 1.788624e+00 -6.657068e-01 -7.926096e-01 1.176159e+00 -6.360576e-01 -1.660965e-02 -3.654585e-02 3.772788e-02 -1.833000e-02 2.084489e-02 -3.507870e-02 -7.244946e-03 2.718280e-02 1.399983e-02 -1.943545e-02 -5.742267e-03 2.102977e-02 4.976224e-02
<VARIANCE> 25
 4.244901e+01 3.861081e+01 5.740957e+01 4.652065e+01 5.581464e+01 3.978238e+01 3.691937e+01 4.934049e+01 3.775636e+01 2.859619e+01 3.361535e+01 2.700888e+01 1.186472e+00 1.748317e+00 2.515882e+00 2.401681e+00 2.558631e+00 1.995381e+00 2.232205e+00 3.151183e+00 2.685569e+00 1.966166e+00 2.736524e+00 2.302763e+00 4.872185e+00
<GCONST> 1.014452e+02
<STATE> 3
<MEAN> 25
 -3.139190e+00 5.222541e-01 -1.506063e-01 1.444088e+00 4.389886e-01 -1.523036e+00 1.880874e+00 1.889074e+00 -5.873302e-01 -8.525597e-01 1.154353e+00 -5.514947e-01 -8.072655e-03 -4.069111e-02 3.765594e-02 -3.097932e-02 2.708413e-02 -3.051172e-02 -8.911884e-03 3.041246e-02 2.087164e-02 -2.070295e-02 -5.306518e-03 2.600924e-02 5.972978e-02
<VARIANCE> 25
 4.392666e+01 4.154344e+01 5.707044e+01 4.969102e+01 5.820776e+01 4.017561e+01 3.709949e+01 4.934586e+01 3.869025e+01 2.897316e+01 3.398315e+01 2.705889e+01 1.258716e+00 1.832593e+00 2.559281e+00 2.502072e+00 2.669963e+00 2.037082e+00 2.266195e+00 3.123830e+00 2.664150e+00 2.012871e+00 2.784437e+00 2.276348e+00 5.037715e+00
<GCONST> 1.020083e+02
<STATE> 4
<MEAN> 25
 -3.224619e+00 9.776739e-02 -7.704324e-02 1.249056e+00 1.101343e+00 -1.682088e+00 1.834950e+00 2.013401e+00 -1.837432e-01 -9.990789e-01 1.127968e+00 -3.171549e-01 1.664664e-02 -5.447518e-02 3.428586e-02 -6.201373e-02 4.432844e-02 -1.435911e-02 -1.592403e-02 2.995489e-02 3.297936e-02 -1.587158e-02 -4.969191e-03 2.738340e-02 9.161622e-02
<VARIANCE> 25
 4.272000e+01 4.872892e+01 5.354255e+01 5.603520e+01 5.885181e+01 3.956556e+01 3.491289e+01 4.945369e+01 3.876785e+01 2.837226e+01 3.111418e+01 2.523419e+01 1.257177e+00 1.952755e+00 2.385412e+00 2.585117e+00 2.645833e+00 2.025503e+00 2.266455e+00 2.834946e+00 2.479593e+00 2.081323e+00 2.700782e+00 2.114029e+00 4.824192e+00
<GCONST> 1.016832e+02
<TRANSP> 5
 0.000000e+00 1.000000e+00 0.000000e+00 0.000000e+00 0.000000e+00
 0.000000e+00 7.236151e-01 2.763850e-01 0.000000e+00 0.000000e+00
 0.000000e+00 0.000000e+00 7.236151e-01 2.763850e-01 0.000000e+00
 0.000000e+00 0.000000e+00 0.000000e+00 8.502772e-01 1.497227e-01
 0.000000e+00 0.000000e+00 0.000000e+00 0.000000e+00 0.000000e+00
<ENDHMM>
~h "Y"
<BEGINHMM>
<NUMSTATES> 5
<STATE> 2
<MEAN> 25
 -8.973171e-02 -4.040395e-01 3.248205e-01 -3.473041e-01 -4.911292e-01 -3.358698e-01 -3.332249e-02 5.660767e-01 -7.673313e-02 -1.163013e-01 1.961991e-01 6.715448e-02 4.002033e-03 2.537211e-03 1.084911e-02 -3.743813e-03 -7.513592e-03 -3.629127e-03 -1.685686e-03 3.130473e-03 -2.940188e-03 -3.798354e-03 -1.678651e-03 -1.788134e-03 1.630637e-02
<VARIANCE> 25
 6.210495e+01 5.546935e+01 7.754192e+01 5.705162e+01 6.849065e+01 5.473655e+01 5.854879e+01 6.241494e+01 5.556974e+01 3.812247e+01 4.319521e+01 3.830955e+01 2.403673e+00 2.648917e+00 3.065308e+00 2.879498e+00 3.376655e+00 2.991938e+00 3.190040e+00 3.924973e+00 3.412448e+00 2.782701e+00 2.877304e+00 2.390840e+00 4.294139e+00
<GCONST> 1.084949e+02
<STATE> 3
<MEAN> 25
 -7.664633e-02 -3.972683e-01 3.616279e-01 -3.634868e-01 -5.169964e-01 -3.501500e-01 -4.032041e-02 5.753420e-01 -8.503095e-02 -1.250475e-01 1.899493e-01 5.932505e-02 3.552589e-03 3.441330e-03 9.869166e-03 -3.389176e-03 -6.601649e-03 -3.448494e-03 -1.791331e-03 9.577208e-04 -2.351022e-03 -2.577021e-03 -2.495224e-03 -2.377333e-03 1.376581e-02
<VARIANCE> 25
 6.203336e+01 5.550550e+01 7.779330e+01 5.697414e+01 6.864611e+01 5.466312e+01 5.854882e+01 6.254247e+01 5.570000e+01 3.813400e+01 4.328491e+01 3.824513e+01 2.406945e+00 2.650084e+00 3.082885e+00 2.874245e+00 3.382124e+00 2.989866e+00 3.188963e+00 3.933420e+00 3.417094e+00 2.783300e+00 2.881639e+00 2.392140e+00 4.269671e+00
<GCONST> 1.085086e+02
<STATE> 4
<MEAN> 25
 -8.176093e-02 -3.518458e-01 3.963393e-01 -3.484770e-01 -5.027425e-01 -3.373535e-01 -1.872072e-02 5.423555e-01 -8.306888e-02 -1.005460e-01 1.692898e-01 7.220431e-02 3.234189e-03 3.233199e-03 8.453507e-03 -4.006956e-03 -5.664250e-03 -3.000961e-03 -2.977612e-03 -6.800446e-04 -7.967053e-04 -3.613261e-04 -3.836041e-03 -2.660343e-03 1.170641e-02
<VARIANCE> 25
 6.155124e+01 5.490437e+01 7.756331e+01 5.701272e+01 6.782252e+01 5.380815e+01 5.838288e+01 6.107679e+01 5.515675e+01 3.749747e+01 4.267074e+01 3.783337e+01 2.330914e+00 2.577692e+00 3.017892e+00 2.810288e+00 3.290398e+00 2.923804e+00 3.115378e+00 3.819326e+00 3.337747e+00 2.729416e+00 2.820149e+00 2.339273e+00 4.089165e+00
<GCONST> 1.080451e+02
<TRANSP> 5
 0.000000e+00 1.000000e+00 0.000000e+00 0.000000e+00 0.000000e+00
 0.000000e+00 7.159991e-01 2.840010e-01 0.000000e+00 0.000000e+00
 0.000000e+00 0.000000e+00 7.160020e-01 2.839980e-01 0.000000e+00
 0.000000e+00 0.000000e+00 0.000000e+00 8.433647e-01 1.566352e-01
 0.000000e+00 0.000000e+00 0.000000e+00 0.000000e+00 0.000000e+00
<ENDHMM>
~h "Z"
<BEGINHMM>
<NUMSTATES> 5
<STATE> 2
<MEAN> 25
 -9.202359e-01 7.443719e-01 4.688150e-01 7.948598e-01 3.068751e-01 -4.905681e-01 9.421532e-02 1.304851e-01 8.320142e-02 -9.549054e-02 5.186046e-02 5.744876e-01 -2.846800e-03 -1.928898e-03 3.317440e-04 6.000970e-03 6.110711e-03 5.239513e-03 6.134492e-03 -7.273836e-03 -2.539697e-03 1.344353e-04 -9.167510e-03 1.456056e-04 -1.639720e-02
<VARIANCE> 25
 6.280304e+01 6.278587e+01 6.737877e+01 5.868972e+01 6.628455e+01 5.426622e+01 5.814952e+01 6.047874e+01 5.401177e+01 3.529067e+01 3.879874e+01 3.539935e+01 2.357373e+00 2.619268e+00 2.421662e+00 2.807059e+00 3.130042e+00 2.825626e+00 2.976013e+00 3.554524e+00 3.038430e+00 2.453010e+00 2.518026e+00 2.163593e+00 3.515142e+00
<GCONST> 1.068769e+02
<STATE> 3
<MEAN> 25
 -9.366306e-01 7.420334e-01 4.690326e-01 8.177904e-01 3.285283e-01 -4.761735e-01 1.143121e-01 1.046329e-01 7.623562e-02 -9.524316e-02 2.002142e-02 5.796114e-01 -4.011380e-03 -1.566072e-03 -5.262965e-03 5.863829e-03 7.053206e-03 5.649437e-03 8.401541e-03 -7.722794e-03 -2.072665e-03 -1.797508e-03 -1.078858e-02 -2.624548e-04 -2.393983e-02
<VARIANCE> 25
 6.254096e+01 6.246478e+01 6.718079e+01 5.837141e+01 6.617285e+01 5.406945e+01 5.832169e+01 6.042813e+01 5.409311e+01 3.526341e+01 3.867543e+01 3.505800e+01 2.339772e+00 2.600515e+00 2.415969e+00 2.794069e+00 3.120819e+00 2.809846e+00 2.961180e+00 3.540953e+00 3.030994e+00 2.446534e+00 2.502573e+00 2.152671e+00 3.486651e+00
<GCONST> 1.067804e+02
<STATE> 4
<MEAN> 25
 -8.740637e-01 7.174420e-01 4.558376e-01 7.632502e-01 3.203466e-01 -4.963198e-01 5.315236e-02 6.964181e-02 9.394862e-02 -5.574219e-02 -4.453008e-02 5.475997e-01 -5.660001e-03 -1.954662e-04 -8.041771e-03 4.805201e-03 8.178230e-03 5.859094e-03 8.952362e-03 -6.568306e-03 -1.680081e-04 -2.499500e-03 -9.405429e-03 2.129736e-04 -3.075754e-02
<VARIANCE> 25
 6.232541e+01 6.155079e+01 6.684521e+01 5.800476e+01 6.588396e+01 5.283241e+01 5.844715e+01 5.909068e+01 5.397642e+01 3.500498e+01 3.846177e+01 3.438936e+01 2.275151e+00 2.537028e+00 2.367162e+00 2.735953e+00 3.056633e+00 2.742673e+00 2.916760e+00 3.443494e+00 2.977062e+00 2.401729e+00 2.455038e+00 2.112231e+00 3.356625e+00
<GCONST> 1.063741e+02
<TRANSP> 5
 0.000000e+00 1.000000e+00 0.000000e+00 0.000000e+00 0.000000e+00
 0.000000e+00 7.258254e-01 2.741745e-01 0.000000e+00 0.000000e+00
 0.000000e+00 0.000000e+00 7.258267e-01 2.741733e-01 0.000000e+00
 0.000000e+00 0.000000e+00 0.000000e+00 8.548512e-01 1.451488e-01
 0.000000e+00 0.000000e+00 0.000000e+00 0.000000e+00 0.000000e+00
<ENDHMM>
~h "e"
<BEGINHMM>
<NUMSTATES> 5
<STATE> 2
<MEAN> 25
 3.178143e-01 -1.210657e-01 -5.486064e-02 -4.341628e-03 -1.654021e-01 -1.145848e-01 -4.420062e-01 -1.461145e-01 1.056604e-01 1.647156e-01 1.080370e-02 -1.465280e-01 1.467209e-02 -7.255746e-04 1.356629e-03 -4.453097e-03 -1.520821e-03 4.657364e-03 -4.139203e-03 -4.606334e-03 1.542757e-03 4.086532e-03 -2.267986e-03 -6.006862e-03 2.287162e-02
<VARIANCE> 25
 6.676775e+01 5.457954e+01 6.545027e+01 5.868317e+01 6.261264e+01 5.639058e+01 6.135241e+01 6.357521e+01 5.724864e+01 3.825604e+01 4.198784e+01 3.801466e+01 2.776694e+00 2.838018e+00 2.847243e+00 3.219558e+00 3.483540e+00 3.190855e+00 3.518044e+00 4.125017e+00 3.632798e+00 2.873729e+00 2.962547e+00 2.507744e+00 5.256626e+00
<GCONST> 1.092802e+02
<STATE> 3
<MEAN> 25
 3.667096e-01 -1.243253e-01 -4.986675e-02 -1.860833e-02 -1.716866e-01 -1.007892e-01 -4.570021e-01 -1.588045e-01 1.099843e-01 1.760764e-01 3.915805e-03 -1.657341e-01 1.404155e-02 -7.438633e-04 1.311602e-03 -4.017657e-03 -1.511708e-03 4.551641e-03 -3.132246e-03 -3.422403e-03 1.006125e-03 2.804564e-03 -2.044388e-03 -5.332334e-03 2.171350e-02
<VARIANCE> 25
 6.672073e+01 5.465423e+01 6.552502e+01 5.874536e+01 6.263182e+01 5.651880e+01 6.146768e+01 6.372770e+01 5.739653e+01 3.836278e+01 4.207415e+01 3.805561e+01 2.780584e+00 2.845298e+00 2.854779e+00 3.230375e+00 3.489017e+00 3.199234e+00 3.526432e+00 4.132488e+00 3.643284e+00 2.880028e+00 2.969217e+00 2.513232e+00 5.279258e+00
<GCONST> 1.093306e+02
<STATE> 4
<MEAN> 25
 4.385856e-01 -1.367116e-01 -3.239362e-02 -5.541329e-02 -1.856391e-01 -8.621299e-02 -4.990793e-01 -1.630837e-01 1.132930e-01 1.804820e-01 -3.834743e-03 -1.996409e-01 1.289845e-02 -8.953396e-04 1.498943e-03 -3.850316e-03 -1.633699e-03 4.045643e-03 -2.829032e-03 -2.151016e-03 4.411596e-04 1.573637e-03 -1.804000e-03 -4.853489e-03 2.087669e-02
<VARIANCE> 25
 6.653045e+01 5.437429e+01 6.571878e+01 5.910508e+01 6.231029e+01 5.615906e+01 6.164061e+01 6.265297e+01 5.711712e+01 3.816785e+01 4.189563e+01 3.784533e+01 2.713516e+00 2.791954e+00 2.814780e+00 3.188242e+00 3.419359e+00 3.147552e+00 3.466398e+00 4.035669e+00 3.582972e+00 2.843517e+00 2.924345e+00 2.478298e+00 5.148405e+00
<GCONST> 1.090545e+02
<TRANSP> 5
 0.000000e+00 1.000000e+00 0.000000e+00 0.000000e+00 0.000000e+00
 0.000000e+00 7.078320e-01 2.921680e-01 0.000000e+00 0.000000e+00
 0.000000e+00 0.000000e+00 7.078298e-01 2.921702e-01 0.000000e+00
 0.000000e+00 0.000000e+00 0.000000e+00 8.326330e-01 1.673670e-01
 0.000000e+00 0.000000e+00 0.000000e+00 0.000000e+00 0.000000e+00
<ENDHMM>
~h "AI"
<BEGINHMM>
<NUMSTATES> 5
<STATE> 2
<MEAN> 25
 3.024871e-01 -1.674348e-01 6.024860e-01 -5.065947e-01 -7.694812e-01 -3.897967e-01 -4.820002e-01 2.928785e-01 -1.295131e-01 2.488769e-01 2.434304e-01 -2.802185e-01 9.278289e-03 1.100968e-03 7.845836e-03 -4.284196e-03 -3.129216e-03 2.118952e-03 -7.209721e-03 -2.506995e-03 -4.104092e-03 5.855096e-03 -6.851263e-04 -8.838444e-03 2.060569e-02
<VARIANCE> 25
 6.673598e+01 5.821806e+01 7.207343e+01 5.834751e+01 6.836534e+01 5.842343e+01 5.873893e+01 6.470735e+01 5.799273e+01 3.806736e+01 4.201135e+01 3.728413e+01 2.810988e+00 2.938472e+00 2.875884e+00 3.176176e+00 3.537241e+00 3.201949e+00 3.413254e+00 4.145002e+00 3.639260e+00 2.848489e+00 2.978825e+00 2.515871e+00 4.781332e+00
<GCONST> 1.094653e+02
<STATE> 3
<MEAN> 25
 3.340061e-01 -1.665054e-01 6.309924e-01 -5.218145e-01 -7.856102e-01 -3.836687e-01 -5.037940e-01 2.840886e-01 -1.412613e-01 2.685711e-01 2.404894e-01 -3.091228e-01 8.766912e-03 1.618297e-04 6.223839e-03 -4.365849e-03 -3.594461e-03 2.035958e-03 -7.313469e-03 -3.552127e-03 -2.797890e-03 4.847069e-03 -1.254943e-03 -8.929552e-03 2.179438e-02
<VARIANCE> 25
 6.664240e+01 5.824357e+01 7.193302e+01 5.833046e+01 6.861389e+01 5.867940e+01 5.880925e+01 6.485281e+01 5.788088e+01 3.806606e+01 4.206432e+01 3.720266e+01 2.816958e+00 2.946279e+00 2.897443e+00 3.185236e+00 3.560193e+00 3.213507e+00 3.415382e+00 4.153111e+00 3.639731e+00 2.853491e+00 2.984500e+00 2.517542e+00 4.814342e+00
<GCONST> 1.095097e+02
<STATE> 4
<MEAN> 25
 3.893325e-01 -1.734824e-01 6.929009e-01 -5.315233e-01 -8.260480e-01 -3.593146e-01 -5.073144e-01 2.344387e-01 -1.373371e-01 2.756364e-01 2.073046e-01 -3.719620e-01 8.057094e-03 -2.326879e-03 4.770225e-03 -4.993861e-03 -5.085498e-03 1.552065e-03 -6.792431e-03 -4.842251e-03 -1.785615e-03 2.989893e-03 -1.772183e-03 -7.877385e-03 2.300890e-02
<VARIANCE> 25
 6.604350e+01 5.773260e+01 7.186921e+01 5.834855e+01 6.821610e+01 5.830179e+01 5.871273e+01 6.387730e+01 5.716421e+01 3.761376e+01 4.170540e+01 3.652257e+01 2.730727e+00 2.876663e+00 2.860466e+00 3.121790e+00 3.491086e+00 3.153839e+00 3.337277e+00 4.041888e+00 3.549443e+00 2.804784e+00 2.928977e+00 2.460751e+00 4.705361e+00
<GCONST> 1.091274e+02
<TRANSP> 5
 0.000000e+00 1.000000e+00 0.000000e+00 0.000000e+00 0.000000e+00
 0.000000e+00 7.157249e-01 2.842751e-01 0.000000e+00 0.000000e+00
 0.000000e+00 0.000000e+00 7.157213e-01 2.842787e-01 0.000000e+00
 0.000000e+00 0.000000e+00 0.000000e+00 8.422616e-01 1.577385e-01
 0.000000e+00 0.000000e+00 0.000000e+00 0.000000e+00 0.000000e+00
<ENDHMM>
~h "AU"
<BEGINHMM>
<NUMSTATES> 5
<STATE> 2
<MEAN> 25
 2.964389e-01 -1.447066e-01 -1.018648e+00 -1.383962e+00 2.635387e-01 8.221474e-01 -2.620355e-02 -2.025356e-01 3.510159e-01 -5.786400e-03 2.642045e-01 6.181848e-02 7.692044e-03 8.594831e-03 -3.852045e-03 -1.013332e-02 -5.538334e-03 9.361763e-03 -3.457249e-03 -1.538196e-03 4.545632e-03 4.360290e-03 1.770380e-03 -5.530271e-03 1.031489e-02
<VARIANCE> 25
 6.123648e+01 5.481340e+01 6.508233e+01 7.625256e+01 6.207198e+01 6.482499e+01 5.714827e+01 5.838692e+01 5.397986e+01 3.850589e+01 4.267526e+01 4.067179e+01 2.306207e+00 2.700724e+00 2.569927e+00 3.305232e+00 3.215865e+00 3.259320e+00 3.179363e+00 3.710096e+00 3.294834e+00 2.809850e+00 2.783998e+00 2.532227e+00 5.005297e+00
<GCONST> 1.086614e+02
<STATE> 3
<MEAN> 25
 3.247387e-01 -1.182293e-01 -1.029256e+00 -1.420600e+00 2.416078e-01 8.569649e-01 -4.024144e-02 -2.119968e-01 3.717460e-01 1.373398e-02 2.685452e-01 3.721725e-02 7.038120e-03 8.643470e-03 1.138305e-04 -7.884478e-03 -5.610452e-03 8.193266e-03 -3.851687e-03 -1.967590e-03 4.823887e-03 5.409708e-03 3.218580e-04 -6.619853e-03 1.054231e-02
<VARIANCE> 25
 6.134147e+01 5.472047e+01 6.524370e+01 7.665253e+01 6.216126e+01 6.492634e+01 5.719932e+01 5.811806e+01 5.412855e+01 3.842467e+01 4.276840e+01 4.063381e+01 2.308858e+00 2.701203e+00 2.574678e+00 3.307732e+00 3.227854e+00 3.260738e+00 3.186104e+00 3.693903e+00 3.289293e+00 2.803369e+00 2.792873e+00 2.529040e+00 5.027400e+00
<GCONST> 1.086785e+02
<STATE> 4
<MEAN> 25
 3.570284e-01 -8.644871e-02 -9.751845e-01 -1.416147e+00 1.566935e-01 8.656678e-01 -7.212238e-02 -2.439557e-01 4.118341e-01 5.936154e-02 2.663845e-01 -1.793379e-02 6.683596e-03 6.144606e-03 2.525442e-03 -5.924324e-03 -5.478178e-03 7.984729e-03 -3.819973e-03 -2.519760e-03 6.569585e-03 6.810615e-03 -1.309252e-03 -8.249128e-03 1.468305e-02
<VARIANCE> 25
 6.179038e+01 5.422041e+01 6.563642e+01 7.619704e+01 6.190165e+01 6.436920e+01 5.728677e+01 5.687325e+01 5.413643e+01 3.770711e+01 4.215077e+01 4.035291e+01 2.260424e+00 2.646944e+00 2.540315e+00 3.222061e+00 3.181875e+00 3.188886e+00 3.132819e+00 3.594081e+00 3.223253e+00 2.744621e+00 2.744948e+00 2.479960e+00 4.923467e+00
<GCONST> 1.083422e+02
<TRANSP> 5
 0.000000e+00 1.000000e+00 0.000000e+00 0.000000e+00 0.000000e+00
 0.000000e+00 7.170966e-01 2.829034e-01 0.000000e+00 0.000000e+00
 0.000000e+00 0.000000e+00 7.170954e-01 2.829045e-01 0.000000e+00
 0.000000e+00 0.000000e+00 0.000000e+00 8.432063e-01 1.567937e-01
 0.000000e+00 0.000000e+00 0.000000e+00 0.000000e+00 0.000000e+00
<ENDHMM>
~h "NG"
<BEGINHMM>
<NUMSTATES> 5
<STATE> 2
<MEAN> 25
 1.005575e+00 -1.930139e-01 2.001318e-01 -4.394403e-01 -5.371858e-01 4.368374e-01 -2.145391e-01 -3.630684e-01 -1.196900e-01 7.255186e-02 -2.480668e-01 -4.565122e-01 5.717661e-03 1.328360e-03 4.285764e-03 -2.150019e-03 -5.729046e-03 1.557527e-03 -5.416948e-04 -2.527049e-03 -4.334457e-03 1.276090e-03 -4.677030e-03 -1.940912e-03 6.793199e-03
<VARIANCE> 25
 6.237482e+01 5.543754e+01 6.852678e+01 6.074160e+01 6.569280e+01 5.606459e+01 5.931337e+01 6.478816e+01 5.799549e+01 3.908341e+01 4.370459e+01 3.921084e+01 2.474838e+00 2.767787e+00 2.981636e+00 3.222260e+00 3.587479e+00 3.123676e+00 3.409619e+00 4.214962e+00 3.612037e+00 2.894990e+00 2.991479e+00 2.531055e+00 4.726604e+00
<GCONST> 1.092604e+02
<STATE> 3
<MEAN> 25
 1.024461e+00 -1.900006e-01 2.120657e-01 -4.490252e-01 -5.561737e-01 4.416009e-01 -2.180382e-01 -3.704120e-01 -1.331653e-01 7.617326e-02 -2.628798e-01 -4.652354e-01 3.797672e-03 1.202169e-03 3.205710e-03 -2.723306e-03 -5.495552e-03 3.947674e-05 -1.375827e-03 -1.744131e-03 -4.476432e-03 1.359103e-03 -3.342293e-03 -2.083285e-03 5.742155e-03
<VARIANCE> 25
 6.214741e+01 5.540814e+01 6.858117e+01 6.069494e+01 6.581635e+01 5.603819e+01 5.921599e+01 6.478311e+01 5.800586e+01 3.914278e+01 4.370538e+01 3.917118e+01 2.467354e+00 2.765382e+00 2.985667e+00 3.219406e+00 3.598029e+00 3.127865e+00 3.406273e+00 4.219722e+00 3.611970e+00 2.896459e+00 2.993130e+00 2.531047e+00 4.721050e+00
<GCONST> 1.092576e+02
<STATE> 4
<MEAN> 25
 1.049138e+00 -2.068058e-01 2.319345e-01 -4.918614e-01 -5.710738e-01 4.305580e-01 -2.594890e-01 -3.601059e-01 -1.400247e-01 7.363014e-02 -2.769806e-01 -4.928841e-01 2.699524e-03 8.095117e-04 1.415406e-03 -3.456281e-03 -4.983244e-03 -1.326636e-03 -2.194837e-03 -1.255440e-03 -4.061909e-03 1.058339e-03 -2.323794e-03 -2.936728e-03 6.151701e-03
<VARIANCE> 25
 6.219897e+01 5.511536e+01 6.862491e+01 6.092341e+01 6.555367e+01 5.576463e+01 5.925297e+01 6.324576e+01 5.752288e+01 3.881590e+01 4.337043e+01 3.881282e+01 2.413265e+00 2.709972e+00 2.941130e+00 3.162765e+00 3.535264e+00 3.079532e+00 3.347767e+00 4.109048e+00 3.549484e+00 2.850394e+00 2.945934e+00 2.490457e+00 4.620411e+00
<GCONST> 1.089522e+02
<TRANSP> 5
 0.000000e+00 1.000000e+00 0.000000e+00 0.000000e+00 0.000000e+00
 0.000000e+00 7.087371e-01 2.912630e-01 0.000000e+00 0.000000e+00
 0.000000e+00 0.000000e+00 7.087357e-01 2.912643e-01 0.000000e+00
 0.000000e+00 0.000000e+00 0.000000e+00 8.334609e-01 1.665391e-01
 0.000000e+00 0.000000e+00 0.000000e+00 0.000000e+00 0.000000e+00
<ENDHMM>
~h "NY"
<BEGINHMM>
<NUMSTATES> 5
<STATE> 2
<MEAN> 25
 2.880808e-01 -2.401848e-01 4.076595e-01 2.691862e-01 1.573423e-01 -1.279141e-01 3.644444e-01 6.964890e-01 -3.676368e-01 -5.474557e-01 -2.385448e-01 7.519020e-02 -4.465912e-03 3.893785e-03 -7.608631e-03 7.489757e-03 1.244921e-02 3.062562e-03 6.886823e-03 -1.628785e-03 1.246503e-03 -5.274116e-03 -3.657998e-03 1.150118e-03 -2.313761e-02
<VARIANCE> 25
 5.562833e+01 5.479758e+01 6.243381e+01 5.539858e+01 6.262640e+01 4.927106e+01 5.627879e+01 6.398371e+01 5.439988e+01 3.911169e+01 4.046941e+01 3.598748e+01 2.223392e+00 2.702657e+00 2.712573e+00 3.090443e+00 3.266314e+00 2.929883e+00 3.131824e+00 4.124100e+00 3.423166e+00 2.796130e+00 2.779051e+00 2.347505e+00 4.340104e+00
<GCONST> 1.076266e+02
<STATE> 3
<MEAN> 25
 2.711901e-01 -2.230688e-01 3.798077e-01 2.948511e-01 2.022470e-01 -1.131980e-01 3.870720e-01 6.868736e-01 -3.657362e-01 -5.633067e-01 -2.487015e-01 7.587753e-02 -6.431014e-03 6.885228e-03 -8.615516e-03 6.135176e-03 1.126948e-02 3.163476e-03 5.735237e-03 -4.646160e-03 1.341505e-03 -2.172976e-03 -2.540128e-03 -3.822537e-04 -2.706956e-02
<VARIANCE> 25
 5.534985e+01 5.472469e+01 6.221229e+01 5.519790e+01 6.265010e+01 4.897436e+01 5.600693e+01 6.368959e+01 5.431065e+01 3.903046e+01 4.040668e+01 3.598815e+01 2.204323e+00 2.692796e+00 2.699874e+00 3.073828e+00 3.250937e+00 2.915117e+00 3.118457e+00 4.112335e+00 3.415313e+00 2.789068e+00 2.775250e+00 2.339254e+00 4.320102e+00
<GCONST> 1.075391e+02
<STATE> 4
<MEAN> 25
 2.965020e-01 -2.119426e-01 3.491605e-01 2.658218e-01 2.505091e-01 -8.779138e-02 3.659172e-01 6.536341e-01 -3.753435e-01 -5.508947e-01 -2.820173e-01 2.943154e-02 -8.487443e-03 9.161398e-03 -8.666466e-03 3.315006e-03 8.759969e-03 3.852907e-03 4.011810e-03 -8.154782e-03 7.443460e-04 5.630849e-04 -6.977462e-04 -2.156388e-03 -2.874966e-02
<VARIANCE> 25
 5.552740e+01 5.455019e+01 6.230467e+01 5.537983e+01 6.203111e+01 4.825640e+01 5.561288e+01 6.218212e+01 5.392826e+01 3.859443e+01 3.999302e+01 3.569234e+01 2.139560e+00 2.631779e+00 2.639884e+00 2.999370e+00 3.157006e+00 2.849298e+00 3.050088e+00 3.996848e+00 3.347771e+00 2.741083e+00 2.725780e+00 2.292190e+00 4.195557e+00
<GCONST> 1.071439e+02
<TRANSP> 5
 0.000000e+00 1.000000e+00 0.000000e+00 0.000000e+00 0.000000e+00
 0.000000e+00 7.131961e-01 2.868039e-01 0.000000e+00 0.000000e+00
 0.000000e+00 0.000000e+00 7.131928e-01 2.868073e-01 0.000000e+00
 0.000000e+00 0.000000e+00 0.000000e+00 8.393227e-01 1.606773e-01
 0.000000e+00 0.000000e+00 0.000000e+00 0.000000e+00 0.000000e+00
<ENDHMM>
~h "OI"
<BEGINHMM>
<NUMSTATES> 5
<STATE> 2
<MEAN> 25
 5.685692e-02 3.260678e-01 -1.010449e+00 -1.093416e-01 -6.440561e-01 6.520823e-01 7.970928e-04 -1.728148e-01 -1.216279e-01 2.511111e-02 4.561197e-01 2.130033e-01 -1.236556e-02 -1.514438e-02 -7.560486e-03 -2.051685e-02 4.300527e-03 -1.502680e-02 -1.001695e-03 -1.824579e-02 -2.502552e-03 -4.194119e-03 -1.408022e-02 1.937974e-03 4.138308e-02
<VARIANCE> 25
 5.381089e+01 5.005027e+01 6.924418e+01 7.463818e+01 5.204093e+01 5.902843e+01 6.495223e+01 5.861410e+01 5.371689e+01 4.100538e+01 4.315878e+01 3.996605e+01 2.765915e+00 2.827651e+00 3.247162e+00 3.916568e+00 3.255446e+00 3.717797e+00 3.627381e+00 4.095555e+00 3.527095e+00 3.082978e+00 3.053418e+00 2.994054e+00 4.697107e+00
<GCONST> 1.097586e+02
<STATE> 3
<MEAN> 25
 9.956170e-03 2.758755e-01 -1.037925e+00 -1.927755e-01 -6.192584e-01 6.080315e-01 2.079815e-02 -2.374501e-01 -1.160645e-01 3.789207e-03 4.029667e-01 2.259450e-01 -7.153239e-03 -1.098556e-02 -3.518828e-04 -2.896162e-02 1.291561e-03 -1.063849e-02 -1.003061e-03 -1.494060e-02 -1.436438e-03 -1.536167e-03 -1.804842e-02 5.595910e-04 4.133898e-02
<VARIANCE> 25
 5.418699e+01 4.985302e+01 6.948698e+01 7.457201e+01 5.181793e+01 5.916260e+01 6.471341e+01 5.940121e+01 5.297993e+01 4.051581e+01 4.305569e+01 4.016562e+01 2.815312e+00 2.840879e+00 3.243245e+00 3.940888e+00 3.227451e+00 3.763603e+00 3.647400e+00 4.140462e+00 3.542906e+00 3.073323e+00 3.015508e+00 2.999693e+00 4.656676e+00
<GCONST> 1.097781e+02
<STATE> 4
<MEAN> 25
 -2.410855e-02 2.165344e-01 -9.636250e-01 -3.601482e-01 -6.367633e-01 5.235472e-01 1.570780e-01 -2.395183e-01 -1.544099e-01 5.084926e-02 3.660135e-01 2.732902e-01 -5.428732e-03 -2.945169e-03 6.109174e-03 -3.441329e-02 -1.890792e-03 -6.605547e-03 4.308669e-03 -1.130542e-02 2.344355e-03 1.618561e-03 -2.002288e-02 -1.084702e-03 2.792877e-02
<VARIANCE> 25
 5.379742e+01 4.936333e+01 6.910670e+01 7.518783e+01 5.057834e+01 5.851674e+01 6.382700e+01 5.957809e+01 5.146170e+01 3.972713e+01 4.227037e+01 4.034945e+01 2.776177e+00 2.762297e+00 3.152237e+00 3.892529e+00 3.137701e+00 3.728340e+00 3.545096e+00 4.108650e+00 3.483382e+00 3.032422e+00 2.931616e+00 2.961551e+00 4.472902e+00
<GCONST> 1.093869e+02
<TRANSP> 5
 0.000000e+00 1.000000e+00 0.000000e+00 0.000000e+00 0.000000e+00
 0.000000e+00 7.076136e-01 2.923863e-01 0.000000e+00 0.000000e+00
 0.000000e+00 0.000000e+00 7.076131e-01 2.923869e-01 0.000000e+00
 0.000000e+00 0.000000e+00 0.000000e+00 8.292634e-01 1.707366e-01
 0.000000e+00 0.000000e+00 0.000000e+00 0.000000e+00 0.000000e+00
<ENDHMM>
~h "SY"
<BEGINHMM>
<NUMSTATES> 5
<STATE> 2
<MEAN> 25
 -1.721382e+00 -2.826359e-01 6.885641e-01 -8.004134e-02 -2.338530e-01 -1.971605e-01 3.112329e-01 5.769379e-01 -9.594643e-02 -8.931100e-02 4.051571e-01 3.755192e-01 -7.379900e-03 1.923617e-03 2.231948e-02 -7.178628e-03 -7.440630e-03 2.782447e-03 -5.868738e-03 2.926373e-03 -4.210848e-03 9.077085e-03 3.215515e-03 -2.105563e-03 2.030832e-02
<VARIANCE> 25
 9.245027e+01 5.480463e+01 7.363792e+01 5.419091e+01 6.629565e+01 5.142571e+01 5.764928e+01 5.837619e+01 5.528877e+01 3.530692e+01 3.830439e+01 3.521292e+01 3.666834e+00 2.562704e+00 2.840873e+00 2.792777e+00 3.376646e+00 2.947303e+00 3.219880e+00 3.553972e+00 3.307538e+00 2.611455e+00 2.592375e+00 2.273226e+00 3.720860e+00
<GCONST> 1.080988e+02
<STATE> 3
<MEAN> 25
 -1.751740e+00 -2.734527e-01 7.619686e-01 -9.669150e-02 -2.539080e-01 -1.841645e-01 2.945183e-01 5.850465e-01 -1.049467e-01 -5.014057e-02 4.182144e-01 3.718218e-01 -2.781166e-03 1.937714e-03 1.873206e-02 -5.145031e-03 -4.829420e-03 3.567813e-03 -5.980210e-03 8.666411e-04 -3.501103e-03 1.027533e-02 2.798169e-03 -1.545276e-03 1.540366e-02
<VARIANCE> 25
 9.256780e+01 5.483564e+01 7.422337e+01 5.372917e+01 6.650798e+01 5.094223e+01 5.756257e+01 5.837578e+01 5.546153e+01 3.545031e+01 3.845374e+01 3.497451e+01 3.693189e+00 2.549499e+00 2.852931e+00 2.779669e+00 3.387384e+00 2.949297e+00 3.213358e+00 3.552816e+00 3.321601e+00 2.619235e+00 2.592563e+00 2.259887e+00 3.676228e+00
<GCONST> 1.080889e+02
<STATE> 4
<MEAN> 25
 -1.742865e+00 -2.138958e-01 8.032407e-01 -4.036471e-02 -2.359958e-01 -1.447526e-01 3.124411e-01 5.379945e-01 -1.079967e-01 3.780923e-02 4.283278e-01 3.615074e-01 -9.553373e-04 2.539385e-03 1.296125e-02 1.571137e-04 2.009841e-04 3.447674e-03 -4.374295e-03 6.976034e-04 -2.466490e-03 9.237383e-03 3.258201e-03 1.200081e-03 7.414302e-03
<VARIANCE> 25
 9.113349e+01 5.416792e+01 7.437384e+01 5.365703e+01 6.570866e+01 4.960894e+01 5.679060e+01 5.718069e+01 5.550229e+01 3.505664e+01 3.834196e+01 3.438741e+01 3.565025e+00 2.460869e+00 2.788128e+00 2.720057e+00 3.285265e+00 2.880137e+00 3.120039e+00 3.456661e+00 3.269766e+00 2.570843e+00 2.536661e+00 2.214969e+00 3.520686e+00
<GCONST> 1.076125e+02
<TRANSP> 5
 0.000000e+00 1.000000e+00 0.000000e+00 0.000000e+00 0.000000e+00
 0.000000e+00 7.232630e-01 2.767370e-01 0.000000e+00 0.000000e+00
 0.000000e+00 0.000000e+00 7.232621e-01 2.767379e-01 0.000000e+00
 0.000000e+00 0.000000e+00 0.000000e+00 8.514085e-01 1.485914e-01
 0.000000e+00 0.000000e+00 0.000000e+00 0.000000e+00 0.000000e+00
<ENDHMM>
~h "sil"
<BEGINHMM>
<NUMSTATES> 5
<STATE> 2
<MEAN> 25
 -5.287727e+00 2.279769e+00 -1.780725e+00 3.915956e+00 3.795822e+00 -5.109113e-01 4.450845e+00 1.154316e+00 -1.392613e-01 -8.170568e-01 2.704731e-01 2.894735e+00 -5.449407e-02 -2.509002e-02 -4.629834e-02 -2.017672e-02 -3.112211e-02 -5.521863e-02 -1.695767e-02 -1.726455e-03 -1.784026e-02 -1.517006e-02 1.624026e-02 1.368353e-02 -7.013085e-02
<VARIANCE> 25
 1.410071e+01 2.360752e+01 2.146956e+01 2.524604e+01 2.265794e+01 2.700981e+01 2.625868e+01 3.299471e+01 2.582772e+01 2.328293e+01 2.301348e+01 2.238999e+01 4.455994e-01 7.792954e-01 8.269411e-01 1.346400e+00 1.308725e+00 1.572798e+00 1.589288e+00 2.055160e+00 1.800173e+00 1.787908e+00 1.562765e+00 1.605754e+00 9.709494e-01
<GCONST> 8.688969e+01
<STATE> 3
<MEAN> 25
 -5.436885e+00 2.222131e+00 -1.904373e+00 3.861384e+00 3.740540e+00 -6.528297e-01 4.417634e+00 1.157776e+00 -1.684591e-01 -8.445256e-01 3.374297e-01 2.934145e+00 -3.246250e-02 -1.379650e-02 -2.458492e-02 -1.728793e-02 -1.065824e-02 -3.156202e-02 -7.891356e-03 1.191429e-03 -4.345092e-03 -1.558022e-03 1.976004e-02 7.363777e-03 -1.948957e-02
<VARIANCE> 25
 1.312618e+01 2.323300e+01 2.015943e+01 2.436941e+01 2.202021e+01 2.660887e+01 2.588880e+01 3.247092e+01 2.551276e+01 2.299499e+01 2.250506e+01 2.207067e+01 4.602512e-01 7.706751e-01 8.077903e-01 1.339584e+00 1.263772e+00 1.574191e+00 1.557536e+00 2.061445e+00 1.770403e+00 1.775695e+00 1.535511e+00 1.601556e+00 1.096727e+00
<GCONST> 8.658826e+01
<STATE> 4
<MEAN> 25
 -5.358481e+00 2.183244e+00 -1.982655e+00 3.709957e+00 3.578508e+00 -6.638083e-01 4.305484e+00 1.062026e+00 -1.612642e-01 -7.749612e-01 3.630332e-01 2.804550e+00 -1.737149e-02 -4.103923e-03 -1.267157e-02 -2.297844e-02 -2.316667e-03 -9.186443e-03 -9.242971e-03 -1.431670e-02 7.203389e-03 1.116619e-02 6.075901e-03 -1.336319e-02 2.292845e-02
<VARIANCE> 25
 1.281217e+01 2.232473e+01 1.935548e+01 2.263167e+01 2.190275e+01 2.622245e+01 2.528132e+01 3.096980e+01 2.449623e+01 2.219949e+01 2.178898e+01 2.120654e+01 4.670554e-01 7.251309e-01 7.893510e-01 1.253143e+00 1.228842e+00 1.541730e+00 1.552973e+00 1.978646e+00 1.749839e+00 1.759041e+00 1.550631e+00 1.571985e+00 1.270490e+00
<GCONST> 8.605859e+01
<TRANSP> 5
 0.000000e+00 1.000000e+00 0.000000e+00 0.000000e+00 0.000000e+00
 0.000000e+00 7.175022e-01 2.824979e-01 0.000000e+00 0.000000e+00
 0.000000e+00 0.000000e+00 7.174975e-01 2.825026e-01 0.000000e+00
 0.000000e+00 0.000000e+00 0.000000e+00 8.452795e-01 1.547205e-01
 0.000000e+00 0.000000e+00 0.000000e+00 0.000000e+00 0.000000e+00
<ENDHMM>
