~o
<STREAMINFO> 1 25
<VECSIZE> 25<NULLD><MFCC_D_N_Z_0><DIAGC>
~h "A"
<BEGINHMM>
<NUMSTATES> 5
<STATE> 2
<MEAN> 25
 2.796017e-01 -5.151511e-01 -2.715131e-01 -1.988252e-01 1.987554e-01 1.062832e-01 -5.315168e-02 2.686942e-01 3.008277e-01 -5.600937e-02 -2.857298e-01 -3.301369e-01 1.493933e-03 9.066394e-04 -3.403694e-04 -1.478581e-03 3.424909e-03 2.883662e-03 6.460612e-04 -1.365570e-03 1.518697e-03 5.366282e-04 -4.622069e-03 -3.028616e-03 -2.638963e-04
<VARIANCE> 25
 6.204936e+01 5.890101e+01 6.600262e+01 5.620472e+01 6.317622e+01 5.597580e+01 5.671579e+01 6.105731e+01 5.511940e+01 3.746611e+01 4.283788e+01 3.958054e+01 2.559060e+00 2.842391e+00 2.753845e+00 2.991010e+00 3.346076e+00 3.085562e+00 3.231829e+00 3.939169e+00 3.426633e+00 2.777918e+00 2.900252e+00 2.494966e+00 5.068127e+00
<GCONST> 1.085856e+02
<STATE> 3
<MEAN> 25
 2.842725e-01 -5.122290e-01 -2.726448e-01 -2.036570e-01 2.110014e-01 1.160017e-01 -5.104948e-02 2.636560e-01 3.057365e-01 -5.423293e-02 -3.016964e-01 -3.395697e-01 4.929781e-04 2.407837e-03 4.869746e-04 -1.005463e-03 2.373055e-03 2.335519e-03 4.352541e-04 -1.845156e-03 4.685342e-04 7.668656e-04 -3.737802e-03 -1.916548e-03 -2.929267e-03
<VARIANCE> 25
 6.197850e+01 5.894669e+01 6.608978e+01 5.613739e+01 6.315474e+01 5.592095e+01 5.664391e+01 6.095135e+01 5.508516e+01 3.745425e+01 4.284294e+01 3.953546e+01 2.557754e+00 2.841958e+00 2.753312e+00 2.987496e+00 3.343592e+00 3.083823e+00 3.229212e+00 3.936072e+00 3.423183e+00 2.775820e+00 2.898061e+00 2.492664e+00 5.068514e+00
<GCONST> 1.085708e+02
<STATE> 4
<MEAN> 25
 3.100096e-01 -5.161229e-01 -2.617497e-01 -2.322901e-01 2.034019e-01 1.323541e-01 -8.455400e-02 2.417428e-01 3.009377e-01 -4.861852e-02 -3.154948e-01 -3.623682e-01 -4.159264e-04 3.199482e-03 9.982776e-04 -7.904327e-04 1.540567e-03 1.745960e-03 4.015680e-04 -2.100740e-03 -3.770904e-04 7.609858e-04 -2.876170e-03 -8.957540e-04 -4.327315e-03
<VARIANCE> 25
 6.188503e+01 5.877658e+01 6.615430e+01 5.597834e+01 6.292809e+01 5.539235e+01 5.634643e+01 5.973169e+01 5.437305e+01 3.707121e+01 4.249886e+01 3.922280e+01 2.497330e+00 2.784810e+00 2.704035e+00 2.925923e+00 3.269855e+00 3.025431e+00 3.164595e+00 3.839820e+00 3.345064e+00 2.725151e+00 2.846082e+00 2.449385e+00 4.941006e+00
<GCONST> 1.082145e+02
<TRANSP> 5
 0.000000e+00 1.000000e+00 0.000000e+00 0.000000e+00 0.000000e+00
 0.000000e+00 7.137522e-01 2.862478e-01 0.000000e+00 0.000000e+00
 0.000000e+00 0.000000e+00 7.137484e-01 2.862516e-01 0.000000e+00
 0.000000e+00 0.000000e+00 0.000000e+00 8.396186e-01 1.603814e-01
 0.000000e+00 0.000000e+00 0.000000e+00 0.000000e+00 0.000000e+00
<ENDHMM>
~h "B"
<BEGINHMM>
<NUMSTATES> 5
<STATE> 2
<MEAN> 25
 5.891592e-01 2.294429e-01 3.033421e-01 -1.721330e-01 -3.301841e-01 2.930464e-01 -4.542089e-01 -1.258125e-01 -1.744813e-01 8.622547e-03 2.357515e-01 -1.438606e-01 1.057437e-02 3.558311e-03 5.644261e-03 -6.000263e-03 -1.476291e-03 8.138540e-03 -4.469128e-03 -7.375381e-03 1.880803e-03 4.607521e-03 2.324122e-04 -8.078258e-03 1.639271e-02
<VARIANCE> 25
 6.563773e+01 5.824907e+01 6.716795e+01 5.822375e+01 6.465492e+01 5.836699e+01 5.830198e+01 6.247532e+01 5.775317e+01 3.761590e+01 4.349755e+01 3.917740e+01 2.505430e+00 2.874738e+00 2.801329e+00 3.135607e+00 3.445569e+00 3.188082e+00 3.388994e+00 3.906465e+00 3.613395e+00 2.839366e+00 2.991989e+00 2.533675e+00 5.089730e+00
<GCONST> 1.091360e+02
<STATE> 3
<MEAN> 25
 6.266329e-01 2.435802e-01 3.221542e-01 -1.946237e-01 -3.361625e-01 3.237695e-01 -4.707278e-01 -1.541592e-01 -1.686526e-01 2.739082e-02 2.347354e-01 -1.742002e-01 8.909324e-03 3.635584e-03 4.614577e-03 -5.309743e-03 -8.167807e-04 8.190750e-03 -3.340920e-03 -7.242036e-03 2.297726e-03 5.232336e-03 -4.799412e-04 -7.830666e-03 1.398464e-02
<VARIANCE> 25
 6.562552e+01 5.836749e+01 6.730208e+01 5.805708e+01 6.478712e+01 5.842992e+01 5.841372e+01 6.229554e+01 5.788013e+01 3.763612e+01 4.356261e+01 3.896799e+01 2.503313e+00 2.879359e+00 2.806251e+00 3.134459e+00 3.448057e+00 3.187013e+00 3.398425e+00 3.898196e+00 3.619677e+00 2.840167e+00 2.996220e+00 2.529719e+00 5.088827e+00
<GCONST> 1.091429e+02
<STATE> 4
<MEAN> 25
 7.087729e-01 2.374544e-01 3.633799e-01 -2.511995e-01 -3.854915e-01 3.585303e-01 -5.329161e-01 -1.828151e-01 -1.789232e-01 5.075562e-02 2.303095e-01 -2.325696e-01 7.489773e-03 3.123717e-03 3.657133e-03 -2.719904e-03 -9.277980e-04 6.054245e-03 -2.355518e-03 -5.001168e-03 1.692730e-03 4.111332e-03 -6.874442e-04 -5.813818e-03 1.178149e-02
<VARIANCE> 25
 6.549397e+01 5.846636e+01 6.757806e+01 5.797762e+01 6.487045e+01 5.822385e+01 5.864641e+01 6.119453e+01 5.745466e+01 3.739331e+01 4.343740e+01 3.856664e+01 2.445087e+00 2.837833e+00 2.767759e+00 3.088460e+00 3.391140e+00 3.133121e+00 3.353899e+00 3.809339e+00 3.559071e+00 2.803278e+00 2.957495e+00 2.489376e+00 4.981855e+00
<GCONST> 1.088852e+02
<TRANSP> 5
 0.000000e+00 1.000000e+00 0.000000e+00 0.000000e+00 0.000000e+00
 0.000000e+00 7.132050e-01 2.867950e-01 0.000000e+00 0.000000e+00
 0.000000e+00 0.000000e+00 7.131983e-01 2.868017e-01 0.000000e+00
 0.000000e+00 0.000000e+00 0.000000e+00 8.387465e-01 1.612534e-01
 0.000000e+00 0.000000e+00 0.000000e+00 0.000000e+00 0.000000e+00
<ENDHMM>
~h "C"
<BEGINHMM>
<NUMSTATES> 5
<STATE> 2
<MEAN> 25
 -2.237284e-01 -8.760819e-02 2.190252e-01 3.929919e-03 -3.287953e-01 -6.383636e-01 -1.122235e-01 2.027073e-01 -2.153941e-02 -9.537258e-02 7.618668e-03 9.196758e-02 -9.593953e-05 4.025123e-04 -8.677454e-03 -7.093625e-03 5.550075e-03 2.478065e-03 -4.159187e-04 2.557806e-03 5.000727e-03 2.598606e-03 -2.396668e-03 -2.792806e-03 4.801495e-03
<VARIANCE> 25
 6.565602e+01 5.687885e+01 6.410680e+01 5.259253e+01 6.320923e+01 5.539520e+01 5.793477e+01 6.271281e+01 5.405235e+01 3.755579e+01 4.143884e+01 3.728372e+01 3.401695e+00 2.977780e+00 2.924314e+00 3.046819e+00 3.608440e+00 3.193383e+00 3.435513e+00 4.055523e+00 3.494909e+00 2.844522e+00 2.888126e+00 2.487273e+00 5.749312e+00
<GCONST> 1.092116e+02
<STATE> 3
<MEAN> 25
 -2.244139e-01 -8.530282e-02 1.917239e-01 -2.047791e-02 -3.112673e-01 -6.276681e-01 -1.147284e-01 2.142604e-01 -7.345578e-03 -8.591978e-02 2.040430e-03 8.272319e-02 1.067908e-03 3.632643e-04 -9.509646e-03 -7.429780e-03 5.788130e-03 4.986435e-03 -1.164586e-03 3.222618e-03 4.532490e-03 1.993861e-03 -1.660892e-03 -3.564221e-03 5.246720e-03
<VARIANCE> 25
 6.563818e+01 5.684231e+01 6.389737e+01 5.246172e+01 6.295686e+01 5.538086e+01 5.806759e+01 6.243082e+01 5.400388e+01 3.756318e+01 4.150838e+01 3.719102e+01 3.429632e+00 2.979239e+00 2.930087e+00 3.046998e+00 3.608312e+00 3.202447e+00 3.446869e+00 4.045712e+00 3.497639e+00 2.842312e+00 2.890676e+00 2.484549e+00 5.789505e+00
<GCONST> 1.092181e+02
<STATE> 4
<MEAN> 25
 -2.015024e-01 -8.985310e-02 1.920674e-01 -5.813308e-02 -3.174775e-01 -5.947096e-01 -1.574994e-01 2.173441e-01 1.670446e-02 -5.935017e-02 9.228222e-03 3.611708e-02 3.009016e-03 -6.741571e-04 -8.390707e-03 -7.218628e-03 4.373940e-03 5.854594e-03 -2.187128e-03 4.152467e-03 3.347510e-03 7.873254e-04 -5.077291e-04 -3.984137e-03 7.621134e-03
<VARIANCE> 25
 6.541254e+01 5.668943e+01 6.396099e+01 5.232454e+01 6.273742e+01 5.505499e+01 5.830232e+01 6.122554e+01 5.361354e+01 3.722928e+01 4.158434e+01 3.690118e+01 3.384243e+00 2.933749e+00 2.900999e+00 2.997703e+00 3.545813e+00 3.168966e+00 3.406269e+00 3.957257e+00 3.446428e+00 2.796680e+00 2.852457e+00 2.448735e+00 5.708865e+00
<GCONST> 1.089735e+02
<TRANSP> 5
 0.000000e+00 1.000000e+00 0.000000e+00 0.000000e+00 0.000000e+00
 0.000000e+00 7.137523e-01 2.862476e-01 0.000000e+00 0.000000e+00
 0.000000e+00 0.000000e+00 7.137554e-01 2.862446e-01 0.000000e+00
 0.000000e+00 0.000000e+00 0.000000e+00 8.389109e-01 1.610891e-01
 0.000000e+00 0.000000e+00 0.000000e+00 0.000000e+00 0.000000e+00
<ENDHMM>
~h "D"
<BEGINHMM>
<NUMSTATES> 5
<STATE> 2
<MEAN> 25
 4.347873e-01 -1.495255e-01 7.622235e-01 1.224032e-01 -6.998096e-01 -3.451899e-01 -5.714976e-01 1.310196e-01 6.485945e-03 -1.182650e-01 -5.255933e-02 -1.213830e-01 9.761562e-03 3.724852e-04 1.141295e-02 -5.826432e-05 -6.624314e-03 -3.763587e-04 -5.479316e-03 -2.125435e-03 -2.763335e-04 -3.110270e-04 -2.764451e-03 -4.225225e-03 1.466019e-02
<VARIANCE> 25
 6.261816e+01 5.804519e+01 7.438526e+01 5.700694e+01 6.856311e+01 5.648902e+01 5.974546e+01 6.562325e+01 5.794873e+01 3.796704e+01 4.494699e+01 3.845038e+01 2.555709e+00 2.886231e+00 2.890166e+00 3.102378e+00 3.675984e+00 3.131608e+00 3.422028e+00 4.140593e+00 3.553571e+00 2.819460e+00 3.024962e+00 2.495005e+00 5.302519e+00
<GCONST> 1.094647e+02
<STATE> 3
<MEAN> 25
 4.691400e-01 -1.474410e-01 8.032612e-01 1.224382e-01 -7.230095e-01 -3.450694e-01 -5.904913e-01 1.236740e-01 5.426253e-03 -1.194147e-01 -6.165626e-02 -1.372931e-01 9.063035e-03 3.902741e-04 1.001055e-02 -3.234687e-04 -5.552093e-03 5.027673e-04 -4.558140e-03 -1.954064e-03 -1.309735e-04 -6.904036e-05 -2.685976e-03 -4.212283e-03 1.295732e-02
<VARIANCE> 25
 6.245742e+01 5.817012e+01 7.465076e+01 5.694987e+01 6.873104e+01 5.656725e+01 5.979011e+01 6.567510e+01 5.810134e+01 3.795849e+01 4.506690e+01 3.833809e+01 2.553584e+00 2.890852e+00 2.896419e+00 3.103663e+00 3.686897e+00 3.133264e+00 3.428974e+00 4.142800e+00 3.559366e+00 2.819838e+00 3.029778e+00 2.494317e+00 5.315525e+00
<GCONST> 1.094893e+02
<STATE> 4
<MEAN> 25
 5.303075e-01 -1.586914e-01 8.395892e-01 8.545478e-02 -7.588556e-01 -3.248300e-01 -6.455945e-01 1.030203e-01 -4.186105e-03 -1.059719e-01 -7.672592e-02 -1.782331e-01 8.439243e-03 4.034000e-04 8.628197e-03 3.934733e-05 -4.606416e-03 8.100714e-04 -3.755653e-03 -1.064650e-03 -4.557154e-04 -3.420642e-04 -2.344742e-03 -3.549678e-03 1.137811e-02
<VARIANCE> 25
 6.243497e+01 5.835043e+01 7.503996e+01 5.692339e+01 6.885183e+01 5.645559e+01 5.981596e+01 6.485053e+01 5.779582e+01 3.766986e+01 4.505218e+01 3.797344e+01 2.510137e+00 2.854542e+00 2.860794e+00 3.062188e+00 3.627771e+00 3.094152e+00 3.384890e+00 4.059574e+00 3.502393e+00 2.782111e+00 2.995618e+00 2.457489e+00 5.212274e+00
<GCONST> 1.092685e+02
<TRANSP> 5
 0.000000e+00 1.000000e+00 0.000000e+00 0.000000e+00 0.000000e+00
 0.000000e+00 7.125598e-01 2.874402e-01 0.000000e+00 0.000000e+00
 0.000000e+00 0.000000e+00 7.125555e-01 2.874446e-01 0.000000e+00
 0.000000e+00 0.000000e+00 0.000000e+00 8.375580e-01 1.624420e-01
 0.000000e+00 0.000000e+00 0.000000e+00 0.000000e+00 0.000000e+00
<ENDHMM>
~h "E"
<BEGINHMM>
<NUMSTATES> 5
<STATE> 2
<MEAN> 25
 -1.864963e-01 -3.840744e-01 6.295566e-01 9.067255e-02 -1.020264e+00 -8.269158e-01 4.797392e-01 6.131569e-01 -1.083360e-01 1.216878e-01 4.395350e-01 7.875699e-02 -4.186678e-03 3.993302e-03 4.653554e-03 4.243805e-03 9.300500e-04 -2.252750e-03 7.111131e-03 1.565350e-04 -5.596980e-04 -2.955112e-04 1.484208e-04 1.130381e-03 -6.907778e-03
<VARIANCE> 25
 6.216357e+01 5.842308e+01 7.000677e+01 5.410458e+01 7.595170e+01 5.780656e+01 5.799197e+01 6.331821e+01 5.204678e+01 3.760592e+01 4.407750e+01 3.614973e+01 2.461128e+00 2.692989e+00 2.541257e+00 2.739084e+00 3.486853e+00 2.951196e+00 3.173797e+00 3.860821e+00 3.167957e+00 2.703794e+00 2.741183e+00 2.237227e+00 5.225859e+00
<GCONST> 1.082161e+02
<STATE> 3
<MEAN> 25
 -2.010662e-01 -3.702469e-01 6.464157e-01 1.067261e-01 -1.016759e+00 -8.353255e-01 5.054885e-01 6.141502e-01 -1.112208e-01 1.202200e-01 4.411374e-01 8.232700e-02 -4.197850e-03 5.122599e-03 3.224198e-03 4.792660e-03 3.151787e-03 -1.367082e-03 6.485901e-03 -7.845959e-04 -8.135918e-04 -7.511069e-04 -4.213350e-04 1.542163e-03 -1.046577e-02
<VARIANCE> 25
 6.213086e+01 5.844604e+01 7.000100e+01 5.402785e+01 7.604680e+01 5.771257e+01 5.795663e+01 6.325405e+01 5.196552e+01 3.758272e+01 4.406554e+01 3.607312e+01 2.461035e+00 2.686694e+00 2.537943e+00 2.731303e+00 3.482418e+00 2.944000e+00 3.171359e+00 3.855189e+00 3.163649e+00 2.700053e+00 2.736978e+00 2.232594e+00 5.209298e+00
<GCONST> 1.081858e+02
<STATE> 4
<MEAN> 25
 -1.790349e-01 -3.551984e-01 6.724114e-01 1.132260e-01 -1.027601e+00 -8.354211e-01 5.124034e-01 5.961506e-01 -1.088799e-01 1.289814e-01 4.514519e-01 7.151804e-02 -4.117752e-03 5.613886e-03 1.902296e-03 5.097875e-03 4.593358e-03 -5.349698e-04 5.584395e-03 -1.231530e-03 -1.071108e-03 -1.024830e-03 -6.990305e-04 1.632380e-03 -1.275762e-02
<VARIANCE> 25
 6.169716e+01 5.846970e+01 7.025540e+01 5.402013e+01 7.598368e+01 5.738688e+01 5.761333e+01 6.194542e+01 5.131097e+01 3.713703e+01 4.374704e+01 3.565530e+01 2.395337e+00 2.633008e+00 2.491528e+00 2.677027e+00 3.405826e+00 2.889106e+00 3.110425e+00 3.749382e+00 3.089824e+00 2.645926e+00 2.682632e+00 2.191366e+00 5.083957e+00
<GCONST> 1.078249e+02
<TRANSP> 5
 0.000000e+00 1.000000e+00 0.000000e+00 0.000000e+00 0.000000e+00
 0.000000e+00 7.194859e-01 2.805141e-01 0.000000e+00 0.000000e+00
 0.000000e+00 0.000000e+00 7.194845e-01 2.805155e-01 0.000000e+00
 0.000000e+00 0.000000e+00 0.000000e+00 8.465263e-01 1.534737e-01
 0.000000e+00 0.000000e+00 0.000000e+00 0.000000e+00 0.000000e+00
<ENDHMM>
~h "F"
<BEGINHMM>
<NUMSTATES> 5
<STATE> 2
<MEAN> 25
 -8.249735e-01 -4.024942e-01 -1.468054e-01 -2.471216e-02 -1.492044e-01 -1.095936e-01 -3.870356e-02 6.713232e-02 5.158969e-02 1.133586e-01 3.594688e-01 1.682582e-01 3.026942e-03 3.310788e-03 2.795492e-03 -1.903432e-03 -1.476535e-03 3.412439e-03 4.865075e-03 -3.768733e-03 -1.677304e-03 1.242072e-03 -2.161328e-03 -2.417642e-03 -2.551985e-03
<VARIANCE> 25
 7.435957e+01 5.453021e+01 7.157966e+01 5.743623e+01 6.827876e+01 5.783182e+01 5.563796e+01 5.698515e+01 5.180459e+01 3.593832e+01 4.102256e+01 3.720098e+01 3.248354e+00 2.669310e+00 2.879339e+00 3.087600e+00 3.520258e+00 3.149819e+00 3.161088e+00 3.690941e+00 3.314625e+00 2.724777e+00 2.780507e+00 2.374857e+00 4.606864e+00
<GCONST> 1.086021e+02
<STATE> 3
<MEAN> 25
 -8.161834e-01 -3.896139e-01 -1.362727e-01 -2.996813e-02 -1.550459e-01 -9.766587e-02 -2.119286e-02 5.286209e-02 4.171085e-02 1.153105e-01 3.500684e-01 1.593203e-01 2.729581e-03 5.242768e-03 3.547822e-03 -7.601790e-04 -5.204944e-04 2.586605e-03 5.637374e-03 -4.125708e-03 -2.732370e-03 1.302130e-04 -3.040105e-03 -1.951165e-03 -6.460126e-03
<VARIANCE> 25
 7.411603e+01 5.457680e+01 7.178477e+01 5.742421e+01 6.827551e+01 5.777564e+01 5.563874e+01 5.694291e+01 5.176614e+01 3.590038e+01 4.107573e+01 3.718904e+01 3.248757e+00 2.668225e+00 2.877056e+00 3.084594e+00 3.515575e+00 3.144248e+00 3.161683e+00 3.684279e+00 3.315068e+00 2.723162e+00 2.780999e+00 2.377777e+00 4.593301e+00
<GCONST> 1.085910e+02
<STATE> 4
<MEAN> 25
 -7.314375e-01 -3.755759e-01 -1.001639e-01 -7.601885e-02 -2.099523e-01 -8.851654e-02 -3.906191e-02 7.174910e-03 4.776577e-02 1.158614e-01 3.302364e-01 1.089850e-01 1.302248e-03 6.898622e-03 4.107622e-03 1.306643e-03 9.942595e-05 1.315899e-03 5.304149e-03 -4.431812e-03 -3.741089e-03 -7.245663e-04 -3.449655e-03 -1.506889e-03 -9.749747e-03
<VARIANCE> 25
 7.356124e+01 5.472183e+01 7.203017e+01 5.760314e+01 6.808137e+01 5.723352e+01 5.565598e+01 5.622159e+01 5.135982e+01 3.557559e+01 4.079478e+01 3.675961e+01 3.166312e+00 2.625912e+00 2.830059e+00 3.023277e+00 3.437068e+00 3.085481e+00 3.115613e+00 3.603709e+00 3.256219e+00 2.680293e+00 2.734686e+00 2.340952e+00 4.474114e+00
<GCONST> 1.082835e+02
<TRANSP> 5
 0.000000e+00 1.000000e+00 0.000000e+00 0.000000e+00 0.000000e+00
 0.000000e+00 7.185366e-01 2.814634e-01 0.000000e+00 0.000000e+00
 0.000000e+00 0.000000e+00 7.185370e-01 2.814630e-01 0.000000e+00
 0.000000e+00 0.000000e+00 0.000000e+00 8.453712e-01 1.546288e-01
 0.000000e+00 0.000000e+00 0.000000e+00 0.000000e+00 0.000000e+00
<ENDHMM>
~h "G"
<BEGINHMM>
<NUMSTATES> 5
<STATE> 2
<MEAN> 25
 4.396728e-01 3.213428e-01 4.902190e-01 -4.604058e-02 -4.440652e-01 -3.025527e-02 -3.234068e-01 -1.706963e-01 -1.686688e-01 1.886529e-01 1.730454e-01 -2.219447e-01 3.900521e-03 1.904192e-03 5.310761e-03 -3.381117e-03 -4.110021e-03 1.240458e-03 -5.260017e-05 1.459224e-03 -2.401212e-03 3.161264e-03 -5.370796e-04 -4.656612e-03 1.061544e-02
<VARIANCE> 25
 6.103767e+01 5.725094e+01 7.249854e+01 5.857036e+01 6.642467e+01 5.763810e+01 5.893553e+01 6.214523e+01 5.717988e+01 3.869763e+01 4.355206e+01 3.897673e+01 2.445889e+00 2.793297e+00 2.876968e+00 3.130521e+00 3.665089e+00 3.226216e+00 3.389728e+00 3.896430e+00 3.558056e+00 2.838820e+00 2.952100e+00 2.501473e+00 5.003639e+00
<GCONST> 1.091474e+02
<STATE> 3
<MEAN> 25
 4.516860e-01 3.283898e-01 5.090004e-01 -5.838238e-02 -4.583252e-01 -2.620850e-02 -3.242039e-01 -1.660546e-01 -1.767187e-01 2.002974e-01 1.713889e-01 -2.376730e-01 2.476057e-03 1.286182e-03 3.234661e-03 -3.217378e-03 -2.915218e-03 1.495656e-03 9.154736e-04 2.057779e-03 -1.433764e-03 3.060895e-03 -5.346452e-04 -4.071804e-03 7.659435e-03
<VARIANCE> 25
 6.089582e+01 5.736146e+01 7.249349e+01 5.844191e+01 6.667690e+01 5.776363e+01 5.897837e+01 6.211341e+01 5.725183e+01 3.867830e+01 4.363248e+01 3.891426e+01 2.443130e+00 2.790553e+00 2.878511e+00 3.124784e+00 3.674258e+00 3.223088e+00 3.388401e+00 3.888756e+00 3.556843e+00 2.835411e+00 2.954043e+00 2.498472e+00 4.998952e+00
<GCONST> 1.091447e+02
<STATE> 4
<MEAN> 25
 4.801503e-01 3.332648e-01 5.237179e-01 -9.715396e-02 -4.846466e-01 -9.919603e-03 -3.471573e-01 -1.668877e-01 -1.850549e-01 2.208674e-01 1.650581e-01 -2.703013e-01 1.310875e-03 4.646346e-04 1.715254e-03 -2.759330e-03 -2.489951e-03 8.266813e-04 8.149971e-04 2.469502e-03 -8.404435e-04 2.430823e-03 -4.292246e-04 -3.070686e-03 5.816328e-03
<VARIANCE> 25
 6.095973e+01 5.744828e+01 7.258641e+01 5.839720e+01 6.678757e+01 5.751981e+01 5.906028e+01 6.113244e+01 5.679323e+01 3.827833e+01 4.345709e+01 3.865623e+01 2.394866e+00 2.742199e+00 2.831618e+00 3.065394e+00 3.608991e+00 3.163561e+00 3.329221e+00 3.796582e+00 3.488874e+00 2.787235e+00 2.915870e+00 2.460140e+00 4.882027e+00
<GCONST> 1.088618e+02
<TRANSP> 5
 0.000000e+00 1.000000e+00 0.000000e+00 0.000000e+00 0.000000e+00
 0.000000e+00 7.120723e-01 2.879278e-01 0.000000e+00 0.000000e+00
 0.000000e+00 0.000000e+00 7.120672e-01 2.879327e-01 0.000000e+00
 0.000000e+00 0.000000e+00 0.000000e+00 8.371892e-01 1.628109e-01
 0.000000e+00 0.000000e+00 0.000000e+00 0.000000e+00 0.000000e+00
<ENDHMM>
~h "H"
<BEGINHMM>
<NUMSTATES> 5
<STATE> 2
<MEAN> 25
 -1.690354e-02 -2.502817e-01 -2.743648e-01 -2.151915e-01 3.133991e-01 4.469755e-01 9.704061e-02 2.150607e-02 9.918367e-02 -5.933544e-02 1.355558e-03 4.004150e-02 -1.516367e-04 4.215892e-03 1.095531e-03 -1.703775e-03 4.330426e-03 3.868590e-03 -3.053366e-04 -4.384651e-03 -5.452238e-05 1.475509e-03 -2.767991e-03 -2.500196e-03 -2.338612e-03
<VARIANCE> 25
 6.159982e+01 5.667597e+01 6.766506e+01 5.722727e+01 6.694605e+01 5.707928e+01 5.951151e+01 5.982587e+01 5.355672e+01 3.741181e+01 4.192435e+01 3.805302e+01 2.503032e+00 2.661014e+00 2.695037e+00 3.010912e+00 3.431973e+00 3.068606e+00 3.278461e+00 3.776724e+00 3.341436e+00 2.738271e+00 2.822048e+00 2.424470e+00 4.617439e+00
<GCONST> 1.082971e+02
<STATE> 3
<MEAN> 25
 -1.672042e-02 -2.379040e-01 -2.711797e-01 -2.198415e-01 3.284486e-01 4.593861e-01 9.546601e-02 7.369659e-03 9.871369e-02 -5.598380e-02 -6.989702e-03 3.208951e-02 -5.442782e-04 4.331912e-03 1.672691e-03 -9.728983e-04 3.364712e-03 2.307473e-03 -6.371088e-04 -4.033171e-03 -7.405522e-04 1.176683e-03 -2.531403e-03 -2.429941e-03 -2.968418e-03
<VARIANCE> 25
 6.154832e+01 5.664009e+01 6.781856e+01 5.713461e+01 6.706038e+01 5.707319e+01 5.941114e+01 5.969117e+01 5.353394e+01 3.735913e+01 4.195615e+01 3.794332e+01 2.501032e+00 2.658050e+00 2.693117e+00 3.004735e+00 3.430355e+00 3.066492e+00 3.277117e+00 3.765771e+00 3.339074e+00 2.734975e+00 2.819874e+00 2.419586e+00 4.612178e+00
<GCONST> 1.082750e+02
<STATE> 4
<MEAN> 25
 -5.818816e-03 -2.496226e-01 -2.539170e-01 -2.486874e-01 3.238260e-01 4.708306e-01 6.650541e-02 -1.225805e-02 1.099735e-01 -5.028821e-02 -1.171129e-02 1.182745e-02 -5.263867e-04 3.834144e-03 2.226902e-03 -5.763052e-05 2.313795e-03 1.058323e-03 -4.917555e-04 -3.235026e-03 -1.232540e-03 7.398500e-04 -1.716141e-03 -2.219829e-03 -1.257570e-03
<VARIANCE> 25
 6.166636e+01 5.651594e+01 6.802415e+01 5.701491e+01 6.699007e+01 5.663985e+01 5.910163e+01 5.853348e+01 5.302271e+01 3.688414e+01 4.166349e+01 3.751477e+01 2.448656e+00 2.605009e+00 2.645871e+00 2.938773e+00 3.360300e+00 3.010134e+00 3.215235e+00 3.664343e+00 3.268512e+00 2.685739e+00 2.771368e+00 2.373736e+00 4.489455e+00
<GCONST> 1.079317e+02
<TRANSP> 5
 0.000000e+00 1.000000e+00 0.000000e+00 0.000000e+00 0.000000e+00
 0.000000e+00 7.147759e-01 2.852241e-01 0.000000e+00 0.000000e+00
 0.000000e+00 0.000000e+00 7.147774e-01 2.852226e-01 0.000000e+00
 0.000000e+00 0.000000e+00 0.000000e+00 8.408737e-01 1.591264e-01
 0.000000e+00 0.000000e+00 0.000000e+00 0.000000e+00 0.000000e+00
<ENDHMM>
~h "I"
<BEGINHMM>
<NUMSTATES> 5
<STATE> 2
<MEAN> 25
 -2.463525e-01 3.690625e-01 1.245615e+00 3.081324e-01 -7.337173e-01 -4.260755e-01 -1.201216e-01 -2.511011e-01 -5.708156e-01 -5.185350e-02 2.682016e-01 1.206890e-01 -1.534117e-03 3.535812e-03 1.169257e-03 3.636487e-03 -1.306411e-04 -2.834032e-03 3.901296e-03 -7.039228e-04 -3.327052e-03 -2.248467e-04 -2.710296e-03 -3.233757e-04 -1.091821e-02
<VARIANCE> 25
 6.294575e+01 5.507293e+01 8.156484e+01 5.404950e+01 7.092140e+01 5.513795e+01 5.888254e+01 6.111414e+01 5.781554e+01 3.694384e+01 4.260121e+01 3.703702e+01 2.605684e+00 2.655451e+00 3.049287e+00 2.926975e+00 3.621281e+00 3.097187e+00 3.346197e+00 3.864998e+00 3.486775e+00 2.742790e+00 2.872021e+00 2.382749e+00 4.801283e+00
<GCONST> 1.088297e+02
<STATE> 3
<MEAN> 25
 -2.517163e-01 3.812802e-01 1.248530e+00 3.218108e-01 -7.340891e-01 -4.351293e-01 -1.060595e-01 -2.532982e-01 -5.821853e-01 -5.242362e-02 2.585455e-01 1.192341e-01 -1.443853e-03 2.913894e-03 -1.901385e-03 3.407304e-03 1.165987e-03 -2.368604e-03 4.237688e-03 -2.305474e-04 -2.085987e-03 -1.073172e-04 -3.254516e-03 -4.238476e-04 -1.216340e-02
<VARIANCE> 25
 6.278379e+01 5.495864e+01 8.126595e+01 5.394316e+01 7.098737e+01 5.504346e+01 5.887491e+01 6.098821e+01 5.779808e+01 3.688034e+01 4.260759e+01 3.695314e+01 2.599947e+00 2.651392e+00 3.042850e+00 2.918997e+00 3.619159e+00 3.091357e+00 3.342240e+00 3.859895e+00 3.483514e+00 2.739172e+00 2.871645e+00 2.379178e+00 4.799006e+00
<GCONST> 1.087944e+02
<STATE> 4
<MEAN> 25
 -2.236053e-01 3.766164e-01 1.236084e+00 3.070395e-01 -7.393680e-01 -4.228736e-01 -1.215353e-01 -2.619212e-01 -5.823847e-01 -4.077052e-02 2.373482e-01 9.044479e-02 -1.334139e-03 2.215840e-03 -3.987778e-03 3.044926e-03 1.911576e-03 -1.594144e-03 4.219631e-03 1.299721e-04 -7.898449e-04 -5.897882e-05 -3.420307e-03 -8.726889e-04 -1.183517e-02
<VARIANCE> 25
 6.245506e+01 5.468506e+01 8.108338e+01 5.369716e+01 7.080663e+01 5.459919e+01 5.884496e+01 5.987177e+01 5.732347e+01 3.649717e+01 4.236505e+01 3.660220e+01 2.537113e+00 2.600144e+00 2.986509e+00 2.859059e+00 3.537579e+00 3.036583e+00 3.282175e+00 3.765225e+00 3.418727e+00 2.696274e+00 2.830086e+00 2.338065e+00 4.687591e+00
<GCONST> 1.084566e+02
<TRANSP> 5
 0.000000e+00 1.000000e+00 0.000000e+00 0.000000e+00 0.000000e+00
 0.000000e+00 7.138104e-01 2.861896e-01 0.000000e+00 0.000000e+00
 0.000000e+00 0.000000e+00 7.137984e-01 2.862016e-01 0.000000e+00
 0.000000e+00 0.000000e+00 0.000000e+00 8.397580e-01 1.602421e-01
 0.000000e+00 0.000000e+00 0.000000e+00 0.000000e+00 0.000000e+00
<ENDHMM>
~h "J"
<BEGINHMM>
<NUMSTATES> 5
<STATE> 2
<MEAN> 25
 1.589510e-01 3.752279e-01 7.561028e-01 1.543562e-01 -5.124360e-01 -5.811707e-01 -3.708876e-01 2.376917e-01 -6.514228e-02 -2.222097e-01 9.574019e-02 1.920834e-01 4.052453e-03 9.525067e-04 9.895541e-03 1.307497e-03 -4.374161e-03 -8.650949e-04 -4.030411e-03 1.616683e-03 5.815503e-04 -2.120250e-03 3.166264e-03 -3.618047e-03 1.087681e-02
<VARIANCE> 25
 6.107111e+01 5.972522e+01 7.101909e+01 5.511224e+01 6.409693e+01 5.608418e+01 5.914015e+01 6.289261e+01 5.552088e+01 3.752552e+01 4.320123e+01 3.801006e+01 3.034824e+00 3.019773e+00 2.921509e+00 3.001318e+00 3.774351e+00 3.231043e+00 3.507197e+00 4.066437e+00 3.533618e+00 2.796121e+00 2.955901e+00 2.557412e+00 5.147743e+00
<GCONST> 1.093721e+02
<STATE> 3
<MEAN> 25
 1.724828e-01 3.803956e-01 7.889116e-01 1.579597e-01 -5.271577e-01 -5.819153e-01 -3.859596e-01 2.418684e-01 -6.348517e-02 -2.289205e-01 1.062542e-01 1.801102e-01 2.715127e-03 1.061755e-03 8.185129e-03 1.422081e-03 -3.295579e-03 -1.679578e-04 -3.255847e-03 9.712994e-04 9.740303e-04 -1.918065e-03 3.121581e-03 -3.459662e-03 8.407967e-03
<VARIANCE> 25
 6.086447e+01 5.969315e+01 7.124502e+01 5.500616e+01 6.421955e+01 5.606399e+01 5.918748e+01 6.275335e+01 5.561980e+01 3.755252e+01 4.319429e+01 3.798454e+01 3.033808e+00 3.017804e+00 2.925291e+00 2.996763e+00 3.781048e+00 3.231683e+00 3.507029e+00 4.062257e+00 3.534518e+00 2.792762e+00 2.953120e+00 2.558153e+00 5.142437e+00
<GCONST> 1.093683e+02
<STATE> 4
<MEAN> 25
 2.230647e-01 3.563170e-01 8.049551e-01 1.168133e-01 -5.589945e-01 -5.485579e-01 -4.343260e-01 2.246585e-01 -5.650733e-02 -2.206104e-01 1.067330e-01 1.296442e-01 1.924386e-03 1.485726e-03 5.852133e-03 1.616287e-03 -2.152005e-03 1.050577e-03 -2.585362e-03 4.389069e-04 3.880990e-04 -1.713434e-03 2.669022e-03 -3.022899e-03 6.326417e-03
<VARIANCE> 25
 6.082252e+01 5.953876e+01 7.145454e+01 5.493704e+01 6.433917e+01 5.587971e+01 5.913787e+01 6.165398e+01 5.522688e+01 3.723185e+01 4.299241e+01 3.767664e+01 2.969569e+00 2.956076e+00 2.880206e+00 2.939737e+00 3.720559e+00 3.181056e+00 3.441604e+00 3.964587e+00 3.468700e+00 2.742856e+00 2.909980e+00 2.516222e+00 5.008783e+00
<GCONST> 1.090720e+02
<TRANSP> 5
 0.000000e+00 1.000000e+00 0.000000e+00 0.000000e+00 0.000000e+00
 0.000000e+00 7.123797e-01 2.876202e-01 0.000000e+00 0.000000e+00
 0.000000e+00 0.000000e+00 7.123782e-01 2.876218e-01 0.000000e+00
 0.000000e+00 0.000000e+00 0.000000e+00 8.375802e-01 1.624198e-01
 0.000000e+00 0.000000e+00 0.000000e+00 0.000000e+00 0.000000e+00
<ENDHMM>
~h "K"
<BEGINHMM>
<NUMSTATES> 5
<STATE> 2
<MEAN> 25
 2.801187e-02 -1.293562e-01 -1.746638e-01 -1.825591e-01 2.092861e-02 -1.100799e-01 -7.067672e-02 6.914933e-02 -8.535989e-02 1.214608e-01 -5.884066e-02 -8.286539e-02 5.567859e-03 -9.297291e-04 -2.653819e-03 -5.205194e-03 2.344307e-03 9.521406e-04 -2.164022e-03 -4.653200e-03 5.173127e-04 4.608141e-03 -4.152306e-03 -6.116856e-03 1.002357e-02
<VARIANCE> 25
 6.092903e+01 5.659724e+01 6.681026e+01 5.630033e+01 6.367135e+01 5.641224e+01 5.725459e+01 6.029522e+01 5.378283e+01 3.780591e+01 4.229877e+01 3.943538e+01 2.602287e+00 2.856726e+00 2.926836e+00 3.051685e+00 3.524818e+00 3.205939e+00 3.337818e+00 3.924368e+00 3.448861e+00 2.871539e+00 2.921394e+00 2.518827e+00 5.685288e+00
<GCONST> 1.089148e+02
<STATE> 3
<MEAN> 25
 4.778033e-02 -1.326982e-01 -1.839343e-01 -1.991085e-01 2.754465e-02 -1.091183e-01 -7.835308e-02 5.513372e-02 -8.505663e-02 1.361994e-01 -7.347327e-02 -1.018967e-01 5.750692e-03 -8.925194e-04 -2.712398e-03 -4.027891e-03 1.686523e-03 5.485201e-04 -1.873267e-03 -4.133312e-03 2.612101e-04 3.525013e-03 -3.982057e-03 -4.947709e-03 9.358442e-03
<VARIANCE> 25
 6.081821e+01 5.670129e+01 6.693785e+01 5.621562e+01 6.374535e+01 5.647471e+01 5.719334e+01 6.023601e+01 5.379632e+01 3.781867e+01 4.236454e+01 3.933667e+01 2.607261e+00 2.863002e+00 2.936557e+00 3.054776e+00 3.534504e+00 3.210793e+00 3.343226e+00 3.924334e+00 3.449567e+00 2.876632e+00 2.926680e+00 2.521517e+00 5.716268e+00
<GCONST> 1.089397e+02
<STATE> 4
<MEAN> 25
 9.543379e-02 -1.433262e-01 -1.713727e-01 -2.393818e-01 5.314650e-03 -1.046444e-01 -1.227855e-01 3.303440e-02 -8.414172e-02 1.535201e-01 -9.611302e-02 -1.368605e-01 5.355326e-03 -1.003961e-03 -2.328784e-03 -2.728022e-03 9.549211e-04 -2.765704e-05 -1.387318e-03 -2.782037e-03 9.905995e-05 2.338657e-03 -3.311491e-03 -3.378036e-03 8.867417e-03
<VARIANCE> 25
 6.070075e+01 5.661374e+01 6.709591e+01 5.614338e+01 6.360114e+01 5.616767e+01 5.706147e+01 5.929567e+01 5.329504e+01 3.748711e+01 4.214680e+01 3.900092e+01 2.555907e+00 2.815761e+00 2.900672e+00 3.005598e+00 3.472064e+00 3.164953e+00 3.294507e+00 3.841127e+00 3.387733e+00 2.834750e+00 2.886599e+00 2.486172e+00 5.606652e+00
<GCONST> 1.086663e+02
<TRANSP> 5
 0.000000e+00 1.000000e+00 0.000000e+00 0.000000e+00 0.000000e+00
 0.000000e+00 7.134068e-01 2.865932e-01 0.000000e+00 0.000000e+00
 0.000000e+00 0.000000e+00 7.134086e-01 2.865914e-01 0.000000e+00
 0.000000e+00 0.000000e+00 0.000000e+00 8.389952e-01 1.610048e-01
 0.000000e+00 0.000000e+00 0.000000e+00 0.000000e+00 0.000000e+00
<ENDHMM>
~h "L"
<BEGINHMM>
<NUMSTATES> 5
<STATE> 2
<MEAN> 25
 4.421839e-01 -2.867888e-01 -1.128785e-01 -5.559917e-01 -1.737143e-01 3.249456e-01 -4.361437e-01 -3.878936e-01 2.257163e-01 1.145618e-01 1.610589e-01 -1.626326e-01 -5.864761e-04 3.853689e-03 2.006553e-03 -2.102927e-03 1.346783e-03 4.431394e-03 -1.325411e-03 -4.160002e-03 -4.269992e-04 9.737100e-04 -1.338568e-03 -1.516964e-03 2.311806e-03
<VARIANCE> 25
 6.389823e+01 5.608610e+01 6.811945e+01 6.210162e+01 6.535110e+01 6.035101e+01 6.270882e+01 6.379792e+01 5.720789e+01 3.932669e+01 4.365563e+01 3.950806e+01 2.533171e+00 2.666269e+00 2.743942e+00 3.125732e+00 3.461867e+00 3.228678e+00 3.427724e+00 3.992123e+00 3.482640e+00 2.869120e+00 2.942351e+00 2.456015e+00 4.588373e+00
<GCONST> 1.091191e+02
<STATE> 3
<MEAN> 25
 4.393425e-01 -2.742693e-01 -1.055657e-01 -5.644827e-01 -1.697805e-01 3.404034e-01 -4.416088e-01 -4.015382e-01 2.245187e-01 1.178266e-01 1.567160e-01 -1.678593e-01 -1.736440e-03 4.553236e-03 2.328393e-03 -1.169169e-03 1.438562e-03 3.716040e-03 -9.388138e-04 -3.154594e-03 -1.264157e-03 5.543294e-04 -1.862205e-03 -1.102109e-03 -7.176857e-05
<VARIANCE> 25
 6.386840e+01 5.610649e+01 6.828763e+01 6.217378e+01 6.537128e+01 6.036524e+01 6.280713e+01 6.385521e+01 5.720508e+01 3.934849e+01 4.370316e+01 3.945844e+01 2.529768e+00 2.662993e+00 2.742389e+00 3.123899e+00 3.460957e+00 3.228672e+00 3.429433e+00 3.990543e+00 3.479591e+00 2.870627e+00 2.944746e+00 2.455992e+00 4.580671e+00
<GCONST> 1.091209e+02
<STATE> 4
<MEAN> 25
 4.587346e-01 -2.740777e-01 -8.102888e-02 -5.941203e-01 -1.860829e-01 3.508877e-01 -4.735329e-01 -4.270882e-01 2.145796e-01 1.245390e-01 1.439473e-01 -1.876110e-01 -2.546781e-03 4.781509e-03 2.734548e-03 -9.246065e-04 1.580349e-03 3.259209e-03 -4.596695e-04 -2.414296e-03 -1.641665e-03 5.859623e-04 -1.949984e-03 -9.739025e-04 -1.050462e-03
<VARIANCE> 25
 6.386041e+01 5.589553e+01 6.863744e+01 6.232450e+01 6.528944e+01 6.003593e+01 6.276472e+01 6.269227e+01 5.673573e+01 3.903883e+01 4.346759e+01 3.914058e+01 2.472862e+00 2.608905e+00 2.700637e+00 3.059785e+00 3.395013e+00 3.174404e+00 3.370594e+00 3.888126e+00 3.408501e+00 2.827791e+00 2.903720e+00 2.417999e+00 4.462782e+00
<GCONST> 1.088189e+02
<TRANSP> 5
 0.000000e+00 1.000000e+00 0.000000e+00 0.000000e+00 0.000000e+00
 0.000000e+00 7.130646e-01 2.869354e-01 0.000000e+00 0.000000e+00
 0.000000e+00 0.000000e+00 7.130612e-01 2.869388e-01 0.000000e+00
 0.000000e+00 0.000000e+00 0.000000e+00 8.388944e-01 1.611055e-01
 0.000000e+00 0.000000e+00 0.000000e+00 0.000000e+00 0.000000e+00
<ENDHMM>
~h "M"
<BEGINHMM>
<NUMSTATES> 5
<STATE> 2
<MEAN> 25
 4.945101e-01 -2.310916e-01 1.796083e-02 -1.021036e-01 -7.735034e-02 4.422276e-01 -1.259906e-01 -4.343990e-01 -3.132910e-01 -1.202764e-01 5.897346e-03 -1.579222e-01 1.448810e-02 4.557665e-04 3.842958e-03 -4.590856e-03 -4.200454e-03 1.031024e-02 -4.625532e-03 -1.056722e-02 -3.847623e-03 -4.922075e-04 -3.890461e-03 -8.265214e-03 2.067173e-02
<VARIANCE> 25
 6.307111e+01 5.504993e+01 6.528439e+01 5.838921e+01 6.431223e+01 5.869146e+01 5.827808e+01 6.449232e+01 5.828006e+01 3.810857e+01 4.330853e+01 3.916516e+01 2.408865e+00 2.652142e+00 2.783822e+00 3.172932e+00 3.319888e+00 3.103637e+00 3.252619e+00 4.064741e+00 3.618686e+00 2.769394e+00 2.977041e+00 2.451694e+00 4.571747e+00
<GCONST> 1.087146e+02
<STATE> 3
<MEAN> 25
 5.434217e-01 -2.311926e-01 3.193621e-02 -1.171265e-01 -9.228019e-02 4.776985e-01 -1.420164e-01 -4.698003e-01 -3.263404e-01 -1.214946e-01 -8.062219e-03 -1.862353e-01 1.300401e-02 6.850187e-04 4.043274e-03 -4.076647e-03 -4.428233e-03 9.256830e-03 -4.309895e-03 -9.343324e-03 -2.966794e-03 -4.869636e-05 -3.924042e-03 -7.887634e-03 1.921228e-02
<VARIANCE> 25
 6.292271e+01 5.506056e+01 6.540356e+01 5.835660e+01 6.442214e+01 5.877082e+01 5.821968e+01 6.453042e+01 5.845146e+01 3.814525e+01 4.338184e+01 3.906015e+01 2.405159e+00 2.651917e+00 2.790767e+00 3.179890e+00 3.320908e+00 3.105935e+00 3.254422e+00 4.069407e+00 3.629097e+00 2.771175e+00 2.982732e+00 2.451058e+00 4.567916e+00
<GCONST> 1.087294e+02
<STATE> 4
<MEAN> 25
 6.105717e-01 -2.592251e-01 6.485899e-02 -1.481275e-01 -1.316274e-01 4.841033e-01 -1.908275e-01 -4.843685e-01 -3.409968e-01 -1.235041e-01 -3.661948e-02 -2.324088e-01 1.128994e-02 3.343472e-04 4.336918e-03 -3.232947e-03 -4.744356e-03 7.433653e-03 -3.806250e-03 -7.114747e-03 -2.439536e-03 -1.809609e-04 -3.953778e-03 -7.006833e-03 1.766467e-02
<VARIANCE> 25
 6.271086e+01 5.494880e+01 6.566443e+01 5.807401e+01 6.434026e+01 5.843031e+01 5.789334e+01 6.336048e+01 5.810747e+01 3.782151e+01 4.317948e+01 3.863976e+01 2.347707e+00 2.601868e+00 2.749687e+00 3.118078e+00 3.258008e+00 3.056352e+00 3.198376e+00 3.971205e+00 3.568210e+00 2.730963e+00 2.940716e+00 2.409730e+00 4.455296e+00
<GCONST> 1.084198e+02
<TRANSP> 5
 0.000000e+00 1.000000e+00 0.000000e+00 0.000000e+00 0.000000e+00
 0.000000e+00 7.132560e-01 2.867441e-01 0.000000e+00 0.000000e+00
 0.000000e+00 0.000000e+00 7.132528e-01 2.867471e-01 0.000000e+00
 0.000000e+00 0.000000e+00 0.000000e+00 8.391775e-01 1.608225e-01
 0.000000e+00 0.000000e+00 0.000000e+00 0.000000e+00 0.000000e+00
<ENDHMM>
~h "N"
<BEGINHMM>
<NUMSTATES> 5
<STATE> 2
<MEAN> 25
 6.719508e-01 -2.180632e-01 4.180717e-01 1.422121e-01 -3.828318e-01 -1.948793e-02 -2.950383e-01 -2.919515e-01 -5.368479e-02 4.590628e-02 -4.243665e-01 -2.437223e-01 -2.290563e-03 3.629985e-03 -9.926321e-04 1.945689e-03 2.349977e-03 1.174339e-03 1.486453e-03 -3.364830e-03 -6.438269e-05 -1.364547e-03 -3.506686e-03 1.737439e-03 -5.540716e-03
<VARIANCE> 25
 6.108757e+01 5.727956e+01 6.778542e+01 5.657835e+01 6.495110e+01 5.593974e+01 5.777067e+01 6.515524e+01 5.546150e+01 3.861272e+01 4.496166e+01 3.878083e+01 2.481519e+00 2.825679e+00 2.875834e+00 3.112501e+00 3.435685e+00 3.157810e+00 3.340869e+00 4.295654e+00 3.495728e+00 2.895216e+00 2.987505e+00 2.470284e+00 4.926364e+00
<GCONST> 1.090186e+02
<STATE> 3
<MEAN> 25
 6.640260e-01 -2.051406e-01 4.134910e-01 1.481857e-01 -3.737043e-01 -1.533112e-02 -2.897055e-01 -3.031288e-01 -5.325776e-02 4.176231e-02 -4.361556e-01 -2.378387e-01 -3.719474e-03 3.989901e-03 -2.484506e-03 3.945629e-04 2.792893e-03 1.090726e-03 1.366550e-03 -2.565367e-03 -1.111332e-04 -1.396349e-03 -1.519461e-03 1.334255e-03 -6.420463e-03
<VARIANCE> 25
 6.116106e+01 5.727403e+01 6.762574e+01 5.645557e+01 6.497893e+01 5.585286e+01 5.777819e+01 6.511503e+01 5.539800e+01 3.860892e+01 4.494845e+01 3.872760e+01 2.484963e+00 2.826162e+00 2.872403e+00 3.107648e+00 3.434680e+00 3.155657e+00 3.339073e+00 4.294300e+00 3.494371e+00 2.895362e+00 2.985542e+00 2.467476e+00 4.923862e+00
<GCONST> 1.090050e+02
<STATE> 4
<MEAN> 25
 6.781903e-01 -2.034857e-01 4.154929e-01 1.274464e-01 -3.705730e-01 -2.331823e-03 -3.174912e-01 -3.102570e-01 -5.720172e-02 3.676417e-02 -4.478786e-01 -2.517322e-01 -4.404199e-03 4.175964e-03 -4.123438e-03 -1.487727e-03 2.869108e-03 9.532251e-04 8.744561e-04 -1.910991e-03 1.007899e-05 -1.053957e-03 1.335637e-04 5.427509e-04 -6.256835e-03
<VARIANCE> 25
 6.131230e+01 5.709489e+01 6.752866e+01 5.628387e+01 6.487607e+01 5.554218e+01 5.775564e+01 6.389600e+01 5.488835e+01 3.821084e+01 4.471199e+01 3.842032e+01 2.433895e+00 2.770919e+00 2.824377e+00 3.051570e+00 3.368577e+00 3.107509e+00 3.287235e+00 4.184546e+00 3.430197e+00 2.848052e+00 2.941209e+00 2.425028e+00 4.819916e+00
<GCONST> 1.087000e+02
<TRANSP> 5
 0.000000e+00 1.000000e+00 0.000000e+00 0.000000e+00 0.000000e+00
 0.000000e+00 7.111187e-01 2.888813e-01 0.000000e+00 0.000000e+00
 0.000000e+00 0.000000e+00 7.111112e-01 2.888887e-01 0.000000e+00
 0.000000e+00 0.000000e+00 0.000000e+00 8.362902e-01 1.637098e-01
 0.000000e+00 0.000000e+00 0.000000e+00 0.000000e+00 0.000000e+00
<ENDHMM>
~h "O"
<BEGINHMM>
<NUMSTATES> 5
<STATE> 2
<MEAN> 25
 6.365157e-01 1.283029e-01 -6.095117e-01 -1.149466e+00 -2.567510e-01 8.644688e-01 -2.805810e-01 -3.761893e-01 2.377043e-02 2.563522e-01 4.974972e-01 4.185144e-02 -1.548115e-03 5.049633e-03 -2.068252e-03 -2.987289e-03 2.285580e-03 7.330660e-03 4.515597e-03 -4.112448e-03 -1.089450e-03 1.348583e-03 3.750145e-03 -3.042080e-04 -6.260596e-03
<VARIANCE> 25
 6.789621e+01 5.279236e+01 6.951689e+01 7.213416e+01 6.559839e+01 6.399582e+01 6.076452e+01 5.964740e+01 5.405708e+01 3.958217e+01 4.542996e+01 3.800367e+01 2.677378e+00 2.606726e+00 2.931554e+00 3.490977e+00 3.542014e+00 3.378666e+00 3.346866e+00 3.847926e+00 3.448882e+00 2.890944e+00 2.978574e+00 2.439009e+00 4.982230e+00
<GCONST> 1.095064e+02
<STATE> 3
<MEAN> 25
 6.301934e-01 1.463694e-01 -6.149895e-01 -1.159652e+00 -2.483941e-01 8.901370e-01 -2.660786e-01 -3.903918e-01 2.007212e-02 2.604102e-01 5.107911e-01 4.218333e-02 -3.793350e-03 5.323773e-03 -3.462015e-04 -1.283237e-04 2.653746e-03 4.946221e-03 4.673335e-03 -3.506871e-03 -1.286660e-03 6.924224e-04 2.803477e-03 1.760119e-04 -9.378901e-03
<VARIANCE> 25
 6.790379e+01 5.262540e+01 6.965150e+01 7.220447e+01 6.560524e+01 6.396612e+01 6.077222e+01 5.952646e+01 5.395015e+01 3.959467e+01 4.545690e+01 3.789847e+01 2.671739e+00 2.596209e+00 2.930357e+00 3.488606e+00 3.536055e+00 3.373294e+00 3.343204e+00 3.834578e+00 3.444764e+00 2.885950e+00 2.976648e+00 2.434389e+00 4.964685e+00
<GCONST> 1.094761e+02
<STATE> 4
<MEAN> 25
 6.593896e-01 1.606891e-01 -5.731651e-01 -1.175974e+00 -2.754182e-01 9.072187e-01 -2.818430e-01 -4.156454e-01 1.810446e-02 2.605886e-01 5.024970e-01 3.711516e-02 -5.655148e-03 5.222047e-03 1.406693e-03 1.991220e-03 2.933890e-03 2.876270e-03 4.659765e-03 -3.060569e-03 -1.255692e-03 2.211593e-04 1.615493e-03 8.365806e-04 -1.151190e-02
<VARIANCE> 25
 6.797471e+01 5.229952e+01 6.970329e+01 7.258023e+01 6.534309e+01 6.352082e+01 6.073593e+01 5.859548e+01 5.341264e+01 3.923779e+01 4.510974e+01 3.756771e+01 2.607281e+00 2.539633e+00 2.879599e+00 3.428833e+00 3.458783e+00 3.308445e+00 3.283269e+00 3.741408e+00 3.377780e+00 2.832505e+00 2.927353e+00 2.394773e+00 4.823978e+00
<GCONST> 1.091484e+02
<TRANSP> 5
 0.000000e+00 1.000000e+00 0.000000e+00 0.000000e+00 0.000000e+00
 0.000000e+00 7.148430e-01 2.851570e-01 0.000000e+00 0.000000e+00
 0.000000e+00 0.000000e+00 7.148347e-01 2.851653e-01 0.000000e+00
 0.000000e+00 0.000000e+00 0.000000e+00 8.407581e-01 1.592420e-01
 0.000000e+00 0.000000e+00 0.000000e+00 0.000000e+00 0.000000e+00
<ENDHMM>
~h "P"
<BEGINHMM>
<NUMSTATES> 5
<STATE> 2
<MEAN> 25
 6.015364e-02 4.389380e-03 -3.769408e-01 -1.612634e-01 6.877822e-02 4.136963e-02 5.487087e-02 1.272999e-03 2.682231e-02 5.693775e-02 1.344985e-01 -4.722323e-02 6.101910e-03 -4.431104e-04 -9.134809e-05 -5.480207e-03 -1.579172e-03 7.152291e-03 1.201824e-03 -3.686253e-03 4.896509e-04 7.764573e-04 -8.796001e-04 -5.260944e-03 1.179687e-02
<VARIANCE> 25
 6.323413e+01 5.640397e+01 6.464072e+01 5.784386e+01 6.323667e+01 5.670349e+01 5.623940e+01 5.882333e+01 5.304809e+01 3.632652e+01 4.152813e+01 3.908979e+01 2.621466e+00 2.840387e+00 2.741076e+00 3.169323e+00 3.417842e+00 3.244782e+00 3.250374e+00 3.821129e+00 3.374060e+00 2.780160e+00 2.911100e+00 2.484177e+00 6.000310e+00
<GCONST> 1.087016e+02
<STATE> 3
<MEAN> 25
 8.103174e-02 2.046215e-03 -3.771920e-01 -1.784956e-01 6.253923e-02 6.288370e-02 6.090698e-02 -9.271367e-03 2.940948e-02 5.982041e-02 1.313307e-01 -6.393439e-02 6.028596e-03 -2.833561e-04 3.118664e-04 -4.807674e-03 -1.999987e-03 6.099323e-03 1.642906e-03 -2.923175e-03 6.045789e-04 8.787011e-04 -1.188319e-03 -4.778443e-03 1.157083e-02
<VARIANCE> 25
 6.323950e+01 5.645489e+01 6.473509e+01 5.784830e+01 6.328670e+01 5.679212e+01 5.620027e+01 5.883362e+01 5.302032e+01 3.636536e+01 4.161872e+01 3.904618e+01 2.629325e+00 2.846381e+00 2.744818e+00 3.179430e+00 3.422168e+00 3.253148e+00 3.252418e+00 3.822248e+00 3.373314e+00 2.783250e+00 2.917063e+00 2.488208e+00 6.037655e+00
<GCONST> 1.087327e+02
<STATE> 4
<MEAN> 25
 1.064268e-01 -5.221764e-03 -3.681361e-01 -1.860404e-01 5.706867e-02 6.913882e-02 8.291501e-02 -1.424220e-02 4.034041e-02 6.356815e-02 1.169828e-01 -7.655840e-02 5.405082e-03 -8.130187e-05 1.198868e-03 -3.128530e-03 -2.254629e-03 3.961823e-03 1.827328e-03 -2.022625e-03 7.738472e-04 9.326342e-04 -1.306147e-03 -3.366871e-03 1.015444e-02
<VARIANCE> 25
 6.298892e+01 5.624937e+01 6.456805e+01 5.788370e+01 6.326159e+01 5.656224e+01 5.605953e+01 5.791089e+01 5.235939e+01 3.599657e+01 4.138065e+01 3.883663e+01 2.564713e+00 2.789292e+00 2.696056e+00 3.128344e+00 3.354808e+00 3.201163e+00 3.187596e+00 3.739963e+00 3.300900e+00 2.739465e+00 2.871657e+00 2.451703e+00 5.898324e+00
<GCONST> 1.084180e+02
<TRANSP> 5
 0.000000e+00 1.000000e+00 0.000000e+00 0.000000e+00 0.000000e+00
 0.000000e+00 7.124358e-01 2.875642e-01 0.000000e+00 0.000000e+00
 0.000000e+00 0.000000e+00 7.124376e-01 2.875624e-01 0.000000e+00
 0.000000e+00 0.000000e+00 0.000000e+00 8.381298e-01 1.618702e-01
 0.000000e+00 0.000000e+00 0.000000e+00 0.000000e+00 0.000000e+00
<ENDHMM>
~h "Q"
<BEGINHMM>
<NUMSTATES> 5
<STATE> 2
<MEAN> 25
 -1.094788e+00 6.276797e-01 -8.220160e-01 -3.778802e-01 4.238035e-01 1.152010e-01 7.754031e-01 -5.392630e-01 2.545949e-01 1.797759e-01 4.031473e-01 1.825826e-01 -2.465211e-03 3.040839e-02 -8.176883e-03 -8.013983e-03 2.232796e-02 1.791156e-02 1.486001e-02 3.524201e-03 -3.792936e-03 -1.292663e-02 -8.321856e-03 6.973719e-03 -9.321460e-02
<VARIANCE> 25
 6.066895e+01 5.375058e+01 7.117471e+01 6.491946e+01 6.594545e+01 5.204107e+01 5.463326e+01 4.861533e+01 5.392328e+01 3.478200e+01 3.956887e+01 3.473312e+01 2.315578e+00 2.526132e+00 2.703424e+00 2.781482e+00 3.242326e+00 2.952096e+00 2.919843e+00 3.236967e+00 3.028148e+00 2.653660e+00 2.602044e+00 2.152852e+00 4.823752e+00
<GCONST> 1.069322e+02
<STATE> 3
<MEAN> 25
 -1.104432e+00 7.410352e-01 -8.527586e-01 -4.109116e-01 5.107760e-01 1.833269e-01 8.393821e-01 -5.172213e-01 2.419623e-01 1.331730e-01 3.723591e-01 2.117707e-01 -6.938742e-03 3.005181e-02 -2.789546e-03 -1.549865e-03 2.013621e-02 1.145995e-02 1.606306e-02 1.021670e-02 -3.265822e-03 -1.215227e-02 -7.026038e-03 8.941927e-03 -9.337983e-02
<VARIANCE> 25
 6.014076e+01 5.334900e+01 6.969118e+01 6.503343e+01 6.466462e+01 5.113652e+01 5.423163e+01 4.803673e+01 5.281945e+01 3.462111e+01 3.915214e+01 3.432606e+01 2.281792e+00 2.461641e+00 2.658484e+00 2.783251e+00 3.187082e+00 2.904881e+00 2.864591e+00 3.191919e+00 2.985232e+00 2.613962e+00 2.568602e+00 2.110607e+00 4.693450e+00
<GCONST> 1.065798e+02
<STATE> 4
<MEAN> 25
 -1.092791e+00 8.275302e-01 -7.995958e-01 -4.478426e-01 5.026108e-01 3.200741e-01 9.452012e-01 -5.943195e-01 2.489637e-01 -6.845891e-04 4.050602e-01 2.994480e-01 -6.479676e-03 2.492766e-02 1.783654e-03 4.802101e-03 1.577192e-02 5.887537e-03 1.844935e-02 1.930194e-02 -4.213036e-03 -1.243098e-02 -5.927227e-04 1.080553e-02 -8.468243e-02
<VARIANCE> 25
 5.739359e+01 5.091938e+01 6.672172e+01 6.710249e+01 6.103120e+01 4.895855e+01 5.279284e+01 4.709762e+01 5.101433e+01 3.418897e+01 3.776920e+01 3.379817e+01 2.105186e+00 2.290515e+00 2.526210e+00 2.727726e+00 2.998324e+00 2.751809e+00 2.688236e+00 3.075361e+00 2.896868e+00 2.519369e+00 2.454833e+00 2.018153e+00 4.290276e+00
<GCONST> 1.055409e+02
<TRANSP> 5
 0.000000e+00 1.000000e+00 0.000000e+00 0.000000e+00 0.000000e+00
 0.000000e+00 7.332255e-01 2.667744e-01 0.000000e+00 0.000000e+00
 0.000000e+00 0.000000e+00 7.332250e-01 2.667750e-01 0.000000e+00
 0.000000e+00 0.000000e+00 0.000000e+00 8.664095e-01 1.335904e-01
 0.000000e+00 0.000000e+00 0.000000e+00 0.000000e+00 0.000000e+00
<ENDHMM>
~h "R"
<BEGINHMM>
<NUMSTATES> 5
<STATE> 2
<MEAN> 25
 4.239347e-01 -4.794053e-01 -2.232586e-01 -1.056732e-01 -1.910029e-01 -3.039564e-02 -3.042830e-01 1.306295e-01 2.697989e-01 1.161129e-01 4.541850e-02 -2.189517e-01 -1.336172e-04 3.661323e-03 -9.191296e-05 1.025569e-03 1.673541e-03 6.491338e-04 1.876268e-03 -9.913584e-04 -9.176188e-04 3.406395e-04 2.369554e-04 -1.238607e-03 -7.590716e-05
<VARIANCE> 25
 6.433768e+01 5.825557e+01 6.934283e+01 5.665918e+01 6.682802e+01 5.746976e+01 5.917041e+01 6.171870e+01 5.662891e+01 3.767365e+01 4.363103e+01 3.885874e+01 2.649181e+00 2.770763e+00 2.804966e+00 3.093210e+00 3.506770e+00 3.188818e+00 3.348711e+00 3.892287e+00 3.518323e+00 2.825414e+00 2.942418e+00 2.492228e+00 5.122179e+00
<GCONST> 1.090681e+02
<STATE> 3
<MEAN> 25
 4.228781e-01 -4.669296e-01 -2.234644e-01 -1.019686e-01 -1.838840e-01 -2.865827e-02 -2.976295e-01 1.267859e-01 2.661056e-01 1.171746e-01 4.591466e-02 -2.231381e-01 -1.740701e-03 5.071223e-03 2.972346e-05 1.222301e-03 2.482858e-03 2.690149e-04 2.650176e-03 -1.225982e-03 -1.488901e-03 2.697459e-04 2.204480e-05 -5.798347e-04 -3.420922e-03
<VARIANCE> 25
 6.446606e+01 5.828824e+01 6.949931e+01 5.653719e+01 6.688811e+01 5.745996e+01 5.919274e+01 6.164708e+01 5.666645e+01 3.762125e+01 4.364729e+01 3.882016e+01 2.648667e+00 2.767586e+00 2.803504e+00 3.089107e+00 3.503424e+00 3.184464e+00 3.347972e+00 3.885044e+00 3.517565e+00 2.821464e+00 2.939884e+00 2.488468e+00 5.115733e+00
<GCONST> 1.090565e+02
<STATE> 4
<MEAN> 25
 4.465291e-01 -4.623658e-01 -1.993310e-01 -1.211660e-01 -1.957779e-01 -2.309793e-02 -3.206387e-01 1.136043e-01 2.553189e-01 1.137569e-01 4.311058e-02 -2.391308e-01 -3.145266e-03 5.816720e-03 2.522366e-06 1.384376e-03 3.370917e-03 -1.038728e-04 3.509084e-03 -1.294065e-03 -2.014444e-03 1.591300e-04 -1.566110e-04 -2.084148e-05 -6.868301e-03
<VARIANCE> 25
 6.459778e+01 5.829281e+01 6.977269e+01 5.652663e+01 6.689874e+01 5.717766e+01 5.923160e+01 6.081588e+01 5.626613e+01 3.721488e+01 4.336323e+01 3.854758e+01 2.588599e+00 2.715756e+00 2.758939e+00 3.035770e+00 3.434593e+00 3.127342e+00 3.293479e+00 3.798947e+00 3.454336e+00 2.770942e+00 2.889888e+00 2.445014e+00 4.990402e+00
<GCONST> 1.087654e+02
<TRANSP> 5
 0.000000e+00 1.000000e+00 0.000000e+00 0.000000e+00 0.000000e+00
 0.000000e+00 7.127094e-01 2.872906e-01 0.000000e+00 0.000000e+00
 0.000000e+00 0.000000e+00 7.127075e-01 2.872926e-01 0.000000e+00
 0.000000e+00 0.000000e+00 0.000000e+00 8.379651e-01 1.620349e-01
 0.000000e+00 0.000000e+00 0.000000e+00 0.000000e+00 0.000000e+00
<ENDHMM>
~h "S"
<BEGINHMM>
<NUMSTATES> 5
<STATE> 2
<MEAN> 25
 -1.168630e+00 2.499839e-01 -2.929205e-01 7.785201e-02 3.860748e-01 -3.848910e-01 2.145558e-01 3.099759e-01 1.254497e-01 3.656838e-02 9.940372e-02 2.358282e-01 -2.493056e-03 4.312118e-03 9.753614e-04 -2.570517e-03 4.669237e-03 2.717869e-03 -3.683406e-04 -2.415069e-03 2.648543e-03 1.159843e-03 -1.411981e-03 -3.438490e-03 3.410049e-03
<VARIANCE> 25
 8.522437e+01 5.757465e+01 6.793240e+01 5.456148e+01 6.617352e+01 5.515279e+01 6.116698e+01 5.983564e+01 5.336646e+01 3.600660e+01 4.117987e+01 3.844650e+01 3.650395e+00 2.884547e+00 2.819242e+00 2.946665e+00 3.444846e+00 3.082657e+00 3.412005e+00 3.883361e+00 3.351199e+00 2.725241e+00 2.822393e+00 2.463204e+00 4.532916e+00
<GCONST> 1.090791e+02
<STATE> 3
<MEAN> 25
 -1.176476e+00 2.641798e-01 -2.907475e-01 6.917994e-02 4.017352e-01 -3.745695e-01 2.121421e-01 3.015895e-01 1.352711e-01 4.056153e-02 9.355893e-02 2.235488e-01 -2.394863e-05 3.803964e-03 6.060677e-04 -2.250864e-03 3.863789e-03 3.444835e-03 -6.197894e-04 -2.907705e-03 2.284833e-03 1.145962e-03 -1.828217e-03 -3.645374e-03 4.267582e-04
<VARIANCE> 25
 8.523532e+01 5.760812e+01 6.800381e+01 5.439695e+01 6.619944e+01 5.511138e+01 6.113683e+01 5.973053e+01 5.334311e+01 3.595486e+01 4.115181e+01 3.831943e+01 3.666972e+00 2.886412e+00 2.818882e+00 2.940427e+00 3.444430e+00 3.079201e+00 3.415389e+00 3.875406e+00 3.349051e+00 2.719173e+00 2.819900e+00 2.459215e+00 4.529693e+00
<GCONST> 1.090639e+02
<STATE> 4
<MEAN> 25
 -1.132278e+00 2.737099e-01 -2.856064e-01 5.805058e-02 3.909496e-01 -3.442259e-01 2.007455e-01 2.700159e-01 1.568915e-01 4.266980e-02 9.425165e-02 1.998958e-01 1.851568e-03 2.713344e-03 -7.263222e-05 -1.525223e-03 2.789399e-03 3.518512e-03 -7.139650e-04 -2.418418e-03 1.666828e-03 5.817394e-04 -2.050412e-03 -2.996579e-03 -1.272659e-03
<VARIANCE> 25
 8.441817e+01 5.729785e+01 6.783779e+01 5.428851e+01 6.576372e+01 5.455657e+01 6.091263e+01 5.852365e+01 5.276122e+01 3.551769e+01 4.076319e+01 3.783475e+01 3.568557e+00 2.824430e+00 2.761401e+00 2.881021e+00 3.363448e+00 3.020457e+00 3.342325e+00 3.778245e+00 3.278441e+00 2.666485e+00 2.767538e+00 2.412691e+00 4.401896e+00
<GCONST> 1.086709e+02
<TRANSP> 5
 0.000000e+00 1.000000e+00 0.000000e+00 0.000000e+00 0.000000e+00
 0.000000e+00 7.144520e-01 2.855480e-01 0.000000e+00 0.000000e+00
 0.000000e+00 0.000000e+00 7.144535e-01 2.855465e-01 0.000000e+00
 0.000000e+00 0.000000e+00 0.000000e+00 8.403832e-01 1.596168e-01
 0.000000e+00 0.000000e+00 0.000000e+00 0.000000e+00 0.000000e+00
<ENDHMM>
~h "T"
<BEGINHMM>
<NUMSTATES> 5
<STATE> 2
<MEAN> 25
 1.707569e-01 -4.662180e-02 -2.820436e-01 -3.185683e-01 -2.607810e-02 -1.557738e-01 -1.866593e-01 -9.573204e-02 9.723404e-02 1.365043e-01 -1.127254e-01 -2.113733e-01 2.233928e-05 4.422347e-03 7.044610e-04 -1.071111e-03 1.825404e-03 2.509122e-03 3.808639e-04 -4.284353e-03 1.725932e-03 1.935921e-03 -6.965902e-04 -1.039561e-03 -5.302697e-03
<VARIANCE> 25
 6.155860e+01 5.711422e+01 6.696354e+01 5.730882e+01 6.286535e+01 5.674222e+01 5.807231e+01 5.944471e+01 5.484512e+01 3.697356e+01 4.265831e+01 3.838494e+01 2.741977e+00 2.902112e+00 2.828805e+00 3.111791e+00 3.446239e+00 3.241399e+00 3.407552e+00 3.884162e+00 3.464923e+00 2.806379e+00 2.915522e+00 2.519060e+00 6.261673e+00
<GCONST> 1.090548e+02
<STATE> 3
<MEAN> 25
 1.704833e-01 -3.154818e-02 -2.791838e-01 -3.224784e-01 -2.001225e-02 -1.465927e-01 -1.848929e-01 -1.098749e-01 1.028173e-01 1.427369e-01 -1.152432e-01 -2.153295e-01 -4.977061e-04 4.290000e-03 1.204522e-03 -3.870874e-04 1.950821e-03 2.690445e-03 6.058261e-04 -3.854215e-03 1.384938e-03 1.759763e-03 -4.764086e-04 -7.896160e-04 -6.099948e-03
<VARIANCE> 25
 6.144139e+01 5.707054e+01 6.701010e+01 5.726785e+01 6.285587e+01 5.666474e+01 5.806924e+01 5.936612e+01 5.482696e+01 3.694376e+01 4.266468e+01 3.832296e+01 2.738946e+00 2.901189e+00 2.829412e+00 3.110417e+00 3.443932e+00 3.239424e+00 3.409219e+00 3.878835e+00 3.462760e+00 2.804636e+00 2.914288e+00 2.518120e+00 6.285328e+00
<GCONST> 1.090445e+02
<STATE> 4
<MEAN> 25
 1.952633e-01 -2.877711e-02 -2.524902e-01 -3.384628e-01 -3.851762e-02 -1.284567e-01 -1.970254e-01 -1.324116e-01 1.040113e-01 1.431751e-01 -1.173305e-01 -2.371574e-01 -9.404738e-04 4.010063e-03 1.605298e-03 1.434345e-04 1.883491e-03 2.634709e-03 8.954948e-04 -3.223499e-03 9.739065e-04 1.206487e-03 -2.977071e-04 -4.260102e-04 -6.222368e-03
<VARIANCE> 25
 6.131241e+01 5.684415e+01 6.711703e+01 5.721287e+01 6.279208e+01 5.625607e+01 5.800993e+01 5.832205e+01 5.431047e+01 3.653995e+01 4.242245e+01 3.801745e+01 2.670073e+00 2.844882e+00 2.783410e+00 3.051303e+00 3.375459e+00 3.181957e+00 3.345620e+00 3.783863e+00 3.392884e+00 2.754110e+00 2.868388e+00 2.478161e+00 6.149784e+00
<GCONST> 1.087234e+02
<TRANSP> 5
 0.000000e+00 1.000000e+00 0.000000e+00 0.000000e+00 0.000000e+00
 0.000000e+00 7.133743e-01 2.866257e-01 0.000000e+00 0.000000e+00
 0.000000e+00 0.000000e+00 7.133750e-01 2.866250e-01 0.000000e+00
 0.000000e+00 0.000000e+00 0.000000e+00 8.388702e-01 1.611298e-01
 0.000000e+00 0.000000e+00 0.000000e+00 0.000000e+00 0.000000e+00
<ENDHMM>
~h "U"
<BEGINHMM>
<NUMSTATES> 5
<STATE> 2
<MEAN> 25
 5.048929e-01 6.495152e-01 4.243968e-02 -4.270265e-01 -2.998324e-01 4.388636e-01 -7.116415e-01 -6.141271e-01 -3.747600e-01 3.188642e-02 2.043048e-01 1.075415e-01 3.033840e-03 7.000943e-03 1.502526e-03 -1.151798e-03 -1.533843e-03 7.154318e-03 -1.945670e-03 -7.309582e-03 -2.617984e-03 7.058254e-05 9.934005e-04 -8.636172e-04 3.779826e-03
<VARIANCE> 25
 6.692558e+01 5.645068e+01 6.420168e+01 5.997194e+01 6.540942e+01 5.795716e+01 6.328691e+01 6.413818e+01 5.578230e+01 3.815981e+01 4.368755e+01 3.821986e+01 2.767638e+00 2.745061e+00 2.794530e+00 3.290461e+00 3.557937e+00 3.306828e+00 3.534630e+00 4.013158e+00 3.499739e+00 2.885742e+00 3.017921e+00 2.507692e+00 4.971714e+00
<GCONST> 1.093766e+02
<STATE> 3
<MEAN> 25
 5.156405e-01 6.728086e-01 4.832061e-02 -4.313244e-01 -3.069341e-01 4.630305e-01 -7.187577e-01 -6.381251e-01 -3.838851e-01 3.104931e-02 2.078109e-01 1.049100e-01 1.995654e-03 5.815634e-03 1.593708e-03 -2.205222e-04 -1.141058e-03 6.067058e-03 -1.167715e-03 -6.396647e-03 -1.850762e-03 -3.334158e-04 5.802065e-04 -1.268174e-03 2.657303e-03
<VARIANCE> 25
 6.695374e+01 5.639299e+01 6.424179e+01 6.003938e+01 6.554921e+01 5.795630e+01 6.336745e+01 6.422134e+01 5.579497e+01 3.818625e+01 4.375440e+01 3.820461e+01 2.771592e+00 2.743815e+00 2.796184e+00 3.294584e+00 3.563779e+00 3.308508e+00 3.539098e+00 4.015467e+00 3.502440e+00 2.891032e+00 3.021909e+00 2.509216e+00 4.973351e+00
<GCONST> 1.093961e+02
<STATE> 4
<MEAN> 25
 5.532175e-01 6.600211e-01 7.203938e-02 -4.581023e-01 -3.425054e-01 4.804660e-01 -7.384326e-01 -6.454846e-01 -3.922343e-01 2.979983e-02 2.056385e-01 7.586078e-02 1.264970e-03 4.452590e-03 1.438127e-03 9.222564e-05 -1.255697e-03 4.975647e-03 -7.647492e-04 -5.107754e-03 -1.034729e-03 -5.365566e-04 4.059202e-04 -1.476333e-03 1.958437e-03
<VARIANCE> 25
 6.699941e+01 5.611167e+01 6.434127e+01 6.004198e+01 6.546846e+01 5.761644e+01 6.330366e+01 6.332994e+01 5.546593e+01 3.787484e+01 4.362824e+01 3.792797e+01 2.716001e+00 2.690516e+00 2.753045e+00 3.235682e+00 3.497059e+00 3.252048e+00 3.481024e+00 3.928311e+00 3.448163e+00 2.849359e+00 2.980311e+00 2.471623e+00 4.860487e+00
<GCONST> 1.091169e+02
<TRANSP> 5
 0.000000e+00 1.000000e+00 0.000000e+00 0.000000e+00 0.000000e+00
 0.000000e+00 7.134204e-01 2.865796e-01 0.000000e+00 0.000000e+00
 0.000000e+00 0.000000e+00 7.134140e-01 2.865860e-01 0.000000e+00
 0.000000e+00 0.000000e+00 0.000000e+00 8.389398e-01 1.610601e-01
 0.000000e+00 0.000000e+00 0.000000e+00 0.000000e+00 0.000000e+00
<ENDHMM>
~h "V"
<BEGINHMM>
<NUMSTATES> 5
<STATE> 2
<MEAN> 25
 -8.620944e-01 -2.729404e-01 -6.154497e-02 1.645066e-01 -2.592049e-02 1.119145e-01 1.444713e-01 2.238687e-01 -4.169865e-02 -5.660063e-02 3.793910e-01 3.305772e-01 -6.078531e-03 1.133657e-02 1.089102e-02 1.910194e-03 -1.235740e-02 -4.739237e-04 -6.531560e-04 -4.483082e-03 -5.330130e-03 2.471412e-03 7.077200e-03 3.618374e-03 2.582677e-02
<VARIANCE> 25
 7.223579e+01 5.366134e+01 7.336722e+01 6.004482e+01 6.682439e+01 5.880956e+01 5.639491e+01 5.779129e+01 5.181824e+01 3.610027e+01 4.087341e+01 3.841188e+01 3.351909e+00 2.632971e+00 2.892875e+00 3.118015e+00 3.548320e+00 3.160264e+00 3.195953e+00 3.710091e+00 3.242719e+00 2.737085e+00 2.776253e+00 2.449577e+00 4.445404e+00
<GCONST> 1.087180e+02
<STATE> 3
<MEAN> 25
 -8.843892e-01 -2.385301e-01 -2.080059e-02 1.695423e-01 -6.867589e-02 1.039085e-01 1.435415e-01 2.117528e-01 -5.878118e-02 -4.713404e-02 4.003738e-01 3.383513e-01 -6.138071e-03 1.181641e-02 1.098387e-02 1.485746e-03 -1.227783e-02 -2.284061e-03 4.905045e-04 -5.990447e-03 -5.289396e-03 2.760207e-03 5.537537e-03 3.214740e-03 2.225177e-02
<VARIANCE> 25
 7.263744e+01 5.356194e+01 7.414066e+01 6.013373e+01 6.691923e+01 5.895447e+01 5.664017e+01 5.787888e+01 5.183944e+01 3.608250e+01 4.081786e+01 3.852570e+01 3.384919e+00 2.628846e+00 2.908123e+00 3.128432e+00 3.560192e+00 3.168679e+00 3.209565e+00 3.709364e+00 3.243077e+00 2.739024e+00 2.768504e+00 2.449962e+00 4.416068e+00
<GCONST> 1.087633e+02
<STATE> 4
<MEAN> 25
 -8.035150e-01 -2.502182e-01 5.191843e-02 1.011076e-01 -1.884089e-01 1.241395e-01 6.192505e-02 1.671758e-01 -8.786592e-02 9.650924e-04 3.949906e-01 2.867652e-01 -6.185745e-03 1.042509e-02 1.042710e-02 -8.008185e-05 -1.065679e-02 -4.033499e-03 2.562646e-03 -7.439634e-03 -5.392244e-03 3.590822e-03 2.853639e-03 5.663522e-04 1.837333e-02
<VARIANCE> 25
 7.224931e+01 5.363009e+01 7.541725e+01 6.018772e+01 6.692233e+01 5.923753e+01 5.652958e+01 5.735131e+01 5.158458e+01 3.570105e+01 4.047524e+01 3.839531e+01 3.320423e+00 2.582302e+00 2.894547e+00 3.100418e+00 3.507926e+00 3.140231e+00 3.164185e+00 3.641061e+00 3.203214e+00 2.708855e+00 2.717888e+00 2.413318e+00 4.338530e+00
<GCONST> 1.085615e+02
<TRANSP> 5
 0.000000e+00 1.000000e+00 0.000000e+00 0.000000e+00 0.000000e+00
 0.000000e+00 7.148916e-01 2.851085e-01 0.000000e+00 0.000000e+00
 0.000000e+00 0.000000e+00 7.148930e-01 2.851070e-01 0.000000e+00
 0.000000e+00 0.000000e+00 0.000000e+00 8.401690e-01 1.598310e-01
 0.000000e+00 0.000000e+00 0.000000e+00 0.000000e+00 0.000000e+00
<ENDHMM>
~h "W"
<BEGINHMM>
<NUMSTATES> 5
<STATE> 2
<MEAN> 25
 6.907115e-01 -8.287895e-02 -2.203516e-01 -1.092974e+00 -3.467338e-01 5.948833e-01 -5.473645e-01 -3.292052e-03 -6.891356e-03 1.230842e-01 3.092867e-01 -2.388495e-01 3.651768e-03 4.182534e-03 -5.645094e-03 -3.810970e-03 6.621398e-03 9.644027e-03 4.857319e-03 1.409184e-03 4.505435e-03 1.849367e-04 1.311198e-03 -2.942823e-03 -1.995347e-03
<VARIANCE> 25
 6.607343e+01 5.718296e+01 6.964160e+01 7.246301e+01 6.611481e+01 6.501085e+01 5.774456e+01 5.784629e+01 5.526457e+01 3.776524e+01 4.541899e+01 3.921607e+01 2.474115e+00 2.734019e+00 2.690042e+00 3.129699e+00 3.454351e+00 3.215576e+00 3.247725e+00 3.714882e+00 3.300961e+00 2.737211e+00 2.912376e+00 2.509116e+00 4.532547e+00
<GCONST> 1.089601e+02
<STATE> 3
<MEAN> 25
 7.028084e-01 -7.043454e-02 -2.351353e-01 -1.103758e+00 -3.269015e-01 6.255970e-01 -5.280920e-01 2.959616e-03 9.135657e-03 1.188933e-01 3.136280e-01 -2.451656e-01 1.429317e-03 4.438609e-03 -6.242583e-03 -2.049409e-03 7.104426e-03 8.261711e-03 6.615214e-03 1.624991e-03 5.519544e-03 -9.696935e-04 4.314446e-04 -1.484391e-03 -6.618263e-03
<VARIANCE> 25
 6.587839e+01 5.698859e+01 6.959150e+01 7.276734e+01 6.616000e+01 6.505308e+01 5.789799e+01 5.783007e+01 5.506900e+01 3.775341e+01 4.552805e+01 3.921228e+01 2.463481e+00 2.724244e+00 2.679319e+00 3.125757e+00 3.446692e+00 3.210085e+00 3.243932e+00 3.709357e+00 3.290278e+00 2.734006e+00 2.909276e+00 2.504174e+00 4.512852e+00
<GCONST> 1.089278e+02
<STATE> 4
<MEAN> 25
 7.062715e-01 -6.114461e-02 -2.211939e-01 -1.098158e+00 -3.138144e-01 6.440585e-01 -4.986137e-01 7.622404e-03 2.560568e-02 1.058902e-01 3.054627e-01 -2.416855e-01 -5.497723e-04 4.890318e-03 -6.013414e-03 2.223093e-04 7.207640e-03 6.599588e-03 7.531426e-03 5.078070e-04 5.034379e-03 -2.367138e-03 -2.038656e-05 5.434155e-04 -1.266118e-02
<VARIANCE> 25
 6.595441e+01 5.654646e+01 6.933969e+01 7.288799e+01 6.577370e+01 6.419455e+01 5.790862e+01 5.688911e+01 5.443719e+01 3.730382e+01 4.500909e+01 3.892487e+01 2.388375e+00 2.645440e+00 2.616515e+00 3.052135e+00 3.356987e+00 3.127106e+00 3.170892e+00 3.614853e+00 3.211542e+00 2.679739e+00 2.848300e+00 2.442614e+00 4.358712e+00
<GCONST> 1.085074e+02
<TRANSP> 5
 0.000000e+00 1.000000e+00 0.000000e+00 0.000000e+00 0.000000e+00
 0.000000e+00 7.167158e-01 2.832842e-01 0.000000e+00 0.000000e+00
 0.000000e+00 0.000000e+00 7.167192e-01 2.832808e-01 0.000000e+00
 0.000000e+00 0.000000e+00 0.000000e+00 8.437933e-01 1.562068e-01
 0.000000e+00 0.000000e+00 0.000000e+00 0.000000e+00 0.000000e+00
<ENDHMM>
~h "X"
<BEGINHMM>
<NUMSTATES> 5
<STATE> 2
<MEAN> 25
 -3.330672e+00 7.870849e-01 -1.078986e-01 1.531308e+00 5.814865e-01 -1.486707e+00 1.753867e+00 2.170382e+00 -1.020455e+00 -5.883956e-01 1.059188e+00 -4.231713e-01 -2.659320e-02 -2.778038e-02 2.486185e-02 -1.966133e-02 1.522998e-02 -3.362590e-02 -1.343631e-03 2.558992e-02 1.000101e-02 -5.486595e-03 -4.055295e-03 2.973497e-02 3.189190e-02
<VARIANCE> 25
 4.365071e+01 4.082867e+01 6.303366e+01 4.689086e+01 6.075477e+01 4.372598e+01 3.801938e+01 5.032746e+01 4.188136e+01 3.173232e+01 3.514479e+01 2.891962e+01 1.248945e+00 1.878435e+00 2.736270e+00 2.442415e+00 2.662618e+00 2.253790e+00 2.408286e+00 3.204666e+00 2.824118e+00 1.935431e+00 2.735394e+00 2.290860e+00 5.391206e+00
<GCONST> 1.027879e+02
<STATE> 3
<MEAN> 25
 -3.375074e+00 6.498009e-01 -4.375258e-03 1.397650e+00 6.829559e-01 -1.570766e+00 1.739803e+00 2.262323e+00 -9.570617e-01 -6.026781e-01 1.043890e+00 -3.097620e-01 -1.773619e-02 -3.046178e-02 2.533806e-02 -3.163879e-02 1.988513e-02 -2.878802e-02 -3.051730e-03 2.730198e-02 1.702253e-02 -7.098089e-03 -3.438626e-03 3.471013e-02 4.254083e-02
<VARIANCE> 25
 4.535417e+01 4.328063e+01 6.244548e+01 5.010402e+01 6.262242e+01 4.445022e+01 3.811801e+01 5.014823e+01 4.286313e+01 3.238084e+01 3.546721e+01 2.915877e+01 1.322159e+00 1.955081e+00 2.792681e+00 2.548425e+00 2.763104e+00 2.307480e+00 2.435137e+00 3.171551e+00 2.800375e+00 1.983139e+00 2.773198e+00 2.270598e+00 5.592277e+00
<GCONST> 1.033264e+02
<STATE> 4
<MEAN> 25
 -3.468680e+00 2.808838e-01 1.428851e-02 1.206745e+00 1.237635e+00 -1.713409e+00 1.731760e+00 2.333906e+00 -5.586399e-01 -7.145836e-01 1.036931e+00 -7.197822e-02 7.423203e-03 -4.280001e-02 2.417178e-02 -6.066827e-02 3.509798e-02 -1.316891e-02 -1.050954e-02 2.558559e-02 2.945296e-02 -5.143665e-03 -3.256245e-03 3.551955e-02 7.548312e-02
<VARIANCE> 25
 4.463736e+01 4.954292e+01 5.842261e+01 5.640246e+01 6.228137e+01 4.393576e+01 3.594553e+01 4.998378e+01 4.290536e+01 3.190329e+01 3.270145e+01 2.749588e+01 1.326316e+00 2.053473e+00 2.633625e+00 2.641811e+00 2.732397e+00 2.288769e+00 2.412416e+00 2.893728e+00 2.614686e+00 2.055221e+00 2.692195e+00 2.127713e+00 5.407483e+00
<GCONST> 1.030127e+02
<TRANSP> 5
 0.000000e+00 1.000000e+00 0.000000e+00 0.000000e+00 0.000000e+00
 0.000000e+00 7.214039e-01 2.785961e-01 0.000000e+00 0.000000e+00
 0.000000e+00 0.000000e+00 7.214038e-01 2.785961e-01 0.000000e+00
 0.000000e+00 0.000000e+00 0.000000e+00 8.473443e-01 1.526557e-01
 0.000000e+00 0.000000e+00 0.000000e+00 0.000000e+00 0.000000e+00
<ENDHMM>
~h "Y"
<BEGINHMM>
<NUMSTATES> 5
<STATE> 2
<MEAN> 25
 -8.784196e-02 -3.539222e-01 2.723022e-01 -3.083254e-01 -4.173070e-01 -3.416080e-01 7.785384e-03 5.161968e-01 -2.337767e-02 -1.479842e-01 1.782945e-01 6.744765e-02 3.503176e-03 7.254177e-04 1.040524e-02 -3.586383e-03 -7.475246e-03 -4.227705e-03 -2.880085e-03 3.921644e-03 -4.712095e-03 -3.738075e-03 -1.185838e-03 -1.526870e-03 1.763453e-02
<VARIANCE> 25
 6.046867e+01 5.657215e+01 7.535748e+01 5.503207e+01 6.885207e+01 5.481451e+01 5.890884e+01 6.153116e+01 5.407986e+01 3.804242e+01 4.378564e+01 3.860152e+01 2.355713e+00 2.617457e+00 2.978809e+00 2.802569e+00 3.323405e+00 2.991277e+00 3.150146e+00 3.847728e+00 3.311189e+00 2.742260e+00 2.866177e+00 2.386520e+00 4.301322e+00
<GCONST> 1.082285e+02
<STATE> 3
<MEAN> 25
 -7.612500e-02 -3.535444e-01 3.079578e-01 -3.231981e-01 -4.434412e-01 -3.584022e-01 -3.751410e-03 5.289150e-01 -3.851456e-02 -1.575521e-01 1.737094e-01 6.091787e-02 2.895430e-03 1.434825e-03 9.374193e-03 -3.148710e-03 -6.621426e-03 -4.413545e-03 -2.918130e-03 2.081003e-03 -4.210273e-03 -2.653698e-03 -1.875158e-03 -1.900686e-03 1.489203e-02
<VARIANCE> 25
 6.041933e+01 5.665601e+01 7.558511e+01 5.494868e+01 6.897690e+01 5.480908e+01 5.894139e+01 6.169508e+01 5.418187e+01 3.808338e+01 4.389050e+01 3.855823e+01 2.358688e+00 2.619521e+00 2.994077e+00 2.796850e+00 3.327720e+00 2.991160e+00 3.151406e+00 3.856204e+00 3.312616e+00 2.743543e+00 2.870332e+00 2.388259e+00 4.276025e+00
<GCONST> 1.082460e+02
<STATE> 4
<MEAN> 25
 -7.622168e-02 -3.296953e-01 3.402871e-01 -3.138859e-01 -4.422227e-01 -3.557603e-01 -1.574906e-03 5.095629e-01 -4.758893e-02 -1.425990e-01 1.538679e-01 7.214046e-02 2.342330e-03 9.935375e-04 8.163886e-03 -3.432235e-03 -5.857070e-03 -4.406851e-03 -3.757925e-03 8.473630e-04 -2.627175e-03 -8.169942e-04 -2.789394e-03 -1.859258e-03 1.286153e-02
<VARIANCE> 25
 6.002670e+01 5.644574e+01 7.549256e+01 5.471878e+01 6.857268e+01 5.419466e+01 5.903374e+01 6.058085e+01 5.362958e+01 3.755427e+01 4.350682e+01 3.821506e+01 2.292165e+00 2.557657e+00 2.936315e+00 2.733352e+00 3.251341e+00 2.935234e+00 3.091233e+00 3.757557e+00 3.235943e+00 2.694388e+00 2.818189e+00 2.341923e+00 4.117740e+00
<GCONST> 1.078552e+02
<TRANSP> 5
 0.000000e+00 1.000000e+00 0.000000e+00 0.000000e+00 0.000000e+00
 0.000000e+00 7.184775e-01 2.815225e-01 0.000000e+00 0.000000e+00
 0.000000e+00 0.000000e+00 7.184803e-01 2.815197e-01 0.000000e+00
 0.000000e+00 0.000000e+00 0.000000e+00 8.457680e-01 1.542320e-01
 0.000000e+00 0.000000e+00 0.000000e+00 0.000000e+00 0.000000e+00
<ENDHMM>
~h "Z"
<BEGINHMM>
<NUMSTATES> 5
<STATE> 2
<MEAN> 25
 -8.717634e-01 8.313736e-01 4.163019e-01 7.270333e-01 2.731067e-01 -3.942558e-01 4.814398e-02 -1.154710e-02 8.801202e-02 2.225338e-03 9.471787e-02 5.259311e-01 -2.229225e-03 -2.633892e-03 3.180334e-03 7.681405e-03 3.574950e-03 3.439797e-03 6.193432e-03 -6.394051e-03 -3.902936e-03 -2.838583e-04 -7.698487e-03 -1.655607e-03 -1.755085e-02
<VARIANCE> 25
 6.260511e+01 6.272364e+01 6.658707e+01 5.560689e+01 6.625104e+01 5.542791e+01 5.811391e+01 5.929866e+01 5.230138e+01 3.455090e+01 3.983065e+01 3.625245e+01 2.341575e+00 2.574539e+00 2.374452e+00 2.705410e+00 3.097525e+00 2.869789e+00 2.923394e+00 3.487897e+00 2.972708e+00 2.428267e+00 2.542668e+00 2.204771e+00 3.515944e+00
<GCONST> 1.066887e+02
<STATE> 3
<MEAN> 25
 -8.841784e-01 8.234547e-01 4.252053e-01 7.577953e-01 2.881314e-01 -3.865118e-01 6.958000e-02 -3.204188e-02 7.639816e-02 5.048233e-04 6.691588e-02 5.243246e-01 -3.405674e-03 -3.337653e-03 -2.195171e-03 7.797527e-03 5.995076e-03 3.973272e-03 8.436783e-03 -6.098172e-03 -2.881572e-03 -2.057242e-03 -9.502818e-03 -1.531997e-03 -2.485499e-02
<VARIANCE> 25
 6.222352e+01 6.247912e+01 6.652697e+01 5.532339e+01 6.609126e+01 5.530555e+01 5.814765e+01 5.930198e+01 5.235258e+01 3.455642e+01 3.977123e+01 3.599310e+01 2.320889e+00 2.557050e+00 2.367369e+00 2.692899e+00 3.084678e+00 2.857415e+00 2.909784e+00 3.477110e+00 2.962220e+00 2.422313e+00 2.531807e+00 2.193529e+00 3.486385e+00
<GCONST> 1.065977e+02
<STATE> 4
<MEAN> 25
 -8.256346e-01 7.752807e-01 4.247082e-01 7.347167e-01 2.790043e-01 -4.191893e-01 1.629456e-02 -5.444730e-02 7.710898e-02 2.354931e-02 1.211314e-02 4.792959e-01 -4.732940e-03 -3.080309e-03 -5.591056e-03 7.530930e-03 8.402792e-03 3.730885e-03 9.165741e-03 -3.699995e-03 -1.318812e-04 -2.898668e-03 -8.817227e-03 -2.457787e-04 -3.049973e-02
<VARIANCE> 25
 6.182435e+01 6.209376e+01 6.649487e+01 5.503573e+01 6.591037e+01 5.454968e+01 5.828573e+01 5.846732e+01 5.212974e+01 3.437303e+01 3.973896e+01 3.566846e+01 2.253355e+00 2.508759e+00 2.317726e+00 2.639293e+00 3.023539e+00 2.806986e+00 2.869967e+00 3.396906e+00 2.905878e+00 2.376891e+00 2.495108e+00 2.160800e+00 3.376402e+00
<GCONST> 1.062670e+02
<TRANSP> 5
 0.000000e+00 1.000000e+00 0.000000e+00 0.000000e+00 0.000000e+00
 0.000000e+00 7.280746e-01 2.719254e-01 0.000000e+00 0.000000e+00
 0.000000e+00 0.000000e+00 7.280772e-01 2.719229e-01 0.000000e+00
 0.000000e+00 0.000000e+00 0.000000e+00 8.567167e-01 1.432834e-01
 0.000000e+00 0.000000e+00 0.000000e+00 0.000000e+00 0.000000e+00
<ENDHMM>
~h "e"
<BEGINHMM>
<NUMSTATES> 5
<STATE> 2
<MEAN> 25
 3.009621e-01 -1.259599e-01 -6.362988e-02 -3.578046e-02 -1.906031e-01 -1.250987e-01 -4.518727e-01 -1.498942e-01 8.372236e-02 1.514116e-01 -5.079675e-03 -1.652581e-01 1.464205e-02 -1.141200e-03 1.295947e-03 -5.048056e-03 -2.880093e-03 4.678313e-03 -5.245103e-03 -5.302927e-03 1.168069e-03 3.883313e-03 -1.497783e-03 -7.180928e-03 2.524280e-02
<VARIANCE> 25
 6.554758e+01 5.564010e+01 6.463182e+01 5.646020e+01 6.335867e+01 5.689452e+01 6.081106e+01 6.249076e+01 5.659102e+01 3.817447e+01 4.277426e+01 3.909702e+01 2.728028e+00 2.819687e+00 2.792949e+00 3.116159e+00 3.437160e+00 3.187898e+00 3.446653e+00 4.031573e+00 3.570252e+00 2.839672e+00 2.979130e+00 2.522078e+00 5.285843e+00
<GCONST> 1.091112e+02
<STATE> 3
<MEAN> 25
 3.504900e-01 -1.308735e-01 -5.885544e-02 -5.199729e-02 -2.019130e-01 -1.112642e-01 -4.709715e-01 -1.653281e-01 8.671808e-02 1.621673e-01 -9.583605e-03 -1.888625e-01 1.394419e-02 -1.321708e-03 1.121686e-03 -4.550598e-03 -2.732477e-03 4.442020e-03 -4.172490e-03 -4.093118e-03 7.226336e-04 2.751520e-03 -1.426603e-03 -6.410468e-03 2.428119e-02
<VARIANCE> 25
 6.552552e+01 5.572047e+01 6.472775e+01 5.653358e+01 6.339043e+01 5.705791e+01 6.090212e+01 6.265028e+01 5.677705e+01 3.827576e+01 4.287033e+01 3.913172e+01 2.733433e+00 2.828148e+00 2.801772e+00 3.127642e+00 3.443764e+00 3.197581e+00 3.455754e+00 4.040236e+00 3.582869e+00 2.845921e+00 2.987049e+00 2.528772e+00 5.311044e+00
<GCONST> 1.091689e+02
<STATE> 4
<MEAN> 25
 4.172917e-01 -1.462547e-01 -4.474737e-02 -8.650702e-02 -2.212433e-01 -1.015119e-01 -5.154487e-01 -1.721757e-01 8.561973e-02 1.699476e-01 -1.902501e-02 -2.257624e-01 1.273311e-02 -1.566716e-03 1.103871e-03 -4.259075e-03 -2.700031e-03 3.810595e-03 -3.688185e-03 -2.867915e-03 2.425659e-04 1.560181e-03 -1.331470e-03 -5.754371e-03 2.338750e-02
<VARIANCE> 25
 6.537914e+01 5.564648e+01 6.489771e+01 5.666918e+01 6.334597e+01 5.693863e+01 6.111611e+01 6.181614e+01 5.650211e+01 3.807301e+01 4.274817e+01 3.898656e+01 2.673155e+00 2.780330e+00 2.763350e+00 3.084217e+00 3.387949e+00 3.158122e+00 3.406869e+00 3.956064e+00 3.528381e+00 2.809289e+00 2.947697e+00 2.497596e+00 5.196943e+00
<GCONST> 1.089341e+02
<TRANSP> 5
 0.000000e+00 1.000000e+00 0.000000e+00 0.000000e+00 0.000000e+00
 0.000000e+00 7.109039e-01 2.890960e-01 0.000000e+00 0.000000e+00
 0.000000e+00 0.000000e+00 7.109080e-01 2.890919e-01 0.000000e+00
 0.000000e+00 0.000000e+00 0.000000e+00 8.359531e-01 1.640469e-01
 0.000000e+00 0.000000e+00 0.000000e+00 0.000000e+00 0.000000e+00
<ENDHMM>
~h "AI"
<BEGINHMM>
<NUMSTATES> 5
<STATE> 2
<MEAN> 25
 2.172641e-01 -1.017801e-01 5.576099e-01 -4.015318e-01 -7.016588e-01 -4.217966e-01 -3.755316e-01 3.343757e-01 -1.261168e-01 2.176117e-01 2.765301e-01 -2.202626e-01 8.261413e-03 -2.078150e-03 7.688096e-03 -3.888585e-03 -3.479126e-03 9.056554e-04 -7.303274e-03 -2.613832e-04 -5.505553e-03 3.628748e-03 -7.636633e-05 -6.461354e-03 2.025942e-02
<VARIANCE> 25
 6.534269e+01 5.929029e+01 7.001019e+01 5.586713e+01 6.784832e+01 5.876419e+01 5.834730e+01 6.388753e+01 5.643555e+01 3.757694e+01 4.272603e+01 3.780080e+01 2.750884e+00 2.879615e+00 2.781831e+00 3.035481e+00 3.448433e+00 3.195292e+00 3.334495e+00 4.041283e+00 3.529789e+00 2.806046e+00 2.970604e+00 2.513314e+00 4.772646e+00
<GCONST> 1.091114e+02
<STATE> 3
<MEAN> 25
 2.446322e-01 -1.124852e-01 5.857172e-01 -4.162022e-01 -7.186806e-01 -4.196908e-01 -3.988091e-01 3.331994e-01 -1.419720e-01 2.299359e-01 2.760928e-01 -2.419399e-01 7.825281e-03 -3.016050e-03 6.114395e-03 -3.967623e-03 -4.223621e-03 7.001849e-04 -7.512311e-03 -1.318586e-03 -3.761790e-03 2.798568e-03 -4.683530e-04 -6.637051e-03 2.170727e-02
<VARIANCE> 25
 6.524088e+01 5.935217e+01 6.987644e+01 5.584150e+01 6.807634e+01 5.897419e+01 5.840591e+01 6.403068e+01 5.635210e+01 3.759869e+01 4.275853e+01 3.772300e+01 2.756053e+00 2.888369e+00 2.798996e+00 3.044276e+00 3.468677e+00 3.204567e+00 3.336668e+00 4.050286e+00 3.531431e+00 2.809198e+00 2.975945e+00 2.514154e+00 4.804208e+00
<GCONST> 1.091524e+02
<STATE> 4
<MEAN> 25
 2.817688e-01 -1.325448e-01 6.349792e-01 -4.307574e-01 -7.580029e-01 -3.988642e-01 -4.084805e-01 2.974378e-01 -1.465986e-01 2.373752e-01 2.459557e-01 -2.909755e-01 6.955851e-03 -4.898859e-03 4.933768e-03 -4.633035e-03 -5.808236e-03 4.871401e-04 -7.326974e-03 -2.902078e-03 -2.025252e-03 1.804881e-03 -8.735889e-04 -6.219359e-03 2.308919e-02
<VARIANCE> 25
 6.497387e+01 5.931779e+01 6.981229e+01 5.561282e+01 6.797703e+01 5.881228e+01 5.830970e+01 6.328394e+01 5.560394e+01 3.720889e+01 4.244383e+01 3.721935e+01 2.690251e+00 2.836002e+00 2.761259e+00 2.982865e+00 3.415991e+00 3.157610e+00 3.270711e+00 3.957928e+00 3.447620e+00 2.762104e+00 2.929206e+00 2.464379e+00 4.705454e+00
<GCONST> 1.088335e+02
<TRANSP> 5
 0.000000e+00 1.000000e+00 0.000000e+00 0.000000e+00 0.000000e+00
 0.000000e+00 7.187033e-01 2.812967e-01 0.000000e+00 0.000000e+00
 0.000000e+00 0.000000e+00 7.186980e-01 2.813020e-01 0.000000e+00
 0.000000e+00 0.000000e+00 0.000000e+00 8.453882e-01 1.546119e-01
 0.000000e+00 0.000000e+00 0.000000e+00 0.000000e+00 0.000000e+00
<ENDHMM>
~h "AU"
<BEGINHMM>
<NUMSTATES> 5
<STATE> 2
<MEAN> 25
 2.260299e-01 -2.713549e-01 -9.859585e-01 -1.408879e+00 3.385612e-01 8.291406e-01 -1.227616e-01 -1.162549e-01 3.662577e-01 1.448142e-02 2.279357e-01 6.298127e-02 1.064897e-02 5.689684e-03 -6.406443e-03 -1.057331e-02 -2.988043e-03 1.161455e-02 -5.339476e-03 -2.450609e-03 4.430573e-03 4.865392e-03 1.629956e-03 -7.208497e-03 1.824167e-02
<VARIANCE> 25
 6.047837e+01 5.554959e+01 6.402055e+01 7.288244e+01 6.160150e+01 6.477375e+01 5.581689e+01 5.695584e+01 5.259842e+01 3.835449e+01 4.302216e+01 4.174951e+01 2.278421e+00 2.668071e+00 2.520274e+00 3.189537e+00 3.165690e+00 3.247884e+00 3.110779e+00 3.600969e+00 3.229563e+00 2.787892e+00 2.807542e+00 2.548985e+00 5.073457e+00
<GCONST> 1.083986e+02
<STATE> 3
<MEAN> 25
 2.649074e-01 -2.544103e-01 -1.005962e+00 -1.445747e+00 3.254431e-01 8.720487e-01 -1.430539e-01 -1.283318e-01 3.844080e-01 3.584724e-02 2.316538e-01 3.410071e-02 1.027359e-02 5.813044e-03 -2.850153e-03 -8.392958e-03 -3.793956e-03 1.087561e-02 -5.396956e-03 -2.995645e-03 4.732836e-03 6.190975e-03 6.292018e-04 -8.516796e-03 2.002231e-02
<VARIANCE> 25
 6.049503e+01 5.559146e+01 6.422776e+01 7.330204e+01 6.166658e+01 6.497208e+01 5.587846e+01 5.682739e+01 5.275041e+01 3.835677e+01 4.312165e+01 4.174419e+01 2.279744e+00 2.671102e+00 2.524580e+00 3.195275e+00 3.176689e+00 3.253369e+00 3.117735e+00 3.592077e+00 3.225855e+00 2.786798e+00 2.817089e+00 2.548605e+00 5.107867e+00
<GCONST> 1.084353e+02
<STATE> 4
<MEAN> 25
 3.278831e-01 -2.327696e-01 -9.645553e-01 -1.438384e+00 2.479305e-01 8.941723e-01 -1.769828e-01 -1.616125e-01 4.116735e-01 7.973706e-02 2.345312e-01 -3.443395e-02 9.834455e-03 3.955302e-03 -3.304146e-04 -5.988756e-03 -4.526315e-03 1.022661e-02 -5.209253e-03 -3.219023e-03 5.790526e-03 7.939683e-03 -8.642155e-04 -9.640687e-03 2.388014e-02
<VARIANCE> 25
 6.084031e+01 5.548650e+01 6.487193e+01 7.286340e+01 6.167056e+01 6.485817e+01 5.609118e+01 5.594017e+01 5.273769e+01 3.784756e+01 4.274435e+01 4.158702e+01 2.238896e+00 2.631253e+00 2.497561e+00 3.121777e+00 3.145003e+00 3.203986e+00 3.073452e+00 3.515062e+00 3.169794e+00 2.739839e+00 2.782529e+00 2.510845e+00 5.025527e+00
<GCONST> 1.081968e+02
<TRANSP> 5
 0.000000e+00 1.000000e+00 0.000000e+00 0.000000e+00 0.000000e+00
 0.000000e+00 7.183008e-01 2.816992e-01 0.000000e+00 0.000000e+00
 0.000000e+00 0.000000e+00 7.183042e-01 2.816958e-01 0.000000e+00
 0.000000e+00 0.000000e+00 0.000000e+00 8.441423e-01 1.558577e-01
 0.000000e+00 0.000000e+00 0.000000e+00 0.000000e+00 0.000000e+00
<ENDHMM>
~h "NG"
<BEGINHMM>
<NUMSTATES> 5
<STATE> 2
<MEAN> 25
 9.470065e-01 -2.338865e-01 1.879805e-01 -4.738249e-01 -5.025039e-01 3.842558e-01 -2.496347e-01 -3.242944e-01 -2.033883e-01 5.363136e-02 -2.418957e-01 -4.725031e-01 5.998598e-03 5.289083e-05 2.983480e-03 -3.414484e-03 -5.425814e-03 2.247242e-03 -7.425534e-04 -2.145346e-03 -4.103818e-03 9.833990e-04 -3.967295e-03 -3.016421e-03 8.618349e-03
<VARIANCE> 25
 6.208079e+01 5.669257e+01 6.791711e+01 5.852972e+01 6.676344e+01 5.713992e+01 5.901131e+01 6.360406e+01 5.711792e+01 3.921695e+01 4.454845e+01 4.005386e+01 2.471953e+00 2.755463e+00 2.921369e+00 3.128037e+00 3.545182e+00 3.147768e+00 3.356154e+00 4.115032e+00 3.533470e+00 2.870191e+00 3.009486e+00 2.544924e+00 4.761786e+00
<GCONST> 1.091608e+02
<STATE> 3
<MEAN> 25
 9.670301e-01 -2.347896e-01 1.955738e-01 -4.874843e-01 -5.206165e-01 3.921483e-01 -2.534076e-01 -3.308606e-01 -2.164524e-01 5.635279e-02 -2.548978e-01 -4.845524e-01 4.513395e-03 1.964440e-04 1.807006e-03 -3.681362e-03 -5.370855e-03 1.089891e-03 -1.416440e-03 -1.856359e-03 -3.989277e-03 1.210823e-03 -2.885014e-03 -3.193510e-03 7.156716e-03
<VARIANCE> 25
 6.186824e+01 5.669286e+01 6.794119e+01 5.847178e+01 6.686376e+01 5.710304e+01 5.893765e+01 6.361555e+01 5.711231e+01 3.929285e+01 4.455804e+01 4.004924e+01 2.464174e+00 2.752759e+00 2.925226e+00 3.124949e+00 3.553229e+00 3.151602e+00 3.353227e+00 4.119928e+00 3.533387e+00 2.871629e+00 3.011867e+00 2.545954e+00 4.751613e+00
<GCONST> 1.091581e+02
<STATE> 4
<MEAN> 25
 9.969105e-01 -2.542998e-01 2.099903e-01 -5.312399e-01 -5.399634e-01 3.970869e-01 -2.948082e-01 -3.201928e-01 -2.292179e-01 5.934986e-02 -2.690965e-01 -5.149807e-01 3.576460e-03 3.503295e-04 8.455572e-05 -3.928103e-03 -4.877840e-03 1.459564e-04 -1.966063e-03 -1.848724e-03 -3.373908e-03 1.149651e-03 -2.176801e-03 -3.808662e-03 6.433956e-03
<VARIANCE> 25
 6.197906e+01 5.664843e+01 6.794685e+01 5.846359e+01 6.689679e+01 5.698983e+01 5.906351e+01 6.238530e+01 5.655479e+01 3.903409e+01 4.433862e+01 3.986264e+01 2.415706e+00 2.703181e+00 2.884343e+00 3.066287e+00 3.501360e+00 3.112956e+00 3.301683e+00 4.024518e+00 3.470073e+00 2.826720e+00 2.968895e+00 2.510787e+00 4.655336e+00
<GCONST> 1.088945e+02
<TRANSP> 5
 0.000000e+00 1.000000e+00 0.000000e+00 0.000000e+00 0.000000e+00
 0.000000e+00 7.115813e-01 2.884187e-01 0.000000e+00 0.000000e+00
 0.000000e+00 0.000000e+00 7.115886e-01 2.884114e-01 0.000000e+00
 0.000000e+00 0.000000e+00 0.000000e+00 8.364755e-01 1.635246e-01
 0.000000e+00 0.000000e+00 0.000000e+00 0.000000e+00 0.000000e+00
<ENDHMM>
~h "NY"
<BEGINHMM>
<NUMSTATES> 5
<STATE> 2
<MEAN> 25
 2.810806e-01 -2.434459e-01 4.243132e-01 2.468147e-01 1.387697e-01 -1.755716e-01 2.895914e-01 6.935567e-01 -2.908325e-01 -6.013535e-01 -2.393648e-01 6.075367e-02 -6.079592e-03 4.018474e-03 -6.982046e-03 7.368236e-03 1.432832e-02 4.589511e-03 6.007274e-03 -2.695563e-03 1.678820e-03 -5.465717e-03 -4.695143e-03 2.066214e-03 -2.714174e-02
<VARIANCE> 25
 5.550705e+01 5.604524e+01 6.190785e+01 5.267596e+01 6.321677e+01 4.995534e+01 5.591140e+01 6.256731e+01 5.369027e+01 3.937836e+01 4.102793e+01 3.642337e+01 2.214236e+00 2.705070e+00 2.687058e+00 2.974748e+00 3.218902e+00 2.941121e+00 3.103213e+00 4.023628e+00 3.359696e+00 2.745370e+00 2.798487e+00 2.348974e+00 4.360019e+00
<GCONST> 1.074814e+02
<STATE> 3
<MEAN> 25
 2.578543e-01 -2.266684e-01 3.986855e-01 2.722018e-01 1.909059e-01 -1.566204e-01 3.091784e-01 6.801848e-01 -2.869395e-01 -6.185721e-01 -2.534639e-01 6.524543e-02 -8.512646e-03 6.775751e-03 -7.908511e-03 6.163021e-03 1.276325e-02 4.379072e-03 4.723849e-03 -5.762483e-03 1.431473e-03 -2.329049e-03 -3.895955e-03 1.029412e-03 -3.166711e-02
<VARIANCE> 25
 5.522584e+01 5.589026e+01 6.169635e+01 5.247922e+01 6.327694e+01 4.967572e+01 5.572924e+01 6.221523e+01 5.361240e+01 3.934985e+01 4.093628e+01 3.638291e+01 2.194517e+00 2.692648e+00 2.675774e+00 2.957891e+00 3.202784e+00 2.925672e+00 3.092597e+00 4.008689e+00 3.351856e+00 2.737644e+00 2.791962e+00 2.342109e+00 4.339353e+00
<GCONST> 1.073913e+02
<STATE> 4
<MEAN> 25
 2.663026e-01 -2.188229e-01 3.606072e-01 2.463073e-01 2.424088e-01 -1.341788e-01 2.848064e-01 6.375095e-01 -2.918957e-01 -6.056845e-01 -2.895162e-01 3.128165e-02 -1.043682e-02 8.924810e-03 -7.628835e-03 3.510707e-03 9.863052e-03 4.432453e-03 2.844405e-03 -8.982551e-03 2.898928e-04 3.515656e-04 -2.106891e-03 -4.788568e-04 -3.330648e-02
<VARIANCE> 25
 5.541637e+01 5.588601e+01 6.167998e+01 5.239296e+01 6.293935e+01 4.918896e+01 5.553322e+01 6.078136e+01 5.317020e+01 3.892027e+01 4.051616e+01 3.610090e+01 2.137565e+00 2.636882e+00 2.619459e+00 2.881449e+00 3.117621e+00 2.867302e+00 3.033405e+00 3.896482e+00 3.284688e+00 2.690234e+00 2.742126e+00 2.300804e+00 4.220231e+00
<GCONST> 1.070225e+02
<TRANSP> 5
 0.000000e+00 1.000000e+00 0.000000e+00 0.000000e+00 0.000000e+00
 0.000000e+00 7.160360e-01 2.839639e-01 0.000000e+00 0.000000e+00
 0.000000e+00 0.000000e+00 7.160360e-01 2.839640e-01 0.000000e+00
 0.000000e+00 0.000000e+00 0.000000e+00 8.423259e-01 1.576741e-01
 0.000000e+00 0.000000e+00 0.000000e+00 0.000000e+00 0.000000e+00
<ENDHMM>
~h "OI"
<BEGINHMM>
<NUMSTATES> 5
<STATE> 2
<MEAN> 25
 -2.961332e-01 7.194349e-01 -1.046075e+00 2.301066e-02 -1.781637e-01 7.529821e-01 5.840805e-01 -1.357466e-01 1.490272e-01 1.765318e-01 3.602700e-01 3.876432e-01 -1.355650e-02 -1.592905e-02 9.339316e-04 -1.645505e-02 -7.555136e-03 -1.625069e-02 -3.130252e-03 -1.587998e-02 -6.921470e-03 -7.324318e-04 -9.891060e-03 1.846441e-03 3.548693e-02
<VARIANCE> 25
 5.226704e+01 4.863671e+01 6.392064e+01 7.113062e+01 5.440443e+01 5.649079e+01 6.470961e+01 5.589632e+01 5.153620e+01 3.980179e+01 4.245061e+01 4.260691e+01 2.558242e+00 2.608584e+00 3.029403e+00 3.647489e+00 3.110148e+00 3.617307e+00 3.418058e+00 3.873337e+00 3.384118e+00 2.978547e+00 3.036374e+00 2.956574e+00 4.583404e+00
<GCONST> 1.088921e+02
<STATE> 3
<MEAN> 25
 -3.472047e-01 6.678448e-01 -1.042873e+00 -4.493328e-02 -1.949072e-01 7.020924e-01 5.895445e-01 -1.917806e-01 1.349512e-01 1.645240e-01 3.201371e-01 3.912627e-01 -8.579523e-03 -1.231444e-02 7.170336e-03 -2.369074e-02 -8.413926e-03 -1.152130e-02 -2.992300e-03 -1.204350e-02 -6.392031e-03 8.481410e-04 -1.315296e-02 -2.313376e-03 3.535155e-02
<VARIANCE> 25
 5.254488e+01 4.840134e+01 6.410986e+01 7.087563e+01 5.451116e+01 5.659023e+01 6.453082e+01 5.636616e+01 5.092287e+01 3.942209e+01 4.238081e+01 4.249932e+01 2.596923e+00 2.618435e+00 3.026691e+00 3.671156e+00 3.087358e+00 3.666453e+00 3.432489e+00 3.911190e+00 3.396523e+00 2.980992e+00 3.006646e+00 2.947230e+00 4.539639e+00
<GCONST> 1.089018e+02
<STATE> 4
<MEAN> 25
 -3.508268e-01 6.185321e-01 -9.379173e-01 -2.007296e-01 -2.919492e-01 6.367833e-01 6.602925e-01 -2.179265e-01 4.474467e-02 1.538359e-01 3.088593e-01 3.978215e-01 -6.805997e-03 -4.796649e-03 1.255543e-02 -2.767584e-02 -8.823087e-03 -6.303824e-03 1.812716e-03 -8.024191e-03 -3.220633e-03 3.422488e-03 -1.567601e-02 -5.558004e-03 2.325983e-02
<VARIANCE> 25
 5.203347e+01 4.813390e+01 6.404805e+01 7.112493e+01 5.402825e+01 5.600807e+01 6.356335e+01 5.606852e+01 4.943237e+01 3.885006e+01 4.160418e+01 4.201209e+01 2.558401e+00 2.551041e+00 2.949506e+00 3.641392e+00 3.013246e+00 3.642491e+00 3.345226e+00 3.874429e+00 3.332900e+00 2.945151e+00 2.927922e+00 2.887417e+00 4.360438e+00
<GCONST> 1.085157e+02
<TRANSP> 5
 0.000000e+00 1.000000e+00 0.000000e+00 0.000000e+00 0.000000e+00
 0.000000e+00 7.090993e-01 2.909007e-01 0.000000e+00 0.000000e+00
 0.000000e+00 0.000000e+00 7.090988e-01 2.909012e-01 0.000000e+00
 0.000000e+00 0.000000e+00 0.000000e+00 8.312167e-01 1.687833e-01
 0.000000e+00 0.000000e+00 0.000000e+00 0.000000e+00 0.000000e+00
<ENDHMM>
~h "SY"
<BEGINHMM>
<NUMSTATES> 5
<STATE> 2
<MEAN> 25
 -1.687995e+00 -1.645962e-01 4.877418e-01 -8.103286e-02 -1.303782e-01 -1.391629e-01 3.684758e-01 4.277059e-01 -5.600072e-03 -7.150333e-02 4.151165e-01 4.038396e-01 -8.696523e-03 1.846198e-03 1.642814e-02 -4.090222e-03 -4.940823e-03 2.280292e-03 -5.985513e-03 1.906404e-03 -3.057411e-03 6.233660e-03 1.973200e-03 -2.984941e-03 1.800848e-02
<VARIANCE> 25
 9.012466e+01 5.468259e+01 6.942665e+01 5.227209e+01 6.560828e+01 5.228882e+01 5.720784e+01 5.796973e+01 5.277060e+01 3.492281e+01 3.881574e+01 3.615887e+01 3.561644e+00 2.518784e+00 2.700448e+00 2.704797e+00 3.294235e+00 2.946041e+00 3.115210e+00 3.547681e+00 3.200825e+00 2.576366e+00 2.617676e+00 2.295505e+00 3.686752e+00
<GCONST> 1.077248e+02
<STATE> 3
<MEAN> 25
 -1.719671e+00 -1.587998e-01 5.434323e-01 -9.097904e-02 -1.421741e-01 -1.274678e-01 3.499348e-01 4.332361e-01 -1.199472e-02 -4.570496e-02 4.226244e-01 3.946899e-01 -3.675828e-03 9.979578e-04 1.382698e-02 -3.312541e-03 -2.455657e-03 3.217151e-03 -5.846927e-03 9.329851e-04 -2.488408e-03 6.390891e-03 8.989538e-04 -2.754340e-03 1.356119e-02
<VARIANCE> 25
 9.030678e+01 5.480645e+01 6.997501e+01 5.190652e+01 6.577473e+01 5.193290e+01 5.721945e+01 5.812467e+01 5.278942e+01 3.499697e+01 3.893427e+01 3.598093e+01 3.592228e+00 2.513228e+00 2.712211e+00 2.692292e+00 3.307675e+00 2.952416e+00 3.113692e+00 3.548895e+00 3.206062e+00 2.583351e+00 2.616039e+00 2.287693e+00 3.649802e+00
<GCONST> 1.077315e+02
<STATE> 4
<MEAN> 25
 -1.691248e+00 -1.220454e-01 5.810751e-01 -5.838490e-02 -1.385316e-01 -1.019597e-01 3.391476e-01 3.825570e-01 -2.145591e-02 1.224255e-02 4.230605e-01 3.792516e-01 -1.025678e-03 1.452011e-04 1.014011e-02 -1.449737e-04 1.034119e-03 3.369954e-03 -4.682582e-03 1.550350e-03 -1.731627e-03 5.985164e-03 7.360039e-05 -7.933734e-04 7.155724e-03
<VARIANCE> 25
 8.914626e+01 5.439059e+01 7.031361e+01 5.154198e+01 6.539044e+01 5.099639e+01 5.687250e+01 5.763146e+01 5.257952e+01 3.451783e+01 3.887608e+01 3.542756e+01 3.488162e+00 2.446289e+00 2.668586e+00 2.634897e+00 3.232774e+00 2.903920e+00 3.046442e+00 3.472467e+00 3.150603e+00 2.539698e+00 2.567489e+00 2.245962e+00 3.522147e+00
<GCONST> 1.073508e+02
<TRANSP> 5
 0.000000e+00 1.000000e+00 0.000000e+00 0.000000e+00 0.000000e+00
 0.000000e+00 7.260092e-01 2.739908e-01 0.000000e+00 0.000000e+00
 0.000000e+00 0.000000e+00 7.260095e-01 2.739904e-01 0.000000e+00
 0.000000e+00 0.000000e+00 0.000000e+00 8.540675e-01 1.459325e-01
 0.000000e+00 0.000000e+00 0.000000e+00 0.000000e+00 0.000000e+00
<ENDHMM>
~h "sp"
<BEGINHMM>
<NUMSTATES> 5
<STATE> 2
<MEAN> 25
 4.155183e-09 2.883493e-09 -2.268021e-09 1.602569e-09 -1.624011e-08 2.690043e-09 7.726849e-09 -2.753091e-09 1.144292e-08 1.776876e-09 9.727101e-10 -7.052908e-09 4.860302e-04 2.025405e-03 -1.341342e-04 -1.592755e-03 1.170862e-04 1.148359e-03 -1.229188e-04 -2.721405e-03 -3.514993e-04 6.527236e-04 -1.189208e-03 -1.970868e-03 2.158318e-04
<VARIANCE> 25
 6.300832e+01 5.552125e+01 6.639154e+01 5.611263e+01 6.409251e+01 5.522630e+01 5.789567e+01 5.973602e+01 5.380319e+01 3.673403e+01 4.201279e+01 3.801524e+01 2.504921e+00 2.659351e+00 2.699820e+00 2.944626e+00 3.314336e+00 3.040222e+00 3.210516e+00 3.799767e+00 3.337030e+00 2.726280e+00 2.829354e+00 2.401809e+00 4.812843e+00
<GCONST> 1.080919e+02
<STATE> 3
<MEAN> 25
 4.155183e-09 2.883493e-09 -2.268021e-09 1.602569e-09 -1.624011e-08 2.690043e-09 7.726849e-09 -2.753091e-09 1.144292e-08 1.776876e-09 9.727101e-10 -7.052908e-09 4.860302e-04 2.025405e-03 -1.341342e-04 -1.592755e-03 1.170862e-04 1.148359e-03 -1.229188e-04 -2.721405e-03 -3.514993e-04 6.527236e-04 -1.189208e-03 -1.970868e-03 2.158318e-04
<VARIANCE> 25
 6.300832e+01 5.552125e+01 6.639154e+01 5.611263e+01 6.409251e+01 5.522630e+01 5.789567e+01 5.973602e+01 5.380319e+01 3.673403e+01 4.201279e+01 3.801524e+01 2.504921e+00 2.659351e+00 2.699820e+00 2.944626e+00 3.314336e+00 3.040222e+00 3.210516e+00 3.799767e+00 3.337030e+00 2.726280e+00 2.829354e+00 2.401809e+00 4.812843e+00
<GCONST> 1.080919e+02
<STATE> 4
<MEAN> 25
 4.155183e-09 2.883493e-09 -2.268021e-09 1.602569e-09 -1.624011e-08 2.690043e-09 7.726849e-09 -2.753091e-09 1.144292e-08 1.776876e-09 9.727101e-10 -7.052908e-09 4.860302e-04 2.025405e-03 -1.341342e-04 -1.592755e-03 1.170862e-04 1.148359e-03 -1.229188e-04 -2.721405e-03 -3.514993e-04 6.527236e-04 -1.189208e-03 -1.970868e-03 2.158318e-04
<VARIANCE> 25
 6.300832e+01 5.552125e+01 6.639154e+01 5.611263e+01 6.409251e+01 5.522630e+01 5.789567e+01 5.973602e+01 5.380319e+01 3.673403e+01 4.201279e+01 3.801524e+01 2.504921e+00 2.659351e+00 2.699820e+00 2.944626e+00 3.314336e+00 3.040222e+00 3.210516e+00 3.799767e+00 3.337030e+00 2.726280e+00 2.829354e+00 2.401809e+00 4.812843e+00
<GCONST> 1.080919e+02
<TRANSP> 5
 0.000000e+00 1.000000e+00 0.000000e+00 0.000000e+00 0.000000e+00
 0.000000e+00 6.000000e-01 4.000000e-01 0.000000e+00 0.000000e+00
 0.000000e+00 0.000000e+00 6.000000e-01 4.000000e-01 0.000000e+00
 0.000000e+00 0.000000e+00 0.000000e+00 7.000000e-01 3.000000e-01
 0.000000e+00 0.000000e+00 0.000000e+00 0.000000e+00 0.000000e+00
<ENDHMM>
~h "sil"
<BEGINHMM>
<NUMSTATES> 5
<STATE> 2
<MEAN> 25
 -5.185962e+00 2.497381e+00 -1.614736e+00 3.800864e+00 4.078835e+00 -3.502362e-01 4.601544e+00 1.041124e+00 1.830560e-01 -6.112280e-01 2.134670e-01 3.061360e+00 -5.792476e-02 -2.581771e-02 -4.570902e-02 -1.239482e-02 -2.847355e-02 -5.708945e-02 -8.017614e-03 5.537314e-03 -1.880488e-02 -2.038174e-02 1.496839e-02 2.203754e-02 -7.845724e-02
<VARIANCE> 25
 1.391782e+01 2.259396e+01 2.127012e+01 2.390113e+01 2.224394e+01 2.656199e+01 2.557190e+01 3.193442e+01 2.600415e+01 2.345227e+01 2.288863e+01 2.196322e+01 4.398013e-01 7.756230e-01 8.366024e-01 1.313822e+00 1.294389e+00 1.558467e+00 1.585091e+00 2.031070e+00 1.793812e+00 1.779065e+00 1.564873e+00 1.592297e+00 8.909413e-01
<GCONST> 8.649687e+01
<STATE> 3
<MEAN> 25
 -5.347373e+00 2.443056e+00 -1.736693e+00 3.773364e+00 4.031913e+00 -4.988288e-01 4.596327e+00 1.066143e+00 1.557034e-01 -6.520282e-01 2.804797e-01 3.124768e+00 -3.483329e-02 -1.270748e-02 -2.389825e-02 -1.049177e-02 -9.800154e-03 -3.241828e-02 -1.442164e-03 6.479220e-03 -3.050129e-03 -4.420208e-03 2.109918e-02 1.362967e-02 -3.160242e-02
<VARIANCE> 25
 1.283484e+01 2.209484e+01 1.976353e+01 2.310447e+01 2.149085e+01 2.605452e+01 2.521592e+01 3.143785e+01 2.565661e+01 2.316336e+01 2.236550e+01 2.166353e+01 4.504209e-01 7.651809e-01 8.143370e-01 1.302072e+00 1.248487e+00 1.550444e+00 1.550653e+00 2.018913e+00 1.764325e+00 1.767897e+00 1.530207e+00 1.585154e+00 9.815013e-01
<GCONST> 8.609216e+01
<STATE> 4
<MEAN> 25
 -5.268499e+00 2.426221e+00 -1.826829e+00 3.622219e+00 3.909467e+00 -5.374109e-01 4.524334e+00 9.517605e-01 1.995631e-01 -5.825900e-01 3.217904e-01 3.013802e+00 -1.747547e-02 -1.749824e-03 -1.335640e-02 -2.023691e-02 -3.080684e-03 -9.446340e-03 -6.752291e-03 -1.356611e-02 1.015761e-02 1.259701e-02 8.707537e-03 -7.543456e-03 7.099981e-03
<VARIANCE> 25
 1.227473e+01 2.114429e+01 1.871737e+01 2.138045e+01 2.128865e+01 2.542455e+01 2.458835e+01 2.985260e+01 2.462151e+01 2.225901e+01 2.156763e+01 2.070484e+01 4.481897e-01 7.181432e-01 7.920119e-01 1.211061e+00 1.209871e+00 1.505325e+00 1.542412e+00 1.921364e+00 1.738507e+00 1.742136e+00 1.538213e+00 1.548889e+00 1.095867e+00
<GCONST> 8.537657e+01
<TRANSP> 5
 0.000000e+00 1.000000e+00 0.000000e+00 0.000000e+00 0.000000e+00
 0.000000e+00 7.201024e-01 2.798976e-01 0.000000e+00 0.000000e+00
 0.000000e+00 0.000000e+00 7.200953e-01 2.799047e-01 0.000000e+00
 0.000000e+00 0.000000e+00 0.000000e+00 8.478928e-01 1.521072e-01
 0.000000e+00 0.000000e+00 0.000000e+00 0.000000e+00 0.000000e+00
<ENDHMM>
