~o
<STREAMINFO> 1 25
<VECSIZE> 25<NULLD><MFCC_D_N_Z_0><DIAGC>
~h "A"
<BEGINHMM>
<NUMSTATES> 5
<STATE> 2
<MEAN> 25
 2.502046e-01 -5.063093e-01 -2.656948e-01 -1.575370e-01 2.259925e-01 1.188249e-01 -4.657038e-02 2.765321e-01 2.661057e-01 -5.530353e-02 -2.789970e-01 -3.054352e-01 1.594339e-03 -4.517422e-04 -2.923926e-04 -9.704957e-04 3.010291e-03 2.487433e-03 6.091642e-04 -5.777469e-04 1.280882e-03 -1.360308e-04 -4.690522e-03 -2.551273e-03 6.375815e-04
<VARIANCE> 25
 6.191773e+01 5.958029e+01 6.771690e+01 5.557633e+01 6.401175e+01 5.598883e+01 5.716906e+01 5.981857e+01 5.371478e+01 3.784034e+01 4.370209e+01 3.893454e+01 2.558437e+00 2.854737e+00 2.802128e+00 3.005251e+00 3.345848e+00 3.097468e+00 3.297025e+00 3.860930e+00 3.316005e+00 2.769039e+00 2.897722e+00 2.500827e+00 5.230446e+00
<GCONST> 1.086247e+02
<STATE> 3
<MEAN> 25
 2.551810e-01 -5.078164e-01 -2.668314e-01 -1.607510e-01 2.372887e-01 1.273157e-01 -4.434671e-02 2.739644e-01 2.703330e-01 -5.573790e-02 -2.956633e-01 -3.132152e-01 6.524714e-04 1.057090e-03 4.488780e-04 -7.671047e-04 1.865182e-03 1.928359e-03 4.526075e-04 -1.213181e-03 4.255247e-04 1.066597e-04 -3.804971e-03 -1.493765e-03 -1.945713e-03
<VARIANCE> 25
 6.182926e+01 5.962056e+01 6.783234e+01 5.552706e+01 6.398123e+01 5.594340e+01 5.709269e+01 5.972002e+01 5.368422e+01 3.783318e+01 4.371392e+01 3.890249e+01 2.556221e+00 2.854357e+00 2.801437e+00 3.002331e+00 3.343389e+00 3.095823e+00 3.294331e+00 3.858279e+00 3.312986e+00 2.767502e+00 2.895608e+00 2.498720e+00 5.232037e+00
<GCONST> 1.086114e+02
<STATE> 4
<MEAN> 25
 2.861033e-01 -5.191396e-01 -2.565183e-01 -1.926451e-01 2.269861e-01 1.444156e-01 -7.868937e-02 2.543427e-01 2.694398e-01 -5.236225e-02 -3.132358e-01 -3.366539e-01 -2.329935e-04 1.968322e-03 8.015026e-04 -7.755868e-04 1.121828e-03 1.429765e-03 5.227149e-04 -1.555576e-03 -1.753621e-04 1.745204e-04 -3.024035e-03 -5.746912e-04 -3.355579e-03
<VARIANCE> 25
 6.192747e+01 5.955889e+01 6.782027e+01 5.559196e+01 6.387275e+01 5.568583e+01 5.694015e+01 5.878339e+01 5.331804e+01 3.740099e+01 4.344823e+01 3.861608e+01 2.501076e+00 2.802953e+00 2.753022e+00 2.944631e+00 3.282005e+00 3.049443e+00 3.232277e+00 3.774561e+00 3.256270e+00 2.721952e+00 2.849524e+00 2.456609e+00 5.105371e+00
<GCONST> 1.083136e+02
<TRANSP> 5
 0.000000e+00 1.000000e+00 0.000000e+00 0.000000e+00 0.000000e+00
 0.000000e+00 7.168793e-01 2.831207e-01 0.000000e+00 0.000000e+00
 0.000000e+00 0.000000e+00 7.168646e-01 2.831353e-01 0.000000e+00
 0.000000e+00 0.000000e+00 0.000000e+00 8.434625e-01 1.565374e-01
 0.000000e+00 0.000000e+00 0.000000e+00 0.000000e+00 0.000000e+00
<ENDHMM>
~h "B"
<BEGINHMM>
<NUMSTATES> 5
<STATE> 2
<MEAN> 25
 5.707552e-01 2.371438e-01 3.217977e-01 -1.449966e-01 -3.195541e-01 2.658050e-01 -4.576187e-01 -7.265952e-02 -2.034078e-01 4.621417e-02 2.182045e-01 -1.429710e-01 1.080466e-02 4.523690e-03 7.767617e-03 -5.802598e-03 -2.204994e-03 7.880718e-03 -4.380314e-03 -6.751352e-03 -1.715604e-05 3.689048e-03 8.418520e-04 -6.617764e-03 1.784703e-02
<VARIANCE> 25
 6.528712e+01 5.906039e+01 6.876038e+01 5.766861e+01 6.529562e+01 5.816638e+01 5.844400e+01 6.103169e+01 5.634830e+01 3.780869e+01 4.419556e+01 3.820686e+01 2.491773e+00 2.860095e+00 2.828984e+00 3.138887e+00 3.446234e+00 3.186056e+00 3.436601e+00 3.822179e+00 3.497879e+00 2.811406e+00 2.967743e+00 2.519110e+00 5.232698e+00
<GCONST> 1.090785e+02
<STATE> 3
<MEAN> 25
 6.099379e-01 2.552804e-01 3.475035e-01 -1.690126e-01 -3.277661e-01 2.981829e-01 -4.741979e-01 -1.011885e-01 -2.033235e-01 6.364208e-02 2.191858e-01 -1.700952e-01 9.206138e-03 4.799862e-03 6.585070e-03 -5.552911e-03 -1.367729e-03 8.604857e-03 -3.165040e-03 -7.339443e-03 6.541602e-04 4.742077e-03 4.923169e-05 -6.875194e-03 1.536607e-02
<VARIANCE> 25
 6.534233e+01 5.921913e+01 6.892695e+01 5.750523e+01 6.545718e+01 5.822047e+01 5.857502e+01 6.082136e+01 5.647100e+01 3.787100e+01 4.428481e+01 3.801343e+01 2.490715e+00 2.867341e+00 2.835814e+00 3.136354e+00 3.451739e+00 3.184598e+00 3.447432e+00 3.813063e+00 3.503939e+00 2.814114e+00 2.973664e+00 2.515078e+00 5.234602e+00
<GCONST> 1.090936e+02
<STATE> 4
<MEAN> 25
 7.085542e-01 2.537238e-01 4.008220e-01 -2.352631e-01 -3.898620e-01 3.462711e-01 -5.387391e-01 -1.402170e-01 -2.209501e-01 8.582840e-02 2.166809e-01 -2.328874e-01 8.021161e-03 4.202872e-03 5.144893e-03 -2.996348e-03 -1.395985e-03 7.075001e-03 -2.113258e-03 -5.266640e-03 4.136594e-04 3.843436e-03 -2.046302e-04 -5.244829e-03 1.308470e-02
<VARIANCE> 25
 6.545066e+01 5.936034e+01 6.927310e+01 5.755014e+01 6.581187e+01 5.815158e+01 5.890335e+01 5.988589e+01 5.630541e+01 3.764090e+01 4.421819e+01 3.754741e+01 2.435510e+00 2.834393e+00 2.800007e+00 3.088826e+00 3.404998e+00 3.138224e+00 3.402832e+00 3.733849e+00 3.457259e+00 2.780431e+00 2.942259e+00 2.474020e+00 5.122836e+00
<GCONST> 1.088765e+02
<TRANSP> 5
 0.000000e+00 1.000000e+00 0.000000e+00 0.000000e+00 0.000000e+00
 0.000000e+00 7.167228e-01 2.832772e-01 0.000000e+00 0.000000e+00
 0.000000e+00 0.000000e+00 7.167202e-01 2.832798e-01 0.000000e+00
 0.000000e+00 0.000000e+00 0.000000e+00 8.429146e-01 1.570854e-01
 0.000000e+00 0.000000e+00 0.000000e+00 0.000000e+00 0.000000e+00
<ENDHMM>
~h "C"
<BEGINHMM>
<NUMSTATES> 5
<STATE> 2
<MEAN> 25
 -2.598531e-01 -4.503815e-02 2.720213e-01 8.406004e-02 -2.611791e-01 -6.079997e-01 -2.558688e-02 1.624180e-01 -6.991191e-02 -7.421875e-02 1.228619e-02 1.325190e-01 -1.621619e-03 2.173963e-04 -6.058867e-03 -7.023428e-03 4.733212e-03 2.654547e-03 -2.560461e-05 3.964126e-04 4.156070e-03 1.648973e-03 -1.699631e-03 -1.179029e-03 6.567820e-03
<VARIANCE> 25
 6.545110e+01 5.735825e+01 6.550018e+01 5.244059e+01 6.395763e+01 5.495219e+01 5.853556e+01 6.130150e+01 5.286340e+01 3.797418e+01 4.240857e+01 3.688815e+01 3.354769e+00 2.979138e+00 2.965606e+00 3.064721e+00 3.593476e+00 3.206538e+00 3.519284e+00 3.966686e+00 3.409220e+00 2.844078e+00 2.888462e+00 2.512404e+00 5.906220e+00
<GCONST> 1.092485e+02
<STATE> 3
<MEAN> 25
 -2.650105e-01 -4.379366e-02 2.514734e-01 6.040924e-02 -2.465603e-01 -5.982806e-01 -2.717588e-02 1.691399e-01 -5.755236e-02 -6.831051e-02 8.770459e-03 1.291383e-01 -2.543270e-04 -7.337471e-05 -7.909526e-03 -7.261088e-03 4.810852e-03 4.742538e-03 -1.021358e-03 1.774502e-03 3.904022e-03 8.406224e-04 -8.517869e-04 -1.736535e-03 6.394951e-03
<VARIANCE> 25
 6.542753e+01 5.732408e+01 6.533974e+01 5.233105e+01 6.374274e+01 5.497859e+01 5.868493e+01 6.103783e+01 5.283437e+01 3.802559e+01 4.248826e+01 3.684544e+01 3.385049e+00 2.982317e+00 2.974424e+00 3.065085e+00 3.594142e+00 3.214582e+00 3.532402e+00 3.961493e+00 3.413634e+00 2.843918e+00 2.891907e+00 2.512499e+00 5.951956e+00
<GCONST> 1.092683e+02
<STATE> 4
<MEAN> 25
 -2.478469e-01 -5.218477e-02 2.509440e-01 2.658959e-02 -2.543890e-01 -5.661412e-01 -7.055981e-02 1.806336e-01 -2.808584e-02 -5.012533e-02 2.055852e-02 8.740909e-02 1.691187e-03 -5.696898e-04 -7.827769e-03 -6.890140e-03 3.785524e-03 5.045396e-03 -1.871767e-03 3.796626e-03 3.019311e-03 -5.103543e-04 -1.090765e-04 -2.157497e-03 7.277584e-03
<VARIANCE> 25
 6.540061e+01 5.715012e+01 6.535530e+01 5.229786e+01 6.361201e+01 5.476920e+01 5.891397e+01 5.992177e+01 5.263126e+01 3.768890e+01 4.256486e+01 3.650490e+01 3.343873e+00 2.938446e+00 2.943998e+00 3.015152e+00 3.537743e+00 3.180962e+00 3.482913e+00 3.882155e+00 3.370940e+00 2.796756e+00 2.853511e+00 2.473903e+00 5.861549e+00
<GCONST> 1.090359e+02
<TRANSP> 5
 0.000000e+00 1.000000e+00 0.000000e+00 0.000000e+00 0.000000e+00
 0.000000e+00 7.172695e-01 2.827305e-01 0.000000e+00 0.000000e+00
 0.000000e+00 0.000000e+00 7.172674e-01 2.827326e-01 0.000000e+00
 0.000000e+00 0.000000e+00 0.000000e+00 8.431116e-01 1.568884e-01
 0.000000e+00 0.000000e+00 0.000000e+00 0.000000e+00 0.000000e+00
<ENDHMM>
~h "D"
<BEGINHMM>
<NUMSTATES> 5
<STATE> 2
<MEAN> 25
 3.903168e-01 -1.329134e-01 7.201523e-01 1.182000e-01 -6.752825e-01 -2.851670e-01 -5.467615e-01 1.342525e-01 -1.947184e-02 -9.563024e-02 -4.117015e-02 -1.055176e-01 1.024495e-02 -5.691058e-04 1.244617e-02 1.072026e-03 -7.604450e-03 -1.098530e-03 -5.487408e-03 -8.014066e-04 -6.965487e-04 -5.171486e-04 -2.423102e-03 -3.385494e-03 1.710756e-02
<VARIANCE> 25
 6.285338e+01 5.894864e+01 7.569770e+01 5.653371e+01 6.935603e+01 5.650703e+01 6.002657e+01 6.441880e+01 5.649652e+01 3.826523e+01 4.586120e+01 3.754495e+01 2.573903e+00 2.886932e+00 2.918066e+00 3.117032e+00 3.677640e+00 3.146084e+00 3.487205e+00 4.072440e+00 3.449271e+00 2.804266e+00 3.024555e+00 2.479102e+00 5.462372e+00
<GCONST> 1.094867e+02
<STATE> 3
<MEAN> 25
 4.267277e-01 -1.334499e-01 7.654243e-01 1.217489e-01 -7.019770e-01 -2.872320e-01 -5.656666e-01 1.305802e-01 -2.137859e-02 -9.723850e-02 -4.944521e-02 -1.188807e-01 9.538057e-03 -3.820402e-04 1.116341e-02 6.957613e-04 -6.525076e-03 -1.979009e-04 -4.461407e-03 -9.469462e-04 -3.481872e-04 -1.778113e-04 -2.413116e-03 -3.348689e-03 1.511389e-02
<VARIANCE> 25
 6.269115e+01 5.908025e+01 7.598555e+01 5.647670e+01 6.956596e+01 5.659312e+01 6.006437e+01 6.455278e+01 5.664846e+01 3.827912e+01 4.600787e+01 3.745786e+01 2.571810e+00 2.892301e+00 2.924732e+00 3.118052e+00 3.690921e+00 3.147767e+00 3.494341e+00 4.076724e+00 3.454671e+00 2.805961e+00 3.030982e+00 2.477841e+00 5.477098e+00
<GCONST> 1.095177e+02
<STATE> 4
<MEAN> 25
 4.964894e-01 -1.472485e-01 8.102986e-01 9.014256e-02 -7.454280e-01 -2.734354e-01 -6.262320e-01 1.118149e-01 -2.806841e-02 -8.685180e-02 -6.645016e-02 -1.583562e-01 8.776783e-03 -7.917336e-05 9.831065e-03 1.077910e-03 -5.527619e-03 2.082117e-04 -3.496207e-03 -3.673034e-04 -5.703116e-04 -5.228927e-04 -2.171323e-03 -2.797560e-03 1.295083e-02
<VARIANCE> 25
 6.275663e+01 5.921500e+01 7.633530e+01 5.651323e+01 6.979939e+01 5.654734e+01 6.011984e+01 6.389415e+01 5.653513e+01 3.795042e+01 4.597417e+01 3.706618e+01 2.520949e+00 2.854059e+00 2.884579e+00 3.071628e+00 3.635772e+00 3.109809e+00 3.442590e+00 3.998161e+00 3.405816e+00 2.765486e+00 2.997164e+00 2.436849e+00 5.352267e+00
<GCONST> 1.092942e+02
<TRANSP> 5
 0.000000e+00 1.000000e+00 0.000000e+00 0.000000e+00 0.000000e+00
 0.000000e+00 7.165084e-01 2.834915e-01 0.000000e+00 0.000000e+00
 0.000000e+00 0.000000e+00 7.165054e-01 2.834946e-01 0.000000e+00
 0.000000e+00 0.000000e+00 0.000000e+00 8.422409e-01 1.577591e-01
 0.000000e+00 0.000000e+00 0.000000e+00 0.000000e+00 0.000000e+00
<ENDHMM>
~h "E"
<BEGINHMM>
<NUMSTATES> 5
<STATE> 2
<MEAN> 25
 -1.183440e-01 -4.245942e-01 6.374361e-01 1.889419e-02 -1.101677e+00 -8.074250e-01 4.711100e-01 5.658050e-01 -1.027221e-01 1.578085e-01 4.481934e-01 4.017288e-02 -4.411966e-03 2.253407e-03 5.341843e-03 4.417458e-03 -9.379560e-04 -2.992823e-03 7.610487e-03 1.610977e-03 -5.086827e-04 -1.127028e-05 9.413306e-04 1.621620e-03 -5.407198e-03
<VARIANCE> 25
 6.139582e+01 5.902054e+01 7.203603e+01 5.430941e+01 7.716781e+01 5.798055e+01 5.902232e+01 6.120474e+01 5.155904e+01 3.819435e+01 4.504833e+01 3.572652e+01 2.449663e+00 2.705997e+00 2.594450e+00 2.774746e+00 3.494689e+00 2.988273e+00 3.239432e+00 3.763495e+00 3.117642e+00 2.700335e+00 2.746120e+00 2.236394e+00 5.390431e+00
<GCONST> 1.083235e+02
<STATE> 3
<MEAN> 25
 -1.343421e-01 -4.166573e-01 6.571219e-01 3.535776e-02 -1.104663e+00 -8.191043e-01 4.993169e-01 5.719708e-01 -1.057904e-01 1.571488e-01 4.521490e-01 4.581597e-02 -4.730062e-03 3.556612e-03 3.746930e-03 5.024442e-03 1.273520e-03 -2.386245e-03 7.089384e-03 6.555384e-04 -8.573226e-04 -6.502940e-04 3.906975e-04 2.437084e-03 -9.827204e-03
<VARIANCE> 25
 6.139140e+01 5.903093e+01 7.201989e+01 5.425301e+01 7.727986e+01 5.788530e+01 5.897742e+01 6.116343e+01 5.148045e+01 3.818322e+01 4.504638e+01 3.565503e+01 2.450629e+00 2.699767e+00 2.591329e+00 2.767918e+00 3.492177e+00 2.981426e+00 3.236579e+00 3.759627e+00 3.112273e+00 2.696966e+00 2.741991e+00 2.232384e+00 5.371850e+00
<GCONST> 1.082966e+02
<STATE> 4
<MEAN> 25
 -1.221196e-01 -4.057214e-01 6.919223e-01 5.126335e-02 -1.121420e+00 -8.280877e-01 5.144616e-01 5.693418e-01 -1.009173e-01 1.616986e-01 4.688821e-01 4.359342e-02 -4.831725e-03 4.669477e-03 2.306611e-03 5.391970e-03 3.123960e-03 -1.622697e-03 6.221533e-03 -1.933479e-04 -1.351600e-03 -1.058690e-03 -1.351960e-04 2.610022e-03 -1.317392e-02
<VARIANCE> 25
 6.122693e+01 5.902184e+01 7.215295e+01 5.427417e+01 7.728448e+01 5.754812e+01 5.851724e+01 6.007436e+01 5.085656e+01 3.767933e+01 4.468398e+01 3.519090e+01 2.384702e+00 2.642154e+00 2.536242e+00 2.704972e+00 3.415255e+00 2.921867e+00 3.164092e+00 3.661261e+00 3.037057e+00 2.639575e+00 2.685106e+00 2.186651e+00 5.223007e+00
<GCONST> 1.079171e+02
<TRANSP> 5
 0.000000e+00 1.000000e+00 0.000000e+00 0.000000e+00 0.000000e+00
 0.000000e+00 7.235127e-01 2.764873e-01 0.000000e+00 0.000000e+00
 0.000000e+00 0.000000e+00 7.235088e-01 2.764913e-01 0.000000e+00
 0.000000e+00 0.000000e+00 0.000000e+00 8.513504e-01 1.486496e-01
 0.000000e+00 0.000000e+00 0.000000e+00 0.000000e+00 0.000000e+00
<ENDHMM>
~h "F"
<BEGINHMM>
<NUMSTATES> 5
<STATE> 2
<MEAN> 25
 -7.710408e-01 -4.128420e-01 -1.324711e-01 -5.676251e-02 -2.436083e-01 -7.590220e-02 -1.418721e-02 2.117633e-02 7.376555e-02 1.069405e-01 3.786019e-01 1.569712e-01 3.349690e-03 2.517999e-03 5.298978e-03 -1.228757e-03 -3.558963e-03 2.295163e-03 4.952638e-03 -4.188837e-03 -3.189925e-03 2.493837e-03 -1.186455e-03 -2.721817e-03 1.454952e-03
<VARIANCE> 25
 7.254050e+01 5.489505e+01 7.249078e+01 5.691112e+01 6.815531e+01 5.816224e+01 5.597615e+01 5.632174e+01 5.082398e+01 3.610648e+01 4.150522e+01 3.677666e+01 3.181244e+00 2.655640e+00 2.907704e+00 3.102145e+00 3.479914e+00 3.169262e+00 3.205733e+00 3.625512e+00 3.248749e+00 2.708963e+00 2.776584e+00 2.379569e+00 4.778977e+00
<GCONST> 1.085621e+02
<STATE> 3
<MEAN> 25
 -7.611513e-01 -4.027600e-01 -1.141339e-01 -6.096832e-02 -2.554377e-01 -6.765437e-02 4.922747e-03 6.131961e-03 5.905797e-02 1.139503e-01 3.716640e-01 1.454428e-01 2.991251e-03 4.494479e-03 5.641753e-03 -4.378775e-04 -2.287408e-03 1.726573e-03 5.987037e-03 -4.332300e-03 -4.186965e-03 1.316820e-03 -2.153354e-03 -2.325255e-03 -2.316347e-03
<VARIANCE> 25
 7.227496e+01 5.498012e+01 7.275866e+01 5.684711e+01 6.815355e+01 5.809327e+01 5.593707e+01 5.626485e+01 5.081761e+01 3.608326e+01 4.157387e+01 3.677211e+01 3.183615e+00 2.656040e+00 2.903673e+00 3.100749e+00 3.475476e+00 3.163292e+00 3.205105e+00 3.617301e+00 3.249199e+00 2.707986e+00 2.777250e+00 2.383102e+00 4.763725e+00
<GCONST> 1.085521e+02
<STATE> 4
<MEAN> 25
 -6.929407e-01 -3.782374e-01 -7.155562e-02 -1.014311e-01 -3.048151e-01 -5.511012e-02 1.583809e-03 -3.520640e-02 6.177912e-02 1.249192e-01 3.533494e-01 1.080062e-01 1.438016e-03 5.951633e-03 5.184763e-03 1.383286e-03 -1.100721e-03 5.514494e-04 5.739748e-03 -3.975926e-03 -4.852052e-03 5.744048e-05 -2.971866e-03 -1.481029e-03 -6.239521e-03
<VARIANCE> 25
 7.202644e+01 5.512965e+01 7.294787e+01 5.702312e+01 6.806744e+01 5.747097e+01 5.582270e+01 5.560942e+01 5.056667e+01 3.562177e+01 4.126729e+01 3.621989e+01 3.108574e+00 2.613580e+00 2.848269e+00 3.034427e+00 3.403364e+00 3.102381e+00 3.151373e+00 3.542154e+00 3.193062e+00 2.663589e+00 2.728056e+00 2.341381e+00 4.616355e+00
<GCONST> 1.082308e+02
<TRANSP> 5
 0.000000e+00 1.000000e+00 0.000000e+00 0.000000e+00 0.000000e+00
 0.000000e+00 7.229793e-01 2.770207e-01 0.000000e+00 0.000000e+00
 0.000000e+00 0.000000e+00 7.229792e-01 2.770207e-01 0.000000e+00
 0.000000e+00 0.000000e+00 0.000000e+00 8.504847e-01 1.495154e-01
 0.000000e+00 0.000000e+00 0.000000e+00 0.000000e+00 0.000000e+00
<ENDHMM>
~h "G"
<BEGINHMM>
<NUMSTATES> 5
<STATE> 2
<MEAN> 25
 4.781320e-01 3.357207e-01 4.965607e-01 -9.140266e-02 -4.406295e-01 3.404373e-02 -3.790549e-01 -1.503809e-01 -1.795078e-01 2.217919e-01 1.707212e-01 -2.190151e-01 5.191005e-03 1.806527e-03 6.789264e-03 -3.152040e-03 -4.971621e-03 2.061919e-03 -1.212198e-03 2.655447e-03 -3.874377e-03 3.269199e-03 -3.449505e-04 -5.395451e-03 1.539175e-02
<VARIANCE> 25
 6.074406e+01 5.788146e+01 7.465199e+01 5.831322e+01 6.688848e+01 5.739868e+01 5.919019e+01 6.097676e+01 5.605883e+01 3.928799e+01 4.433815e+01 3.807928e+01 2.452899e+00 2.794379e+00 2.921698e+00 3.159083e+00 3.653246e+00 3.224571e+00 3.452696e+00 3.838972e+00 3.465485e+00 2.831896e+00 2.959710e+00 2.495205e+00 5.151319e+00
<GCONST> 1.091844e+02
<STATE> 3
<MEAN> 25
 4.947312e-01 3.406734e-01 5.196006e-01 -1.039931e-01 -4.585579e-01 4.025622e-02 -3.832537e-01 -1.418809e-01 -1.925786e-01 2.338764e-01 1.706644e-01 -2.376508e-01 3.792064e-03 6.737878e-04 4.580479e-03 -2.972589e-03 -4.188630e-03 2.057092e-03 -5.275923e-05 3.156818e-03 -2.888834e-03 3.025526e-03 -1.052117e-04 -4.856898e-03 1.253051e-02
<VARIANCE> 25
 6.060771e+01 5.803219e+01 7.474530e+01 5.822269e+01 6.717958e+01 5.755379e+01 5.922354e+01 6.098005e+01 5.615872e+01 3.926922e+01 4.444855e+01 3.806259e+01 2.450881e+00 2.793097e+00 2.926152e+00 3.155305e+00 3.665933e+00 3.223313e+00 3.451864e+00 3.831019e+00 3.465644e+00 2.827882e+00 2.963251e+00 2.493560e+00 5.149903e+00
<GCONST> 1.091942e+02
<STATE> 4
<MEAN> 25
 5.268765e-01 3.449511e-01 5.378880e-01 -1.414468e-01 -4.900716e-01 5.882340e-02 -4.054960e-01 -1.435431e-01 -2.054669e-01 2.547241e-01 1.709896e-01 -2.727085e-01 2.408641e-03 -6.235188e-04 2.700495e-03 -2.629488e-03 -3.811240e-03 8.408044e-04 5.877928e-04 3.511553e-03 -1.980881e-03 2.254660e-03 2.555711e-04 -3.853539e-03 1.000770e-02
<VARIANCE> 25
 6.087513e+01 5.808152e+01 7.484551e+01 5.833591e+01 6.742171e+01 5.739779e+01 5.937943e+01 6.008641e+01 5.589656e+01 3.881234e+01 4.428576e+01 3.781990e+01 2.401992e+00 2.744751e+00 2.876873e+00 3.092205e+00 3.607705e+00 3.169685e+00 3.386259e+00 3.741830e+00 3.408279e+00 2.778786e+00 2.925970e+00 2.455079e+00 5.020478e+00
<GCONST> 1.089268e+02
<TRANSP> 5
 0.000000e+00 1.000000e+00 0.000000e+00 0.000000e+00 0.000000e+00
 0.000000e+00 7.157825e-01 2.842175e-01 0.000000e+00 0.000000e+00
 0.000000e+00 0.000000e+00 7.157795e-01 2.842205e-01 0.000000e+00
 0.000000e+00 0.000000e+00 0.000000e+00 8.416899e-01 1.583102e-01
 0.000000e+00 0.000000e+00 0.000000e+00 0.000000e+00 0.000000e+00
<ENDHMM>
~h "H"
<BEGINHMM>
<NUMSTATES> 5
<STATE> 2
<MEAN> 25
 -5.959395e-02 -2.359638e-01 -2.855899e-01 -1.930241e-01 3.141809e-01 4.416057e-01 1.032281e-01 3.136374e-02 5.413900e-02 -6.781878e-02 5.290827e-03 8.707204e-02 -3.896902e-04 3.956264e-03 2.013911e-03 -1.451500e-03 3.363562e-03 4.816203e-03 -6.661129e-04 -3.872728e-03 6.293078e-05 1.234305e-03 -2.251164e-03 -2.274021e-03 -7.296678e-04
<VARIANCE> 25
 6.194967e+01 5.718437e+01 6.927766e+01 5.649281e+01 6.765836e+01 5.696877e+01 5.993021e+01 5.854430e+01 5.254037e+01 3.769268e+01 4.256223e+01 3.719597e+01 2.517022e+00 2.668412e+00 2.738881e+00 3.023762e+00 3.439941e+00 3.086334e+00 3.349808e+00 3.710142e+00 3.274594e+00 2.734327e+00 2.825806e+00 2.425020e+00 4.752981e+00
<GCONST> 1.083464e+02
<STATE> 3
<MEAN> 25
 -5.937725e-02 -2.249325e-01 -2.800600e-01 -1.975475e-01 3.267583e-01 4.580022e-01 9.992176e-02 1.855182e-02 5.418558e-02 -6.518397e-02 -1.749483e-03 7.954747e-02 -4.157911e-04 3.971155e-03 2.505552e-03 -9.037720e-04 2.632153e-03 3.441783e-03 -1.152132e-03 -3.371016e-03 -4.581913e-04 8.554239e-04 -2.161591e-03 -2.497949e-03 -5.637947e-04
<VARIANCE> 25
 6.194784e+01 5.714448e+01 6.947160e+01 5.639943e+01 6.780006e+01 5.696885e+01 5.980408e+01 5.839267e+01 5.252394e+01 3.765158e+01 4.260186e+01 3.710725e+01 2.517061e+00 2.666481e+00 2.737703e+00 3.018889e+00 3.441197e+00 3.086468e+00 3.348561e+00 3.699082e+00 3.272740e+00 2.731480e+00 2.823668e+00 2.420249e+00 4.752113e+00
<GCONST> 1.083312e+02
<STATE> 4
<MEAN> 25
 -4.394772e-02 -2.449952e-01 -2.580893e-01 -2.296477e-01 3.231097e-01 4.792981e-01 6.918865e-02 -1.185899e-03 6.691267e-02 -6.089157e-02 -4.344979e-03 5.554697e-02 -1.584440e-04 3.269234e-03 2.716904e-03 -1.724117e-04 2.008627e-03 2.203681e-03 -9.889269e-04 -2.440387e-03 -9.240075e-04 5.340921e-04 -1.511876e-03 -2.521158e-03 1.372658e-03
<VARIANCE> 25
 6.226833e+01 5.709317e+01 6.969440e+01 5.641296e+01 6.790742e+01 5.670341e+01 5.944939e+01 5.741149e+01 5.220240e+01 3.714194e+01 4.232582e+01 3.668976e+01 2.465180e+00 2.615430e+00 2.688145e+00 2.949048e+00 3.376387e+00 3.036217e+00 3.278703e+00 3.606905e+00 3.209844e+00 2.679993e+00 2.775285e+00 2.371288e+00 4.625189e+00
<GCONST> 1.080085e+02
<TRANSP> 5
 0.000000e+00 1.000000e+00 0.000000e+00 0.000000e+00 0.000000e+00
 0.000000e+00 7.184274e-01 2.815726e-01 0.000000e+00 0.000000e+00
 0.000000e+00 0.000000e+00 7.184240e-01 2.815760e-01 0.000000e+00
 0.000000e+00 0.000000e+00 0.000000e+00 8.451862e-01 1.548137e-01
 0.000000e+00 0.000000e+00 0.000000e+00 0.000000e+00 0.000000e+00
<ENDHMM>
~h "I"
<BEGINHMM>
<NUMSTATES> 5
<STATE> 2
<MEAN> 25
 -2.393692e-01 3.953412e-01 1.243631e+00 2.651074e-01 -7.423509e-01 -3.684959e-01 -1.417799e-01 -2.697271e-01 -5.580531e-01 -2.856166e-02 2.650304e-01 8.939189e-02 -2.248245e-03 3.388219e-03 1.610501e-03 4.514192e-03 -5.498762e-04 -2.761017e-03 4.792915e-03 -7.307930e-04 -4.227196e-03 -8.595717e-04 -2.021978e-03 3.569601e-04 -1.098770e-02
<VARIANCE> 25
 6.295259e+01 5.610593e+01 8.384084e+01 5.373038e+01 7.155412e+01 5.529840e+01 5.962309e+01 6.017635e+01 5.712870e+01 3.744176e+01 4.367375e+01 3.647096e+01 2.623607e+00 2.667881e+00 3.093597e+00 2.954268e+00 3.620769e+00 3.131137e+00 3.428549e+00 3.799463e+00 3.445943e+00 2.750215e+00 2.886568e+00 2.389457e+00 4.959268e+00
<GCONST> 1.089741e+02
<STATE> 3
<MEAN> 25
 -2.470727e-01 4.071240e-01 1.248222e+00 2.819688e-01 -7.442230e-01 -3.775002e-01 -1.245116e-01 -2.717299e-01 -5.726900e-01 -3.137002e-02 2.577983e-01 9.007662e-02 -2.188316e-03 2.783628e-03 -1.294584e-03 4.437749e-03 5.171256e-04 -2.657440e-03 5.150083e-03 -3.543480e-04 -3.163351e-03 -8.361775e-04 -2.500005e-03 2.330183e-04 -1.231026e-02
<VARIANCE> 25
 6.280152e+01 5.597147e+01 8.353290e+01 5.362050e+01 7.163207e+01 5.519425e+01 5.963124e+01 6.008408e+01 5.710963e+01 3.737444e+01 4.368530e+01 3.640844e+01 2.618018e+00 2.663529e+00 3.087204e+00 2.945795e+00 3.619210e+00 3.125783e+00 3.424541e+00 3.795027e+00 3.442237e+00 2.746068e+00 2.886149e+00 2.385446e+00 4.957188e+00
<GCONST> 1.089398e+02
<STATE> 4
<MEAN> 25
 -2.247619e-01 4.014474e-01 1.241516e+00 2.782948e-01 -7.528489e-01 -3.705978e-01 -1.338512e-01 -2.743348e-01 -5.793520e-01 -2.339377e-02 2.393735e-01 6.957580e-02 -1.957187e-03 2.078766e-03 -3.361842e-03 4.083475e-03 1.317629e-03 -2.242737e-03 4.896325e-03 4.174770e-05 -2.030074e-03 -8.207426e-04 -2.660586e-03 -4.279122e-04 -1.199089e-02
<VARIANCE> 25
 6.267903e+01 5.564914e+01 8.323340e+01 5.341443e+01 7.157344e+01 5.479027e+01 5.961046e+01 5.910981e+01 5.679454e+01 3.690174e+01 4.334655e+01 3.599052e+01 2.550917e+00 2.608565e+00 3.027801e+00 2.880486e+00 3.542791e+00 3.072569e+00 3.355984e+00 3.707098e+00 3.380584e+00 2.696883e+00 2.841282e+00 2.337457e+00 4.829028e+00
<GCONST> 1.085930e+02
<TRANSP> 5
 0.000000e+00 1.000000e+00 0.000000e+00 0.000000e+00 0.000000e+00
 0.000000e+00 7.176574e-01 2.823426e-01 0.000000e+00 0.000000e+00
 0.000000e+00 0.000000e+00 7.176434e-01 2.823566e-01 0.000000e+00
 0.000000e+00 0.000000e+00 0.000000e+00 8.441924e-01 1.558075e-01
 0.000000e+00 0.000000e+00 0.000000e+00 0.000000e+00 0.000000e+00
<ENDHMM>
~h "J"
<BEGINHMM>
<NUMSTATES> 5
<STATE> 2
<MEAN> 25
 1.382263e-01 4.064637e-01 7.377545e-01 1.452370e-01 -4.579304e-01 -5.319679e-01 -3.131062e-01 2.646303e-01 -6.909588e-02 -1.418793e-01 4.980495e-02 1.814808e-01 3.896384e-03 2.558113e-04 9.589206e-03 1.199078e-03 -3.052309e-03 7.571990e-04 -4.177625e-03 2.451661e-03 1.104770e-04 -7.600585e-04 4.107172e-03 -4.780238e-03 1.065268e-02
<VARIANCE> 25
 6.125138e+01 6.091867e+01 7.235912e+01 5.483740e+01 6.472627e+01 5.602103e+01 5.979094e+01 6.118147e+01 5.418658e+01 3.756546e+01 4.402948e+01 3.751171e+01 3.051006e+00 3.027335e+00 2.942700e+00 3.016333e+00 3.767502e+00 3.239812e+00 3.586153e+00 3.989541e+00 3.446296e+00 2.782971e+00 2.960544e+00 2.554848e+00 5.276444e+00
<GCONST> 1.094027e+02
<STATE> 3
<MEAN> 25
 1.520630e-01 4.083762e-01 7.706991e-01 1.487016e-01 -4.693862e-01 -5.278535e-01 -3.289864e-01 2.725051e-01 -6.966300e-02 -1.446864e-01 6.366127e-02 1.659300e-01 2.679317e-03 -3.834558e-05 7.504372e-03 1.509072e-03 -2.105111e-03 1.263483e-03 -3.342201e-03 1.892448e-03 4.375272e-04 -6.896382e-04 4.231148e-03 -4.335755e-03 7.757349e-03
<VARIANCE> 25
 6.105746e+01 6.091910e+01 7.255190e+01 5.475270e+01 6.491359e+01 5.602346e+01 5.987172e+01 6.105723e+01 5.428168e+01 3.760085e+01 4.404261e+01 3.747221e+01 3.050493e+00 3.025259e+00 2.945128e+00 3.010047e+00 3.775858e+00 3.240978e+00 3.586818e+00 3.985097e+00 3.446618e+00 2.779767e+00 2.958023e+00 2.554216e+00 5.270047e+00
<GCONST> 1.094010e+02
<STATE> 4
<MEAN> 25
 2.024277e-01 3.775428e-01 7.865111e-01 1.176032e-01 -5.031376e-01 -4.901400e-01 -3.803461e-01 2.608431e-01 -6.145086e-02 -1.438088e-01 7.582910e-02 1.172479e-01 2.065410e-03 -1.359542e-04 5.097349e-03 1.936110e-03 -1.512279e-03 1.765482e-03 -2.769740e-03 1.646064e-03 -1.608414e-05 -1.051250e-03 3.837491e-03 -3.346509e-03 5.853947e-03
<VARIANCE> 25
 6.108161e+01 6.070744e+01 7.271626e+01 5.473880e+01 6.518931e+01 5.592830e+01 5.981659e+01 6.007560e+01 5.406327e+01 3.728947e+01 4.383030e+01 3.709541e+01 2.982105e+00 2.961254e+00 2.897742e+00 2.947882e+00 3.720998e+00 3.193187e+00 3.513743e+00 3.893125e+00 3.389902e+00 2.730618e+00 2.915898e+00 2.507681e+00 5.124338e+00
<GCONST> 1.091083e+02
<TRANSP> 5
 0.000000e+00 1.000000e+00 0.000000e+00 0.000000e+00 0.000000e+00
 0.000000e+00 7.161077e-01 2.838923e-01 0.000000e+00 0.000000e+00
 0.000000e+00 0.000000e+00 7.161049e-01 2.838951e-01 0.000000e+00
 0.000000e+00 0.000000e+00 0.000000e+00 8.419383e-01 1.580617e-01
 0.000000e+00 0.000000e+00 0.000000e+00 0.000000e+00 0.000000e+00
<ENDHMM>
~h "K"
<BEGINHMM>
<NUMSTATES> 5
<STATE> 2
<MEAN> 25
 -6.834005e-03 -1.167279e-01 -1.864872e-01 -1.717543e-01 1.553745e-02 -1.063178e-01 -6.990960e-02 7.684074e-02 -7.066544e-02 1.138075e-01 -5.810333e-02 -6.444015e-02 5.622378e-03 -1.907967e-03 -2.800716e-03 -4.167465e-03 2.381594e-03 -2.958111e-04 -2.241095e-03 -2.544466e-03 5.083566e-04 4.083318e-03 -4.394376e-03 -5.454381e-03 1.084071e-02
<VARIANCE> 25
 6.091535e+01 5.705062e+01 6.801263e+01 5.539873e+01 6.372391e+01 5.625067e+01 5.758084e+01 5.886843e+01 5.245845e+01 3.785798e+01 4.293217e+01 3.867210e+01 2.577413e+00 2.831515e+00 2.954106e+00 3.054977e+00 3.484253e+00 3.207235e+00 3.389416e+00 3.812095e+00 3.344595e+00 2.843346e+00 2.905759e+00 2.521596e+00 5.816514e+00
<GCONST> 1.088208e+02
<STATE> 3
<MEAN> 25
 1.382279e-02 -1.232614e-01 -1.962018e-01 -1.858065e-01 2.255603e-02 -1.090971e-01 -7.816799e-02 6.910808e-02 -7.058655e-02 1.273477e-01 -7.390882e-02 -8.173713e-02 5.846417e-03 -1.822592e-03 -2.606538e-03 -3.384612e-03 1.746278e-03 -6.395078e-04 -2.016846e-03 -2.408197e-03 -3.462462e-05 3.302447e-03 -4.471181e-03 -4.467283e-03 1.033119e-02
<VARIANCE> 25
 6.077955e+01 5.715937e+01 6.817899e+01 5.535427e+01 6.378354e+01 5.632787e+01 5.753194e+01 5.884109e+01 5.248571e+01 3.787889e+01 4.300711e+01 3.861486e+01 2.583026e+00 2.839878e+00 2.966650e+00 3.060030e+00 3.493791e+00 3.213187e+00 3.396234e+00 3.813246e+00 3.345949e+00 2.848754e+00 2.911121e+00 2.525169e+00 5.855189e+00
<GCONST> 1.088545e+02
<STATE> 4
<MEAN> 25
 6.859979e-02 -1.387261e-01 -1.825701e-01 -2.290940e-01 6.605357e-04 -1.089829e-01 -1.274945e-01 5.460668e-02 -7.392187e-02 1.467855e-01 -1.007821e-01 -1.177366e-01 5.580002e-03 -1.744189e-03 -2.041445e-03 -2.486658e-03 9.457372e-04 -9.073350e-04 -1.462722e-03 -1.630654e-03 -4.037803e-04 2.382709e-03 -3.702516e-03 -2.968571e-03 9.985481e-03
<VARIANCE> 25
 6.081147e+01 5.712091e+01 6.842345e+01 5.544960e+01 6.377462e+01 5.615096e+01 5.741397e+01 5.808804e+01 5.222386e+01 3.758524e+01 4.280455e+01 3.829259e+01 2.538569e+00 2.802029e+00 2.935472e+00 3.014274e+00 3.441735e+00 3.175625e+00 3.347363e+00 3.742078e+00 3.298352e+00 2.810471e+00 2.874638e+00 2.488635e+00 5.753105e+00
<GCONST> 1.086264e+02
<TRANSP> 5
 0.000000e+00 1.000000e+00 0.000000e+00 0.000000e+00 0.000000e+00
 0.000000e+00 7.171405e-01 2.828595e-01 0.000000e+00 0.000000e+00
 0.000000e+00 0.000000e+00 7.171395e-01 2.828605e-01 0.000000e+00
 0.000000e+00 0.000000e+00 0.000000e+00 8.433819e-01 1.566181e-01
 0.000000e+00 0.000000e+00 0.000000e+00 0.000000e+00 0.000000e+00
<ENDHMM>
~h "L"
<BEGINHMM>
<NUMSTATES> 5
<STATE> 2
<MEAN> 25
 4.310353e-01 -2.830224e-01 -1.010945e-01 -5.221010e-01 -1.546692e-01 3.296089e-01 -4.664863e-01 -3.568727e-01 2.006270e-01 9.826080e-02 1.456747e-01 -1.463509e-01 -6.536614e-04 2.555631e-03 2.552572e-03 -2.370082e-03 6.316693e-04 4.277827e-03 -1.953896e-03 -3.456843e-03 -9.540032e-04 5.690539e-04 -1.102679e-03 -1.459965e-03 4.629730e-03
<VARIANCE> 25
 6.385938e+01 5.678043e+01 7.018249e+01 6.137373e+01 6.599963e+01 6.051045e+01 6.341195e+01 6.171952e+01 5.587200e+01 3.980890e+01 4.449454e+01 3.889435e+01 2.534893e+00 2.680042e+00 2.795739e+00 3.149904e+00 3.470971e+00 3.249562e+00 3.500560e+00 3.884377e+00 3.404903e+00 2.866937e+00 2.948122e+00 2.455790e+00 4.740096e+00
<GCONST> 1.091774e+02
<STATE> 3
<MEAN> 25
 4.281453e-01 -2.749369e-01 -9.207194e-02 -5.319161e-01 -1.530138e-01 3.445823e-01 -4.739971e-01 -3.679385e-01 1.977054e-01 1.004446e-01 1.420409e-01 -1.516020e-01 -1.754569e-03 3.229048e-03 2.829450e-03 -1.419119e-03 6.087687e-04 3.543568e-03 -1.259441e-03 -2.582308e-03 -1.660453e-03 3.001032e-04 -1.540756e-03 -1.082737e-03 2.694994e-03
<VARIANCE> 25
 6.388462e+01 5.681724e+01 7.037542e+01 6.148336e+01 6.603598e+01 6.053086e+01 6.353318e+01 6.180621e+01 5.587582e+01 3.984692e+01 4.454231e+01 3.884891e+01 2.532801e+00 2.678156e+00 2.795901e+00 3.149441e+00 3.471809e+00 3.250998e+00 3.503931e+00 3.885796e+00 3.402114e+00 2.869460e+00 2.950920e+00 2.456667e+00 4.732992e+00
<GCONST> 1.091884e+02
<STATE> 4
<MEAN> 25
 4.498909e-01 -2.800735e-01 -6.702354e-02 -5.660172e-01 -1.736975e-01 3.596391e-01 -5.033793e-01 -3.933960e-01 1.885719e-01 1.067901e-01 1.357335e-01 -1.680599e-01 -2.309457e-03 3.549905e-03 3.045875e-03 -1.264022e-03 7.432456e-04 3.108552e-03 -5.957301e-04 -1.773935e-03 -1.826096e-03 4.159713e-04 -1.480737e-03 -9.018321e-04 2.160907e-03
<VARIANCE> 25
 6.411587e+01 5.660529e+01 7.058805e+01 6.180972e+01 6.612879e+01 6.032858e+01 6.349911e+01 6.091407e+01 5.561110e+01 3.947640e+01 4.424436e+01 3.848984e+01 2.475169e+00 2.622649e+00 2.748744e+00 3.082557e+00 3.409977e+00 3.200224e+00 3.438055e+00 3.797177e+00 3.339985e+00 2.822570e+00 2.907283e+00 2.416120e+00 4.603752e+00
<GCONST> 1.088971e+02
<TRANSP> 5
 0.000000e+00 1.000000e+00 0.000000e+00 0.000000e+00 0.000000e+00
 0.000000e+00 7.171119e-01 2.828881e-01 0.000000e+00 0.000000e+00
 0.000000e+00 0.000000e+00 7.171082e-01 2.828918e-01 0.000000e+00
 0.000000e+00 0.000000e+00 0.000000e+00 8.435609e-01 1.564391e-01
 0.000000e+00 0.000000e+00 0.000000e+00 0.000000e+00 0.000000e+00
<ENDHMM>
~h "M"
<BEGINHMM>
<NUMSTATES> 5
<STATE> 2
<MEAN> 25
 4.199182e-01 -2.319177e-01 1.310111e-03 -6.542933e-02 -2.504988e-02 3.594277e-01 -1.351566e-01 -3.652920e-01 -2.967201e-01 -1.415050e-01 1.312703e-02 -1.538383e-01 1.390153e-02 -4.745361e-04 2.955292e-03 -3.742469e-03 -2.132412e-03 9.084445e-03 -5.128211e-03 -8.538140e-03 -4.216896e-03 -1.331395e-03 -4.241505e-03 -8.063471e-03 1.943747e-02
<VARIANCE> 25
 6.283017e+01 5.573932e+01 6.723815e+01 5.719027e+01 6.468036e+01 5.831419e+01 5.848586e+01 6.192329e+01 5.652618e+01 3.829073e+01 4.403170e+01 3.861810e+01 2.407917e+00 2.652391e+00 2.832165e+00 3.163910e+00 3.306990e+00 3.104467e+00 3.288676e+00 3.925837e+00 3.490555e+00 2.750782e+00 2.956803e+00 2.454289e+00 4.698200e+00
<GCONST> 1.086363e+02
<STATE> 3
<MEAN> 25
 4.686397e-01 -2.344718e-01 1.297801e-02 -7.778973e-02 -3.429323e-02 3.917875e-01 -1.527168e-01 -3.952926e-01 -3.112915e-01 -1.456380e-01 -1.867238e-03 -1.816871e-01 1.268198e-02 5.668495e-06 3.190530e-03 -3.292731e-03 -2.632306e-03 8.412104e-03 -4.669421e-03 -7.714204e-03 -3.330966e-03 -7.728155e-04 -4.182594e-03 -7.660490e-03 1.809162e-02
<VARIANCE> 25
 6.267666e+01 5.574426e+01 6.734760e+01 5.720255e+01 6.478018e+01 5.838412e+01 5.845160e+01 6.200739e+01 5.673592e+01 3.833134e+01 4.410463e+01 3.856687e+01 2.404661e+00 2.652784e+00 2.838712e+00 3.170803e+00 3.307583e+00 3.107296e+00 3.290858e+00 3.932436e+00 3.502323e+00 2.753352e+00 2.961552e+00 2.454069e+00 4.695700e+00
<GCONST> 1.086564e+02
<STATE> 4
<MEAN> 25
 5.452896e-01 -2.631080e-01 4.571861e-02 -1.065529e-01 -7.719424e-02 4.062565e-01 -1.960073e-01 -4.152568e-01 -3.335837e-01 -1.478730e-01 -3.387544e-02 -2.260641e-01 1.148037e-02 1.204822e-04 3.954459e-03 -2.648963e-03 -3.670277e-03 7.305741e-03 -4.005613e-03 -6.294377e-03 -2.932710e-03 -6.343763e-04 -4.036309e-03 -6.862932e-03 1.730464e-02
<VARIANCE> 25
 6.261638e+01 5.562364e+01 6.746925e+01 5.707349e+01 6.480518e+01 5.820056e+01 5.819834e+01 6.121699e+01 5.669137e+01 3.795662e+01 4.390644e+01 3.810308e+01 2.346579e+00 2.602717e+00 2.793277e+00 3.106301e+00 3.249156e+00 3.061127e+00 3.233983e+00 3.850167e+00 3.456076e+00 2.713698e+00 2.921182e+00 2.408159e+00 4.569541e+00
<GCONST> 1.083664e+02
<TRANSP> 5
 0.000000e+00 1.000000e+00 0.000000e+00 0.000000e+00 0.000000e+00
 0.000000e+00 7.168471e-01 2.831528e-01 0.000000e+00 0.000000e+00
 0.000000e+00 0.000000e+00 7.168483e-01 2.831518e-01 0.000000e+00
 0.000000e+00 0.000000e+00 0.000000e+00 8.434925e-01 1.565075e-01
 0.000000e+00 0.000000e+00 0.000000e+00 0.000000e+00 0.000000e+00
<ENDHMM>
~h "N"
<BEGINHMM>
<NUMSTATES> 5
<STATE> 2
<MEAN> 25
 6.380068e-01 -2.081293e-01 4.297173e-01 1.671051e-01 -3.555380e-01 -4.437323e-02 -3.060503e-01 -2.459979e-01 -6.731291e-02 2.684472e-02 -4.368201e-01 -2.288245e-01 -1.469099e-03 2.151056e-03 -1.138321e-03 1.267463e-03 1.644970e-03 1.232405e-03 2.003842e-03 -3.536716e-03 -7.672980e-05 -1.901124e-03 -3.354539e-03 1.740294e-03 -3.834801e-03
<VARIANCE> 25
 6.099520e+01 5.790662e+01 6.992279e+01 5.625838e+01 6.562855e+01 5.622086e+01 5.838010e+01 6.328559e+01 5.410333e+01 3.884844e+01 4.599932e+01 3.842815e+01 2.481552e+00 2.820159e+00 2.936504e+00 3.127587e+00 3.423774e+00 3.179041e+00 3.406778e+00 4.147900e+00 3.395472e+00 2.885521e+00 2.987352e+00 2.481802e+00 5.078370e+00
<GCONST> 1.090592e+02
<STATE> 3
<MEAN> 25
 6.325584e-01 -1.995882e-01 4.246670e-01 1.711134e-01 -3.483248e-01 -3.975743e-02 -2.989670e-01 -2.580371e-01 -6.659054e-02 2.088270e-02 -4.485562e-01 -2.229301e-01 -2.760310e-03 2.392285e-03 -2.822270e-03 -3.911720e-04 1.965620e-03 1.496544e-03 1.707495e-03 -2.940256e-03 8.564573e-05 -1.916772e-03 -1.222339e-03 1.110094e-03 -4.429404e-03
<VARIANCE> 25
 6.103376e+01 5.788937e+01 6.974909e+01 5.613699e+01 6.564192e+01 5.614256e+01 5.840623e+01 6.326362e+01 5.405968e+01 3.886409e+01 4.599456e+01 3.840411e+01 2.482972e+00 2.820130e+00 2.932617e+00 3.123225e+00 3.421011e+00 3.177283e+00 3.405007e+00 4.147988e+00 3.395159e+00 2.885945e+00 2.985904e+00 2.479723e+00 5.074378e+00
<GCONST> 1.090466e+02
<STATE> 4
<MEAN> 25
 6.567381e-01 -2.015742e-01 4.269976e-01 1.481006e-01 -3.527282e-01 -1.840826e-02 -3.238094e-01 -2.710346e-01 -6.841947e-02 1.437464e-02 -4.637774e-01 -2.359131e-01 -3.421752e-03 2.822297e-03 -4.522374e-03 -2.139638e-03 2.080321e-03 1.596021e-03 9.489072e-04 -2.374060e-03 3.244367e-04 -1.516727e-03 2.416993e-04 2.299098e-04 -4.170777e-03
<VARIANCE> 25
 6.130434e+01 5.765456e+01 6.955309e+01 5.603402e+01 6.565677e+01 5.585081e+01 5.837850e+01 6.234303e+01 5.372320e+01 3.842297e+01 4.571614e+01 3.802690e+01 2.428815e+00 2.764122e+00 2.876124e+00 3.060580e+00 3.353532e+00 3.127930e+00 3.343412e+00 4.059525e+00 3.337316e+00 2.834534e+00 2.939840e+00 2.433314e+00 4.954423e+00
<GCONST> 1.087378e+02
<TRANSP> 5
 0.000000e+00 1.000000e+00 0.000000e+00 0.000000e+00 0.000000e+00
 0.000000e+00 7.149299e-01 2.850702e-01 0.000000e+00 0.000000e+00
 0.000000e+00 0.000000e+00 7.149267e-01 2.850733e-01 0.000000e+00
 0.000000e+00 0.000000e+00 0.000000e+00 8.408717e-01 1.591283e-01
 0.000000e+00 0.000000e+00 0.000000e+00 0.000000e+00 0.000000e+00
<ENDHMM>
~h "O"
<BEGINHMM>
<NUMSTATES> 5
<STATE> 2
<MEAN> 25
 6.586937e-01 1.479050e-01 -5.754938e-01 -1.115425e+00 -2.776672e-01 8.147662e-01 -2.770148e-01 -3.783762e-01 1.803495e-02 2.547374e-01 4.560862e-01 6.782752e-02 -1.424715e-03 4.110006e-03 -2.963605e-03 -4.103609e-03 2.271394e-03 8.213703e-03 4.710517e-03 -4.369427e-03 -1.224740e-03 2.019566e-03 4.148894e-03 3.976626e-04 -5.527033e-03
<VARIANCE> 25
 6.750730e+01 5.319811e+01 7.139082e+01 7.181651e+01 6.597143e+01 6.383965e+01 6.115505e+01 5.831161e+01 5.303901e+01 4.001614e+01 4.589407e+01 3.752948e+01 2.662496e+00 2.601592e+00 2.974534e+00 3.535962e+00 3.527086e+00 3.386136e+00 3.401294e+00 3.770936e+00 3.372993e+00 2.880062e+00 2.960263e+00 2.441581e+00 5.122834e+00
<GCONST> 1.095174e+02
<STATE> 3
<MEAN> 25
 6.538946e-01 1.628442e-01 -5.849284e-01 -1.130216e+00 -2.692983e-01 8.444666e-01 -2.617564e-01 -3.931771e-01 1.467308e-02 2.610614e-01 4.713785e-01 7.039430e-02 -3.533473e-03 4.359135e-03 -1.514236e-03 -1.388821e-03 2.394146e-03 5.815617e-03 5.052031e-03 -3.716791e-03 -1.453392e-03 1.207853e-03 3.445689e-03 9.067433e-04 -8.695113e-03
<VARIANCE> 25
 6.753054e+01 5.301640e+01 7.152821e+01 7.195675e+01 6.597211e+01 6.380734e+01 6.117899e+01 5.817615e+01 5.292863e+01 4.004942e+01 4.592776e+01 3.742710e+01 2.657140e+00 2.592015e+00 2.973609e+00 3.537380e+00 3.522113e+00 3.380631e+00 3.398793e+00 3.757941e+00 3.370744e+00 2.876026e+00 2.959824e+00 2.436860e+00 5.105141e+00
<GCONST> 1.094921e+02
<STATE> 4
<MEAN> 25
 6.853340e-01 1.731814e-01 -5.494618e-01 -1.153673e+00 -2.938694e-01 8.793330e-01 -2.755468e-01 -4.151335e-01 1.435457e-02 2.630886e-01 4.701190e-01 6.671204e-02 -5.015264e-03 4.230714e-03 1.968681e-05 5.390176e-04 2.275266e-03 3.666831e-03 5.158145e-03 -2.967381e-03 -1.309793e-03 4.696716e-04 2.463436e-03 1.420870e-03 -1.046724e-02
<VARIANCE> 25
 6.783326e+01 5.264032e+01 7.146361e+01 7.256427e+01 6.582993e+01 6.348548e+01 6.113076e+01 5.737924e+01 5.252104e+01 3.965712e+01 4.558106e+01 3.704029e+01 2.591942e+00 2.535810e+00 2.917918e+00 3.472593e+00 3.448474e+00 3.316605e+00 3.332858e+00 3.670630e+00 3.311094e+00 2.821006e+00 2.912954e+00 2.393278e+00 4.950062e+00
<GCONST> 1.091700e+02
<TRANSP> 5
 0.000000e+00 1.000000e+00 0.000000e+00 0.000000e+00 0.000000e+00
 0.000000e+00 7.190480e-01 2.809520e-01 0.000000e+00 0.000000e+00
 0.000000e+00 0.000000e+00 7.190437e-01 2.809562e-01 0.000000e+00
 0.000000e+00 0.000000e+00 0.000000e+00 8.457556e-01 1.542443e-01
 0.000000e+00 0.000000e+00 0.000000e+00 0.000000e+00 0.000000e+00
<ENDHMM>
~h "P"
<BEGINHMM>
<NUMSTATES> 5
<STATE> 2
<MEAN> 25
 1.038513e-01 3.145706e-03 -3.626756e-01 -1.475451e-01 5.483587e-02 1.521761e-02 1.032650e-01 -1.679536e-02 7.930599e-02 4.504407e-02 1.351849e-01 -4.797418e-02 5.785741e-03 -1.496913e-03 -1.102474e-03 -4.722284e-03 -8.754485e-04 6.325797e-03 1.789297e-03 -2.778274e-03 8.047607e-04 5.867460e-04 -1.175715e-03 -4.116184e-03 1.085463e-02
<VARIANCE> 25
 6.226669e+01 5.691368e+01 6.664059e+01 5.754342e+01 6.406841e+01 5.697501e+01 5.692531e+01 5.727582e+01 5.184130e+01 3.660378e+01 4.221250e+01 3.857076e+01 2.585273e+00 2.830269e+00 2.793664e+00 3.183300e+00 3.402387e+00 3.249039e+00 3.301111e+00 3.740936e+00 3.271274e+00 2.765089e+00 2.884435e+00 2.484844e+00 6.119318e+00
<GCONST> 1.086826e+02
<STATE> 3
<MEAN> 25
 1.228295e-01 -2.003532e-03 -3.653934e-01 -1.624843e-01 5.140731e-02 3.520782e-02 1.112069e-01 -2.486050e-02 8.235681e-02 4.757089e-02 1.302291e-01 -6.119958e-02 5.071372e-03 -9.974076e-04 -5.042496e-04 -3.896939e-03 -8.513152e-04 5.471924e-03 2.129499e-03 -2.193624e-03 7.106991e-04 6.555142e-04 -1.820724e-03 -3.643027e-03 9.309203e-03
<VARIANCE> 25
 6.227133e+01 5.696059e+01 6.672900e+01 5.758398e+01 6.408878e+01 5.706480e+01 5.687613e+01 5.729814e+01 5.181743e+01 3.663745e+01 4.228390e+01 3.856366e+01 2.591345e+00 2.836021e+00 2.796457e+00 3.193591e+00 3.405615e+00 3.257208e+00 3.303596e+00 3.742738e+00 3.270702e+00 2.768020e+00 2.888238e+00 2.489209e+00 6.152016e+00
<GCONST> 1.087115e+02
<STATE> 4
<MEAN> 25
 1.317627e-01 -1.241628e-02 -3.579398e-01 -1.673386e-01 5.870882e-02 4.027770e-02 1.361771e-01 -2.043079e-02 8.666451e-02 5.235773e-02 1.112840e-01 -6.670264e-02 3.878310e-03 -4.628466e-04 8.064026e-04 -2.234493e-03 -1.133865e-03 3.425229e-03 2.116551e-03 -1.526426e-03 4.874259e-04 7.198540e-04 -2.051684e-03 -2.508574e-03 7.110320e-03
<VARIANCE> 25
 6.229748e+01 5.668546e+01 6.639388e+01 5.772152e+01 6.416328e+01 5.691003e+01 5.669782e+01 5.654948e+01 5.125503e+01 3.619566e+01 4.197563e+01 3.830672e+01 2.525509e+00 2.774922e+00 2.737903e+00 3.134059e+00 3.338506e+00 3.205793e+00 3.230191e+00 3.666638e+00 3.204423e+00 2.720087e+00 2.839411e+00 2.448476e+00 5.987499e+00
<GCONST> 1.083846e+02
<TRANSP> 5
 0.000000e+00 1.000000e+00 0.000000e+00 0.000000e+00 0.000000e+00
 0.000000e+00 7.168527e-01 2.831472e-01 0.000000e+00 0.000000e+00
 0.000000e+00 0.000000e+00 7.168579e-01 2.831421e-01 0.000000e+00
 0.000000e+00 0.000000e+00 0.000000e+00 8.434137e-01 1.565863e-01
 0.000000e+00 0.000000e+00 0.000000e+00 0.000000e+00 0.000000e+00
<ENDHMM>
~h "Q"
<BEGINHMM>
<NUMSTATES> 5
<STATE> 2
<MEAN> 25
 -1.112560e+00 4.684574e-01 -5.288920e-01 -4.212736e-01 1.239418e-01 9.021395e-02 6.968017e-01 -5.473102e-01 2.085749e-01 1.791711e-01 5.626659e-01 2.785276e-01 -4.790788e-03 2.570256e-02 -3.047505e-03 -6.559075e-03 3.004501e-02 1.518271e-02 1.379588e-02 4.879436e-03 -9.123436e-03 -5.099226e-03 -9.549732e-03 6.540957e-03 -9.939113e-02
<VARIANCE> 25
 6.119595e+01 5.487822e+01 7.390189e+01 6.250776e+01 6.752724e+01 5.282853e+01 5.453372e+01 4.905446e+01 5.334441e+01 3.488934e+01 3.843596e+01 3.319999e+01 2.303107e+00 2.569815e+00 2.765955e+00 2.780385e+00 3.247249e+00 2.981338e+00 2.949651e+00 3.125064e+00 2.975704e+00 2.612533e+00 2.566326e+00 2.153401e+00 5.059189e+00
<GCONST> 1.069469e+02
<STATE> 3
<MEAN> 25
 -1.132442e+00 5.662959e-01 -5.407907e-01 -4.420024e-01 2.407765e-01 1.463395e-01 7.590876e-01 -5.114561e-01 1.754325e-01 1.514050e-01 5.230759e-01 3.076380e-01 -1.063804e-02 2.478021e-02 9.793573e-04 1.074438e-03 3.138712e-02 8.521509e-03 1.581254e-02 1.502451e-02 -9.890023e-03 -6.059209e-03 -8.572240e-03 7.038640e-03 -1.017798e-01
<VARIANCE> 25
 6.042305e+01 5.424916e+01 7.244894e+01 6.229253e+01 6.646492e+01 5.189094e+01 5.426346e+01 4.814450e+01 5.217734e+01 3.464349e+01 3.799405e+01 3.285389e+01 2.266462e+00 2.504467e+00 2.714571e+00 2.779044e+00 3.191500e+00 2.933596e+00 2.895751e+00 3.071589e+00 2.934927e+00 2.563061e+00 2.532253e+00 2.112840e+00 4.942391e+00
<GCONST> 1.065718e+02
<STATE> 4
<MEAN> 25
 -1.183400e+00 7.009866e-01 -4.726054e-01 -3.346913e-01 2.708066e-01 2.564547e-01 8.929959e-01 -5.100745e-01 1.091457e-01 -4.744476e-02 5.520605e-01 4.283909e-01 -1.033432e-02 2.022862e-02 3.583468e-03 1.093336e-02 2.707171e-02 2.375616e-03 2.162357e-02 2.757291e-02 -1.200744e-02 -9.682796e-03 -2.858260e-03 7.892193e-03 -9.613018e-02
<VARIANCE> 25
 5.735522e+01 5.138707e+01 6.906684e+01 6.288292e+01 6.289525e+01 4.966870e+01 5.284044e+01 4.668176e+01 5.032584e+01 3.420565e+01 3.652610e+01 3.182837e+01 2.106470e+00 2.334869e+00 2.588258e+00 2.742409e+00 3.001272e+00 2.783879e+00 2.715772e+00 2.966214e+00 2.884564e+00 2.479259e+00 2.429010e+00 2.007638e+00 4.540739e+00
<GCONST> 1.055056e+02
<TRANSP> 5
 0.000000e+00 1.000000e+00 0.000000e+00 0.000000e+00 0.000000e+00
 0.000000e+00 7.370631e-01 2.629369e-01 0.000000e+00 0.000000e+00
 0.000000e+00 0.000000e+00 7.370633e-01 2.629367e-01 0.000000e+00
 0.000000e+00 0.000000e+00 0.000000e+00 8.702787e-01 1.297213e-01
 0.000000e+00 0.000000e+00 0.000000e+00 0.000000e+00 0.000000e+00
<ENDHMM>
~h "R"
<BEGINHMM>
<NUMSTATES> 5
<STATE> 2
<MEAN> 25
 4.320425e-01 -4.699486e-01 -2.146086e-01 -9.807414e-02 -2.238594e-01 6.389128e-03 -2.596370e-01 7.716872e-02 2.782409e-01 1.142037e-01 3.865116e-02 -1.973009e-01 2.263543e-04 2.960908e-03 -7.289514e-04 7.638389e-04 2.119468e-03 1.687381e-03 2.158334e-03 -1.193357e-03 -7.594870e-04 2.128117e-04 1.778433e-04 -1.487178e-03 6.492259e-04
<VARIANCE> 25
 6.393026e+01 5.893122e+01 7.128918e+01 5.650724e+01 6.736477e+01 5.744318e+01 5.950729e+01 6.058001e+01 5.570738e+01 3.801567e+01 4.419447e+01 3.852739e+01 2.634016e+00 2.771906e+00 2.858053e+00 3.134622e+00 3.493171e+00 3.199621e+00 3.403619e+00 3.825397e+00 3.438372e+00 2.812829e+00 2.919628e+00 2.501296e+00 5.264668e+00
<GCONST> 1.091108e+02
<STATE> 3
<MEAN> 25
 4.322579e-01 -4.596252e-01 -2.171956e-01 -9.550225e-02 -2.150587e-01 1.172315e-02 -2.523542e-01 7.286936e-02 2.753618e-01 1.149752e-01 3.909440e-02 -2.029422e-01 -1.265374e-03 4.412618e-03 -7.881351e-04 8.280450e-04 2.958670e-03 1.175088e-03 2.770587e-03 -1.241668e-03 -1.248871e-03 2.817955e-04 1.814126e-04 -1.084607e-03 -2.633259e-03
<VARIANCE> 25
 6.406122e+01 5.895806e+01 7.143957e+01 5.637706e+01 6.745336e+01 5.743069e+01 5.952403e+01 6.049961e+01 5.574189e+01 3.795995e+01 4.421727e+01 3.847268e+01 2.633665e+00 2.769215e+00 2.856874e+00 3.132562e+00 3.491945e+00 3.195065e+00 3.403657e+00 3.818763e+00 3.438766e+00 2.809129e+00 2.918692e+00 2.497903e+00 5.257732e+00
<GCONST> 1.091015e+02
<STATE> 4
<MEAN> 25
 4.546299e-01 -4.550813e-01 -1.981068e-01 -1.143634e-01 -2.179072e-01 2.170710e-02 -2.794587e-01 6.748649e-02 2.649525e-01 1.114669e-01 3.882659e-02 -2.203865e-01 -2.747768e-03 5.154899e-03 -7.881697e-04 1.016039e-03 3.762206e-03 3.955156e-04 3.460380e-03 -8.993719e-04 -1.712380e-03 2.526269e-04 1.855327e-04 -5.621617e-04 -5.956255e-03
<VARIANCE> 25
 6.440389e+01 5.890928e+01 7.163443e+01 5.642035e+01 6.759098e+01 5.722112e+01 5.960051e+01 5.977535e+01 5.544625e+01 3.752532e+01 4.396724e+01 3.813083e+01 2.576644e+00 2.718448e+00 2.806490e+00 3.076293e+00 3.429353e+00 3.142232e+00 3.346285e+00 3.737156e+00 3.384233e+00 2.759292e+00 2.874837e+00 2.451327e+00 5.119591e+00
<GCONST> 1.088215e+02
<TRANSP> 5
 0.000000e+00 1.000000e+00 0.000000e+00 0.000000e+00 0.000000e+00
 0.000000e+00 7.166482e-01 2.833517e-01 0.000000e+00 0.000000e+00
 0.000000e+00 0.000000e+00 7.166494e-01 2.833506e-01 0.000000e+00
 0.000000e+00 0.000000e+00 0.000000e+00 8.426902e-01 1.573098e-01
 0.000000e+00 0.000000e+00 0.000000e+00 0.000000e+00 0.000000e+00
<ENDHMM>
~h "S"
<BEGINHMM>
<NUMSTATES> 5
<STATE> 2
<MEAN> 25
 -1.110668e+00 2.494042e-01 -2.963560e-01 5.995279e-02 3.499461e-01 -3.386402e-01 2.368800e-01 2.392824e-01 1.850340e-01 3.718173e-02 1.243466e-01 2.220336e-01 -3.234206e-03 3.230628e-03 -1.137888e-04 -1.989364e-03 5.029237e-03 2.315678e-03 1.042824e-04 -1.264403e-03 2.168376e-03 2.443208e-04 -1.239080e-03 -2.420518e-03 5.086047e-03
<VARIANCE> 25
 8.492944e+01 5.840380e+01 7.025510e+01 5.417845e+01 6.708775e+01 5.508424e+01 6.204635e+01 5.848862e+01 5.277183e+01 3.640192e+01 4.226100e+01 3.822704e+01 3.625012e+00 2.887745e+00 2.874542e+00 2.960458e+00 3.434750e+00 3.099935e+00 3.485878e+00 3.801102e+00 3.285106e+00 2.710543e+00 2.842205e+00 2.475324e+00 4.690084e+00
<GCONST> 1.091820e+02
<STATE> 3
<MEAN> 25
 -1.121222e+00 2.610047e-01 -2.974502e-01 5.271665e-02 3.668685e-01 -3.294447e-01 2.359618e-01 2.341145e-01 1.937816e-01 3.856927e-02 1.192452e-01 2.128244e-01 -7.342706e-04 2.895131e-03 -2.094147e-04 -1.799027e-03 4.189105e-03 2.929731e-03 -2.726158e-04 -1.799582e-03 1.902424e-03 3.334579e-04 -1.653676e-03 -2.724720e-03 2.025034e-03
<VARIANCE> 25
 8.501668e+01 5.842313e+01 7.031693e+01 5.408010e+01 6.708781e+01 5.506863e+01 6.203095e+01 5.838630e+01 5.276248e+01 3.634905e+01 4.224634e+01 3.811732e+01 3.646839e+00 2.890131e+00 2.874105e+00 2.957512e+00 3.434613e+00 3.098968e+00 3.490471e+00 3.795976e+00 3.283325e+00 2.704741e+00 2.841603e+00 2.473539e+00 4.685999e+00
<GCONST> 1.091761e+02
<STATE> 4
<MEAN> 25
 -1.090494e+00 2.741835e-01 -2.919047e-01 4.969099e-02 3.629023e-01 -3.044696e-01 2.269980e-01 2.133566e-01 2.084171e-01 3.919854e-02 1.226492e-01 1.985301e-01 1.119074e-03 2.119307e-03 -5.069154e-04 -1.165848e-03 3.074579e-03 2.974074e-03 -5.270425e-04 -1.572744e-03 1.318479e-03 -1.859496e-05 -1.727440e-03 -2.150487e-03 -1.881434e-05
<VARIANCE> 25
 8.452156e+01 5.801729e+01 6.998065e+01 5.408839e+01 6.670605e+01 5.460186e+01 6.178020e+01 5.733676e+01 5.230883e+01 3.582876e+01 4.182633e+01 3.759068e+01 3.553280e+00 2.823729e+00 2.808324e+00 2.894792e+00 3.358872e+00 3.044164e+00 3.407566e+00 3.706048e+00 3.217901e+00 2.651260e+00 2.787552e+00 2.422811e+00 4.535202e+00
<GCONST> 1.087806e+02
<TRANSP> 5
 0.000000e+00 1.000000e+00 0.000000e+00 0.000000e+00 0.000000e+00
 0.000000e+00 7.183349e-01 2.816651e-01 0.000000e+00 0.000000e+00
 0.000000e+00 0.000000e+00 7.183377e-01 2.816623e-01 0.000000e+00
 0.000000e+00 0.000000e+00 0.000000e+00 8.451228e-01 1.548772e-01
 0.000000e+00 0.000000e+00 0.000000e+00 0.000000e+00 0.000000e+00
<ENDHMM>
~h "T"
<BEGINHMM>
<NUMSTATES> 5
<STATE> 2
<MEAN> 25
 2.133815e-01 -3.405544e-02 -2.742816e-01 -3.274478e-01 -3.965668e-02 -1.100600e-01 -1.590714e-01 -1.335094e-01 9.473218e-02 1.135411e-01 -1.257294e-01 -2.126993e-01 8.281734e-05 2.843128e-03 3.721631e-04 -1.284458e-03 2.018748e-03 2.824218e-03 7.523134e-04 -3.784522e-03 2.018787e-03 1.973297e-03 -7.685369e-04 -7.206899e-04 -4.006330e-03
<VARIANCE> 25
 6.149482e+01 5.781563e+01 6.892426e+01 5.721913e+01 6.354363e+01 5.686164e+01 5.868927e+01 5.774062e+01 5.382460e+01 3.727950e+01 4.357096e+01 3.785455e+01 2.733840e+00 2.899323e+00 2.879099e+00 3.143049e+00 3.438658e+00 3.256919e+00 3.472735e+00 3.788149e+00 3.379192e+00 2.792278e+00 2.920034e+00 2.521090e+00 6.423196e+00
<GCONST> 1.091022e+02
<STATE> 3
<MEAN> 25
 2.126851e-01 -2.406796e-02 -2.718919e-01 -3.316614e-01 -3.305518e-02 -1.003702e-01 -1.563942e-01 -1.456552e-01 1.006872e-01 1.200047e-01 -1.281109e-01 -2.152074e-01 -9.247633e-04 2.715729e-03 9.085707e-04 -5.339643e-04 2.307818e-03 2.669404e-03 8.368814e-04 -3.193247e-03 1.509685e-03 1.900089e-03 -4.784180e-04 -2.246577e-04 -5.114524e-03
<VARIANCE> 25
 6.138173e+01 5.778416e+01 6.899420e+01 5.720430e+01 6.353995e+01 5.679195e+01 5.869649e+01 5.766987e+01 5.381200e+01 3.724126e+01 4.358297e+01 3.779889e+01 2.730680e+00 2.899457e+00 2.879807e+00 3.143468e+00 3.436906e+00 3.255465e+00 3.474788e+00 3.783097e+00 3.376563e+00 2.790507e+00 2.919326e+00 2.520855e+00 6.448874e+00
<GCONST> 1.090955e+02
<STATE> 4
<MEAN> 25
 2.289105e-01 -2.619951e-02 -2.414318e-01 -3.448867e-01 -4.878739e-02 -8.424465e-02 -1.694337e-01 -1.588509e-01 1.005745e-01 1.220613e-01 -1.274439e-01 -2.306123e-01 -1.665511e-03 2.601891e-03 1.391155e-03 9.383878e-05 2.160319e-03 2.260487e-03 8.856672e-04 -2.219072e-03 8.312906e-04 1.179066e-03 -1.774820e-04 2.503197e-04 -5.439033e-03
<VARIANCE> 25
 6.137933e+01 5.753498e+01 6.903444e+01 5.720680e+01 6.355064e+01 5.645061e+01 5.863335e+01 5.681631e+01 5.345909e+01 3.679548e+01 4.329232e+01 3.746627e+01 2.661331e+00 2.844139e+00 2.829182e+00 3.080723e+00 3.372915e+00 3.201309e+00 3.405663e+00 3.694933e+00 3.314816e+00 2.739989e+00 2.872039e+00 2.477756e+00 6.304493e+00
<GCONST> 1.087807e+02
<TRANSP> 5
 0.000000e+00 1.000000e+00 0.000000e+00 0.000000e+00 0.000000e+00
 0.000000e+00 7.173921e-01 2.826078e-01 0.000000e+00 0.000000e+00
 0.000000e+00 0.000000e+00 7.173940e-01 2.826060e-01 0.000000e+00
 0.000000e+00 0.000000e+00 0.000000e+00 8.436895e-01 1.563105e-01
 0.000000e+00 0.000000e+00 0.000000e+00 0.000000e+00 0.000000e+00
<ENDHMM>
~h "U"
<BEGINHMM>
<NUMSTATES> 5
<STATE> 2
<MEAN> 25
 5.299539e-01 6.533405e-01 4.452683e-02 -4.283828e-01 -3.181840e-01 4.026461e-01 -7.141545e-01 -5.652177e-01 -3.857228e-01 2.713809e-02 2.053200e-01 9.835594e-02 2.993646e-03 6.765259e-03 9.619988e-04 -1.228964e-03 -9.720402e-04 6.898030e-03 -2.184418e-03 -6.227625e-03 -3.228151e-03 2.088334e-05 1.149403e-03 -5.972474e-04 3.569302e-03
<VARIANCE> 25
 6.710909e+01 5.703481e+01 6.595513e+01 5.965835e+01 6.583372e+01 5.808778e+01 6.345015e+01 6.235382e+01 5.511739e+01 3.836911e+01 4.453180e+01 3.787969e+01 2.756282e+00 2.730115e+00 2.833033e+00 3.313700e+00 3.539155e+00 3.312363e+00 3.586114e+00 3.920580e+00 3.442859e+00 2.865238e+00 3.016514e+00 2.515157e+00 5.078169e+00
<GCONST> 1.093969e+02
<STATE> 3
<MEAN> 25
 5.403064e-01 6.765692e-01 4.844686e-02 -4.327873e-01 -3.238302e-01 4.263347e-01 -7.218714e-01 -5.857253e-01 -3.967956e-01 2.614672e-02 2.093265e-01 9.661260e-02 1.792636e-03 5.673968e-03 9.821245e-04 -1.645831e-04 -7.029551e-04 5.804081e-03 -1.256876e-03 -5.292931e-03 -2.299374e-03 -3.947002e-04 6.637428e-04 -1.001411e-03 2.156977e-03
<VARIANCE> 25
 6.714413e+01 5.697748e+01 6.599265e+01 5.974312e+01 6.597253e+01 5.809024e+01 6.356459e+01 6.243921e+01 5.511953e+01 3.839040e+01 4.460405e+01 3.788731e+01 2.760372e+00 2.729249e+00 2.835068e+00 3.318641e+00 3.545563e+00 3.315225e+00 3.591534e+00 3.922440e+00 3.445547e+00 2.870967e+00 3.020412e+00 2.517187e+00 5.079121e+00
<GCONST> 1.094192e+02
<STATE> 4
<MEAN> 25
 5.778414e-01 6.694500e-01 7.046282e-02 -4.597044e-01 -3.627099e-01 4.544317e-01 -7.419351e-01 -5.965599e-01 -4.107569e-01 2.318014e-02 2.082109e-01 7.105603e-02 1.033197e-03 4.579124e-03 9.010368e-04 2.423464e-04 -1.149387e-03 4.779441e-03 -7.620465e-04 -4.320697e-03 -1.343713e-03 -5.918200e-04 4.984634e-04 -1.296746e-03 1.389545e-03
<VARIANCE> 25
 6.734661e+01 5.664916e+01 6.601154e+01 5.977573e+01 6.598222e+01 5.778199e+01 6.353634e+01 6.172205e+01 5.488976e+01 3.805144e+01 4.448296e+01 3.760878e+01 2.706989e+00 2.678227e+00 2.790990e+00 3.254272e+00 3.482068e+00 3.261892e+00 3.526262e+00 3.842260e+00 3.394502e+00 2.830413e+00 2.980714e+00 2.477600e+00 4.958998e+00
<GCONST> 1.091478e+02
<TRANSP> 5
 0.000000e+00 1.000000e+00 0.000000e+00 0.000000e+00 0.000000e+00
 0.000000e+00 7.174533e-01 2.825466e-01 0.000000e+00 0.000000e+00
 0.000000e+00 0.000000e+00 7.174538e-01 2.825462e-01 0.000000e+00
 0.000000e+00 0.000000e+00 0.000000e+00 8.437632e-01 1.562367e-01
 0.000000e+00 0.000000e+00 0.000000e+00 0.000000e+00 0.000000e+00
<ENDHMM>
~h "V"
<BEGINHMM>
<NUMSTATES> 5
<STATE> 2
<MEAN> 25
 -7.606527e-01 -2.945850e-01 -8.842288e-02 8.985396e-02 -1.920358e-01 1.676361e-01 1.142940e-01 1.350335e-01 7.852930e-03 -5.515019e-02 3.696579e-01 2.542128e-01 -5.445071e-03 9.559879e-03 1.029937e-02 -1.524915e-04 -1.245076e-02 2.847115e-03 -3.418035e-03 -5.698046e-03 -3.698683e-03 2.747427e-03 6.266260e-03 3.844728e-03 2.463510e-02
<VARIANCE> 25
 7.119857e+01 5.451456e+01 7.591175e+01 5.975248e+01 6.714870e+01 5.937790e+01 5.666100e+01 5.632750e+01 5.129072e+01 3.653737e+01 4.198928e+01 3.771955e+01 3.324959e+00 2.613236e+00 2.966634e+00 3.172527e+00 3.539077e+00 3.216199e+00 3.265948e+00 3.656450e+00 3.232997e+00 2.751415e+00 2.807547e+00 2.457716e+00 4.523273e+00
<GCONST> 1.088356e+02
<STATE> 3
<MEAN> 25
 -7.823907e-01 -2.672551e-01 -5.139340e-02 8.800182e-02 -2.332704e-01 1.685360e-01 1.047534e-01 1.224933e-01 -3.352037e-03 -4.474643e-02 3.879378e-01 2.630354e-01 -5.844390e-03 9.742607e-03 9.962759e-03 -8.855737e-04 -1.186505e-02 3.523574e-04 -1.953004e-03 -6.508617e-03 -4.050681e-03 2.866395e-03 5.078591e-03 3.339906e-03 2.069328e-02
<VARIANCE> 25
 7.155981e+01 5.445610e+01 7.675755e+01 5.984224e+01 6.727804e+01 5.959497e+01 5.694747e+01 5.635482e+01 5.133536e+01 3.653274e+01 4.189058e+01 3.784349e+01 3.359512e+00 2.610255e+00 2.982854e+00 3.180142e+00 3.553158e+00 3.221146e+00 3.281698e+00 3.654855e+00 3.233722e+00 2.752027e+00 2.799834e+00 2.456069e+00 4.494647e+00
<GCONST> 1.088826e+02
<STATE> 4
<MEAN> 25
 -7.134693e-01 -2.835010e-01 1.042080e-02 2.357338e-02 -3.245591e-01 2.040801e-01 2.035207e-02 8.824380e-02 -2.636064e-02 1.126871e-02 3.883377e-01 2.194301e-01 -6.025124e-03 8.541537e-03 9.426359e-03 -2.152961e-03 -1.004629e-02 -3.055670e-03 8.977533e-04 -6.846393e-03 -5.146334e-03 3.707031e-03 3.140507e-03 3.826390e-04 1.606844e-02
<VARIANCE> 25
 7.143296e+01 5.442345e+01 7.799865e+01 6.000503e+01 6.747574e+01 5.997512e+01 5.684632e+01 5.588483e+01 5.109605e+01 3.611760e+01 4.145333e+01 3.779356e+01 3.296169e+00 2.562745e+00 2.958390e+00 3.139118e+00 3.506194e+00 3.183319e+00 3.228392e+00 3.585987e+00 3.189968e+00 2.716376e+00 2.741395e+00 2.412652e+00 4.399239e+00
<GCONST> 1.086640e+02
<TRANSP> 5
 0.000000e+00 1.000000e+00 0.000000e+00 0.000000e+00 0.000000e+00
 0.000000e+00 7.188635e-01 2.811365e-01 0.000000e+00 0.000000e+00
 0.000000e+00 0.000000e+00 7.188659e-01 2.811341e-01 0.000000e+00
 0.000000e+00 0.000000e+00 0.000000e+00 8.449484e-01 1.550516e-01
 0.000000e+00 0.000000e+00 0.000000e+00 0.000000e+00 0.000000e+00
<ENDHMM>
~h "W"
<BEGINHMM>
<NUMSTATES> 5
<STATE> 2
<MEAN> 25
 6.652892e-01 -4.941273e-03 -1.888801e-01 -1.057165e+00 -3.318922e-01 5.335163e-01 -6.011961e-01 1.074477e-02 -8.727191e-02 1.593615e-01 2.456298e-01 -2.298225e-01 5.855409e-03 -3.355229e-04 -2.947169e-03 -3.956868e-03 5.775339e-03 6.793272e-03 1.922652e-03 3.988543e-03 2.157650e-03 2.349615e-04 3.558552e-04 -3.139820e-03 2.409074e-03
<VARIANCE> 25
 6.635145e+01 5.793221e+01 7.085977e+01 7.145756e+01 6.592247e+01 6.425636e+01 5.836856e+01 5.667104e+01 5.464938e+01 3.796720e+01 4.585702e+01 3.866143e+01 2.491704e+00 2.748006e+00 2.711110e+00 3.163300e+00 3.425596e+00 3.207191e+00 3.318979e+00 3.663849e+00 3.229444e+00 2.718993e+00 2.906779e+00 2.493431e+00 4.650746e+00
<GCONST> 1.089624e+02
<STATE> 3
<MEAN> 25
 6.851900e-01 -5.867107e-03 -1.968571e-01 -1.068890e+00 -3.119179e-01 5.593739e-01 -5.899800e-01 2.395272e-02 -7.887034e-02 1.561038e-01 2.467612e-01 -2.371927e-01 3.431860e-03 7.686531e-05 -4.223717e-03 -2.268786e-03 6.938864e-03 6.541214e-03 4.002805e-03 3.829282e-03 3.101913e-03 -9.041479e-04 -5.600645e-04 -1.214855e-03 -3.721402e-03
<VARIANCE> 25
 6.608749e+01 5.780424e+01 7.092587e+01 7.176350e+01 6.599166e+01 6.418861e+01 5.850094e+01 5.665614e+01 5.444945e+01 3.799459e+01 4.596113e+01 3.862473e+01 2.477047e+00 2.738590e+00 2.702193e+00 3.160584e+00 3.421445e+00 3.199033e+00 3.313739e+00 3.656882e+00 3.220261e+00 2.717425e+00 2.905441e+00 2.489097e+00 4.629960e+00
<GCONST> 1.089309e+02
<STATE> 4
<MEAN> 25
 7.070702e-01 -2.105623e-02 -1.797155e-01 -1.079759e+00 -3.039771e-01 5.872033e-01 -5.651571e-01 3.153189e-02 -6.509886e-02 1.347764e-01 2.472339e-01 -2.413884e-01 7.115046e-04 1.325367e-03 -4.974350e-03 1.451798e-04 7.703301e-03 6.253286e-03 6.699704e-03 2.175964e-03 2.893514e-03 -2.206920e-03 -8.738803e-04 1.319931e-03 -1.245124e-02
<VARIANCE> 25
 6.626015e+01 5.740839e+01 7.084739e+01 7.197979e+01 6.598939e+01 6.353109e+01 5.847668e+01 5.580414e+01 5.396965e+01 3.754677e+01 4.546469e+01 3.821145e+01 2.394845e+00 2.660398e+00 2.642675e+00 3.079601e+00 3.340819e+00 3.119172e+00 3.231576e+00 3.562973e+00 3.152085e+00 2.663938e+00 2.846599e+00 2.423559e+00 4.460118e+00
<GCONST> 1.085233e+02
<TRANSP> 5
 0.000000e+00 1.000000e+00 0.000000e+00 0.000000e+00 0.000000e+00
 0.000000e+00 7.212418e-01 2.787582e-01 0.000000e+00 0.000000e+00
 0.000000e+00 0.000000e+00 7.212406e-01 2.787594e-01 0.000000e+00
 0.000000e+00 0.000000e+00 0.000000e+00 8.489951e-01 1.510048e-01
 0.000000e+00 0.000000e+00 0.000000e+00 0.000000e+00 0.000000e+00
<ENDHMM>
~h "X"
<BEGINHMM>
<NUMSTATES> 5
<STATE> 2
<MEAN> 25
 -4.094576e+00 1.126412e+00 -7.134613e-02 2.048100e+00 1.041015e+00 -1.788530e+00 2.090414e+00 2.363961e+00 -1.017809e+00 -4.844875e-01 1.135395e+00 -8.780424e-02 -1.819225e-02 -3.015852e-02 2.044817e-02 -3.462712e-02 1.942456e-02 -1.528080e-02 -5.171680e-03 1.364240e-02 1.440661e-03 -4.494244e-03 -2.531051e-03 3.451832e-02 3.921197e-02
<VARIANCE> 25
 3.928736e+01 4.050608e+01 5.659885e+01 4.453008e+01 5.997754e+01 3.750290e+01 3.760854e+01 4.692413e+01 3.626265e+01 3.165414e+01 3.425462e+01 2.792372e+01 1.255668e+00 1.877087e+00 2.527145e+00 2.421521e+00 2.547070e+00 2.239522e+00 2.422584e+00 2.950377e+00 2.426808e+00 1.911445e+00 2.693492e+00 2.273160e+00 5.742196e+00
<GCONST> 1.017257e+02
<STATE> 3
<MEAN> 25
 -4.106662e+00 9.764419e-01 2.428135e-02 1.858732e+00 1.161083e+00 -1.813355e+00 2.061485e+00 2.419543e+00 -9.794593e-01 -4.932010e-01 1.124964e+00 4.126251e-02 -7.448409e-03 -3.308927e-02 2.282926e-02 -4.840923e-02 2.437287e-02 -1.046594e-02 -8.067523e-03 1.558793e-02 8.411570e-03 -5.119167e-03 -1.731612e-03 3.908398e-02 5.146798e-02
<VARIANCE> 25
 4.146587e+01 4.329811e+01 5.570961e+01 4.853839e+01 6.154946e+01 3.878533e+01 3.776638e+01 4.699294e+01 3.747191e+01 3.234037e+01 3.458359e+01 2.813296e+01 1.331875e+00 1.956468e+00 2.589638e+00 2.541597e+00 2.637768e+00 2.303410e+00 2.445577e+00 2.916130e+00 2.426083e+00 1.975269e+00 2.740306e+00 2.253406e+00 5.950998e+00
<GCONST> 1.023639e+02
<STATE> 4
<MEAN> 25
 -4.044215e+00 5.229397e-01 2.677115e-02 1.527408e+00 1.695049e+00 -1.856511e+00 1.981000e+00 2.421264e+00 -5.798008e-01 -6.204080e-01 1.111317e+00 2.423693e-01 1.920649e-02 -4.625132e-02 2.412083e-02 -7.772675e-02 3.987400e-02 2.476843e-03 -1.648952e-02 1.596222e-02 2.279314e-02 -2.127628e-03 -1.904104e-03 3.797419e-02 8.660462e-02
<VARIANCE> 25
 4.166350e+01 5.030668e+01 5.229961e+01 5.611117e+01 6.043164e+01 3.969274e+01 3.553477e+01 4.763067e+01 3.859971e+01 3.178093e+01 3.170640e+01 2.636995e+01 1.328061e+00 2.056621e+00 2.453745e+00 2.645117e+00 2.601965e+00 2.287499e+00 2.410964e+00 2.659699e+00 2.316226e+00 2.065375e+00 2.664590e+00 2.102585e+00 5.673656e+00
<GCONST> 1.021779e+02
<TRANSP> 5
 0.000000e+00 1.000000e+00 0.000000e+00 0.000000e+00 0.000000e+00
 0.000000e+00 7.256762e-01 2.743238e-01 0.000000e+00 0.000000e+00
 0.000000e+00 0.000000e+00 7.256762e-01 2.743238e-01 0.000000e+00
 0.000000e+00 0.000000e+00 0.000000e+00 8.520687e-01 1.479313e-01
 0.000000e+00 0.000000e+00 0.000000e+00 0.000000e+00 0.000000e+00
<ENDHMM>
~h "Y"
<BEGINHMM>
<NUMSTATES> 5
<STATE> 2
<MEAN> 25
 -2.510913e-02 -2.810309e-01 2.764547e-01 -2.800598e-01 -4.105509e-01 -2.473069e-01 6.970352e-02 4.019471e-01 -3.861901e-02 -1.006433e-01 1.808212e-01 5.661355e-02 1.561974e-03 -5.469474e-04 1.120201e-02 -3.928681e-03 -8.075801e-03 -3.691005e-03 -1.626576e-03 4.145809e-03 -5.574258e-03 -3.169508e-03 -1.138167e-04 -1.706790e-03 1.670962e-02
<VARIANCE> 25
 5.930950e+01 5.746901e+01 7.662376e+01 5.518370e+01 6.975495e+01 5.520045e+01 5.993221e+01 6.069860e+01 5.341759e+01 3.837174e+01 4.494550e+01 3.804840e+01 2.347487e+00 2.644645e+00 2.998170e+00 2.850475e+00 3.342768e+00 3.022456e+00 3.224379e+00 3.833960e+00 3.238174e+00 2.740834e+00 2.872677e+00 2.379854e+00 4.453956e+00
<GCONST> 1.083536e+02
<STATE> 3
<MEAN> 25
 -2.018479e-02 -2.844950e-01 3.148392e-01 -2.950234e-01 -4.381054e-01 -2.621319e-01 6.235111e-02 4.165641e-01 -5.754425e-02 -1.078577e-01 1.790861e-01 5.100208e-02 8.696041e-04 3.274551e-04 1.039827e-02 -3.130358e-03 -7.082061e-03 -3.884583e-03 -2.114649e-03 2.787546e-03 -5.153862e-03 -2.433253e-03 -9.619727e-04 -1.482100e-03 1.294210e-02
<VARIANCE> 25
 5.928213e+01 5.756144e+01 7.686806e+01 5.512379e+01 6.987801e+01 5.522535e+01 5.997176e+01 6.082396e+01 5.348886e+01 3.841871e+01 4.502738e+01 3.798416e+01 2.346687e+00 2.645104e+00 3.011638e+00 2.844187e+00 3.347243e+00 3.022550e+00 3.225034e+00 3.841209e+00 3.238680e+00 2.741757e+00 2.875979e+00 2.379876e+00 4.419727e+00
<GCONST> 1.083640e+02
<STATE> 4
<MEAN> 25
 -4.252684e-02 -2.659269e-01 3.459356e-01 -2.779135e-01 -4.332688e-01 -2.612005e-01 6.924597e-02 4.062140e-01 -7.215354e-02 -9.181634e-02 1.616775e-01 7.635386e-02 2.867335e-04 3.751507e-05 8.702174e-03 -3.091225e-03 -6.186244e-03 -4.434261e-03 -3.204655e-03 1.945105e-03 -3.690702e-03 -8.403077e-04 -2.066062e-03 -7.875948e-04 9.781256e-03
<VARIANCE> 25
 5.922993e+01 5.732219e+01 7.669138e+01 5.489792e+01 6.954681e+01 5.468368e+01 6.015234e+01 5.978382e+01 5.296325e+01 3.781805e+01 4.459121e+01 3.758115e+01 2.272901e+00 2.576669e+00 2.945291e+00 2.770605e+00 3.268394e+00 2.966045e+00 3.154295e+00 3.738365e+00 3.164366e+00 2.687605e+00 2.822429e+00 2.328828e+00 4.233262e+00
<GCONST> 1.079522e+02
<TRANSP> 5
 0.000000e+00 1.000000e+00 0.000000e+00 0.000000e+00 0.000000e+00
 0.000000e+00 7.222601e-01 2.777399e-01 0.000000e+00 0.000000e+00
 0.000000e+00 0.000000e+00 7.222638e-01 2.777362e-01 0.000000e+00
 0.000000e+00 0.000000e+00 0.000000e+00 8.501619e-01 1.498382e-01
 0.000000e+00 0.000000e+00 0.000000e+00 0.000000e+00 0.000000e+00
<ENDHMM>
~h "Z"
<BEGINHMM>
<NUMSTATES> 5
<STATE> 2
<MEAN> 25
 -8.763371e-01 8.932020e-01 3.426358e-01 6.013417e-01 3.143284e-01 -2.598295e-01 9.348407e-02 -4.042109e-02 7.393727e-02 4.961674e-02 1.893106e-01 5.583418e-01 -2.599401e-03 -4.716906e-03 -3.385513e-04 1.012080e-03 5.119492e-03 3.840781e-03 6.631427e-03 -3.935333e-03 -3.734076e-03 7.611646e-04 -6.255269e-03 -3.497784e-03 -2.455261e-02
<VARIANCE> 25
 6.359285e+01 6.347071e+01 6.795031e+01 5.488530e+01 6.685984e+01 5.448420e+01 5.835309e+01 5.841531e+01 5.123098e+01 3.454339e+01 4.078327e+01 3.534731e+01 2.362141e+00 2.574286e+00 2.381619e+00 2.754325e+00 3.097716e+00 2.885924e+00 2.981170e+00 3.464889e+00 2.914589e+00 2.430257e+00 2.573220e+00 2.236230e+00 3.558259e+00
<GCONST> 1.067492e+02
<STATE> 3
<MEAN> 25
 -8.898358e-01 8.762983e-01 3.394492e-01 6.120350e-01 3.369348e-01 -2.527245e-01 1.164231e-01 -4.984821e-02 6.345144e-02 5.184228e-02 1.678646e-01 5.492980e-01 -3.593234e-03 -6.263021e-03 -5.096395e-03 2.255634e-03 7.346002e-03 3.679884e-03 8.689814e-03 -3.741654e-03 -3.076792e-03 -1.040036e-03 -7.374001e-03 -3.828592e-03 -3.072724e-02
<VARIANCE> 25
 6.317474e+01 6.324046e+01 6.775606e+01 5.460815e+01 6.659492e+01 5.428561e+01 5.839049e+01 5.842075e+01 5.114769e+01 3.459509e+01 4.069888e+01 3.512144e+01 2.339105e+00 2.558179e+00 2.373396e+00 2.740865e+00 3.078670e+00 2.874937e+00 2.967086e+00 3.459496e+00 2.905722e+00 2.427048e+00 2.561662e+00 2.224487e+00 3.526498e+00
<GCONST> 1.066517e+02
<STATE> 4
<MEAN> 25
 -8.421797e-01 8.120971e-01 3.406120e-01 6.044943e-01 3.302063e-01 -3.160292e-01 5.630226e-02 -5.127607e-02 6.332856e-02 7.912795e-02 1.138869e-01 4.998239e-01 -4.504668e-03 -6.509895e-03 -6.615418e-03 5.068397e-03 8.970957e-03 2.435339e-03 9.456156e-03 -1.148515e-03 -7.750423e-04 -2.382774e-03 -5.865982e-03 -2.374058e-03 -3.332620e-02
<VARIANCE> 25
 6.294684e+01 6.284846e+01 6.761202e+01 5.453737e+01 6.667680e+01 5.366858e+01 5.869015e+01 5.770104e+01 5.097050e+01 3.426911e+01 4.061037e+01 3.487119e+01 2.277083e+00 2.516871e+00 2.329080e+00 2.680209e+00 3.021310e+00 2.831301e+00 2.924619e+00 3.394093e+00 2.860558e+00 2.382309e+00 2.522424e+00 2.182602e+00 3.424551e+00
<GCONST> 1.063487e+02
<TRANSP> 5
 0.000000e+00 1.000000e+00 0.000000e+00 0.000000e+00 0.000000e+00
 0.000000e+00 7.319399e-01 2.680601e-01 0.000000e+00 0.000000e+00
 0.000000e+00 0.000000e+00 7.319406e-01 2.680595e-01 0.000000e+00
 0.000000e+00 0.000000e+00 0.000000e+00 8.610117e-01 1.389883e-01
 0.000000e+00 0.000000e+00 0.000000e+00 0.000000e+00 0.000000e+00
<ENDHMM>
~h "e"
<BEGINHMM>
<NUMSTATES> 5
<STATE> 2
<MEAN> 25
 2.839133e-01 -1.239791e-01 -7.463868e-02 -5.051592e-02 -1.908998e-01 -1.340091e-01 -4.524242e-01 -1.420823e-01 1.219468e-01 1.345692e-01 -9.489997e-03 -1.701939e-01 1.353930e-02 -1.468857e-03 1.435887e-03 -5.158423e-03 -2.052246e-03 4.516746e-03 -6.153065e-03 -4.311728e-03 1.222269e-03 4.136618e-03 -1.461237e-03 -6.796422e-03 2.633587e-02
<VARIANCE> 25
 6.511272e+01 5.647636e+01 6.672942e+01 5.576123e+01 6.367687e+01 5.676030e+01 6.135719e+01 6.059369e+01 5.542336e+01 3.851314e+01 4.356691e+01 3.861694e+01 2.711021e+00 2.809119e+00 2.840670e+00 3.119381e+00 3.417480e+00 3.188652e+00 3.506078e+00 3.907246e+00 3.454128e+00 2.821371e+00 2.963117e+00 2.522730e+00 5.424621e+00
<GCONST> 1.090832e+02
<STATE> 3
<MEAN> 25
 3.311485e-01 -1.294188e-01 -6.906325e-02 -6.786991e-02 -2.000849e-01 -1.194997e-01 -4.750035e-01 -1.556877e-01 1.250624e-01 1.471613e-01 -1.365729e-02 -1.935748e-01 1.300337e-02 -1.562732e-03 1.261240e-03 -4.886136e-03 -1.914838e-03 4.602870e-03 -5.119317e-03 -3.570000e-03 6.212879e-04 3.336848e-03 -1.421651e-03 -6.285920e-03 2.561152e-02
<VARIANCE> 25
 6.516700e+01 5.655305e+01 6.682566e+01 5.583093e+01 6.372084e+01 5.693681e+01 6.146281e+01 6.071233e+01 5.563580e+01 3.861617e+01 4.366215e+01 3.866285e+01 2.718965e+00 2.818881e+00 2.850939e+00 3.131663e+00 3.424395e+00 3.199051e+00 3.515673e+00 3.915732e+00 3.468057e+00 2.828377e+00 2.971386e+00 2.530418e+00 5.450326e+00
<GCONST> 1.091466e+02
<STATE> 4
<MEAN> 25
 3.966538e-01 -1.401110e-01 -5.346099e-02 -9.963340e-02 -2.145376e-01 -1.057037e-01 -5.238742e-01 -1.642269e-01 1.165028e-01 1.626662e-01 -2.285382e-02 -2.292853e-01 1.226036e-02 -1.623049e-03 1.335549e-03 -4.692277e-03 -2.161271e-03 4.337133e-03 -4.555442e-03 -2.824375e-03 2.477228e-05 2.434101e-03 -1.269368e-03 -5.909547e-03 2.509776e-02
<VARIANCE> 25
 6.524303e+01 5.635332e+01 6.685295e+01 5.592899e+01 6.379896e+01 5.684909e+01 6.168311e+01 5.998074e+01 5.549492e+01 3.835316e+01 4.353194e+01 3.847383e+01 2.659403e+00 2.770464e+00 2.807466e+00 3.081475e+00 3.369125e+00 3.160045e+00 3.455579e+00 3.839036e+00 3.420709e+00 2.790737e+00 2.934277e+00 2.495867e+00 5.321995e+00
<GCONST> 1.089064e+02
<TRANSP> 5
 0.000000e+00 1.000000e+00 0.000000e+00 0.000000e+00 0.000000e+00
 0.000000e+00 7.148653e-01 2.851347e-01 0.000000e+00 0.000000e+00
 0.000000e+00 0.000000e+00 7.148606e-01 2.851394e-01 0.000000e+00
 0.000000e+00 0.000000e+00 0.000000e+00 8.407776e-01 1.592224e-01
 0.000000e+00 0.000000e+00 0.000000e+00 0.000000e+00 0.000000e+00
<ENDHMM>
~h "AI"
<BEGINHMM>
<NUMSTATES> 5
<STATE> 2
<MEAN> 25
 2.196414e-01 -1.041431e-01 5.958853e-01 -3.717936e-01 -6.394294e-01 -3.997436e-01 -3.297621e-01 3.591120e-01 -1.630071e-01 2.832094e-01 3.024895e-01 -1.896661e-01 8.234995e-03 -3.082801e-03 5.997033e-03 -4.324135e-03 -4.017242e-03 3.042121e-03 -5.931079e-03 1.388555e-04 -3.775560e-03 3.426810e-03 1.801442e-03 -5.416863e-03 2.207631e-02
<VARIANCE> 25
 6.441805e+01 5.965010e+01 7.228009e+01 5.542804e+01 6.765504e+01 5.840606e+01 5.904486e+01 6.274250e+01 5.543286e+01 3.781098e+01 4.322338e+01 3.740791e+01 2.706234e+00 2.863738e+00 2.824453e+00 3.040765e+00 3.430327e+00 3.201188e+00 3.403769e+00 3.951649e+00 3.418937e+00 2.788622e+00 2.949389e+00 2.520729e+00 4.911858e+00
<GCONST> 1.090776e+02
<STATE> 3
<MEAN> 25
 2.451628e-01 -1.166923e-01 6.183582e-01 -3.881623e-01 -6.570417e-01 -3.906072e-01 -3.483396e-01 3.595515e-01 -1.734069e-01 2.955033e-01 3.085591e-01 -2.084283e-01 7.552776e-03 -3.323084e-03 4.188964e-03 -4.053007e-03 -4.674529e-03 2.780391e-03 -6.003614e-03 -1.296954e-03 -2.241359e-03 2.708805e-03 1.447063e-03 -5.655732e-03 2.374284e-02
<VARIANCE> 25
 6.429069e+01 5.969905e+01 7.211753e+01 5.546508e+01 6.784732e+01 5.863136e+01 5.915624e+01 6.292141e+01 5.529335e+01 3.782214e+01 4.324181e+01 3.733691e+01 2.712372e+00 2.870029e+00 2.840073e+00 3.047756e+00 3.449270e+00 3.211737e+00 3.405096e+00 3.961304e+00 3.422848e+00 2.791203e+00 2.956202e+00 2.520946e+00 4.943854e+00
<GCONST> 1.091175e+02
<STATE> 4
<MEAN> 25
 2.753404e-01 -1.308481e-01 6.563390e-01 -4.009018e-01 -6.963189e-01 -3.608244e-01 -3.517596e-01 3.164256e-01 -1.679057e-01 2.946172e-01 2.818781e-01 -2.552903e-01 5.710735e-03 -4.188801e-03 3.403113e-03 -4.405834e-03 -6.059031e-03 1.686425e-03 -6.104749e-03 -2.938321e-03 -1.182736e-03 1.936894e-03 7.039127e-04 -5.199585e-03 2.436074e-02
<VARIANCE> 25
 6.430204e+01 5.963109e+01 7.180272e+01 5.536698e+01 6.787060e+01 5.856036e+01 5.911517e+01 6.236714e+01 5.455694e+01 3.740915e+01 4.290961e+01 3.675369e+01 2.649714e+00 2.812399e+00 2.792621e+00 2.979012e+00 3.396327e+00 3.167089e+00 3.327541e+00 3.873585e+00 3.346020e+00 2.741498e+00 2.912039e+00 2.462799e+00 4.821618e+00
<GCONST> 1.087898e+02
<TRANSP> 5
 0.000000e+00 1.000000e+00 0.000000e+00 0.000000e+00 0.000000e+00
 0.000000e+00 7.228686e-01 2.771314e-01 0.000000e+00 0.000000e+00
 0.000000e+00 0.000000e+00 7.228665e-01 2.771335e-01 0.000000e+00
 0.000000e+00 0.000000e+00 0.000000e+00 8.504140e-01 1.495859e-01
 0.000000e+00 0.000000e+00 0.000000e+00 0.000000e+00 0.000000e+00
<ENDHMM>
~h "AU"
<BEGINHMM>
<NUMSTATES> 5
<STATE> 2
<MEAN> 25
 -2.486713e-03 -2.527257e-01 -1.043265e+00 -1.277681e+00 4.863688e-01 7.254473e-01 -3.426582e-02 -5.146571e-02 3.941356e-01 -5.157376e-02 1.202080e-01 1.524701e-01 7.175603e-03 4.243754e-03 -7.144834e-03 -1.072251e-02 -9.299389e-04 9.415084e-03 -5.591806e-03 -1.129129e-03 6.653858e-03 5.212880e-03 3.770144e-03 -9.375244e-03 1.896134e-02
<VARIANCE> 25
 6.055019e+01 5.560513e+01 6.410929e+01 7.110128e+01 6.125603e+01 6.371777e+01 5.548271e+01 5.524627e+01 5.132456e+01 3.836137e+01 4.262181e+01 4.071084e+01 2.246107e+00 2.644620e+00 2.527263e+00 3.190729e+00 3.139848e+00 3.208581e+00 3.130471e+00 3.509794e+00 3.128281e+00 2.783191e+00 2.759648e+00 2.522801e+00 5.174356e+00
<GCONST> 1.081590e+02
<STATE> 3
<MEAN> 25
 2.633478e-02 -2.407024e-01 -1.067425e+00 -1.316964e+00 4.793840e-01 7.641897e-01 -5.536563e-02 -5.969637e-02 4.199713e-01 -2.694151e-02 1.314812e-01 1.151632e-01 7.462837e-03 3.964677e-03 -4.178640e-03 -9.736186e-03 -2.785180e-03 1.004920e-02 -5.851238e-03 -2.254796e-03 7.465915e-03 7.305476e-03 3.592721e-03 -1.128557e-02 2.298830e-02
<VARIANCE> 25
 6.059209e+01 5.561704e+01 6.434094e+01 7.135694e+01 6.135705e+01 6.392455e+01 5.557812e+01 5.512289e+01 5.154390e+01 3.841208e+01 4.272666e+01 4.071817e+01 2.249977e+00 2.649040e+00 2.533504e+00 3.193291e+00 3.151968e+00 3.218436e+00 3.141698e+00 3.503862e+00 3.126692e+00 2.782665e+00 2.769061e+00 2.523766e+00 5.215719e+00
<GCONST> 1.082062e+02
<STATE> 4
<MEAN> 25
 1.059789e-01 -2.235931e-01 -1.026967e+00 -1.327335e+00 3.841749e-01 8.074090e-01 -9.775367e-02 -9.255781e-02 4.540370e-01 2.765047e-02 1.584832e-01 2.953304e-02 8.695550e-03 1.944874e-03 -1.826749e-03 -7.912952e-03 -4.989257e-03 1.073573e-02 -6.143183e-03 -2.814299e-03 8.084359e-03 9.926206e-03 2.056504e-03 -1.252914e-02 2.874193e-02
<VARIANCE> 25
 6.109899e+01 5.539636e+01 6.497774e+01 7.096103e+01 6.151872e+01 6.416933e+01 5.584111e+01 5.433777e+01 5.181521e+01 3.791628e+01 4.238725e+01 4.055864e+01 2.211422e+00 2.610719e+00 2.504844e+00 3.109384e+00 3.126017e+00 3.182191e+00 3.096889e+00 3.435205e+00 3.079196e+00 2.732877e+00 2.739775e+00 2.485768e+00 5.121665e+00
<GCONST> 1.079911e+02
<TRANSP> 5
 0.000000e+00 1.000000e+00 0.000000e+00 0.000000e+00 0.000000e+00
 0.000000e+00 7.218081e-01 2.781918e-01 0.000000e+00 0.000000e+00
 0.000000e+00 0.000000e+00 7.218094e-01 2.781906e-01 0.000000e+00
 0.000000e+00 0.000000e+00 0.000000e+00 8.483241e-01 1.516759e-01
 0.000000e+00 0.000000e+00 0.000000e+00 0.000000e+00 0.000000e+00
<ENDHMM>
~h "NG"
<BEGINHMM>
<NUMSTATES> 5
<STATE> 2
<MEAN> 25
 9.076756e-01 -2.252983e-01 2.183611e-01 -4.614042e-01 -4.534006e-01 3.673269e-01 -2.983119e-01 -2.574694e-01 -2.296676e-01 3.104548e-02 -2.558477e-01 -4.606894e-01 6.627548e-03 -7.920386e-05 2.743989e-03 -4.058592e-03 -5.848717e-03 2.972363e-03 -1.497362e-03 -2.373997e-03 -3.689098e-03 7.146812e-04 -3.650395e-03 -3.170170e-03 9.280812e-03
<VARIANCE> 25
 6.199096e+01 5.722055e+01 7.011281e+01 5.806438e+01 6.745703e+01 5.721313e+01 5.985709e+01 6.163472e+01 5.586134e+01 3.955670e+01 4.571003e+01 3.970602e+01 2.470061e+00 2.754510e+00 2.972385e+00 3.146772e+00 3.534606e+00 3.159812e+00 3.403314e+00 4.017761e+00 3.439243e+00 2.860060e+00 3.018018e+00 2.552459e+00 4.912753e+00
<GCONST> 1.092098e+02
<STATE> 3
<MEAN> 25
 9.301260e-01 -2.263939e-01 2.250954e-01 -4.767870e-01 -4.732754e-01 3.778816e-01 -3.039906e-01 -2.650082e-01 -2.422105e-01 3.307746e-02 -2.681228e-01 -4.736107e-01 5.503261e-03 1.554966e-04 1.321413e-03 -4.302647e-03 -6.284148e-03 2.134156e-03 -2.123580e-03 -2.295238e-03 -3.281983e-03 1.056459e-03 -2.588959e-03 -3.589327e-03 8.089003e-03
<VARIANCE> 25
 6.175792e+01 5.719444e+01 7.013049e+01 5.802409e+01 6.753481e+01 5.716750e+01 5.981545e+01 6.167983e+01 5.585583e+01 3.965088e+01 4.573257e+01 3.974129e+01 2.459485e+00 2.749531e+00 2.975588e+00 3.144674e+00 3.540210e+00 3.162867e+00 3.399883e+00 4.022764e+00 3.438026e+00 2.861385e+00 3.020919e+00 2.553830e+00 4.900287e+00
<GCONST> 1.092053e+02
<STATE> 4
<MEAN> 25
 9.654790e-01 -2.405419e-01 2.362534e-01 -5.169033e-01 -4.989056e-01 3.936492e-01 -3.348050e-01 -2.637849e-01 -2.565843e-01 4.176505e-02 -2.829287e-01 -5.026703e-01 4.595761e-03 3.977905e-04 -4.133818e-04 -4.249406e-03 -5.975036e-03 1.166222e-03 -2.448014e-03 -2.354739e-03 -2.700874e-03 1.234611e-03 -2.065863e-03 -4.237715e-03 7.213449e-03
<VARIANCE> 25
 6.197654e+01 5.710695e+01 6.997313e+01 5.809637e+01 6.764190e+01 5.712038e+01 6.004037e+01 6.069350e+01 5.545427e+01 3.932025e+01 4.545355e+01 3.953015e+01 2.405914e+00 2.694824e+00 2.926295e+00 3.079161e+00 3.487772e+00 3.123256e+00 3.342149e+00 3.932803e+00 3.381184e+00 2.811430e+00 2.974257e+00 2.514549e+00 4.781882e+00
<GCONST> 1.089307e+02
<TRANSP> 5
 0.000000e+00 1.000000e+00 0.000000e+00 0.000000e+00 0.000000e+00
 0.000000e+00 7.157258e-01 2.842742e-01 0.000000e+00 0.000000e+00
 0.000000e+00 0.000000e+00 7.157243e-01 2.842756e-01 0.000000e+00
 0.000000e+00 0.000000e+00 0.000000e+00 8.414143e-01 1.585857e-01
 0.000000e+00 0.000000e+00 0.000000e+00 0.000000e+00 0.000000e+00
<ENDHMM>
~h "NY"
<BEGINHMM>
<NUMSTATES> 5
<STATE> 2
<MEAN> 25
 2.462060e-01 -2.174983e-01 4.353791e-01 2.600379e-01 2.090806e-01 -2.273123e-01 3.160124e-01 7.350138e-01 -3.140382e-01 -6.387933e-01 -2.612613e-01 -6.019030e-05 -8.102019e-03 4.033814e-03 -9.611759e-03 8.257598e-03 1.656294e-02 6.262426e-03 5.461722e-03 -3.137870e-03 2.088872e-03 -7.353736e-03 -5.423519e-03 1.153383e-03 -3.353204e-02
<VARIANCE> 25
 5.570905e+01 5.670766e+01 6.369006e+01 5.192350e+01 6.381754e+01 5.018365e+01 5.611643e+01 6.214725e+01 5.308563e+01 3.996058e+01 4.209419e+01 3.580506e+01 2.218206e+00 2.724115e+00 2.717525e+00 2.946223e+00 3.207317e+00 2.939374e+00 3.147818e+00 3.950037e+00 3.261690e+00 2.742761e+00 2.821710e+00 2.345362e+00 4.468829e+00
<GCONST> 1.075365e+02
<STATE> 3
<MEAN> 25
 2.163841e-01 -2.018720e-01 4.008576e-01 2.886239e-01 2.691912e-01 -2.025087e-01 3.335907e-01 7.209038e-01 -3.082903e-01 -6.626992e-01 -2.780673e-01 2.187701e-03 -1.068632e-02 6.986197e-03 -1.052759e-02 7.157027e-03 1.416322e-02 6.025697e-03 3.804267e-03 -6.380642e-03 2.197779e-03 -3.827253e-03 -4.430284e-03 8.153962e-04 -3.839495e-02
<VARIANCE> 25
 5.541957e+01 5.648402e+01 6.342762e+01 5.171028e+01 6.393509e+01 4.990411e+01 5.591435e+01 6.175101e+01 5.298160e+01 3.996764e+01 4.198381e+01 3.573507e+01 2.197140e+00 2.709040e+00 2.703912e+00 2.926988e+00 3.190273e+00 2.924610e+00 3.135881e+00 3.928975e+00 3.251009e+00 2.735298e+00 2.814391e+00 2.339006e+00 4.448063e+00
<GCONST> 1.074368e+02
<STATE> 4
<MEAN> 25
 2.196197e-01 -1.911118e-01 3.552684e-01 2.697504e-01 3.175549e-01 -1.728512e-01 3.066045e-01 6.703911e-01 -3.113573e-01 -6.537517e-01 -3.207065e-01 -1.664331e-02 -1.222354e-02 9.060040e-03 -9.646436e-03 4.474577e-03 1.020076e-02 5.758567e-03 1.771408e-03 -9.532916e-03 1.136546e-03 -7.622457e-04 -2.485760e-03 1.313186e-04 -3.928714e-02
<VARIANCE> 25
 5.578476e+01 5.635960e+01 6.325477e+01 5.168001e+01 6.373690e+01 4.942334e+01 5.573217e+01 6.033262e+01 5.265498e+01 3.947876e+01 4.146758e+01 3.538213e+01 2.137294e+00 2.645508e+00 2.638542e+00 2.848412e+00 3.104977e+00 2.869919e+00 3.069031e+00 3.817353e+00 3.190602e+00 2.685938e+00 2.758103e+00 2.295647e+00 4.310333e+00
<GCONST> 1.070511e+02
<TRANSP> 5
 0.000000e+00 1.000000e+00 0.000000e+00 0.000000e+00 0.000000e+00
 0.000000e+00 7.195807e-01 2.804193e-01 0.000000e+00 0.000000e+00
 0.000000e+00 0.000000e+00 7.195784e-01 2.804216e-01 0.000000e+00
 0.000000e+00 0.000000e+00 0.000000e+00 8.466539e-01 1.533461e-01
 0.000000e+00 0.000000e+00 0.000000e+00 0.000000e+00 0.000000e+00
<ENDHMM>
~h "OI"
<BEGINHMM>
<NUMSTATES> 5
<STATE> 2
<MEAN> 25
 6.535089e-04 4.650614e-01 -7.901863e-01 -2.221978e-01 -4.216736e-01 8.368312e-01 1.756250e-01 -1.720602e-01 -5.704349e-02 1.609928e-01 4.894533e-01 1.598213e-01 -2.127701e-02 -2.059837e-02 -3.028191e-03 -1.720952e-02 -4.465554e-03 -2.718372e-02 -5.793057e-04 -9.881120e-03 -8.861141e-03 -8.783352e-03 -1.030997e-02 8.116546e-04 2.438864e-02
<VARIANCE> 25
 5.249813e+01 4.983020e+01 6.902190e+01 7.255651e+01 5.506041e+01 5.625014e+01 6.671929e+01 5.657673e+01 5.170730e+01 4.149039e+01 4.490703e+01 3.959654e+01 2.671907e+00 2.700139e+00 3.216301e+00 3.751238e+00 3.157035e+00 3.665198e+00 3.642145e+00 3.901087e+00 3.389507e+00 3.044616e+00 3.149221e+00 2.929558e+00 4.833600e+00
<GCONST> 1.094643e+02
<STATE> 3
<MEAN> 25
 -7.983851e-02 4.024041e-01 -8.000874e-01 -2.921846e-01 -4.256647e-01 7.484177e-01 1.924286e-01 -2.116091e-01 -7.910338e-02 1.181249e-01 4.476726e-01 1.627238e-01 -1.699150e-02 -1.606774e-02 1.941119e-03 -2.565509e-02 -3.342711e-03 -2.028328e-02 -1.331318e-03 -6.933633e-03 -6.505787e-03 -8.711541e-03 -1.314856e-02 -5.116859e-03 2.210005e-02
<VARIANCE> 25
 5.259878e+01 4.943574e+01 6.933788e+01 7.199804e+01 5.533349e+01 5.641238e+01 6.661189e+01 5.688593e+01 5.135561e+01 4.089541e+01 4.489864e+01 3.964840e+01 2.703692e+00 2.717486e+00 3.205016e+00 3.759664e+00 3.146541e+00 3.703234e+00 3.650466e+00 3.942737e+00 3.401014e+00 3.043144e+00 3.127212e+00 2.918936e+00 4.775638e+00
<GCONST> 1.094636e+02
<STATE> 4
<MEAN> 25
 -1.560920e-01 3.740808e-01 -7.256935e-01 -4.005694e-01 -4.499735e-01 6.538904e-01 3.558702e-01 -2.553713e-01 -1.575669e-01 5.143623e-02 4.407226e-01 2.075888e-01 -1.539091e-02 -5.513709e-03 8.285365e-03 -2.968138e-02 -3.102024e-03 -1.235866e-02 3.692591e-03 -5.182345e-03 -3.228333e-03 -6.141094e-03 -1.524238e-02 -8.953944e-03 8.338128e-03
<VARIANCE> 25
 5.192501e+01 4.888205e+01 6.939319e+01 7.207518e+01 5.495782e+01 5.560839e+01 6.574500e+01 5.645472e+01 5.019729e+01 4.006414e+01 4.390406e+01 3.883626e+01 2.637385e+00 2.660790e+00 3.116396e+00 3.712557e+00 3.088982e+00 3.665684e+00 3.545170e+00 3.909202e+00 3.318274e+00 2.999871e+00 3.033471e+00 2.825342e+00 4.566188e+00
<GCONST> 1.090132e+02
<TRANSP> 5
 0.000000e+00 1.000000e+00 0.000000e+00 0.000000e+00 0.000000e+00
 0.000000e+00 7.119274e-01 2.880727e-01 0.000000e+00 0.000000e+00
 0.000000e+00 0.000000e+00 7.119267e-01 2.880732e-01 0.000000e+00
 0.000000e+00 0.000000e+00 0.000000e+00 8.343738e-01 1.656262e-01
 0.000000e+00 0.000000e+00 0.000000e+00 0.000000e+00 0.000000e+00
<ENDHMM>
~h "SY"
<BEGINHMM>
<NUMSTATES> 5
<STATE> 2
<MEAN> 25
 -1.756037e+00 -4.608402e-02 4.447837e-01 1.875941e-02 -1.570554e-01 -1.480626e-01 4.301301e-01 3.562855e-01 -7.118919e-03 -9.609968e-02 4.896851e-01 4.022491e-01 -1.205317e-02 4.465229e-03 1.318242e-02 -7.290039e-04 -3.120036e-03 4.763237e-03 -1.945146e-03 -1.571312e-03 -2.152287e-03 5.972162e-03 3.629852e-03 -3.690454e-03 1.541525e-02
<VARIANCE> 25
 9.045028e+01 5.475105e+01 6.964104e+01 5.158515e+01 6.508809e+01 5.178539e+01 5.772585e+01 5.565633e+01 5.159127e+01 3.547855e+01 3.910844e+01 3.596783e+01 3.524871e+00 2.517053e+00 2.694877e+00 2.692195e+00 3.246754e+00 2.948915e+00 3.140511e+00 3.462807e+00 3.141648e+00 2.563972e+00 2.615764e+00 2.286652e+00 3.687111e+00
<GCONST> 1.075901e+02
<STATE> 3
<MEAN> 25
 -1.798475e+00 -3.292106e-02 4.901472e-01 1.595412e-02 -1.619102e-01 -1.284548e-01 4.231970e-01 3.512682e-01 -1.048238e-02 -7.027525e-02 5.048673e-01 3.900743e-01 -6.741872e-03 3.072894e-03 1.138419e-02 -1.638962e-03 -4.562420e-04 5.777051e-03 -2.895338e-03 -2.510114e-03 -1.274374e-03 5.819352e-03 2.731316e-03 -3.500128e-03 1.144990e-02
<VARIANCE> 25
 9.080035e+01 5.491080e+01 6.994480e+01 5.122441e+01 6.526704e+01 5.144018e+01 5.779496e+01 5.586969e+01 5.160909e+01 3.554159e+01 3.925606e+01 3.583950e+01 3.564157e+00 2.513952e+00 2.707938e+00 2.682115e+00 3.260844e+00 2.958833e+00 3.147768e+00 3.470801e+00 3.146574e+00 2.572069e+00 2.616957e+00 2.283566e+00 3.660299e+00
<GCONST> 1.076174e+02
<STATE> 4
<MEAN> 25
 -1.774205e+00 9.109506e-03 5.122827e-01 4.315894e-02 -1.461624e-01 -9.229504e-02 4.070498e-01 3.110212e-01 -2.012469e-02 -4.278382e-03 5.102862e-01 3.668877e-01 -2.988429e-03 1.355605e-03 9.311900e-03 -1.179160e-03 2.330536e-03 6.415742e-03 -3.298579e-03 -2.093637e-03 -5.681765e-04 5.716960e-03 1.358699e-03 -2.481454e-03 7.033845e-03
<VARIANCE> 25
 9.013383e+01 5.444024e+01 7.002343e+01 5.053181e+01 6.496229e+01 5.060752e+01 5.748952e+01 5.561006e+01 5.125022e+01 3.489629e+01 3.934165e+01 3.519519e+01 3.473481e+00 2.443147e+00 2.669568e+00 2.616555e+00 3.193933e+00 2.913302e+00 3.084347e+00 3.407191e+00 3.087583e+00 2.526305e+00 2.577144e+00 2.241252e+00 3.544245e+00
<GCONST> 1.072451e+02
<TRANSP> 5
 0.000000e+00 1.000000e+00 0.000000e+00 0.000000e+00 0.000000e+00
 0.000000e+00 7.300195e-01 2.699805e-01 0.000000e+00 0.000000e+00
 0.000000e+00 0.000000e+00 7.300189e-01 2.699811e-01 0.000000e+00
 0.000000e+00 0.000000e+00 0.000000e+00 8.586223e-01 1.413778e-01
 0.000000e+00 0.000000e+00 0.000000e+00 0.000000e+00 0.000000e+00
<ENDHMM>
~h "sil"
<BEGINHMM>
<NUMSTATES> 5
<STATE> 2
<MEAN> 25
 -5.041188e+00 2.374668e+00 -1.666975e+00 3.580102e+00 4.025989e+00 -4.985945e-01 4.502095e+00 8.799341e-01 3.124868e-01 -5.677721e-01 2.451800e-01 2.883939e+00 -5.922686e-02 -2.691485e-02 -4.912189e-02 -1.479650e-02 -3.609955e-02 -6.429110e-02 -8.108154e-03 8.907728e-05 -2.039940e-02 -2.301274e-02 1.468757e-02 2.241996e-02 -7.887891e-02
<VARIANCE> 25
 1.373965e+01 2.097737e+01 2.211502e+01 2.190196e+01 2.226144e+01 2.635601e+01 2.574493e+01 3.076425e+01 2.546407e+01 2.328530e+01 2.345628e+01 2.061718e+01 4.409362e-01 7.626565e-01 8.444293e-01 1.248532e+00 1.274946e+00 1.545155e+00 1.581635e+00 1.953219e+00 1.781074e+00 1.758585e+00 1.573492e+00 1.550242e+00 9.460115e-01
<GCONST> 8.615594e+01
<STATE> 3
<MEAN> 25
 -5.206878e+00 2.315749e+00 -1.799607e+00 3.561144e+00 3.953069e+00 -6.809803e-01 4.498117e+00 9.073316e-01 2.804524e-01 -6.291591e-01 3.170436e-01 2.955196e+00 -3.457604e-02 -1.328702e-02 -2.542724e-02 -7.688885e-03 -1.687742e-02 -4.185882e-02 -1.668234e-03 9.900205e-03 -2.942684e-03 -1.062289e-02 2.321897e-02 1.515200e-02 -2.813247e-02
<VARIANCE> 25
 1.257507e+01 2.050484e+01 2.040406e+01 2.128232e+01 2.141070e+01 2.584103e+01 2.535694e+01 3.062691e+01 2.516323e+01 2.309757e+01 2.284942e+01 2.053507e+01 4.518315e-01 7.453673e-01 8.148755e-01 1.233265e+00 1.221335e+00 1.533584e+00 1.543618e+00 1.939413e+00 1.748033e+00 1.747028e+00 1.532920e+00 1.545241e+00 1.063260e+00
<GCONST> 8.574066e+01
<STATE> 4
<MEAN> 25
 -5.154878e+00 2.281029e+00 -1.912458e+00 3.435787e+00 3.828353e+00 -7.848745e-01 4.421420e+00 8.298545e-01 3.188924e-01 -5.982216e-01 3.616233e-01 2.847755e+00 -1.741390e-02 -3.827815e-03 -1.482013e-02 -1.922422e-02 -7.969406e-03 -1.903415e-02 -9.064910e-03 -9.692393e-03 1.175132e-02 6.931733e-03 1.149080e-02 -5.390816e-03 1.463063e-02
<VARIANCE> 25
 1.206405e+01 2.002723e+01 1.920428e+01 2.007819e+01 2.112725e+01 2.517590e+01 2.480349e+01 2.947509e+01 2.425306e+01 2.235564e+01 2.201529e+01 1.998232e+01 4.548063e-01 7.029125e-01 7.895430e-01 1.153961e+00 1.183486e+00 1.494446e+00 1.538544e+00 1.859489e+00 1.726016e+00 1.735425e+00 1.540693e+00 1.521074e+00 1.212367e+00
<GCONST> 8.517136e+01
<TRANSP> 5
 0.000000e+00 1.000000e+00 0.000000e+00 0.000000e+00 0.000000e+00
 0.000000e+00 7.237203e-01 2.762797e-01 0.000000e+00 0.000000e+00
 0.000000e+00 0.000000e+00 7.237129e-01 2.762871e-01 0.000000e+00
 0.000000e+00 0.000000e+00 0.000000e+00 8.520070e-01 1.479929e-01
 0.000000e+00 0.000000e+00 0.000000e+00 0.000000e+00 0.000000e+00
<ENDHMM>
