~o
<STREAMINFO> 1 25
<VECSIZE> 25<NULLD><MFCC_D_N_Z_0><DIAGC>
~h "A"
<BEGINHMM>
<NUMSTATES> 5
<STATE> 2
<MEAN> 25
 3.646622e+00 -8.335530e+00 -4.889095e+00 -4.775800e+00 9.491409e-01 2.010131e+00 -1.356122e+00 4.210140e+00 4.510792e+00 -9.178882e-01 -3.089918e+00 -4.679441e+00 1.760155e-01 -5.895840e-01 -3.939803e-01 -7.992999e-02 4.176669e-01 3.151567e-01 2.119531e-01 2.625768e-01 2.812625e-01 -2.875094e-01 -4.615286e-01 -4.310090e-01 3.446959e-01
<VARIANCE> 25
 2.436732e+01 4.438859e+01 4.227941e+01 4.300092e+01 5.128194e+01 5.985347e+01 4.559718e+01 5.993430e+01 4.749677e+01 4.031224e+01 4.335379e+01 4.034407e+01 1.826260e+00 3.422253e+00 2.630289e+00 2.905820e+00 3.262613e+00 3.686234e+00 3.099161e+00 4.210286e+00 3.421872e+00 2.966982e+00 3.254601e+00 3.056612e+00 5.058781e+00
<GCONST> 1.065636e+02
<STATE> 3
<MEAN> 25
 3.821690e+00 -8.640254e+00 -5.222847e+00 -4.366500e+00 1.777928e+00 2.294591e+00 -9.506881e-01 4.133584e+00 4.536517e+00 -1.315448e+00 -3.744285e+00 -5.013416e+00 7.678771e-02 1.266028e-01 3.597347e-02 2.400265e-01 1.817136e-01 -2.102619e-02 1.055209e-01 -1.055449e-01 -7.349108e-02 -5.461812e-02 -1.623365e-01 -2.215191e-02 -4.103924e-01
<VARIANCE> 25
 2.231231e+01 4.391296e+01 3.921069e+01 4.126384e+01 4.689407e+01 5.456932e+01 4.407710e+01 5.634132e+01 4.594062e+01 3.955061e+01 4.081733e+01 3.919499e+01 1.310680e+00 3.021509e+00 2.232733e+00 2.481064e+00 2.826189e+00 3.273294e+00 2.732238e+00 3.720166e+00 2.873414e+00 2.727369e+00 2.840392e+00 2.590663e+00 4.677918e+00
<GCONST> 1.039999e+02
<STATE> 4
<MEAN> 25
 2.864289e+00 -6.699999e+00 -4.742493e+00 -2.633852e+00 2.531800e+00 1.729635e+00 -3.292654e-01 3.234880e+00 3.572184e+00 -1.338533e+00 -3.705049e+00 -3.842329e+00 -1.967082e-02 6.355193e-01 3.566520e-01 3.699180e-01 -1.004705e-01 -2.478259e-01 -5.664470e-04 -2.741202e-01 -2.603174e-01 1.664595e-01 1.021047e-01 2.579460e-01 -8.843965e-01
<VARIANCE> 25
 2.876505e+01 5.170094e+01 3.867909e+01 4.374707e+01 4.475011e+01 4.960508e+01 4.287475e+01 5.129294e+01 4.418502e+01 3.725021e+01 3.884641e+01 4.153232e+01 1.229752e+00 2.443509e+00 1.960923e+00 2.208429e+00 2.429336e+00 2.683935e+00 2.540125e+00 3.299242e+00 2.627984e+00 2.468810e+00 2.476338e+00 2.193013e+00 3.481257e+00
<GCONST> 1.022546e+02
<TRANSP> 5
 0.000000e+00 1.000000e+00 0.000000e+00 0.000000e+00 0.000000e+00
 0.000000e+00 5.918081e-01 4.081919e-01 0.000000e+00 0.000000e+00
 0.000000e+00 0.000000e+00 5.943888e-01 4.056112e-01 0.000000e+00
 0.000000e+00 0.000000e+00 0.000000e+00 7.613907e-01 2.386093e-01
 0.000000e+00 0.000000e+00 0.000000e+00 0.000000e+00 0.000000e+00
<ENDHMM>
~h "B"
<BEGINHMM>
<NUMSTATES> 5
<STATE> 2
<MEAN> 25
 7.484862e+00 4.380733e+00 2.599740e+00 7.570253e-01 -6.880739e-02 3.701992e+00 -9.756963e-01 -4.339409e+00 -3.643912e+00 2.674766e-01 6.720401e-01 -1.664075e+00 4.248574e-01 5.788368e-01 7.928634e-02 5.668984e-02 3.046583e-01 2.038258e-01 1.427281e-01 -2.103328e-01 -1.029996e-01 6.184861e-02 9.563442e-02 -3.073803e-02 -3.138669e-01
<VARIANCE> 25
 4.357167e+01 5.790070e+01 4.421270e+01 5.488910e+01 4.566410e+01 5.151694e+01 5.192194e+01 5.355736e+01 6.309827e+01 3.833393e+01 4.565431e+01 3.513618e+01 2.500530e+00 4.935946e+00 3.558793e+00 4.719662e+00 3.657769e+00 3.540068e+00 4.452497e+00 4.283609e+00 5.440518e+00 3.478913e+00 3.918817e+00 2.953654e+00 8.730303e+00
<GCONST> 1.108391e+02
<STATE> 3
<MEAN> 25
 8.151684e+00 4.948846e+00 2.453923e+00 2.286609e-01 1.927427e-01 4.074711e+00 -1.070160e+00 -4.489823e+00 -3.381473e+00 5.860822e-01 1.012353e+00 -1.862662e+00 2.014753e-02 -1.958115e-01 -2.331631e-01 -3.916733e-01 -3.712710e-02 2.796251e-03 -2.375730e-01 1.940793e-01 4.191878e-01 1.631810e-01 1.279701e-01 -1.319757e-01 7.014917e-01
<VARIANCE> 25
 3.830420e+01 6.135260e+01 4.285880e+01 5.921981e+01 4.388589e+01 5.084838e+01 4.983611e+01 4.922799e+01 6.320092e+01 3.966476e+01 4.633118e+01 3.559070e+01 2.621323e+00 6.196960e+00 3.897994e+00 5.489760e+00 4.010617e+00 3.886419e+00 4.914361e+00 4.670131e+00 6.368961e+00 3.912423e+00 4.344204e+00 3.628214e+00 1.007297e+01
<GCONST> 1.123125e+02
<STATE> 4
<MEAN> 25
 7.710680e+00 4.102621e+00 1.814855e+00 -7.958111e-01 -1.613595e-01 3.949136e+00 -1.722308e+00 -3.515542e+00 -2.152353e+00 8.680462e-01 1.068071e+00 -2.248764e+00 -3.724422e-01 -7.170374e-01 -3.104987e-01 -4.290018e-01 -2.647559e-01 -2.425476e-01 -3.864487e-01 4.441341e-01 5.752783e-01 4.305863e-02 5.497237e-02 -5.332142e-02 1.233202e+00
<VARIANCE> 25
 3.736148e+01 7.481328e+01 4.840649e+01 6.727532e+01 4.738345e+01 5.489734e+01 5.195758e+01 5.020442e+01 6.782473e+01 4.171323e+01 4.699956e+01 3.861001e+01 2.200094e+00 5.231832e+00 3.683954e+00 4.920603e+00 4.210088e+00 3.956598e+00 4.370154e+00 4.291585e+00 5.722303e+00 3.831265e+00 4.298321e+00 3.767481e+00 8.008525e+00
<GCONST> 1.121903e+02
<TRANSP> 5
 0.000000e+00 1.000000e+00 0.000000e+00 0.000000e+00 0.000000e+00
 0.000000e+00 5.756187e-01 4.243812e-01 0.000000e+00 0.000000e+00
 0.000000e+00 0.000000e+00 5.830175e-01 4.169825e-01 0.000000e+00
 0.000000e+00 0.000000e+00 0.000000e+00 6.802297e-01 3.197704e-01
 0.000000e+00 0.000000e+00 0.000000e+00 0.000000e+00 0.000000e+00
<ENDHMM>
~h "C"
<BEGINHMM>
<NUMSTATES> 5
<STATE> 2
<MEAN> 25
 -3.450168e+00 4.331141e+00 1.883457e+00 1.829045e+00 8.579444e-01 -4.573246e+00 4.607449e-01 3.618298e-02 -4.215452e-01 -5.615034e-01 -7.036530e-01 2.157335e+00 -1.756811e+00 -5.642909e-02 -4.434989e-01 -4.591799e-01 5.383623e-01 -1.179346e-01 3.153916e-01 1.043211e-01 2.119695e-01 5.300561e-02 1.583490e-01 2.877227e-01 2.179457e-01
<VARIANCE> 25
 7.791191e+01 4.551671e+01 4.236607e+01 3.684488e+01 4.650154e+01 4.262162e+01 4.762664e+01 4.952412e+01 4.126963e+01 3.015260e+01 2.998734e+01 2.533611e+01 7.698898e+00 5.225040e+00 4.026542e+00 4.049078e+00 5.070177e+00 3.915307e+00 4.168961e+00 4.250816e+00 3.656063e+00 3.020030e+00 2.951833e+00 2.740360e+00 1.577558e+01
<GCONST> 1.101904e+02
<STATE> 3
<MEAN> 25
 -8.815138e+00 3.225269e+00 4.529466e-01 -3.165310e-01 1.419379e+00 -4.544848e+00 1.018640e+00 5.641232e-01 4.427746e-01 -2.768575e-01 5.806158e-02 2.970376e+00 -6.523983e-01 -5.978999e-01 -1.803271e-01 -5.933806e-01 -2.951241e-01 -6.476688e-02 -1.536211e-01 3.586722e-01 3.401398e-01 -9.246143e-04 1.403845e-01 7.708403e-02 1.916695e+00
<VARIANCE> 25
 9.754655e+01 3.982190e+01 3.931021e+01 3.822398e+01 4.498848e+01 4.117564e+01 4.577666e+01 4.274273e+01 3.572815e+01 2.740257e+01 2.737349e+01 2.269324e+01 1.602322e+01 4.689935e+00 4.703856e+00 4.108566e+00 5.710416e+00 4.197348e+00 4.651746e+00 4.689892e+00 3.940403e+00 3.024652e+00 3.056190e+00 2.803262e+00 1.327564e+01
<GCONST> 1.107004e+02
<STATE> 4
<MEAN> 25
 -7.643537e+00 9.483793e-01 6.901554e-01 -1.514859e+00 -4.709786e-01 -4.549692e+00 -1.027517e-01 1.893144e+00 1.505413e+00 -3.959400e-01 3.180180e-01 2.524258e+00 1.688166e+00 -9.935500e-01 1.634044e-01 -3.187995e-01 -7.989116e-01 1.440272e-01 -6.981307e-01 3.357286e-01 2.910901e-01 -9.620564e-02 -3.153747e-02 -5.461758e-01 1.916272e+00
<VARIANCE> 25
 1.061864e+02 4.541875e+01 4.289740e+01 3.443279e+01 4.907880e+01 3.932074e+01 5.385430e+01 4.782695e+01 3.808968e+01 2.654809e+01 2.875612e+01 2.458235e+01 1.556540e+01 5.029822e+00 5.295924e+00 3.933629e+00 5.509684e+00 4.655850e+00 5.118925e+00 5.472459e+00 4.421659e+00 3.224696e+00 3.317501e+00 3.068369e+00 7.831511e+00
<GCONST> 1.116348e+02
<TRANSP> 5
 0.000000e+00 1.000000e+00 0.000000e+00 0.000000e+00 0.000000e+00
 0.000000e+00 7.023555e-01 2.976446e-01 0.000000e+00 0.000000e+00
 0.000000e+00 0.000000e+00 7.148004e-01 2.851996e-01 0.000000e+00
 0.000000e+00 0.000000e+00 0.000000e+00 7.923349e-01 2.076651e-01
 0.000000e+00 0.000000e+00 0.000000e+00 0.000000e+00 0.000000e+00
<ENDHMM>
~h "D"
<BEGINHMM>
<NUMSTATES> 5
<STATE> 2
<MEAN> 25
 5.366304e+00 1.671533e+00 5.682912e+00 3.998253e+00 -2.557489e+00 -2.732082e+00 -3.242451e+00 3.140491e-01 6.594753e-01 -9.317901e-01 -2.449404e+00 -7.609432e-01 1.921543e-01 1.669970e-01 5.413854e-01 2.828810e-01 5.826709e-03 -3.787932e-01 -3.077465e-01 3.406369e-01 1.086007e-01 -1.435660e-01 -3.668528e-02 1.310035e-01 4.989343e-02
<VARIANCE> 25
 4.035749e+01 6.308662e+01 5.491706e+01 5.079174e+01 6.458895e+01 4.485742e+01 6.007117e+01 8.275500e+01 5.860143e+01 3.942423e+01 4.978447e+01 3.456260e+01 3.209023e+00 5.505790e+00 3.746022e+00 4.992783e+00 5.879140e+00 3.501652e+00 4.691002e+00 6.587811e+00 4.831420e+00 3.419764e+00 4.610394e+00 3.183039e+00 1.039688e+01
<GCONST> 1.134897e+02
<STATE> 3
<MEAN> 25
 5.482075e+00 1.408745e+00 6.661760e+00 3.866055e+00 -2.982462e+00 -3.493062e+00 -4.058908e+00 1.349741e+00 9.120144e-01 -1.196176e+00 -2.114354e+00 -4.118255e-01 -1.844082e-01 -4.227502e-01 9.598405e-02 -3.938740e-01 -3.605826e-01 -1.626067e-01 -2.760331e-01 5.050125e-01 8.893760e-02 -6.296124e-02 3.134235e-01 9.120096e-02 1.017512e+00
<VARIANCE> 25
 3.677624e+01 6.082810e+01 5.165698e+01 5.199208e+01 6.586134e+01 4.322878e+01 6.031062e+01 7.892020e+01 6.088356e+01 3.789823e+01 5.068621e+01 3.449481e+01 3.315981e+00 6.036235e+00 4.377690e+00 5.406574e+00 6.909423e+00 3.771706e+00 5.291749e+00 7.459696e+00 5.656801e+00 3.631827e+00 5.239135e+00 3.509315e+00 1.140519e+01
<GCONST> 1.146529e+02
<STATE> 4
<MEAN> 25
 4.707679e+00 -4.150091e-02 6.399085e+00 2.277080e+00 -4.369092e+00 -3.490234e+00 -4.435083e+00 2.610027e+00 9.887719e-01 -1.141009e+00 -1.151158e+00 -4.266796e-01 -3.591655e-01 -5.759196e-01 -2.757831e-01 -6.360689e-01 -3.806646e-01 1.667269e-01 -3.968919e-03 2.464012e-01 -3.356496e-02 3.351485e-02 3.607830e-01 -7.994092e-02 1.179117e+00
<VARIANCE> 25
 3.246063e+01 6.378633e+01 6.309588e+01 5.590236e+01 6.846346e+01 4.370409e+01 5.970278e+01 8.284136e+01 6.970071e+01 3.654266e+01 5.425240e+01 3.377296e+01 2.657814e+00 4.506992e+00 4.118777e+00 4.296555e+00 6.604484e+00 3.659221e+00 5.098400e+00 6.591982e+00 5.436185e+00 3.398586e+00 5.012635e+00 3.354107e+00 8.455745e+00
<GCONST> 1.135465e+02
<TRANSP> 5
 0.000000e+00 1.000000e+00 0.000000e+00 0.000000e+00 0.000000e+00
 0.000000e+00 6.130886e-01 3.869114e-01 0.000000e+00 0.000000e+00
 0.000000e+00 0.000000e+00 6.219345e-01 3.780655e-01 0.000000e+00
 0.000000e+00 0.000000e+00 0.000000e+00 7.086225e-01 2.913775e-01
 0.000000e+00 0.000000e+00 0.000000e+00 0.000000e+00 0.000000e+00
<ENDHMM>
~h "E"
<BEGINHMM>
<NUMSTATES> 5
<STATE> 2
<MEAN> 25
 2.012702e+00 -6.264298e+00 5.297881e+00 -1.741540e+00 -9.945990e+00 -6.240184e+00 3.177808e-01 6.573700e+00 -8.865315e-01 7.737428e-02 3.233099e+00 -5.548626e-01 -9.133998e-03 -3.593716e-01 4.132003e-01 -3.185809e-01 -8.561307e-01 -1.608895e-01 5.081059e-01 5.599720e-01 -1.917004e-01 -1.436829e-02 3.435590e-01 -5.794476e-02 5.806310e-01
<VARIANCE> 25
 2.306781e+01 4.839082e+01 5.374245e+01 3.566795e+01 7.057718e+01 4.388715e+01 5.570370e+01 6.381909e+01 4.687621e+01 4.002429e+01 4.962393e+01 2.946346e+01 1.731571e+00 2.934419e+00 2.289653e+00 2.189959e+00 4.357017e+00 2.529296e+00 3.355717e+00 4.450462e+00 3.025130e+00 2.695757e+00 2.715888e+00 1.859092e+00 5.763080e+00
<GCONST> 1.053727e+02
<STATE> 3
<MEAN> 25
 1.870668e+00 -6.164434e+00 5.882240e+00 -2.009612e+00 -1.074372e+01 -6.319250e+00 1.458065e+00 6.784697e+00 -1.298331e+00 2.073906e-01 3.529514e+00 -7.801772e-01 -1.166389e-02 1.425267e-01 7.370570e-02 9.288904e-03 -4.536829e-02 -1.260335e-02 2.559067e-01 -4.449973e-02 -8.073479e-02 2.203475e-02 -1.420720e-02 -5.404712e-02 -1.598184e-01
<VARIANCE> 25
 2.040394e+01 4.492978e+01 5.062428e+01 3.512678e+01 6.603090e+01 4.325246e+01 5.289744e+01 6.147031e+01 4.538892e+01 4.019081e+01 4.814354e+01 2.823389e+01 1.170976e+00 2.317656e+00 1.841651e+00 1.925457e+00 3.283667e+00 2.037899e+00 2.718122e+00 3.268832e+00 2.493044e+00 2.183389e+00 2.244661e+00 1.556727e+00 5.432301e+00
<GCONST> 1.020062e+02
<STATE> 4
<MEAN> 25
 5.670034e-01 -3.526877e+00 4.775174e+00 -5.340870e-01 -7.864861e+00 -5.404880e+00 2.438710e+00 4.551121e+00 -1.197261e+00 3.831085e-01 2.695499e+00 -1.986209e-01 -1.270558e-02 3.398713e-01 -2.073964e-01 2.333248e-01 4.836335e-01 8.105169e-02 -4.004969e-02 -2.872482e-01 4.717842e-02 1.418122e-02 -2.304122e-01 2.664048e-02 -6.157786e-01
<VARIANCE> 25
 2.641039e+01 5.118200e+01 5.514217e+01 3.623451e+01 8.173761e+01 4.465565e+01 4.776551e+01 5.720400e+01 4.064402e+01 3.623799e+01 4.330453e+01 2.739762e+01 1.098146e+00 1.894771e+00 1.562241e+00 1.667181e+00 2.663841e+00 1.955865e+00 2.461449e+00 2.685959e+00 2.187565e+00 2.010198e+00 1.976868e+00 1.499350e+00 3.717940e+00
<GCONST> 1.003552e+02
<TRANSP> 5
 0.000000e+00 1.000000e+00 0.000000e+00 0.000000e+00 0.000000e+00
 0.000000e+00 6.808571e-01 3.191429e-01 0.000000e+00 0.000000e+00
 0.000000e+00 0.000000e+00 6.824828e-01 3.175172e-01 0.000000e+00
 0.000000e+00 0.000000e+00 0.000000e+00 8.756700e-01 1.243300e-01
 0.000000e+00 0.000000e+00 0.000000e+00 0.000000e+00 0.000000e+00
<ENDHMM>
~h "F"
<BEGINHMM>
<NUMSTATES> 5
<STATE> 2
<MEAN> 25
 -6.159554e+00 -7.056761e-02 -1.801404e+00 2.874296e+00 2.839296e+00 -5.372731e-01 9.149803e-01 4.317614e-02 5.175231e-01 9.728214e-01 4.388607e-01 1.788359e+00 -1.878579e+00 -1.600961e-01 -4.094300e-01 4.943090e-01 4.217184e-01 -2.501022e-01 2.000543e-01 1.594325e-01 3.431533e-01 1.631430e-02 1.601930e-02 3.319850e-01 -5.288404e-01
<VARIANCE> 25
 7.414573e+01 3.227024e+01 3.863028e+01 3.814911e+01 3.858142e+01 4.378885e+01 3.365714e+01 3.438206e+01 3.208448e+01 2.616631e+01 2.617805e+01 2.485366e+01 5.847134e+00 3.194705e+00 2.955630e+00 3.909060e+00 4.234574e+00 3.739686e+00 3.166288e+00 3.273064e+00 3.190226e+00 2.710093e+00 2.640317e+00 2.264446e+00 2.864143e+00
<GCONST> 1.041919e+02
<STATE> 3
<MEAN> 25
 -9.904968e+00 -1.265539e+00 -2.866808e+00 3.170474e+00 2.856030e+00 -1.016734e+00 9.491121e-01 2.701573e-01 1.042760e+00 1.006761e+00 6.549183e-01 2.341514e+00 -4.226179e-01 -3.357280e-01 -2.545993e-01 -1.144349e-01 -1.095756e-01 -6.069932e-02 -2.735298e-02 2.298707e-02 7.513855e-02 -1.229772e-02 8.066956e-02 2.467066e-02 -6.103881e-02
<VARIANCE> 25
 5.875620e+01 2.969443e+01 3.377661e+01 3.361375e+01 3.361433e+01 3.622431e+01 3.060635e+01 3.080501e+01 2.854581e+01 2.450488e+01 2.332379e+01 2.285817e+01 7.862268e+00 2.493222e+00 2.650638e+00 3.272990e+00 3.039696e+00 3.226289e+00 2.599481e+00 2.639476e+00 2.659657e+00 2.344670e+00 2.221897e+00 2.186138e+00 3.009843e+00
<GCONST> 1.010866e+02
<STATE> 4
<MEAN> 25
 -8.516291e+00 -1.894919e+00 -3.611935e+00 2.473074e+00 2.673244e+00 -6.943737e-01 1.193133e+00 5.703543e-01 9.944015e-01 8.911412e-01 8.445150e-01 2.166294e+00 1.102396e+00 -1.699316e-02 1.120281e-01 -4.011981e-01 -3.565708e-01 1.403950e-01 -9.694819e-02 -6.260746e-02 -1.267603e-01 -7.289873e-02 8.900050e-02 -2.572876e-01 3.224589e-01
<VARIANCE> 25
 6.818220e+01 3.370220e+01 3.584982e+01 3.662645e+01 3.577333e+01 3.749827e+01 3.009216e+01 2.982911e+01 2.824677e+01 2.448658e+01 2.305598e+01 2.313763e+01 7.257864e+00 2.523471e+00 2.838389e+00 3.337651e+00 3.103908e+00 3.204615e+00 2.584727e+00 2.652976e+00 2.792838e+00 2.392612e+00 2.245234e+00 2.267699e+00 3.291385e+00
<GCONST> 1.017836e+02
<TRANSP> 5
 0.000000e+00 1.000000e+00 0.000000e+00 0.000000e+00 0.000000e+00
 0.000000e+00 6.970543e-01 3.029458e-01 0.000000e+00 0.000000e+00
 0.000000e+00 0.000000e+00 6.943674e-01 3.056326e-01 0.000000e+00
 0.000000e+00 0.000000e+00 0.000000e+00 8.407819e-01 1.592181e-01
 0.000000e+00 0.000000e+00 0.000000e+00 0.000000e+00 0.000000e+00
<ENDHMM>
~h "G"
<BEGINHMM>
<NUMSTATES> 5
<STATE> 2
<MEAN> 25
 5.059196e+00 2.805903e+00 4.480760e+00 2.344615e+00 -2.219796e+00 -2.449342e+00 -2.224526e+00 -8.667249e-01 -2.819379e+00 2.409812e+00 -2.863818e-01 -1.963240e+00 -1.450405e-01 1.757298e-01 1.518924e-01 3.756067e-01 1.033814e-01 -5.841447e-01 -6.260830e-02 1.574158e-01 -1.563509e-01 5.530071e-02 5.386627e-02 1.957432e-01 -2.625459e-02
<VARIANCE> 25
 3.596048e+01 5.486012e+01 6.145261e+01 5.305444e+01 7.150177e+01 6.004620e+01 6.082796e+01 6.387473e+01 6.040115e+01 4.143026e+01 4.345153e+01 3.747154e+01 3.050213e+00 4.986601e+00 4.860267e+00 4.451317e+00 7.016902e+00 4.516284e+00 4.930926e+00 5.079832e+00 5.623179e+00 3.619073e+00 4.051610e+00 3.396586e+00 8.733670e+00
<GCONST> 1.137490e+02
<STATE> 3
<MEAN> 25
 4.534501e+00 2.564079e+00 4.386413e+00 2.480520e+00 -2.289386e+00 -3.507520e+00 -2.539048e+00 -1.543420e-01 -2.757768e+00 2.342640e+00 2.080624e-02 -1.575212e+00 -2.165380e-01 -2.787637e-01 -1.721065e-01 -2.832844e-01 -2.095563e-01 -2.020424e-01 -1.439713e-01 4.146049e-01 2.285757e-01 -8.265431e-02 1.763031e-01 5.542332e-02 6.892040e-01
<VARIANCE> 25
 3.581773e+01 5.468077e+01 6.217392e+01 5.029291e+01 7.688142e+01 5.924813e+01 5.977916e+01 6.350145e+01 5.887518e+01 4.045391e+01 4.460688e+01 3.684198e+01 3.170736e+00 4.894549e+00 5.198943e+00 4.725565e+00 8.324807e+00 4.725267e+00 5.037355e+00 5.485270e+00 5.924758e+00 3.593702e+00 4.497748e+00 3.688060e+00 8.541350e+00
<GCONST> 1.143671e+02
<STATE> 4
<MEAN> 25
 3.963338e+00 1.761768e+00 3.757728e+00 1.081827e+00 -3.098007e+00 -3.172946e+00 -2.640161e+00 8.915533e-01 -1.788579e+00 1.978082e+00 3.965338e-01 -1.702188e+00 -1.939328e-01 -4.934253e-01 -3.635058e-01 -6.563918e-01 -2.066432e-01 2.864857e-01 -5.138424e-02 3.903508e-01 3.863741e-01 -1.617960e-01 8.091704e-02 -8.362275e-02 8.578894e-01
<VARIANCE> 25
 3.444118e+01 6.312622e+01 6.771485e+01 5.327597e+01 7.381305e+01 5.750040e+01 5.744395e+01 6.742568e+01 6.569572e+01 3.976009e+01 4.635273e+01 3.655608e+01 2.601478e+00 3.673917e+00 4.487364e+00 3.852925e+00 7.203544e+00 4.113081e+00 4.229974e+00 4.749673e+00 5.153522e+00 3.147212e+00 4.328867e+00 3.433641e+00 5.828685e+00
<GCONST> 1.124847e+02
<TRANSP> 5
 0.000000e+00 1.000000e+00 0.000000e+00 0.000000e+00 0.000000e+00
 0.000000e+00 5.871651e-01 4.128348e-01 0.000000e+00 0.000000e+00
 0.000000e+00 0.000000e+00 5.892162e-01 4.107837e-01 0.000000e+00
 0.000000e+00 0.000000e+00 0.000000e+00 6.647890e-01 3.352110e-01
 0.000000e+00 0.000000e+00 0.000000e+00 0.000000e+00 0.000000e+00
<ENDHMM>
~h "H"
<BEGINHMM>
<NUMSTATES> 5
<STATE> 2
<MEAN> 25
 -1.020702e-01 -3.352592e+00 -2.960049e+00 -2.412563e-01 5.302647e+00 2.881020e+00 2.081656e+00 1.674883e+00 1.099821e+00 -8.679585e-01 -1.733773e+00 1.082409e-01 -3.091815e-01 2.064356e-02 -9.922878e-02 2.552639e-01 4.708357e-01 8.274450e-02 2.741209e-01 -5.966922e-03 5.306804e-02 -6.075940e-02 -5.708324e-03 1.878353e-01 -6.171303e-01
<VARIANCE> 25
 3.577947e+01 5.309038e+01 5.270226e+01 4.671729e+01 6.975853e+01 5.415875e+01 5.227655e+01 5.035024e+01 4.564005e+01 3.895907e+01 3.986280e+01 3.660750e+01 1.711743e+00 2.840064e+00 2.671123e+00 2.920002e+00 3.822533e+00 2.984737e+00 3.209265e+00 3.247229e+00 2.976173e+00 2.652200e+00 2.649170e+00 2.411387e+00 2.766556e+00
<GCONST> 1.055383e+02
<STATE> 3
<MEAN> 25
 -6.630220e-01 -3.288083e+00 -3.152037e+00 9.759888e-03 5.740771e+00 2.878583e+00 2.354381e+00 1.495533e+00 1.148867e+00 -9.055177e-01 -1.639691e+00 3.567660e-01 -1.225924e-01 9.474732e-02 -1.835371e-02 4.558234e-02 1.942873e-02 -3.912961e-02 5.443291e-02 -1.030279e-01 -3.608349e-02 -1.894883e-02 3.312916e-02 5.598627e-02 -5.218703e-01
<VARIANCE> 25
 3.749953e+01 5.400218e+01 5.126538e+01 4.474402e+01 6.710164e+01 5.186156e+01 5.084719e+01 4.804326e+01 4.393489e+01 3.781771e+01 3.816660e+01 3.487696e+01 1.683267e+00 2.579874e+00 2.450168e+00 2.665529e+00 3.434141e+00 2.773979e+00 2.997301e+00 3.000320e+00 2.790262e+00 2.519703e+00 2.462341e+00 2.295353e+00 2.864916e+00
<GCONST> 1.043936e+02
<STATE> 4
<MEAN> 25
 -1.846619e+00 -2.551767e+00 -3.633765e+00 4.278496e-01 5.255501e+00 2.100785e+00 2.579427e+00 1.018190e+00 9.959198e-01 -9.458480e-01 -1.171665e+00 7.390325e-01 7.216659e-02 1.722015e-01 8.693682e-02 -5.860584e-02 -2.723977e-01 -9.057434e-02 -7.689303e-02 -8.947574e-02 -8.088575e-02 1.385000e-02 3.896724e-02 -4.379934e-02 -2.091704e-01
<VARIANCE> 25
 3.634056e+01 5.686956e+01 4.585203e+01 3.991124e+01 5.387728e+01 4.497979e+01 4.260508e+01 4.020639e+01 3.856087e+01 3.228730e+01 3.302872e+01 3.081984e+01 1.533504e+00 2.110224e+00 2.013340e+00 2.105649e+00 2.588312e+00 2.285949e+00 2.512484e+00 2.519959e+00 2.389102e+00 2.196631e+00 2.105509e+00 1.965557e+00 2.640290e+00
<GCONST> 1.006752e+02
<TRANSP> 5
 0.000000e+00 1.000000e+00 0.000000e+00 0.000000e+00 0.000000e+00
 0.000000e+00 5.609662e-01 4.390338e-01 0.000000e+00 0.000000e+00
 0.000000e+00 0.000000e+00 5.631253e-01 4.368747e-01 0.000000e+00
 0.000000e+00 0.000000e+00 0.000000e+00 7.653402e-01 2.346598e-01
 0.000000e+00 0.000000e+00 0.000000e+00 0.000000e+00 0.000000e+00
<ENDHMM>
~h "I"
<BEGINHMM>
<NUMSTATES> 5
<STATE> 2
<MEAN> 25
 6.675349e-02 2.160444e+00 1.343096e+01 1.628825e+00 -9.312892e+00 -4.106417e+00 -3.524155e+00 -2.932826e+00 -6.919572e+00 -6.072707e-01 3.623085e+00 1.181449e-01 1.145086e-01 1.571916e-01 1.392123e+00 -1.584996e-01 -1.211312e+00 8.385056e-02 -4.793895e-01 -3.422340e-01 -8.031284e-01 -2.745106e-02 5.488120e-01 -1.179542e-01 6.201453e-01
<VARIANCE> 25
 3.334694e+01 3.705794e+01 6.780078e+01 3.995253e+01 6.498315e+01 4.759557e+01 5.346888e+01 5.381137e+01 5.265625e+01 4.113665e+01 3.934809e+01 3.076333e+01 3.435852e+00 2.628854e+00 5.734427e+00 3.086820e+00 6.104795e+00 3.696280e+00 4.896059e+00 4.465508e+00 4.917077e+00 3.309724e+00 3.389080e+00 2.550928e+00 5.156073e+00
<GCONST> 1.096140e+02
<STATE> 3
<MEAN> 25
 2.691163e-01 2.851450e+00 1.518688e+01 1.298275e+00 -1.088825e+01 -3.623826e+00 -4.020012e+00 -3.573966e+00 -7.801584e+00 -4.394267e-01 4.194242e+00 -1.940743e-01 1.053475e-01 1.770781e-01 6.389517e-02 -2.091049e-02 -1.288106e-01 4.944768e-02 2.375429e-02 -5.542108e-02 3.931312e-03 5.457246e-02 9.408423e-03 -4.127434e-02 -2.345262e-01
<VARIANCE> 25
 2.386222e+01 3.409785e+01 5.791954e+01 3.906743e+01 5.641700e+01 4.820327e+01 5.024182e+01 5.087354e+01 4.796838e+01 4.292689e+01 3.891848e+01 3.116328e+01 2.067786e+00 2.275272e+00 4.700735e+00 2.606668e+00 5.280360e+00 3.137053e+00 4.050327e+00 3.893266e+00 4.090295e+00 2.765732e+00 2.993714e+00 2.139199e+00 4.847461e+00
<GCONST> 1.063390e+02
<STATE> 4
<MEAN> 25
 3.653714e-02 3.830740e+00 1.261417e+01 1.639187e+00 -8.452262e+00 -2.947398e+00 -2.584186e+00 -3.520401e+00 -6.328247e+00 -2.958210e-01 2.831243e+00 4.498102e-03 3.830319e-02 -1.464447e-03 -8.613669e-01 1.312801e-01 6.603131e-01 -4.016398e-02 3.316270e-01 1.870925e-01 4.325224e-01 2.578598e-02 -3.240705e-01 8.120027e-02 -6.784205e-01
<VARIANCE> 25
 2.733715e+01 3.547672e+01 7.330641e+01 3.846284e+01 6.959901e+01 4.949964e+01 5.498689e+01 5.252767e+01 4.899710e+01 3.767656e+01 3.978368e+01 3.006563e+01 1.727811e+00 2.127724e+00 3.151731e+00 2.218204e+00 3.847815e+00 2.775503e+00 3.233831e+00 3.461046e+00 3.207634e+00 2.453212e+00 2.603325e+00 1.965075e+00 3.631176e+00
<GCONST> 1.045041e+02
<TRANSP> 5
 0.000000e+00 1.000000e+00 0.000000e+00 0.000000e+00 0.000000e+00
 0.000000e+00 7.026100e-01 2.973900e-01 0.000000e+00 0.000000e+00
 0.000000e+00 0.000000e+00 7.012321e-01 2.987680e-01 0.000000e+00
 0.000000e+00 0.000000e+00 0.000000e+00 8.504715e-01 1.495285e-01
 0.000000e+00 0.000000e+00 0.000000e+00 0.000000e+00 0.000000e+00
<ENDHMM>
~h "J"
<BEGINHMM>
<NUMSTATES> 5
<STATE> 2
<MEAN> 25
 1.513422e+00 6.845695e+00 8.096246e+00 3.841975e+00 -1.336574e+00 -3.884968e+00 -5.158696e-01 7.946363e-01 -1.645307e+00 -2.233433e+00 2.746914e-02 1.717983e+00 -6.138685e-01 5.849332e-01 5.380657e-01 5.193092e-02 3.141173e-01 -2.889766e-01 2.707306e-01 5.986976e-02 1.145180e-02 -1.164396e-01 1.035611e-01 3.107414e-01 6.745976e-02
<VARIANCE> 25
 6.078205e+01 5.602237e+01 4.908524e+01 3.694210e+01 5.860371e+01 4.565332e+01 5.348111e+01 4.876894e+01 4.293557e+01 3.283028e+01 3.182542e+01 2.765770e+01 7.629502e+00 5.178433e+00 4.048060e+00 3.664789e+00 6.471134e+00 3.976167e+00 5.015232e+00 4.884634e+00 4.317836e+00 3.099034e+00 3.288495e+00 2.951937e+00 9.613565e+00
<GCONST> 1.113221e+02
<STATE> 3
<MEAN> 25
 -9.103487e-01 6.915146e+00 9.008977e+00 3.114711e+00 -1.430530e+00 -4.663802e+00 -6.049434e-01 8.874362e-01 -1.484707e+00 -2.233559e+00 9.356934e-01 2.698688e+00 -4.231955e-01 -6.597400e-01 3.365766e-02 -3.757000e-01 -5.629168e-01 -2.965807e-01 -3.902817e-01 2.817154e-01 1.656373e-01 4.442285e-02 3.715557e-01 2.084897e-01 1.372833e+00
<VARIANCE> 25
 7.337383e+01 5.577597e+01 4.511234e+01 3.624988e+01 6.786198e+01 4.505313e+01 4.890417e+01 4.487315e+01 3.863542e+01 2.928195e+01 3.140086e+01 2.659206e+01 1.056021e+01 6.039517e+00 4.389402e+00 3.654936e+00 9.106761e+00 4.298835e+00 5.235745e+00 5.944349e+00 4.675050e+00 2.922031e+00 3.503572e+00 3.194185e+00 8.440622e+00
<GCONST> 1.123397e+02
<STATE> 4
<MEAN> 25
 -1.047879e+00 3.350987e+00 8.297893e+00 1.636872e+00 -4.105344e+00 -5.277708e+00 -2.520227e+00 2.279776e+00 -6.767590e-01 -1.944856e+00 2.038917e+00 2.730849e+00 4.372574e-01 -1.297711e+00 -6.584274e-01 -5.205596e-01 -6.567230e-01 8.571943e-02 -5.968644e-01 5.315582e-01 4.289242e-01 1.521287e-01 9.671181e-02 -3.750986e-01 1.359786e+00
<VARIANCE> 25
 5.861539e+01 7.078009e+01 4.930077e+01 4.085308e+01 7.143757e+01 4.165907e+01 5.231544e+01 5.951727e+01 4.595016e+01 2.890343e+01 3.420896e+01 2.826475e+01 8.589280e+00 4.701895e+00 4.781937e+00 3.235395e+00 8.618304e+00 4.483590e+00 5.007822e+00 6.334929e+00 4.840441e+00 2.881803e+00 4.081125e+00 3.631316e+00 5.111831e+00
<GCONST> 1.125047e+02
<TRANSP> 5
 0.000000e+00 1.000000e+00 0.000000e+00 0.000000e+00 0.000000e+00
 0.000000e+00 7.183791e-01 2.816209e-01 0.000000e+00 0.000000e+00
 0.000000e+00 0.000000e+00 7.213407e-01 2.786593e-01 0.000000e+00
 0.000000e+00 0.000000e+00 0.000000e+00 7.769579e-01 2.230421e-01
 0.000000e+00 0.000000e+00 0.000000e+00 0.000000e+00 0.000000e+00
<ENDHMM>
~h "K"
<BEGINHMM>
<NUMSTATES> 5
<STATE> 2
<MEAN> 25
 -6.027381e-01 7.752544e-01 -2.303248e+00 3.959917e-01 1.678185e+00 -2.223430e+00 2.889858e-01 -1.553276e-02 -4.192724e-01 1.514178e+00 -1.224040e+00 -5.439226e-02 -5.594409e-01 -4.314373e-01 -6.709587e-01 5.985144e-02 6.041359e-01 -3.915710e-01 -8.378243e-02 2.958660e-01 1.295089e-01 2.164693e-01 -2.091796e-01 2.545775e-01 5.410603e-02
<VARIANCE> 25
 4.285135e+01 5.597102e+01 5.658709e+01 4.538433e+01 5.744628e+01 5.413475e+01 4.932614e+01 5.272509e+01 4.781202e+01 3.936572e+01 3.661359e+01 3.912648e+01 3.039477e+00 5.462390e+00 4.945235e+00 3.770653e+00 5.286597e+00 4.467584e+00 4.422206e+00 4.337482e+00 3.981307e+00 3.822077e+00 3.308495e+00 3.182610e+00 1.544663e+01
<GCONST> 1.119589e+02
<STATE> 3
<MEAN> 25
 -1.629143e+00 -8.409237e-01 -3.992629e+00 -6.530809e-02 2.695172e+00 -2.905297e+00 -1.071671e-01 8.678560e-01 -5.569965e-03 1.985196e+00 -1.658205e+00 1.962037e-01 -1.579507e-01 -6.315461e-01 -5.335413e-01 -3.569511e-01 1.771322e-01 -1.234105e-01 -1.646454e-01 3.774400e-01 1.500126e-01 9.946200e-02 -1.349702e-01 -9.168085e-02 1.361956e+00
<VARIANCE> 25
 4.147625e+01 5.814268e+01 5.986170e+01 4.492223e+01 5.787885e+01 5.506469e+01 5.020945e+01 5.129649e+01 4.579791e+01 3.964427e+01 3.537675e+01 3.933463e+01 4.080677e+00 5.381251e+00 6.022803e+00 4.200497e+00 6.153759e+00 4.976508e+00 4.783120e+00 4.664711e+00 4.333297e+00 4.108829e+00 3.574289e+00 3.940803e+00 1.639302e+01
<GCONST> 1.134633e+02
<STATE> 4
<MEAN> 25
 -1.671369e+00 -1.835170e+00 -4.492253e+00 -8.962630e-01 2.568631e+00 -2.563565e+00 -9.110823e-03 1.596819e+00 3.999678e-01 1.738829e+00 -1.718725e+00 -2.405912e-01 3.183082e-01 -3.798948e-01 -3.045414e-02 -4.503542e-01 -2.391633e-01 2.266069e-01 -9.112398e-02 2.198249e-01 6.838984e-02 -1.313863e-01 4.782689e-02 -3.274128e-01 1.567776e+00
<VARIANCE> 25
 4.143035e+01 5.844790e+01 5.797427e+01 4.521846e+01 5.375802e+01 5.331846e+01 4.869769e+01 4.912565e+01 4.442786e+01 3.802535e+01 3.469343e+01 4.077034e+01 3.934134e+00 4.431756e+00 5.574637e+00 3.893534e+00 5.415016e+00 4.589761e+00 4.346691e+00 4.239935e+00 4.058128e+00 3.726370e+00 3.385155e+00 3.784171e+00 1.146675e+01
<GCONST> 1.118068e+02
<TRANSP> 5
 0.000000e+00 1.000000e+00 0.000000e+00 0.000000e+00 0.000000e+00
 0.000000e+00 5.851871e-01 4.148129e-01 0.000000e+00 0.000000e+00
 0.000000e+00 0.000000e+00 5.917770e-01 4.082231e-01 0.000000e+00
 0.000000e+00 0.000000e+00 0.000000e+00 6.835408e-01 3.164592e-01
 0.000000e+00 0.000000e+00 0.000000e+00 0.000000e+00 0.000000e+00
<ENDHMM>
~h "L"
<BEGINHMM>
<NUMSTATES> 5
<STATE> 2
<MEAN> 25
 5.924055e+00 -4.460363e+00 -1.205389e+00 -5.972682e+00 -1.985551e+00 3.082018e+00 -6.435440e+00 -4.082025e+00 4.075444e+00 3.355749e+00 1.132616e+00 -2.753586e+00 2.200709e-01 -6.196473e-02 1.297076e-01 -3.314351e-01 1.720269e-01 1.114423e-01 -5.299274e-01 -3.555882e-01 2.876283e-01 4.261169e-01 1.789934e-02 -1.231654e-01 -3.565647e-02
<VARIANCE> 25
 2.447890e+01 3.888774e+01 5.627982e+01 6.516146e+01 5.601543e+01 7.137636e+01 7.881882e+01 8.871201e+01 6.409725e+01 5.403133e+01 5.207428e+01 4.405556e+01 1.389075e+00 2.168286e+00 2.915290e+00 4.028284e+00 4.013520e+00 4.515285e+00 4.777619e+00 5.762454e+00 4.223644e+00 4.097766e+00 3.845699e+00 2.800909e+00 2.093000e+00
<GCONST> 1.097918e+02
<STATE> 3
<MEAN> 25
 6.083112e+00 -4.457095e+00 -1.017745e+00 -6.517620e+00 -1.563916e+00 3.289284e+00 -7.072258e+00 -4.327230e+00 4.363742e+00 3.842763e+00 9.893819e-01 -2.920238e+00 -5.871035e-02 -2.608635e-02 2.220956e-02 -5.811913e-02 1.158695e-01 -7.770953e-04 1.458193e-03 1.862623e-01 6.113031e-03 -6.859223e-02 -1.544998e-01 -4.946528e-02 -6.281313e-02
<VARIANCE> 25
 2.289749e+01 3.819579e+01 5.686818e+01 6.668370e+01 5.450344e+01 6.832250e+01 8.298592e+01 8.803201e+01 6.379984e+01 5.518019e+01 5.249577e+01 4.341116e+01 1.180526e+00 2.176985e+00 2.923211e+00 3.742443e+00 3.685034e+00 4.290719e+00 5.007770e+00 5.990530e+00 4.120215e+00 4.241070e+00 3.942390e+00 2.763549e+00 2.049454e+00
<GCONST> 1.094429e+02
<STATE> 4
<MEAN> 25
 5.366820e+00 -4.287513e+00 -1.527318e+00 -6.450208e+00 -7.035766e-01 3.544770e+00 -5.896291e+00 -3.055831e+00 4.015162e+00 2.907800e+00 2.081778e-01 -2.871960e+00 -2.707157e-01 2.774645e-02 -5.512529e-02 3.037909e-01 2.753628e-02 -1.394793e-01 5.067821e-01 4.804435e-01 -2.422170e-01 -4.455461e-01 -2.315831e-01 5.353404e-02 -1.564974e-01
<VARIANCE> 25
 2.555176e+01 4.404433e+01 6.083938e+01 6.834984e+01 5.698020e+01 6.844823e+01 8.235303e+01 8.033261e+01 6.205437e+01 5.397404e+01 5.257146e+01 4.315716e+01 1.030753e+00 2.120027e+00 2.567987e+00 3.166507e+00 3.423037e+00 3.676440e+00 4.318567e+00 4.799168e+00 3.693495e+00 3.639329e+00 3.636321e+00 2.506728e+00 2.094112e+00
<GCONST> 1.082040e+02
<TRANSP> 5
 0.000000e+00 1.000000e+00 0.000000e+00 0.000000e+00 0.000000e+00
 0.000000e+00 5.878270e-01 4.121731e-01 0.000000e+00 0.000000e+00
 0.000000e+00 0.000000e+00 5.907176e-01 4.092824e-01 0.000000e+00
 0.000000e+00 0.000000e+00 0.000000e+00 7.194114e-01 2.805885e-01
 0.000000e+00 0.000000e+00 0.000000e+00 0.000000e+00 0.000000e+00
<ENDHMM>
~h "M"
<BEGINHMM>
<NUMSTATES> 5
<STATE> 2
<MEAN> 25
 6.765290e+00 -1.119101e+00 1.184700e+00 -7.175727e-02 -8.373957e-01 5.013943e+00 -8.874902e-01 -6.151811e+00 -5.714141e+00 -8.824182e-01 3.606993e-01 -2.253643e+00 2.520052e-01 4.268383e-01 5.559516e-01 6.589505e-01 9.601285e-02 3.364579e-01 2.070843e-01 -1.006039e+00 -1.134202e+00 -1.002720e-01 -5.531072e-02 1.334287e-01 -4.049955e-01
<VARIANCE> 25
 2.902193e+01 3.996604e+01 4.809314e+01 5.910385e+01 4.712039e+01 5.888809e+01 5.489130e+01 7.714298e+01 7.954187e+01 4.572144e+01 5.292022e+01 4.127758e+01 1.332710e+00 2.310791e+00 3.470618e+00 4.387860e+00 2.789583e+00 3.011881e+00 3.341200e+00 5.948251e+00 6.315188e+00 3.140931e+00 4.256836e+00 2.860796e+00 2.999338e+00
<GCONST> 1.086741e+02
<STATE> 3
<MEAN> 25
 7.096203e+00 -4.245875e-01 2.220402e+00 8.667489e-01 -7.181048e-01 5.667810e+00 -5.829101e-01 -7.736784e+00 -7.658310e+00 -1.185219e+00 1.485302e-01 -1.981326e+00 2.531701e-02 1.260804e-01 1.573986e-01 1.172245e-01 4.479214e-02 1.140730e-01 4.744697e-02 -1.540654e-01 -2.427278e-01 -8.771609e-02 -7.860816e-02 2.658016e-02 -3.129869e-02
<VARIANCE> 25
 2.536406e+01 3.481097e+01 4.342351e+01 5.541984e+01 4.543425e+01 5.813377e+01 5.549564e+01 7.537631e+01 7.717157e+01 4.800270e+01 5.576270e+01 4.063298e+01 1.100710e+00 2.222572e+00 3.493031e+00 4.519575e+00 2.501897e+00 2.832896e+00 3.037191e+00 5.893277e+00 6.825223e+00 2.891858e+00 3.893414e+00 2.743390e+00 2.988751e+00
<GCONST> 1.076197e+02
<STATE> 4
<MEAN> 25
 6.078757e+00 -3.429290e-01 1.642984e+00 5.576009e-01 -1.383469e-01 5.350503e+00 -4.886258e-01 -6.112829e+00 -6.294363e+00 -1.555998e+00 -4.129114e-01 -1.826215e+00 -1.572571e-01 -7.711274e-02 -2.533995e-01 -2.883910e-01 2.166499e-02 -1.567214e-01 -4.497752e-02 5.414852e-01 5.879831e-01 1.300327e-02 -2.365479e-02 -6.733154e-02 9.768199e-02
<VARIANCE> 25
 3.051343e+01 4.069887e+01 4.826382e+01 5.711343e+01 5.034573e+01 5.887399e+01 5.271167e+01 7.070729e+01 7.839735e+01 4.420372e+01 5.339837e+01 3.956045e+01 9.508079e-01 1.968757e+00 2.942205e+00 3.609629e+00 2.462425e+00 2.573708e+00 2.716499e+00 4.397455e+00 5.183729e+00 2.596739e+00 3.396024e+00 2.407322e+00 2.594860e+00
<GCONST> 1.059879e+02
<TRANSP> 5
 0.000000e+00 1.000000e+00 0.000000e+00 0.000000e+00 0.000000e+00
 0.000000e+00 6.183679e-01 3.816321e-01 0.000000e+00 0.000000e+00
 0.000000e+00 0.000000e+00 6.310538e-01 3.689462e-01 0.000000e+00
 0.000000e+00 0.000000e+00 0.000000e+00 7.712703e-01 2.287297e-01
 0.000000e+00 0.000000e+00 0.000000e+00 0.000000e+00 0.000000e+00
<ENDHMM>
~h "N"
<BEGINHMM>
<NUMSTATES> 5
<STATE> 2
<MEAN> 25
 6.552221e+00 -1.782280e+00 3.346020e+00 2.375241e+00 -3.386417e+00 -1.512430e+00 -3.074089e+00 -2.794646e+00 -1.233793e-01 1.099032e+00 -4.364270e+00 -2.288953e+00 2.587613e-01 9.506984e-01 7.683961e-01 8.682474e-01 -1.507929e-01 -2.824106e-01 7.160868e-02 -1.300456e+00 -4.295975e-01 4.295079e-01 -3.833116e-01 2.838255e-01 -9.971849e-01
<VARIANCE> 25
 1.989364e+01 4.804181e+01 4.920242e+01 4.684310e+01 4.643498e+01 4.818182e+01 5.255399e+01 1.046930e+02 5.788534e+01 4.762129e+01 5.031946e+01 4.064101e+01 1.202133e+00 3.145608e+00 3.501441e+00 3.605629e+00 3.281170e+00 3.722585e+00 3.898420e+00 8.995584e+00 4.180647e+00 4.005009e+00 3.679937e+00 2.742612e+00 3.061828e+00
<GCONST> 1.085975e+02
<STATE> 3
<MEAN> 25
 6.684998e+00 2.719386e-01 4.682907e+00 3.783427e+00 -3.434897e+00 -1.705684e+00 -2.619133e+00 -5.228978e+00 -1.096768e+00 1.723584e+00 -4.896684e+00 -1.524914e+00 -7.647093e-02 5.799097e-01 2.661322e-01 2.847943e-01 1.107912e-01 3.231595e-02 1.690353e-01 -4.446309e-01 -2.987369e-01 3.779295e-02 -5.629340e-02 2.296582e-01 -7.177045e-01
<VARIANCE> 25
 2.073988e+01 4.136560e+01 4.132890e+01 4.354857e+01 4.617356e+01 4.719916e+01 5.393638e+01 9.319512e+01 5.530355e+01 4.870732e+01 5.097376e+01 4.116800e+01 1.263776e+00 3.195310e+00 3.261040e+00 3.467751e+00 3.209701e+00 3.353242e+00 3.612746e+00 8.941904e+00 4.007719e+00 3.831436e+00 3.369805e+00 2.596079e+00 3.216125e+00
<GCONST> 1.076950e+02
<STATE> 4
<MEAN> 25
 5.422641e+00 1.488804e+00 4.478460e+00 4.133646e+00 -2.083196e+00 -1.241325e+00 -1.806850e+00 -4.611257e+00 -1.536694e+00 9.442080e-01 -4.808999e+00 -7.777351e-01 -4.254735e-01 1.793014e-01 -2.351869e-01 -1.774011e-01 3.726263e-01 1.656450e-01 1.866233e-01 4.076474e-01 -9.910598e-02 -2.868090e-01 2.776907e-01 1.215922e-01 -5.577983e-01
<VARIANCE> 25
 2.897745e+01 4.553891e+01 4.316944e+01 4.513499e+01 5.250808e+01 4.554430e+01 5.291956e+01 8.020800e+01 5.190089e+01 4.779788e+01 5.076730e+01 3.981429e+01 1.418279e+00 2.816648e+00 2.668592e+00 2.885877e+00 3.049613e+00 2.967732e+00 3.214951e+00 5.950530e+00 3.444860e+00 3.255394e+00 3.025861e+00 2.336135e+00 3.177609e+00
<GCONST> 1.063771e+02
<TRANSP> 5
 0.000000e+00 1.000000e+00 0.000000e+00 0.000000e+00 0.000000e+00
 0.000000e+00 6.221054e-01 3.778946e-01 0.000000e+00 0.000000e+00
 0.000000e+00 0.000000e+00 6.211838e-01 3.788162e-01 0.000000e+00
 0.000000e+00 0.000000e+00 0.000000e+00 7.444533e-01 2.555467e-01
 0.000000e+00 0.000000e+00 0.000000e+00 0.000000e+00 0.000000e+00
<ENDHMM>
~h "O"
<BEGINHMM>
<NUMSTATES> 5
<STATE> 2
<MEAN> 25
 5.841892e+00 -4.861609e-01 -5.725450e+00 -9.909535e+00 -2.640453e+00 7.224683e+00 -3.416258e+00 -1.994906e+00 4.674603e-01 1.463032e+00 4.208925e+00 -4.874119e-01 7.606652e-01 -1.539743e-01 -6.048918e-01 -1.695307e+00 -4.646412e-01 1.346299e+00 -8.098755e-02 2.314326e-02 1.149940e-01 -5.336608e-02 6.955253e-01 -1.198357e-01 1.055342e+00
<VARIANCE> 25
 3.606999e+01 3.692525e+01 5.162072e+01 8.902608e+01 6.283201e+01 6.828951e+01 6.645995e+01 5.158071e+01 5.637793e+01 5.521088e+01 5.009680e+01 3.874689e+01 3.263921e+00 2.493309e+00 4.353525e+00 6.973956e+00 5.542531e+00 5.605722e+00 4.322847e+00 4.295114e+00 4.572514e+00 4.339725e+00 4.092242e+00 3.151559e+00 6.066142e+00
<GCONST> 1.129073e+02
<STATE> 3
<MEAN> 25
 7.241116e+00 -6.439192e-01 -6.357332e+00 -1.282987e+01 -3.416605e+00 9.688119e+00 -3.050057e+00 -2.053699e+00 6.232069e-01 1.013147e+00 5.348188e+00 -6.646605e-01 2.917096e-01 -5.050723e-02 -3.213102e-03 -3.226141e-01 -1.004605e-01 3.215994e-01 7.599471e-02 -5.366098e-02 5.962167e-02 -3.767157e-02 9.919503e-02 -8.801012e-02 1.326627e-01
<VARIANCE> 25
 2.497342e+01 3.583691e+01 4.004169e+01 7.731737e+01 5.461684e+01 5.743102e+01 6.366873e+01 4.929385e+01 5.215374e+01 5.798618e+01 4.949139e+01 3.947834e+01 1.959521e+00 2.195543e+00 2.976715e+00 6.485295e+00 4.210400e+00 5.063552e+00 3.640821e+00 3.532641e+00 3.888447e+00 3.826799e+00 3.674291e+00 2.721448e+00 4.920264e+00
<GCONST> 1.091052e+02
<STATE> 4
<MEAN> 25
 7.315779e+00 -1.549812e-01 -5.572000e+00 -1.200755e+01 -2.856678e+00 9.116398e+00 -2.280284e+00 -2.155603e+00 6.925108e-01 7.055514e-01 4.150533e+00 -5.730051e-01 -1.621912e-01 6.894303e-02 3.541038e-01 9.643273e-01 2.464240e-01 -6.475817e-01 4.977219e-02 -9.616672e-02 9.784601e-03 8.935022e-02 -4.305731e-01 -5.069740e-02 -6.651567e-01
<VARIANCE> 25
 2.393497e+01 4.035939e+01 4.076387e+01 8.500033e+01 5.327302e+01 5.908778e+01 6.434575e+01 4.859816e+01 5.025601e+01 5.465937e+01 4.750270e+01 3.947289e+01 1.363317e+00 1.959212e+00 2.308271e+00 4.764137e+00 3.153586e+00 3.859859e+00 3.232280e+00 3.204128e+00 3.314044e+00 3.272569e+00 3.035719e+00 2.398669e+00 3.396068e+00
<GCONST> 1.063361e+02
<TRANSP> 5
 0.000000e+00 1.000000e+00 0.000000e+00 0.000000e+00 0.000000e+00
 0.000000e+00 6.983193e-01 3.016807e-01 0.000000e+00 0.000000e+00
 0.000000e+00 0.000000e+00 7.012690e-01 2.987309e-01 0.000000e+00
 0.000000e+00 0.000000e+00 0.000000e+00 8.468941e-01 1.531060e-01
 0.000000e+00 0.000000e+00 0.000000e+00 0.000000e+00 0.000000e+00
<ENDHMM>
~h "P"
<BEGINHMM>
<NUMSTATES> 5
<STATE> 2
<MEAN> 25
 1.530198e+00 2.492290e+00 -1.613136e+00 -1.960993e-01 1.635073e+00 7.638750e-01 1.072136e+00 -1.954417e+00 -3.942427e-01 4.011825e-01 -3.330597e-01 -5.217999e-01 -3.728301e-01 -4.521188e-02 -2.734641e-01 -3.411271e-02 2.051914e-01 -1.364467e-01 1.468398e-01 1.142341e-01 1.902623e-01 2.594447e-02 6.850319e-02 1.441892e-01 -2.877414e-01
<VARIANCE> 25
 4.854075e+01 4.780223e+01 4.067030e+01 4.828880e+01 3.605854e+01 4.897191e+01 3.853087e+01 3.922145e+01 4.353840e+01 2.987260e+01 3.377640e+01 3.584322e+01 3.170352e+00 4.302974e+00 2.753995e+00 4.013916e+00 3.162611e+00 3.946959e+00 3.168678e+00 3.303913e+00 3.476821e+00 2.778172e+00 3.116139e+00 2.680621e+00 1.675457e+01
<GCONST> 1.074436e+02
<STATE> 3
<MEAN> 25
 8.179129e-01 1.399233e+00 -2.602563e+00 -9.355650e-01 1.683219e+00 7.695883e-01 1.117393e+00 -1.562204e+00 2.314959e-01 4.827772e-01 -2.733929e-02 -4.935542e-01 1.691669e-02 -7.890654e-01 -4.279996e-01 -5.281487e-01 -1.325371e-01 1.711226e-01 -1.582424e-01 2.039017e-01 2.594162e-01 5.018238e-02 2.080877e-01 -1.538937e-01 1.555297e+00
<VARIANCE> 25
 4.493014e+01 4.996538e+01 3.849596e+01 5.162175e+01 3.388990e+01 5.194659e+01 3.700163e+01 3.580085e+01 3.766216e+01 2.828046e+01 3.157370e+01 3.562779e+01 4.503230e+00 5.062518e+00 3.307842e+00 5.428647e+00 3.594286e+00 5.463208e+00 3.623599e+00 3.646393e+00 3.706614e+00 3.007800e+00 3.398869e+00 3.549916e+00 2.091626e+01
<GCONST> 1.094319e+02
<STATE> 4
<MEAN> 25
 -5.433309e-02 -2.962317e-01 -3.484156e+00 -1.410066e+00 1.792565e+00 9.413708e-01 1.225215e+00 -7.602029e-01 7.661927e-01 5.257907e-01 3.312257e-01 -4.474778e-01 3.466609e-01 -7.930769e-01 -1.649340e-01 -4.954731e-01 -3.376832e-01 1.983146e-01 -3.100735e-01 1.774368e-01 1.325937e-01 -1.900121e-02 1.815469e-01 -2.376755e-01 2.077351e+00
<VARIANCE> 25
 4.562554e+01 5.427972e+01 3.636963e+01 5.627240e+01 3.562098e+01 5.587738e+01 3.790750e+01 3.504987e+01 3.420325e+01 2.712620e+01 3.011630e+01 3.741231e+01 4.113599e+00 4.232674e+00 3.226107e+00 5.204126e+00 3.792529e+00 5.126813e+00 3.433054e+00 3.531681e+00 3.492096e+00 2.878789e+00 3.227365e+00 3.371654e+00 1.583669e+01
<GCONST> 1.086313e+02
<TRANSP> 5
 0.000000e+00 1.000000e+00 0.000000e+00 0.000000e+00 0.000000e+00
 0.000000e+00 6.054464e-01 3.945536e-01 0.000000e+00 0.000000e+00
 0.000000e+00 0.000000e+00 6.107261e-01 3.892739e-01 0.000000e+00
 0.000000e+00 0.000000e+00 0.000000e+00 7.342430e-01 2.657570e-01
 0.000000e+00 0.000000e+00 0.000000e+00 0.000000e+00 0.000000e+00
<ENDHMM>
~h "Q"
<BEGINHMM>
<NUMSTATES> 5
<STATE> 2
<MEAN> 25
 -2.507340e+00 7.629773e-01 -2.245505e+00 2.740000e-01 2.182535e+00 -1.969281e+00 1.409480e+00 -1.970976e+00 -2.843052e-01 1.874575e+00 1.836765e-01 6.510450e-01 -2.375151e-01 1.187453e-01 -4.249531e-01 1.933737e-03 2.821797e-01 1.966761e-01 3.890070e-01 2.160936e-01 7.024412e-02 -4.936328e-02 -1.102600e-01 1.618952e-01 -1.134545e+00
<VARIANCE> 25
 5.356556e+01 4.788171e+01 7.153400e+01 5.105154e+01 6.559114e+01 4.515858e+01 4.713040e+01 4.104573e+01 4.637663e+01 3.786918e+01 3.494258e+01 3.337955e+01 2.379379e+00 3.279988e+00 3.249201e+00 2.856564e+00 3.743123e+00 3.256399e+00 2.862524e+00 3.115246e+00 3.041151e+00 3.143875e+00 2.444244e+00 2.064038e+00 6.379135e+00
<GCONST> 1.067938e+02
<STATE> 3
<MEAN> 25
 -2.935174e+00 1.108488e+00 -2.602123e+00 4.171396e-01 2.413349e+00 -1.587570e+00 1.890332e+00 -1.329534e+00 -4.789055e-01 1.380922e+00 -2.278953e-01 9.592013e-01 -1.706843e-01 2.089021e-01 -1.817062e-01 6.652420e-03 1.382834e-01 1.696354e-01 2.123893e-01 1.999411e-01 -3.482245e-02 -1.415001e-01 -8.496609e-02 1.212444e-01 -8.815113e-01
<VARIANCE> 25
 4.846721e+01 4.312421e+01 5.955750e+01 5.013042e+01 5.026970e+01 3.600517e+01 4.045103e+01 4.017450e+01 4.539293e+01 3.699693e+01 3.161075e+01 2.863199e+01 1.857995e+00 2.636331e+00 2.743335e+00 2.464813e+00 2.938201e+00 2.532217e+00 2.496182e+00 2.864866e+00 2.689551e+00 2.757871e+00 2.338715e+00 1.841614e+00 4.587045e+00
<GCONST> 1.031837e+02
<STATE> 4
<MEAN> 25
 -4.436592e+00 1.915350e+00 -2.497799e+00 1.959249e+00 2.512108e+00 -1.420099e+00 3.604296e+00 4.652726e-01 2.674592e-01 2.429475e-01 6.128563e-01 1.966333e+00 -6.181288e-02 3.773088e-02 -8.378810e-03 2.732077e-02 5.173093e-02 2.729418e-02 4.124663e-02 8.811426e-02 1.017792e-02 -4.811777e-03 -5.326655e-03 1.896434e-03 -1.250457e-01
<VARIANCE> 25
 2.741687e+01 3.100375e+01 2.985870e+01 4.731251e+01 2.925398e+01 2.621910e+01 2.778928e+01 2.565267e+01 2.910802e+01 2.636856e+01 2.359425e+01 1.812749e+01 9.065573e-01 1.311257e+00 1.523218e+00 1.803208e+00 1.510938e+00 1.676197e+00 1.797113e+00 1.941803e+00 1.982779e+00 1.996011e+00 1.730779e+00 1.514685e+00 1.789594e+00
<GCONST> 9.214261e+01
<TRANSP> 5
 0.000000e+00 1.000000e+00 0.000000e+00 0.000000e+00 0.000000e+00
 0.000000e+00 5.876660e-01 4.123340e-01 0.000000e+00 0.000000e+00
 0.000000e+00 0.000000e+00 5.900288e-01 4.099712e-01 0.000000e+00
 0.000000e+00 0.000000e+00 0.000000e+00 9.351020e-01 6.489805e-02
 0.000000e+00 0.000000e+00 0.000000e+00 0.000000e+00 0.000000e+00
<ENDHMM>
~h "R"
<BEGINHMM>
<NUMSTATES> 5
<STATE> 2
<MEAN> 25
 4.692494e+00 -5.108417e+00 -3.462821e+00 1.917806e-01 -1.842670e+00 -8.531402e-01 -3.794900e+00 1.281046e+00 4.507606e+00 1.601643e+00 -1.275891e-01 -2.658109e+00 2.122188e-01 -8.941586e-02 1.034363e-01 4.638182e-01 -1.121300e-01 -1.632248e-01 -2.651224e-01 5.630786e-02 7.489713e-02 -1.768089e-02 6.730684e-03 4.533692e-02 -2.870196e-01
<VARIANCE> 25
 3.184193e+01 4.284123e+01 5.049697e+01 4.671444e+01 5.768769e+01 5.531618e+01 5.811567e+01 6.649442e+01 5.823754e+01 4.267190e+01 4.483958e+01 3.949139e+01 2.389822e+00 2.836696e+00 3.100276e+00 3.890409e+00 4.517733e+00 4.206247e+00 4.196750e+00 4.697701e+00 4.802487e+00 3.716327e+00 3.699725e+00 3.164706e+00 4.866320e+00
<GCONST> 1.098104e+02
<STATE> 3
<MEAN> 25
 4.984696e+00 -5.133162e+00 -3.082372e+00 8.890803e-01 -2.010327e+00 -9.819189e-01 -4.116311e+00 1.357701e+00 4.234742e+00 1.484683e+00 -6.103049e-02 -2.492957e+00 7.204849e-02 4.242802e-02 2.685296e-01 2.070364e-01 -1.026625e-01 -4.874753e-02 -4.501804e-02 3.642642e-02 -2.980119e-01 -1.198599e-01 5.775402e-02 1.134710e-01 -3.406150e-01
<VARIANCE> 25
 3.244039e+01 4.519735e+01 5.414442e+01 4.520186e+01 5.955046e+01 5.743947e+01 5.871831e+01 6.729763e+01 5.989883e+01 4.311478e+01 4.475217e+01 3.979896e+01 2.309259e+00 2.893394e+00 3.147399e+00 3.576431e+00 4.630781e+00 4.161302e+00 4.199784e+00 4.686636e+00 4.772634e+00 3.648809e+00 3.673436e+00 3.138433e+00 4.617762e+00
<GCONST> 1.098918e+02
<STATE> 4
<MEAN> 25
 4.550931e+00 -4.842608e+00 -2.685633e+00 1.029664e+00 -1.650823e+00 -7.889886e-01 -3.499744e+00 1.450125e+00 3.305747e+00 9.769441e-01 -1.788646e-01 -2.123038e+00 -1.179990e-01 2.006470e-01 3.538778e-01 -4.262477e-02 -4.455695e-02 1.933965e-02 1.982619e-01 -2.367265e-02 -5.292420e-01 -1.713584e-01 7.296939e-02 1.604695e-01 -3.341035e-01
<VARIANCE> 25
 3.601784e+01 5.210126e+01 6.006205e+01 4.478356e+01 6.358327e+01 6.034898e+01 6.035056e+01 6.625153e+01 5.949390e+01 4.206069e+01 4.576962e+01 3.996574e+01 2.024513e+00 2.631765e+00 2.873387e+00 2.939815e+00 4.145074e+00 3.621768e+00 3.723114e+00 4.086100e+00 4.214388e+00 3.213141e+00 3.303496e+00 2.711568e+00 3.910601e+00
<GCONST> 1.086639e+02
<TRANSP> 5
 0.000000e+00 1.000000e+00 0.000000e+00 0.000000e+00 0.000000e+00
 0.000000e+00 5.434704e-01 4.565296e-01 0.000000e+00 0.000000e+00
 0.000000e+00 0.000000e+00 5.417967e-01 4.582033e-01 0.000000e+00
 0.000000e+00 0.000000e+00 0.000000e+00 6.523008e-01 3.476992e-01
 0.000000e+00 0.000000e+00 0.000000e+00 0.000000e+00 0.000000e+00
<ENDHMM>
~h "S"
<BEGINHMM>
<NUMSTATES> 5
<STATE> 2
<MEAN> 25
 -1.063951e+01 5.723334e+00 -1.253636e+00 1.762626e+00 5.143919e+00 -4.170446e+00 2.302270e+00 2.225380e+00 8.881829e-01 2.437429e-01 -6.194162e-01 2.755229e+00 -3.055096e+00 1.034586e+00 -5.805467e-01 2.570268e-01 1.003695e+00 -1.972788e-01 8.064137e-01 4.164515e-01 2.025304e-01 -1.292767e-01 3.282639e-01 6.012442e-01 -3.789025e-01
<VARIANCE> 25
 1.114653e+02 4.557678e+01 4.861277e+01 3.569282e+01 4.778372e+01 4.272389e+01 6.186029e+01 4.762613e+01 4.222655e+01 3.049946e+01 3.561922e+01 2.968081e+01 7.015653e+00 5.512857e+00 3.537215e+00 3.376913e+00 4.848568e+00 3.689319e+00 4.659688e+00 4.336393e+00 3.406745e+00 3.014789e+00 3.052853e+00 2.626295e+00 2.546730e+00
<GCONST> 1.090441e+02
<STATE> 3
<MEAN> 25
 -1.755470e+01 6.348598e+00 -3.169898e+00 1.481321e+00 6.166946e+00 -4.025226e+00 3.409247e+00 2.958425e+00 1.406518e+00 2.647085e-01 4.952379e-01 3.802295e+00 -7.266426e-01 -1.495489e-01 -3.065844e-01 -1.445811e-01 -7.013975e-02 3.183835e-02 -5.158880e-03 8.074308e-03 1.140957e-01 2.590646e-02 1.493299e-01 6.799415e-02 -1.764891e-01
<VARIANCE> 25
 7.388120e+01 3.520919e+01 4.201966e+01 3.508412e+01 4.100855e+01 3.995437e+01 5.573407e+01 4.175386e+01 3.740815e+01 2.727158e+01 2.942398e+01 2.603128e+01 1.183486e+01 3.480229e+00 3.106869e+00 2.496864e+00 3.360433e+00 2.903705e+00 3.990259e+00 3.424701e+00 2.848654e+00 2.426832e+00 2.601822e+00 2.449126e+00 2.538872e+00
<GCONST> 1.052061e+02
<STATE> 4
<MEAN> 25
 -1.471706e+01 4.366177e+00 -3.325877e+00 1.096092e+00 4.860144e+00 -3.432668e+00 2.638182e+00 2.218351e+00 1.812129e+00 4.470855e-01 5.084671e-01 3.180491e+00 1.742338e+00 -4.972107e-01 3.732033e-01 -2.346657e-01 -6.318655e-01 1.307673e-01 -6.351179e-01 -3.716426e-01 -2.401003e-02 2.262295e-02 -1.166100e-01 -4.290863e-01 2.301062e-01
<VARIANCE> 25
 1.044742e+02 3.826351e+01 4.421415e+01 3.441804e+01 4.214615e+01 3.959727e+01 5.539080e+01 4.037379e+01 3.692820e+01 2.569166e+01 2.841661e+01 2.657690e+01 9.739397e+00 2.883553e+00 3.337763e+00 2.612002e+00 3.151918e+00 3.166847e+00 4.235209e+00 3.682806e+00 3.132359e+00 2.382000e+00 2.528924e+00 2.565260e+00 3.364703e+00
<GCONST> 1.058240e+02
<TRANSP> 5
 0.000000e+00 1.000000e+00 0.000000e+00 0.000000e+00 0.000000e+00
 0.000000e+00 7.432576e-01 2.567424e-01 0.000000e+00 0.000000e+00
 0.000000e+00 0.000000e+00 7.485918e-01 2.514082e-01 0.000000e+00
 0.000000e+00 0.000000e+00 0.000000e+00 8.652188e-01 1.347812e-01
 0.000000e+00 0.000000e+00 0.000000e+00 0.000000e+00 0.000000e+00
<ENDHMM>
~h "T"
<BEGINHMM>
<NUMSTATES> 5
<STATE> 2
<MEAN> 25
 5.482656e-01 2.196455e+00 -1.208215e+00 5.867622e-01 1.272323e+00 -2.812525e+00 -8.550522e-01 -9.808361e-01 1.740972e+00 1.156530e+00 -1.960971e+00 -9.983457e-01 -5.372337e-01 -8.189564e-02 -2.938954e-01 -1.097279e-01 3.260632e-01 -1.971248e-01 2.170379e-01 9.696481e-02 1.451776e-01 -8.142797e-02 -4.983176e-02 1.684228e-01 -4.742654e-01
<VARIANCE> 25
 4.155652e+01 4.908255e+01 4.609234e+01 4.245300e+01 4.058856e+01 4.289651e+01 4.879842e+01 4.726911e+01 4.738968e+01 3.319442e+01 3.704046e+01 3.461464e+01 3.317628e+00 5.225663e+00 3.142745e+00 3.914949e+00 3.818160e+00 3.729130e+00 4.113860e+00 3.993406e+00 3.794013e+00 3.044741e+00 3.115066e+00 2.899566e+00 1.908806e+01
<GCONST> 1.092838e+02
<STATE> 3
<MEAN> 25
 -7.996165e-01 1.061754e+00 -2.176062e+00 -3.162075e-01 1.523776e+00 -2.908205e+00 -4.290737e-01 -5.025826e-01 2.163808e+00 9.002197e-01 -1.929266e+00 -6.634747e-01 -2.759190e-01 -6.829467e-01 -3.404776e-01 -5.406302e-01 -4.572289e-02 5.812554e-02 -7.428388e-02 2.190440e-01 1.891216e-01 -7.951308e-02 6.513446e-02 -1.765743e-02 1.323193e+00
<VARIANCE> 25
 4.311456e+01 4.866720e+01 4.155580e+01 4.059851e+01 3.663033e+01 4.247804e+01 4.606252e+01 4.233249e+01 4.475227e+01 3.132424e+01 3.469757e+01 3.434130e+01 4.652585e+00 4.813450e+00 3.573874e+00 4.174300e+00 3.917012e+00 4.258474e+00 4.796052e+00 4.283822e+00 4.495003e+00 3.172379e+00 3.400285e+00 3.592330e+00 2.234451e+01
<GCONST> 1.101955e+02
<STATE> 4
<MEAN> 25
 -1.314115e+00 -5.289022e-01 -2.933902e+00 -1.415835e+00 1.383572e+00 -2.405236e+00 -3.581448e-01 1.571030e-01 2.459118e+00 7.134645e-01 -1.672819e+00 -6.751228e-01 2.374112e-01 -6.056002e-01 2.797991e-02 -4.955660e-01 -3.335337e-01 2.567613e-01 -3.592526e-01 5.528443e-02 -2.630340e-02 -7.142211e-02 2.289889e-01 -1.795350e-01 2.133554e+00
<VARIANCE> 25
 4.270647e+01 4.867132e+01 3.964658e+01 4.111520e+01 3.650944e+01 4.421230e+01 4.778622e+01 4.082970e+01 4.557116e+01 2.999703e+01 3.436053e+01 3.514939e+01 4.754848e+00 3.981262e+00 3.941154e+00 3.960660e+00 4.039391e+00 4.499693e+00 4.988144e+00 4.351518e+00 4.612673e+00 3.158054e+00 3.413735e+00 3.624170e+00 1.774820e+01
<GCONST> 1.099992e+02
<TRANSP> 5
 0.000000e+00 1.000000e+00 0.000000e+00 0.000000e+00 0.000000e+00
 0.000000e+00 6.120566e-01 3.879433e-01 0.000000e+00 0.000000e+00
 0.000000e+00 0.000000e+00 6.154664e-01 3.845336e-01 0.000000e+00
 0.000000e+00 0.000000e+00 0.000000e+00 7.098747e-01 2.901253e-01
 0.000000e+00 0.000000e+00 0.000000e+00 0.000000e+00 0.000000e+00
<ENDHMM>
~h "U"
<BEGINHMM>
<NUMSTATES> 5
<STATE> 2
<MEAN> 25
 6.208215e+00 4.514830e+00 -1.138275e+00 -4.439044e+00 -3.841153e+00 4.315230e+00 -6.645960e+00 -5.152360e+00 -3.521732e+00 -1.591597e-01 3.162265e+00 4.497111e-01 8.679531e-01 4.265887e-01 -2.049857e-01 -9.278751e-01 -6.731818e-01 9.368311e-01 -5.958430e-01 -4.474745e-01 -4.965884e-01 -8.506962e-02 6.101679e-01 5.316747e-02 5.220243e-01
<VARIANCE> 25
 3.667204e+01 4.000484e+01 4.321719e+01 8.093001e+01 5.711285e+01 6.149287e+01 7.794616e+01 7.203682e+01 5.568476e+01 4.948752e+01 4.911019e+01 3.635532e+01 3.824693e+00 3.115315e+00 3.552782e+00 6.214735e+00 5.441844e+00 5.644484e+00 6.162642e+00 5.947239e+00 4.870929e+00 4.438019e+00 4.472991e+00 3.320028e+00 5.082396e+00
<GCONST> 1.135997e+02
<STATE> 3
<MEAN> 25
 7.516655e+00 5.281047e+00 -1.365940e+00 -5.995945e+00 -4.887690e+00 5.975671e+00 -7.177465e+00 -5.720009e+00 -4.286784e+00 -4.135473e-01 4.010764e+00 5.560173e-01 2.324831e-01 9.735907e-02 4.737673e-02 -1.462435e-01 -8.664167e-02 1.997185e-01 -2.564253e-02 -1.132003e-01 -3.761888e-02 4.457973e-02 6.938192e-02 -3.106012e-02 -9.805939e-02
<VARIANCE> 25
 2.601237e+01 4.021096e+01 3.818868e+01 8.073711e+01 5.426360e+01 5.858905e+01 7.615244e+01 7.351363e+01 5.703700e+01 5.332936e+01 5.019009e+01 3.791410e+01 2.405217e+00 2.942254e+00 2.925086e+00 6.236598e+00 5.008962e+00 5.424205e+00 5.576736e+00 5.350536e+00 4.694836e+00 4.367213e+00 4.536571e+00 3.181208e+00 4.719360e+00
<GCONST> 1.119995e+02
<STATE> 4
<MEAN> 25
 7.229241e+00 5.345940e+00 -9.070198e-01 -5.372529e+00 -4.230933e+00 5.254741e+00 -6.257826e+00 -5.386579e+00 -3.838764e+00 -1.971305e-01 3.160073e+00 3.802449e-01 -3.698413e-01 -2.448638e-01 2.152178e-01 5.948074e-01 4.290848e-01 -5.118300e-01 3.613567e-01 1.255389e-01 3.634301e-01 1.612160e-01 -3.799588e-01 -8.248851e-02 -4.876207e-01
<VARIANCE> 25
 2.764940e+01 4.368182e+01 4.064836e+01 8.197737e+01 5.607662e+01 6.073021e+01 7.512218e+01 6.809609e+01 5.622652e+01 5.162004e+01 5.092459e+01 3.827862e+01 1.868218e+00 2.757316e+00 2.608258e+00 4.682960e+00 4.115117e+00 4.277146e+00 4.479018e+00 4.475196e+00 4.005352e+00 3.844046e+00 3.959597e+00 3.049900e+00 3.813019e+00
<GCONST> 1.099482e+02
<TRANSP> 5
 0.000000e+00 1.000000e+00 0.000000e+00 0.000000e+00 0.000000e+00
 0.000000e+00 6.527221e-01 3.472779e-01 0.000000e+00 0.000000e+00
 0.000000e+00 0.000000e+00 6.618868e-01 3.381132e-01 0.000000e+00
 0.000000e+00 0.000000e+00 0.000000e+00 7.792768e-01 2.207232e-01
 0.000000e+00 0.000000e+00 0.000000e+00 0.000000e+00 0.000000e+00
<ENDHMM>
~h "V"
<BEGINHMM>
<NUMSTATES> 5
<STATE> 2
<MEAN> 25
 -6.122418e+00 3.311288e-02 -1.232934e+00 3.486199e+00 2.856148e+00 -1.903303e-01 1.322756e+00 7.047694e-01 5.383827e-01 8.859040e-01 4.655278e-01 2.064868e+00 -2.260730e+00 -2.144067e-01 -2.859257e-01 6.184939e-01 5.700476e-01 -3.832825e-01 1.742645e-01 2.240609e-01 4.527709e-01 3.389962e-02 -1.107559e-01 3.390589e-01 -6.526029e-01
<VARIANCE> 25
 7.333140e+01 2.915707e+01 3.991692e+01 3.802508e+01 3.664292e+01 4.225353e+01 3.285359e+01 3.651268e+01 3.077763e+01 2.449263e+01 2.518877e+01 2.295186e+01 5.535677e+00 3.193498e+00 2.987963e+00 3.975363e+00 4.459009e+00 3.716474e+00 3.147348e+00 3.506315e+00 3.267030e+00 2.740690e+00 2.703922e+00 2.224687e+00 2.411211e+00
<GCONST> 1.037816e+02
<STATE> 3
<MEAN> 25
 -1.068003e+01 -1.504596e+00 -2.225143e+00 3.800881e+00 2.788609e+00 -1.091472e+00 1.054202e+00 9.607396e-01 1.239681e+00 1.051660e+00 4.575179e-01 2.510733e+00 -4.228898e-01 -4.421264e-01 -2.063254e-01 -1.681807e-01 -2.272551e-01 -2.206443e-01 -1.485717e-01 5.798794e-02 5.511197e-02 -3.495520e-02 2.977433e-02 -5.079007e-02 4.636128e-02
<VARIANCE> 25
 5.555816e+01 2.741306e+01 3.507883e+01 3.308092e+01 3.134624e+01 3.473247e+01 3.065246e+01 3.153999e+01 2.744001e+01 2.308143e+01 2.162801e+01 2.189440e+01 9.116271e+00 2.368741e+00 2.793426e+00 3.481622e+00 3.187845e+00 3.234781e+00 2.607641e+00 2.717542e+00 2.815361e+00 2.246083e+00 2.217562e+00 2.220967e+00 2.735340e+00
<GCONST> 1.008935e+02
<STATE> 4
<MEAN> 25
 -8.352933e+00 -2.611882e+00 -2.284719e+00 2.326249e+00 1.402600e+00 -1.491035e+00 5.428424e-01 1.123999e+00 8.975199e-01 7.850321e-01 7.305077e-01 1.878938e+00 1.808686e+00 -1.509173e-01 3.437283e-01 -7.505900e-01 -8.291578e-01 3.656726e-02 -2.506911e-01 6.467754e-02 -3.125204e-01 -2.512283e-01 2.464872e-01 -4.336720e-01 8.642571e-01
<VARIANCE> 25
 8.745319e+01 3.015119e+01 4.494598e+01 4.720003e+01 3.836748e+01 4.416432e+01 3.137561e+01 3.321922e+01 3.007144e+01 2.448698e+01 2.324336e+01 2.539960e+01 9.686412e+00 2.939383e+00 3.932028e+00 4.680261e+00 4.051706e+00 4.135891e+00 2.908674e+00 3.505718e+00 3.692576e+00 2.597839e+00 2.706587e+00 2.655562e+00 3.374191e+00
<GCONST> 1.057027e+02
<TRANSP> 5
 0.000000e+00 1.000000e+00 0.000000e+00 0.000000e+00 0.000000e+00
 0.000000e+00 6.968665e-01 3.031336e-01 0.000000e+00 0.000000e+00
 0.000000e+00 0.000000e+00 7.005984e-01 2.994017e-01 0.000000e+00
 0.000000e+00 0.000000e+00 0.000000e+00 8.028226e-01 1.971774e-01
 0.000000e+00 0.000000e+00 0.000000e+00 0.000000e+00 0.000000e+00
<ENDHMM>
~h "W"
<BEGINHMM>
<NUMSTATES> 5
<STATE> 2
<MEAN> 25
 7.954088e+00 3.281037e-01 -3.547007e+00 -1.052464e+01 -3.784054e+00 7.858490e+00 -3.699216e+00 -9.739336e-01 -1.034694e+00 1.923598e-01 3.670380e+00 -1.375431e+00 6.291534e-01 3.216068e-01 -1.820684e-01 -1.168316e+00 -4.456344e-01 8.486058e-01 -9.912967e-02 -1.371880e-01 -2.773376e-01 -1.092460e-01 4.840040e-01 1.894484e-01 2.380401e-01
<VARIANCE> 25
 3.061095e+01 6.592712e+01 3.915601e+01 7.980140e+01 5.611195e+01 6.771443e+01 5.637639e+01 4.759973e+01 5.500692e+01 4.853082e+01 5.007159e+01 4.385997e+01 1.833506e+00 3.243467e+00 2.278281e+00 3.717986e+00 3.879861e+00 3.876698e+00 3.132599e+00 3.396747e+00 3.524479e+00 3.389490e+00 3.386944e+00 3.395406e+00 3.139844e+00
<GCONST> 1.083874e+02
<STATE> 3
<MEAN> 25
 9.108377e+00 3.191440e-01 -4.069258e+00 -1.329626e+01 -4.750157e+00 9.818705e+00 -3.732464e+00 -9.929525e-01 -1.019822e+00 -5.955438e-02 4.639176e+00 -1.174439e+00 7.941300e-02 -2.752921e-01 -1.475008e-01 -3.574042e-01 1.055328e-02 2.553163e-01 2.065391e-02 3.638773e-02 1.577273e-01 4.724548e-02 8.920723e-02 -1.487918e-01 4.008426e-01
<VARIANCE> 25
 2.336079e+01 5.892752e+01 3.534520e+01 7.322913e+01 5.379951e+01 6.155086e+01 5.127026e+01 4.323805e+01 5.279633e+01 4.833234e+01 4.924667e+01 4.401066e+01 1.377044e+00 3.550830e+00 1.903633e+00 3.702748e+00 3.861593e+00 3.730850e+00 2.744786e+00 2.848560e+00 3.295632e+00 3.259807e+00 3.383565e+00 3.718696e+00 2.804651e+00
<GCONST> 1.065699e+02
<STATE> 4
<MEAN> 25
 8.324371e+00 -1.770760e+00 -4.964781e+00 -1.350399e+01 -2.947650e+00 1.012087e+01 -2.940874e+00 -8.061956e-01 6.766931e-01 3.256883e-01 3.379001e+00 -2.636073e+00 -3.082077e-01 -5.169183e-01 -7.476897e-02 5.847835e-01 4.509559e-01 -3.863013e-01 6.660718e-02 1.030275e-01 3.208420e-01 1.572609e-01 -3.469312e-01 -3.900969e-01 2.224818e-01
<VARIANCE> 25
 2.282825e+01 6.487607e+01 3.556581e+01 7.020656e+01 5.968558e+01 5.892089e+01 4.761113e+01 4.118183e+01 5.073000e+01 4.456151e+01 5.002969e+01 4.917689e+01 8.707221e-01 2.687759e+00 1.618792e+00 2.977494e+00 3.120273e+00 3.257988e+00 2.252069e+00 2.545367e+00 2.597891e+00 2.618751e+00 2.967790e+00 3.148614e+00 2.255608e+00
<GCONST> 1.038018e+02
<TRANSP> 5
 0.000000e+00 1.000000e+00 0.000000e+00 0.000000e+00 0.000000e+00
 0.000000e+00 7.079402e-01 2.920598e-01 0.000000e+00 0.000000e+00
 0.000000e+00 0.000000e+00 7.153149e-01 2.846851e-01 0.000000e+00
 0.000000e+00 0.000000e+00 0.000000e+00 8.606859e-01 1.393141e-01
 0.000000e+00 0.000000e+00 0.000000e+00 0.000000e+00 0.000000e+00
<ENDHMM>
~h "X"
<BEGINHMM>
<NUMSTATES> 5
<STATE> 2
<MEAN> 25
 -1.307659e+01 3.313144e+00 -3.718399e+00 3.296530e+00 3.901015e+00 -4.135002e+00 4.044650e+00 2.445062e+00 2.532485e+00 1.088278e+00 1.871924e+00 2.562626e+00 -1.245884e-01 4.168385e-01 1.703642e-01 2.328814e-02 -1.579425e-03 8.996801e-02 1.069900e-02 -3.114150e-01 -1.898746e-01 1.825726e-01 2.346420e-01 1.422249e-01 -7.906742e-01
<VARIANCE> 25
 7.700183e+01 9.529792e+00 3.715427e+01 2.635257e+01 2.261593e+01 2.763551e+01 3.207961e+01 2.743815e+01 2.247510e+01 2.493215e+01 2.912851e+01 1.476341e+01 9.637349e-01 9.961561e-01 7.607824e-01 1.124011e+00 1.639636e+00 1.496359e+00 2.018709e+00 1.314670e+00 1.454283e+00 2.095310e+00 1.945540e+00 1.232629e+00 1.928084e+00
<GCONST> 8.936387e+01
<STATE> 3
<MEAN> 25
 -1.576070e+01 3.766362e+00 -3.668856e+00 3.875216e+00 4.577319e+00 -4.029665e+00 3.608989e+00 2.923965e+00 2.462109e+00 8.924565e-01 2.534300e+00 3.184631e+00 3.220935e-01 2.237824e-01 2.701094e-01 -1.492060e-01 -8.274859e-02 1.140594e-01 7.843917e-02 -7.332718e-02 -1.237409e-01 -2.265052e-02 9.922516e-02 1.288746e-01 -6.597943e-01
<VARIANCE> 25
 6.592770e+01 1.427786e+01 4.676512e+01 2.010211e+01 1.586489e+01 2.718512e+01 3.003034e+01 3.148928e+01 2.353421e+01 2.334689e+01 2.253196e+01 1.706528e+01 8.862473e-01 1.039833e+00 8.866251e-01 1.220359e+00 1.528214e+00 1.802615e+00 1.303665e+00 1.514571e+00 2.377020e+00 1.597827e+00 1.418171e+00 1.185413e+00 1.248989e+00
<GCONST> 8.858674e+01
<STATE> 4
<MEAN> 25
 -1.002465e+01 1.776301e+00 -2.364661e+00 4.056732e+00 3.932343e+00 -2.819017e+00 3.646255e+00 2.030519e+00 7.465070e-01 1.428373e-01 2.855742e+00 1.892203e+00 1.298279e-01 -6.331626e-02 2.083904e-01 -5.688055e-02 -5.464226e-02 1.483445e-01 4.039114e-02 6.509353e-02 -1.754672e-01 -5.082875e-02 1.899831e-02 2.748117e-02 -7.052743e-02
<VARIANCE> 25
 4.614869e+01 3.206845e+01 2.690614e+01 1.384241e+01 1.955889e+01 2.054731e+01 2.390259e+01 3.614844e+01 1.835393e+01 2.385238e+01 1.792356e+01 1.981095e+01 8.841874e-01 1.220625e+00 9.048795e-01 1.127282e+00 1.362645e+00 1.747497e+00 1.694283e+00 1.372505e+00 1.989656e+00 1.244488e+00 1.206295e+00 1.462423e+00 2.580427e+00
<GCONST> 8.810855e+01
<TRANSP> 5
 0.000000e+00 1.000000e+00 0.000000e+00 0.000000e+00 0.000000e+00
 0.000000e+00 7.883124e-01 2.116876e-01 0.000000e+00 0.000000e+00
 0.000000e+00 0.000000e+00 7.087235e-01 2.912765e-01 0.000000e+00
 0.000000e+00 0.000000e+00 0.000000e+00 9.209452e-01 7.905471e-02
 0.000000e+00 0.000000e+00 0.000000e+00 0.000000e+00 0.000000e+00
<ENDHMM>
~h "Y"
<BEGINHMM>
<NUMSTATES> 5
<STATE> 2
<MEAN> 25
 8.561631e-01 -2.371114e+00 7.431480e+00 -2.286656e+00 -7.523863e+00 -4.141562e+00 -2.375539e+00 4.136791e+00 -2.330084e+00 -1.181249e+00 2.341754e+00 5.390919e-01 -1.498958e-01 2.820744e-01 1.086998e+00 -3.645810e-02 -8.114150e-01 -4.293076e-01 -2.386940e-01 6.265724e-02 -5.176627e-01 -7.128248e-02 6.550035e-01 3.640711e-01 1.506388e-01
<VARIANCE> 25
 2.317819e+01 5.645405e+01 9.563649e+01 3.867185e+01 7.131969e+01 4.645840e+01 5.715357e+01 6.576704e+01 5.856819e+01 4.496890e+01 5.041346e+01 3.211894e+01 1.134223e+00 2.682997e+00 5.583463e+00 1.926555e+00 3.689801e+00 3.092377e+00 3.479479e+00 4.489329e+00 3.953918e+00 3.057535e+00 3.468477e+00 2.349032e+00 2.236605e+00
<GCONST> 1.070092e+02
<STATE> 3
<MEAN> 25
 6.940141e-01 -1.877108e+00 9.713487e+00 -2.544149e+00 -9.152646e+00 -4.726597e+00 -3.231659e+00 3.976986e+00 -3.268253e+00 -1.344212e+00 3.704420e+00 1.091366e+00 1.823562e-02 -1.041484e-01 1.155037e-01 -7.339579e-02 -2.026024e-01 -9.649054e-02 -5.840367e-02 1.241997e-01 2.397607e-02 -7.847204e-02 1.277626e-01 4.162516e-02 2.831645e-01
<VARIANCE> 25
 1.882389e+01 4.860032e+01 9.446874e+01 3.732638e+01 6.457113e+01 4.356859e+01 5.559974e+01 6.224879e+01 5.543479e+01 4.675307e+01 4.699919e+01 3.093980e+01 8.949116e-01 2.691418e+00 5.855422e+00 1.586861e+00 3.543040e+00 2.505918e+00 3.309487e+00 4.317084e+00 3.906227e+00 2.754364e+00 3.448477e+00 2.067887e+00 2.185451e+00
<GCONST> 1.052405e+02
<STATE> 4
<MEAN> 25
 3.732124e-02 -2.307903e+00 6.696087e+00 -1.852083e+00 -6.852785e+00 -3.878461e+00 -1.707695e+00 3.992088e+00 -1.913235e+00 -1.566067e+00 2.479958e+00 9.201861e-01 1.454562e-01 -4.016613e-01 -7.762607e-01 -3.237610e-02 3.924304e-01 1.468541e-01 2.136265e-01 3.009501e-01 4.785225e-01 -6.421768e-02 -4.233869e-01 -2.487810e-01 2.081181e-01
<VARIANCE> 25
 2.149012e+01 5.112029e+01 1.033481e+02 3.650000e+01 7.422346e+01 3.944394e+01 5.488565e+01 6.302465e+01 5.278045e+01 4.017781e+01 4.680457e+01 2.988605e+01 6.377707e-01 1.981205e+00 3.962780e+00 1.363191e+00 2.955639e+00 2.149318e+00 2.586188e+00 3.498278e+00 3.043616e+00 2.395755e+00 2.894583e+00 1.825569e+00 1.594216e+00
<GCONST> 1.023076e+02
<TRANSP> 5
 0.000000e+00 1.000000e+00 0.000000e+00 0.000000e+00 0.000000e+00
 0.000000e+00 6.596693e-01 3.403307e-01 0.000000e+00 0.000000e+00
 0.000000e+00 0.000000e+00 6.727638e-01 3.272362e-01 0.000000e+00
 0.000000e+00 0.000000e+00 0.000000e+00 8.421122e-01 1.578878e-01
 0.000000e+00 0.000000e+00 0.000000e+00 0.000000e+00 0.000000e+00
<ENDHMM>
~h "Z"
<BEGINHMM>
<NUMSTATES> 5
<STATE> 2
<MEAN> 25
 -5.657976e+00 8.506010e+00 1.697392e+00 4.752327e+00 2.735098e+00 -5.779773e+00 -3.132305e-01 9.697498e-02 3.666780e-01 -5.973821e-01 -9.038122e-01 3.193341e+00 -1.143492e+00 9.300321e-01 -2.024498e-01 4.522662e-01 6.613873e-01 -2.333935e-02 4.297483e-01 1.227213e-01 1.186343e-01 -2.726696e-02 1.062412e-01 2.727354e-01 -4.455028e-01
<VARIANCE> 25
 6.899344e+01 6.687187e+01 4.587638e+01 3.982735e+01 5.313848e+01 4.779440e+01 5.540408e+01 4.276027e+01 4.025452e+01 2.753140e+01 3.272264e+01 2.639877e+01 2.768723e+00 3.346283e+00 2.054199e+00 1.969908e+00 2.946861e+00 2.543626e+00 2.859151e+00 2.856928e+00 2.327896e+00 1.966409e+00 2.117092e+00 1.877877e+00 1.677664e+00
<GCONST> 1.024337e+02
<STATE> 3
<MEAN> 25
 -7.974455e+00 9.734776e+00 1.469598e+00 5.531446e+00 3.883516e+00 -5.421118e+00 4.648001e-01 3.894668e-01 4.936960e-01 -5.678078e-01 -5.398214e-01 3.506783e+00 -6.110963e-01 2.023648e-01 -6.225629e-03 1.627112e-01 2.347515e-01 9.761990e-02 1.729342e-01 4.225367e-02 1.714478e-02 9.365201e-03 1.257119e-01 8.874128e-02 -1.363372e-01
<VARIANCE> 25
 6.947200e+01 6.950700e+01 4.333322e+01 4.072849e+01 4.953563e+01 4.488323e+01 5.203307e+01 3.920030e+01 3.588935e+01 2.481783e+01 2.918107e+01 2.472931e+01 2.734549e+00 2.757346e+00 1.693363e+00 1.710318e+00 2.681222e+00 2.218161e+00 2.461746e+00 2.384241e+00 2.039782e+00 1.742633e+00 1.801625e+00 1.633300e+00 1.664329e+00
<GCONST> 1.000993e+02
<STATE> 4
<MEAN> 25
 -7.061813e+00 5.798360e+00 1.861055e-01 4.502872e+00 3.455422e+00 -3.207458e+00 1.230000e+00 6.742107e-01 3.520441e-01 -7.849715e-01 -1.516911e-01 2.860885e+00 3.852371e-02 -1.924341e-01 1.048264e-01 -7.239704e-02 -1.512809e-01 1.421781e-02 -7.297666e-02 -8.084361e-02 -8.276180e-03 1.030577e-02 6.367682e-02 1.488304e-02 1.604594e-01
<VARIANCE> 25
 5.660329e+01 7.608247e+01 4.565479e+01 3.463326e+01 4.594559e+01 4.127073e+01 4.432972e+01 3.649197e+01 3.246753e+01 2.452469e+01 2.538744e+01 2.316019e+01 2.132436e+00 2.088709e+00 1.492043e+00 1.538960e+00 2.308483e+00 2.010622e+00 2.142544e+00 2.151092e+00 1.922871e+00 1.677526e+00 1.633150e+00 1.544130e+00 1.648650e+00
<GCONST> 9.765783e+01
<TRANSP> 5
 0.000000e+00 1.000000e+00 0.000000e+00 0.000000e+00 0.000000e+00
 0.000000e+00 7.057854e-01 2.942146e-01 0.000000e+00 0.000000e+00
 0.000000e+00 0.000000e+00 7.086995e-01 2.913006e-01 0.000000e+00
 0.000000e+00 0.000000e+00 0.000000e+00 9.039862e-01 9.601376e-02
 0.000000e+00 0.000000e+00 0.000000e+00 0.000000e+00 0.000000e+00
<ENDHMM>
~h "e"
<BEGINHMM>
<NUMSTATES> 5
<STATE> 2
<MEAN> 25
 3.602577e+00 -6.961062e-01 -6.573094e-01 -1.075352e+00 -9.344852e-01 -8.296067e-01 -4.295087e+00 -1.418270e+00 1.105370e+00 2.191291e+00 5.381494e-01 -1.471421e+00 6.385915e-01 -3.691675e-01 -2.290208e-02 -3.203213e-01 -3.690146e-01 1.242715e-01 -6.152298e-01 4.387862e-02 3.835919e-01 3.431882e-01 2.325491e-01 -3.655860e-01 9.049442e-01
<VARIANCE> 25
 4.341633e+01 4.297935e+01 4.483032e+01 5.200701e+01 4.995094e+01 6.258232e+01 6.605186e+01 6.043006e+01 6.734587e+01 4.212019e+01 4.234876e+01 3.748752e+01 4.220054e+00 3.911180e+00 3.891527e+00 4.935280e+00 4.469478e+00 4.639503e+00 5.626411e+00 5.782595e+00 5.969950e+00 3.870194e+00 4.217628e+00 3.609715e+00 9.147183e+00
<GCONST> 1.132420e+02
<STATE> 3
<MEAN> 25
 4.597864e+00 -1.197291e+00 -5.725320e-01 -1.443580e+00 -1.608599e+00 -5.568522e-01 -5.174965e+00 -1.435174e+00 1.596378e+00 2.728491e+00 8.868424e-01 -2.069762e+00 4.331900e-01 -1.407795e-01 1.199206e-01 -4.463230e-02 -3.099974e-01 1.281619e-01 -2.461604e-01 -6.257732e-02 1.444252e-01 1.453105e-01 6.284896e-02 -2.057992e-01 3.716323e-01
<VARIANCE> 25
 3.591777e+01 4.163044e+01 4.389033e+01 5.507277e+01 4.827649e+01 6.178880e+01 6.598804e+01 6.261133e+01 6.832814e+01 4.409862e+01 4.370618e+01 3.795557e+01 3.123658e+00 3.831249e+00 3.569852e+00 5.091907e+00 4.280130e+00 4.561082e+00 5.451281e+00 5.938239e+00 6.145776e+00 3.970266e+00 4.258329e+00 3.515469e+00 8.756948e+00
<GCONST> 1.127008e+02
<STATE> 4
<MEAN> 25
 5.124051e+00 -1.139856e+00 -1.448870e-01 -1.189223e+00 -2.127771e+00 -4.526039e-01 -5.403521e+00 -1.508536e+00 1.759974e+00 2.856574e+00 7.388126e-01 -2.336533e+00 1.599386e-01 9.806522e-02 2.250901e-01 2.169951e-01 -1.380684e-01 8.389432e-02 1.648516e-01 -1.590254e-01 -1.265392e-01 -9.752600e-02 -1.179429e-01 3.687102e-02 -1.883831e-01
<VARIANCE> 25
 3.232055e+01 4.247896e+01 4.467839e+01 5.663924e+01 4.787792e+01 6.077984e+01 6.794197e+01 6.366620e+01 6.937439e+01 4.581955e+01 4.412353e+01 3.819856e+01 2.319121e+00 3.155027e+00 2.948246e+00 4.269962e+00 3.646304e+00 3.871598e+00 4.429269e+00 5.052446e+00 5.023225e+00 3.476504e+00 3.665304e+00 3.047999e+00 6.309565e+00
<GCONST> 1.102441e+02
<TRANSP> 5
 0.000000e+00 1.000000e+00 0.000000e+00 0.000000e+00 0.000000e+00
 0.000000e+00 5.120605e-01 4.879396e-01 0.000000e+00 0.000000e+00
 0.000000e+00 0.000000e+00 5.199661e-01 4.800339e-01 0.000000e+00
 0.000000e+00 0.000000e+00 0.000000e+00 6.180705e-01 3.819295e-01
 0.000000e+00 0.000000e+00 0.000000e+00 0.000000e+00 0.000000e+00
<ENDHMM>
~h "AI"
<BEGINHMM>
<NUMSTATES> 5
<STATE> 2
<MEAN> 25
 3.129882e+00 -7.623633e+00 2.887944e+00 -4.172023e+00 -7.407439e+00 -3.962166e+00 -1.365528e+00 7.778689e+00 9.792842e-01 -2.006028e-01 5.502055e-01 -2.213914e+00 -1.086031e-01 7.052613e-02 1.148421e+00 -2.363223e-03 -1.168637e+00 -6.668286e-01 1.227701e-01 4.405820e-01 -6.524215e-01 8.174452e-02 6.020949e-01 3.419385e-01 1.208338e-01
<VARIANCE> 25
 1.898522e+01 4.783987e+01 6.995258e+01 3.356561e+01 6.379716e+01 5.876929e+01 4.985927e+01 6.390093e+01 6.106763e+01 4.321814e+01 5.528025e+01 3.321005e+01 1.584287e+00 3.118222e+00 2.790191e+00 2.175261e+00 3.716088e+00 3.381032e+00 3.176631e+00 5.463059e+00 3.630999e+00 3.082538e+00 3.713039e+00 2.686174e+00 2.997933e+00
<GCONST> 1.068076e+02
<STATE> 3
<MEAN> 25
 2.635205e+00 -5.917567e+00 6.503172e+00 -3.800736e+00 -1.018055e+01 -5.485867e+00 -1.471253e+00 7.212350e+00 -1.545935e+00 5.506873e-01 2.593663e+00 -1.121913e+00 -1.070187e-01 5.929646e-01 9.126995e-01 1.914989e-01 -5.672972e-01 -3.231794e-01 -5.291379e-02 -3.939261e-01 -6.916268e-01 1.907033e-01 4.968466e-01 2.647443e-01 -5.326528e-01
<VARIANCE> 25
 1.716656e+01 4.967832e+01 6.664522e+01 3.195427e+01 5.527093e+01 5.041033e+01 4.731887e+01 6.959479e+01 6.007076e+01 4.286430e+01 5.224372e+01 3.015754e+01 1.103188e+00 2.361106e+00 3.124453e+00 1.931485e+00 3.956812e+00 2.877829e+00 2.999045e+00 4.780598e+00 3.526765e+00 2.759639e+00 3.325507e+00 2.163727e+00 2.543809e+00
<GCONST> 1.046399e+02
<STATE> 4
<MEAN> 25
 2.080949e+00 -2.361974e+00 9.136640e+00 -2.426004e+00 -1.026557e+01 -5.470384e+00 -1.486887e+00 3.946618e+00 -3.843355e+00 9.920889e-01 3.367337e+00 -5.463265e-01 -2.043902e-02 5.849543e-01 4.822110e-03 4.066107e-01 4.335645e-01 8.881719e-02 3.680263e-02 -6.197342e-01 -2.448546e-01 8.491052e-03 -7.020354e-02 8.452772e-02 -1.000017e+00
<VARIANCE> 25
 2.055455e+01 5.508892e+01 5.997367e+01 3.713183e+01 5.591773e+01 5.161725e+01 4.965055e+01 7.511932e+01 5.362950e+01 3.967958e+01 4.435815e+01 2.821533e+01 1.179174e+00 2.193729e+00 3.242537e+00 2.070129e+00 3.655774e+00 2.740198e+00 2.978896e+00 4.027544e+00 3.453299e+00 2.547770e+00 2.815534e+00 1.871085e+00 2.385242e+00
<GCONST> 1.040232e+02
<TRANSP> 5
 0.000000e+00 1.000000e+00 0.000000e+00 0.000000e+00 0.000000e+00
 0.000000e+00 6.789652e-01 3.210348e-01 0.000000e+00 0.000000e+00
 0.000000e+00 0.000000e+00 6.863658e-01 3.136341e-01 0.000000e+00
 0.000000e+00 0.000000e+00 0.000000e+00 8.353537e-01 1.646464e-01
 0.000000e+00 0.000000e+00 0.000000e+00 0.000000e+00 0.000000e+00
<ENDHMM>
~h "AU"
<BEGINHMM>
<NUMSTATES> 5
<STATE> 2
<MEAN> 25
 5.415040e+00 -4.938864e+00 -7.380707e+00 -1.185656e+01 -1.372147e-01 8.940152e+00 -3.045480e+00 -1.313869e+00 4.000092e+00 2.258176e+00 1.584380e+00 -4.478857e+00 4.508367e-01 1.132742e-01 -2.586068e-01 -1.066789e+00 -1.305963e-01 1.027838e+00 -1.180556e-01 -1.626628e-01 -1.843857e-01 6.269875e-03 5.731179e-01 -6.534653e-04 2.923169e-01
<VARIANCE> 25
 2.347908e+01 4.067521e+01 2.803463e+01 5.670937e+01 4.225609e+01 5.960989e+01 4.861003e+01 4.694680e+01 4.653408e+01 4.636997e+01 5.239222e+01 4.647068e+01 1.451016e+00 2.619129e+00 1.787055e+00 3.251878e+00 2.584179e+00 4.054284e+00 2.814834e+00 2.999983e+00 2.992331e+00 2.947722e+00 3.230937e+00 3.618509e+00 4.086642e+00
<GCONST> 1.048401e+02
<STATE> 3
<MEAN> 25
 6.524958e+00 -2.657860e+00 -7.374218e+00 -1.431473e+01 -1.266468e+00 1.066089e+01 -3.353362e+00 -1.733005e+00 2.463650e+00 1.790002e+00 3.282979e+00 -2.948188e+00 2.612041e-01 6.448351e-01 1.040890e-01 -3.725192e-01 -2.979619e-01 2.323189e-01 -1.128484e-01 -8.497767e-02 -4.365164e-01 -1.529768e-01 3.401017e-01 4.285014e-01 -4.347355e-01
<VARIANCE> 25
 2.155743e+01 4.919307e+01 2.731099e+01 5.794727e+01 4.356249e+01 5.239682e+01 4.953358e+01 4.311132e+01 4.885119e+01 4.828284e+01 5.044777e+01 5.199938e+01 9.453036e-01 2.195779e+00 1.388071e+00 3.217488e+00 2.306740e+00 3.287710e+00 2.505991e+00 2.519425e+00 2.664350e+00 2.726481e+00 2.942688e+00 3.172001e+00 3.343133e+00
<GCONST> 1.028368e+02
<STATE> 4
<MEAN> 25
 6.473813e+00 1.183371e+00 -5.877089e+00 -1.272097e+01 -2.138580e+00 9.374933e+00 -2.963784e+00 -1.457950e+00 6.181479e-01 4.140481e-01 3.102647e+00 -8.045335e-01 -3.078703e-02 4.183736e-01 2.899027e-01 5.541214e-01 -2.260263e-02 -4.359779e-01 -3.942108e-02 -5.670945e-02 -2.770201e-01 -5.534765e-02 -9.171867e-02 2.199903e-01 -6.919438e-01
<VARIANCE> 25
 3.079372e+01 5.632431e+01 3.081244e+01 8.038132e+01 4.913884e+01 5.970290e+01 5.652392e+01 4.201300e+01 4.901970e+01 4.733433e+01 4.269115e+01 4.596545e+01 1.083326e+00 2.153570e+00 1.461382e+00 3.788207e+00 2.573742e+00 3.082558e+00 2.558529e+00 2.439595e+00 2.540207e+00 2.609779e+00 2.640952e+00 2.680737e+00 2.991927e+00
<GCONST> 1.037135e+02
<TRANSP> 5
 0.000000e+00 1.000000e+00 0.000000e+00 0.000000e+00 0.000000e+00
 0.000000e+00 7.302255e-01 2.697745e-01 0.000000e+00 0.000000e+00
 0.000000e+00 0.000000e+00 7.517769e-01 2.482232e-01 0.000000e+00
 0.000000e+00 0.000000e+00 0.000000e+00 9.103326e-01 8.966739e-02
 0.000000e+00 0.000000e+00 0.000000e+00 0.000000e+00 0.000000e+00
<ENDHMM>
~h "NG"
<BEGINHMM>
<NUMSTATES> 5
<STATE> 2
<MEAN> 25
 6.680125e+00 -1.120328e+00 1.374931e+00 -2.250611e+00 -3.798679e+00 3.315306e+00 -6.291653e-01 -3.115725e+00 -2.451154e+00 1.083619e+00 -1.285638e+00 -3.401276e+00 2.103094e-01 4.254952e-01 4.893258e-01 3.282134e-01 -3.683491e-01 -6.523114e-04 2.575910e-01 -5.350114e-01 -3.808593e-01 3.006333e-01 -2.631660e-01 2.330464e-01 -4.514880e-01
<VARIANCE> 25
 1.988831e+01 4.341097e+01 5.608622e+01 5.027266e+01 6.265491e+01 5.129628e+01 5.690968e+01 6.804652e+01 6.053157e+01 4.812078e+01 4.797405e+01 4.577388e+01 1.115945e+00 2.292774e+00 3.670532e+00 3.290093e+00 4.053178e+00 3.238676e+00 3.740527e+00 5.175685e+00 4.154883e+00 3.355796e+00 3.407879e+00 3.381342e+00 2.798028e+00
<GCONST> 1.077371e+02
<STATE> 3
<MEAN> 25
 6.881648e+00 -3.571675e-01 2.337101e+00 -1.622061e+00 -4.414968e+00 3.202826e+00 -8.275506e-02 -3.899573e+00 -3.075712e+00 1.504916e+00 -1.951059e+00 -2.722727e+00 -4.100741e-02 2.854561e-01 2.495406e-01 2.440624e-01 -4.207283e-02 -9.562483e-02 1.785369e-01 -1.376475e-01 -1.622739e-01 6.774096e-02 -2.026459e-01 2.190447e-01 -4.180734e-01
<VARIANCE> 25
 1.885828e+01 3.839778e+01 4.831983e+01 5.022517e+01 6.068336e+01 5.010217e+01 5.629381e+01 6.807384e+01 5.612755e+01 4.849200e+01 4.731181e+01 4.389534e+01 1.114912e+00 2.289300e+00 3.428772e+00 3.072556e+00 4.149295e+00 3.081501e+00 3.530372e+00 5.127607e+00 3.921503e+00 3.294684e+00 3.154581e+00 3.189459e+00 2.555824e+00
<GCONST> 1.066867e+02
<STATE> 4
<MEAN> 25
 6.447115e+00 2.353676e-01 2.621709e+00 -1.185098e+00 -3.880126e+00 3.133415e+00 1.016876e-01 -3.511829e+00 -3.160209e+00 1.219605e+00 -2.527508e+00 -2.425929e+00 -3.118534e-01 1.591348e-01 -1.050418e-01 1.894865e-01 3.957199e-01 -2.384405e-01 7.594592e-02 2.382649e-01 5.270295e-02 -1.333792e-01 -3.322357e-02 9.272467e-02 -4.342898e-01
<VARIANCE> 25
 2.157194e+01 4.253597e+01 4.797775e+01 5.264022e+01 6.700189e+01 4.913612e+01 5.616976e+01 6.584138e+01 5.487191e+01 4.832000e+01 4.603893e+01 4.235862e+01 1.238725e+00 2.284567e+00 2.902622e+00 2.781316e+00 3.995961e+00 2.956051e+00 3.176429e+00 4.402515e+00 3.463005e+00 3.064092e+00 2.840565e+00 2.699861e+00 2.583003e+00
<GCONST> 1.059603e+02
<TRANSP> 5
 0.000000e+00 1.000000e+00 0.000000e+00 0.000000e+00 0.000000e+00
 0.000000e+00 6.000733e-01 3.999267e-01 0.000000e+00 0.000000e+00
 0.000000e+00 0.000000e+00 6.056919e-01 3.943080e-01 0.000000e+00
 0.000000e+00 0.000000e+00 0.000000e+00 7.383647e-01 2.616353e-01
 0.000000e+00 0.000000e+00 0.000000e+00 0.000000e+00 0.000000e+00
<ENDHMM>
~h "NY"
<BEGINHMM>
<NUMSTATES> 5
<STATE> 2
<MEAN> 25
 3.790137e+00 -2.371733e+00 5.288981e+00 -1.821166e+00 -4.909964e+00 -2.034275e+00 -2.782464e-01 4.381700e+00 -3.253685e+00 -4.068797e+00 2.055023e-01 4.371262e-01 -6.596879e-03 -4.157895e-01 -3.176959e-01 1.686071e-01 2.119882e-01 1.312450e-03 1.786792e-01 5.014461e-01 1.544780e-01 -5.130013e-01 -2.325247e-01 9.084649e-02 6.097288e-02
<VARIANCE> 25
 2.066374e+01 5.936901e+01 4.783418e+01 4.370869e+01 5.247260e+01 3.498883e+01 4.261959e+01 7.738320e+01 5.323027e+01 4.397111e+01 4.101403e+01 3.316272e+01 1.298948e+00 4.115609e+00 3.396661e+00 3.123207e+00 3.524876e+00 2.629433e+00 2.864233e+00 6.492805e+00 3.780713e+00 2.867916e+00 3.095403e+00 2.192377e+00 2.541870e+00
<GCONST> 1.057132e+02
<STATE> 3
<MEAN> 25
 3.523863e+00 -3.549242e+00 3.654038e+00 -1.135035e+00 -3.298319e+00 -1.636538e+00 -2.286223e-02 5.341151e+00 -2.206575e+00 -5.203335e+00 -8.818425e-01 3.220263e-01 -4.791587e-02 -3.666005e-01 -5.240693e-01 1.834824e-01 4.911070e-01 1.266458e-01 2.279024e-02 2.610517e-01 3.692170e-01 -2.617912e-01 -3.447818e-01 -1.014791e-01 -1.234714e-01
<VARIANCE> 25
 2.064471e+01 5.946471e+01 4.786214e+01 4.135488e+01 6.039474e+01 3.394724e+01 4.184969e+01 7.248415e+01 5.267654e+01 4.364373e+01 4.168684e+01 3.249648e+01 1.089696e+00 3.238187e+00 2.710916e+00 2.700141e+00 3.131459e+00 2.214031e+00 2.452875e+00 5.244090e+00 3.108871e+00 2.541484e+00 2.696502e+00 1.937265e+00 2.369278e+00
<GCONST> 1.035700e+02
<STATE> 4
<MEAN> 25
 5.533481e-01 -2.853291e+00 -4.527952e-01 1.340462e+00 1.429196e+00 -8.272582e-01 1.210908e+00 4.215413e+00 -2.133893e-01 -4.406672e+00 -2.215461e+00 4.050482e-01 -1.225096e-01 4.374562e-02 -2.519603e-01 1.266332e-01 3.129489e-01 8.235152e-02 2.501473e-02 -7.882176e-02 1.696984e-01 9.940817e-02 -1.104882e-01 -6.988902e-02 -4.733126e-01
<VARIANCE> 25
 2.906561e+01 5.453285e+01 4.098853e+01 3.561068e+01 5.723792e+01 3.042991e+01 3.942813e+01 5.380543e+01 4.210472e+01 4.111652e+01 3.656969e+01 2.915808e+01 7.331487e-01 1.898400e+00 1.741066e+00 1.807287e+00 2.169141e+00 1.735466e+00 1.924255e+00 2.764802e+00 2.205314e+00 2.045094e+00 2.016868e+00 1.619279e+00 1.807521e+00
<GCONST> 9.790808e+01
<TRANSP> 5
 0.000000e+00 1.000000e+00 0.000000e+00 0.000000e+00 0.000000e+00
 0.000000e+00 6.894220e-01 3.105780e-01 0.000000e+00 0.000000e+00
 0.000000e+00 0.000000e+00 6.865649e-01 3.134351e-01 0.000000e+00
 0.000000e+00 0.000000e+00 0.000000e+00 8.856200e-01 1.143800e-01
 0.000000e+00 0.000000e+00 0.000000e+00 0.000000e+00 0.000000e+00
<ENDHMM>
~h "OI"
<BEGINHMM>
<NUMSTATES> 5
<STATE> 2
<MEAN> 25
 3.204686e+00 7.640066e-01 -5.334133e+00 -8.186213e+00 -3.700009e+00 5.722868e+00 -4.954660e-02 -2.081308e+00 -3.977071e-01 -6.692234e-01 3.041929e+00 6.090713e-01 9.686130e-01 -6.441729e-01 -4.904846e-01 -1.463508e+00 -3.899896e-01 5.910999e-01 -6.188704e-01 -1.279805e-02 2.491762e-01 8.188841e-01 4.091304e-01 -2.825884e-01 1.209630e+00
<VARIANCE> 25
 5.663961e+01 3.492755e+01 6.130416e+01 1.290543e+02 5.350129e+01 7.042778e+01 5.623178e+01 4.370113e+01 4.499723e+01 4.731096e+01 4.779850e+01 4.106815e+01 5.651888e+00 2.950786e+00 3.502631e+00 1.294012e+01 4.250907e+00 7.880205e+00 4.852197e+00 3.822097e+00 3.273686e+00 4.131607e+00 4.321814e+00 4.497736e+00 3.528800e+00
<GCONST> 1.136921e+02
<STATE> 3
<MEAN> 25
 3.980710e+00 -1.740659e+00 -5.509264e+00 -9.606687e+00 -3.595167e+00 5.792483e+00 -1.915780e+00 -1.853528e+00 5.559146e-01 2.297827e+00 3.377222e+00 -7.025268e-01 8.855429e-02 -8.246838e-01 4.093687e-01 2.069003e-01 -1.083010e-02 -7.339828e-01 -6.851192e-01 4.716882e-01 2.572716e-01 8.825029e-01 -3.628053e-02 -5.408735e-01 7.028486e-01
<VARIANCE> 25
 4.201468e+01 3.540448e+01 5.699318e+01 1.259118e+02 4.745559e+01 8.504536e+01 7.074483e+01 5.116389e+01 4.375849e+01 5.657958e+01 5.379282e+01 5.178544e+01 2.921304e+00 2.468355e+00 4.136461e+00 1.045152e+01 3.562109e+00 9.838409e+00 4.395286e+00 4.782821e+00 3.937435e+00 5.384215e+00 3.992678e+00 4.849005e+00 2.440020e+00
<GCONST> 1.136276e+02
<STATE> 4
<MEAN> 25
 2.132376e+00 -2.773360e+00 -3.316996e+00 -5.838863e+00 -2.624684e+00 1.817663e+00 -2.391017e+00 -6.029326e-02 3.955408e-01 3.749543e+00 2.628249e+00 -1.495223e+00 -3.136202e-01 -2.820563e-01 1.107599e+00 1.082102e+00 -3.959506e-01 -1.607931e+00 -3.275626e-01 8.121300e-01 -2.143429e-01 1.057755e-01 -1.907898e-01 -2.384824e-02 9.798374e-02
<VARIANCE> 25
 3.878103e+01 3.742845e+01 6.540152e+01 1.001178e+02 4.448949e+01 9.894417e+01 6.681946e+01 5.749449e+01 4.300160e+01 5.475965e+01 4.378357e+01 5.126826e+01 1.431402e+00 1.994464e+00 4.213796e+00 4.988471e+00 3.471625e+00 8.452929e+00 3.974597e+00 5.404323e+00 4.135623e+00 5.211056e+00 3.344892e+00 4.508716e+00 1.383248e+00
<GCONST> 1.107873e+02
<TRANSP> 5
 0.000000e+00 1.000000e+00 0.000000e+00 0.000000e+00 0.000000e+00
 0.000000e+00 6.599835e-01 3.400166e-01 0.000000e+00 0.000000e+00
 0.000000e+00 0.000000e+00 6.706374e-01 3.293627e-01 0.000000e+00
 0.000000e+00 0.000000e+00 0.000000e+00 7.847524e-01 2.152475e-01
 0.000000e+00 0.000000e+00 0.000000e+00 0.000000e+00 0.000000e+00
<ENDHMM>
~h "SY"
<BEGINHMM>
<NUMSTATES> 5
<STATE> 2
<MEAN> 25
 -1.165148e+01 3.851000e+00 3.102859e+00 3.342658e-01 3.045626e+00 -2.097020e+00 2.451086e+00 1.753059e+00 1.359893e-02 -6.796982e-01 5.336312e-01 3.204815e+00 -2.655882e+00 3.204471e-01 -4.179281e-02 -3.090472e-01 5.672481e-01 2.703440e-01 5.129744e-01 2.194363e-01 2.801286e-01 8.269193e-02 4.660003e-01 3.395918e-01 4.903362e-02
<VARIANCE> 25
 1.110048e+02 3.885464e+01 5.312403e+01 3.379232e+01 4.465237e+01 4.185851e+01 4.382721e+01 4.537691e+01 3.723550e+01 2.973938e+01 3.036482e+01 2.329317e+01 6.648847e+00 3.661294e+00 3.239359e+00 2.586984e+00 3.819568e+00 3.285485e+00 3.511061e+00 3.447477e+00 3.080554e+00 2.764097e+00 2.692379e+00 2.189942e+00 1.876962e+00
<GCONST> 1.053959e+02
<STATE> 3
<MEAN> 25
 -1.779523e+01 3.106048e+00 2.787758e+00 -1.394230e+00 3.099943e+00 -9.881147e-01 3.081791e+00 2.109663e+00 9.163079e-01 9.224455e-02 1.904558e+00 3.872532e+00 -6.846854e-01 -3.336191e-01 -6.350683e-02 -3.186427e-01 -2.505141e-01 8.195796e-02 2.146283e-02 6.905195e-02 1.793251e-01 1.068536e-01 2.283939e-01 9.347475e-02 2.448607e-01
<VARIANCE> 25
 8.560312e+01 3.433123e+01 4.701775e+01 3.217698e+01 4.435561e+01 4.245714e+01 3.988874e+01 3.857459e+01 3.341619e+01 2.829911e+01 2.704160e+01 2.121918e+01 9.407329e+00 2.171785e+00 2.395760e+00 2.032228e+00 3.154171e+00 2.788457e+00 2.763689e+00 2.555367e+00 2.446939e+00 2.264384e+00 2.187103e+00 1.793238e+00 1.425986e+00
<GCONST> 1.015005e+02
<STATE> 4
<MEAN> 25
 -1.417270e+01 9.592186e-01 2.294680e+00 -1.267791e+00 1.192283e+00 -1.081959e+00 2.392243e+00 2.215948e+00 1.410494e+00 5.423601e-01 2.450052e+00 3.412581e+00 1.228734e+00 -3.773536e-01 1.723922e-01 -3.073273e-02 -6.227276e-01 -2.958992e-01 -3.677152e-01 7.815013e-02 5.625723e-03 -1.271381e-01 -8.956114e-02 -1.910001e-01 5.674554e-01
<VARIANCE> 25
 1.189037e+02 3.477608e+01 4.934239e+01 3.306649e+01 5.487668e+01 4.153551e+01 3.972694e+01 3.361661e+01 3.422609e+01 2.752016e+01 2.633669e+01 2.149648e+01 8.784258e+00 2.098654e+00 2.577237e+00 1.941983e+00 3.162891e+00 2.789362e+00 2.969257e+00 2.734638e+00 2.755720e+00 2.195719e+00 2.164612e+00 1.867336e+00 1.931499e+00
<GCONST> 1.024384e+02
<TRANSP> 5
 0.000000e+00 1.000000e+00 0.000000e+00 0.000000e+00 0.000000e+00
 0.000000e+00 7.635123e-01 2.364877e-01 0.000000e+00 0.000000e+00
 0.000000e+00 0.000000e+00 7.737191e-01 2.262808e-01 0.000000e+00
 0.000000e+00 0.000000e+00 0.000000e+00 9.195495e-01 8.045053e-02
 0.000000e+00 0.000000e+00 0.000000e+00 0.000000e+00 0.000000e+00
<ENDHMM>
~h "sil"
<BEGINHMM>
<NUMSTATES> 5
<STATE> 2
<MEAN> 25
 -3.324746e+00 1.080225e+00 -2.111454e-01 3.199924e+00 2.961392e+00 3.520277e-01 3.395352e+00 8.840756e-01 -3.587532e-02 -4.810647e-01 4.648087e-01 2.326487e+00 -3.767362e-02 7.239755e-03 -1.354532e-02 -5.560492e-03 -1.183057e-02 -2.055611e-02 -7.822495e-04 -5.653845e-04 -3.044959e-04 -1.241274e-03 1.221697e-02 1.387960e-02 -5.306175e-02
<VARIANCE> 25
 3.932467e+01 3.981629e+01 4.276912e+01 4.995120e+01 4.480685e+01 3.929850e+01 4.537051e+01 4.509835e+01 3.793657e+01 3.164856e+01 3.135201e+01 3.137391e+01 1.111432e+00 1.623285e+00 1.631172e+00 2.234841e+00 2.090806e+00 2.220832e+00 2.133354e+00 2.866373e+00 2.326469e+00 2.236016e+00 2.041100e+00 1.918777e+00 1.908065e+00
<GCONST> 9.893909e+01
<STATE> 3
<MEAN> 25
 -5.816071e+00 1.603873e+00 -1.801108e+00 4.148531e+00 4.304426e+00 -1.015362e+00 4.848895e+00 1.468425e+00 1.924967e-01 -9.271029e-01 4.200358e-01 3.637399e+00 -4.285530e-02 5.282022e-02 -1.540878e-02 -1.298553e-02 8.231892e-03 -2.108572e-02 1.564213e-02 1.070045e-02 3.144968e-02 3.083533e-02 5.921095e-02 8.180053e-03 -1.097071e-01
<VARIANCE> 25
 1.234918e+01 2.821633e+01 1.874635e+01 2.486599e+01 2.081647e+01 2.691070e+01 2.640323e+01 3.590130e+01 2.852194e+01 2.548898e+01 2.325147e+01 2.241816e+01 5.279235e-01 1.000636e+00 9.077875e-01 1.516719e+00 1.344473e+00 1.707712e+00 1.627017e+00 2.255234e+00 1.866152e+00 1.904544e+00 1.593868e+00 1.671551e+00 6.787919e-01
<GCONST> 8.764599e+01
<STATE> 4
<MEAN> 25
 -5.089088e+00 2.286057e+00 -2.014930e+00 3.207979e+00 3.841591e+00 -4.547836e-01 4.310495e+00 7.459027e-01 8.353958e-01 -1.877428e-01 2.951427e-01 2.811328e+00 -7.282425e-03 1.698262e-02 7.307365e-03 7.532053e-04 8.797917e-03 1.738138e-02 8.028995e-03 -6.540111e-03 2.136058e-03 1.498771e-02 7.054433e-04 -7.755627e-03 -1.230815e-02
<VARIANCE> 25
 8.381837e+00 2.063340e+01 1.492569e+01 1.507224e+01 1.829964e+01 2.337679e+01 2.235811e+01 2.571763e+01 2.255449e+01 1.963621e+01 1.937697e+01 1.667010e+01 3.142931e-01 6.051134e-01 6.911509e-01 9.122487e-01 1.114740e+00 1.309202e+00 1.428197e+00 1.621843e+00 1.572490e+00 1.588521e+00 1.476254e+00 1.328360e+00 4.389636e-01
<GCONST> 8.066244e+01
<TRANSP> 5
 0.000000e+00 1.000000e+00 0.000000e+00 0.000000e+00 0.000000e+00
 0.000000e+00 9.604729e-01 3.952711e-02 0.000000e+00 0.000000e+00
 0.000000e+00 0.000000e+00 8.535095e-01 1.464904e-01 0.000000e+00
 0.000000e+00 0.000000e+00 0.000000e+00 9.830804e-01 1.691963e-02
 0.000000e+00 0.000000e+00 0.000000e+00 0.000000e+00 0.000000e+00
<ENDHMM>
