~o
<STREAMINFO> 1 25
<VECSIZE> 25<NULLD><MFCC_D_N_Z_0><DIAGC>
~h "A"
<BEGINHMM>
<NUMSTATES> 5
<STATE> 2
<MEAN> 25
 2.796648e-01 -5.153912e-01 -2.715249e-01 -1.988921e-01 1.988521e-01 1.063185e-01 -5.316264e-02 2.688422e-01 3.008912e-01 -5.602928e-02 -2.858311e-01 -3.302455e-01 1.494408e-03 9.062600e-04 -3.404667e-04 -1.478480e-03 3.426095e-03 2.884252e-03 6.464762e-04 -1.365071e-03 1.519654e-03 5.365892e-04 -4.623232e-03 -3.029006e-03 -2.641004e-04
<VARIANCE> 25
 6.209301e+01 5.893443e+01 6.599771e+01 5.620970e+01 6.322578e+01 5.600145e+01 5.673466e+01 6.107991e+01 5.513153e+01 3.752003e+01 4.287444e+01 3.965454e+01 2.561980e+00 2.844840e+00 2.756407e+00 2.991446e+00 3.347567e+00 3.086955e+00 3.234179e+00 3.940071e+00 3.427552e+00 2.779413e+00 2.902438e+00 2.498492e+00 5.073271e+00
<GCONST> 1.086021e+02
<STATE> 3
<MEAN> 25
 2.843437e-01 -5.123716e-01 -2.726728e-01 -2.037234e-01 2.110979e-01 1.160423e-01 -5.104395e-02 2.637717e-01 3.058071e-01 -5.424998e-02 -3.017543e-01 -3.396765e-01 4.929408e-04 2.407963e-03 4.871743e-04 -1.005289e-03 2.373810e-03 2.335967e-03 4.354175e-04 -1.844864e-03 4.688237e-04 7.668622e-04 -3.738696e-03 -1.916496e-03 -2.930387e-03
<VARIANCE> 25
 6.201813e+01 5.897971e+01 6.608439e+01 5.614158e+01 6.320608e+01 5.594719e+01 5.666114e+01 6.097178e+01 5.509635e+01 3.750957e+01 4.287741e+01 3.960605e+01 2.560678e+00 2.844580e+00 2.755944e+00 2.988004e+00 3.345117e+00 3.085026e+00 3.231578e+00 3.936884e+00 3.424160e+00 2.777503e+00 2.900319e+00 2.496147e+00 5.073940e+00
<GCONST> 1.085872e+02
<STATE> 4
<MEAN> 25
 3.100125e-01 -5.161381e-01 -2.617198e-01 -2.322921e-01 2.034262e-01 1.323524e-01 -8.455361e-02 2.417507e-01 3.008838e-01 -4.861895e-02 -3.154970e-01 -3.623914e-01 -4.159694e-04 3.199639e-03 9.983837e-04 -7.903641e-04 1.540620e-03 1.745946e-03 4.015877e-04 -2.100664e-03 -3.770625e-04 7.609564e-04 -2.876188e-03 -8.957142e-04 -4.327212e-03
<VARIANCE> 25
 6.187999e+01 5.877740e+01 6.616928e+01 5.595505e+01 6.293979e+01 5.540513e+01 5.636017e+01 5.973437e+01 5.438450e+01 3.708392e+01 4.251393e+01 3.928705e+01 2.499276e+00 2.786622e+00 2.704875e+00 2.927476e+00 3.271131e+00 3.027430e+00 3.167309e+00 3.839917e+00 3.345889e+00 2.726642e+00 2.847213e+00 2.451167e+00 4.946527e+00
<GCONST> 1.082248e+02
<TRANSP> 5
 0.000000e+00 1.000000e+00 0.000000e+00 0.000000e+00 0.000000e+00
 0.000000e+00 7.135897e-01 2.864103e-01 0.000000e+00 0.000000e+00
 0.000000e+00 0.000000e+00 7.135792e-01 2.864208e-01 0.000000e+00
 0.000000e+00 0.000000e+00 0.000000e+00 8.394877e-01 1.605123e-01
 0.000000e+00 0.000000e+00 0.000000e+00 0.000000e+00 0.000000e+00
<ENDHMM>
~h "B"
<BEGINHMM>
<NUMSTATES> 5
<STATE> 2
<MEAN> 25
 5.891277e-01 2.294321e-01 3.033217e-01 -1.721196e-01 -3.301638e-01 2.930312e-01 -4.541694e-01 -1.258049e-01 -1.744680e-01 8.620440e-03 2.357485e-01 -1.438512e-01 1.057345e-02 3.558232e-03 5.643839e-03 -5.999915e-03 -1.476146e-03 8.138151e-03 -4.468744e-03 -7.375026e-03 1.880751e-03 4.607188e-03 2.323809e-04 -8.077812e-03 1.639131e-02
<VARIANCE> 25
 6.563467e+01 5.824836e+01 6.716508e+01 5.823218e+01 6.465501e+01 5.837149e+01 5.831210e+01 6.248476e+01 5.774706e+01 3.761380e+01 4.349596e+01 3.917636e+01 2.505408e+00 2.874622e+00 2.801185e+00 3.135414e+00 3.445580e+00 3.187788e+00 3.389108e+00 3.907164e+00 3.613405e+00 2.839190e+00 2.991828e+00 2.533574e+00 5.089736e+00
<GCONST> 1.091360e+02
<STATE> 3
<MEAN> 25
 6.266289e-01 2.435641e-01 3.221510e-01 -1.946184e-01 -3.361528e-01 3.237592e-01 -4.706901e-01 -1.541575e-01 -1.686462e-01 2.738955e-02 2.347326e-01 -1.741921e-01 8.909006e-03 3.635447e-03 4.614501e-03 -5.309649e-03 -8.167526e-04 8.190644e-03 -3.340637e-03 -7.241745e-03 2.297573e-03 5.231966e-03 -4.799090e-04 -7.830517e-03 1.398403e-02
<VARIANCE> 25
 6.562495e+01 5.837185e+01 6.730260e+01 5.806538e+01 6.479239e+01 5.843835e+01 5.842788e+01 6.230443e+01 5.787569e+01 3.763477e+01 4.356221e+01 3.896883e+01 2.503320e+00 2.879353e+00 2.806233e+00 3.134299e+00 3.448352e+00 3.186847e+00 3.398669e+00 3.898896e+00 3.619948e+00 2.840041e+00 2.996151e+00 2.529735e+00 5.089081e+00
<GCONST> 1.091439e+02
<STATE> 4
<MEAN> 25
 7.088066e-01 2.374587e-01 3.633969e-01 -2.511995e-01 -3.854985e-01 3.585397e-01 -5.328975e-01 -1.828173e-01 -1.789266e-01 5.075696e-02 2.303266e-01 -2.325771e-01 7.489830e-03 3.123760e-03 3.657145e-03 -2.719901e-03 -9.278087e-04 6.054446e-03 -2.355418e-03 -5.001144e-03 1.692838e-03 4.111418e-03 -6.874233e-04 -5.813672e-03 1.178177e-02
<VARIANCE> 25
 6.550175e+01 5.846915e+01 6.757934e+01 5.798130e+01 6.487208e+01 5.822820e+01 5.865313e+01 6.120074e+01 5.745718e+01 3.739450e+01 4.344033e+01 3.857181e+01 2.445266e+00 2.837957e+00 2.767865e+00 3.088435e+00 3.391267e+00 3.133215e+00 3.354022e+00 3.809685e+00 3.559114e+00 2.803326e+00 2.957576e+00 2.489605e+00 4.982213e+00
<GCONST> 1.088866e+02
<TRANSP> 5
 0.000000e+00 1.000000e+00 0.000000e+00 0.000000e+00 0.000000e+00
 0.000000e+00 7.132047e-01 2.867953e-01 0.000000e+00 0.000000e+00
 0.000000e+00 0.000000e+00 7.131991e-01 2.868009e-01 0.000000e+00
 0.000000e+00 0.000000e+00 0.000000e+00 8.387432e-01 1.612568e-01
 0.000000e+00 0.000000e+00 0.000000e+00 0.000000e+00 0.000000e+00
<ENDHMM>
~h "C"
<BEGINHMM>
<NUMSTATES> 5
<STATE> 2
<MEAN> 25
 -2.237276e-01 -8.760948e-02 2.190257e-01 3.928949e-03 -3.287947e-01 -6.383591e-01 -1.122235e-01 2.027060e-01 -2.154011e-02 -9.537358e-02 7.619376e-03 9.196752e-02 -9.599721e-05 4.025972e-04 -8.677346e-03 -7.093654e-03 5.550218e-03 2.478063e-03 -4.159293e-04 2.557937e-03 5.000732e-03 2.598549e-03 -2.396597e-03 -2.792788e-03 4.801566e-03
<VARIANCE> 25
 6.565778e+01 5.687877e+01 6.410732e+01 5.259230e+01 6.321067e+01 5.539564e+01 5.793482e+01 6.271295e+01 5.405212e+01 3.755704e+01 4.143964e+01 3.728413e+01 3.401714e+00 2.977812e+00 2.924294e+00 3.046848e+00 3.608449e+00 3.193350e+00 3.435532e+00 4.055572e+00 3.494893e+00 2.844527e+00 2.888164e+00 2.487307e+00 5.749369e+00
<GCONST> 1.092118e+02
<STATE> 3
<MEAN> 25
 -2.244145e-01 -8.530294e-02 1.917245e-01 -2.047814e-02 -3.112637e-01 -6.276664e-01 -1.147288e-01 2.142581e-01 -7.346211e-03 -8.591967e-02 2.041000e-03 8.272246e-02 1.067887e-03 3.633273e-04 -9.509454e-03 -7.429691e-03 5.788170e-03 4.986306e-03 -1.164624e-03 3.222683e-03 4.532534e-03 1.993802e-03 -1.660853e-03 -3.564195e-03 5.246808e-03
<VARIANCE> 25
 6.563870e+01 5.684200e+01 6.389738e+01 5.246112e+01 6.295715e+01 5.538086e+01 5.806742e+01 6.243075e+01 5.400357e+01 3.756416e+01 4.150841e+01 3.719201e+01 3.429655e+00 2.979303e+00 2.930068e+00 3.046966e+00 3.608301e+00 3.202427e+00 3.446884e+00 4.045650e+00 3.497612e+00 2.842329e+00 2.890722e+00 2.484603e+00 5.789593e+00
<GCONST> 1.092181e+02
<STATE> 4
<MEAN> 25
 -2.015001e-01 -8.985109e-02 1.920680e-01 -5.813203e-02 -3.174834e-01 -5.947026e-01 -1.575009e-01 2.173416e-01 1.670371e-02 -5.935071e-02 9.228306e-03 3.611648e-02 3.009011e-03 -6.741108e-04 -8.390740e-03 -7.218699e-03 4.373981e-03 5.854553e-03 -2.187232e-03 4.152472e-03 3.347532e-03 7.872669e-04 -5.076982e-04 -3.984156e-03 7.621275e-03
<VARIANCE> 25
 6.541230e+01 5.668896e+01 6.396113e+01 5.232498e+01 6.273729e+01 5.505485e+01 5.830264e+01 6.122522e+01 5.361336e+01 3.722913e+01 4.158528e+01 3.690155e+01 3.384289e+00 2.933753e+00 2.901056e+00 2.997647e+00 3.545820e+00 3.169000e+00 3.406327e+00 3.957240e+00 3.446414e+00 2.796737e+00 2.852457e+00 2.448745e+00 5.708904e+00
<GCONST> 1.089736e+02
<TRANSP> 5
 0.000000e+00 1.000000e+00 0.000000e+00 0.000000e+00 0.000000e+00
 0.000000e+00 7.137511e-01 2.862490e-01 0.000000e+00 0.000000e+00
 0.000000e+00 0.000000e+00 7.137487e-01 2.862513e-01 0.000000e+00
 0.000000e+00 0.000000e+00 0.000000e+00 8.389069e-01 1.610931e-01
 0.000000e+00 0.000000e+00 0.000000e+00 0.000000e+00 0.000000e+00
<ENDHMM>
~h "D"
<BEGINHMM>
<NUMSTATES> 5
<STATE> 2
<MEAN> 25
 4.347844e-01 -1.495169e-01 7.622432e-01 1.224040e-01 -6.997893e-01 -3.452019e-01 -5.715031e-01 1.310200e-01 6.486904e-03 -1.182634e-01 -5.256106e-02 -1.213840e-01 9.761836e-03 3.724585e-04 1.141283e-02 -5.824433e-05 -6.624334e-03 -3.764189e-04 -5.479441e-03 -2.125432e-03 -2.763329e-04 -3.110500e-04 -2.764415e-03 -4.225173e-03 1.466047e-02
<VARIANCE> 25
 6.261753e+01 5.804410e+01 7.439006e+01 5.700452e+01 6.856489e+01 5.648970e+01 5.974615e+01 6.562300e+01 5.795149e+01 3.796293e+01 4.495565e+01 3.844972e+01 2.556019e+00 2.887094e+00 2.890924e+00 3.103191e+00 3.676218e+00 3.132236e+00 3.422624e+00 4.140580e+00 3.553909e+00 2.820109e+00 3.025446e+00 2.495100e+00 5.304073e+00
<GCONST> 1.094670e+02
<STATE> 3
<MEAN> 25
 4.691402e-01 -1.474388e-01 8.032760e-01 1.224375e-01 -7.230067e-01 -3.450604e-01 -5.905065e-01 1.236750e-01 5.425083e-03 -1.194124e-01 -6.165556e-02 -1.372947e-01 9.063249e-03 3.901887e-04 1.001054e-02 -3.235273e-04 -5.551854e-03 5.027853e-04 -4.558149e-03 -1.954065e-03 -1.309735e-04 -6.906135e-05 -2.685950e-03 -4.212214e-03 1.295726e-02
<VARIANCE> 25
 6.245716e+01 5.817017e+01 7.465362e+01 5.694670e+01 6.873347e+01 5.657056e+01 5.979253e+01 6.567516e+01 5.810147e+01 3.795610e+01 4.507507e+01 3.833884e+01 2.553958e+00 2.891438e+00 2.897160e+00 3.104484e+00 3.687030e+00 3.133855e+00 3.429510e+00 4.142814e+00 3.559488e+00 2.820627e+00 3.030241e+00 2.494390e+00 5.317161e+00
<GCONST> 1.094915e+02
<STATE> 4
<MEAN> 25
 5.303127e-01 -1.586878e-01 8.396243e-01 8.545462e-02 -7.588577e-01 -3.248320e-01 -6.455942e-01 1.030201e-01 -4.185489e-03 -1.059692e-01 -7.672550e-02 -1.782247e-01 8.439184e-03 4.033487e-04 8.628226e-03 3.946084e-05 -4.606417e-03 8.101007e-04 -3.755619e-03 -1.064655e-03 -4.557177e-04 -3.421475e-04 -2.344720e-03 -3.549637e-03 1.137814e-02
<VARIANCE> 25
 6.243654e+01 5.835355e+01 7.504285e+01 5.692796e+01 6.885493e+01 5.645876e+01 5.981953e+01 6.485303e+01 5.779542e+01 3.766957e+01 4.505502e+01 3.797324e+01 2.510302e+00 2.854958e+00 2.860846e+00 3.062876e+00 3.628001e+00 3.094868e+00 3.385585e+00 4.059690e+00 3.502687e+00 2.782178e+00 2.996189e+00 2.457510e+00 5.212889e+00
<GCONST> 1.092703e+02
<TRANSP> 5
 0.000000e+00 1.000000e+00 0.000000e+00 0.000000e+00 0.000000e+00
 0.000000e+00 7.125892e-01 2.874108e-01 0.000000e+00 0.000000e+00
 0.000000e+00 0.000000e+00 7.125862e-01 2.874139e-01 0.000000e+00
 0.000000e+00 0.000000e+00 0.000000e+00 8.375672e-01 1.624328e-01
 0.000000e+00 0.000000e+00 0.000000e+00 0.000000e+00 0.000000e+00
<ENDHMM>
~h "E"
<BEGINHMM>
<NUMSTATES> 5
<STATE> 2
<MEAN> 25
 -1.864900e-01 -3.840620e-01 6.295468e-01 9.066656e-02 -1.020215e+00 -8.268886e-01 4.797179e-01 6.131410e-01 -1.083335e-01 1.216882e-01 4.395218e-01 7.875674e-02 -4.186616e-03 3.993194e-03 4.653287e-03 4.243649e-03 9.299995e-04 -2.252612e-03 7.111123e-03 1.565488e-04 -5.596215e-04 -2.954811e-04 1.483805e-04 1.130252e-03 -6.908006e-03
<VARIANCE> 25
 6.216764e+01 5.842652e+01 7.000864e+01 5.410198e+01 7.595005e+01 5.780616e+01 5.798973e+01 6.332947e+01 5.204402e+01 3.760509e+01 4.407705e+01 3.615362e+01 2.461304e+00 2.693040e+00 2.541302e+00 2.738995e+00 3.486597e+00 2.951080e+00 3.173732e+00 3.861281e+00 3.167783e+00 2.703690e+00 2.741175e+00 2.237441e+00 5.225893e+00
<GCONST> 1.082164e+02
<STATE> 3
<MEAN> 25
 -2.010580e-01 -3.702491e-01 6.464207e-01 1.067209e-01 -1.016734e+00 -8.353061e-01 5.054897e-01 6.141188e-01 -1.112204e-01 1.202149e-01 4.411232e-01 8.232364e-02 -4.197634e-03 5.122477e-03 3.224061e-03 4.792517e-03 3.151747e-03 -1.367104e-03 6.485611e-03 -7.846046e-04 -8.135100e-04 -7.511699e-04 -4.213856e-04 1.542084e-03 -1.046538e-02
<VARIANCE> 25
 6.213467e+01 5.844701e+01 7.000285e+01 5.402417e+01 7.604172e+01 5.771140e+01 5.795412e+01 6.326778e+01 5.196312e+01 3.758202e+01 4.406577e+01 3.607887e+01 2.461297e+00 2.686754e+00 2.538107e+00 2.731210e+00 3.482165e+00 2.943948e+00 3.171287e+00 3.855598e+00 3.163530e+00 2.699972e+00 2.736939e+00 2.232836e+00 5.209214e+00
<GCONST> 1.081863e+02
<STATE> 4
<MEAN> 25
 -1.790371e-01 -3.552257e-01 6.724195e-01 1.132289e-01 -1.027624e+00 -8.354157e-01 5.124120e-01 5.961621e-01 -1.088802e-01 1.289843e-01 4.514667e-01 7.152052e-02 -4.117639e-03 5.613908e-03 1.902280e-03 5.097909e-03 4.593453e-03 -5.350458e-04 5.584506e-03 -1.231474e-03 -1.071064e-03 -1.024761e-03 -6.990329e-04 1.632408e-03 -1.275761e-02
<VARIANCE> 25
 6.170238e+01 5.847124e+01 7.025779e+01 5.401889e+01 7.598784e+01 5.738779e+01 5.761403e+01 6.194896e+01 5.131216e+01 3.713757e+01 4.374842e+01 3.566265e+01 2.395508e+00 2.633226e+00 2.491827e+00 2.677214e+00 3.405950e+00 2.889232e+00 3.110524e+00 3.749336e+00 3.089905e+00 2.646189e+00 2.682732e+00 2.191585e+00 5.084127e+00
<GCONST> 1.078262e+02
<TRANSP> 5
 0.000000e+00 1.000000e+00 0.000000e+00 0.000000e+00 0.000000e+00
 0.000000e+00 7.194699e-01 2.805301e-01 0.000000e+00 0.000000e+00
 0.000000e+00 0.000000e+00 7.194667e-01 2.805333e-01 0.000000e+00
 0.000000e+00 0.000000e+00 0.000000e+00 8.465141e-01 1.534860e-01
 0.000000e+00 0.000000e+00 0.000000e+00 0.000000e+00 0.000000e+00
<ENDHMM>
~h "F"
<BEGINHMM>
<NUMSTATES> 5
<STATE> 2
<MEAN> 25
 -8.249754e-01 -4.024955e-01 -1.468080e-01 -2.471179e-02 -1.492045e-01 -1.095951e-01 -3.870356e-02 6.713217e-02 5.158899e-02 1.133575e-01 3.594592e-01 1.682578e-01 3.026876e-03 3.310713e-03 2.795460e-03 -1.903316e-03 -1.476472e-03 3.412389e-03 4.865117e-03 -3.768762e-03 -1.677213e-03 1.242030e-03 -2.161201e-03 -2.417655e-03 -2.551958e-03
<VARIANCE> 25
 7.436121e+01 5.453041e+01 7.158047e+01 5.743586e+01 6.827859e+01 5.783205e+01 5.563805e+01 5.698523e+01 5.180433e+01 3.593884e+01 4.102298e+01 3.720212e+01 3.248355e+00 2.669363e+00 2.879376e+00 3.087628e+00 3.520270e+00 3.149809e+00 3.161102e+00 3.690945e+00 3.314651e+00 2.724766e+00 2.780550e+00 2.374941e+00 4.607019e+00
<GCONST> 1.086023e+02
<STATE> 3
<MEAN> 25
 -8.161957e-01 -3.896208e-01 -1.362770e-01 -2.996835e-02 -1.550506e-01 -9.766876e-02 -2.119357e-02 5.286279e-02 4.171097e-02 1.153127e-01 3.500724e-01 1.593239e-01 2.729555e-03 5.242788e-03 3.547863e-03 -7.600722e-04 -5.204928e-04 2.586583e-03 5.637526e-03 -4.125759e-03 -2.732298e-03 1.301388e-04 -3.040035e-03 -1.951173e-03 -6.460144e-03
<VARIANCE> 25
 7.411813e+01 5.457793e+01 7.178606e+01 5.742493e+01 6.827745e+01 5.777686e+01 5.563987e+01 5.694397e+01 5.176697e+01 3.590182e+01 4.107579e+01 3.719148e+01 3.248828e+00 2.668279e+00 2.877134e+00 3.084651e+00 3.515649e+00 3.144296e+00 3.161743e+00 3.684348e+00 3.315116e+00 2.723258e+00 2.781067e+00 2.377952e+00 4.593606e+00
<GCONST> 1.085916e+02
<STATE> 4
<MEAN> 25
 -7.314392e-01 -3.755774e-01 -1.001630e-01 -7.602005e-02 -2.099504e-01 -8.851704e-02 -3.906071e-02 7.174999e-03 4.776620e-02 1.158609e-01 3.302371e-01 1.089840e-01 1.302164e-03 6.898541e-03 4.107621e-03 1.306723e-03 9.945214e-05 1.315880e-03 5.304214e-03 -4.431864e-03 -3.740982e-03 -7.246058e-04 -3.449508e-03 -1.506939e-03 -9.749943e-03
<VARIANCE> 25
 7.356425e+01 5.472195e+01 7.203027e+01 5.760280e+01 6.808174e+01 5.723338e+01 5.565606e+01 5.622208e+01 5.135956e+01 3.557564e+01 4.079441e+01 3.676096e+01 3.166329e+00 2.625932e+00 2.830049e+00 3.023368e+00 3.437082e+00 3.085509e+00 3.115657e+00 3.603708e+00 3.256225e+00 2.680363e+00 2.734735e+00 2.340997e+00 4.474233e+00
<GCONST> 1.082837e+02
<TRANSP> 5
 0.000000e+00 1.000000e+00 0.000000e+00 0.000000e+00 0.000000e+00
 0.000000e+00 7.185361e-01 2.814640e-01 0.000000e+00 0.000000e+00
 0.000000e+00 0.000000e+00 7.185354e-01 2.814647e-01 0.000000e+00
 0.000000e+00 0.000000e+00 0.000000e+00 8.453702e-01 1.546298e-01
 0.000000e+00 0.000000e+00 0.000000e+00 0.000000e+00 0.000000e+00
<ENDHMM>
~h "G"
<BEGINHMM>
<NUMSTATES> 5
<STATE> 2
<MEAN> 25
 4.396548e-01 3.213327e-01 4.902076e-01 -4.603837e-02 -4.440445e-01 -3.025502e-02 -3.234008e-01 -1.706928e-01 -1.686638e-01 1.886491e-01 1.730388e-01 -2.219388e-01 3.900409e-03 1.904198e-03 5.310515e-03 -3.381082e-03 -4.109875e-03 1.240479e-03 -5.259388e-05 1.458938e-03 -2.401117e-03 3.161195e-03 -5.370876e-04 -4.656487e-03 1.061516e-02
<VARIANCE> 25
 6.103748e+01 5.725198e+01 7.249880e+01 5.857013e+01 6.642404e+01 5.764146e+01 5.893921e+01 6.214951e+01 5.717892e+01 3.869558e+01 4.355083e+01 3.897621e+01 2.445847e+00 2.793213e+00 2.876912e+00 3.130438e+00 3.665428e+00 3.226173e+00 3.389883e+00 3.896731e+00 3.558052e+00 2.838716e+00 2.951999e+00 2.501435e+00 5.003610e+00
<GCONST> 1.091475e+02
<STATE> 3
<MEAN> 25
 4.516748e-01 3.283868e-01 5.089931e-01 -5.838221e-02 -4.583113e-01 -2.620922e-02 -3.242015e-01 -1.660501e-01 -1.767175e-01 2.002946e-01 1.713871e-01 -2.376736e-01 2.476004e-03 1.286126e-03 3.234558e-03 -3.217386e-03 -2.915188e-03 1.495715e-03 9.154778e-04 2.057837e-03 -1.433709e-03 3.060912e-03 -5.346648e-04 -4.071782e-03 7.659364e-03
<VARIANCE> 25
 6.089652e+01 5.736448e+01 7.249639e+01 5.844608e+01 6.667656e+01 5.776739e+01 5.898423e+01 6.211876e+01 5.725123e+01 3.867733e+01 4.363259e+01 3.891489e+01 2.443142e+00 2.790555e+00 2.878510e+00 3.124740e+00 3.674600e+00 3.223176e+00 3.388570e+00 3.889196e+00 3.557014e+00 2.835380e+00 2.954014e+00 2.498477e+00 4.999120e+00
<GCONST> 1.091454e+02
<STATE> 4
<MEAN> 25
 4.801626e-01 3.332717e-01 5.237418e-01 -9.715651e-02 -4.846478e-01 -9.920426e-03 -3.471648e-01 -1.668917e-01 -1.850573e-01 2.208674e-01 1.650625e-01 -2.703019e-01 1.310879e-03 4.645387e-04 1.715262e-03 -2.759417e-03 -2.489969e-03 8.267044e-04 8.150007e-04 2.469681e-03 -8.404708e-04 2.430829e-03 -4.292101e-04 -3.070714e-03 5.816423e-03
<VARIANCE> 25
 6.096409e+01 5.744950e+01 7.258488e+01 5.840106e+01 6.679102e+01 5.752325e+01 5.906424e+01 6.113803e+01 5.679596e+01 3.827842e+01 4.345859e+01 3.865861e+01 2.395054e+00 2.742277e+00 2.831708e+00 3.065446e+00 3.609115e+00 3.163639e+00 3.329315e+00 3.796854e+00 3.489035e+00 2.787275e+00 2.915933e+00 2.460295e+00 4.882112e+00
<GCONST> 1.088628e+02
<TRANSP> 5
 0.000000e+00 1.000000e+00 0.000000e+00 0.000000e+00 0.000000e+00
 0.000000e+00 7.120736e-01 2.879264e-01 0.000000e+00 0.000000e+00
 0.000000e+00 0.000000e+00 7.120713e-01 2.879287e-01 0.000000e+00
 0.000000e+00 0.000000e+00 0.000000e+00 8.371904e-01 1.628096e-01
 0.000000e+00 0.000000e+00 0.000000e+00 0.000000e+00 0.000000e+00
<ENDHMM>
~h "H"
<BEGINHMM>
<NUMSTATES> 5
<STATE> 2
<MEAN> 25
 -1.690304e-02 -2.502772e-01 -2.743640e-01 -2.151943e-01 3.134167e-01 4.469950e-01 9.704074e-02 2.150494e-02 9.918610e-02 -5.933667e-02 1.355491e-03 4.004411e-02 -1.516432e-04 4.216046e-03 1.095524e-03 -1.703719e-03 4.330629e-03 3.868687e-03 -3.052874e-04 -4.384603e-03 -5.455333e-05 1.475485e-03 -2.768067e-03 -2.500209e-03 -2.338679e-03
<VARIANCE> 25
 6.160649e+01 5.667892e+01 6.767062e+01 5.722831e+01 6.695065e+01 5.708317e+01 5.951567e+01 5.982685e+01 5.355820e+01 3.741403e+01 4.192749e+01 3.805981e+01 2.503427e+00 2.661263e+00 2.695279e+00 3.010992e+00 3.432112e+00 3.068743e+00 3.278548e+00 3.776723e+00 3.341526e+00 2.738435e+00 2.822227e+00 2.424807e+00 4.618226e+00
<GCONST> 1.082989e+02
<STATE> 3
<MEAN> 25
 -1.672016e-02 -2.379010e-01 -2.711612e-01 -2.198425e-01 3.284539e-01 4.593947e-01 9.546366e-02 7.369285e-03 9.871159e-02 -5.598164e-02 -6.989657e-03 3.209028e-02 -5.442891e-04 4.331854e-03 1.672622e-03 -9.729083e-04 3.364796e-03 2.307468e-03 -6.371046e-04 -4.033140e-03 -7.405642e-04 1.176626e-03 -2.531414e-03 -2.429916e-03 -2.968398e-03
<VARIANCE> 25
 6.155407e+01 5.664085e+01 6.781926e+01 5.713208e+01 6.706416e+01 5.707232e+01 5.941037e+01 5.968830e+01 5.353258e+01 3.736162e+01 4.195722e+01 3.794725e+01 2.501321e+00 2.658228e+00 2.693166e+00 3.004667e+00 3.430362e+00 3.066463e+00 3.277117e+00 3.765739e+00 3.339021e+00 2.735013e+00 2.819876e+00 2.419766e+00 4.612887e+00
<GCONST> 1.082756e+02
<STATE> 4
<MEAN> 25
 -5.819901e-03 -2.496269e-01 -2.539105e-01 -2.486892e-01 3.238152e-01 4.708330e-01 6.650509e-02 -1.225866e-02 1.099745e-01 -5.028951e-02 -1.171073e-02 1.182774e-02 -5.263779e-04 3.834229e-03 2.226807e-03 -5.759369e-05 2.313869e-03 1.058325e-03 -4.917523e-04 -3.235024e-03 -1.232535e-03 7.398105e-04 -1.716135e-03 -2.219807e-03 -1.257618e-03
<VARIANCE> 25
 6.166675e+01 5.651648e+01 6.802603e+01 5.701447e+01 6.699765e+01 5.664119e+01 5.910331e+01 5.853448e+01 5.302393e+01 3.688725e+01 4.166472e+01 3.751986e+01 2.448894e+00 2.605235e+00 2.645902e+00 2.938900e+00 3.360394e+00 3.010351e+00 3.215499e+00 3.664322e+00 3.268592e+00 2.685781e+00 2.771566e+00 2.373944e+00 4.490337e+00
<GCONST> 1.079330e+02
<TRANSP> 5
 0.000000e+00 1.000000e+00 0.000000e+00 0.000000e+00 0.000000e+00
 0.000000e+00 7.147586e-01 2.852413e-01 0.000000e+00 0.000000e+00
 0.000000e+00 0.000000e+00 7.147543e-01 2.852457e-01 0.000000e+00
 0.000000e+00 0.000000e+00 0.000000e+00 8.408621e-01 1.591379e-01
 0.000000e+00 0.000000e+00 0.000000e+00 0.000000e+00 0.000000e+00
<ENDHMM>
~h "I"
<BEGINHMM>
<NUMSTATES> 5
<STATE> 2
<MEAN> 25
 -2.463529e-01 3.690615e-01 1.245788e+00 3.081873e-01 -7.336943e-01 -4.260722e-01 -1.201226e-01 -2.511023e-01 -5.708150e-01 -5.185572e-02 2.682013e-01 1.206881e-01 -1.534205e-03 3.535743e-03 1.169193e-03 3.636608e-03 -1.306129e-04 -2.834145e-03 3.901310e-03 -7.039513e-04 -3.327035e-03 -2.249721e-04 -2.710311e-03 -3.233789e-04 -1.091842e-02
<VARIANCE> 25
 6.294460e+01 5.507206e+01 8.158109e+01 5.404970e+01 7.093300e+01 5.514402e+01 5.888960e+01 6.111392e+01 5.781693e+01 3.693930e+01 4.261568e+01 3.703743e+01 2.606991e+00 2.656957e+00 3.050321e+00 2.928022e+00 3.621645e+00 3.098340e+00 3.347525e+00 3.864952e+00 3.487221e+00 2.744554e+00 2.873224e+00 2.382945e+00 4.803494e+00
<GCONST> 1.088349e+02
<STATE> 3
<MEAN> 25
 -2.517225e-01 3.812762e-01 1.248749e+00 3.218485e-01 -7.340922e-01 -4.351351e-01 -1.060581e-01 -2.533043e-01 -5.822088e-01 -5.241919e-02 2.585475e-01 1.192347e-01 -1.443847e-03 2.913911e-03 -1.901348e-03 3.407477e-03 1.166015e-03 -2.368709e-03 4.237617e-03 -2.304367e-04 -2.086017e-03 -1.073204e-04 -3.254460e-03 -4.238287e-04 -1.216408e-02
<VARIANCE> 25
 6.278246e+01 5.495942e+01 8.128555e+01 5.394341e+01 7.099553e+01 5.505076e+01 5.888247e+01 6.098903e+01 5.779949e+01 3.687731e+01 4.262217e+01 3.695474e+01 2.601412e+00 2.652903e+00 3.043773e+00 2.920099e+00 3.619498e+00 3.092470e+00 3.343618e+00 3.859917e+00 3.484274e+00 2.740858e+00 2.872810e+00 2.379321e+00 4.801367e+00
<GCONST> 1.087998e+02
<STATE> 4
<MEAN> 25
 -2.236073e-01 3.765792e-01 1.236128e+00 3.070521e-01 -7.393706e-01 -4.228757e-01 -1.215351e-01 -2.619260e-01 -5.823985e-01 -4.077316e-02 2.373614e-01 9.044252e-02 -1.334399e-03 2.215860e-03 -3.987891e-03 3.044941e-03 1.911628e-03 -1.594380e-03 4.219780e-03 1.302285e-04 -7.897920e-04 -5.907408e-05 -3.420327e-03 -8.726550e-04 -1.183485e-02
<VARIANCE> 25
 6.246202e+01 5.469278e+01 8.110702e+01 5.370184e+01 7.081167e+01 5.460818e+01 5.886189e+01 5.987532e+01 5.732154e+01 3.649730e+01 4.236775e+01 3.660284e+01 2.537530e+00 2.600501e+00 2.987481e+00 2.860477e+00 3.538292e+00 3.037985e+00 3.283495e+00 3.765709e+00 3.419283e+00 2.696431e+00 2.830979e+00 2.338162e+00 4.687910e+00
<GCONST> 1.084609e+02
<TRANSP> 5
 0.000000e+00 1.000000e+00 0.000000e+00 0.000000e+00 0.000000e+00
 0.000000e+00 7.138571e-01 2.861429e-01 0.000000e+00 0.000000e+00
 0.000000e+00 0.000000e+00 7.138530e-01 2.861470e-01 0.000000e+00
 0.000000e+00 0.000000e+00 0.000000e+00 8.397724e-01 1.602276e-01
 0.000000e+00 0.000000e+00 0.000000e+00 0.000000e+00 0.000000e+00
<ENDHMM>
~h "J"
<BEGINHMM>
<NUMSTATES> 5
<STATE> 2
<MEAN> 25
 1.589461e-01 3.752210e-01 7.560833e-01 1.543520e-01 -5.124323e-01 -5.811610e-01 -3.708801e-01 2.376896e-01 -6.514045e-02 -2.222034e-01 9.574038e-02 1.920812e-01 4.052404e-03 9.525383e-04 9.895116e-03 1.307453e-03 -4.374106e-03 -8.651075e-04 -4.030426e-03 1.616694e-03 5.816016e-04 -2.120263e-03 3.166263e-03 -3.618043e-03 1.087654e-02
<VARIANCE> 25
 6.107214e+01 5.972586e+01 7.102036e+01 5.511197e+01 6.409732e+01 5.608322e+01 5.914127e+01 6.289733e+01 5.551878e+01 3.752509e+01 4.320160e+01 3.801216e+01 3.034803e+00 3.019732e+00 2.921470e+00 3.001243e+00 3.774303e+00 3.230989e+00 3.507174e+00 4.066706e+00 3.533503e+00 2.796048e+00 2.955876e+00 2.557420e+00 5.147814e+00
<GCONST> 1.093722e+02
<STATE> 3
<MEAN> 25
 1.724850e-01 3.803990e-01 7.889270e-01 1.579616e-01 -5.271795e-01 -5.819061e-01 -3.859609e-01 2.418748e-01 -6.348728e-02 -2.289214e-01 1.062565e-01 1.801144e-01 2.715143e-03 1.061721e-03 8.185447e-03 1.422165e-03 -3.295511e-03 -1.680580e-04 -3.255894e-03 9.714288e-04 9.740301e-04 -1.918155e-03 3.121692e-03 -3.459675e-03 8.408007e-03
<VARIANCE> 25
 6.086773e+01 5.969696e+01 7.124911e+01 5.500665e+01 6.422304e+01 5.606514e+01 5.919002e+01 6.275885e+01 5.561802e+01 3.755395e+01 4.319633e+01 3.798653e+01 3.033843e+00 3.017840e+00 2.925322e+00 2.996778e+00 3.781190e+00 3.231717e+00 3.507026e+00 4.062605e+00 3.534506e+00 2.792790e+00 2.953148e+00 2.558234e+00 5.142637e+00
<GCONST> 1.093691e+02
<STATE> 4
<MEAN> 25
 2.230681e-01 3.563213e-01 8.049737e-01 1.168127e-01 -5.590001e-01 -5.485619e-01 -4.343342e-01 2.246606e-01 -5.650743e-02 -2.206117e-01 1.067371e-01 1.296464e-01 1.924397e-03 1.485739e-03 5.852147e-03 1.616386e-03 -2.151955e-03 1.050549e-03 -2.585438e-03 4.389838e-04 3.881499e-04 -1.713455e-03 2.669063e-03 -3.022891e-03 6.326485e-03
<VARIANCE> 25
 6.082249e+01 5.954025e+01 7.145776e+01 5.493701e+01 6.434412e+01 5.588065e+01 5.913843e+01 6.165503e+01 5.522707e+01 3.723491e+01 4.299363e+01 3.767975e+01 2.969614e+00 2.956167e+00 2.880346e+00 2.939802e+00 3.720647e+00 3.181129e+00 3.441701e+00 3.964588e+00 3.468729e+00 2.742967e+00 2.910141e+00 2.516325e+00 5.009210e+00
<GCONST> 1.090728e+02
<TRANSP> 5
 0.000000e+00 1.000000e+00 0.000000e+00 0.000000e+00 0.000000e+00
 0.000000e+00 7.123687e-01 2.876313e-01 0.000000e+00 0.000000e+00
 0.000000e+00 0.000000e+00 7.123662e-01 2.876339e-01 0.000000e+00
 0.000000e+00 0.000000e+00 0.000000e+00 8.375731e-01 1.624269e-01
 0.000000e+00 0.000000e+00 0.000000e+00 0.000000e+00 0.000000e+00
<ENDHMM>
~h "K"
<BEGINHMM>
<NUMSTATES> 5
<STATE> 2
<MEAN> 25
 2.801041e-02 -1.293568e-01 -1.746467e-01 -1.825499e-01 2.092697e-02 -1.100766e-01 -7.067262e-02 6.914760e-02 -8.535655e-02 1.214641e-01 -5.884060e-02 -8.285982e-02 5.567595e-03 -9.297361e-04 -2.653729e-03 -5.204995e-03 2.344147e-03 9.521433e-04 -2.164123e-03 -4.653094e-03 5.172844e-04 4.607940e-03 -4.152139e-03 -6.116569e-03 1.002298e-02
<VARIANCE> 25
 6.094219e+01 5.659623e+01 6.681899e+01 5.629418e+01 6.367989e+01 5.640923e+01 5.725458e+01 6.029916e+01 5.377844e+01 3.780468e+01 4.230234e+01 3.944167e+01 2.602649e+00 2.856694e+00 2.926846e+00 3.051434e+00 3.524853e+00 3.205850e+00 3.337730e+00 3.925295e+00 3.448538e+00 2.871364e+00 2.921376e+00 2.519179e+00 5.685728e+00
<GCONST> 1.089156e+02
<STATE> 3
<MEAN> 25
 4.777817e-02 -1.326936e-01 -1.839220e-01 -1.990812e-01 2.754343e-02 -1.091103e-01 -7.835025e-02 5.512785e-02 -8.505121e-02 1.361897e-01 -7.347288e-02 -1.018935e-01 5.750322e-03 -8.923199e-04 -2.712281e-03 -4.027802e-03 1.686468e-03 5.485310e-04 -1.873083e-03 -4.133157e-03 2.611925e-04 3.524668e-03 -3.981887e-03 -4.947538e-03 9.357588e-03
<VARIANCE> 25
 6.083456e+01 5.669920e+01 6.694289e+01 5.621447e+01 6.375639e+01 5.646997e+01 5.719218e+01 6.024368e+01 5.379253e+01 3.781618e+01 4.236626e+01 3.934358e+01 2.607579e+00 2.862969e+00 2.936501e+00 3.054476e+00 3.534418e+00 3.210647e+00 3.343108e+00 3.925521e+00 3.449281e+00 2.876409e+00 2.926597e+00 2.521760e+00 5.716586e+00
<GCONST> 1.089404e+02
<STATE> 4
<MEAN> 25
 9.543341e-02 -1.433152e-01 -1.713666e-01 -2.393600e-01 5.312044e-03 -1.046397e-01 -1.227897e-01 3.303634e-02 -8.414228e-02 1.535121e-01 -9.610967e-02 -1.368561e-01 5.355281e-03 -1.003837e-03 -2.328760e-03 -2.728013e-03 9.549394e-04 -2.767425e-05 -1.387275e-03 -2.782056e-03 9.905465e-05 2.338626e-03 -3.311455e-03 -3.378009e-03 8.866672e-03
<VARIANCE> 25
 6.070096e+01 5.661638e+01 6.710055e+01 5.613989e+01 6.361185e+01 5.616959e+01 5.706246e+01 5.929546e+01 5.329451e+01 3.748984e+01 4.214841e+01 3.901371e+01 2.556382e+00 2.816204e+00 2.901078e+00 3.005738e+00 3.472194e+00 3.165020e+00 3.294718e+00 3.841091e+00 3.387708e+00 2.834822e+00 2.886923e+00 2.486596e+00 5.607403e+00
<GCONST> 1.086680e+02
<TRANSP> 5
 0.000000e+00 1.000000e+00 0.000000e+00 0.000000e+00 0.000000e+00
 0.000000e+00 7.133768e-01 2.866232e-01 0.000000e+00 0.000000e+00
 0.000000e+00 0.000000e+00 7.133821e-01 2.866179e-01 0.000000e+00
 0.000000e+00 0.000000e+00 0.000000e+00 8.389755e-01 1.610244e-01
 0.000000e+00 0.000000e+00 0.000000e+00 0.000000e+00 0.000000e+00
<ENDHMM>
~h "L"
<BEGINHMM>
<NUMSTATES> 5
<STATE> 2
<MEAN> 25
 4.421825e-01 -2.867996e-01 -1.128803e-01 -5.559980e-01 -1.737155e-01 3.249625e-01 -4.361392e-01 -3.878992e-01 2.257189e-01 1.145655e-01 1.610694e-01 -1.626319e-01 -5.865241e-04 3.853656e-03 2.006620e-03 -2.102878e-03 1.346790e-03 4.431393e-03 -1.325428e-03 -4.159992e-03 -4.270040e-04 9.736975e-04 -1.338525e-03 -1.516945e-03 2.311862e-03
<VARIANCE> 25
 6.390115e+01 5.609011e+01 6.812148e+01 6.209847e+01 6.535394e+01 6.035485e+01 6.271172e+01 6.379805e+01 5.720776e+01 3.932327e+01 4.366240e+01 3.950820e+01 2.533391e+00 2.666606e+00 2.744390e+00 3.126304e+00 3.462214e+00 3.229250e+00 3.428261e+00 3.992164e+00 3.482922e+00 2.869700e+00 2.943172e+00 2.455998e+00 4.588780e+00
<GCONST> 1.091211e+02
<STATE> 3
<MEAN> 25
 4.393230e-01 -2.742665e-01 -1.055634e-01 -5.644828e-01 -1.697725e-01 3.404081e-01 -4.416121e-01 -4.015432e-01 2.245203e-01 1.178192e-01 1.567155e-01 -1.678574e-01 -1.736205e-03 4.553230e-03 2.328271e-03 -1.169122e-03 1.438610e-03 3.716076e-03 -9.388340e-04 -3.154580e-03 -1.264192e-03 5.543254e-04 -1.862210e-03 -1.102086e-03 -7.169668e-05
<VARIANCE> 25
 6.387002e+01 5.610897e+01 6.828815e+01 6.216865e+01 6.537296e+01 6.036767e+01 6.280879e+01 6.385272e+01 5.720561e+01 3.934368e+01 4.370638e+01 3.945803e+01 2.529885e+00 2.663276e+00 2.742697e+00 3.124436e+00 3.461233e+00 3.229269e+00 3.430013e+00 3.990534e+00 3.479850e+00 2.871146e+00 2.945476e+00 2.455887e+00 4.581039e+00
<GCONST> 1.091223e+02
<STATE> 4
<MEAN> 25
 4.587160e-01 -2.740767e-01 -8.102244e-02 -5.941243e-01 -1.860603e-01 3.508883e-01 -4.735253e-01 -4.270874e-01 2.145799e-01 1.245419e-01 1.439442e-01 -1.876171e-01 -2.546503e-03 4.781488e-03 2.734358e-03 -9.245500e-04 1.580238e-03 3.259184e-03 -4.596976e-04 -2.414317e-03 -1.641697e-03 5.859550e-04 -1.949922e-03 -9.738925e-04 -1.050335e-03
<VARIANCE> 25
 6.386485e+01 5.590257e+01 6.864138e+01 6.232666e+01 6.528851e+01 6.003761e+01 6.277011e+01 6.269368e+01 5.673313e+01 3.903791e+01 4.346581e+01 3.914066e+01 2.472841e+00 2.608951e+00 2.700742e+00 3.060287e+00 3.395536e+00 3.175086e+00 3.371243e+00 3.888361e+00 3.408772e+00 2.827705e+00 2.903793e+00 2.418017e+00 4.462979e+00
<GCONST> 1.088202e+02
<TRANSP> 5
 0.000000e+00 1.000000e+00 0.000000e+00 0.000000e+00 0.000000e+00
 0.000000e+00 7.130656e-01 2.869344e-01 0.000000e+00 0.000000e+00
 0.000000e+00 0.000000e+00 7.130650e-01 2.869351e-01 0.000000e+00
 0.000000e+00 0.000000e+00 0.000000e+00 8.388963e-01 1.611037e-01
 0.000000e+00 0.000000e+00 0.000000e+00 0.000000e+00 0.000000e+00
<ENDHMM>
~h "M"
<BEGINHMM>
<NUMSTATES> 5
<STATE> 2
<MEAN> 25
 4.945397e-01 -2.311020e-01 1.796131e-02 -1.021110e-01 -7.735841e-02 4.422600e-01 -1.259961e-01 -4.344299e-01 -3.133167e-01 -1.202825e-01 5.898562e-03 -1.579312e-01 1.448904e-02 4.556157e-04 3.843078e-03 -4.590987e-03 -4.200513e-03 1.031101e-02 -4.625778e-03 -1.056756e-02 -3.847731e-03 -4.923172e-04 -3.890682e-03 -8.265381e-03 2.067296e-02
<VARIANCE> 25
 6.308109e+01 5.505407e+01 6.528548e+01 5.838929e+01 6.432301e+01 5.869709e+01 5.828146e+01 6.449651e+01 5.828203e+01 3.811863e+01 4.331450e+01 3.918071e+01 2.409658e+00 2.652820e+00 2.784476e+00 3.172858e+00 3.320198e+00 3.103938e+00 3.253065e+00 4.065042e+00 3.618858e+00 2.769816e+00 2.977596e+00 2.452643e+00 4.574097e+00
<GCONST> 1.087186e+02
<STATE> 3
<MEAN> 25
 5.434425e-01 -2.312030e-01 3.193443e-02 -1.171317e-01 -9.228571e-02 4.777374e-01 -1.420386e-01 -4.698227e-01 -3.263672e-01 -1.215093e-01 -8.062302e-03 -1.862394e-01 1.300482e-02 6.849589e-04 4.043633e-03 -4.076727e-03 -4.428577e-03 9.257175e-03 -4.310234e-03 -9.343619e-03 -2.966980e-03 -4.879251e-05 -3.924344e-03 -7.887914e-03 1.921377e-02
<VARIANCE> 25
 6.293087e+01 5.506393e+01 6.540580e+01 5.835677e+01 6.443187e+01 5.877634e+01 5.822288e+01 6.453523e+01 5.845380e+01 3.815285e+01 4.338837e+01 3.907526e+01 2.405912e+00 2.652606e+00 2.791289e+00 3.179828e+00 3.321216e+00 3.106194e+00 3.254802e+00 4.069856e+00 3.629214e+00 2.771608e+00 2.983169e+00 2.452005e+00 4.570136e+00
<GCONST> 1.087332e+02
<STATE> 4
<MEAN> 25
 6.105632e-01 -2.592328e-01 6.485317e-02 -1.481178e-01 -1.316286e-01 4.841051e-01 -1.908284e-01 -4.843801e-01 -3.410198e-01 -1.235059e-01 -3.661819e-02 -2.324065e-01 1.128950e-02 3.343632e-04 4.336868e-03 -3.232956e-03 -4.744579e-03 7.433726e-03 -3.806295e-03 -7.114838e-03 -2.439579e-03 -1.810217e-04 -3.953785e-03 -7.006736e-03 1.766445e-02
<VARIANCE> 25
 6.271014e+01 5.494820e+01 6.566713e+01 5.806850e+01 6.434175e+01 5.843270e+01 5.789600e+01 6.335920e+01 5.810806e+01 3.782100e+01 4.318291e+01 3.864680e+01 2.348205e+00 2.602226e+00 2.750051e+00 3.118450e+00 3.258196e+00 3.056598e+00 3.198910e+00 3.971186e+00 3.568375e+00 2.731243e+00 2.940925e+00 2.409892e+00 4.455949e+00
<GCONST> 1.084214e+02
<TRANSP> 5
 0.000000e+00 1.000000e+00 0.000000e+00 0.000000e+00 0.000000e+00
 0.000000e+00 7.132131e-01 2.867868e-01 0.000000e+00 0.000000e+00
 0.000000e+00 0.000000e+00 7.132108e-01 2.867891e-01 0.000000e+00
 0.000000e+00 0.000000e+00 0.000000e+00 8.391463e-01 1.608537e-01
 0.000000e+00 0.000000e+00 0.000000e+00 0.000000e+00 0.000000e+00
<ENDHMM>
~h "N"
<BEGINHMM>
<NUMSTATES> 5
<STATE> 2
<MEAN> 25
 6.719382e-01 -2.180623e-01 4.180596e-01 1.422087e-01 -3.828102e-01 -1.948913e-02 -2.950297e-01 -2.919491e-01 -5.368083e-02 4.590556e-02 -4.243355e-01 -2.437187e-01 -2.290413e-03 3.630001e-03 -9.925998e-04 1.945480e-03 2.349992e-03 1.174252e-03 1.486410e-03 -3.364757e-03 -6.435963e-05 -1.364579e-03 -3.506561e-03 1.737445e-03 -5.540243e-03
<VARIANCE> 25
 6.108944e+01 5.729632e+01 6.779678e+01 5.659698e+01 6.495251e+01 5.596071e+01 5.779043e+01 6.516957e+01 5.546412e+01 3.860965e+01 4.495958e+01 3.878151e+01 2.481455e+00 2.825543e+00 2.875604e+00 3.113621e+00 3.437256e+00 3.158198e+00 3.342848e+00 4.296347e+00 3.497083e+00 2.894877e+00 2.987472e+00 2.470192e+00 4.926332e+00
<GCONST> 1.090221e+02
<STATE> 3
<MEAN> 25
 6.640092e-01 -2.051321e-01 4.134658e-01 1.481868e-01 -3.736857e-01 -1.533286e-02 -2.896916e-01 -3.031175e-01 -5.325666e-02 4.175964e-02 -4.361326e-01 -2.378320e-01 -3.719322e-03 3.989871e-03 -2.484527e-03 3.946068e-04 2.792782e-03 1.090655e-03 1.366406e-03 -2.565326e-03 -1.111338e-04 -1.396424e-03 -1.519431e-03 1.334018e-03 -6.420142e-03
<VARIANCE> 25
 6.116415e+01 5.729214e+01 6.763663e+01 5.647272e+01 6.498300e+01 5.587049e+01 5.780011e+01 6.512969e+01 5.539383e+01 3.860627e+01 4.494602e+01 3.872792e+01 2.484831e+00 2.826044e+00 2.872283e+00 3.108586e+00 3.436232e+00 3.156036e+00 3.340833e+00 4.294957e+00 3.495708e+00 2.895000e+00 2.985489e+00 2.467408e+00 4.923829e+00
<GCONST> 1.090083e+02
<STATE> 4
<MEAN> 25
 6.781457e-01 -2.034719e-01 4.154862e-01 1.274451e-01 -3.705502e-01 -2.331815e-03 -3.174747e-01 -3.102446e-01 -5.719678e-02 3.676148e-02 -4.478703e-01 -2.517257e-01 -4.403918e-03 4.175829e-03 -4.123382e-03 -1.487681e-03 2.868979e-03 9.531884e-04 8.744090e-04 -1.911002e-03 1.007671e-05 -1.053963e-03 1.334908e-04 5.426409e-04 -6.256656e-03
<VARIANCE> 25
 6.131112e+01 5.709522e+01 6.752463e+01 5.630482e+01 6.488494e+01 5.554792e+01 5.778301e+01 6.392377e+01 5.488743e+01 3.820927e+01 4.471157e+01 3.842903e+01 2.434075e+00 2.770687e+00 2.824304e+00 3.051451e+00 3.368828e+00 3.107425e+00 3.287236e+00 4.186345e+00 3.430331e+00 2.847757e+00 2.941051e+00 2.425306e+00 4.820288e+00
<GCONST> 1.087021e+02
<TRANSP> 5
 0.000000e+00 1.000000e+00 0.000000e+00 0.000000e+00 0.000000e+00
 0.000000e+00 7.111071e-01 2.888929e-01 0.000000e+00 0.000000e+00
 0.000000e+00 0.000000e+00 7.110994e-01 2.889005e-01 0.000000e+00
 0.000000e+00 0.000000e+00 0.000000e+00 8.362985e-01 1.637015e-01
 0.000000e+00 0.000000e+00 0.000000e+00 0.000000e+00 0.000000e+00
<ENDHMM>
~h "O"
<BEGINHMM>
<NUMSTATES> 5
<STATE> 2
<MEAN> 25
 6.364734e-01 1.282933e-01 -6.094498e-01 -1.149376e+00 -2.567300e-01 8.644162e-01 -2.805616e-01 -3.761634e-01 2.377038e-02 2.563302e-01 4.974534e-01 4.184797e-02 -1.548082e-03 5.049461e-03 -2.068143e-03 -2.987186e-03 2.285551e-03 7.330240e-03 4.515149e-03 -4.112379e-03 -1.089428e-03 1.348452e-03 3.749893e-03 -3.042707e-04 -6.260057e-03
<VARIANCE> 25
 6.789419e+01 5.278990e+01 6.951403e+01 7.213467e+01 6.560323e+01 6.400421e+01 6.077822e+01 5.965444e+01 5.405212e+01 3.958017e+01 4.542847e+01 3.800546e+01 2.677229e+00 2.606620e+00 2.931431e+00 3.491171e+00 3.542017e+00 3.378475e+00 3.346668e+00 3.848503e+00 3.448654e+00 2.890761e+00 2.978409e+00 2.438971e+00 4.982258e+00
<GCONST> 1.095065e+02
<STATE> 3
<MEAN> 25
 6.301564e-01 1.463635e-01 -6.149427e-01 -1.159566e+00 -2.483776e-01 8.900794e-01 -2.660522e-01 -3.903587e-01 2.007129e-02 2.603863e-01 5.107604e-01 4.218171e-02 -3.793022e-03 5.323493e-03 -3.462149e-04 -1.283474e-04 2.653630e-03 4.946002e-03 4.673062e-03 -3.506832e-03 -1.286597e-03 6.923823e-04 2.803263e-03 1.758435e-04 -9.377696e-03
<VARIANCE> 25
 6.790011e+01 5.262444e+01 6.964636e+01 7.220486e+01 6.560921e+01 6.396917e+01 6.078563e+01 5.953107e+01 5.394403e+01 3.959302e+01 4.545428e+01 3.790000e+01 2.671580e+00 2.596070e+00 2.930207e+00 3.488791e+00 3.536061e+00 3.373117e+00 3.343058e+00 3.835261e+00 3.444507e+00 2.885724e+00 2.976472e+00 2.434331e+00 4.964618e+00
<GCONST> 1.094759e+02
<STATE> 4
<MEAN> 25
 6.593791e-01 1.606855e-01 -5.731322e-01 -1.175931e+00 -2.754106e-01 9.071960e-01 -2.818410e-01 -4.156373e-01 1.810331e-02 2.605759e-01 5.024869e-01 3.711498e-02 -5.654938e-03 5.221873e-03 1.406749e-03 1.991290e-03 2.933807e-03 2.876228e-03 4.659825e-03 -3.060620e-03 -1.255684e-03 2.211480e-04 1.615455e-03 8.365742e-04 -1.151162e-02
<VARIANCE> 25
 6.797762e+01 5.229863e+01 6.970184e+01 7.258282e+01 6.535111e+01 6.352992e+01 6.074018e+01 5.859457e+01 5.341074e+01 3.923745e+01 4.511219e+01 3.757045e+01 2.607326e+00 2.539725e+00 2.879661e+00 3.428770e+00 3.458768e+00 3.308384e+00 3.283220e+00 3.741343e+00 3.377694e+00 2.832469e+00 2.927345e+00 2.394759e+00 4.823861e+00
<GCONST> 1.091488e+02
<TRANSP> 5
 0.000000e+00 1.000000e+00 0.000000e+00 0.000000e+00 0.000000e+00
 0.000000e+00 7.148313e-01 2.851687e-01 0.000000e+00 0.000000e+00
 0.000000e+00 0.000000e+00 7.148300e-01 2.851700e-01 0.000000e+00
 0.000000e+00 0.000000e+00 0.000000e+00 8.407518e-01 1.592482e-01
 0.000000e+00 0.000000e+00 0.000000e+00 0.000000e+00 0.000000e+00
<ENDHMM>
~h "P"
<BEGINHMM>
<NUMSTATES> 5
<STATE> 2
<MEAN> 25
 6.015807e-02 4.389681e-03 -3.769279e-01 -1.612664e-01 6.877403e-02 4.137001e-02 5.487186e-02 1.272847e-03 2.682209e-02 5.693698e-02 1.344994e-01 -4.722297e-02 6.101980e-03 -4.431463e-04 -9.138499e-05 -5.480079e-03 -1.579208e-03 7.152306e-03 1.201757e-03 -3.686092e-03 4.896683e-04 7.764199e-04 -8.795342e-04 -5.260978e-03 1.179690e-02
<VARIANCE> 25
 6.323995e+01 5.640973e+01 6.464281e+01 5.784755e+01 6.323661e+01 5.671191e+01 5.624863e+01 5.883059e+01 5.304759e+01 3.632567e+01 4.152774e+01 3.908948e+01 2.621453e+00 2.840590e+00 2.740928e+00 3.170379e+00 3.418363e+00 3.245646e+00 3.251609e+00 3.821623e+00 3.374665e+00 2.779971e+00 2.911299e+00 2.484177e+00 6.001290e+00
<GCONST> 1.087039e+02
<STATE> 3
<MEAN> 25
 8.102898e-02 2.045683e-03 -3.771786e-01 -1.785014e-01 6.253807e-02 6.287996e-02 6.090461e-02 -9.271966e-03 2.940780e-02 5.981714e-02 1.313235e-01 -6.393208e-02 6.028572e-03 -2.833237e-04 3.117749e-04 -4.807444e-03 -1.999871e-03 6.099064e-03 1.642783e-03 -2.923112e-03 6.045527e-04 8.787019e-04 -1.188288e-03 -4.778477e-03 1.157003e-02
<VARIANCE> 25
 6.324181e+01 5.645636e+01 6.473565e+01 5.785194e+01 6.328648e+01 5.679744e+01 5.620766e+01 5.883849e+01 5.302367e+01 3.636352e+01 4.161674e+01 3.904455e+01 2.629125e+00 2.846465e+00 2.744589e+00 3.180389e+00 3.422543e+00 3.253913e+00 3.253429e+00 3.822597e+00 3.373664e+00 2.783051e+00 2.917260e+00 2.488131e+00 6.038811e+00
<GCONST> 1.087343e+02
<STATE> 4
<MEAN> 25
 1.064222e-01 -5.221849e-03 -3.681283e-01 -1.860420e-01 5.707097e-02 6.913801e-02 8.291210e-02 -1.424189e-02 4.033651e-02 6.356716e-02 1.169825e-01 -7.655939e-02 5.405051e-03 -8.131727e-05 1.198832e-03 -3.128483e-03 -2.254599e-03 3.961690e-03 1.827412e-03 -2.022631e-03 7.738463e-04 9.326228e-04 -1.306099e-03 -3.366964e-03 1.015432e-02
<VARIANCE> 25
 6.298426e+01 5.625294e+01 6.456617e+01 5.789649e+01 6.326183e+01 5.657481e+01 5.607932e+01 5.791926e+01 5.235978e+01 3.599527e+01 4.138097e+01 3.883852e+01 2.564770e+00 2.789376e+00 2.696094e+00 3.128466e+00 3.354950e+00 3.201434e+00 3.187712e+00 3.740650e+00 3.301138e+00 2.739420e+00 2.871674e+00 2.451847e+00 5.898799e+00
<GCONST> 1.084196e+02
<TRANSP> 5
 0.000000e+00 1.000000e+00 0.000000e+00 0.000000e+00 0.000000e+00
 0.000000e+00 7.124370e-01 2.875630e-01 0.000000e+00 0.000000e+00
 0.000000e+00 0.000000e+00 7.124383e-01 2.875616e-01 0.000000e+00
 0.000000e+00 0.000000e+00 0.000000e+00 8.381339e-01 1.618661e-01
 0.000000e+00 0.000000e+00 0.000000e+00 0.000000e+00 0.000000e+00
<ENDHMM>
~h "Q"
<BEGINHMM>
<NUMSTATES> 5
<STATE> 2
<MEAN> 25
 -1.094790e+00 6.276814e-01 -8.220178e-01 -3.778787e-01 4.238040e-01 1.152011e-01 7.754093e-01 -5.392621e-01 2.545963e-01 1.797771e-01 4.031474e-01 1.825820e-01 -2.465087e-03 3.040856e-02 -8.176696e-03 -8.013734e-03 2.232802e-02 1.791148e-02 1.485971e-02 3.523945e-03 -3.792786e-03 -1.292697e-02 -8.321626e-03 6.974111e-03 -9.321459e-02
<VARIANCE> 25
 6.066904e+01 5.375076e+01 7.117478e+01 6.491950e+01 6.594567e+01 5.204124e+01 5.463342e+01 4.861540e+01 5.392338e+01 3.478202e+01 3.956894e+01 3.473320e+01 2.315572e+00 2.526135e+00 2.703431e+00 2.781490e+00 3.242343e+00 2.952100e+00 2.919850e+00 3.236980e+00 3.028140e+00 2.653664e+00 2.602057e+00 2.152854e+00 4.823752e+00
<GCONST> 1.069323e+02
<STATE> 3
<MEAN> 25
 -1.104435e+00 7.410361e-01 -8.527589e-01 -4.109130e-01 5.107740e-01 1.833271e-01 8.393830e-01 -5.172215e-01 2.419631e-01 1.331743e-01 3.723595e-01 2.117697e-01 -6.938582e-03 3.005197e-02 -2.789304e-03 -1.549651e-03 2.013636e-02 1.145982e-02 1.606276e-02 1.021636e-02 -3.265664e-03 -1.215265e-02 -7.025773e-03 8.942340e-03 -9.337948e-02
<VARIANCE> 25
 6.014083e+01 5.334902e+01 6.969128e+01 6.503350e+01 6.466464e+01 5.113663e+01 5.423162e+01 4.803672e+01 5.281969e+01 3.462117e+01 3.915214e+01 3.432610e+01 2.281792e+00 2.461638e+00 2.658484e+00 2.783261e+00 3.187097e+00 2.904878e+00 2.864582e+00 3.191915e+00 2.985218e+00 2.613965e+00 2.568610e+00 2.110612e+00 4.693451e+00
<GCONST> 1.065799e+02
<STATE> 4
<MEAN> 25
 -1.092791e+00 8.275304e-01 -7.995967e-01 -4.478438e-01 5.026121e-01 3.200760e-01 9.452027e-01 -5.943211e-01 2.489613e-01 -6.841256e-04 4.050592e-01 2.994476e-01 -6.479465e-03 2.492778e-02 1.783904e-03 4.802275e-03 1.577208e-02 5.887326e-03 1.844897e-02 1.930176e-02 -4.212841e-03 -1.243146e-02 -5.924494e-04 1.080587e-02 -8.468288e-02
<VARIANCE> 25
 5.739363e+01 5.091932e+01 6.672180e+01 6.710249e+01 6.103136e+01 4.895865e+01 5.279279e+01 4.709765e+01 5.101437e+01 3.418901e+01 3.776934e+01 3.379824e+01 2.105188e+00 2.290516e+00 2.526206e+00 2.727726e+00 2.998332e+00 2.751823e+00 2.688243e+00 3.075352e+00 2.896875e+00 2.519379e+00 2.454841e+00 2.018154e+00 4.290287e+00
<GCONST> 1.055410e+02
<TRANSP> 5
 0.000000e+00 1.000000e+00 0.000000e+00 0.000000e+00 0.000000e+00
 0.000000e+00 7.332245e-01 2.667755e-01 0.000000e+00 0.000000e+00
 0.000000e+00 0.000000e+00 7.332255e-01 2.667744e-01 0.000000e+00
 0.000000e+00 0.000000e+00 0.000000e+00 8.664096e-01 1.335904e-01
 0.000000e+00 0.000000e+00 0.000000e+00 0.000000e+00 0.000000e+00
<ENDHMM>
~h "R"
<BEGINHMM>
<NUMSTATES> 5
<STATE> 2
<MEAN> 25
 4.238891e-01 -4.793321e-01 -2.232188e-01 -1.056626e-01 -1.909832e-01 -3.039249e-02 -3.042500e-01 1.306133e-01 2.697710e-01 1.160941e-01 4.541440e-02 -2.189335e-01 -1.335483e-04 3.661208e-03 -9.191250e-05 1.025343e-03 1.673407e-03 6.491476e-04 1.875984e-03 -9.914384e-04 -9.175772e-04 3.406804e-04 2.368044e-04 -1.238691e-03 -7.592517e-05
<VARIANCE> 25
 6.434807e+01 5.825860e+01 6.934066e+01 5.665871e+01 6.683604e+01 5.746656e+01 5.917345e+01 6.172955e+01 5.662182e+01 3.767038e+01 4.362968e+01 3.886361e+01 2.649170e+00 2.770629e+00 2.804772e+00 3.092729e+00 3.506571e+00 3.188542e+00 3.348376e+00 3.893016e+00 3.518025e+00 2.824999e+00 2.942115e+00 2.492355e+00 5.122204e+00
<GCONST> 1.090678e+02
<STATE> 3
<MEAN> 25
 4.228277e-01 -4.668724e-01 -2.234214e-01 -1.019588e-01 -1.838582e-01 -2.865628e-02 -2.975965e-01 1.267730e-01 2.660655e-01 1.171649e-01 4.591184e-02 -2.231015e-01 -1.740433e-03 5.070905e-03 2.971200e-05 1.221973e-03 2.482663e-03 2.691572e-04 2.649871e-03 -1.226178e-03 -1.488696e-03 2.697910e-04 2.187467e-05 -5.799563e-04 -3.420472e-03
<VARIANCE> 25
 6.447485e+01 5.829054e+01 6.949532e+01 5.653232e+01 6.689731e+01 5.745407e+01 5.919781e+01 6.165757e+01 5.665340e+01 3.761885e+01 4.364470e+01 3.882404e+01 2.648636e+00 2.767335e+00 2.803306e+00 3.088614e+00 3.503163e+00 3.184129e+00 3.347586e+00 3.885521e+00 3.517081e+00 2.821085e+00 2.939547e+00 2.488692e+00 5.115666e+00
<GCONST> 1.090558e+02
<STATE> 4
<MEAN> 25
 4.465070e-01 -4.623453e-01 -1.993137e-01 -1.211706e-01 -1.957678e-01 -2.309524e-02 -3.206134e-01 1.135992e-01 2.553086e-01 1.137510e-01 4.310825e-02 -2.391231e-01 -3.145105e-03 5.816669e-03 2.514236e-06 1.384361e-03 3.370728e-03 -1.037588e-04 3.508871e-03 -1.294153e-03 -2.014308e-03 1.591626e-04 -1.566684e-04 -2.089643e-05 -6.868002e-03
<VARIANCE> 25
 6.460820e+01 5.829203e+01 6.976968e+01 5.652031e+01 6.690844e+01 5.717583e+01 5.922864e+01 6.081376e+01 5.626035e+01 3.721679e+01 4.336415e+01 3.855794e+01 2.588829e+00 2.716073e+00 2.759138e+00 3.035723e+00 3.434543e+00 3.127250e+00 3.293608e+00 3.798774e+00 3.454044e+00 2.771025e+00 2.890028e+00 2.445489e+00 4.991018e+00
<GCONST> 1.087661e+02
<TRANSP> 5
 0.000000e+00 1.000000e+00 0.000000e+00 0.000000e+00 0.000000e+00
 0.000000e+00 7.126789e-01 2.873211e-01 0.000000e+00 0.000000e+00
 0.000000e+00 0.000000e+00 7.126766e-01 2.873235e-01 0.000000e+00
 0.000000e+00 0.000000e+00 0.000000e+00 8.379409e-01 1.620591e-01
 0.000000e+00 0.000000e+00 0.000000e+00 0.000000e+00 0.000000e+00
<ENDHMM>
~h "S"
<BEGINHMM>
<NUMSTATES> 5
<STATE> 2
<MEAN> 25
 -1.168657e+00 2.499678e-01 -2.929130e-01 7.784635e-02 3.860550e-01 -3.848672e-01 2.145493e-01 3.099604e-01 1.254445e-01 3.656621e-02 9.939929e-02 2.358168e-01 -2.492904e-03 4.312058e-03 9.753114e-04 -2.570389e-03 4.668747e-03 2.717812e-03 -3.683241e-04 -2.415068e-03 2.648483e-03 1.159770e-03 -1.412013e-03 -3.438415e-03 3.409854e-03
<VARIANCE> 25
 8.523340e+01 5.757518e+01 6.793818e+01 5.455514e+01 6.618068e+01 5.515113e+01 6.117146e+01 5.982812e+01 5.336243e+01 3.601488e+01 4.118086e+01 3.845867e+01 3.650159e+00 2.884535e+00 2.819389e+00 2.946440e+00 3.444763e+00 3.082539e+00 3.411882e+00 3.883464e+00 3.350978e+00 2.725300e+00 2.822498e+00 2.463818e+00 4.534656e+00
<GCONST> 1.090802e+02
<STATE> 3
<MEAN> 25
 -1.176495e+00 2.641661e-01 -2.907460e-01 6.917919e-02 4.017306e-01 -3.745456e-01 2.121280e-01 3.015940e-01 1.352700e-01 4.056130e-02 9.355289e-02 2.235368e-01 -2.392937e-05 3.803844e-03 6.060896e-04 -2.250782e-03 3.863561e-03 3.444680e-03 -6.197447e-04 -2.907692e-03 2.284771e-03 1.145863e-03 -1.828235e-03 -3.645288e-03 4.267353e-04
<VARIANCE> 25
 8.524739e+01 5.760791e+01 6.801047e+01 5.439126e+01 6.620489e+01 5.511040e+01 6.114214e+01 5.972288e+01 5.333945e+01 3.596293e+01 4.115170e+01 3.833118e+01 3.666812e+00 2.886502e+00 2.818987e+00 2.940202e+00 3.444390e+00 3.079136e+00 3.415315e+00 3.875302e+00 3.348906e+00 2.719201e+00 2.820034e+00 2.459915e+00 4.531592e+00
<GCONST> 1.090651e+02
<STATE> 4
<MEAN> 25
 -1.132272e+00 2.736726e-01 -2.855973e-01 5.805269e-02 3.909480e-01 -3.442161e-01 2.007392e-01 2.700172e-01 1.568766e-01 4.266937e-02 9.424685e-02 1.998875e-01 1.851508e-03 2.713332e-03 -7.266540e-05 -1.525185e-03 2.789474e-03 3.518447e-03 -7.139124e-04 -2.418414e-03 1.666711e-03 5.816968e-04 -2.050421e-03 -2.996524e-03 -1.272516e-03
<VARIANCE> 25
 8.440750e+01 5.729610e+01 6.783955e+01 5.428221e+01 6.577048e+01 5.455514e+01 6.091077e+01 5.852049e+01 5.276375e+01 3.551849e+01 4.076280e+01 3.784759e+01 3.568596e+00 2.824789e+00 2.761480e+00 2.881252e+00 3.363624e+00 3.020659e+00 3.342594e+00 3.778086e+00 3.278495e+00 2.666815e+00 2.767729e+00 2.413139e+00 4.403127e+00
<GCONST> 1.086722e+02
<TRANSP> 5
 0.000000e+00 1.000000e+00 0.000000e+00 0.000000e+00 0.000000e+00
 0.000000e+00 7.143905e-01 2.856095e-01 0.000000e+00 0.000000e+00
 0.000000e+00 0.000000e+00 7.143988e-01 2.856012e-01 0.000000e+00
 0.000000e+00 0.000000e+00 0.000000e+00 8.403488e-01 1.596512e-01
 0.000000e+00 0.000000e+00 0.000000e+00 0.000000e+00 0.000000e+00
<ENDHMM>
~h "T"
<BEGINHMM>
<NUMSTATES> 5
<STATE> 2
<MEAN> 25
 1.707557e-01 -4.661967e-02 -2.820021e-01 -3.185599e-01 -2.607865e-02 -1.557665e-01 -1.866512e-01 -9.572735e-02 9.722903e-02 1.364920e-01 -1.127223e-01 -2.113639e-01 2.232502e-05 4.422223e-03 7.044402e-04 -1.071062e-03 1.825386e-03 2.509023e-03 3.808511e-04 -4.284285e-03 1.725899e-03 1.935808e-03 -6.965842e-04 -1.039608e-03 -5.302316e-03
<VARIANCE> 25
 6.156456e+01 5.711435e+01 6.696458e+01 5.730397e+01 6.286672e+01 5.673773e+01 5.807300e+01 5.944486e+01 5.484209e+01 3.697569e+01 4.266032e+01 3.839128e+01 2.742000e+00 2.901992e+00 2.828820e+00 3.111428e+00 3.446042e+00 3.241285e+00 3.407386e+00 3.884848e+00 3.464478e+00 2.806138e+00 2.915516e+00 2.519274e+00 6.261284e+00
<GCONST> 1.090547e+02
<STATE> 3
<MEAN> 25
 1.704783e-01 -3.154737e-02 -2.791552e-01 -3.224675e-01 -2.001024e-02 -1.465890e-01 -1.848838e-01 -1.098750e-01 1.028111e-01 1.427241e-01 -1.152419e-01 -2.153244e-01 -4.976515e-04 4.289943e-03 1.204429e-03 -3.870786e-04 1.950847e-03 2.690297e-03 6.058002e-04 -3.854145e-03 1.384858e-03 1.759714e-03 -4.763939e-04 -7.896172e-04 -6.099764e-03
<VARIANCE> 25
 6.144775e+01 5.706892e+01 6.701152e+01 5.726265e+01 6.286032e+01 5.666152e+01 5.807127e+01 5.936643e+01 5.482289e+01 3.694589e+01 4.266867e+01 3.833358e+01 2.739142e+00 2.901151e+00 2.829437e+00 3.110146e+00 3.443835e+00 3.239403e+00 3.409121e+00 3.879470e+00 3.462524e+00 2.804380e+00 2.914426e+00 2.518518e+00 6.285168e+00
<GCONST> 1.090450e+02
<STATE> 4
<MEAN> 25
 1.952567e-01 -2.877496e-02 -2.524548e-01 -3.384209e-01 -3.851602e-02 -1.284533e-01 -1.970187e-01 -1.324103e-01 1.040025e-01 1.431652e-01 -1.173256e-01 -2.371481e-01 -9.404451e-04 4.010028e-03 1.605292e-03 1.434650e-04 1.883589e-03 2.634656e-03 8.954395e-04 -3.223476e-03 9.739446e-04 1.206437e-03 -2.977341e-04 -4.259673e-04 -6.222176e-03
<VARIANCE> 25
 6.131087e+01 5.684436e+01 6.711422e+01 5.720735e+01 6.279896e+01 5.625597e+01 5.800910e+01 5.832005e+01 5.430885e+01 3.654358e+01 4.242204e+01 3.803121e+01 2.670350e+00 2.845169e+00 2.783525e+00 3.051321e+00 3.375500e+00 3.181978e+00 3.345756e+00 3.783752e+00 3.392818e+00 2.754269e+00 2.868500e+00 2.478698e+00 6.150495e+00
<GCONST> 1.087244e+02
<TRANSP> 5
 0.000000e+00 1.000000e+00 0.000000e+00 0.000000e+00 0.000000e+00
 0.000000e+00 7.133380e-01 2.866619e-01 0.000000e+00 0.000000e+00
 0.000000e+00 0.000000e+00 7.133361e-01 2.866639e-01 0.000000e+00
 0.000000e+00 0.000000e+00 0.000000e+00 8.388485e-01 1.611515e-01
 0.000000e+00 0.000000e+00 0.000000e+00 0.000000e+00 0.000000e+00
<ENDHMM>
~h "U"
<BEGINHMM>
<NUMSTATES> 5
<STATE> 2
<MEAN> 25
 5.048597e-01 6.494899e-01 4.243630e-02 -4.269862e-01 -2.998129e-01 4.388309e-01 -7.115909e-01 -6.140707e-01 -3.747384e-01 3.188430e-02 2.042904e-01 1.075352e-01 3.033692e-03 7.000573e-03 1.502336e-03 -1.151795e-03 -1.533719e-03 7.153948e-03 -1.945601e-03 -7.309530e-03 -2.617890e-03 7.065921e-05 9.931796e-04 -8.636718e-04 3.779541e-03
<VARIANCE> 25
 6.692324e+01 5.645885e+01 6.420145e+01 5.999031e+01 6.542554e+01 5.796548e+01 6.331487e+01 6.416573e+01 5.577865e+01 3.816010e+01 4.368888e+01 3.822717e+01 2.767575e+00 2.744970e+00 2.794400e+00 3.290020e+00 3.558359e+00 3.306418e+00 3.535164e+00 4.015188e+00 3.499707e+00 2.885489e+00 3.017769e+00 2.507840e+00 4.972102e+00
<GCONST> 1.093788e+02
<STATE> 3
<MEAN> 25
 5.155529e-01 6.727622e-01 4.831804e-02 -4.312626e-01 -3.069132e-01 4.630044e-01 -7.187005e-01 -6.380702e-01 -3.838525e-01 3.104839e-02 2.077951e-01 1.048974e-01 1.995544e-03 5.815350e-03 1.593692e-03 -2.206513e-04 -1.140989e-03 6.066526e-03 -1.167769e-03 -6.396479e-03 -1.850633e-03 -3.333794e-04 5.800553e-04 -1.268203e-03 2.657103e-03
<VARIANCE> 25
 6.695075e+01 5.639845e+01 6.424409e+01 6.005185e+01 6.556474e+01 5.796089e+01 6.340155e+01 6.425137e+01 5.579070e+01 3.818633e+01 4.375513e+01 3.821142e+01 2.771493e+00 2.743694e+00 2.795983e+00 3.294138e+00 3.564065e+00 3.308134e+00 3.539639e+00 4.017056e+00 3.502467e+00 2.890799e+00 3.021688e+00 2.509341e+00 4.973674e+00
<GCONST> 1.093980e+02
<STATE> 4
<MEAN> 25
 5.531884e-01 6.599997e-01 7.203785e-02 -4.580705e-01 -3.424813e-01 4.804538e-01 -7.383871e-01 -6.454835e-01 -3.922228e-01 2.979843e-02 2.056347e-01 7.585974e-02 1.264872e-03 4.452516e-03 1.438103e-03 9.222422e-05 -1.255586e-03 4.975370e-03 -7.647646e-04 -5.107768e-03 -1.034683e-03 -5.365060e-04 4.058263e-04 -1.476299e-03 1.958374e-03
<VARIANCE> 25
 6.701126e+01 5.611240e+01 6.433160e+01 6.004666e+01 6.547787e+01 5.762009e+01 6.331572e+01 6.333964e+01 5.546243e+01 3.787520e+01 4.363483e+01 3.793416e+01 2.716358e+00 2.690738e+00 2.753258e+00 3.235352e+00 3.497072e+00 3.251976e+00 3.480959e+00 3.928600e+00 3.448029e+00 2.849352e+00 2.980479e+00 2.472034e+00 4.860870e+00
<GCONST> 1.091183e+02
<TRANSP> 5
 0.000000e+00 1.000000e+00 0.000000e+00 0.000000e+00 0.000000e+00
 0.000000e+00 7.134020e-01 2.865979e-01 0.000000e+00 0.000000e+00
 0.000000e+00 0.000000e+00 7.134008e-01 2.865992e-01 0.000000e+00
 0.000000e+00 0.000000e+00 0.000000e+00 8.389292e-01 1.610708e-01
 0.000000e+00 0.000000e+00 0.000000e+00 0.000000e+00 0.000000e+00
<ENDHMM>
~h "V"
<BEGINHMM>
<NUMSTATES> 5
<STATE> 2
<MEAN> 25
 -8.620908e-01 -2.729406e-01 -6.154553e-02 1.645066e-01 -2.591781e-02 1.119141e-01 1.444714e-01 2.238673e-01 -4.169830e-02 -5.660067e-02 3.793919e-01 3.305764e-01 -6.078521e-03 1.133675e-02 1.089093e-02 1.910181e-03 -1.235731e-02 -4.738361e-04 -6.530299e-04 -4.483057e-03 -5.330027e-03 2.471428e-03 7.077208e-03 3.618322e-03 2.582668e-02
<VARIANCE> 25
 7.223639e+01 5.366103e+01 7.336722e+01 6.004534e+01 6.682401e+01 5.880956e+01 5.639523e+01 5.779259e+01 5.181815e+01 3.610003e+01 4.087347e+01 3.841193e+01 3.351941e+00 2.632975e+00 2.892867e+00 3.117963e+00 3.548356e+00 3.160256e+00 3.195972e+00 3.710120e+00 3.242697e+00 2.737083e+00 2.776233e+00 2.449571e+00 4.445414e+00
<GCONST> 1.087180e+02
<STATE> 3
<MEAN> 25
 -8.843798e-01 -2.385267e-01 -2.080030e-02 1.695392e-01 -6.867599e-02 1.039077e-01 1.435407e-01 2.117468e-01 -5.878200e-02 -4.713269e-02 4.003728e-01 3.383480e-01 -6.137935e-03 1.181640e-02 1.098386e-02 1.485741e-03 -1.227764e-02 -2.283874e-03 4.906107e-04 -5.990415e-03 -5.289397e-03 2.760201e-03 5.537532e-03 3.214666e-03 2.225150e-02
<VARIANCE> 25
 7.263702e+01 5.356149e+01 7.413982e+01 6.013293e+01 6.691897e+01 5.895411e+01 5.663990e+01 5.787861e+01 5.183896e+01 3.608194e+01 4.081748e+01 3.852532e+01 3.384906e+00 2.628814e+00 2.908084e+00 3.128431e+00 3.560158e+00 3.168661e+00 3.209557e+00 3.709310e+00 3.243033e+00 2.738991e+00 2.768482e+00 2.449936e+00 4.416030e+00
<GCONST> 1.087631e+02
<STATE> 4
<MEAN> 25
 -8.035210e-01 -2.502216e-01 5.191880e-02 1.011090e-01 -1.884102e-01 1.241405e-01 6.192483e-02 1.671763e-01 -8.786667e-02 9.654186e-04 3.949943e-01 2.867678e-01 -6.185845e-03 1.042517e-02 1.042731e-02 -8.007057e-05 -1.065692e-02 -4.033412e-03 2.562808e-03 -7.439729e-03 -5.392270e-03 3.590836e-03 2.853703e-03 5.663375e-04 1.837356e-02
<VARIANCE> 25
 7.224932e+01 5.363030e+01 7.541818e+01 6.018888e+01 6.692300e+01 5.923862e+01 5.653036e+01 5.735243e+01 5.158475e+01 3.570123e+01 4.047590e+01 3.839606e+01 3.320448e+00 2.582329e+00 2.894572e+00 3.100445e+00 3.507972e+00 3.140278e+00 3.164220e+00 3.641115e+00 3.203249e+00 2.708871e+00 2.717915e+00 2.413337e+00 4.338614e+00
<GCONST> 1.085617e+02
<TRANSP> 5
 0.000000e+00 1.000000e+00 0.000000e+00 0.000000e+00 0.000000e+00
 0.000000e+00 7.148932e-01 2.851068e-01 0.000000e+00 0.000000e+00
 0.000000e+00 0.000000e+00 7.148936e-01 2.851064e-01 0.000000e+00
 0.000000e+00 0.000000e+00 0.000000e+00 8.401688e-01 1.598311e-01
 0.000000e+00 0.000000e+00 0.000000e+00 0.000000e+00 0.000000e+00
<ENDHMM>
~h "W"
<BEGINHMM>
<NUMSTATES> 5
<STATE> 2
<MEAN> 25
 6.907080e-01 -8.287844e-02 -2.203523e-01 -1.092962e+00 -3.467320e-01 5.948779e-01 -5.473628e-01 -3.292918e-03 -6.890157e-03 1.230849e-01 3.092852e-01 -2.388435e-01 3.651748e-03 4.182358e-03 -5.645059e-03 -3.810944e-03 6.621316e-03 9.643752e-03 4.857252e-03 1.409063e-03 4.505413e-03 1.850158e-04 1.311197e-03 -2.942870e-03 -1.995372e-03
<VARIANCE> 25
 6.607351e+01 5.718495e+01 6.964137e+01 7.246221e+01 6.611479e+01 6.501305e+01 5.774719e+01 5.784880e+01 5.526312e+01 3.776507e+01 4.541866e+01 3.921612e+01 2.474135e+00 2.734002e+00 2.690031e+00 3.129701e+00 3.454409e+00 3.215532e+00 3.247756e+00 3.715016e+00 3.300958e+00 2.737185e+00 2.912370e+00 2.509118e+00 4.532602e+00
<GCONST> 1.089603e+02
<STATE> 3
<MEAN> 25
 7.027997e-01 -7.043471e-02 -2.351339e-01 -1.103729e+00 -3.268971e-01 6.255914e-01 -5.280876e-01 2.958981e-03 9.135399e-03 1.188901e-01 3.136253e-01 -2.451639e-01 1.429320e-03 4.438583e-03 -6.242700e-03 -2.049368e-03 7.104314e-03 8.261694e-03 6.615050e-03 1.624980e-03 5.519545e-03 -9.695930e-04 4.314170e-04 -1.484462e-03 -6.618231e-03
<VARIANCE> 25
 6.587871e+01 5.698870e+01 6.959233e+01 7.276582e+01 6.616140e+01 6.505381e+01 5.790215e+01 5.783160e+01 5.506943e+01 3.775260e+01 4.552761e+01 3.921217e+01 2.463494e+00 2.724198e+00 2.679287e+00 3.125632e+00 3.446764e+00 3.210076e+00 3.243895e+00 3.709515e+00 3.290311e+00 2.733978e+00 2.909246e+00 2.504171e+00 4.512895e+00
<GCONST> 1.089279e+02
<STATE> 4
<MEAN> 25
 7.062657e-01 -6.114770e-02 -2.211918e-01 -1.098151e+00 -3.138125e-01 6.440473e-01 -4.986027e-01 7.621199e-03 2.560465e-02 1.058879e-01 3.054593e-01 -2.416793e-01 -5.496787e-04 4.890194e-03 -6.013297e-03 2.224058e-04 7.207536e-03 6.599445e-03 7.531239e-03 5.077843e-04 5.034345e-03 -2.367075e-03 -2.039829e-05 5.433245e-04 -1.266117e-02
<VARIANCE> 25
 6.595353e+01 5.654613e+01 6.933725e+01 7.288619e+01 6.577531e+01 6.419736e+01 5.791029e+01 5.688918e+01 5.443670e+01 3.730275e+01 4.500864e+01 3.892521e+01 2.388355e+00 2.645440e+00 2.616478e+00 3.052088e+00 3.356891e+00 3.127054e+00 3.170861e+00 3.614823e+00 3.211498e+00 2.679675e+00 2.848256e+00 2.442612e+00 4.358678e+00
<GCONST> 1.085072e+02
<TRANSP> 5
 0.000000e+00 1.000000e+00 0.000000e+00 0.000000e+00 0.000000e+00
 0.000000e+00 7.167133e-01 2.832868e-01 0.000000e+00 0.000000e+00
 0.000000e+00 0.000000e+00 7.167179e-01 2.832821e-01 0.000000e+00
 0.000000e+00 0.000000e+00 0.000000e+00 8.437942e-01 1.562058e-01
 0.000000e+00 0.000000e+00 0.000000e+00 0.000000e+00 0.000000e+00
<ENDHMM>
~h "X"
<BEGINHMM>
<NUMSTATES> 5
<STATE> 2
<MEAN> 25
 -3.330675e+00 7.870858e-01 -1.078955e-01 1.531307e+00 5.814850e-01 -1.486707e+00 1.753869e+00 2.170381e+00 -1.020458e+00 -5.883979e-01 1.059190e+00 -4.231728e-01 -2.659318e-02 -2.778034e-02 2.486338e-02 -1.966221e-02 1.522991e-02 -3.362691e-02 -1.342066e-03 2.559055e-02 1.000067e-02 -5.486974e-03 -4.055682e-03 2.973517e-02 3.189198e-02
<VARIANCE> 25
 4.365078e+01 4.082861e+01 6.303368e+01 4.689085e+01 6.075483e+01 4.372597e+01 3.801937e+01 5.032738e+01 4.188139e+01 3.173229e+01 3.514481e+01 2.891962e+01 1.248945e+00 1.878437e+00 2.736265e+00 2.442417e+00 2.662619e+00 2.253789e+00 2.408294e+00 3.204665e+00 2.824122e+00 1.935433e+00 2.735393e+00 2.290867e+00 5.391207e+00
<GCONST> 1.027879e+02
<STATE> 3
<MEAN> 25
 -3.375079e+00 6.498024e-01 -4.370540e-03 1.397650e+00 6.829547e-01 -1.570768e+00 1.739804e+00 2.262324e+00 -9.570651e-01 -6.026801e-01 1.043893e+00 -3.097622e-01 -1.773618e-02 -3.046190e-02 2.533935e-02 -3.163964e-02 1.988510e-02 -2.878883e-02 -3.050119e-03 2.730271e-02 1.702213e-02 -7.098364e-03 -3.439081e-03 3.471035e-02 4.254097e-02
<VARIANCE> 25
 4.535425e+01 4.328065e+01 6.244553e+01 5.010400e+01 6.262241e+01 4.445026e+01 3.811803e+01 5.014823e+01 4.286319e+01 3.238081e+01 3.546724e+01 2.915878e+01 1.322161e+00 1.955084e+00 2.792676e+00 2.548426e+00 2.763107e+00 2.307481e+00 2.435141e+00 3.171551e+00 2.800378e+00 1.983142e+00 2.773200e+00 2.270607e+00 5.592274e+00
<GCONST> 1.033264e+02
<STATE> 4
<MEAN> 25
 -3.468682e+00 2.808849e-01 1.429364e-02 1.206746e+00 1.237633e+00 -1.713408e+00 1.731759e+00 2.333904e+00 -5.586441e-01 -7.145842e-01 1.036931e+00 -7.197832e-02 7.423079e-03 -4.280015e-02 2.417282e-02 -6.066893e-02 3.509803e-02 -1.316946e-02 -1.050796e-02 2.558633e-02 2.945255e-02 -5.143938e-03 -3.256746e-03 3.551971e-02 7.548338e-02
<VARIANCE> 25
 4.463740e+01 4.954293e+01 5.842259e+01 5.640241e+01 6.228135e+01 4.393579e+01 3.594550e+01 4.998365e+01 4.290545e+01 3.190326e+01 3.270148e+01 2.749587e+01 1.326317e+00 2.053474e+00 2.633623e+00 2.641805e+00 2.732397e+00 2.288770e+00 2.412418e+00 2.893727e+00 2.614687e+00 2.055219e+00 2.692196e+00 2.127718e+00 5.407472e+00
<GCONST> 1.030127e+02
<TRANSP> 5
 0.000000e+00 1.000000e+00 0.000000e+00 0.000000e+00 0.000000e+00
 0.000000e+00 7.214040e-01 2.785960e-01 0.000000e+00 0.000000e+00
 0.000000e+00 0.000000e+00 7.214040e-01 2.785960e-01 0.000000e+00
 0.000000e+00 0.000000e+00 0.000000e+00 8.473443e-01 1.526557e-01
 0.000000e+00 0.000000e+00 0.000000e+00 0.000000e+00 0.000000e+00
<ENDHMM>
~h "Y"
<BEGINHMM>
<NUMSTATES> 5
<STATE> 2
<MEAN> 25
 -8.784494e-02 -3.539226e-01 2.723044e-01 -3.083304e-01 -4.173057e-01 -3.416049e-01 7.784956e-03 5.162000e-01 -2.337684e-02 -1.479844e-01 1.782950e-01 6.744849e-02 3.503144e-03 7.253662e-04 1.040491e-02 -3.586294e-03 -7.475227e-03 -4.227675e-03 -2.879992e-03 3.921686e-03 -4.712017e-03 -3.738148e-03 -1.185781e-03 -1.526819e-03 1.763471e-02
<VARIANCE> 25
 6.046861e+01 5.657233e+01 7.535755e+01 5.503061e+01 6.885400e+01 5.481451e+01 5.890908e+01 6.153087e+01 5.408041e+01 3.804287e+01 4.378605e+01 3.860450e+01 2.355730e+00 2.617570e+00 2.978854e+00 2.802689e+00 3.323436e+00 2.991400e+00 3.150240e+00 3.847718e+00 3.311223e+00 2.742386e+00 2.866199e+00 2.386563e+00 4.301332e+00
<GCONST> 1.082289e+02
<STATE> 3
<MEAN> 25
 -7.612552e-02 -3.535415e-01 3.079619e-01 -3.232099e-01 -4.434553e-01 -3.584053e-01 -3.750631e-03 5.289237e-01 -3.851458e-02 -1.575544e-01 1.737129e-01 6.091654e-02 2.895450e-03 1.434747e-03 9.374460e-03 -3.148580e-03 -6.621496e-03 -4.413608e-03 -2.918116e-03 2.080948e-03 -4.210250e-03 -2.653752e-03 -1.875092e-03 -1.900642e-03 1.489185e-02
<VARIANCE> 25
 6.041934e+01 5.665654e+01 7.558363e+01 5.494858e+01 6.898057e+01 5.480941e+01 5.894195e+01 6.169543e+01 5.418242e+01 3.808440e+01 4.389062e+01 3.856234e+01 2.358665e+00 2.619642e+00 2.994150e+00 2.796926e+00 3.327801e+00 2.991258e+00 3.151549e+00 3.856235e+00 3.312710e+00 2.743692e+00 2.870343e+00 2.388289e+00 4.276033e+00
<GCONST> 1.082465e+02
<STATE> 4
<MEAN> 25
 -7.622252e-02 -3.297006e-01 3.402837e-01 -3.138753e-01 -4.422197e-01 -3.557590e-01 -1.575430e-03 5.095597e-01 -4.758666e-02 -1.425936e-01 1.538709e-01 7.213930e-02 2.342302e-03 9.935326e-04 8.163773e-03 -3.432131e-03 -5.856891e-03 -4.406953e-03 -3.757876e-03 8.472411e-04 -2.627181e-03 -8.169510e-04 -2.789294e-03 -1.859186e-03 1.286145e-02
<VARIANCE> 25
 6.002695e+01 5.644628e+01 7.549316e+01 5.471936e+01 6.857257e+01 5.419564e+01 5.903465e+01 6.058110e+01 5.362820e+01 3.755372e+01 4.350730e+01 3.821660e+01 2.292169e+00 2.557719e+00 2.936253e+00 2.733401e+00 3.251360e+00 2.935301e+00 3.091267e+00 3.757576e+00 3.235951e+00 2.694386e+00 2.818223e+00 2.341880e+00 4.117715e+00
<GCONST> 1.078553e+02
<TRANSP> 5
 0.000000e+00 1.000000e+00 0.000000e+00 0.000000e+00 0.000000e+00
 0.000000e+00 7.184793e-01 2.815207e-01 0.000000e+00 0.000000e+00
 0.000000e+00 0.000000e+00 7.184793e-01 2.815208e-01 0.000000e+00
 0.000000e+00 0.000000e+00 0.000000e+00 8.457697e-01 1.542303e-01
 0.000000e+00 0.000000e+00 0.000000e+00 0.000000e+00 0.000000e+00
<ENDHMM>
~h "Z"
<BEGINHMM>
<NUMSTATES> 5
<STATE> 2
<MEAN> 25
 -8.717653e-01 8.313732e-01 4.163022e-01 7.270320e-01 2.731059e-01 -3.942546e-01 4.814447e-02 -1.154730e-02 8.801141e-02 2.224715e-03 9.471813e-02 5.259312e-01 -2.229213e-03 -2.633823e-03 3.180403e-03 7.681344e-03 3.574936e-03 3.439846e-03 6.193391e-03 -6.394062e-03 -3.902864e-03 -2.838718e-04 -7.698616e-03 -1.655414e-03 -1.755082e-02
<VARIANCE> 25
 6.260521e+01 6.272369e+01 6.658688e+01 5.560707e+01 6.625115e+01 5.542811e+01 5.811417e+01 5.929856e+01 5.230191e+01 3.455091e+01 3.983019e+01 3.625234e+01 2.341573e+00 2.574566e+00 2.374451e+00 2.705397e+00 3.097587e+00 2.869813e+00 2.923385e+00 3.487904e+00 2.972722e+00 2.428258e+00 2.542670e+00 2.204769e+00 3.515938e+00
<GCONST> 1.066887e+02
<STATE> 3
<MEAN> 25
 -8.841779e-01 8.234544e-01 4.252079e-01 7.577993e-01 2.881311e-01 -3.865111e-01 6.957959e-02 -3.204135e-02 7.639854e-02 5.055323e-04 6.691632e-02 5.243276e-01 -3.405655e-03 -3.337639e-03 -2.195105e-03 7.797513e-03 5.995128e-03 3.973343e-03 8.436737e-03 -6.098190e-03 -2.881524e-03 -2.057292e-03 -9.502839e-03 -1.531814e-03 -2.485494e-02
<VARIANCE> 25
 6.222392e+01 6.247938e+01 6.652714e+01 5.532285e+01 6.609144e+01 5.530561e+01 5.814788e+01 5.930208e+01 5.235275e+01 3.455640e+01 3.977122e+01 3.599320e+01 2.320890e+00 2.557056e+00 2.367378e+00 2.692908e+00 3.084724e+00 2.857437e+00 2.909777e+00 3.477160e+00 2.962284e+00 2.422310e+00 2.531802e+00 2.193534e+00 3.486392e+00
<GCONST> 1.065978e+02
<STATE> 4
<MEAN> 25
 -8.256365e-01 7.752866e-01 4.247098e-01 7.347153e-01 2.790043e-01 -4.191858e-01 1.629481e-02 -5.444653e-02 7.710922e-02 2.354905e-02 1.211330e-02 4.792969e-01 -4.732941e-03 -3.080366e-03 -5.591047e-03 7.530795e-03 8.402747e-03 3.730911e-03 9.165608e-03 -3.699976e-03 -1.317684e-04 -2.898672e-03 -8.817179e-03 -2.455680e-04 -3.049965e-02
<VARIANCE> 25
 6.182427e+01 6.209356e+01 6.649496e+01 5.503493e+01 6.591013e+01 5.454883e+01 5.828598e+01 5.846732e+01 5.212975e+01 3.437296e+01 3.973885e+01 3.566861e+01 2.253349e+00 2.508750e+00 2.317722e+00 2.639299e+00 3.023565e+00 2.806991e+00 2.870005e+00 3.396910e+00 2.905894e+00 2.376886e+00 2.495101e+00 2.160796e+00 3.376406e+00
<GCONST> 1.062670e+02
<TRANSP> 5
 0.000000e+00 1.000000e+00 0.000000e+00 0.000000e+00 0.000000e+00
 0.000000e+00 7.280753e-01 2.719247e-01 0.000000e+00 0.000000e+00
 0.000000e+00 0.000000e+00 7.280750e-01 2.719250e-01 0.000000e+00
 0.000000e+00 0.000000e+00 0.000000e+00 8.567172e-01 1.432827e-01
 0.000000e+00 0.000000e+00 0.000000e+00 0.000000e+00 0.000000e+00
<ENDHMM>
~h "e"
<BEGINHMM>
<NUMSTATES> 5
<STATE> 2
<MEAN> 25
 3.009220e-01 -1.259439e-01 -6.362055e-02 -3.577200e-02 -1.905708e-01 -1.250851e-01 -4.517999e-01 -1.498747e-01 8.370810e-02 1.513899e-01 -5.079453e-03 -1.652374e-01 1.464037e-02 -1.140778e-03 1.295781e-03 -5.047492e-03 -2.879573e-03 4.678003e-03 -5.244528e-03 -5.302491e-03 1.167885e-03 3.882907e-03 -1.497733e-03 -7.180406e-03 2.523871e-02
<VARIANCE> 25
 6.554154e+01 5.563869e+01 6.463230e+01 5.647299e+01 6.336410e+01 5.690263e+01 6.083845e+01 6.252070e+01 5.658045e+01 3.817012e+01 4.276945e+01 3.909919e+01 2.727701e+00 2.819269e+00 2.792675e+00 3.115563e+00 3.437126e+00 3.187353e+00 3.447539e+00 4.032968e+00 3.570066e+00 2.839156e+00 2.978788e+00 2.521986e+00 5.285522e+00
<GCONST> 1.091115e+02
<STATE> 3
<MEAN> 25
 3.504397e-01 -1.308530e-01 -5.884402e-02 -5.199162e-02 -2.018602e-01 -1.112450e-01 -4.708802e-01 -1.653072e-01 8.670613e-02 1.621456e-01 -9.581168e-03 -1.888335e-01 1.394227e-02 -1.321156e-03 1.121531e-03 -4.550310e-03 -2.732099e-03 4.441625e-03 -4.171915e-03 -4.092969e-03 7.225350e-04 2.751227e-03 -1.426558e-03 -6.409853e-03 2.427669e-02
<VARIANCE> 25
 6.552441e+01 5.572134e+01 6.472839e+01 5.654215e+01 6.339655e+01 5.706482e+01 6.093001e+01 6.267505e+01 5.676587e+01 3.827143e+01 4.286572e+01 3.913334e+01 2.733066e+00 2.827752e+00 2.801489e+00 3.127007e+00 3.443880e+00 3.196942e+00 3.456563e+00 4.041769e+00 3.582992e+00 2.845441e+00 2.986658e+00 2.528691e+00 5.310707e+00
<GCONST> 1.091692e+02
<STATE> 4
<MEAN> 25
 4.172838e-01 -1.462563e-01 -4.474459e-02 -8.650650e-02 -2.212314e-01 -1.015084e-01 -5.154271e-01 -1.721742e-01 8.561788e-02 1.699433e-01 -1.902372e-02 -2.257571e-01 1.273295e-02 -1.566799e-03 1.103897e-03 -4.258988e-03 -2.699947e-03 3.810685e-03 -3.688116e-03 -2.867893e-03 2.425911e-04 1.560183e-03 -1.331442e-03 -5.754168e-03 2.338757e-02
<VARIANCE> 25
 6.538853e+01 5.565054e+01 6.489601e+01 5.667077e+01 6.335369e+01 5.694522e+01 6.113807e+01 6.182728e+01 5.650468e+01 3.807077e+01 4.275379e+01 3.899599e+01 2.673475e+00 2.780426e+00 2.763496e+00 3.083970e+00 3.388078e+00 3.158100e+00 3.406876e+00 3.957214e+00 3.528384e+00 2.809217e+00 2.947783e+00 2.497935e+00 5.197597e+00
<GCONST> 1.089361e+02
<TRANSP> 5
 0.000000e+00 1.000000e+00 0.000000e+00 0.000000e+00 0.000000e+00
 0.000000e+00 7.108968e-01 2.891032e-01 0.000000e+00 0.000000e+00
 0.000000e+00 0.000000e+00 7.108988e-01 2.891012e-01 0.000000e+00
 0.000000e+00 0.000000e+00 0.000000e+00 8.359463e-01 1.640537e-01
 0.000000e+00 0.000000e+00 0.000000e+00 0.000000e+00 0.000000e+00
<ENDHMM>
~h "AI"
<BEGINHMM>
<NUMSTATES> 5
<STATE> 2
<MEAN> 25
 2.172660e-01 -1.017798e-01 5.576163e-01 -4.015303e-01 -7.016529e-01 -4.217946e-01 -3.755336e-01 3.343764e-01 -1.261155e-01 2.176114e-01 2.765241e-01 -2.202619e-01 8.261385e-03 -2.078165e-03 7.688344e-03 -3.888510e-03 -3.479217e-03 9.056901e-04 -7.303241e-03 -2.614222e-04 -5.505488e-03 3.628676e-03 -7.652782e-05 -6.461340e-03 2.025929e-02
<VARIANCE> 25
 6.534331e+01 5.929053e+01 7.000964e+01 5.586705e+01 6.784846e+01 5.876427e+01 5.834737e+01 6.388771e+01 5.643508e+01 3.757678e+01 4.272641e+01 3.780202e+01 2.750989e+00 2.879643e+00 2.781869e+00 3.035501e+00 3.448451e+00 3.195283e+00 3.334509e+00 4.041276e+00 3.529774e+00 2.806082e+00 2.970637e+00 2.513336e+00 4.772795e+00
<GCONST> 1.091116e+02
<STATE> 3
<MEAN> 25
 2.446345e-01 -1.124876e-01 5.857159e-01 -4.162048e-01 -7.186869e-01 -4.196941e-01 -3.988143e-01 3.332016e-01 -1.419695e-01 2.299386e-01 2.760921e-01 -2.419383e-01 7.825224e-03 -3.016076e-03 6.114475e-03 -3.967570e-03 -4.223748e-03 7.002507e-04 -7.512270e-03 -1.318599e-03 -3.761785e-03 2.798503e-03 -4.684749e-04 -6.637158e-03 2.170730e-02
<VARIANCE> 25
 6.524208e+01 5.935258e+01 6.987630e+01 5.584190e+01 6.807679e+01 5.897464e+01 5.840630e+01 6.403053e+01 5.635213e+01 3.759969e+01 4.275940e+01 3.772538e+01 2.756182e+00 2.888417e+00 2.799022e+00 3.044319e+00 3.468695e+00 3.204600e+00 3.336695e+00 4.050253e+00 3.531430e+00 2.809236e+00 2.976013e+00 2.514230e+00 4.804539e+00
<GCONST> 1.091528e+02
<STATE> 4
<MEAN> 25
 2.817725e-01 -1.325439e-01 6.349708e-01 -4.307567e-01 -7.579982e-01 -3.988673e-01 -4.084790e-01 2.974349e-01 -1.465977e-01 2.373754e-01 2.459567e-01 -2.909752e-01 6.955807e-03 -4.898939e-03 4.933688e-03 -4.633021e-03 -5.808348e-03 4.871325e-04 -7.327005e-03 -2.902095e-03 -2.025184e-03 1.804814e-03 -8.736758e-04 -6.219472e-03 2.308888e-02
<VARIANCE> 25
 6.497368e+01 5.931764e+01 6.981265e+01 5.561307e+01 6.797729e+01 5.881259e+01 5.831026e+01 6.328391e+01 5.560440e+01 3.720924e+01 4.244430e+01 3.722001e+01 2.690298e+00 2.836025e+00 2.761208e+00 2.982874e+00 3.415976e+00 3.157630e+00 3.270756e+00 3.957917e+00 3.447614e+00 2.762147e+00 2.929240e+00 2.464444e+00 4.705613e+00
<GCONST> 1.088336e+02
<TRANSP> 5
 0.000000e+00 1.000000e+00 0.000000e+00 0.000000e+00 0.000000e+00
 0.000000e+00 7.186999e-01 2.813001e-01 0.000000e+00 0.000000e+00
 0.000000e+00 0.000000e+00 7.186989e-01 2.813011e-01 0.000000e+00
 0.000000e+00 0.000000e+00 0.000000e+00 8.453875e-01 1.546125e-01
 0.000000e+00 0.000000e+00 0.000000e+00 0.000000e+00 0.000000e+00
<ENDHMM>
~h "AU"
<BEGINHMM>
<NUMSTATES> 5
<STATE> 2
<MEAN> 25
 2.260313e-01 -2.713558e-01 -9.859630e-01 -1.408890e+00 3.385606e-01 8.291681e-01 -1.227617e-01 -1.162543e-01 3.662615e-01 1.448198e-02 2.279373e-01 6.298266e-02 1.064906e-02 5.689725e-03 -6.406405e-03 -1.057326e-02 -2.988113e-03 1.161440e-02 -5.339440e-03 -2.450681e-03 4.430603e-03 4.865341e-03 1.629929e-03 -7.208534e-03 1.824172e-02
<VARIANCE> 25
 6.047844e+01 5.554973e+01 6.402064e+01 7.288239e+01 6.160127e+01 6.477402e+01 5.581776e+01 5.695684e+01 5.259918e+01 3.835463e+01 4.302217e+01 4.174957e+01 2.278429e+00 2.668103e+00 2.520278e+00 3.189563e+00 3.165705e+00 3.247969e+00 3.110861e+00 3.601014e+00 3.229583e+00 2.787863e+00 2.807562e+00 2.548991e+00 5.073508e+00
<GCONST> 1.083988e+02
<STATE> 3
<MEAN> 25
 2.649005e-01 -2.544137e-01 -1.005957e+00 -1.445728e+00 3.254472e-01 8.720400e-01 -1.430556e-01 -1.283323e-01 3.844060e-01 3.584668e-02 2.316544e-01 3.410050e-02 1.027371e-02 5.813139e-03 -2.850219e-03 -8.392815e-03 -3.794033e-03 1.087545e-02 -5.396861e-03 -2.995635e-03 4.732905e-03 6.190956e-03 6.291767e-04 -8.516779e-03 2.002227e-02
<VARIANCE> 25
 6.049696e+01 5.559188e+01 6.422809e+01 7.330233e+01 6.166668e+01 6.497284e+01 5.587958e+01 5.682893e+01 5.274914e+01 3.835687e+01 4.312148e+01 4.174416e+01 2.279739e+00 2.671109e+00 2.524592e+00 3.195308e+00 3.176729e+00 3.253473e+00 3.117821e+00 3.592156e+00 3.225858e+00 2.786825e+00 2.817054e+00 2.548615e+00 5.107901e+00
<GCONST> 1.084355e+02
<STATE> 4
<MEAN> 25
 3.278825e-01 -2.327679e-01 -9.645545e-01 -1.438371e+00 2.479301e-01 8.941887e-01 -1.769859e-01 -1.616161e-01 4.116738e-01 7.973668e-02 2.345296e-01 -3.443202e-02 9.834670e-03 3.955349e-03 -3.304640e-04 -5.988735e-03 -4.526260e-03 1.022657e-02 -5.209184e-03 -3.218966e-03 5.790587e-03 7.939643e-03 -8.642145e-04 -9.640708e-03 2.388013e-02
<VARIANCE> 25
 6.084048e+01 5.548621e+01 6.487196e+01 7.286250e+01 6.167056e+01 6.485899e+01 5.609311e+01 5.594041e+01 5.273722e+01 3.784757e+01 4.274429e+01 4.158697e+01 2.238888e+00 2.631242e+00 2.497545e+00 3.121742e+00 3.145016e+00 3.203990e+00 3.073464e+00 3.515123e+00 3.169786e+00 2.739834e+00 2.782530e+00 2.510851e+00 5.025550e+00
<GCONST> 1.081968e+02
<TRANSP> 5
 0.000000e+00 1.000000e+00 0.000000e+00 0.000000e+00 0.000000e+00
 0.000000e+00 7.183042e-01 2.816958e-01 0.000000e+00 0.000000e+00
 0.000000e+00 0.000000e+00 7.183058e-01 2.816942e-01 0.000000e+00
 0.000000e+00 0.000000e+00 0.000000e+00 8.441429e-01 1.558571e-01
 0.000000e+00 0.000000e+00 0.000000e+00 0.000000e+00 0.000000e+00
<ENDHMM>
~h "NG"
<BEGINHMM>
<NUMSTATES> 5
<STATE> 2
<MEAN> 25
 9.470342e-01 -2.338970e-01 1.879866e-01 -4.738453e-01 -5.025207e-01 3.842705e-01 -2.496351e-01 -3.242955e-01 -2.033950e-01 5.363395e-02 -2.419050e-01 -4.725206e-01 5.998853e-03 5.277945e-05 2.983547e-03 -3.414499e-03 -5.426008e-03 2.247286e-03 -7.425256e-04 -2.145294e-03 -4.103810e-03 9.834149e-04 -3.967395e-03 -3.016504e-03 8.618510e-03
<VARIANCE> 25
 6.208739e+01 5.669497e+01 6.791656e+01 5.853095e+01 6.677251e+01 5.714302e+01 5.901309e+01 6.360361e+01 5.711929e+01 3.922366e+01 4.455329e+01 4.005995e+01 2.472314e+00 2.755652e+00 2.921666e+00 3.128039e+00 3.545315e+00 3.147895e+00 3.356351e+00 4.115314e+00 3.533566e+00 2.870323e+00 3.009702e+00 2.545293e+00 4.762863e+00
<GCONST> 1.091627e+02
<STATE> 3
<MEAN> 25
 9.670317e-01 -2.347967e-01 1.955789e-01 -4.874985e-01 -5.206290e-01 3.921531e-01 -2.534050e-01 -3.308666e-01 -2.164612e-01 5.635539e-02 -2.549013e-01 -4.845639e-01 4.513462e-03 1.963909e-04 1.807116e-03 -3.681396e-03 -5.371047e-03 1.089924e-03 -1.416524e-03 -1.856245e-03 -3.989219e-03 1.210782e-03 -2.885014e-03 -3.193511e-03 7.156940e-03
<VARIANCE> 25
 6.187419e+01 5.669435e+01 6.793870e+01 5.847235e+01 6.686894e+01 5.710538e+01 5.893870e+01 6.361766e+01 5.711319e+01 3.929695e+01 4.456276e+01 4.005481e+01 2.464484e+00 2.753022e+00 2.925462e+00 3.124923e+00 3.553363e+00 3.151697e+00 3.353390e+00 4.120179e+00 3.533418e+00 2.871776e+00 3.012091e+00 2.546187e+00 4.752540e+00
<GCONST> 1.091596e+02
<STATE> 4
<MEAN> 25
 9.969036e-01 -2.542983e-01 2.099886e-01 -5.312500e-01 -5.399659e-01 3.970892e-01 -2.948076e-01 -3.201964e-01 -2.292142e-01 5.935481e-02 -2.690953e-01 -5.149857e-01 3.576644e-03 3.503264e-04 8.455948e-05 -3.928049e-03 -4.877912e-03 1.459660e-04 -1.966098e-03 -1.848688e-03 -3.373808e-03 1.149644e-03 -2.176802e-03 -3.808697e-03 6.434004e-03
<VARIANCE> 25
 6.197885e+01 5.664789e+01 6.794861e+01 5.846146e+01 6.689924e+01 5.699197e+01 5.906561e+01 6.238528e+01 5.655552e+01 3.903770e+01 4.433770e+01 3.986750e+01 2.415882e+00 2.703272e+00 2.884535e+00 3.066469e+00 3.501439e+00 3.113102e+00 3.301894e+00 4.024490e+00 3.470212e+00 2.826947e+00 2.969001e+00 2.510890e+00 4.655773e+00
<GCONST> 1.088954e+02
<TRANSP> 5
 0.000000e+00 1.000000e+00 0.000000e+00 0.000000e+00 0.000000e+00
 0.000000e+00 7.115707e-01 2.884292e-01 0.000000e+00 0.000000e+00
 0.000000e+00 0.000000e+00 7.115707e-01 2.884292e-01 0.000000e+00
 0.000000e+00 0.000000e+00 0.000000e+00 8.364654e-01 1.635347e-01
 0.000000e+00 0.000000e+00 0.000000e+00 0.000000e+00 0.000000e+00
<ENDHMM>
~h "NY"
<BEGINHMM>
<NUMSTATES> 5
<STATE> 2
<MEAN> 25
 2.810863e-01 -2.434512e-01 4.243142e-01 2.468192e-01 1.387724e-01 -1.755770e-01 2.896015e-01 6.935746e-01 -2.908401e-01 -6.013697e-01 -2.393715e-01 6.075677e-02 -6.079814e-03 4.018574e-03 -6.982382e-03 7.368564e-03 1.432849e-02 4.589605e-03 6.007522e-03 -2.695477e-03 1.678833e-03 -5.465928e-03 -4.695340e-03 2.066275e-03 -2.714201e-02
<VARIANCE> 25
 5.551072e+01 5.604657e+01 6.190926e+01 5.267913e+01 6.321926e+01 4.995709e+01 5.591541e+01 6.257170e+01 5.369201e+01 3.937930e+01 4.102890e+01 3.642484e+01 2.214310e+00 2.705156e+00 2.687129e+00 2.974810e+00 3.218987e+00 2.941185e+00 3.103299e+00 4.023870e+00 3.359741e+00 2.745440e+00 2.798572e+00 2.349072e+00 4.360187e+00
<GCONST> 1.074823e+02
<STATE> 3
<MEAN> 25
 2.578464e-01 -2.266660e-01 3.986919e-01 2.721990e-01 1.909003e-01 -1.566191e-01 3.091754e-01 6.801754e-01 -2.869334e-01 -6.185646e-01 -2.534589e-01 6.524126e-02 -8.512454e-03 6.775686e-03 -7.908637e-03 6.162877e-03 1.276324e-02 4.379021e-03 4.723820e-03 -5.762383e-03 1.431399e-03 -2.328930e-03 -3.895936e-03 1.029478e-03 -3.166667e-02
<VARIANCE> 25
 5.522705e+01 5.589143e+01 6.169477e+01 5.248081e+01 6.327548e+01 4.967407e+01 5.573127e+01 6.221701e+01 5.361135e+01 3.934950e+01 4.093594e+01 3.638312e+01 2.194516e+00 2.692616e+00 2.675771e+00 2.957846e+00 3.202768e+00 2.925559e+00 3.092544e+00 4.008815e+00 3.351840e+00 2.737605e+00 2.791944e+00 2.342103e+00 4.339320e+00
<GCONST> 1.073912e+02
<STATE> 4
<MEAN> 25
 2.663051e-01 -2.188293e-01 3.606093e-01 2.463081e-01 2.424106e-01 -1.341778e-01 2.848081e-01 6.375165e-01 -2.918983e-01 -6.056909e-01 -2.895143e-01 3.128216e-02 -1.043689e-02 8.924909e-03 -7.628856e-03 3.510763e-03 9.863006e-03 4.432464e-03 2.844394e-03 -8.982542e-03 2.898111e-04 3.515856e-04 -2.106911e-03 -4.787900e-04 -3.330695e-02
<VARIANCE> 25
 5.541829e+01 5.588677e+01 6.167866e+01 5.239411e+01 6.294203e+01 4.918927e+01 5.553479e+01 6.078478e+01 5.317024e+01 3.892025e+01 4.051690e+01 3.610165e+01 2.137580e+00 2.636888e+00 2.619479e+00 2.881458e+00 3.117640e+00 2.867319e+00 3.033429e+00 3.896611e+00 3.284693e+00 2.690245e+00 2.742175e+00 2.300859e+00 4.220249e+00
<GCONST> 1.070228e+02
<TRANSP> 5
 0.000000e+00 1.000000e+00 0.000000e+00 0.000000e+00 0.000000e+00
 0.000000e+00 7.160349e-01 2.839651e-01 0.000000e+00 0.000000e+00
 0.000000e+00 0.000000e+00 7.160330e-01 2.839670e-01 0.000000e+00
 0.000000e+00 0.000000e+00 0.000000e+00 8.423266e-01 1.576734e-01
 0.000000e+00 0.000000e+00 0.000000e+00 0.000000e+00 0.000000e+00
<ENDHMM>
~h "OI"
<BEGINHMM>
<NUMSTATES> 5
<STATE> 2
<MEAN> 25
 -2.961324e-01 7.194362e-01 -1.046072e+00 2.301121e-02 -1.781630e-01 7.529847e-01 5.840846e-01 -1.357456e-01 1.490288e-01 1.765310e-01 3.602702e-01 3.876421e-01 -1.355647e-02 -1.592880e-02 9.337472e-04 -1.645504e-02 -7.555174e-03 -1.625091e-02 -3.130415e-03 -1.588046e-02 -6.921291e-03 -7.324505e-04 -9.891290e-03 1.846544e-03 3.548714e-02
<VARIANCE> 25
 5.226706e+01 4.863673e+01 6.392064e+01 7.113072e+01 5.440443e+01 5.649079e+01 6.470950e+01 5.589630e+01 5.153623e+01 3.980175e+01 4.245060e+01 4.260699e+01 2.558245e+00 2.608581e+00 3.029405e+00 3.647489e+00 3.110155e+00 3.617306e+00 3.418058e+00 3.873336e+00 3.384123e+00 2.978543e+00 3.036383e+00 2.956576e+00 4.583418e+00
<GCONST> 1.088921e+02
<STATE> 3
<MEAN> 25
 -3.472074e-01 6.678445e-01 -1.042869e+00 -4.493375e-02 -1.949057e-01 7.020965e-01 5.895433e-01 -1.917791e-01 1.349532e-01 1.645238e-01 3.201364e-01 3.912629e-01 -8.579493e-03 -1.231410e-02 7.170086e-03 -2.369070e-02 -8.414021e-03 -1.152156e-02 -2.992506e-03 -1.204385e-02 -6.391848e-03 8.480350e-04 -1.315316e-02 -2.313174e-03 3.535172e-02
<VARIANCE> 25
 5.254494e+01 4.840137e+01 6.410998e+01 7.087553e+01 5.451129e+01 5.659032e+01 6.453090e+01 5.636617e+01 5.092300e+01 3.942216e+01 4.238081e+01 4.249928e+01 2.596922e+00 2.618442e+00 3.026694e+00 3.671157e+00 3.087357e+00 3.666451e+00 3.432492e+00 3.911187e+00 3.396524e+00 2.980990e+00 3.006645e+00 2.947233e+00 4.539649e+00
<GCONST> 1.089018e+02
<STATE> 4
<MEAN> 25
 -3.508271e-01 6.185301e-01 -9.379132e-01 -2.007302e-01 -2.919477e-01 6.367868e-01 6.602919e-01 -2.179251e-01 4.474587e-02 1.538365e-01 3.088593e-01 3.978206e-01 -6.805919e-03 -4.796146e-03 1.255521e-02 -2.767568e-02 -8.823108e-03 -6.304160e-03 1.812556e-03 -8.024486e-03 -3.220327e-03 3.422281e-03 -1.567612e-02 -5.557687e-03 2.326010e-02
<VARIANCE> 25
 5.203338e+01 4.813390e+01 6.404803e+01 7.112484e+01 5.402835e+01 5.600799e+01 6.356334e+01 5.606852e+01 4.943233e+01 3.884999e+01 4.160421e+01 4.201211e+01 2.558408e+00 2.551044e+00 2.949510e+00 3.641385e+00 3.013240e+00 3.642481e+00 3.345215e+00 3.874424e+00 3.332896e+00 2.945147e+00 2.927920e+00 2.887419e+00 4.360435e+00
<GCONST> 1.085157e+02
<TRANSP> 5
 0.000000e+00 1.000000e+00 0.000000e+00 0.000000e+00 0.000000e+00
 0.000000e+00 7.090992e-01 2.909008e-01 0.000000e+00 0.000000e+00
 0.000000e+00 0.000000e+00 7.090996e-01 2.909004e-01 0.000000e+00
 0.000000e+00 0.000000e+00 0.000000e+00 8.312171e-01 1.687829e-01
 0.000000e+00 0.000000e+00 0.000000e+00 0.000000e+00 0.000000e+00
<ENDHMM>
~h "SY"
<BEGINHMM>
<NUMSTATES> 5
<STATE> 2
<MEAN> 25
 -1.688005e+00 -1.645956e-01 4.877403e-01 -8.103217e-02 -1.303779e-01 -1.391618e-01 3.684749e-01 4.277031e-01 -5.599964e-03 -7.150277e-02 4.151146e-01 4.038423e-01 -8.696429e-03 1.846274e-03 1.642794e-02 -4.090201e-03 -4.940940e-03 2.280287e-03 -5.985422e-03 1.906328e-03 -3.057390e-03 6.233675e-03 1.973178e-03 -2.985115e-03 1.800828e-02
<VARIANCE> 25
 9.012403e+01 5.468228e+01 6.942602e+01 5.227185e+01 6.560715e+01 5.228812e+01 5.720761e+01 5.797009e+01 5.277036e+01 3.492271e+01 3.881541e+01 3.615859e+01 3.561626e+00 2.518775e+00 2.700440e+00 2.704778e+00 3.294221e+00 2.946026e+00 3.115188e+00 3.547695e+00 3.200787e+00 2.576364e+00 2.617648e+00 2.295503e+00 3.686746e+00
<GCONST> 1.077247e+02
<STATE> 3
<MEAN> 25
 -1.719686e+00 -1.588011e-01 5.434341e-01 -9.097894e-02 -1.421737e-01 -1.274680e-01 3.499355e-01 4.332359e-01 -1.199407e-02 -4.570581e-02 4.226278e-01 3.946906e-01 -3.675942e-03 9.980226e-04 1.382676e-02 -3.312537e-03 -2.455788e-03 3.217146e-03 -5.846799e-03 9.329510e-04 -2.488413e-03 6.390906e-03 8.989910e-04 -2.754521e-03 1.356137e-02
<VARIANCE> 25
 9.030708e+01 5.480668e+01 6.997562e+01 5.190700e+01 6.577505e+01 5.193303e+01 5.722001e+01 5.812570e+01 5.278961e+01 3.499712e+01 3.893450e+01 3.598144e+01 3.592259e+00 2.513241e+00 2.712212e+00 2.692306e+00 3.307694e+00 2.952426e+00 3.113717e+00 3.548928e+00 3.206066e+00 2.583352e+00 2.616055e+00 2.287695e+00 3.649834e+00
<GCONST> 1.077316e+02
<STATE> 4
<MEAN> 25
 -1.691242e+00 -1.220450e-01 5.810728e-01 -5.838455e-02 -1.385321e-01 -1.019597e-01 3.391473e-01 3.825575e-01 -2.145544e-02 1.224135e-02 4.230619e-01 3.792532e-01 -1.025744e-03 1.452535e-04 1.014010e-02 -1.449677e-04 1.034074e-03 3.369985e-03 -4.682496e-03 1.550221e-03 -1.731636e-03 5.985205e-03 7.370883e-05 -7.935606e-04 7.155734e-03
<VARIANCE> 25
 8.914658e+01 5.439067e+01 7.031460e+01 5.154210e+01 6.539073e+01 5.099627e+01 5.687248e+01 5.763125e+01 5.257957e+01 3.451785e+01 3.887595e+01 3.542788e+01 3.488168e+00 2.446321e+00 2.668598e+00 2.634911e+00 3.232794e+00 2.903927e+00 3.046452e+00 3.472456e+00 3.150603e+00 2.539686e+00 2.567508e+00 2.245929e+00 3.522162e+00
<GCONST> 1.073508e+02
<TRANSP> 5
 0.000000e+00 1.000000e+00 0.000000e+00 0.000000e+00 0.000000e+00
 0.000000e+00 7.260088e-01 2.739912e-01 0.000000e+00 0.000000e+00
 0.000000e+00 0.000000e+00 7.260095e-01 2.739905e-01 0.000000e+00
 0.000000e+00 0.000000e+00 0.000000e+00 8.540684e-01 1.459316e-01
 0.000000e+00 0.000000e+00 0.000000e+00 0.000000e+00 0.000000e+00
<ENDHMM>
~h "sil"
<BEGINHMM>
<NUMSTATES> 5
<STATE> 2
<MEAN> 25
 -5.185781e+00 2.497376e+00 -1.614732e+00 3.800810e+00 4.078918e+00 -3.502274e-01 4.601552e+00 1.041124e+00 1.830557e-01 -6.112239e-01 2.134622e-01 3.061401e+00 -5.792499e-02 -2.581736e-02 -4.570889e-02 -1.239470e-02 -2.847397e-02 -5.708881e-02 -8.017661e-03 5.537272e-03 -1.880521e-02 -2.038147e-02 1.496826e-02 2.203802e-02 -7.845809e-02
<VARIANCE> 25
 1.392256e+01 2.259411e+01 2.127115e+01 2.390048e+01 2.224576e+01 2.656174e+01 2.557502e+01 3.193422e+01 2.600425e+01 2.345215e+01 2.288721e+01 2.196151e+01 4.398034e-01 7.756152e-01 8.366016e-01 1.313689e+00 1.294357e+00 1.558424e+00 1.585086e+00 2.031040e+00 1.793812e+00 1.779059e+00 1.564886e+00 1.592247e+00 8.909741e-01
<GCONST> 8.649712e+01
<STATE> 3
<MEAN> 25
 -5.347213e+00 2.443054e+00 -1.736695e+00 3.773346e+00 4.031847e+00 -4.988290e-01 4.596513e+00 1.066089e+00 1.557011e-01 -6.520408e-01 2.804792e-01 3.124774e+00 -3.483287e-02 -1.270756e-02 -2.389844e-02 -1.049194e-02 -9.800161e-03 -3.241794e-02 -1.442250e-03 6.479047e-03 -3.050082e-03 -4.420239e-03 2.109969e-02 1.362963e-02 -3.160218e-02
<VARIANCE> 25
 1.283902e+01 2.209502e+01 1.976444e+01 2.310395e+01 2.149297e+01 2.605467e+01 2.521815e+01 3.143810e+01 2.565650e+01 2.316273e+01 2.236414e+01 2.166177e+01 4.504225e-01 7.651656e-01 8.143418e-01 1.301970e+00 1.248440e+00 1.550397e+00 1.550663e+00 2.018938e+00 1.764335e+00 1.767882e+00 1.530213e+00 1.585097e+00 9.816254e-01
<GCONST> 8.609250e+01
<STATE> 4
<MEAN> 25
 -5.268626e+00 2.426215e+00 -1.826796e+00 3.622169e+00 3.909479e+00 -5.374243e-01 4.524366e+00 9.517432e-01 1.995772e-01 -5.826012e-01 3.217801e-01 3.013784e+00 -1.747563e-02 -1.749872e-03 -1.335632e-02 -2.023678e-02 -3.080650e-03 -9.445960e-03 -6.752324e-03 -1.356620e-02 1.015756e-02 1.259705e-02 8.707480e-03 -7.543427e-03 7.100340e-03
<VARIANCE> 25
 1.227806e+01 2.114397e+01 1.871747e+01 2.137909e+01 2.129017e+01 2.542346e+01 2.459218e+01 2.985078e+01 2.462086e+01 2.225790e+01 2.156574e+01 2.070506e+01 4.481834e-01 7.181130e-01 7.919945e-01 1.211021e+00 1.209874e+00 1.505236e+00 1.542407e+00 1.921315e+00 1.738470e+00 1.742106e+00 1.538196e+00 1.548859e+00 1.096263e+00
<GCONST> 8.537683e+01
<TRANSP> 5
 0.000000e+00 1.000000e+00 0.000000e+00 0.000000e+00 0.000000e+00
 0.000000e+00 7.200980e-01 2.799020e-01 0.000000e+00 0.000000e+00
 0.000000e+00 0.000000e+00 7.200968e-01 2.799033e-01 0.000000e+00
 0.000000e+00 0.000000e+00 0.000000e+00 8.478869e-01 1.521132e-01
 0.000000e+00 0.000000e+00 0.000000e+00 0.000000e+00 0.000000e+00
<ENDHMM>
