~o
<STREAMINFO> 1 25
<VECSIZE> 25<NULLD><MFCC_D_N_Z_0><DIAGC>
~h "A"
<BEGINHMM>
<NUMSTATES> 5
<STATE> 2
<MEAN> 25
 4.479882e+00 -9.600746e+00 -5.201312e+00 -6.614393e+00 -5.219047e-01 2.640098e+00 -2.647463e+00 5.495586e+00 5.563709e+00 -4.653830e-01 -2.699899e+00 -5.729247e+00 3.089886e-01 -1.599383e+00 -1.014100e+00 -5.422667e-01 9.581706e-01 1.049438e+00 3.543328e-01 6.645007e-01 6.726838e-01 -7.988787e-01 -1.053477e+00 -1.083253e+00 1.320160e+00
<VARIANCE> 25
 1.731580e+01 2.809675e+01 3.574765e+01 3.596541e+01 5.039293e+01 6.523022e+01 4.555318e+01 6.368554e+01 4.456850e+01 4.019419e+01 4.404532e+01 3.501063e+01 1.904610e+00 2.566340e+00 2.515514e+00 2.891757e+00 3.443568e+00 3.957425e+00 3.599793e+00 4.850974e+00 3.557610e+00 3.240660e+00 3.556779e+00 3.029794e+00 3.916608e+00
<GCONST> 1.054262e+02
<STATE> 3
<MEAN> 25
 4.935315e+00 -1.167748e+01 -6.731629e+00 -6.870723e+00 1.914931e+00 4.680770e+00 -2.096546e+00 4.990315e+00 5.891346e+00 -1.923251e+00 -4.400400e+00 -7.224030e+00 3.813982e-03 1.151158e-01 -4.257343e-02 2.820402e-01 3.487559e-01 -1.137357e-01 2.071732e-01 -1.084160e-01 -1.071390e-01 -1.162918e-01 -2.206329e-01 3.733311e-02 -4.770438e-01
<VARIANCE> 25
 1.043707e+01 2.319960e+01 2.855825e+01 2.833519e+01 3.618853e+01 5.152983e+01 4.021978e+01 5.313646e+01 4.108675e+01 3.814626e+01 3.894558e+01 3.080228e+01 6.021481e-01 1.592076e+00 1.241789e+00 1.559528e+00 2.055510e+00 2.742864e+00 2.157113e+00 2.803315e+00 2.001355e+00 2.263795e+00 2.297449e+00 1.836015e+00 2.451656e+00
<GCONST> 9.577230e+01
<STATE> 4
<MEAN> 25
 3.073328e+00 -7.058446e+00 -5.955686e+00 -2.941734e+00 3.016278e+00 1.643696e+00 8.780581e-02 3.465946e+00 4.004652e+00 -1.644748e+00 -4.278015e+00 -4.102155e+00 -3.658628e-02 8.776307e-01 4.670331e-01 5.241842e-01 -2.064338e-01 -4.136119e-01 -3.209167e-02 -2.516371e-01 -3.228821e-01 2.715819e-01 2.023970e-01 3.923405e-01 -1.293070e+00
<VARIANCE> 25
 2.193520e+01 4.125634e+01 2.996497e+01 3.789724e+01 3.986442e+01 4.417523e+01 4.056129e+01 4.647301e+01 4.014898e+01 3.634430e+01 3.669600e+01 3.715810e+01 8.883097e-01 1.771061e+00 1.536470e+00 1.821505e+00 2.112660e+00 2.347460e+00 2.339953e+00 2.716082e+00 2.265308e+00 2.252997e+00 2.189397e+00 1.903401e+00 2.346521e+00
<GCONST> 9.815163e+01
<TRANSP> 5
 0.000000e+00 1.000000e+00 0.000000e+00 0.000000e+00 0.000000e+00
 0.000000e+00 5.831743e-01 4.168257e-01 0.000000e+00 0.000000e+00
 0.000000e+00 0.000000e+00 6.570693e-01 3.429307e-01 0.000000e+00
 0.000000e+00 0.000000e+00 0.000000e+00 8.047220e-01 1.952780e-01
 0.000000e+00 0.000000e+00 0.000000e+00 0.000000e+00 0.000000e+00
<ENDHMM>
~h "B"
<BEGINHMM>
<NUMSTATES> 5
<STATE> 2
<MEAN> 25
 8.746595e+00 7.051360e+00 3.793031e+00 2.434164e+00 1.364755e+00 4.309199e+00 3.262169e-01 -5.336160e+00 -4.914926e+00 -2.878407e-02 4.179035e-01 -1.527852e+00 8.131659e-01 1.533242e+00 5.641057e-01 4.978940e-01 6.930087e-01 4.080763e-01 8.290796e-01 -4.991726e-01 -5.107400e-01 -1.628872e-01 -2.455303e-01 -5.198213e-02 -1.272956e+00
<VARIANCE> 25
 4.565786e+01 4.050614e+01 3.114992e+01 4.019548e+01 3.505484e+01 3.926054e+01 4.489507e+01 4.097348e+01 4.895587e+01 3.199696e+01 4.152969e+01 2.867139e+01 2.419747e+00 2.908366e+00 2.802279e+00 3.363179e+00 2.939801e+00 2.946909e+00 3.628600e+00 3.518212e+00 4.116410e+00 2.968496e+00 3.304867e+00 2.380927e+00 6.338754e+00
<GCONST> 1.050984e+02
<STATE> 3
<MEAN> 25
 1.054641e+01 9.667512e+00 4.433221e+00 2.307224e+00 2.007665e+00 4.996915e+00 1.490121e+00 -6.366472e+00 -5.528431e+00 -7.026654e-02 4.260406e-01 -1.575942e+00 -4.456752e-01 -9.717493e-01 -8.363777e-01 -1.026814e+00 3.672585e-02 -4.013052e-01 -8.247795e-01 3.553058e-01 9.574341e-01 4.139419e-01 6.466004e-01 2.209740e-01 1.972060e+00
<VARIANCE> 25
 2.595822e+01 3.401620e+01 2.522534e+01 3.463081e+01 3.135986e+01 3.650985e+01 3.458751e+01 3.485318e+01 4.401730e+01 3.150678e+01 3.994763e+01 2.837567e+01 2.826906e+00 5.148338e+00 3.597237e+00 5.666128e+00 3.315544e+00 3.596617e+00 4.532503e+00 3.802917e+00 5.484568e+00 3.773613e+00 4.259823e+00 3.222939e+00 8.533434e+00
<GCONST> 1.067202e+02
<STATE> 4
<MEAN> 25
 8.155265e+00 4.815407e+00 1.300451e+00 -1.151217e+00 1.254363e+00 3.594226e+00 -1.874838e+00 -4.647360e+00 -1.772778e+00 1.677815e+00 2.347694e+00 -1.158972e+00 -1.133151e+00 -2.729697e+00 -1.352260e+00 -1.607618e+00 -1.048494e+00 -6.079913e-01 -1.687814e+00 1.089679e+00 1.676500e+00 6.159156e-01 6.015822e-01 -2.019276e-01 3.935537e+00
<VARIANCE> 25
 2.813822e+01 5.991962e+01 3.898183e+01 7.451571e+01 3.586227e+01 4.761327e+01 4.470947e+01 3.391687e+01 4.478324e+01 4.202296e+01 4.478263e+01 3.363283e+01 2.261237e+00 4.475824e+00 5.009087e+00 6.639728e+00 4.841699e+00 5.675605e+00 4.710862e+00 5.497063e+00 7.846067e+00 5.536621e+00 5.401118e+00 6.209129e+00 6.259115e+00
<GCONST> 1.124799e+02
<TRANSP> 5
 0.000000e+00 1.000000e+00 0.000000e+00 0.000000e+00 0.000000e+00
 0.000000e+00 7.142423e-01 2.857577e-01 0.000000e+00 0.000000e+00
 0.000000e+00 0.000000e+00 4.634190e-01 5.365810e-01 0.000000e+00
 0.000000e+00 0.000000e+00 0.000000e+00 5.510906e-01 4.489094e-01
 0.000000e+00 0.000000e+00 0.000000e+00 0.000000e+00 0.000000e+00
<ENDHMM>
~h "C"
<BEGINHMM>
<NUMSTATES> 5
<STATE> 2
<MEAN> 25
 -2.022895e+00 6.004763e+00 2.527842e+00 3.697551e+00 1.146300e+00 -5.352206e+00 8.931050e-01 -1.286551e-02 -4.009497e-01 -7.229124e-01 -1.029924e+00 2.207834e+00 -1.686325e+00 8.169615e-02 -6.734166e-01 -3.417044e-01 8.165148e-01 1.023983e-01 5.261137e-01 -1.587761e-01 1.746928e-01 1.076115e-01 1.287510e-01 2.226604e-01 -1.101437e+00
<VARIANCE> 25
 3.679580e+01 3.533656e+01 3.674694e+01 2.773417e+01 4.078325e+01 4.185817e+01 4.565096e+01 4.147908e+01 3.797010e+01 2.778800e+01 2.685988e+01 2.259841e+01 5.019520e+00 4.919664e+00 3.136094e+00 3.445369e+00 4.164810e+00 3.179203e+00 3.592976e+00 3.416602e+00 3.213179e+00 2.710029e+00 2.671373e+00 2.472791e+00 1.181728e+01
<GCONST> 1.056019e+02
<STATE> 3
<MEAN> 25
 -1.446879e+01 2.958632e+00 -1.660862e+00 -1.626496e+00 4.174888e+00 -3.265674e+00 2.574385e+00 -1.378953e-01 3.896340e-01 7.200359e-01 1.162568e+00 3.915673e+00 -2.253752e+00 -4.734662e-01 -2.256729e-01 -1.136157e+00 -2.904311e-01 -3.377227e-02 4.624572e-02 4.258016e-01 2.714472e-01 1.232165e-01 4.492628e-01 4.893021e-01 3.875324e+00
<VARIANCE> 25
 5.770685e+01 2.854119e+01 3.146077e+01 3.258079e+01 3.314529e+01 3.684587e+01 3.648536e+01 3.109732e+01 2.791037e+01 2.195026e+01 2.186773e+01 1.775873e+01 9.882828e+00 3.427776e+00 4.145092e+00 3.633191e+00 4.266756e+00 3.896572e+00 3.649958e+00 3.571510e+00 3.102749e+00 2.470434e+00 2.589998e+00 1.942176e+00 9.348218e+00
<GCONST> 1.043082e+02
<STATE> 4
<MEAN> 25
 -1.011485e+01 1.109157e+00 1.873696e+00 -2.426503e+00 -1.739792e+00 -5.470097e+00 -4.819285e-01 2.444999e+00 1.899625e+00 -7.866240e-01 4.099569e-01 3.616570e+00 4.475658e+00 -1.541001e+00 9.668966e-01 1.796336e-01 -1.890145e+00 -3.591889e-01 -1.615304e+00 8.325181e-01 6.355432e-01 -4.304179e-01 -5.110548e-01 -1.067563e+00 2.325377e+00
<VARIANCE> 25
 1.015173e+02 3.398236e+01 3.746271e+01 3.112520e+01 4.283000e+01 3.940453e+01 5.341448e+01 4.242695e+01 3.294825e+01 2.383607e+01 2.670499e+01 1.983803e+01 8.419243e+00 5.849510e+00 6.147573e+00 4.473227e+00 4.946268e+00 5.090768e+00 5.020096e+00 7.204248e+00 5.685853e+00 3.652637e+00 3.526927e+00 2.958278e+00 3.005977e+00
<GCONST> 1.097542e+02
<TRANSP> 5
 0.000000e+00 1.000000e+00 0.000000e+00 0.000000e+00 0.000000e+00
 0.000000e+00 8.078093e-01 1.921907e-01 0.000000e+00 0.000000e+00
 0.000000e+00 0.000000e+00 7.159957e-01 2.840043e-01 0.000000e+00
 0.000000e+00 0.000000e+00 0.000000e+00 6.997741e-01 3.002259e-01
 0.000000e+00 0.000000e+00 0.000000e+00 0.000000e+00 0.000000e+00
<ENDHMM>
~h "D"
<BEGINHMM>
<NUMSTATES> 5
<STATE> 2
<MEAN> 25
 6.558314e+00 4.307969e+00 6.199512e+00 6.548086e+00 -6.320109e-01 -2.984022e+00 -2.614977e+00 -1.065117e-01 1.448562e+00 -9.828100e-01 -3.893092e+00 -1.177009e+00 7.666059e-01 1.075772e+00 9.369183e-01 9.329138e-01 6.292028e-01 -4.445516e-01 -6.836632e-02 3.520206e-02 2.230407e-01 -2.527860e-01 -5.513450e-01 -4.385728e-02 -9.342701e-01
<VARIANCE> 25
 4.690113e+01 5.780640e+01 3.833113e+01 3.780930e+01 5.316555e+01 3.662230e+01 5.661668e+01 6.875453e+01 4.519054e+01 3.770578e+01 4.013866e+01 3.117941e+01 3.284163e+00 4.510544e+00 2.997325e+00 3.797829e+00 4.589437e+00 3.231538e+00 4.260855e+00 5.833751e+00 4.056710e+00 3.192073e+00 3.876456e+00 2.920542e+00 8.282064e+00
<GCONST> 1.096839e+02
<STATE> 3
<MEAN> 25
 7.212648e+00 4.486365e+00 8.541273e+00 6.823872e+00 1.398063e-02 -4.280428e+00 -3.670546e+00 9.494417e-01 1.492044e+00 -1.678014e+00 -3.611481e+00 -2.264745e-01 -1.223730e+00 -2.025011e+00 -5.903672e-02 -1.617646e+00 -8.262471e-01 -4.576141e-01 -7.741119e-01 1.265379e+00 -6.488801e-02 -9.466045e-02 1.267546e+00 8.904995e-01 3.256825e+00
<VARIANCE> 25
 3.403594e+01 5.015979e+01 2.901555e+01 4.088342e+01 4.477112e+01 3.690280e+01 5.414966e+01 5.104498e+01 4.390480e+01 3.500962e+01 3.599773e+01 3.378674e+01 3.551900e+00 5.509757e+00 3.970287e+00 5.072216e+00 6.743650e+00 3.939589e+00 5.572505e+00 7.995807e+00 6.250317e+00 3.979153e+00 4.643663e+00 3.564568e+00 9.531116e+00
<GCONST> 1.115715e+02
<STATE> 4
<MEAN> 25
 3.988639e+00 -1.986195e+00 6.933050e+00 1.312160e+00 -5.402261e+00 -5.281046e+00 -5.967759e+00 4.865924e+00 1.849352e+00 -1.259221e+00 5.742340e-01 1.510961e+00 -8.831344e-01 -1.701830e+00 -8.652351e-01 -1.722062e+00 -1.538278e+00 1.874121e-01 -2.755526e-01 9.049569e-01 1.878328e-01 2.075910e-01 9.671512e-01 -1.530038e-01 3.199593e+00
<VARIANCE> 25
 2.313157e+01 4.580511e+01 4.374501e+01 4.737076e+01 6.955250e+01 3.839478e+01 6.681023e+01 6.849317e+01 6.306144e+01 3.139581e+01 3.925142e+01 2.804580e+01 3.178376e+00 3.607977e+00 5.666322e+00 4.255632e+00 7.335230e+00 4.245114e+00 6.325498e+00 9.273146e+00 8.644501e+00 4.133395e+00 6.375583e+00 4.166625e+00 6.563846e+00
<GCONST> 1.133318e+02
<TRANSP> 5
 0.000000e+00 1.000000e+00 0.000000e+00 0.000000e+00 0.000000e+00
 0.000000e+00 7.013118e-01 2.986882e-01 0.000000e+00 0.000000e+00
 0.000000e+00 0.000000e+00 5.289791e-01 4.710210e-01 0.000000e+00
 0.000000e+00 0.000000e+00 0.000000e+00 4.999117e-01 5.000883e-01
 0.000000e+00 0.000000e+00 0.000000e+00 0.000000e+00 0.000000e+00
<ENDHMM>
~h "E"
<BEGINHMM>
<NUMSTATES> 5
<STATE> 2
<MEAN> 25
 2.699292e+00 -7.901730e+00 4.976709e+00 -1.953446e+00 -1.015777e+01 -6.558592e+00 -9.023506e-01 8.209869e+00 -3.432598e-01 -5.005206e-01 2.861039e+00 -7.333099e-01 1.529557e-01 -1.180059e+00 1.010407e+00 -9.653723e-01 -1.954099e+00 -2.676221e-01 7.996501e-01 1.574084e+00 -4.620702e-01 -1.764259e-01 7.804849e-01 -1.740533e-01 1.942328e+00
<VARIANCE> 25
 2.232783e+01 4.093859e+01 4.649296e+01 3.371817e+01 5.551197e+01 4.184108e+01 6.163741e+01 5.489240e+01 4.865540e+01 3.905508e+01 4.854358e+01 2.999398e+01 2.542903e+00 3.562031e+00 2.975643e+00 2.793481e+00 4.736248e+00 3.414736e+00 4.685227e+00 5.568910e+00 4.224681e+00 3.809659e+00 3.490752e+00 2.529965e+00 6.708208e+00
<GCONST> 1.080590e+02
<STATE> 3
<MEAN> 25
 2.902990e+00 -8.679911e+00 8.052759e+00 -4.292210e+00 -1.384453e+01 -7.015926e+00 6.978787e-01 9.363228e+00 -2.064863e+00 7.694544e-01 5.090136e+00 -1.646864e+00 -5.406602e-02 3.161501e-01 4.009396e-03 5.383215e-02 7.215337e-02 -3.730770e-02 3.417910e-01 -2.044087e-01 -7.821745e-02 8.692078e-02 -5.749160e-02 -8.189995e-02 -4.314446e-01
<VARIANCE> 25
 9.093545e+00 2.638595e+01 4.032927e+01 2.892180e+01 3.608395e+01 3.798644e+01 5.045155e+01 4.779775e+01 4.633303e+01 4.364458e+01 4.710969e+01 2.685379e+01 5.675310e-01 1.290032e+00 1.279973e+00 1.412200e+00 1.748159e+00 1.471672e+00 2.043337e+00 2.050167e+00 2.002494e+00 1.667062e+00 1.684320e+00 1.158677e+00 2.893037e+00
<GCONST> 9.384895e+01
<STATE> 4
<MEAN> 25
 8.318165e-02 -2.544871e+00 4.140224e+00 -4.764324e-02 -7.320014e+00 -5.500893e+00 3.029372e+00 3.629113e+00 -1.080246e+00 9.583378e-02 2.273833e+00 2.082680e-01 -3.136594e-02 4.559881e-01 -3.332148e-01 3.628305e-01 6.965099e-01 1.402578e-01 -9.616610e-02 -3.732575e-01 1.088296e-01 -1.014600e-02 -3.392322e-01 6.638511e-02 -9.111681e-01
<VARIANCE> 25
 2.262906e+01 4.406033e+01 5.451714e+01 3.085889e+01 7.329681e+01 4.454661e+01 4.370806e+01 4.947714e+01 3.907764e+01 3.479509e+01 3.946027e+01 2.678688e+01 8.548273e-01 1.439836e+00 1.355417e+00 1.465026e+00 2.204642e+00 1.817391e+00 2.347863e+00 2.203536e+00 2.019588e+00 1.884416e+00 1.841730e+00 1.462109e+00 2.290410e+00
<GCONST> 9.730903e+01
<TRANSP> 5
 0.000000e+00 1.000000e+00 0.000000e+00 0.000000e+00 0.000000e+00
 0.000000e+00 6.471561e-01 3.528439e-01 0.000000e+00 0.000000e+00
 0.000000e+00 0.000000e+00 7.806389e-01 2.193611e-01 0.000000e+00
 0.000000e+00 0.000000e+00 0.000000e+00 8.606520e-01 1.393480e-01
 0.000000e+00 0.000000e+00 0.000000e+00 0.000000e+00 0.000000e+00
<ENDHMM>
~h "F"
<BEGINHMM>
<NUMSTATES> 5
<STATE> 2
<MEAN> 25
 -3.597659e+00 2.122304e+00 -3.526852e-01 3.458941e+00 3.447760e+00 -1.191484e-01 1.290114e+00 -3.131723e-01 9.319836e-02 6.950361e-01 -1.508579e-01 1.267609e+00 -2.989546e+00 -7.545062e-02 -4.390360e-01 1.051418e+00 7.215866e-01 -4.668852e-01 3.483756e-01 2.896932e-01 6.994886e-01 1.488888e-02 -4.613039e-02 5.341411e-01 -9.824526e-01
<VARIANCE> 25
 4.978143e+01 2.554725e+01 3.423709e+01 3.733200e+01 3.561398e+01 4.566876e+01 3.638402e+01 3.456355e+01 3.209484e+01 2.717139e+01 2.649552e+01 2.288172e+01 4.065069e+00 3.885378e+00 3.564632e+00 4.259807e+00 4.906636e+00 4.601378e+00 3.785774e+00 4.051991e+00 3.707065e+00 3.326684e+00 3.172263e+00 2.436202e+00 2.246841e+00
<GCONST> 1.046515e+02
<STATE> 3
<MEAN> 25
 -1.123002e+01 -6.801614e-01 -2.892761e+00 4.002673e+00 3.247116e+00 -1.410550e+00 1.164779e+00 5.402982e-01 1.202052e+00 9.900616e-01 5.249066e-01 2.931956e+00 -5.683826e-01 -4.409553e-01 -3.190020e-01 -8.008863e-02 -6.778353e-02 -3.710790e-02 -1.846479e-02 4.411092e-02 6.028951e-02 3.728223e-02 7.769279e-02 1.060084e-01 -1.800351e-01
<VARIANCE> 25
 2.952062e+01 2.368162e+01 2.135141e+01 1.958550e+01 2.396267e+01 2.573899e+01 2.755821e+01 2.670433e+01 2.436515e+01 2.212280e+01 2.005701e+01 1.879893e+01 2.166403e+00 1.445066e+00 1.502329e+00 1.521126e+00 1.682651e+00 1.920374e+00 1.922287e+00 1.882859e+00 1.825218e+00 1.803361e+00 1.658206e+00 1.509591e+00 1.708552e+00
<GCONST> 9.085187e+01
<STATE> 4
<MEAN> 25
 -8.686322e+00 -2.443786e+00 -4.502878e+00 2.391701e+00 3.331126e+00 -4.465801e-01 1.653138e+00 1.103880e+00 1.172409e+00 8.445776e-01 8.402660e-01 2.378837e+00 1.626147e+00 1.985520e-01 1.944153e-01 -5.109786e-01 -3.699535e-01 2.005302e-01 -9.521103e-02 -1.443471e-01 -2.372848e-01 -1.112677e-01 4.054035e-02 -3.819067e-01 4.923962e-01
<VARIANCE> 25
 5.069456e+01 3.149290e+01 2.851119e+01 2.751750e+01 2.923692e+01 3.007543e+01 2.606755e+01 2.744779e+01 2.585766e+01 2.327310e+01 2.120086e+01 1.917649e+01 7.332628e+00 2.536955e+00 2.799920e+00 3.540278e+00 2.753930e+00 3.310514e+00 2.549448e+00 2.646394e+00 2.694952e+00 2.393740e+00 2.195177e+00 2.250271e+00 3.741837e+00
<GCONST> 9.986481e+01
<TRANSP> 5
 0.000000e+00 1.000000e+00 0.000000e+00 0.000000e+00 0.000000e+00
 0.000000e+00 7.026145e-01 2.973855e-01 0.000000e+00 0.000000e+00
 0.000000e+00 0.000000e+00 8.476600e-01 1.523400e-01 0.000000e+00
 0.000000e+00 0.000000e+00 0.000000e+00 8.439885e-01 1.560115e-01
 0.000000e+00 0.000000e+00 0.000000e+00 0.000000e+00 0.000000e+00
<ENDHMM>
~h "G"
<BEGINHMM>
<NUMSTATES> 5
<STATE> 2
<MEAN> 25
 7.281749e+00 5.030322e+00 6.630620e+00 4.401306e+00 -1.961138e+00 -3.531362e+00 -2.108191e+00 -1.137808e+00 -3.501687e+00 2.829642e+00 -8.678068e-01 -2.981565e+00 7.501593e-02 1.032263e+00 5.641177e-01 1.174041e+00 6.543796e-01 -7.807224e-01 4.705727e-01 -2.394832e-01 -4.107956e-01 -1.162297e-01 -2.941335e-01 2.489880e-01 -1.286790e+00
<VARIANCE> 25
 3.013233e+01 4.942479e+01 4.471919e+01 4.211611e+01 5.828833e+01 5.031697e+01 6.071227e+01 5.801942e+01 4.940748e+01 4.078978e+01 3.865483e+01 3.426398e+01 3.501848e+00 4.773138e+00 4.569884e+00 3.638797e+00 5.877559e+00 4.424072e+00 5.008981e+00 4.877057e+00 5.562395e+00 3.675200e+00 3.600200e+00 3.338333e+00 8.202965e+00
<GCONST> 1.114318e+02
<STATE> 3
<MEAN> 25
 3.666319e+00 4.276354e+00 4.981675e+00 5.865943e+00 9.001906e-01 -5.678197e+00 -1.610128e+00 -6.295388e-01 -3.541362e+00 2.398609e+00 -1.118560e+00 -3.500971e-01 -1.193724e+00 -1.448114e+00 -9.063893e-01 -8.902446e-01 -1.289159e-01 -6.566628e-01 -8.303246e-01 9.512819e-01 3.242559e-01 2.705956e-02 6.303254e-01 6.663889e-01 2.701469e+00
<VARIANCE> 25
 4.217305e+01 5.208955e+01 5.825953e+01 3.422209e+01 7.765306e+01 4.969755e+01 5.830783e+01 4.642907e+01 4.135725e+01 3.429784e+01 3.566177e+01 3.451715e+01 4.775997e+00 5.596677e+00 6.887509e+00 4.214454e+00 1.197110e+01 4.959680e+00 5.740898e+00 6.107552e+00 6.000732e+00 3.968748e+00 4.971826e+00 4.106810e+00 7.742354e+00
<GCONST> 1.143026e+02
<STATE> 4
<MEAN> 25
 2.338025e+00 4.485610e-01 3.450440e+00 1.284701e+00 -3.510084e+00 -5.804428e+00 -3.684480e+00 2.653935e+00 -1.498086e+00 2.350892e+00 1.568433e+00 -2.085264e-01 -1.234045e-01 -1.196850e+00 -6.494860e-01 -1.723416e+00 -1.059159e+00 7.037467e-01 -3.251016e-01 1.044591e+00 9.527029e-01 -9.465453e-02 3.851007e-01 -4.249845e-01 2.076581e+00
<VARIANCE> 25
 2.880114e+01 4.781187e+01 5.733680e+01 3.935455e+01 8.469289e+01 5.220475e+01 6.098547e+01 6.028945e+01 5.483904e+01 3.640580e+01 4.539849e+01 3.051569e+01 3.193017e+00 2.991471e+00 5.131679e+00 3.626937e+00 8.344824e+00 4.092043e+00 4.380955e+00 5.885531e+00 6.634290e+00 3.269446e+00 5.247963e+00 4.136378e+00 4.086628e+00
<GCONST> 1.118563e+02
<TRANSP> 5
 0.000000e+00 1.000000e+00 0.000000e+00 0.000000e+00 0.000000e+00
 0.000000e+00 6.699864e-01 3.300137e-01 0.000000e+00 0.000000e+00
 0.000000e+00 0.000000e+00 5.963927e-01 4.036073e-01 0.000000e+00
 0.000000e+00 0.000000e+00 0.000000e+00 5.610140e-01 4.389860e-01
 0.000000e+00 0.000000e+00 0.000000e+00 0.000000e+00 0.000000e+00
<ENDHMM>
~h "H"
<BEGINHMM>
<NUMSTATES> 5
<STATE> 2
<MEAN> 25
 3.029193e-01 -3.062330e+00 -2.258947e+00 7.101589e-01 7.163634e+00 3.589095e+00 3.079637e+00 2.350801e+00 9.602247e-01 -7.637867e-01 -2.659967e+00 1.810289e-01 -8.653618e-01 -1.183292e-01 -3.942931e-02 6.998247e-01 1.126281e+00 3.241400e-01 6.457545e-01 1.544960e-01 3.013179e-01 -1.272198e-01 3.979246e-02 4.836736e-01 -8.994190e-01
<VARIANCE> 25
 2.788730e+01 4.261276e+01 4.962246e+01 4.561020e+01 7.251389e+01 5.399865e+01 5.233364e+01 5.121540e+01 4.614120e+01 4.087272e+01 4.173875e+01 3.525553e+01 1.766060e+00 3.274385e+00 3.412162e+00 3.463725e+00 4.011303e+00 3.433455e+00 3.608635e+00 3.541916e+00 3.268294e+00 3.013898e+00 3.034173e+00 2.661566e+00 2.431161e+00
<GCONST> 1.064144e+02
<STATE> 3
<MEAN> 25
 -1.798475e+00 -3.895515e+00 -3.056251e+00 1.153567e+00 8.298756e+00 3.693677e+00 3.607771e+00 2.473243e+00 1.805301e+00 -8.168081e-01 -2.224067e+00 9.901134e-01 -3.803653e-01 -1.145129e-02 -1.205871e-01 -5.395916e-02 -1.263464e-01 -1.571172e-01 2.493486e-02 -1.618933e-01 -1.106961e-02 -6.359878e-03 1.499660e-01 1.460618e-01 -8.859060e-01
<VARIANCE> 25
 3.195409e+01 4.497025e+01 4.731763e+01 4.249237e+01 6.712179e+01 5.184486e+01 5.329601e+01 4.907739e+01 4.420380e+01 4.117547e+01 3.844893e+01 3.284858e+01 1.647900e+00 2.621238e+00 2.586236e+00 2.608217e+00 3.213376e+00 3.001212e+00 3.109545e+00 3.056525e+00 2.858115e+00 2.665221e+00 2.575574e+00 2.287693e+00 2.892592e+00
<GCONST> 1.042517e+02
<STATE> 4
<MEAN> 25
 -4.006880e+00 -2.571611e+00 -4.078073e+00 1.494733e+00 5.370784e+00 1.115083e+00 3.170420e+00 1.125524e+00 9.473042e-01 -9.735844e-01 -8.233950e-01 1.657241e+00 1.325405e-01 1.767441e-01 3.677910e-02 -7.823980e-02 -2.418079e-01 -6.922124e-02 -6.911185e-02 -1.075003e-01 -8.297744e-02 2.115878e-02 3.235929e-02 -7.268329e-02 -1.534602e-01
<VARIANCE> 25
 2.386325e+01 5.315968e+01 3.356282e+01 2.967799e+01 3.987196e+01 3.566220e+01 3.411810e+01 3.231261e+01 3.123367e+01 2.794001e+01 2.727917e+01 2.355890e+01 1.264192e+00 1.714273e+00 1.557979e+00 1.554787e+00 1.846024e+00 1.857602e+00 2.056424e+00 2.046875e+00 2.039251e+00 1.921540e+00 1.804838e+00 1.699373e+00 1.868808e+00
<GCONST> 9.493813e+01
<TRANSP> 5
 0.000000e+00 1.000000e+00 0.000000e+00 0.000000e+00 0.000000e+00
 0.000000e+00 5.206045e-01 4.793955e-01 0.000000e+00 0.000000e+00
 0.000000e+00 0.000000e+00 4.733817e-01 5.266183e-01 0.000000e+00
 0.000000e+00 0.000000e+00 0.000000e+00 8.688388e-01 1.311612e-01
 0.000000e+00 0.000000e+00 0.000000e+00 0.000000e+00 0.000000e+00
<ENDHMM>
~h "I"
<BEGINHMM>
<NUMSTATES> 5
<STATE> 2
<MEAN> 25
 -3.336651e-01 1.415708e+00 1.335002e+01 2.059874e+00 -8.993886e+00 -5.539995e+00 -3.425216e+00 -2.279818e+00 -7.296629e+00 -9.691566e-01 3.856797e+00 6.182641e-01 3.717580e-01 4.246595e-02 2.795650e+00 -4.412894e-01 -2.802408e+00 2.589331e-01 -1.287788e+00 -6.100591e-01 -1.791740e+00 -8.365574e-02 1.327435e+00 -3.890437e-01 1.723040e+00
<VARIANCE> 25
 3.009709e+01 3.594537e+01 4.981989e+01 3.812093e+01 5.466203e+01 4.488524e+01 5.222375e+01 5.211757e+01 4.605264e+01 3.795763e+01 3.385517e+01 2.807661e+01 5.401777e+00 3.080904e+00 4.789392e+00 4.141581e+00 4.976888e+00 4.699693e+00 6.184970e+00 5.718109e+00 5.300942e+00 4.513112e+00 3.653624e+00 3.244986e+00 4.544424e+00
<GCONST> 1.101992e+02
<STATE> 3
<MEAN> 25
 2.730040e-01 2.096249e+00 1.845609e+01 5.351198e-02 -1.431769e+01 -3.088557e+00 -6.736881e+00 -3.833596e+00 -1.008873e+01 -5.005996e-01 6.252716e+00 -1.109689e+00 1.213865e-01 2.458396e-01 -4.069024e-02 -8.434314e-02 -1.501578e-01 1.280518e-01 6.086796e-02 -1.127234e-01 1.313920e-01 1.281505e-01 2.146052e-02 -9.505311e-02 -2.968337e-01
<VARIANCE> 25
 1.262946e+01 2.538336e+01 3.227522e+01 3.802649e+01 2.812539e+01 4.420390e+01 3.982721e+01 4.321281e+01 3.805447e+01 5.219565e+01 3.445866e+01 3.283761e+01 1.062281e+00 1.792493e+00 2.439832e+00 2.091861e+00 3.090871e+00 2.688482e+00 2.988887e+00 3.120887e+00 2.811983e+00 2.328508e+00 2.111776e+00 1.691802e+00 2.701392e+00
<GCONST> 9.880183e+01
<STATE> 4
<MEAN> 25
 -3.511239e-03 4.723695e+00 1.327066e+01 1.722045e+00 -9.210051e+00 -3.314046e+00 -2.474666e+00 -4.382339e+00 -6.417272e+00 -3.249553e-01 2.838626e+00 3.364549e-03 9.495646e-02 9.883754e-02 -1.157788e+00 2.865477e-01 1.023173e+00 -1.531437e-01 5.234216e-01 2.921747e-01 6.489806e-01 1.048346e-02 -5.260687e-01 1.677323e-01 -1.175168e+00
<VARIANCE> 25
 2.007924e+01 3.195503e+01 5.682551e+01 3.702672e+01 5.501261e+01 5.469075e+01 4.674379e+01 5.066243e+01 3.966346e+01 3.647417e+01 3.654492e+01 3.006454e+01 1.473214e+00 1.912622e+00 2.291044e+00 1.981674e+00 3.120229e+00 2.561296e+00 2.954343e+00 3.199343e+00 2.865140e+00 2.303427e+00 2.339541e+00 1.855366e+00 3.071889e+00
<GCONST> 1.014715e+02
<TRANSP> 5
 0.000000e+00 1.000000e+00 0.000000e+00 0.000000e+00 0.000000e+00
 0.000000e+00 6.606783e-01 3.393217e-01 0.000000e+00 0.000000e+00
 0.000000e+00 0.000000e+00 7.263590e-01 2.736410e-01 0.000000e+00
 0.000000e+00 0.000000e+00 0.000000e+00 8.472843e-01 1.527156e-01
 0.000000e+00 0.000000e+00 0.000000e+00 0.000000e+00 0.000000e+00
<ENDHMM>
~h "J"
<BEGINHMM>
<NUMSTATES> 5
<STATE> 2
<MEAN> 25
 3.168570e+00 8.142741e+00 8.832803e+00 5.220613e+00 -1.358950e+00 -4.178480e+00 -2.854857e-02 1.269424e+00 -1.309290e+00 -2.712018e+00 -5.035878e-01 1.466288e+00 -3.625921e-01 1.235268e+00 5.501920e-01 2.772976e-01 8.131111e-01 2.171665e-03 7.610548e-01 -5.046363e-02 1.353074e-01 -1.126903e-01 -1.910112e-01 1.024524e-01 -9.433828e-01
<VARIANCE> 25
 4.443709e+01 4.508142e+01 4.246335e+01 3.043512e+01 4.838089e+01 4.246999e+01 4.871356e+01 3.926186e+01 3.880799e+01 3.149776e+01 2.700423e+01 2.490857e+01 5.905839e+00 3.439399e+00 3.265831e+00 3.054264e+00 4.100469e+00 3.321165e+00 4.194589e+00 4.057946e+00 3.942527e+00 2.978989e+00 2.677695e+00 2.607618e+00 7.307218e+00
<GCONST> 1.066704e+02
<STATE> 3
<MEAN> 25
 -6.376729e+00 9.205416e+00 8.957999e+00 3.164475e+00 2.540524e+00 -3.406214e+00 1.376514e+00 -7.810041e-01 -2.068080e+00 -1.729699e+00 5.940989e-01 3.332517e+00 -1.604037e+00 -1.269151e+00 2.751783e-01 -5.505626e-01 -1.211611e+00 -8.480557e-01 -9.610105e-01 -3.495465e-01 -4.861861e-01 -5.850448e-02 9.549289e-01 9.071249e-01 3.281774e+00
<VARIANCE> 25
 7.576865e+01 3.806812e+01 4.393899e+01 3.237508e+01 5.495476e+01 4.579604e+01 3.571468e+01 3.116602e+01 2.989129e+01 2.356387e+01 2.253269e+01 2.093229e+01 1.295511e+01 3.902112e+00 4.543055e+00 4.147628e+00 9.991470e+00 4.683185e+00 4.204173e+00 4.481555e+00 3.897799e+00 2.714115e+00 2.587010e+00 2.255244e+00 4.347017e+00
<GCONST> 1.079664e+02
<STATE> 4
<MEAN> 25
 -8.808737e-01 3.484647e-01 1.006356e+01 7.123034e-01 -9.359147e+00 -8.362365e+00 -5.862756e+00 2.835955e+00 -1.288639e+00 -2.263087e+00 4.858071e+00 4.789582e+00 2.253451e+00 -2.636125e+00 -1.360940e+00 -9.620162e-01 -1.648767e+00 1.776910e-01 -1.361868e+00 1.946038e+00 1.392753e+00 4.147805e-01 2.687287e-02 -1.144102e+00 1.490386e+00
<VARIANCE> 25
 2.877553e+01 3.666431e+01 3.280005e+01 3.926614e+01 4.088348e+01 2.622089e+01 3.841688e+01 5.744585e+01 4.512473e+01 2.763437e+01 2.652357e+01 2.210630e+01 3.674621e+00 3.269464e+00 5.082787e+00 3.151392e+00 8.265066e+00 4.163448e+00 5.720797e+00 7.399505e+00 5.189299e+00 3.121999e+00 4.976339e+00 3.370343e+00 1.712797e+00
<GCONST> 1.069347e+02
<TRANSP> 5
 0.000000e+00 1.000000e+00 0.000000e+00 0.000000e+00 0.000000e+00
 0.000000e+00 8.165440e-01 1.834560e-01 0.000000e+00 0.000000e+00
 0.000000e+00 0.000000e+00 7.447615e-01 2.552385e-01 0.000000e+00
 0.000000e+00 0.000000e+00 0.000000e+00 6.748087e-01 3.251913e-01
 0.000000e+00 0.000000e+00 0.000000e+00 0.000000e+00 0.000000e+00
<ENDHMM>
~h "K"
<BEGINHMM>
<NUMSTATES> 5
<STATE> 2
<MEAN> 25
 -1.466712e+00 3.350662e+00 -1.190620e+00 1.937159e+00 1.907315e+00 -2.477555e+00 1.496631e+00 -6.752976e-01 -6.657104e-01 1.368237e+00 -8.771651e-01 7.392853e-01 -1.089957e+00 -5.183377e-01 -8.336490e-01 2.537255e-01 9.375987e-01 -4.344301e-01 -1.159169e-02 3.203882e-01 1.958874e-01 2.080896e-01 -1.878200e-01 5.384337e-01 -4.344856e-01
<VARIANCE> 25
 3.453637e+01 3.569900e+01 3.964935e+01 3.609458e+01 4.534315e+01 4.603701e+01 4.382413e+01 4.392062e+01 4.102205e+01 3.522495e+01 3.230015e+01 3.122619e+01 2.485857e+00 5.217783e+00 4.361407e+00 3.368112e+00 4.880036e+00 4.137157e+00 4.207066e+00 4.044566e+00 3.743266e+00 3.538375e+00 3.112500e+00 2.642779e+00 1.163087e+01
<GCONST> 1.079624e+02
<STATE> 3
<MEAN> 25
 -4.748937e+00 -1.984549e+00 -6.067842e+00 9.936748e-01 5.475833e+00 -4.075993e+00 -2.501905e-01 1.244718e+00 -1.142223e-01 2.998964e+00 -1.886662e+00 2.134678e+00 -5.993668e-01 -1.592989e+00 -1.547120e+00 -8.065297e-01 8.156831e-01 -4.664639e-01 -6.707313e-01 7.832665e-01 1.127893e-01 6.173816e-01 -4.084686e-01 6.243598e-02 3.667236e+00
<VARIANCE> 25
 3.167953e+01 5.524996e+01 6.176846e+01 4.400154e+01 5.748122e+01 5.431649e+01 5.421985e+01 4.511172e+01 4.335446e+01 3.723223e+01 3.220262e+01 3.211623e+01 4.226393e+00 5.832194e+00 7.387809e+00 4.947171e+00 6.913168e+00 5.865410e+00 5.796587e+00 5.319302e+00 4.994672e+00 4.578368e+00 3.987760e+00 4.014604e+00 1.626993e+01
<GCONST> 1.141253e+02
<STATE> 4
<MEAN> 25
 -3.812078e+00 -2.934970e+00 -6.374092e+00 -1.232261e+00 4.388605e+00 -3.710271e+00 -3.620000e-01 2.763232e+00 4.886077e-01 2.853863e+00 -2.292844e+00 6.753987e-01 1.364625e+00 -9.700170e-02 7.357396e-01 -8.648070e-01 -1.148975e+00 5.391219e-01 -3.290943e-02 2.864379e-01 6.295371e-02 -3.679080e-01 2.418283e-01 -1.014417e+00 2.463824e+00
<VARIANCE> 25
 3.749452e+01 4.440308e+01 5.793367e+01 4.301444e+01 5.389138e+01 5.458849e+01 4.965824e+01 4.472050e+01 4.314667e+01 3.683372e+01 3.278613e+01 3.701390e+01 4.874173e+00 4.585715e+00 6.167257e+00 4.531559e+00 5.655473e+00 5.033627e+00 5.117166e+00 4.773433e+00 4.824530e+00 3.932388e+00 3.708084e+00 4.363970e+00 9.114802e+00
<GCONST> 1.122684e+02
<TRANSP> 5
 0.000000e+00 1.000000e+00 0.000000e+00 0.000000e+00 0.000000e+00
 0.000000e+00 6.643115e-01 3.356885e-01 0.000000e+00 0.000000e+00
 0.000000e+00 0.000000e+00 5.243564e-01 4.756437e-01 0.000000e+00
 0.000000e+00 0.000000e+00 0.000000e+00 6.585939e-01 3.414061e-01
 0.000000e+00 0.000000e+00 0.000000e+00 0.000000e+00 0.000000e+00
<ENDHMM>
~h "L"
<BEGINHMM>
<NUMSTATES> 5
<STATE> 2
<MEAN> 25
 6.686910e+00 -5.168462e+00 -4.792472e-01 -5.897801e+00 -3.104996e+00 2.464451e+00 -7.910693e+00 -5.058668e+00 5.142928e+00 4.507796e+00 1.594206e+00 -3.001968e+00 4.955582e-01 1.675524e-02 4.674488e-01 -7.210530e-01 3.084984e-01 2.221131e-01 -1.247983e+00 -1.058094e+00 4.474250e-01 1.062585e+00 2.413182e-01 -1.937231e-01 -2.077208e-01
<VARIANCE> 25
 1.757314e+01 2.807808e+01 5.043818e+01 5.779891e+01 4.771103e+01 6.866683e+01 7.083357e+01 9.503246e+01 5.991485e+01 4.795541e+01 4.905214e+01 4.111524e+01 1.078551e+00 1.814742e+00 2.909424e+00 4.031443e+00 4.285821e+00 4.961344e+00 4.387960e+00 5.493479e+00 4.473184e+00 3.736042e+00 3.978292e+00 2.997948e+00 1.451943e+00
<GCONST> 1.076483e+02
<STATE> 3
<MEAN> 25
 7.536025e+00 -4.806469e+00 4.190193e-01 -7.717041e+00 -2.453986e+00 3.316458e+00 -1.033505e+01 -7.037734e+00 5.404721e+00 6.615892e+00 2.349081e+00 -3.207659e+00 -8.328635e-02 2.324638e-02 -1.055077e-02 -2.132707e-01 2.420013e-01 -3.065888e-02 -1.396940e-01 3.762740e-01 4.561823e-02 -6.004544e-02 -2.169547e-01 -8.379374e-02 -2.448356e-02
<VARIANCE> 25
 1.342665e+01 2.571059e+01 4.846703e+01 6.028799e+01 4.558682e+01 5.866844e+01 7.748849e+01 8.167436e+01 5.804575e+01 4.846743e+01 4.639977e+01 3.893729e+01 6.713713e-01 1.619801e+00 2.940515e+00 3.124681e+00 2.734758e+00 3.920851e+00 4.139994e+00 6.282084e+00 3.878500e+00 3.524657e+00 3.677886e+00 2.682431e+00 1.231316e+00
<GCONST> 1.049017e+02
<STATE> 4
<MEAN> 25
 6.257124e+00 -4.132598e+00 -1.159348e+00 -7.849884e+00 -4.031877e-01 3.267498e+00 -7.651043e+00 -3.633658e+00 4.878026e+00 4.612789e+00 2.635105e-01 -3.115154e+00 -4.330049e-01 -7.416096e-02 -3.281519e-01 5.793951e-01 9.898255e-02 -1.617444e-01 9.843520e-01 9.573334e-01 -2.632530e-01 -9.027016e-01 -5.914967e-01 4.660764e-02 -8.143969e-02
<VARIANCE> 25
 1.824469e+01 3.641433e+01 5.792820e+01 6.709861e+01 4.875460e+01 6.402957e+01 7.881497e+01 7.479076e+01 5.702806e+01 4.964230e+01 5.057700e+01 4.126096e+01 7.174820e-01 2.133731e+00 2.556556e+00 2.835233e+00 3.106564e+00 3.620291e+00 4.107276e+00 4.802196e+00 3.607867e+00 3.395859e+00 3.756790e+00 2.550968e+00 1.887003e+00
<GCONST> 1.062401e+02
<TRANSP> 5
 0.000000e+00 1.000000e+00 0.000000e+00 0.000000e+00 0.000000e+00
 0.000000e+00 5.626501e-01 4.373500e-01 0.000000e+00 0.000000e+00
 0.000000e+00 0.000000e+00 5.358441e-01 4.641558e-01 0.000000e+00
 0.000000e+00 0.000000e+00 0.000000e+00 6.424358e-01 3.575641e-01
 0.000000e+00 0.000000e+00 0.000000e+00 0.000000e+00 0.000000e+00
<ENDHMM>
~h "M"
<BEGINHMM>
<NUMSTATES> 5
<STATE> 2
<MEAN> 25
 8.139110e+00 -1.053813e+00 9.233691e-01 -5.767500e-01 -1.210244e+00 5.267127e+00 -1.399136e+00 -6.558427e+00 -6.113314e+00 -1.034399e-01 1.661832e+00 -2.975096e+00 4.152835e-01 1.044135e+00 1.537818e+00 1.826263e+00 9.045808e-02 4.603423e-01 5.751005e-01 -2.351407e+00 -2.613111e+00 -2.158986e-01 -3.981474e-01 3.893774e-01 -9.395367e-01
<VARIANCE> 25
 2.278505e+01 3.314792e+01 4.106781e+01 5.917184e+01 3.974635e+01 5.211232e+01 5.272252e+01 6.359807e+01 6.386206e+01 4.229748e+01 5.178386e+01 3.829342e+01 1.545785e+00 2.318434e+00 3.415215e+00 4.022280e+00 3.174798e+00 3.577178e+00 4.307092e+00 5.337011e+00 5.531374e+00 3.981573e+00 5.638416e+00 3.574959e+00 3.337671e+00
<GCONST> 1.083792e+02
<STATE> 3
<MEAN> 25
 8.560857e+00 8.365966e-01 4.815572e+00 3.259575e+00 -1.513225e+00 6.208859e+00 -3.327588e-01 -1.161106e+01 -1.177571e+01 -8.151193e-01 9.972756e-02 -1.738693e+00 -2.929354e-03 1.235458e-01 3.539584e-01 2.007788e-01 8.039002e-02 2.695638e-01 1.606970e-01 -2.561275e-01 -4.632872e-01 -2.764090e-01 -3.195168e-01 1.421066e-01 -7.233972e-03
<VARIANCE> 25
 1.293419e+01 2.242584e+01 2.531487e+01 3.911283e+01 3.861894e+01 5.458471e+01 6.085281e+01 5.968372e+01 5.369381e+01 5.568400e+01 6.139861e+01 4.032394e+01 7.274018e-01 1.552447e+00 2.099535e+00 2.890558e+00 1.895776e+00 2.331721e+00 2.416833e+00 3.523329e+00 3.947192e+00 2.513408e+00 3.313598e+00 2.199373e+00 2.298172e+00
<GCONST> 1.008490e+02
<STATE> 4
<MEAN> 25
 6.516459e+00 9.218293e-01 3.279049e+00 1.592191e+00 -4.586317e-01 5.858090e+00 2.544038e-01 -7.384029e+00 -8.159856e+00 -2.174216e+00 -1.280914e+00 -1.209693e+00 -1.460856e-01 -1.983925e-01 -6.738859e-01 -7.206714e-01 3.443132e-02 -2.147580e-01 -1.165567e-01 9.065923e-01 1.046937e+00 1.148680e-01 2.260394e-01 -1.554333e-01 3.147127e-01
<VARIANCE> 25
 2.715839e+01 2.789094e+01 3.971057e+01 4.783793e+01 4.694287e+01 5.683473e+01 5.115230e+01 5.546213e+01 6.134373e+01 4.353946e+01 5.542409e+01 3.693453e+01 6.496771e-01 1.642431e+00 2.740104e+00 3.255085e+00 2.143386e+00 2.263423e+00 2.451304e+00 3.573699e+00 4.444844e+00 2.387794e+00 3.125130e+00 2.211020e+00 2.179341e+00
<GCONST> 1.025569e+02
<TRANSP> 5
 0.000000e+00 1.000000e+00 0.000000e+00 0.000000e+00 0.000000e+00
 0.000000e+00 6.131939e-01 3.868060e-01 0.000000e+00 0.000000e+00
 0.000000e+00 0.000000e+00 6.019234e-01 3.980766e-01 0.000000e+00
 0.000000e+00 0.000000e+00 0.000000e+00 7.881479e-01 2.118521e-01
 0.000000e+00 0.000000e+00 0.000000e+00 0.000000e+00 0.000000e+00
<ENDHMM>
~h "N"
<BEGINHMM>
<NUMSTATES> 5
<STATE> 2
<MEAN> 25
 7.567924e+00 -3.359874e+00 3.227710e+00 2.057232e+00 -4.103664e+00 -2.161288e+00 -4.719048e+00 -1.352575e+00 9.796352e-01 1.079301e+00 -4.420485e+00 -3.384804e+00 5.894811e-01 1.937916e+00 1.648501e+00 1.837131e+00 -4.987071e-01 -6.434170e-01 2.276227e-01 -3.068233e+00 -9.504049e-01 1.015997e+00 -7.193184e-01 5.545369e-01 -1.893742e+00
<VARIANCE> 25
 1.089813e+01 3.484921e+01 3.944476e+01 3.754890e+01 3.788456e+01 4.521524e+01 4.576492e+01 9.977985e+01 5.565020e+01 4.218073e+01 4.129463e+01 3.673770e+01 7.824079e-01 2.194905e+00 3.277520e+00 2.909233e+00 3.425442e+00 4.515446e+00 4.626856e+00 6.781624e+00 4.618084e+00 4.331638e+00 4.296767e+00 3.128443e+00 1.530011e+00
<GCONST> 1.051453e+02
<STATE> 3
<MEAN> 25
 8.447225e+00 1.483895e+00 6.549006e+00 5.304175e+00 -5.374659e+00 -2.433611e+00 -3.093913e+00 -9.042384e+00 -1.885426e+00 3.518717e+00 -5.433900e+00 -1.830094e+00 5.331932e-02 8.209532e-01 3.225616e-01 3.728454e-01 1.025823e-01 1.172851e-01 3.356885e-01 -6.336095e-01 -5.302673e-01 1.708767e-01 -1.606342e-01 3.568467e-01 -8.485845e-01
<VARIANCE> 25
 9.771772e+00 2.025410e+01 2.583565e+01 2.992437e+01 3.369330e+01 4.940920e+01 5.211755e+01 6.288774e+01 5.360491e+01 4.508743e+01 4.833704e+01 4.321242e+01 6.221150e-01 1.727615e+00 1.782129e+00 1.751794e+00 2.342019e+00 2.453830e+00 2.872305e+00 5.075081e+00 3.140381e+00 2.667991e+00 2.504372e+00 2.101213e+00 1.619995e+00
<GCONST> 9.873940e+01
<STATE> 4
<MEAN> 25
 5.354091e+00 3.724643e+00 5.304692e+00 5.959654e+00 -1.685627e+00 -1.802347e+00 -8.692871e-01 -5.957397e+00 -2.344727e+00 1.121853e+00 -5.090135e+00 2.276852e-01 -5.717218e-01 1.199274e-01 -3.540720e-01 -2.309632e-01 6.048695e-01 1.834214e-01 1.538985e-01 7.234036e-01 2.241313e-02 -4.297160e-01 3.537409e-01 4.601599e-02 -7.114382e-01
<VARIANCE> 25
 3.175159e+01 2.997235e+01 3.297002e+01 3.177440e+01 4.701997e+01 3.953778e+01 5.010869e+01 5.871601e+01 4.645694e+01 4.486832e+01 4.783792e+01 3.678529e+01 1.149956e+00 2.144860e+00 1.970347e+00 2.224494e+00 2.564882e+00 2.508252e+00 2.799532e+00 4.225894e+00 2.964505e+00 2.744932e+00 2.595611e+00 2.128539e+00 2.676096e+00
<GCONST> 1.018921e+02
<TRANSP> 5
 0.000000e+00 1.000000e+00 0.000000e+00 0.000000e+00 0.000000e+00
 0.000000e+00 6.457531e-01 3.542469e-01 0.000000e+00 0.000000e+00
 0.000000e+00 0.000000e+00 6.175795e-01 3.824205e-01 0.000000e+00
 0.000000e+00 0.000000e+00 0.000000e+00 8.012800e-01 1.987200e-01
 0.000000e+00 0.000000e+00 0.000000e+00 0.000000e+00 0.000000e+00
<ENDHMM>
~h "O"
<BEGINHMM>
<NUMSTATES> 5
<STATE> 2
<MEAN> 25
 5.721900e+00 -2.926722e-01 -6.221306e+00 -9.151675e+00 -2.490884e+00 6.157962e+00 -4.247037e+00 -1.836399e+00 5.708878e-01 1.933142e+00 4.003668e+00 -6.484139e-01 1.616614e+00 -3.648309e-01 -7.697914e-01 -2.863106e+00 -1.305846e+00 2.448255e+00 -3.276550e-01 -6.132502e-02 3.729178e-01 -9.087940e-02 1.378157e+00 -4.547135e-01 2.016644e+00
<VARIANCE> 25
 3.257014e+01 3.436236e+01 4.758673e+01 7.626054e+01 6.169185e+01 5.729822e+01 7.081676e+01 5.244258e+01 6.084369e+01 5.360375e+01 4.481555e+01 3.652505e+01 4.181462e+00 2.899764e+00 5.768578e+00 6.201428e+00 7.084688e+00 5.368309e+00 5.230086e+00 5.842806e+00 5.438970e+00 5.374877e+00 4.496468e+00 3.828551e+00 5.611119e+00
<GCONST> 1.141211e+02
<STATE> 3
<MEAN> 25
 8.338027e+00 -1.582322e+00 -7.206012e+00 -1.493327e+01 -5.068029e+00 1.183654e+01 -3.919040e+00 -2.140263e+00 1.291118e+00 7.690015e-01 7.313728e+00 -1.098435e+00 2.219368e-01 -1.903519e-01 -1.893312e-01 -8.977133e-01 -1.011210e-01 9.428760e-01 3.299729e-01 -1.515112e-02 4.051354e-03 -2.570682e-01 4.244912e-01 2.062017e-02 3.026533e-01
<VARIANCE> 25
 1.206869e+01 2.933059e+01 2.720185e+01 5.179416e+01 4.390050e+01 4.045692e+01 5.844308e+01 4.756467e+01 4.847710e+01 5.839207e+01 4.495392e+01 3.886959e+01 8.303762e-01 1.872069e+00 1.620532e+00 3.651811e+00 2.849834e+00 2.932116e+00 3.201695e+00 2.989715e+00 3.692979e+00 3.598164e+00 2.641974e+00 2.506786e+00 2.279364e+00
<GCONST> 1.017954e+02
<STATE> 4
<MEAN> 25
 7.946319e+00 -1.973916e-01 -6.504220e+00 -1.392346e+01 -3.523917e+00 1.011934e+01 -2.286618e+00 -2.208762e+00 8.701521e-01 6.402830e-01 5.060452e+00 -6.284014e-01 -1.953213e-01 1.507911e-01 3.254293e-01 1.209422e+00 3.851797e-01 -9.072853e-01 6.255747e-02 -9.733738e-02 3.126279e-02 2.044036e-01 -6.079954e-01 -6.028051e-02 -9.595134e-01
<VARIANCE> 25
 1.471653e+01 3.837098e+01 2.841987e+01 5.975537e+01 4.587055e+01 4.647910e+01 6.197014e+01 4.687129e+01 4.842411e+01 5.468800e+01 4.128246e+01 4.078787e+01 8.122362e-01 1.627891e+00 1.597012e+00 3.580330e+00 2.500088e+00 3.013869e+00 2.841619e+00 2.759476e+00 2.921057e+00 2.960856e+00 2.528757e+00 2.151029e+00 2.472739e+00
<GCONST> 1.015282e+02
<TRANSP> 5
 0.000000e+00 1.000000e+00 0.000000e+00 0.000000e+00 0.000000e+00
 0.000000e+00 6.201907e-01 3.798093e-01 0.000000e+00 0.000000e+00
 0.000000e+00 0.000000e+00 5.930877e-01 4.069124e-01 0.000000e+00
 0.000000e+00 0.000000e+00 0.000000e+00 8.575227e-01 1.424773e-01
 0.000000e+00 0.000000e+00 0.000000e+00 0.000000e+00 0.000000e+00
<ENDHMM>
~h "P"
<BEGINHMM>
<NUMSTATES> 5
<STATE> 2
<MEAN> 25
 -2.884641e-01 4.722438e+00 -1.318469e+00 1.464958e+00 2.562564e+00 2.233537e-01 2.448446e+00 -1.828326e+00 -8.344198e-01 2.825289e-01 -4.389400e-01 5.510385e-01 -8.450846e-01 1.449197e-01 -1.189027e-01 2.797554e-01 2.325456e-01 -3.668011e-01 2.492734e-01 1.826869e-01 2.093397e-01 4.512887e-03 -2.425732e-02 2.941380e-01 -1.011171e+00
<VARIANCE> 25
 4.537652e+01 2.609240e+01 2.820101e+01 3.241111e+01 2.586995e+01 3.554892e+01 3.005699e+01 3.125220e+01 3.376912e+01 2.602921e+01 2.743060e+01 2.683754e+01 1.942886e+00 2.539697e+00 1.960236e+00 2.387800e+00 2.250265e+00 2.584173e+00 2.391229e+00 2.497403e+00 2.837912e+00 2.329189e+00 2.441198e+00 1.998487e+00 7.495964e+00
<GCONST> 9.906583e+01
<STATE> 3
<MEAN> 25
 -2.317376e+00 3.166894e+00 -1.977214e+00 1.067285e+00 2.448877e+00 -9.437047e-01 2.108001e+00 -1.476589e+00 4.644139e-02 4.009164e-01 -1.957103e-01 1.339030e+00 1.103965e-01 -1.857304e+00 -8.420327e-01 -1.164029e+00 -2.691071e-01 3.250590e-01 -4.178821e-01 2.336967e-01 3.655811e-01 1.609835e-01 6.380482e-01 -9.832183e-02 4.562462e+00
<VARIANCE> 25
 3.001776e+01 2.859558e+01 2.640794e+01 3.379324e+01 2.564117e+01 3.324346e+01 3.131970e+01 2.931010e+01 3.030303e+01 2.414457e+01 2.383108e+01 2.381201e+01 5.462014e+00 4.360320e+00 4.011695e+00 5.910180e+00 3.367096e+00 6.277941e+00 3.832027e+00 4.030599e+00 4.167071e+00 3.308280e+00 3.510457e+00 3.767799e+00 1.607393e+01
<GCONST> 1.061103e+02
<STATE> 4
<MEAN> 25
 -9.638609e-01 -1.704929e+00 -4.310975e+00 -1.984468e+00 1.893929e+00 8.432697e-01 1.211038e+00 -8.828608e-01 9.436258e-01 5.959303e-01 1.202585e+00 5.339478e-01 1.719103e+00 -1.589029e+00 -4.777607e-01 -1.639899e+00 -8.537746e-01 1.014086e+00 -8.584508e-01 5.133943e-02 1.276301e-01 3.720126e-02 5.691744e-01 -8.356879e-01 4.795075e+00
<VARIANCE> 25
 5.026989e+01 3.870573e+01 2.844727e+01 6.040636e+01 3.159518e+01 5.780082e+01 3.387706e+01 2.964906e+01 2.778153e+01 2.416120e+01 2.559227e+01 3.016863e+01 5.436798e+00 5.677795e+00 4.700651e+00 7.418190e+00 4.801312e+00 7.746218e+00 4.422681e+00 4.697000e+00 4.503469e+00 3.608944e+00 3.813039e+00 4.456326e+00 1.524176e+01
<GCONST> 1.105260e+02
<TRANSP> 5
 0.000000e+00 1.000000e+00 0.000000e+00 0.000000e+00 0.000000e+00
 0.000000e+00 7.926555e-01 2.073446e-01 0.000000e+00 0.000000e+00
 0.000000e+00 0.000000e+00 4.270358e-01 5.729642e-01 0.000000e+00
 0.000000e+00 0.000000e+00 0.000000e+00 5.989939e-01 4.010060e-01
 0.000000e+00 0.000000e+00 0.000000e+00 0.000000e+00 0.000000e+00
<ENDHMM>
~h "Q"
<BEGINHMM>
<NUMSTATES> 5
<STATE> 2
<MEAN> 25
 -3.572526e+00 7.258252e-01 -2.974819e+00 1.976389e+00 4.093035e+00 -2.150407e+00 1.607256e+00 -2.464985e+00 -3.737075e-01 3.404623e+00 -1.897319e-01 9.962965e-01 -4.314488e-01 -1.426490e-01 -5.152723e-01 -1.765806e-01 3.469427e-01 1.505662e-01 4.635012e-01 2.843648e-01 8.817240e-02 1.951731e-02 -1.787814e-01 2.651632e-01 -8.526126e-01
<VARIANCE> 25
 4.834385e+01 5.242728e+01 7.194536e+01 4.155151e+01 6.212700e+01 6.252015e+01 5.520031e+01 4.803779e+01 4.853595e+01 4.439820e+01 3.679597e+01 3.466578e+01 3.710456e+00 5.863173e+00 5.503832e+00 4.621712e+00 5.500809e+00 5.119513e+00 4.546219e+00 4.384591e+00 4.292574e+00 4.016836e+00 3.164414e+00 2.737157e+00 1.182302e+01
<GCONST> 1.128845e+02
<STATE> 3
<MEAN> 25
 -3.566420e+00 1.380222e+00 -1.506718e+00 1.713645e+00 3.298934e+00 -1.997557e+00 1.543208e+00 -5.106448e-01 -8.567480e-01 2.376348e+00 -1.554900e+00 1.388971e+00 -2.482685e-01 3.472601e-01 -1.405493e-01 1.281125e-03 1.067850e-01 1.646458e-01 2.653921e-01 3.374856e-01 -1.422739e-01 -2.679071e-01 4.466313e-02 9.242347e-02 -8.122991e-01
<VARIANCE> 25
 3.047647e+01 3.718071e+01 6.591780e+01 4.528085e+01 4.202746e+01 4.079189e+01 4.213346e+01 4.762132e+01 4.443557e+01 3.402632e+01 3.475100e+01 2.940553e+01 1.804548e+00 3.190365e+00 2.706001e+00 2.793382e+00 3.108178e+00 2.504807e+00 2.925230e+00 3.213649e+00 3.032577e+00 2.513335e+00 2.643358e+00 1.994479e+00 5.079678e+00
<GCONST> 1.036673e+02
<STATE> 4
<MEAN> 25
 -4.724537e+00 1.407727e+00 -1.744825e+00 2.903664e+00 2.537902e+00 -1.950280e+00 3.255299e+00 4.066567e-01 -4.475826e-01 -1.633106e-01 6.202160e-01 2.292856e+00 -3.792059e-02 2.497062e-02 9.590144e-03 1.832540e-02 3.727490e-02 4.737473e-02 4.922618e-02 1.033955e-01 2.555372e-02 -3.421688e-02 -1.947484e-02 -1.027138e-02 -7.418816e-02
<VARIANCE> 25
 1.216218e+01 2.917358e+01 2.076518e+01 1.873746e+01 2.181528e+01 2.255786e+01 2.396596e+01 2.376435e+01 2.086447e+01 2.407582e+01 2.127307e+01 1.673768e+01 5.605975e-01 9.790810e-01 1.061014e+00 1.185051e+00 1.275544e+00 1.458478e+00 1.655470e+00 1.808485e+00 1.693741e+00 1.821393e+00 1.704955e+00 1.473574e+00 8.829359e-01
<GCONST> 8.568993e+01
<TRANSP> 5
 0.000000e+00 1.000000e+00 0.000000e+00 0.000000e+00 0.000000e+00
 0.000000e+00 7.575616e-01 2.424384e-01 0.000000e+00 0.000000e+00
 0.000000e+00 0.000000e+00 6.187677e-01 3.812323e-01 0.000000e+00
 0.000000e+00 0.000000e+00 0.000000e+00 9.194951e-01 8.050489e-02
 0.000000e+00 0.000000e+00 0.000000e+00 0.000000e+00 0.000000e+00
<ENDHMM>
~h "R"
<BEGINHMM>
<NUMSTATES> 5
<STATE> 2
<MEAN> 25
 5.421874e+00 -5.774323e+00 -4.513544e+00 3.169815e-01 -2.906332e+00 -1.499434e+00 -4.732922e+00 9.371729e-01 6.658978e+00 2.430434e+00 -6.826904e-02 -3.284141e+00 4.300252e-01 -1.577682e-01 1.009446e-01 1.202015e+00 -3.193467e-01 -3.144878e-01 -6.916896e-01 -1.140484e-01 4.128059e-01 -1.909734e-02 6.170885e-02 1.267144e-01 -5.940131e-01
<VARIANCE> 25
 2.230927e+01 2.656715e+01 4.010719e+01 4.110133e+01 5.087424e+01 4.616933e+01 5.392718e+01 6.666634e+01 5.120667e+01 4.090322e+01 3.972313e+01 3.704202e+01 2.152406e+00 2.371845e+00 3.036927e+00 4.437669e+00 4.772090e+00 4.712680e+00 4.416752e+00 5.252312e+00 4.977186e+00 4.338610e+00 4.097311e+00 3.451855e+00 3.922519e+00
<GCONST> 1.082060e+02
<STATE> 3
<MEAN> 25
 6.416676e+00 -5.766113e+00 -3.747652e+00 2.548215e+00 -3.617990e+00 -1.974719e+00 -6.266176e+00 7.651182e-01 6.449943e+00 2.508247e+00 4.988657e-01 -2.904458e+00 1.314749e-01 5.610657e-02 4.136080e-01 4.647226e-01 -6.957756e-02 -1.290272e-01 -2.465419e-01 9.129940e-02 -5.129776e-01 -1.594212e-01 1.744948e-01 2.770035e-01 -6.425915e-01
<VARIANCE> 25
 2.092387e+01 2.732616e+01 4.389043e+01 3.708229e+01 5.365969e+01 4.900723e+01 5.426072e+01 6.512538e+01 5.322926e+01 4.308651e+01 3.931826e+01 3.617704e+01 2.021201e+00 2.494071e+00 3.112660e+00 3.393443e+00 4.842556e+00 4.622987e+00 4.328483e+00 5.393070e+00 4.763659e+00 4.006437e+00 3.754003e+00 3.489561e+00 3.626852e+00
<GCONST> 1.077768e+02
<STATE> 4
<MEAN> 25
 4.360292e+00 -4.259615e+00 -2.890193e+00 2.765484e+00 -1.697908e+00 -2.017221e+00 -4.128321e+00 1.043496e+00 3.904122e+00 1.271980e+00 1.964299e-01 -1.365082e+00 -2.068363e-01 2.917759e-01 4.890886e-01 -1.269014e-01 1.052259e-01 5.431737e-02 3.334912e-01 6.253939e-02 -8.197246e-01 -2.500012e-01 9.705256e-02 2.653868e-01 -4.642141e-01
<VARIANCE> 25
 3.667556e+01 3.739246e+01 5.147915e+01 3.497576e+01 6.002293e+01 5.278880e+01 6.010720e+01 6.032509e+01 5.041341e+01 4.119288e+01 4.088403e+01 3.637989e+01 1.734571e+00 2.304552e+00 2.627166e+00 2.299440e+00 3.802154e+00 3.366998e+00 3.335476e+00 3.834203e+00 3.831228e+00 2.972044e+00 2.991544e+00 2.528990e+00 2.859040e+00
<GCONST> 1.056554e+02
<TRANSP> 5
 0.000000e+00 1.000000e+00 0.000000e+00 0.000000e+00 0.000000e+00
 0.000000e+00 4.786630e-01 5.213370e-01 0.000000e+00 0.000000e+00
 0.000000e+00 0.000000e+00 4.307836e-01 5.692164e-01 0.000000e+00
 0.000000e+00 0.000000e+00 0.000000e+00 6.067103e-01 3.932897e-01
 0.000000e+00 0.000000e+00 0.000000e+00 0.000000e+00 0.000000e+00
<ENDHMM>
~h "S"
<BEGINHMM>
<NUMSTATES> 5
<STATE> 2
<MEAN> 25
 -7.177366e+00 6.470754e+00 5.475030e-01 2.156527e+00 5.049610e+00 -4.764868e+00 1.599702e+00 1.737683e+00 5.234609e-01 4.918768e-02 -1.731027e+00 2.195999e+00 -4.375497e+00 1.918535e+00 -6.967760e-01 6.176383e-01 1.736753e+00 -2.574665e-01 1.468861e+00 6.931523e-01 2.752000e-01 -3.180911e-01 5.270455e-01 8.957793e-01 -5.756849e-01
<VARIANCE> 25
 7.203293e+01 4.448570e+01 4.529962e+01 3.401538e+01 4.679396e+01 4.288963e+01 6.378902e+01 4.805509e+01 4.357429e+01 3.247305e+01 3.687597e+01 2.772257e+01 3.737450e+00 5.639271e+00 4.138803e+00 4.079588e+00 5.195631e+00 4.479338e+00 5.086412e+00 5.229983e+00 4.030946e+00 3.558800e+00 3.546720e+00 2.821522e+00 2.253189e+00
<GCONST> 1.092582e+02
<STATE> 3
<MEAN> 25
 -2.096261e+01 7.391877e+00 -4.214642e+00 1.910399e+00 7.213580e+00 -3.754160e+00 4.573399e+00 3.353072e+00 1.498594e+00 5.195511e-01 1.394894e+00 4.585096e+00 -9.304325e-01 -3.775954e-01 -4.973005e-01 -1.858487e-01 -9.560658e-02 9.645692e-02 9.419221e-02 7.609004e-02 1.260270e-01 1.117404e-01 2.375237e-01 2.006840e-01 -2.686628e-01
<VARIANCE> 25
 3.359914e+01 2.365802e+01 3.436137e+01 3.361322e+01 3.492208e+01 3.723267e+01 4.631508e+01 3.674731e+01 3.366475e+01 2.476095e+01 2.536392e+01 2.198077e+01 3.664228e+00 1.699598e+00 1.831586e+00 1.559181e+00 1.763058e+00 1.923183e+00 2.066060e+00 2.053714e+00 1.994702e+00 1.844543e+00 1.805439e+00 1.544032e+00 1.460033e+00
<GCONST> 9.558707e+01
<STATE> 4
<MEAN> 25
 -1.392572e+01 3.385043e+00 -3.601222e+00 1.088197e+00 4.348729e+00 -3.533235e+00 2.790132e+00 2.252846e+00 2.104905e+00 2.561374e-01 3.416494e-01 3.318190e+00 2.790730e+00 -5.419526e-01 6.784679e-01 -2.631380e-01 -8.477635e-01 9.903029e-03 -1.002469e+00 -6.125349e-01 -3.551605e-02 -1.285870e-02 -4.448055e-01 -7.553151e-01 2.805244e-01
<VARIANCE> 25
 7.996183e+01 3.073683e+01 3.806956e+01 3.029036e+01 3.384908e+01 3.857000e+01 4.925253e+01 3.687080e+01 3.441596e+01 2.522932e+01 2.703600e+01 2.405480e+01 9.211908e+00 2.989307e+00 3.596352e+00 2.932208e+00 3.104088e+00 3.494985e+00 4.475838e+00 3.905212e+00 3.444433e+00 2.484474e+00 2.604289e+00 2.676357e+00 4.149316e+00
<GCONST> 1.051546e+02
<TRANSP> 5
 0.000000e+00 1.000000e+00 0.000000e+00 0.000000e+00 0.000000e+00
 0.000000e+00 7.085925e-01 2.914075e-01 0.000000e+00 0.000000e+00
 0.000000e+00 0.000000e+00 8.385291e-01 1.614709e-01 0.000000e+00
 0.000000e+00 0.000000e+00 0.000000e+00 8.235866e-01 1.764134e-01
 0.000000e+00 0.000000e+00 0.000000e+00 0.000000e+00 0.000000e+00
<ENDHMM>
~h "T"
<BEGINHMM>
<NUMSTATES> 5
<STATE> 2
<MEAN> 25
 -1.402277e-01 4.582355e+00 -7.789135e-01 2.191173e+00 2.158616e+00 -3.380475e+00 -1.914099e-01 -1.537355e+00 1.566677e+00 1.317784e+00 -1.687634e+00 -3.459588e-01 -9.373237e-01 1.494331e-01 -2.267372e-01 1.154143e-01 3.127382e-01 -1.614302e-01 5.924346e-01 9.022690e-02 -3.012957e-02 -1.672352e-01 2.688361e-02 3.933109e-01 -1.483337e+00
<VARIANCE> 25
 3.292974e+01 2.893252e+01 3.260950e+01 3.084320e+01 3.277303e+01 3.404763e+01 4.418973e+01 3.833543e+01 3.907262e+01 3.076600e+01 3.085812e+01 2.832203e+01 2.394055e+00 3.965057e+00 2.483181e+00 3.023496e+00 3.306952e+00 2.861693e+00 3.198362e+00 3.312442e+00 3.005141e+00 2.583694e+00 2.645844e+00 2.270795e+00 1.028093e+01
<GCONST> 1.030841e+02
<STATE> 3
<MEAN> 25
 -4.032135e+00 2.467217e+00 -2.009836e+00 1.120286e+00 2.448856e+00 -3.610225e+00 1.398645e+00 -5.644117e-01 1.419777e+00 6.117853e-01 -1.379957e+00 1.190296e+00 -1.078706e+00 -1.551540e+00 -6.520360e-01 -1.002564e+00 9.427115e-02 -1.492672e-01 -6.068572e-04 5.016081e-01 2.638842e-01 -6.501064e-02 1.915833e-01 2.815831e-01 3.195415e+00
<VARIANCE> 25
 3.252722e+01 3.401123e+01 2.947667e+01 2.970302e+01 2.921691e+01 3.322372e+01 3.742617e+01 3.335477e+01 3.508982e+01 2.682680e+01 2.774971e+01 2.586219e+01 4.049951e+00 4.177845e+00 3.536563e+00 3.867948e+00 3.415452e+00 3.912513e+00 4.329701e+00 4.053152e+00 4.584393e+00 3.055997e+00 3.390952e+00 3.328089e+00 1.873458e+01
<GCONST> 1.060570e+02
<STATE> 4
<MEAN> 25
 -4.833739e+00 -1.538918e+00 -3.542309e+00 -1.644350e+00 2.098776e+00 -3.513212e+00 7.030122e-01 7.400779e-01 2.287413e+00 5.445122e-01 -1.137208e+00 9.349777e-01 1.105746e+00 -9.222293e-01 8.236226e-02 -9.881134e-01 -6.766552e-01 3.166282e-01 -1.146976e+00 4.028331e-03 2.404627e-01 5.377593e-02 1.565336e-01 -7.420640e-01 4.404939e+00
<VARIANCE> 25
 3.652348e+01 3.255832e+01 2.881915e+01 3.246207e+01 3.067160e+01 3.870226e+01 4.227322e+01 3.188156e+01 3.805861e+01 2.628297e+01 2.811252e+01 2.998889e+01 5.695196e+00 4.240552e+00 4.917843e+00 4.787587e+00 4.422297e+00 5.495775e+00 5.919935e+00 5.283765e+00 6.168399e+00 3.533603e+00 4.059005e+00 4.340009e+00 1.588575e+01
<GCONST> 1.094923e+02
<TRANSP> 5
 0.000000e+00 1.000000e+00 0.000000e+00 0.000000e+00 0.000000e+00
 0.000000e+00 7.215357e-01 2.784643e-01 0.000000e+00 0.000000e+00
 0.000000e+00 0.000000e+00 4.932278e-01 5.067722e-01 0.000000e+00
 0.000000e+00 0.000000e+00 0.000000e+00 6.231452e-01 3.768549e-01
 0.000000e+00 0.000000e+00 0.000000e+00 0.000000e+00 0.000000e+00
<ENDHMM>
~h "U"
<BEGINHMM>
<NUMSTATES> 5
<STATE> 2
<MEAN> 25
 6.435165e+00 4.243175e+00 -1.633637e+00 -3.913605e+00 -3.846791e+00 3.486166e+00 -7.765339e+00 -5.408638e+00 -3.383249e+00 3.486544e-02 3.485294e+00 3.972919e-01 1.856639e+00 8.904368e-01 -3.370861e-01 -2.154101e+00 -1.760427e+00 2.228918e+00 -1.278517e+00 -9.600698e-01 -1.076854e+00 -2.161967e-01 1.501195e+00 -1.102631e-02 1.172253e+00
<VARIANCE> 25
 2.626773e+01 3.406514e+01 3.703339e+01 7.289534e+01 5.197114e+01 5.299593e+01 7.639629e+01 7.007774e+01 5.069042e+01 4.718397e+01 4.279583e+01 3.397092e+01 4.297843e+00 3.120042e+00 4.372791e+00 5.481485e+00 5.816773e+00 4.928400e+00 6.634090e+00 7.277184e+00 5.372398e+00 5.226354e+00 4.280789e+00 3.836488e+00 4.206148e+00
<GCONST> 1.127883e+02
<STATE> 3
<MEAN> 25
 9.063951e+00 5.899175e+00 -2.443679e+00 -9.034224e+00 -7.315140e+00 9.143308e+00 -8.632501e+00 -6.482487e+00 -5.694986e+00 -1.597303e+00 6.401685e+00 1.024158e+00 2.574069e-01 1.657880e-01 -6.030022e-02 -6.011287e-01 -1.897250e-01 6.578404e-01 6.473029e-02 -7.336059e-02 -2.167048e-01 -5.446711e-02 2.878439e-01 6.084204e-02 -5.378706e-02
<VARIANCE> 25
 1.183499e+01 3.299303e+01 2.725762e+01 6.273773e+01 4.369592e+01 4.502898e+01 6.273562e+01 7.477988e+01 5.503630e+01 5.668848e+01 4.437318e+01 3.934298e+01 8.983927e-01 2.694160e+00 1.880844e+00 4.957574e+00 3.820866e+00 3.660771e+00 4.774130e+00 5.290665e+00 4.288895e+00 4.479808e+00 3.782489e+00 2.901337e+00 2.702392e+00
<GCONST> 1.062363e+02
<STATE> 4
<MEAN> 25
 8.326095e+00 6.409665e+00 -1.757862e+00 -7.575013e+00 -5.116243e+00 6.308720e+00 -6.823398e+00 -5.610289e+00 -4.597106e+00 -4.417738e-01 4.195333e+00 4.809552e-01 -4.417579e-01 -3.083467e-01 3.147814e-01 1.132808e+00 7.386429e-01 -1.010040e+00 5.125521e-01 9.933323e-02 6.287960e-01 3.664184e-01 -6.828879e-01 -1.920715e-01 -8.862551e-01
<VARIANCE> 25
 1.607122e+01 3.967516e+01 3.145019e+01 6.892129e+01 4.810307e+01 5.189248e+01 6.780157e+01 6.534584e+01 5.164709e+01 5.419751e+01 4.512366e+01 3.924472e+01 1.158610e+00 2.387766e+00 2.105257e+00 3.754151e+00 3.482643e+00 3.486540e+00 3.842894e+00 3.992264e+00 3.597414e+00 3.640225e+00 3.531084e+00 3.042836e+00 3.148453e+00
<GCONST> 1.061269e+02
<TRANSP> 5
 0.000000e+00 1.000000e+00 0.000000e+00 0.000000e+00 0.000000e+00
 0.000000e+00 5.960437e-01 4.039563e-01 0.000000e+00 0.000000e+00
 0.000000e+00 0.000000e+00 6.128063e-01 3.871937e-01 0.000000e+00
 0.000000e+00 0.000000e+00 0.000000e+00 8.040177e-01 1.959824e-01
 0.000000e+00 0.000000e+00 0.000000e+00 0.000000e+00 0.000000e+00
<ENDHMM>
~h "V"
<BEGINHMM>
<NUMSTATES> 5
<STATE> 2
<MEAN> 25
 -3.390227e+00 2.425218e+00 -1.346257e-01 4.010057e+00 3.480186e+00 4.687547e-01 1.950907e+00 4.691935e-01 8.900264e-02 5.248615e-01 1.919878e-01 1.820540e+00 -3.385530e+00 -5.379140e-02 -1.123326e-01 1.241290e+00 1.037138e+00 -5.272580e-01 3.765053e-01 4.455450e-01 9.361557e-01 5.175207e-02 -1.659413e-01 5.127740e-01 -1.134957e+00
<VARIANCE> 25
 4.719807e+01 2.102920e+01 3.516203e+01 3.739544e+01 3.192642e+01 4.170295e+01 3.291388e+01 3.677018e+01 3.034376e+01 2.360686e+01 2.432286e+01 2.034458e+01 3.153682e+00 3.665985e+00 3.499841e+00 4.132374e+00 4.871221e+00 4.507766e+00 3.670756e+00 4.375199e+00 3.563660e+00 3.249291e+00 3.167444e+00 2.290378e+00 1.837273e+00
<GCONST> 1.031235e+02
<STATE> 3
<MEAN> 25
 -1.183131e+01 -1.935165e+00 -2.785316e+00 3.836223e+00 2.994483e+00 -1.243265e+00 1.445490e+00 1.081658e+00 1.235976e+00 1.193366e+00 5.792814e-01 3.173708e+00 -4.698430e-01 -4.829707e-01 -2.499086e-01 -1.019189e-01 -1.431088e-01 -1.696865e-01 -1.016352e-01 -2.472670e-02 1.380146e-02 3.277729e-02 -5.268231e-03 1.752249e-02 -3.071844e-02
<VARIANCE> 25
 3.211576e+01 2.346923e+01 2.425785e+01 2.298178e+01 2.298133e+01 2.463973e+01 2.701020e+01 2.723223e+01 2.485832e+01 2.153473e+01 1.925871e+01 1.787693e+01 2.516990e+00 1.459400e+00 1.579575e+00 1.614492e+00 1.614624e+00 1.962253e+00 1.771709e+00 1.779531e+00 1.781659e+00 1.699687e+00 1.624065e+00 1.459425e+00 1.439638e+00
<GCONST> 9.083350e+01
<STATE> 4
<MEAN> 25
 -7.790343e+00 -3.299101e+00 -2.686138e+00 2.503335e+00 1.752640e+00 -2.153136e+00 4.636546e-01 1.216136e+00 1.299788e+00 9.483610e-01 3.743440e-01 1.549593e+00 4.241078e+00 1.145365e-01 6.898045e-01 -1.554606e+00 -1.460034e+00 1.440576e-01 -4.897524e-01 8.994554e-02 -7.527763e-01 -5.428526e-01 3.750204e-01 -9.924566e-01 1.976486e+00
<VARIANCE> 25
 7.733577e+01 2.801995e+01 3.883986e+01 4.491382e+01 3.112701e+01 4.290419e+01 3.005226e+01 3.439874e+01 2.664637e+01 2.214612e+01 1.993688e+01 2.155508e+01 7.308236e+00 4.509088e+00 6.154748e+00 6.692904e+00 4.449076e+00 6.442592e+00 3.914650e+00 4.933287e+00 5.051078e+00 3.150518e+00 3.396415e+00 3.316566e+00 3.722071e+00
<GCONST> 1.077065e+02
<TRANSP> 5
 0.000000e+00 1.000000e+00 0.000000e+00 0.000000e+00 0.000000e+00
 0.000000e+00 7.101677e-01 2.898322e-01 0.000000e+00 0.000000e+00
 0.000000e+00 0.000000e+00 8.665408e-01 1.334591e-01 0.000000e+00
 0.000000e+00 0.000000e+00 0.000000e+00 6.615974e-01 3.384026e-01
 0.000000e+00 0.000000e+00 0.000000e+00 0.000000e+00 0.000000e+00
<ENDHMM>
~h "W"
<BEGINHMM>
<NUMSTATES> 5
<STATE> 2
<MEAN> 25
 8.229745e+00 1.571249e+00 -3.550743e+00 -9.137878e+00 -3.275494e+00 7.087584e+00 -3.408421e+00 -1.397857e+00 -1.871286e+00 6.660883e-01 3.619714e+00 -1.165146e+00 1.248020e+00 9.303099e-01 -6.292865e-02 -1.881335e+00 -1.150153e+00 1.330752e+00 -1.784163e-01 -2.660173e-01 -8.882313e-01 -5.030628e-01 8.919027e-01 6.494924e-01 2.595713e-01
<VARIANCE> 25
 2.839593e+01 6.914789e+01 3.481730e+01 6.984232e+01 4.868422e+01 5.748102e+01 6.138910e+01 4.618822e+01 5.383290e+01 4.769292e+01 4.374702e+01 4.095600e+01 2.146712e+00 2.735663e+00 2.485196e+00 3.500005e+00 3.910803e+00 3.987731e+00 3.677511e+00 3.877445e+00 3.473213e+00 3.503802e+00 3.335141e+00 3.296488e+00 4.213502e+00
<GCONST> 1.082265e+02
<STATE> 3
<MEAN> 25
 1.149090e+01 3.654229e+00 -3.071465e+00 -1.581122e+01 -8.269144e+00 1.114343e+01 -4.712013e+00 -7.268201e-01 -2.801394e+00 -1.940164e+00 5.681654e+00 1.044048e+00 -5.125168e-02 -5.268166e-01 -2.658708e-01 -5.695474e-01 -6.208591e-03 4.357682e-01 -4.284903e-03 -5.585104e-02 3.355066e-01 2.416725e-01 3.447663e-01 -9.249449e-04 5.814945e-01
<VARIANCE> 25
 1.111932e+01 3.965055e+01 2.417176e+01 4.844933e+01 3.933224e+01 4.098916e+01 4.399770e+01 4.389591e+01 4.708511e+01 4.335950e+01 4.055061e+01 3.258566e+01 6.373281e-01 3.608106e+00 1.641942e+00 2.560124e+00 3.052157e+00 2.930991e+00 2.560280e+00 2.376809e+00 2.971306e+00 3.396090e+00 2.919106e+00 3.104277e+00 2.447134e+00
<GCONST> 1.005370e+02
<STATE> 4
<MEAN> 25
 8.974611e+00 -3.045971e+00 -6.342436e+00 -1.583568e+01 -3.163543e+00 1.243257e+01 -2.811255e+00 -1.721291e+00 1.325548e+00 9.723157e-01 4.876512e+00 -3.248352e+00 -5.619904e-01 -1.021737e+00 -2.529082e-01 1.012156e+00 1.038543e+00 -6.015005e-01 2.091005e-02 1.430437e-01 6.960073e-01 3.899699e-01 -7.578555e-01 -1.049354e+00 5.038487e-01
<VARIANCE> 25
 1.259891e+01 5.313280e+01 2.550015e+01 4.489526e+01 4.746735e+01 3.971219e+01 4.472681e+01 3.731884e+01 4.637425e+01 4.655009e+01 4.549964e+01 5.125462e+01 4.860075e-01 2.086585e+00 1.198382e+00 2.175543e+00 2.432912e+00 2.853992e+00 1.829809e+00 2.295983e+00 2.327487e+00 2.210873e+00 2.672011e+00 2.990282e+00 1.394055e+00
<GCONST> 9.828392e+01
<TRANSP> 5
 0.000000e+00 1.000000e+00 0.000000e+00 0.000000e+00 0.000000e+00
 0.000000e+00 7.159278e-01 2.840722e-01 0.000000e+00 0.000000e+00
 0.000000e+00 0.000000e+00 7.309775e-01 2.690226e-01 0.000000e+00
 0.000000e+00 0.000000e+00 0.000000e+00 8.246133e-01 1.753867e-01
 0.000000e+00 0.000000e+00 0.000000e+00 0.000000e+00 0.000000e+00
<ENDHMM>
~h "X"
<BEGINHMM>
<NUMSTATES> 5
<STATE> 2
<MEAN> 25
 -1.885470e+01 6.885824e-01 -3.936467e+00 5.544369e+00 3.332251e+00 -6.888119e+00 4.110121e+00 3.861787e+00 5.280555e+00 4.414319e-01 3.312692e+00 4.568986e+00 -1.325940e+00 1.258248e+00 4.687958e-01 2.191623e-01 6.318864e-01 2.782258e-01 2.321870e-02 -8.275019e-02 3.061186e-01 -5.773485e-02 3.656189e-01 -7.458389e-03 -7.660279e-01
<VARIANCE> 25
 6.399530e+01 1.347596e+01 4.413770e+01 3.127326e+01 2.178886e+01 2.193104e+01 3.831623e+01 2.258930e+01 2.259976e+01 2.644691e+01 2.006087e+01 2.794780e+01 5.287520e+00 2.316018e+00 1.809588e+00 1.427202e+00 1.439483e+00 1.088052e+00 4.821350e+00 1.840071e+00 2.389403e+00 2.886709e+00 2.555523e+00 1.641003e+00 3.380979e+00
<GCONST> 9.625999e+01
<STATE> 3
<MEAN> 25
 -2.093832e+01 4.837325e+00 -5.903716e+00 4.552507e+00 5.201713e+00 -6.282743e+00 3.526911e+00 4.420164e+00 3.372976e+00 4.795721e-01 2.369426e+00 4.515979e+00 4.879976e-01 4.115463e-01 1.802825e-01 -4.510099e-01 1.832835e-01 -1.557508e-02 1.058717e-01 2.567818e-02 -3.832937e-01 -1.741574e-02 -1.422879e-01 9.005172e-02 -9.182764e-01
<VARIANCE> 25
 3.323007e+01 1.701157e+01 6.103023e+01 2.034652e+01 1.475378e+01 2.251160e+01 3.030940e+01 3.319683e+01 2.923131e+01 2.387067e+01 1.703356e+01 2.489694e+01 1.154886e+00 1.403726e+00 1.012332e+00 1.613765e+00 1.680391e+00 1.727904e+00 1.196032e+00 1.932084e+00 3.405112e+00 1.728959e+00 1.231968e+00 1.107321e+00 1.043221e+00
<GCONST> 8.972898e+01
<STATE> 4
<MEAN> 25
 -8.764120e+00 8.959554e-01 -2.116847e+00 3.858727e+00 3.696220e+00 -3.236022e+00 3.894472e+00 4.834569e-01 6.232038e-01 2.294260e-01 3.681017e+00 1.449180e+00 1.447732e-01 -3.135767e-02 2.873339e-01 1.178206e-02 -3.116962e-02 3.416246e-01 1.764347e-02 1.508080e-01 6.395131e-04 -5.499102e-02 -5.083684e-03 -6.398199e-02 -1.904809e-01
<VARIANCE> 25
 3.023104e+01 3.098371e+01 2.101365e+01 1.180089e+01 1.967720e+01 1.387291e+01 1.991466e+01 3.211128e+01 1.482947e+01 2.564165e+01 1.671026e+01 1.927178e+01 6.743033e-01 9.611336e-01 8.074672e-01 8.465855e-01 1.134421e+00 1.578291e+00 1.616808e+00 1.195180e+00 1.487007e+00 1.026767e+00 1.257087e+00 1.546368e+00 1.094055e+00
<GCONST> 8.369305e+01
<TRANSP> 5
 0.000000e+00 1.000000e+00 0.000000e+00 0.000000e+00 0.000000e+00
 0.000000e+00 7.767875e-01 2.232125e-01 0.000000e+00 0.000000e+00
 0.000000e+00 0.000000e+00 8.406877e-01 1.593123e-01 0.000000e+00
 0.000000e+00 0.000000e+00 0.000000e+00 9.044535e-01 9.554645e-02
 0.000000e+00 0.000000e+00 0.000000e+00 0.000000e+00 0.000000e+00
<ENDHMM>
~h "Y"
<BEGINHMM>
<NUMSTATES> 5
<STATE> 2
<MEAN> 25
 4.682567e-01 -1.722067e+00 8.320733e+00 -2.227952e+00 -7.456732e+00 -4.553543e+00 -2.241174e+00 4.833394e+00 -2.768994e+00 -8.332800e-01 2.181261e+00 5.091363e-01 -1.693437e-01 8.604533e-01 2.424829e+00 -2.972630e-02 -1.627273e+00 -6.023470e-01 -8.390361e-01 -4.440318e-01 -1.335033e+00 -1.450808e-02 1.439079e+00 6.490153e-01 4.199537e-01
<VARIANCE> 25
 2.564839e+01 6.356529e+01 7.329058e+01 3.882961e+01 6.213419e+01 4.835819e+01 5.749989e+01 6.697385e+01 5.608281e+01 4.249224e+01 4.237465e+01 2.925661e+01 1.712671e+00 2.650552e+00 4.016787e+00 2.409524e+00 3.653380e+00 3.707719e+00 4.198592e+00 4.707095e+00 3.836726e+00 3.970666e+00 3.140789e+00 2.702584e+00 3.728800e+00
<GCONST> 1.080109e+02
<STATE> 3
<MEAN> 25
 6.369734e-01 1.057776e+00 1.702914e+01 -2.546487e+00 -1.244065e+01 -4.894996e+00 -7.171015e+00 1.237997e+00 -7.579506e+00 -8.567898e-01 6.520553e+00 1.789374e+00 7.003410e-02 -5.137858e-01 -3.577852e-01 -1.772414e-01 -4.401404e-01 -3.035588e-01 4.678192e-02 3.664170e-01 4.173228e-01 1.205695e-01 2.336085e-01 1.495706e-01 6.687090e-01
<VARIANCE> 25
 1.036197e+01 3.431760e+01 5.128021e+01 3.589293e+01 3.107022e+01 4.118362e+01 4.198895e+01 4.561694e+01 4.675410e+01 6.071949e+01 3.453545e+01 2.945267e+01 6.640449e-01 2.906049e+00 4.538980e+00 1.547371e+00 2.474174e+00 2.227674e+00 3.157215e+00 4.465707e+00 3.955760e+00 2.451148e+00 2.189673e+00 1.650722e+00 2.486828e+00
<GCONST> 1.003538e+02
<STATE> 4
<MEAN> 25
 2.309977e-01 -3.108021e+00 7.142602e+00 -2.603274e+00 -9.411252e+00 -5.290019e+00 -1.656173e+00 5.255406e+00 -1.248959e+00 -1.406924e+00 3.602345e+00 1.419368e+00 2.790118e-01 -8.741366e-01 -1.599953e+00 -1.381806e-01 8.727652e-01 3.033699e-01 6.042012e-01 9.264697e-01 1.042659e+00 -2.871613e-01 -1.104784e+00 -5.737720e-01 4.158322e-01
<VARIANCE> 25
 1.810012e+01 4.153114e+01 6.739310e+01 3.591750e+01 5.829475e+01 3.519161e+01 4.890874e+01 6.965164e+01 4.439322e+01 3.612490e+01 3.778473e+01 2.614513e+01 4.477006e-01 1.577180e+00 3.449533e+00 1.127177e+00 2.778475e+00 1.862631e+00 2.459672e+00 3.274006e+00 2.805509e+00 2.562783e+00 3.072725e+00 1.749840e+00 9.713603e-01
<GCONST> 9.876207e+01
<TRANSP> 5
 0.000000e+00 1.000000e+00 0.000000e+00 0.000000e+00 0.000000e+00
 0.000000e+00 7.264050e-01 2.735950e-01 0.000000e+00 0.000000e+00
 0.000000e+00 0.000000e+00 7.334670e-01 2.665330e-01 0.000000e+00
 0.000000e+00 0.000000e+00 0.000000e+00 8.242189e-01 1.757811e-01
 0.000000e+00 0.000000e+00 0.000000e+00 0.000000e+00 0.000000e+00
<ENDHMM>
~h "Z"
<BEGINHMM>
<NUMSTATES> 5
<STATE> 2
<MEAN> 25
 -3.661188e+00 9.693419e+00 2.678667e+00 5.228098e+00 2.418312e+00 -7.813456e+00 -2.049851e+00 -6.363788e-01 7.033561e-01 -5.804620e-01 -1.921954e+00 3.382555e+00 -2.099899e+00 2.080582e+00 -4.949664e-01 8.680078e-01 1.364608e+00 -6.671901e-02 9.537191e-01 6.372075e-02 1.894975e-01 -1.864692e-01 1.061572e-01 4.713829e-01 -7.583408e-01
<VARIANCE> 25
 4.435795e+01 4.475151e+01 3.844405e+01 3.616595e+01 4.680642e+01 4.179350e+01 5.952111e+01 3.756171e+01 4.158623e+01 3.114797e+01 3.035994e+01 2.631417e+01 2.815586e+00 3.818940e+00 2.645784e+00 2.843826e+00 3.415455e+00 3.267024e+00 3.550075e+00 4.190851e+00 2.986835e+00 2.567043e+00 2.744226e+00 2.311436e+00 1.839957e+00
<GCONST> 1.039179e+02
<STATE> 3
<MEAN> 25
 -1.180230e+01 1.423697e+01 1.841914e+00 7.307303e+00 6.480863e+00 -6.684599e+00 9.878445e-01 5.151172e-01 6.621582e-01 -4.803163e-01 -6.708404e-01 4.305691e+00 -8.938044e-01 -6.573036e-02 -2.723618e-03 1.057939e-01 2.216448e-01 2.890601e-01 1.656191e-01 8.175593e-02 -7.007191e-02 1.587456e-02 2.364131e-01 1.151003e-01 2.046199e-02
<VARIANCE> 25
 5.694269e+01 3.971566e+01 3.295199e+01 4.309673e+01 3.740290e+01 3.913501e+01 5.087605e+01 3.448606e+01 2.985835e+01 2.318699e+01 2.684772e+01 2.174364e+01 2.673212e+00 2.128707e+00 1.605707e+00 1.482368e+00 2.165679e+00 2.006583e+00 2.227925e+00 1.898043e+00 1.887416e+00 1.575863e+00 1.562405e+00 1.470336e+00 1.804366e+00
<GCONST> 9.662650e+01
<STATE> 4
<MEAN> 25
 -9.142265e+00 5.984583e+00 -5.741469e-01 4.189126e+00 3.967979e+00 -2.925514e+00 1.544204e+00 1.302711e+00 5.517272e-01 -8.524313e-01 4.633864e-01 3.289111e+00 5.551789e-01 -5.106481e-01 2.042511e-01 -2.334019e-01 -5.448944e-01 -1.955596e-01 -3.635658e-01 -1.698652e-01 5.642124e-02 3.227091e-02 2.740235e-02 1.761204e-02 5.278915e-01
<VARIANCE> 25
 5.375430e+01 6.103235e+01 4.106197e+01 3.156651e+01 3.511715e+01 3.832209e+01 4.112971e+01 3.141629e+01 2.944702e+01 2.237577e+01 2.426098e+01 2.117261e+01 3.354422e+00 2.499644e+00 1.674055e+00 1.702118e+00 2.695676e+00 2.141464e+00 2.451035e+00 2.302207e+00 2.178087e+00 1.783066e+00 1.671393e+00 1.584438e+00 1.923553e+00
<GCONST> 9.795277e+01
<TRANSP> 5
 0.000000e+00 1.000000e+00 0.000000e+00 0.000000e+00 0.000000e+00
 0.000000e+00 7.508126e-01 2.491873e-01 0.000000e+00 0.000000e+00
 0.000000e+00 0.000000e+00 7.477341e-01 2.522659e-01 0.000000e+00
 0.000000e+00 0.000000e+00 0.000000e+00 8.880609e-01 1.119390e-01
 0.000000e+00 0.000000e+00 0.000000e+00 0.000000e+00 0.000000e+00
<ENDHMM>
~h "e"
<BEGINHMM>
<NUMSTATES> 5
<STATE> 2
<MEAN> 25
 3.571366e+00 -8.528036e-01 -1.084644e+00 -2.313241e+00 -9.319825e-01 -1.078665e+00 -4.856063e+00 -1.570244e+00 8.957254e-01 2.560900e+00 1.335675e+00 -1.203003e+00 1.828649e+00 -1.027219e+00 -1.725724e-01 -1.404129e+00 -1.133932e+00 5.042318e-01 -1.803324e+00 4.367580e-01 1.153772e+00 8.669906e-01 7.389836e-01 -1.277976e+00 2.395585e+00
<VARIANCE> 25
 3.592614e+01 2.906282e+01 3.824438e+01 5.218471e+01 4.405197e+01 6.745457e+01 5.710649e+01 5.292019e+01 5.812094e+01 3.720261e+01 4.222877e+01 3.139260e+01 6.037982e+00 3.988619e+00 5.742214e+00 5.743256e+00 5.800221e+00 5.916504e+00 6.653560e+00 7.777760e+00 7.889930e+00 4.815471e+00 5.216797e+00 4.214310e+00 6.891895e+00
<GCONST> 1.141933e+02
<STATE> 3
<MEAN> 25
 6.098862e+00 -3.358842e+00 -1.610701e+00 -4.737213e+00 -2.943527e+00 -2.680451e-02 -8.070858e+00 -2.364919e-01 3.215317e+00 4.086610e+00 2.609181e+00 -3.533517e+00 9.221880e-01 -6.219810e-01 4.839306e-02 -3.790426e-01 -6.713235e-01 4.478906e-01 -7.751362e-01 3.605331e-01 7.897629e-01 3.919639e-01 2.089872e-01 -7.729559e-01 6.532842e-01
<VARIANCE> 25
 1.656971e+01 2.697179e+01 3.950229e+01 5.184345e+01 4.049680e+01 6.899101e+01 5.615447e+01 5.767439e+01 6.032795e+01 4.222838e+01 4.495333e+01 3.498666e+01 2.720729e+00 3.143123e+00 3.352940e+00 5.271468e+00 4.612489e+00 5.332669e+00 4.998878e+00 7.217104e+00 6.864355e+00 4.237749e+00 4.679112e+00 3.423367e+00 5.177961e+00
<GCONST> 1.104906e+02
<STATE> 4
<MEAN> 25
 5.999225e+00 -2.351666e+00 -7.713557e-01 -3.816336e+00 -3.248372e+00 -6.729798e-01 -8.695490e+00 -1.670351e-01 3.787589e+00 4.539976e+00 2.096020e+00 -3.846103e+00 1.017653e-01 4.165806e-01 3.273218e-01 7.005443e-01 2.550289e-03 -7.108927e-03 4.751261e-01 -2.865515e-01 -2.135779e-01 -2.827691e-01 -3.150166e-01 1.681844e-01 -1.007160e+00
<VARIANCE> 25
 1.646092e+01 3.091904e+01 3.782840e+01 5.232001e+01 4.328486e+01 6.154392e+01 6.163569e+01 5.726627e+01 6.130379e+01 4.535100e+01 4.337039e+01 3.606685e+01 1.237038e+00 2.331627e+00 1.966006e+00 3.534746e+00 2.942464e+00 3.623070e+00 3.409387e+00 4.210962e+00 4.315384e+00 3.128204e+00 3.112184e+00 2.461406e+00 3.830276e+00
<GCONST> 1.051220e+02
<TRANSP> 5
 0.000000e+00 1.000000e+00 0.000000e+00 0.000000e+00 0.000000e+00
 0.000000e+00 3.192714e-01 6.807286e-01 0.000000e+00 0.000000e+00
 0.000000e+00 0.000000e+00 2.196385e-01 7.803615e-01 0.000000e+00
 0.000000e+00 0.000000e+00 0.000000e+00 5.697044e-01 4.302956e-01
 0.000000e+00 0.000000e+00 0.000000e+00 0.000000e+00 0.000000e+00
<ENDHMM>
~h "AI"
<BEGINHMM>
<NUMSTATES> 5
<STATE> 2
<MEAN> 25
 4.049166e+00 -1.180203e+01 -1.738276e+00 -5.261160e+00 -4.283484e+00 -1.604024e+00 -7.914322e-01 9.938175e+00 4.707417e+00 -2.781724e+00 -3.317373e+00 -3.931845e+00 -1.913592e-01 -1.281058e-01 1.383712e+00 -9.492858e-03 -1.603556e+00 -1.119148e+00 6.598037e-01 1.291699e+00 -7.668422e-01 -2.855263e-01 6.246649e-01 6.627795e-01 2.336366e-01
<VARIANCE> 25
 1.021953e+01 2.212245e+01 4.351217e+01 2.397602e+01 4.683739e+01 5.441862e+01 4.897023e+01 4.506038e+01 4.763532e+01 3.874727e+01 4.340838e+01 2.936162e+01 7.797161e-01 2.165895e+00 1.951597e+00 1.580810e+00 2.684383e+00 3.095473e+00 2.466120e+00 3.656275e+00 2.568486e+00 2.876085e+00 3.353519e+00 2.339057e+00 1.086721e+00
<GCONST> 9.864124e+01
<STATE> 3
<MEAN> 25
 2.723963e+00 -7.861671e+00 7.431409e+00 -5.147973e+00 -1.316172e+01 -7.361429e+00 -6.273197e-01 1.037336e+01 -1.410646e+00 5.386847e-01 4.156514e+00 -5.999805e-01 -2.477483e-01 1.068310e+00 1.627397e+00 4.301313e-02 -1.051749e+00 -3.481836e-01 -4.759876e-01 -1.259235e+00 -1.276688e+00 7.889428e-01 1.231244e+00 4.094066e-01 -5.602382e-01
<VARIANCE> 25
 8.755092e+00 1.839886e+01 3.320318e+01 2.318312e+01 2.615800e+01 3.154303e+01 4.122007e+01 4.372418e+01 4.159546e+01 3.700300e+01 4.102598e+01 2.420247e+01 3.460797e-01 1.152763e+00 1.694156e+00 1.018840e+00 1.931473e+00 1.501052e+00 2.229718e+00 2.805710e+00 2.327087e+00 2.053619e+00 2.239325e+00 1.367447e+00 5.929570e-01
<GCONST> 9.081250e+01
<STATE> 4
<MEAN> 25
 1.631979e+00 -1.876812e-01 1.174022e+01 -1.788455e+00 -1.186472e+01 -6.185459e+00 -2.000598e+00 1.806850e+00 -5.451730e+00 1.551138e+00 4.554628e+00 1.055658e-01 6.562971e-02 7.314558e-01 -3.124258e-01 6.263444e-01 8.965931e-01 2.350062e-01 5.856708e-02 -6.668239e-01 1.670012e-02 -1.315398e-01 -4.280598e-01 -5.268676e-02 -1.449869e+00
<VARIANCE> 25
 1.564167e+01 3.794691e+01 4.846116e+01 3.402766e+01 4.220643e+01 4.445475e+01 4.615671e+01 5.908113e+01 4.473005e+01 4.261051e+01 3.837304e+01 2.718078e+01 1.020271e+00 1.741528e+00 2.636223e+00 1.871140e+00 2.753707e+00 2.280963e+00 2.946517e+00 3.354872e+00 3.142343e+00 2.305948e+00 2.136210e+00 1.686115e+00 2.116655e+00
<GCONST> 1.000027e+02
<TRANSP> 5
 0.000000e+00 1.000000e+00 0.000000e+00 0.000000e+00 0.000000e+00
 0.000000e+00 7.824120e-01 2.175881e-01 0.000000e+00 0.000000e+00
 0.000000e+00 0.000000e+00 7.326792e-01 2.673208e-01 0.000000e+00
 0.000000e+00 0.000000e+00 0.000000e+00 8.729433e-01 1.270566e-01
 0.000000e+00 0.000000e+00 0.000000e+00 0.000000e+00 0.000000e+00
<ENDHMM>
~h "AU"
<BEGINHMM>
<NUMSTATES> 5
<STATE> 2
<MEAN> 25
 5.006811e+00 -7.353343e+00 -8.465417e+00 -1.071172e+01 9.097449e-01 8.440867e+00 -3.446427e+00 -3.603083e-01 5.845723e+00 2.669420e+00 -2.054540e-01 -7.140349e+00 6.510576e-01 -2.918501e-01 -5.203093e-01 -1.388531e+00 6.677127e-02 1.787006e+00 -1.675432e-01 -4.293152e-01 1.575261e-03 1.223257e-01 8.526945e-01 -4.855030e-01 6.522942e-01
<VARIANCE> 25
 1.401226e+01 2.701125e+01 2.489041e+01 3.793633e+01 3.597155e+01 4.853959e+01 4.689404e+01 4.446545e+01 4.041407e+01 4.211433e+01 4.585473e+01 3.191711e+01 1.585455e+00 2.623352e+00 1.686377e+00 2.720199e+00 2.750616e+00 3.824937e+00 2.853009e+00 3.274628e+00 2.921397e+00 3.035346e+00 3.357441e+00 3.343844e+00 3.792588e+00
<GCONST> 1.020397e+02
<STATE> 3
<MEAN> 25
 7.300227e+00 -3.718523e+00 -8.464502e+00 -1.615502e+01 -1.875313e+00 1.360066e+01 -3.587620e+00 -3.014151e+00 3.255638e+00 2.008455e+00 5.244529e+00 -4.008467e+00 3.401343e-01 1.044831e+00 2.209065e-01 -6.665451e-01 -6.077616e-01 1.745116e-01 -1.498943e-01 -4.783556e-03 -7.909333e-01 -2.969519e-01 5.666066e-01 1.036988e+00 -5.993217e-01
<VARIANCE> 25
 9.600424e+00 2.824282e+01 2.007411e+01 3.361926e+01 3.116871e+01 3.245015e+01 4.362141e+01 3.548187e+01 4.217730e+01 4.478302e+01 4.399463e+01 4.137622e+01 3.661908e-01 1.227524e+00 7.670901e-01 1.385286e+00 1.578671e+00 1.647783e+00 1.778460e+00 1.700169e+00 2.015349e+00 2.071882e+00 2.160496e+00 2.354218e+00 6.681551e-01
<GCONST> 9.135448e+01
<STATE> 4
<MEAN> 25
 8.570436e+00 5.158424e+00 -4.917362e+00 -1.440301e+01 -4.643003e+00 8.845532e+00 -4.059583e+00 -1.343045e+00 -2.003803e+00 -1.737219e-01 3.794186e+00 1.466012e+00 -1.470949e-01 4.520150e-01 4.763327e-01 1.388663e+00 2.122788e-01 -9.513367e-01 3.396453e-02 -1.089089e-01 -2.091934e-01 -1.800373e-02 -4.793716e-01 -2.165920e-02 -1.298396e+00
<VARIANCE> 25
 2.180695e+01 3.862730e+01 2.606359e+01 6.874704e+01 4.593415e+01 4.975552e+01 6.232807e+01 4.949798e+01 4.517174e+01 5.284835e+01 3.922227e+01 3.626744e+01 9.674445e-01 2.088552e+00 1.469315e+00 3.656582e+00 2.828849e+00 2.903499e+00 2.916774e+00 2.837151e+00 2.683334e+00 2.949624e+00 2.596158e+00 2.404648e+00 1.934559e+00
<GCONST> 1.021447e+02
<TRANSP> 5
 0.000000e+00 1.000000e+00 0.000000e+00 0.000000e+00 0.000000e+00
 0.000000e+00 7.202474e-01 2.797526e-01 0.000000e+00 0.000000e+00
 0.000000e+00 0.000000e+00 8.376735e-01 1.623265e-01 0.000000e+00
 0.000000e+00 0.000000e+00 0.000000e+00 8.694521e-01 1.305479e-01
 0.000000e+00 0.000000e+00 0.000000e+00 0.000000e+00 0.000000e+00
<ENDHMM>
~h "NG"
<BEGINHMM>
<NUMSTATES> 5
<STATE> 2
<MEAN> 25
 7.810667e+00 -1.466756e+00 5.902124e-01 -2.658710e+00 -4.038101e+00 3.668794e+00 -8.728011e-01 -3.317165e+00 -2.555926e+00 1.986941e+00 -7.456158e-01 -4.677992e+00 4.327570e-01 8.532733e-01 1.398286e+00 7.428337e-01 -1.282121e+00 1.338257e-01 7.350847e-01 -1.581097e+00 -9.015423e-01 6.603116e-01 -6.753827e-01 1.007137e+00 -1.071354e+00
<VARIANCE> 25
 1.075813e+01 2.879030e+01 4.499810e+01 4.276839e+01 5.106750e+01 4.659526e+01 5.304350e+01 5.535745e+01 5.508146e+01 4.285474e+01 4.420503e+01 4.437245e+01 6.770813e-01 1.711226e+00 3.281266e+00 3.225727e+00 3.678959e+00 3.488330e+00 4.085048e+00 4.618243e+00 4.437201e+00 3.420415e+00 3.598186e+00 3.608752e+00 1.119235e+00
<GCONST> 1.037450e+02
<STATE> 3
<MEAN> 25
 8.436954e+00 3.876406e-01 4.049675e+00 -1.371117e+00 -7.073465e+00 3.927804e+00 5.285184e-01 -6.567989e+00 -4.040744e+00 2.642989e+00 -2.325047e+00 -1.628975e+00 7.121611e-02 4.912113e-01 6.175388e-01 4.479969e-01 -3.170081e-01 -5.538895e-02 2.667868e-01 -5.025693e-01 -2.849917e-01 1.149444e-01 -3.340182e-01 4.936684e-01 -6.365549e-01
<VARIANCE> 25
 9.890765e+00 2.197447e+01 3.012773e+01 4.300608e+01 4.058920e+01 4.275275e+01 5.309741e+01 5.172570e+01 4.740274e+01 4.248682e+01 4.008159e+01 3.855053e+01 5.120163e-01 1.287471e+00 2.152003e+00 2.127455e+00 2.594207e+00 2.330315e+00 2.631765e+00 3.106440e+00 2.769994e+00 2.434624e+00 2.276666e+00 2.392580e+00 1.025323e+00
<GCONST> 9.745673e+01
<STATE> 4
<MEAN> 25
 7.196854e+00 2.314555e+00 4.226589e+00 3.417339e-01 -5.027191e+00 3.092743e+00 1.420535e+00 -5.657903e+00 -4.325867e+00 1.993001e+00 -3.415646e+00 -1.179214e+00 -4.495190e-01 2.957400e-01 -2.977992e-01 2.450467e-01 7.914820e-01 -3.953464e-01 8.715931e-02 4.570442e-01 9.049180e-02 -2.054935e-01 2.388195e-02 -1.283018e-01 -6.112149e-01
<VARIANCE> 25
 1.749594e+01 2.704153e+01 3.319582e+01 4.767915e+01 6.052713e+01 4.292874e+01 5.161856e+01 5.119435e+01 4.472522e+01 4.502048e+01 3.976587e+01 3.678859e+01 9.257197e-01 1.652293e+00 2.014866e+00 2.242880e+00 3.121222e+00 2.451550e+00 2.551862e+00 3.275229e+00 2.787072e+00 2.494086e+00 2.147195e+00 2.209447e+00 2.193436e+00
<GCONST> 1.004839e+02
<TRANSP> 5
 0.000000e+00 1.000000e+00 0.000000e+00 0.000000e+00 0.000000e+00
 0.000000e+00 5.697905e-01 4.302095e-01 0.000000e+00 0.000000e+00
 0.000000e+00 0.000000e+00 5.785370e-01 4.214629e-01 0.000000e+00
 0.000000e+00 0.000000e+00 0.000000e+00 7.689372e-01 2.310627e-01
 0.000000e+00 0.000000e+00 0.000000e+00 0.000000e+00 0.000000e+00
<ENDHMM>
~h "NY"
<BEGINHMM>
<NUMSTATES> 5
<STATE> 2
<MEAN> 25
 4.676958e+00 1.537599e+00 9.088013e+00 -2.450193e+00 -7.075315e+00 -2.783037e+00 -1.608789e+00 1.592207e+00 -6.051519e+00 -2.450426e+00 2.466759e+00 1.162363e+00 -1.762370e-01 -6.168958e-01 1.287846e-01 -3.115150e-01 -4.157852e-01 7.922281e-02 2.807499e-01 7.347538e-01 5.951948e-02 -4.605942e-01 6.024167e-02 4.462119e-02 5.186796e-01
<VARIANCE> 25
 1.874329e+01 4.242536e+01 3.516177e+01 5.366650e+01 3.868080e+01 3.753540e+01 4.310072e+01 7.322337e+01 4.557613e+01 4.204238e+01 3.766444e+01 3.424931e+01 1.911162e+00 5.582139e+00 3.921813e+00 4.660910e+00 3.962798e+00 3.407577e+00 3.851081e+00 9.015011e+00 4.699764e+00 3.391194e+00 3.574625e+00 2.575368e+00 3.217988e+00
<GCONST> 1.078069e+02
<STATE> 3
<MEAN> 25
 3.549710e+00 -7.514891e+00 5.174834e+00 -3.655499e+00 -6.778123e+00 -1.782038e+00 -1.644854e-01 9.656974e+00 -1.545897e+00 -6.667502e+00 -8.804544e-01 -3.526659e-01 2.236748e-01 -1.066479e+00 -1.725140e+00 6.309302e-01 1.435473e+00 2.338798e-01 -1.489458e-01 4.993575e-01 1.202479e+00 -6.459187e-01 -1.189291e+00 -3.751970e-01 8.455835e-02
<VARIANCE> 25
 1.144255e+01 3.836597e+01 2.939201e+01 3.169930e+01 4.631995e+01 3.227655e+01 3.873652e+01 5.070442e+01 4.294459e+01 3.481485e+01 3.564735e+01 2.892610e+01 4.971360e-01 2.195328e+00 1.627702e+00 1.525499e+00 2.333201e+00 1.744118e+00 1.993070e+00 3.066008e+00 2.194031e+00 1.999798e+00 2.116236e+00 1.712960e+00 1.370286e+00
<GCONST> 9.530169e+01
<STATE> 4
<MEAN> 25
 -3.327072e-01 -3.192385e+00 -1.913832e+00 2.159264e+00 2.792836e+00 -7.274392e-01 1.880931e+00 4.277124e+00 6.083496e-01 -4.557870e+00 -2.785960e+00 5.817180e-01 -1.022500e-01 1.524785e-01 -3.047316e-01 1.807358e-01 4.143137e-01 1.190046e-01 -1.580891e-02 -2.468203e-01 1.286458e-01 1.824608e-01 -9.917267e-02 -6.461471e-02 -6.418672e-01
<VARIANCE> 25
 2.611775e+01 5.110794e+01 2.564187e+01 2.899079e+01 4.619595e+01 2.791224e+01 3.559538e+01 4.746972e+01 3.408739e+01 3.944929e+01 3.311784e+01 2.630997e+01 5.183346e-01 1.168321e+00 1.379245e+00 1.333314e+00 1.883346e+00 1.469364e+00 1.704135e+00 1.766560e+00 1.789554e+00 1.717736e+00 1.727541e+00 1.502684e+00 1.196327e+00
<GCONST> 9.280669e+01
<TRANSP> 5
 0.000000e+00 1.000000e+00 0.000000e+00 0.000000e+00 0.000000e+00
 0.000000e+00 8.685810e-01 1.314190e-01 0.000000e+00 0.000000e+00
 0.000000e+00 0.000000e+00 6.523127e-01 3.476874e-01 0.000000e+00
 0.000000e+00 0.000000e+00 0.000000e+00 8.870223e-01 1.129777e-01
 0.000000e+00 0.000000e+00 0.000000e+00 0.000000e+00 0.000000e+00
<ENDHMM>
~h "OI"
<BEGINHMM>
<NUMSTATES> 5
<STATE> 2
<MEAN> 25
 5.186719e+00 2.673823e+00 -7.148385e+00 -1.328301e+01 -6.547981e+00 8.489817e+00 6.705688e-01 -2.666768e+00 -1.846403e-01 -3.569265e+00 2.621222e+00 1.571113e+00 2.086010e+00 -5.961107e-01 -8.015184e-01 -3.238858e+00 -1.406679e+00 1.992746e+00 -9.697803e-01 -3.709883e-01 1.186140e-01 7.619208e-01 1.255822e+00 -1.300374e-01 2.384023e+00
<VARIANCE> 25
 5.660400e+01 2.368833e+01 3.101386e+01 7.118369e+01 6.022193e+01 4.671658e+01 4.235228e+01 3.896000e+01 3.383438e+01 3.267659e+01 3.666416e+01 3.657332e+01 7.332723e+00 2.927283e+00 2.640752e+00 1.101684e+01 5.671416e+00 5.726613e+00 5.503625e+00 3.652756e+00 2.769117e+00 3.835768e+00 4.159385e+00 3.818443e+00 3.586595e+00
<GCONST> 1.097313e+02
<STATE> 3
<MEAN> 25
 7.969336e+00 -3.122411e+00 -8.296718e+00 -1.639079e+01 -5.369960e+00 1.258962e+01 -3.232514e+00 -4.125393e+00 6.976846e-01 3.137863e+00 6.639154e+00 -1.441919e+00 -2.724141e-01 -1.671982e+00 1.963302e-01 1.486539e+00 9.933079e-01 -1.248334e+00 -1.394175e+00 1.611646e-01 8.473139e-01 2.329142e+00 1.112294e-01 -1.967331e+00 8.316853e-01
<VARIANCE> 25
 1.243188e+01 2.596122e+01 2.300720e+01 4.976487e+01 3.287447e+01 3.924428e+01 5.643553e+01 3.886677e+01 3.859193e+01 4.602700e+01 6.001817e+01 5.053094e+01 6.749631e-01 1.028745e+00 1.326128e+00 4.068789e+00 1.965186e+00 5.719097e+00 3.129334e+00 3.479714e+00 3.184781e+00 3.256750e+00 3.460968e+00 3.739822e+00 8.511549e-01
<GCONST> 9.998873e+01
<STATE> 4
<MEAN> 25
 2.563183e+00 -4.495853e+00 4.317956e+00 -3.738616e+00 -9.158302e+00 -4.794466e+00 -5.620126e+00 1.437861e+00 -1.283337e+00 4.391911e+00 3.779905e+00 -3.271111e+00 -5.482690e-01 2.311687e-01 1.753279e+00 1.192657e+00 -8.026056e-01 -1.721523e+00 7.808578e-02 7.423823e-01 -8.203738e-01 -5.598776e-01 -1.078657e-01 5.797079e-01 -3.882526e-01
<VARIANCE> 25
 2.136671e+01 4.010477e+01 1.011446e+02 4.437291e+01 6.773077e+01 7.533485e+01 5.470746e+01 7.973080e+01 6.558351e+01 5.411294e+01 4.919701e+01 4.309705e+01 6.337253e-01 1.321168e+00 3.966401e+00 2.866881e+00 3.509899e+00 7.361895e+00 3.465567e+00 6.110100e+00 4.968596e+00 3.627403e+00 4.105972e+00 3.371097e+00 6.909230e-01
<GCONST> 1.075691e+02
<TRANSP> 5
 0.000000e+00 1.000000e+00 0.000000e+00 0.000000e+00 0.000000e+00
 0.000000e+00 7.221316e-01 2.778684e-01 0.000000e+00 0.000000e+00
 0.000000e+00 0.000000e+00 6.940935e-01 3.059065e-01 0.000000e+00
 0.000000e+00 0.000000e+00 0.000000e+00 8.817275e-01 1.182725e-01
 0.000000e+00 0.000000e+00 0.000000e+00 0.000000e+00 0.000000e+00
<ENDHMM>
~h "SY"
<BEGINHMM>
<NUMSTATES> 5
<STATE> 2
<MEAN> 25
 -8.515196e+00 4.873435e+00 4.141459e+00 1.780994e+00 3.234605e+00 -3.078402e+00 2.269290e+00 1.687184e+00 -9.246128e-01 -1.369413e+00 -6.717100e-01 2.938285e+00 -3.530965e+00 7.097548e-01 -8.424863e-02 -2.645530e-01 1.024150e+00 4.682809e-01 8.423572e-01 2.998605e-01 3.915073e-01 4.567122e-02 6.665848e-01 4.046720e-01 4.666068e-02
<VARIANCE> 25
 7.853076e+01 3.878768e+01 5.190909e+01 3.143245e+01 4.363987e+01 4.195571e+01 4.437005e+01 4.900046e+01 3.615170e+01 3.116856e+01 3.041307e+01 2.300866e+01 5.442516e+00 4.861484e+00 4.120446e+00 3.296263e+00 4.337512e+00 4.049626e+00 4.338788e+00 4.349798e+00 3.624349e+00 3.405998e+00 3.230985e+00 2.582647e+00 2.581449e+00
<GCONST> 1.074119e+02
<STATE> 3
<MEAN> 25
 -2.087408e+01 3.750739e+00 2.074126e+00 -2.038225e+00 4.868543e+00 1.910057e-01 3.922885e+00 2.665095e+00 1.150486e+00 9.223624e-01 2.707379e+00 4.302505e+00 -6.957965e-01 -4.330436e-01 -1.255758e-01 -3.661878e-01 -2.519009e-01 2.367097e-01 1.025533e-01 -2.398558e-02 2.505747e-01 2.574626e-01 2.438239e-01 1.612802e-01 2.229136e-01
<VARIANCE> 25
 5.431813e+01 2.310481e+01 3.620522e+01 2.924772e+01 3.125323e+01 4.024352e+01 3.346118e+01 3.338029e+01 3.011337e+01 2.641872e+01 2.344883e+01 1.841643e+01 2.464821e+00 1.075467e+00 1.298154e+00 1.364248e+00 1.632101e+00 1.641061e+00 1.620819e+00 1.639705e+00 1.655718e+00 1.631573e+00 1.517598e+00 1.315532e+00 7.672830e-01
<GCONST> 9.187868e+01
<STATE> 4
<MEAN> 25
 -1.401531e+01 1.435046e-01 3.507051e+00 -1.843078e+00 -8.342649e-01 -1.570889e+00 2.022041e+00 1.700390e+00 1.949023e+00 4.771440e-01 2.834147e+00 3.782782e+00 2.660310e+00 -5.291222e-01 4.455206e-01 1.206143e-01 -1.218881e+00 -8.390185e-01 -8.016210e-01 1.902644e-01 -1.373562e-01 -3.833042e-01 -2.827938e-01 -4.035697e-01 9.051048e-01
<VARIANCE> 25
 1.059920e+02 2.686573e+01 4.820947e+01 3.030808e+01 5.116953e+01 4.277545e+01 3.867785e+01 3.099570e+01 3.180754e+01 2.644475e+01 2.562313e+01 1.955631e+01 1.000993e+01 2.600196e+00 3.164327e+00 2.341753e+00 3.498214e+00 3.083315e+00 3.446166e+00 3.465036e+00 3.363428e+00 2.348879e+00 2.458360e+00 2.029958e+00 2.175938e+00
<GCONST> 1.034920e+02
<TRANSP> 5
 0.000000e+00 1.000000e+00 0.000000e+00 0.000000e+00 0.000000e+00
 0.000000e+00 7.760851e-01 2.239149e-01 0.000000e+00 0.000000e+00
 0.000000e+00 0.000000e+00 8.665875e-01 1.334125e-01 0.000000e+00
 0.000000e+00 0.000000e+00 0.000000e+00 8.690547e-01 1.309454e-01
 0.000000e+00 0.000000e+00 0.000000e+00 0.000000e+00 0.000000e+00
<ENDHMM>
~h "sil"
<BEGINHMM>
<NUMSTATES> 5
<STATE> 2
<MEAN> 25
 -4.133274e+00 4.609135e-01 -5.755075e-01 3.256217e+00 3.623401e+00 4.923859e-01 3.803331e+00 6.207895e-01 1.637371e-01 -7.739755e-01 3.904373e-01 2.454909e+00 -1.122940e-01 -4.149024e-02 -9.888006e-02 -1.387207e-02 -2.059413e-02 -8.103976e-02 -9.116699e-03 5.860415e-03 -2.270945e-02 -5.794572e-02 2.117347e-02 4.710950e-02 -1.928536e-01
<VARIANCE> 25
 3.357760e+01 3.865729e+01 4.114263e+01 4.559558e+01 4.305122e+01 4.253458e+01 4.213180e+01 4.273307e+01 3.667252e+01 3.210727e+01 3.184069e+01 2.806652e+01 1.295489e+00 1.917042e+00 1.947308e+00 2.403605e+00 2.209700e+00 2.453963e+00 2.336291e+00 2.896211e+00 2.415493e+00 2.360038e+00 2.036044e+00 1.959161e+00 2.362390e+00
<GCONST> 9.956669e+01
<STATE> 3
<MEAN> 25
 -6.168656e+00 1.139914e+00 -1.331186e+00 4.648793e+00 4.593755e+00 -9.543612e-01 5.566239e+00 1.670922e+00 4.473267e-01 -6.625412e-01 8.600006e-01 4.081646e+00 -2.221663e-02 3.331222e-02 -6.831016e-03 -9.461103e-03 -1.332211e-03 5.977064e-03 4.512102e-03 -1.350723e-02 2.206524e-02 2.599128e-02 1.170985e-02 -5.593938e-03 -5.922305e-02
<VARIANCE> 25
 1.162950e+01 3.020311e+01 2.079590e+01 2.769562e+01 2.260586e+01 2.884779e+01 2.614025e+01 3.733318e+01 2.781123e+01 2.659732e+01 2.296586e+01 2.242492e+01 4.878688e-01 1.031798e+00 9.629117e-01 1.575621e+00 1.476181e+00 1.801811e+00 1.667533e+00 2.422990e+00 1.900220e+00 2.000953e+00 1.688941e+00 1.713871e+00 6.471406e-01
<GCONST> 8.844678e+01
<STATE> 4
<MEAN> 25
 -4.822688e+00 2.676931e+00 -1.908281e+00 3.264757e+00 3.897449e+00 -1.577454e-01 4.251132e+00 7.082113e-01 7.656863e-01 -1.541020e-01 1.662007e-01 2.683209e+00 -1.425661e-02 2.196272e-02 9.204577e-03 1.696239e-03 9.149553e-03 1.721360e-02 1.095411e-02 -5.188835e-03 1.641947e-03 1.625654e-02 5.823911e-03 -6.695591e-03 -2.061873e-02
<VARIANCE> 25
 6.991092e+00 1.804550e+01 1.488954e+01 1.353888e+01 1.736471e+01 2.242627e+01 2.133463e+01 2.486836e+01 2.222586e+01 1.901970e+01 1.909556e+01 1.605282e+01 2.229275e-01 4.887522e-01 6.106209e-01 8.047341e-01 1.038942e+00 1.219194e+00 1.342116e+00 1.533375e+00 1.505706e+00 1.522719e+00 1.436872e+00 1.284269e+00 2.207702e-01
<GCONST> 7.806392e+01
<TRANSP> 5
 0.000000e+00 1.000000e+00 0.000000e+00 0.000000e+00 0.000000e+00
 0.000000e+00 9.211498e-01 7.885014e-02 0.000000e+00 0.000000e+00
 0.000000e+00 0.000000e+00 9.503931e-01 4.960683e-02 0.000000e+00
 0.000000e+00 0.000000e+00 0.000000e+00 9.815893e-01 1.841073e-02
 0.000000e+00 0.000000e+00 0.000000e+00 0.000000e+00 0.000000e+00
<ENDHMM>
