~o
<STREAMINFO> 1 25
<VECSIZE> 25<NULLD><MFCC_D_N_Z_0><DIAGC>
~s "silst"
<MEAN> 25
 -5.423761e+00 -5.019235e-01 -2.917794e+00 3.307360e+00 3.373320e+00 -1.644466e+00 3.366760e+00 1.709888e+00 3.266275e-01 -1.528506e+00 8.961871e-02 2.951481e+00 -4.142073e-02 1.092440e-01 1.314290e-02 -1.090449e-02 4.191718e-02 7.618872e-02 3.747047e-02 -5.854432e-02 2.725834e-02 6.762660e-02 2.727722e-02 -3.350166e-02 -1.525682e-01
<VARIANCE> 25
 1.215964e+01 3.366052e+01 1.937967e+01 2.106196e+01 2.301363e+01 2.399575e+01 2.794326e+01 3.022552e+01 2.876086e+01 2.318770e+01 2.241004e+01 2.014709e+01 3.654247e-01 7.465240e-01 7.893192e-01 1.006526e+00 1.157883e+00 1.421227e+00 1.531560e+00 1.722260e+00 1.723272e+00 1.711843e+00 1.539843e+00 1.431234e+00 3.561667e-01
<GCONST> 8.441969e+01
~h "A"
<BEGINHMM>
<NUMSTATES> 5
<STATE> 2
<MEAN> 25
 4.841302e+00 -8.888432e+00 -4.443941e+00 -6.528366e+00 -1.268916e+00 1.925609e+00 -2.905888e+00 4.894494e+00 5.724998e+00 1.851712e-01 -2.144601e+00 -5.032502e+00 5.134875e-01 -1.983287e+00 -1.300953e+00 -9.285765e-01 9.532886e-01 1.215829e+00 4.391572e-01 9.310148e-01 1.094369e+00 -8.527861e-01 -1.228548e+00 -1.434975e+00 1.824343e+00
<VARIANCE> 25
 1.801012e+01 2.649745e+01 3.985658e+01 4.082272e+01 5.588277e+01 6.814979e+01 5.060250e+01 6.958289e+01 4.511514e+01 4.147799e+01 4.582427e+01 3.382573e+01 2.319066e+00 2.356843e+00 2.976111e+00 3.391652e+00 4.088838e+00 4.106345e+00 4.428813e+00 5.994753e+00 4.213519e+00 3.685291e+00 3.890279e+00 3.150724e+00 4.100938e+00
<GCONST> 1.075716e+02
<STATE> 3
<MEAN> 25
 5.042035e+00 -1.203417e+01 -6.693675e+00 -7.227634e+00 2.446661e+00 4.722238e+00 -1.325221e+00 4.196447e+00 6.444261e+00 -2.237510e+00 -4.585479e+00 -7.040727e+00 1.107580e-02 -3.103758e-02 -5.794646e-02 1.776846e-01 3.367080e-01 -1.151740e-01 2.135315e-01 -2.801130e-02 -6.106686e-02 -1.451367e-01 -2.108878e-01 -1.405912e-02 -1.202303e-01
<VARIANCE> 25
 8.714183e+00 1.715961e+01 2.938225e+01 2.973303e+01 3.574678e+01 4.692727e+01 3.908401e+01 5.319164e+01 3.645786e+01 3.326411e+01 3.469732e+01 2.793221e+01 3.838268e-01 8.858205e-01 9.090608e-01 1.157622e+00 1.640023e+00 2.146799e+00 1.723548e+00 2.261877e+00 1.572791e+00 1.804806e+00 1.844172e+00 1.391230e+00 6.440005e-01
<GCONST> 8.990578e+01
<STATE> 4
<MEAN> 25
 4.584876e+00 -7.110497e+00 -6.331108e+00 -4.101680e+00 2.490019e+00 9.909675e-01 9.794719e-03 3.581129e+00 5.169045e+00 -9.237540e-01 -4.663369e+00 -5.142783e+00 -6.744493e-02 1.331065e+00 6.206627e-01 8.091521e-01 -2.911376e-01 -5.516791e-01 -1.088157e-01 -2.923388e-01 -4.777638e-01 3.857094e-01 3.076753e-01 5.568380e-01 -2.112940e+00
<VARIANCE> 25
 1.485625e+01 2.878856e+01 3.344575e+01 4.045192e+01 4.865351e+01 5.152796e+01 4.732401e+01 5.329094e+01 4.052985e+01 4.222618e+01 4.177658e+01 3.405197e+01 1.196102e+00 2.078334e+00 2.030249e+00 2.408642e+00 2.858836e+00 3.095834e+00 3.154534e+00 3.427919e+00 2.918407e+00 2.919273e+00 2.873893e+00 2.360479e+00 2.909061e+00
<GCONST> 1.017642e+02
<TRANSP> 5
 0.000000e+00 1.000000e+00 0.000000e+00 0.000000e+00 0.000000e+00
 0.000000e+00 5.590628e-01 4.409372e-01 0.000000e+00 0.000000e+00
 0.000000e+00 0.000000e+00 7.573021e-01 2.426979e-01 0.000000e+00
 0.000000e+00 0.000000e+00 0.000000e+00 7.165680e-01 2.834320e-01
 0.000000e+00 0.000000e+00 0.000000e+00 0.000000e+00 0.000000e+00
<ENDHMM>
~h "B"
<BEGINHMM>
<NUMSTATES> 5
<STATE> 2
<MEAN> 25
 9.445665e+00 7.792432e+00 4.046915e+00 2.337877e+00 1.558173e+00 4.321282e+00 2.735107e-01 -5.481112e+00 -4.335216e+00 -1.896278e-01 5.322366e-02 -1.998787e+00 7.928478e-01 1.698016e+00 6.511620e-01 5.847387e-01 6.193620e-01 3.060783e-01 9.805435e-01 -4.444822e-01 -4.891589e-01 -2.333456e-01 -4.404898e-01 -1.641839e-01 -1.350780e+00
<VARIANCE> 25
 3.470433e+01 3.715186e+01 2.868194e+01 3.917250e+01 3.377370e+01 3.590157e+01 4.261432e+01 3.856559e+01 4.658311e+01 2.999408e+01 4.004567e+01 2.823837e+01 2.299989e+00 2.240968e+00 2.321097e+00 3.118441e+00 2.726689e+00 2.791976e+00 3.339113e+00 3.369915e+00 3.562667e+00 2.791649e+00 2.959206e+00 2.268169e+00 5.420611e+00
<GCONST> 1.028719e+02
<STATE> 3
<MEAN> 25
 1.098572e+01 1.132799e+01 5.348881e+00 2.738812e+00 1.998941e+00 4.891445e+00 2.714877e+00 -6.177543e+00 -5.672509e+00 -4.884191e-01 -6.965545e-01 -2.099136e+00 -1.016222e+00 -1.478834e+00 -9.772946e-01 -6.107331e-01 2.065661e-01 -8.174759e-01 -1.022877e+00 4.371587e-01 6.352735e-01 6.573617e-02 8.405625e-01 8.931215e-01 2.404192e+00
<VARIANCE> 25
 2.009829e+01 2.444408e+01 2.005438e+01 2.660641e+01 3.067441e+01 3.361635e+01 2.940986e+01 3.767740e+01 4.211178e+01 3.052212e+01 3.759725e+01 2.610990e+01 2.413480e+00 2.687233e+00 2.807770e+00 4.067492e+00 3.071455e+00 3.380130e+00 3.005135e+00 3.149522e+00 3.816648e+00 2.912534e+00 3.442955e+00 2.463567e+00 4.373102e+00
<GCONST> 1.013348e+02
<STATE> 4
<MEAN> 25
 6.307560e+00 2.614241e+00 1.899905e-02 -1.303937e+00 1.424933e+00 2.631523e+00 -2.789773e+00 -5.091916e+00 -2.045680e+00 1.285789e+00 3.357169e+00 7.883326e-01 -9.354309e-01 -3.447234e+00 -1.798540e+00 -2.704635e+00 -1.608494e+00 -2.437054e-01 -2.629246e+00 1.076478e+00 2.203385e+00 1.404764e+00 1.137852e+00 -4.490487e-01 5.057853e+00
<VARIANCE> 25
 2.624251e+01 3.487602e+01 2.980026e+01 7.749529e+01 3.483509e+01 4.510747e+01 3.855722e+01 3.024936e+01 3.540593e+01 3.980178e+01 3.647823e+01 2.496880e+01 2.420589e+00 3.607232e+00 5.552688e+00 7.551255e+00 4.914465e+00 6.645061e+00 4.928717e+00 6.706730e+00 9.528866e+00 6.421730e+00 6.027874e+00 6.309275e+00 4.134261e+00
<GCONST> 1.110562e+02
<TRANSP> 5
 0.000000e+00 1.000000e+00 0.000000e+00 0.000000e+00 0.000000e+00
 0.000000e+00 7.428042e-01 2.571958e-01 0.000000e+00 0.000000e+00
 0.000000e+00 0.000000e+00 4.852441e-01 5.147560e-01 0.000000e+00
 0.000000e+00 0.000000e+00 0.000000e+00 4.358444e-01 5.641556e-01
 0.000000e+00 0.000000e+00 0.000000e+00 0.000000e+00 0.000000e+00
<ENDHMM>
~h "C"
<BEGINHMM>
<NUMSTATES> 5
<STATE> 2
<MEAN> 25
 -1.025371e+00 5.855356e+00 2.935858e+00 3.611462e+00 3.779801e-01 -6.254301e+00 8.590354e-02 2.612475e-01 -9.781335e-02 -1.066903e+00 -1.004965e+00 2.100786e+00 -1.699048e+00 8.438548e-02 -7.305099e-01 -3.137055e-01 7.977327e-01 1.539217e-01 5.444445e-01 -2.399979e-01 9.772795e-02 1.032992e-01 6.432963e-02 1.174943e-01 -1.605724e+00
<VARIANCE> 25
 2.821902e+01 3.364045e+01 3.733337e+01 2.808423e+01 4.163583e+01 4.211789e+01 5.002982e+01 4.381028e+01 4.163425e+01 2.850644e+01 2.841353e+01 2.371490e+01 4.512218e+00 5.243986e+00 3.205818e+00 3.500875e+00 4.307274e+00 3.221904e+00 3.869194e+00 3.512762e+00 3.258189e+00 2.830162e+00 2.681772e+00 2.505412e+00 1.067208e+01
<GCONST> 1.058273e+02
<STATE> 3
<MEAN> 25
 -1.624042e+01 2.185425e+00 -2.056070e+00 -2.484881e+00 4.083945e+00 -2.948770e+00 1.975646e+00 2.053023e-02 1.057472e-01 9.116176e-01 1.761528e+00 3.640171e+00 -2.741884e+00 -3.380838e-01 -1.767499e-01 -1.224954e+00 -2.796832e-01 -5.774700e-02 1.071234e-01 4.867761e-01 2.169195e-01 1.526773e-01 5.726332e-01 6.260959e-01 4.406777e+00
<VARIANCE> 25
 4.270357e+01 2.952012e+01 3.176814e+01 3.179566e+01 3.360301e+01 3.808708e+01 3.884481e+01 3.228064e+01 2.860854e+01 2.182410e+01 2.110095e+01 1.664642e+01 7.238680e+00 3.253536e+00 4.187602e+00 3.469870e+00 4.039656e+00 3.756609e+00 3.677121e+00 3.620856e+00 3.050635e+00 2.529434e+00 2.482693e+00 1.815023e+00 6.480859e+00
<GCONST> 1.031524e+02
<STATE> 4
<MEAN> 25
 -1.077783e+01 1.671616e+00 2.341133e+00 -1.813734e+00 -1.554225e+00 -5.988558e+00 -2.907343e-02 2.883653e+00 1.526020e+00 -9.919639e-01 4.984549e-01 4.107012e+00 5.457188e+00 -1.488282e+00 1.276656e+00 5.050315e-01 -2.004145e+00 -5.333862e-01 -1.746952e+00 8.808116e-01 8.155245e-01 -4.803431e-01 -7.626555e-01 -1.013679e+00 2.098101e+00
<VARIANCE> 25
 9.470265e+01 2.758608e+01 3.449500e+01 3.138434e+01 3.998358e+01 3.764610e+01 5.395379e+01 4.011236e+01 3.269106e+01 2.425982e+01 2.665664e+01 1.915290e+01 3.714988e+00 5.599391e+00 6.021196e+00 4.549848e+00 4.932316e+00 4.860606e+00 4.915671e+00 7.532122e+00 6.156858e+00 3.656859e+00 3.480700e+00 2.669958e+00 2.168080e+00
<GCONST> 1.079613e+02
<TRANSP> 5
 0.000000e+00 1.000000e+00 0.000000e+00 0.000000e+00 0.000000e+00
 0.000000e+00 7.924834e-01 2.075166e-01 0.000000e+00 0.000000e+00
 0.000000e+00 0.000000e+00 7.257486e-01 2.742514e-01 0.000000e+00
 0.000000e+00 0.000000e+00 0.000000e+00 6.408168e-01 3.591831e-01
 0.000000e+00 0.000000e+00 0.000000e+00 0.000000e+00 0.000000e+00
<ENDHMM>
~h "D"
<BEGINHMM>
<NUMSTATES> 5
<STATE> 2
<MEAN> 25
 7.420794e+00 5.053651e+00 6.689241e+00 6.987636e+00 -4.336523e-01 -3.250932e+00 -3.093943e+00 -2.550751e-01 1.954514e+00 -1.306191e+00 -4.139095e+00 -1.397259e+00 8.201991e-01 1.332674e+00 8.862107e-01 9.454753e-01 7.520188e-01 -3.299459e-01 1.032295e-01 -1.125680e-01 2.185991e-01 -2.174539e-01 -6.387635e-01 -2.297533e-01 -1.195629e+00
<VARIANCE> 25
 3.653553e+01 5.004057e+01 3.464861e+01 3.268719e+01 4.684845e+01 3.563501e+01 5.531996e+01 6.658887e+01 4.456005e+01 3.882043e+01 3.740792e+01 3.070208e+01 2.708912e+00 3.432087e+00 2.641284e+00 3.104463e+00 3.905671e+00 2.945522e+00 3.911140e+00 5.106262e+00 3.702376e+00 3.038648e+00 3.350200e+00 2.561048e+00 6.531854e+00
<GCONST> 1.068415e+02
<STATE> 3
<MEAN> 25
 8.192739e+00 6.599424e+00 8.858256e+00 7.865498e+00 1.176301e+00 -3.364272e+00 -2.913773e+00 -1.556320e-01 1.496364e+00 -1.687074e+00 -4.519940e+00 -1.486780e+00 -2.015245e+00 -2.665331e+00 1.407791e-01 -1.901526e+00 -5.890167e-01 -2.806894e-01 -7.877727e-01 1.029503e+00 -8.304026e-01 -9.382170e-02 1.671698e+00 1.383830e+00 3.809341e+00
<VARIANCE> 25
 2.726960e+01 3.291060e+01 2.926952e+01 2.923360e+01 3.458152e+01 3.314752e+01 4.693523e+01 5.160883e+01 4.191660e+01 3.775360e+01 3.101772e+01 2.985048e+01 2.092051e+00 3.048203e+00 3.954729e+00 3.588875e+00 5.450057e+00 4.206277e+00 5.316278e+00 7.858786e+00 6.315126e+00 4.220967e+00 3.734876e+00 3.089076e+00 4.514918e+00
<GCONST> 1.071387e+02
<STATE> 4
<MEAN> 25
 2.233645e+00 -3.474309e+00 7.188884e+00 4.068893e-01 -4.222042e+00 -5.140235e+00 -6.656192e+00 4.238365e+00 4.630573e-01 -1.144827e+00 1.234937e+00 3.289855e+00 -9.583684e-01 -2.407757e+00 -8.094083e-01 -2.188384e+00 -2.667806e+00 -3.123417e-01 -1.134851e+00 1.616079e+00 4.467231e-01 3.438335e-01 1.405784e+00 2.209821e-01 4.546380e+00
<VARIANCE> 25
 1.854328e+01 2.629039e+01 4.093673e+01 3.613046e+01 6.718996e+01 4.409165e+01 7.587604e+01 5.788565e+01 6.280633e+01 2.954830e+01 3.013722e+01 2.491724e+01 3.104762e+00 3.588080e+00 6.659806e+00 5.011121e+00 5.983618e+00 4.363081e+00 6.557430e+00 1.079076e+01 9.952322e+00 4.668704e+00 5.940670e+00 4.052203e+00 4.755541e+00
<GCONST> 1.119830e+02
<TRANSP> 5
 0.000000e+00 1.000000e+00 0.000000e+00 0.000000e+00 0.000000e+00
 0.000000e+00 7.377164e-01 2.622836e-01 0.000000e+00 0.000000e+00
 0.000000e+00 0.000000e+00 4.448957e-01 5.551044e-01 0.000000e+00
 0.000000e+00 0.000000e+00 0.000000e+00 4.059151e-01 5.940850e-01
 0.000000e+00 0.000000e+00 0.000000e+00 0.000000e+00 0.000000e+00
<ENDHMM>
~h "E"
<BEGINHMM>
<NUMSTATES> 5
<STATE> 2
<MEAN> 25
 3.046057e+00 -7.770133e+00 4.243825e+00 -1.347161e+00 -8.904095e+00 -6.506920e+00 -1.164607e+00 7.309166e+00 6.380073e-01 -1.899220e-01 1.921038e+00 -9.374053e-01 4.645115e-01 -1.625697e+00 1.239570e+00 -1.066314e+00 -2.367637e+00 -5.607885e-01 7.156089e-01 2.082633e+00 -3.019697e-01 -4.321680e-01 7.075539e-01 -1.348023e-01 2.660045e+00
<VARIANCE> 25
 2.632588e+01 4.075040e+01 4.843410e+01 3.599117e+01 5.390608e+01 4.225457e+01 6.850176e+01 5.318736e+01 5.081141e+01 3.900368e+01 4.806920e+01 3.054858e+01 3.711721e+00 3.723751e+00 3.678068e+00 3.591119e+00 4.850655e+00 4.200391e+00 6.074197e+00 6.389652e+00 5.415511e+00 4.687821e+00 4.408655e+00 3.142732e+00 6.412335e+00
<GCONST> 1.108050e+02
<STATE> 3
<MEAN> 25
 2.810956e+00 -8.429916e+00 8.573470e+00 -4.219369e+00 -1.400659e+01 -7.187272e+00 1.630135e+00 8.231839e+00 -1.721634e+00 8.884574e-01 4.966907e+00 -9.094532e-01 -5.234827e-02 1.719642e-01 4.629517e-02 -5.475736e-02 2.391046e-02 -3.254106e-02 2.930803e-01 -1.194866e-01 -1.253281e-01 1.097929e-01 -2.033442e-02 -7.026487e-02 -6.059410e-02
<VARIANCE> 25
 7.906705e+00 2.566816e+01 4.256735e+01 2.741955e+01 3.047814e+01 3.557125e+01 5.112450e+01 4.990591e+01 4.404519e+01 4.428731e+01 4.315129e+01 2.756226e+01 3.431062e-01 7.234585e-01 1.005753e+00 9.867581e-01 1.257395e+00 1.134519e+00 1.641549e+00 1.514463e+00 1.530010e+00 1.305833e+00 1.353695e+00 9.248737e-01 7.761493e-01
<GCONST> 8.834064e+01
<STATE> 4
<MEAN> 25
 2.026212e+00 -3.541463e+00 5.464471e+00 -3.186090e-01 -9.734493e+00 -7.879886e+00 2.837703e+00 4.584920e+00 -1.158985e+00 8.126394e-01 2.338044e+00 -5.952122e-01 -2.502542e-02 9.301018e-01 -6.331493e-01 7.429332e-01 1.205978e+00 2.516103e-01 -1.791220e-01 -7.097308e-01 2.160980e-01 -3.719946e-02 -5.572616e-01 5.602832e-02 -1.934336e+00
<VARIANCE> 25
 1.898979e+01 4.114718e+01 5.041944e+01 3.303033e+01 4.604222e+01 4.743096e+01 5.865384e+01 5.787061e+01 5.139750e+01 4.112622e+01 4.474840e+01 2.813399e+01 1.380187e+00 2.060372e+00 1.955625e+00 2.122636e+00 3.099185e+00 2.640815e+00 3.707318e+00 3.102118e+00 3.012983e+00 2.813224e+00 2.514921e+00 2.018490e+00 3.300977e+00
<GCONST> 1.026079e+02
<TRANSP> 5
 0.000000e+00 1.000000e+00 0.000000e+00 0.000000e+00 0.000000e+00
 0.000000e+00 6.397896e-01 3.602104e-01 0.000000e+00 0.000000e+00
 0.000000e+00 0.000000e+00 8.293139e-01 1.706861e-01 0.000000e+00
 0.000000e+00 0.000000e+00 0.000000e+00 7.594119e-01 2.405881e-01
 0.000000e+00 0.000000e+00 0.000000e+00 0.000000e+00 0.000000e+00
<ENDHMM>
~h "F"
<BEGINHMM>
<NUMSTATES> 5
<STATE> 2
<MEAN> 25
 -2.427686e+00 2.323701e+00 -5.769197e-01 3.332705e+00 3.283787e+00 5.405902e-01 1.337272e+00 -3.636835e-01 -1.223021e-01 8.122478e-01 3.400847e-01 1.020379e+00 -3.355680e+00 6.712839e-03 -5.413937e-01 1.226143e+00 7.691296e-01 -6.538765e-01 4.041226e-01 4.060341e-01 6.320502e-01 3.385373e-02 -1.460914e-01 5.151654e-01 -1.054050e+00
<VARIANCE> 25
 4.785499e+01 2.533053e+01 3.622234e+01 4.129296e+01 3.583376e+01 4.859448e+01 3.535667e+01 3.620870e+01 3.347188e+01 2.707084e+01 2.587940e+01 2.332786e+01 3.524627e+00 4.574350e+00 4.107892e+00 4.864853e+00 5.871465e+00 5.243498e+00 4.518790e+00 4.682410e+00 3.990760e+00 3.692785e+00 3.442714e+00 2.683152e+00 2.911305e+00
<GCONST> 1.064235e+02
<STATE> 3
<MEAN> 25
 -1.317259e+01 -2.162743e+00 -3.724235e+00 3.951760e+00 2.407860e+00 -1.477280e+00 5.745463e-01 8.607734e-01 1.221354e+00 1.294060e+00 1.174210e+00 2.880367e+00 -5.880670e-01 -4.878369e-01 -2.869717e-01 -6.989776e-02 -4.084362e-02 -3.961317e-03 4.270119e-04 5.467630e-02 4.144575e-02 2.673640e-02 7.518873e-02 1.060994e-01 -1.095796e-01
<VARIANCE> 25
 2.292188e+01 2.185604e+01 2.577973e+01 2.099160e+01 2.451970e+01 2.583356e+01 2.724904e+01 2.664670e+01 2.522691e+01 2.085804e+01 2.012819e+01 1.816959e+01 1.641824e+00 1.176961e+00 1.356029e+00 1.353720e+00 1.566274e+00 1.728919e+00 1.727158e+00 1.749459e+00 1.739050e+00 1.676920e+00 1.526616e+00 1.432270e+00 1.407855e+00
<GCONST> 8.922636e+01
<STATE> 4
<MEAN> 25
 -9.006994e+00 -2.563822e+00 -4.249601e+00 2.507792e+00 3.270205e+00 -4.329845e-01 1.368832e+00 7.109689e-01 8.096436e-01 1.082159e+00 9.693451e-01 2.041655e+00 3.101855e+00 4.941593e-01 2.843410e-01 -1.004969e+00 -5.545791e-01 4.418305e-01 -1.777554e-01 -3.549663e-01 -3.368411e-01 -1.869581e-01 1.593299e-02 -6.174017e-01 6.670600e-01
<VARIANCE> 25
 5.291408e+01 2.813234e+01 3.064843e+01 3.404534e+01 3.398357e+01 3.258618e+01 3.026513e+01 3.123133e+01 2.759990e+01 2.399930e+01 2.219485e+01 1.965337e+01 8.341869e+00 3.910931e+00 4.171289e+00 5.418589e+00 3.796240e+00 4.852216e+00 3.620239e+00 3.552221e+00 3.382455e+00 3.012300e+00 2.819668e+00 2.754452e+00 6.609955e+00
<GCONST> 1.049683e+02
<TRANSP> 5
 0.000000e+00 1.000000e+00 0.000000e+00 0.000000e+00 0.000000e+00
 0.000000e+00 6.914894e-01 3.085106e-01 0.000000e+00 0.000000e+00
 0.000000e+00 0.000000e+00 8.543934e-01 1.456065e-01 0.000000e+00
 0.000000e+00 0.000000e+00 0.000000e+00 7.064997e-01 2.935003e-01
 0.000000e+00 0.000000e+00 0.000000e+00 0.000000e+00 0.000000e+00
<ENDHMM>
~h "G"
<BEGINHMM>
<NUMSTATES> 5
<STATE> 2
<MEAN> 25
 7.817904e+00 5.670552e+00 7.047132e+00 4.387846e+00 -2.180709e+00 -3.593358e+00 -2.010092e+00 -1.372606e+00 -3.384468e+00 2.656403e+00 -9.849287e-01 -3.418825e+00 3.351913e-01 1.368328e+00 6.997626e-01 1.134878e+00 4.297015e-01 -4.642170e-01 7.908763e-01 -4.107576e-01 -2.419845e-01 -2.053609e-01 -3.654490e-01 -1.873874e-02 -1.838583e+00
<VARIANCE> 25
 2.334135e+01 4.564542e+01 4.196546e+01 3.913634e+01 5.293312e+01 5.115312e+01 6.131404e+01 5.636499e+01 4.863360e+01 4.134835e+01 3.790496e+01 3.472270e+01 2.393260e+00 2.849363e+00 3.445768e+00 3.398646e+00 4.864887e+00 3.916538e+00 4.237372e+00 4.497900e+00 5.192954e+00 3.373857e+00 3.176079e+00 2.903878e+00 4.997041e+00
<GCONST> 1.081315e+02
<STATE> 3
<MEAN> 25
 3.034625e+00 4.970615e+00 4.719208e+00 6.226668e+00 2.468400e+00 -3.994081e+00 -1.070417e-01 -1.610145e+00 -3.566578e+00 2.201254e+00 -2.088761e+00 -2.875798e-01 -2.115337e+00 -2.176474e+00 -1.610494e+00 -8.363671e-01 9.630178e-01 -6.180664e-01 -1.157343e+00 8.532058e-01 -1.925594e-01 2.448589e-01 4.165308e-01 1.303015e+00 3.559601e+00
<VARIANCE> 25
 4.607043e+01 5.977660e+01 6.877009e+01 3.253821e+01 7.156104e+01 4.820886e+01 5.166365e+01 4.121576e+01 4.228305e+01 3.041849e+01 2.762915e+01 3.344021e+01 3.179394e+00 4.330104e+00 6.453935e+00 3.947833e+00 9.279053e+00 5.265963e+00 5.101693e+00 5.595975e+00 5.310984e+00 3.806293e+00 4.195441e+00 3.259131e+00 4.562991e+00
<GCONST> 1.116193e+02
<STATE> 4
<MEAN> 25
 1.553838e+00 -3.992483e-01 3.297353e+00 1.062463e+00 -4.177920e+00 -6.730386e+00 -5.941256e+00 2.542434e+00 -2.414750e+00 3.315355e+00 2.517363e+00 6.346606e-01 4.327256e-01 -1.186281e+00 -5.820972e-02 -2.118773e+00 -2.447275e+00 3.746129e-01 -8.892424e-01 1.503242e+00 1.271302e+00 7.326324e-02 1.001106e+00 -6.474070e-01 2.525849e+00
<VARIANCE> 25
 1.980768e+01 2.931830e+01 6.267564e+01 3.280989e+01 8.657913e+01 5.270261e+01 6.025450e+01 5.354585e+01 5.419458e+01 3.819670e+01 4.293420e+01 2.903963e+01 2.672465e+00 2.905756e+00 5.580119e+00 3.704117e+00 7.828542e+00 4.267930e+00 5.100622e+00 6.275529e+00 7.702634e+00 3.623814e+00 5.375846e+00 3.640833e+00 2.258605e+00
<GCONST> 1.103797e+02
<TRANSP> 5
 0.000000e+00 1.000000e+00 0.000000e+00 0.000000e+00 0.000000e+00
 0.000000e+00 7.327615e-01 2.672385e-01 0.000000e+00 0.000000e+00
 0.000000e+00 0.000000e+00 6.008213e-01 3.991787e-01 0.000000e+00
 0.000000e+00 0.000000e+00 0.000000e+00 5.137882e-01 4.862118e-01
 0.000000e+00 0.000000e+00 0.000000e+00 0.000000e+00 0.000000e+00
<ENDHMM>
~h "H"
<BEGINHMM>
<NUMSTATES> 5
<STATE> 2
<MEAN> 25
 9.117461e-01 -2.538425e+00 -2.009965e+00 7.806195e-01 7.142574e+00 3.790707e+00 3.254878e+00 2.391846e+00 1.003656e+00 -8.077689e-01 -2.471681e+00 2.415197e-02 -1.098995e+00 -7.422324e-02 1.079752e-01 1.124476e+00 1.613891e+00 5.456445e-01 9.139299e-01 3.733274e-01 3.467060e-01 -1.957237e-01 -4.150363e-02 6.103504e-01 -9.079763e-01
<VARIANCE> 25
 2.270470e+01 3.655105e+01 4.612854e+01 4.604123e+01 6.544611e+01 5.542947e+01 5.123019e+01 5.101417e+01 4.478198e+01 4.101810e+01 4.200505e+01 3.487311e+01 1.833911e+00 3.424516e+00 4.049685e+00 3.768857e+00 4.079782e+00 3.738378e+00 4.043894e+00 4.086501e+00 3.664072e+00 3.465300e+00 3.351488e+00 2.946031e+00 2.258624e+00
<GCONST> 1.069377e+02
<STATE> 3
<MEAN> 25
 -2.551900e+00 -4.447408e+00 -3.107287e+00 1.391733e+00 8.969544e+00 4.314077e+00 4.231846e+00 3.351574e+00 2.483553e+00 -9.859478e-01 -2.067269e+00 1.180241e+00 -3.913968e-01 -1.366543e-01 -2.547768e-01 -2.616375e-01 -3.799487e-01 -3.203773e-01 -1.681014e-01 -1.819487e-01 -5.613645e-02 -2.745203e-03 1.637127e-01 1.339348e-01 -9.268678e-01
<VARIANCE> 25
 2.883728e+01 4.080997e+01 4.604148e+01 4.711316e+01 6.547746e+01 5.362572e+01 5.615928e+01 4.946185e+01 4.314043e+01 4.423127e+01 3.943727e+01 3.343018e+01 1.673481e+00 2.909425e+00 2.765313e+00 2.654919e+00 3.324004e+00 3.170849e+00 3.393758e+00 3.292610e+00 2.987236e+00 2.821846e+00 2.712236e+00 2.277455e+00 3.941049e+00
<GCONST> 1.052000e+02
<STATE> 4
<MEAN> 25
 -3.452027e+00 -5.773359e+00 -5.616377e+00 -1.297669e-01 6.694291e+00 2.540734e+00 2.743891e+00 1.295542e+00 1.564881e+00 -1.449856e+00 -1.276161e+00 7.618886e-01 3.579219e-01 3.259978e-01 4.750726e-02 -1.151597e-01 -3.945668e-01 -1.198092e-01 -7.234874e-02 -2.285847e-01 -1.521846e-01 9.648558e-03 3.761914e-03 -1.673235e-01 -1.735285e-01
<VARIANCE> 25
 3.061624e+01 4.836557e+01 4.118655e+01 3.496113e+01 4.742958e+01 4.078347e+01 4.224687e+01 3.755237e+01 3.647295e+01 3.336472e+01 3.209818e+01 2.712322e+01 1.831732e+00 2.147968e+00 2.032025e+00 1.827691e+00 2.125196e+00 2.079093e+00 2.291093e+00 2.197340e+00 2.215776e+00 2.072153e+00 1.960994e+00 1.888356e+00 2.394882e+00
<GCONST> 9.882026e+01
<TRANSP> 5
 0.000000e+00 1.000000e+00 0.000000e+00 0.000000e+00 0.000000e+00
 0.000000e+00 4.747807e-01 5.252192e-01 0.000000e+00 0.000000e+00
 0.000000e+00 0.000000e+00 5.682722e-01 4.317279e-01 0.000000e+00
 0.000000e+00 0.000000e+00 0.000000e+00 7.548735e-01 2.451265e-01
 0.000000e+00 0.000000e+00 0.000000e+00 0.000000e+00 0.000000e+00
<ENDHMM>
~h "I"
<BEGINHMM>
<NUMSTATES> 5
<STATE> 2
<MEAN> 25
 -4.981129e-01 1.329738e+00 1.342805e+01 2.207969e+00 -8.892323e+00 -5.756083e+00 -3.052395e+00 -2.292253e+00 -7.289150e+00 -7.699754e-01 3.566645e+00 9.222757e-01 6.224317e-01 5.656722e-02 3.070050e+00 -4.237573e-01 -3.105638e+00 2.346106e-01 -1.289557e+00 -6.717396e-01 -1.933815e+00 2.517115e-02 1.273730e+00 -3.969918e-01 1.853769e+00
<VARIANCE> 25
 2.994671e+01 3.728339e+01 4.846852e+01 3.791562e+01 5.083992e+01 4.391477e+01 5.175510e+01 5.291519e+01 4.596740e+01 3.672751e+01 3.185602e+01 2.660717e+01 5.737670e+00 3.270717e+00 4.721538e+00 4.782596e+00 4.426488e+00 4.801166e+00 6.414806e+00 6.274222e+00 5.527215e+00 5.003242e+00 3.700906e+00 3.420642e+00 4.154565e+00
<GCONST> 1.103643e+02
<STATE> 3
<MEAN> 25
 -3.720495e-02 2.743742e+00 1.932018e+01 -7.362556e-01 -1.411483e+01 -1.899903e+00 -6.443519e+00 -4.870076e+00 -1.000305e+01 3.087509e-01 5.093096e+00 -9.650393e-01 8.383948e-02 1.064493e-01 -3.985063e-02 -1.259786e-01 -1.854400e-01 6.743368e-02 3.670073e-02 -5.010311e-02 7.165886e-02 1.552397e-01 3.047982e-02 -3.365639e-02 -8.333812e-02
<VARIANCE> 25
 1.109165e+01 2.713711e+01 2.920456e+01 3.942471e+01 2.387831e+01 4.309490e+01 3.556112e+01 4.513329e+01 3.909737e+01 5.126921e+01 3.546738e+01 3.135054e+01 6.057189e-01 1.299221e+00 1.652474e+00 1.501252e+00 1.799550e+00 2.117691e+00 2.021075e+00 2.450409e+00 1.944414e+00 1.729187e+00 1.503312e+00 1.294012e+00 1.007988e+00
<GCONST> 9.312970e+01
<STATE> 4
<MEAN> 25
 7.129075e-01 4.367546e+00 1.303402e+01 2.404478e+00 -9.152591e+00 -4.761982e+00 -1.591341e+00 -4.028283e+00 -6.368259e+00 7.932708e-02 2.650666e+00 2.810843e-01 1.540892e-01 2.991629e-01 -1.637633e+00 5.358839e-01 1.521386e+00 -2.119789e-01 6.851918e-01 3.565139e-01 9.676676e-01 -1.242901e-01 -6.806813e-01 1.852160e-01 -1.913633e+00
<VARIANCE> 25
 1.952308e+01 3.562278e+01 3.933309e+01 3.629309e+01 4.824909e+01 5.747399e+01 4.421360e+01 5.410504e+01 4.115200e+01 3.950407e+01 3.772562e+01 3.050922e+01 2.078854e+00 2.543969e+00 2.579639e+00 2.691812e+00 3.655574e+00 3.254175e+00 3.920342e+00 4.216095e+00 3.841846e+00 3.138971e+00 2.858245e+00 2.346451e+00 3.827033e+00
<GCONST> 1.045247e+02
<TRANSP> 5
 0.000000e+00 1.000000e+00 0.000000e+00 0.000000e+00 0.000000e+00
 0.000000e+00 6.245353e-01 3.754648e-01 0.000000e+00 0.000000e+00
 0.000000e+00 0.000000e+00 7.948686e-01 2.051314e-01 0.000000e+00
 0.000000e+00 0.000000e+00 0.000000e+00 7.734557e-01 2.265442e-01
 0.000000e+00 0.000000e+00 0.000000e+00 0.000000e+00 0.000000e+00
<ENDHMM>
~h "J"
<BEGINHMM>
<NUMSTATES> 5
<STATE> 2
<MEAN> 25
 4.590252e+00 8.512982e+00 9.663395e+00 5.464427e+00 -2.198537e+00 -4.369412e+00 -4.845094e-01 1.409386e+00 -1.554290e+00 -2.996543e+00 -2.554030e-01 1.086909e+00 -1.807319e-01 1.335029e+00 5.010848e-01 3.091325e-01 8.641967e-01 1.286953e-01 9.055052e-01 4.000003e-02 2.597556e-01 -1.033144e-01 -2.884688e-01 -9.618495e-02 -1.335588e+00
<VARIANCE> 25
 3.027874e+01 4.165730e+01 3.739522e+01 2.770707e+01 4.351192e+01 4.477897e+01 5.080944e+01 3.908630e+01 4.143726e+01 3.101634e+01 2.710870e+01 2.680803e+01 4.858666e+00 3.097398e+00 3.176747e+00 3.000837e+00 4.001667e+00 3.231962e+00 4.189682e+00 3.988459e+00 3.989297e+00 3.000485e+00 2.579578e+00 2.442562e+00 6.012874e+00
<GCONST> 1.054048e+02
<STATE> 3
<MEAN> 25
 -7.617571e+00 8.860838e+00 8.417572e+00 2.739555e+00 2.870014e+00 -3.192056e+00 1.456277e+00 -9.565326e-01 -2.350299e+00 -1.336464e+00 8.119664e-01 3.064785e+00 -1.504079e+00 -1.235199e+00 4.859839e-01 -4.430849e-01 -1.364328e+00 -9.499139e-01 -1.039571e+00 -3.965144e-01 -6.213700e-01 -9.920495e-02 9.689873e-01 1.002963e+00 3.422483e+00
<VARIANCE> 25
 6.394263e+01 3.815651e+01 4.771380e+01 3.289616e+01 4.923837e+01 4.580690e+01 3.661478e+01 2.998389e+01 3.072182e+01 2.181847e+01 2.217161e+01 2.060055e+01 1.355670e+01 3.704012e+00 4.706894e+00 4.298734e+00 9.603468e+00 4.484971e+00 4.129538e+00 4.117995e+00 3.830422e+00 2.680098e+00 2.490047e+00 2.184760e+00 3.315871e+00
<GCONST> 1.072006e+02
<STATE> 4
<MEAN> 25
 3.692713e-01 -3.050361e-01 1.096716e+01 9.075832e-01 -1.092061e+01 -8.813517e+00 -6.790282e+00 3.053554e+00 -1.912468e+00 -2.136324e+00 5.385192e+00 5.262579e+00 2.443733e+00 -2.825732e+00 -1.508307e+00 -1.138085e+00 -1.650474e+00 3.015255e-01 -1.441699e+00 2.258642e+00 1.673670e+00 6.246458e-01 -1.255408e-01 -1.169537e+00 1.417591e+00
<VARIANCE> 25
 1.355794e+01 2.746197e+01 2.839899e+01 3.946712e+01 2.601603e+01 2.198532e+01 3.204411e+01 5.552979e+01 4.570692e+01 2.974726e+01 2.492064e+01 2.085127e+01 2.746516e+00 2.771488e+00 4.519162e+00 2.922704e+00 7.592857e+00 3.374421e+00 6.062516e+00 6.980393e+00 5.070993e+00 3.120055e+00 4.757832e+00 2.978834e+00 1.133428e+00
<GCONST> 1.033269e+02
<TRANSP> 5
 0.000000e+00 1.000000e+00 0.000000e+00 0.000000e+00 0.000000e+00
 0.000000e+00 8.066108e-01 1.933892e-01 0.000000e+00 0.000000e+00
 0.000000e+00 0.000000e+00 7.747163e-01 2.252837e-01 0.000000e+00
 0.000000e+00 0.000000e+00 0.000000e+00 6.317790e-01 3.682210e-01
 0.000000e+00 0.000000e+00 0.000000e+00 0.000000e+00 0.000000e+00
<ENDHMM>
~h "K"
<BEGINHMM>
<NUMSTATES> 5
<STATE> 2
<MEAN> 25
 -7.689336e-01 3.481582e+00 -1.650611e+00 1.289886e+00 1.234877e+00 -2.744971e+00 1.203118e+00 -6.777007e-01 -4.003145e-01 1.498540e+00 -8.139974e-01 -1.083067e-01 -1.245103e+00 -4.082226e-01 -7.685240e-01 2.745245e-01 7.639799e-01 -2.852260e-01 1.061461e-01 2.742330e-01 1.400912e-01 2.595243e-02 -1.509697e-01 5.668728e-01 -9.009677e-01
<VARIANCE> 25
 3.161382e+01 3.118878e+01 3.894655e+01 3.603094e+01 4.466336e+01 4.628736e+01 4.431957e+01 4.582695e+01 4.226163e+01 3.561095e+01 3.292416e+01 3.054065e+01 2.395178e+00 4.592578e+00 3.969280e+00 3.391023e+00 4.815843e+00 4.219247e+00 4.135303e+00 4.042515e+00 3.745783e+00 3.397743e+00 3.028262e+00 2.617766e+00 9.685541e+00
<GCONST> 1.072776e+02
<STATE> 3
<MEAN> 25
 -5.533048e+00 -3.144977e+00 -7.038032e+00 7.468711e-01 5.755291e+00 -4.024367e+00 -8.141519e-01 1.422713e+00 -6.515503e-01 2.826516e+00 -1.581920e+00 2.510101e+00 -7.857961e-01 -2.124637e+00 -2.209103e+00 -1.037158e+00 1.399368e+00 -6.517760e-01 -1.196251e+00 9.089714e-01 1.943128e-02 1.030875e+00 -5.922585e-01 1.997443e-01 4.938550e+00
<VARIANCE> 25
 2.695430e+01 5.997433e+01 6.868494e+01 4.764056e+01 5.598156e+01 5.700502e+01 5.733742e+01 4.466681e+01 4.638062e+01 3.543217e+01 3.148065e+01 2.962411e+01 3.701419e+00 5.033376e+00 6.802248e+00 5.319407e+00 6.203830e+00 6.252007e+00 5.476886e+00 5.337845e+00 5.196505e+00 4.424602e+00 4.192519e+00 3.818143e+00 1.015295e+01
<GCONST> 1.133599e+02
<STATE> 4
<MEAN> 25
 -3.597672e+00 -3.010221e+00 -7.560189e+00 -2.395870e+00 4.859765e+00 -3.937216e+00 -1.792292e+00 2.873006e+00 1.289554e-01 4.065207e+00 -2.642207e+00 1.374638e-01 2.056770e+00 4.183776e-01 1.542433e+00 -9.455744e-01 -1.749864e+00 7.409553e-01 2.465892e-01 1.865496e-01 2.599884e-01 -5.065878e-01 3.799832e-01 -1.327292e+00 2.558710e+00
<VARIANCE> 25
 3.876016e+01 3.899474e+01 6.380078e+01 4.891439e+01 6.013678e+01 6.308918e+01 5.193238e+01 4.887752e+01 5.144006e+01 3.983580e+01 3.645473e+01 3.879340e+01 4.648026e+00 4.966697e+00 5.748417e+00 5.210660e+00 5.521874e+00 5.160601e+00 5.942545e+00 5.510102e+00 5.644207e+00 4.006720e+00 4.113527e+00 4.292992e+00 6.873815e+00
<GCONST> 1.135684e+02
<TRANSP> 5
 0.000000e+00 1.000000e+00 0.000000e+00 0.000000e+00 0.000000e+00
 0.000000e+00 6.687745e-01 3.312256e-01 0.000000e+00 0.000000e+00
 0.000000e+00 0.000000e+00 5.178145e-01 4.821855e-01 0.000000e+00
 0.000000e+00 0.000000e+00 0.000000e+00 5.444743e-01 4.555257e-01
 0.000000e+00 0.000000e+00 0.000000e+00 0.000000e+00 0.000000e+00
<ENDHMM>
~h "L"
<BEGINHMM>
<NUMSTATES> 5
<STATE> 2
<MEAN> 25
 6.542539e+00 -4.706082e+00 1.673348e-02 -5.922488e+00 -2.427363e+00 1.297998e+00 -7.924583e+00 -4.550401e+00 5.010701e+00 4.463791e+00 1.131571e+00 -2.452992e+00 6.056746e-01 2.153713e-01 5.943271e-01 -6.988823e-01 5.766859e-01 8.233248e-02 -1.435763e+00 -1.524421e+00 2.706361e-01 1.178066e+00 4.419817e-01 -1.537335e-01 -3.719510e-01
<VARIANCE> 25
 1.779347e+01 2.692925e+01 5.318674e+01 6.061682e+01 4.650515e+01 6.524197e+01 7.135275e+01 9.078575e+01 5.976154e+01 4.563770e+01 4.884295e+01 4.016995e+01 1.030338e+00 1.925620e+00 3.057075e+00 4.306947e+00 4.964975e+00 5.362597e+00 4.815373e+00 5.185112e+00 4.949009e+00 3.841232e+00 4.393229e+00 3.199414e+00 1.355679e+00
<GCONST> 1.081386e+02
<STATE> 3
<MEAN> 25
 7.989110e+00 -3.870883e+00 5.521831e-01 -8.699998e+00 -1.744663e+00 3.434866e+00 -9.373325e+00 -8.283435e+00 4.612627e+00 6.624485e+00 3.558855e+00 -2.452850e+00 -4.749728e-02 1.660361e-01 6.353153e-02 -2.214143e-01 2.483317e-01 1.735396e-02 -2.163638e-01 6.667218e-02 -8.600565e-02 -2.265246e-02 6.148398e-03 5.366923e-02 -1.240727e-01
<VARIANCE> 25
 1.214939e+01 2.432212e+01 4.891020e+01 6.685942e+01 4.452177e+01 5.135729e+01 8.161369e+01 7.363782e+01 5.677927e+01 4.374990e+01 4.388250e+01 3.988882e+01 4.071503e-01 9.706389e-01 1.778154e+00 2.354409e+00 1.757020e+00 2.586281e+00 2.646527e+00 3.384550e+00 2.828715e+00 2.183492e+00 2.357367e+00 1.901559e+00 6.893005e-01
<GCONST> 9.860809e+01
<STATE> 4
<MEAN> 25
 6.161633e+00 -2.567875e+00 -2.744892e-01 -7.158533e+00 5.523291e-01 2.080670e+00 -7.995654e+00 -4.810661e+00 3.843277e+00 4.779911e+00 6.301906e-01 -2.154814e+00 -6.421896e-01 -2.989225e-01 -4.823163e-01 8.177847e-01 -1.403534e-01 -1.696661e-01 1.187770e+00 1.522069e+00 -7.040688e-02 -1.018054e+00 -8.986021e-01 -4.506657e-02 -4.465788e-02
<VARIANCE> 25
 1.905490e+01 3.535583e+01 6.278979e+01 7.276927e+01 5.343916e+01 5.933483e+01 8.306646e+01 7.588303e+01 5.895903e+01 5.183213e+01 5.199423e+01 4.216639e+01 9.271714e-01 2.907275e+00 3.247943e+00 4.000120e+00 4.155277e+00 4.733683e+00 4.782230e+00 6.062042e+00 5.007894e+00 3.866048e+00 4.683347e+00 3.323933e+00 3.114152e+00
<GCONST> 1.101613e+02
<TRANSP> 5
 0.000000e+00 1.000000e+00 0.000000e+00 0.000000e+00 0.000000e+00
 0.000000e+00 4.952252e-01 5.047747e-01 0.000000e+00 0.000000e+00
 0.000000e+00 0.000000e+00 6.261234e-01 3.738766e-01 0.000000e+00
 0.000000e+00 0.000000e+00 0.000000e+00 5.048895e-01 4.951105e-01
 0.000000e+00 0.000000e+00 0.000000e+00 0.000000e+00 0.000000e+00
<ENDHMM>
~h "M"
<BEGINHMM>
<NUMSTATES> 5
<STATE> 2
<MEAN> 25
 8.024475e+00 -8.401496e-01 1.060459e+00 -3.207656e-01 -9.972771e-01 5.488192e+00 -8.343896e-01 -6.348742e+00 -5.518234e+00 -3.717492e-01 1.642433e+00 -2.638721e+00 5.691807e-01 1.130963e+00 1.847505e+00 2.149617e+00 7.308796e-03 5.867649e-01 5.172346e-01 -2.630109e+00 -2.826378e+00 -3.855300e-01 -4.713022e-01 3.474487e-01 -7.384518e-01
<VARIANCE> 25
 2.495762e+01 3.549792e+01 4.088595e+01 6.103136e+01 3.935747e+01 4.757957e+01 5.281104e+01 6.170214e+01 5.900914e+01 3.888270e+01 4.750031e+01 3.616735e+01 2.160410e+00 2.608929e+00 3.347736e+00 4.202092e+00 3.666177e+00 3.906895e+00 5.146376e+00 5.339713e+00 5.479826e+00 4.298911e+00 6.014784e+00 4.046184e+00 5.055220e+00
<GCONST> 1.096873e+02
<STATE> 3
<MEAN> 25
 8.512084e+00 8.023264e-01 5.629610e+00 3.956103e+00 -1.708043e+00 6.962945e+00 -7.369164e-01 -1.076388e+01 -1.072022e+01 -1.928148e+00 -6.120484e-01 -1.235012e+00 -2.417278e-02 1.387910e-01 2.653290e-01 1.821595e-01 3.193202e-02 1.985166e-01 1.572842e-01 -1.643303e-01 -3.440938e-01 -2.455988e-01 -2.815416e-01 1.313363e-01 -4.581178e-02
<VARIANCE> 25
 9.609336e+00 2.311551e+01 2.393063e+01 3.921460e+01 3.966276e+01 5.523198e+01 6.266480e+01 5.947391e+01 5.001583e+01 5.309895e+01 5.989230e+01 4.085096e+01 4.072910e-01 9.707727e-01 9.246103e-01 1.338758e+00 1.441458e+00 1.613622e+00 1.577767e+00 1.911421e+00 2.057706e+00 1.809161e+00 2.108829e+00 1.489040e+00 1.218075e+00
<GCONST> 9.368610e+01
<STATE> 4
<MEAN> 25
 7.695913e+00 9.368965e-01 4.050685e+00 1.477711e+00 -1.196918e+00 6.259259e+00 4.944307e-01 -8.536981e+00 -8.990890e+00 -2.602580e+00 -1.177459e+00 -1.151987e+00 -1.161811e-01 -4.494595e-01 -1.472171e+00 -1.691588e+00 -7.929303e-02 -4.891910e-01 -2.339726e-01 1.703246e+00 1.857811e+00 4.676280e-01 7.443891e-01 -2.777040e-01 7.979597e-01
<VARIANCE> 25
 1.507175e+01 2.722917e+01 3.501727e+01 4.726212e+01 4.390653e+01 5.060822e+01 5.234769e+01 5.606742e+01 5.785126e+01 4.213369e+01 5.513480e+01 3.646365e+01 9.475652e-01 2.311987e+00 3.524183e+00 4.457417e+00 3.235598e+00 3.239463e+00 3.685722e+00 4.323191e+00 4.964233e+00 3.276138e+00 4.342243e+00 3.140394e+00 3.348049e+00
<GCONST> 1.057376e+02
<TRANSP> 5
 0.000000e+00 1.000000e+00 0.000000e+00 0.000000e+00 0.000000e+00
 0.000000e+00 6.102492e-01 3.897508e-01 0.000000e+00 0.000000e+00
 0.000000e+00 0.000000e+00 7.573611e-01 2.426389e-01 0.000000e+00
 0.000000e+00 0.000000e+00 0.000000e+00 5.945053e-01 4.054947e-01
 0.000000e+00 0.000000e+00 0.000000e+00 0.000000e+00 0.000000e+00
<ENDHMM>
~h "N"
<BEGINHMM>
<NUMSTATES> 5
<STATE> 2
<MEAN> 25
 7.717674e+00 -3.758353e+00 2.948205e+00 1.903909e+00 -3.582321e+00 -1.969868e+00 -4.554796e+00 -8.532402e-01 1.810854e+00 7.635608e-01 -4.309154e+00 -3.031499e+00 5.910858e-01 2.259168e+00 1.866008e+00 2.234393e+00 -5.999793e-01 -5.529512e-01 1.255243e-01 -3.656306e+00 -1.070680e+00 9.843745e-01 -5.523528e-01 6.068028e-01 -2.180066e+00
<VARIANCE> 25
 9.883975e+00 3.685176e+01 3.989038e+01 4.099936e+01 3.831993e+01 4.362431e+01 4.543154e+01 1.015277e+02 5.593207e+01 4.073459e+01 3.882306e+01 3.610335e+01 7.034345e-01 1.876090e+00 3.289008e+00 2.800442e+00 3.741518e+00 5.015853e+00 5.279673e+00 5.874116e+00 5.203580e+00 4.744104e+00 4.779798e+00 3.293411e+00 9.580680e-01
<GCONST> 1.048632e+02
<STATE> 3
<MEAN> 25
 8.465219e+00 1.616081e+00 7.120565e+00 6.010198e+00 -5.418826e+00 -1.448185e+00 -3.344869e+00 -8.731887e+00 -1.441557e+00 2.467088e+00 -4.582407e+00 -7.362424e-01 3.189272e-02 6.338172e-01 2.146110e-01 3.023388e-01 8.180576e-02 1.429546e-01 2.301145e-01 -3.973221e-01 -4.412312e-01 9.761581e-02 -4.499977e-02 2.396514e-01 -6.801161e-01
<VARIANCE> 25
 8.707091e+00 1.961526e+01 2.646591e+01 3.023260e+01 3.256656e+01 4.592094e+01 5.316580e+01 6.091643e+01 5.339476e+01 4.547515e+01 5.019278e+01 4.385994e+01 3.299858e-01 9.534964e-01 1.046363e+00 1.039829e+00 1.502612e+00 1.622768e+00 1.898654e+00 2.502461e+00 2.176668e+00 1.840711e+00 1.887795e+00 1.559419e+00 6.602332e-01
<GCONST> 9.208733e+01
<STATE> 4
<MEAN> 25
 5.166440e+00 4.296412e+00 5.627834e+00 6.679965e+00 -4.934323e-01 -1.717549e+00 -8.050010e-01 -5.861772e+00 -2.529140e+00 9.680073e-01 -5.087826e+00 -2.007373e-01 -9.179760e-01 3.454050e-02 -6.014817e-01 -4.290513e-01 9.116553e-01 8.272928e-02 1.911642e-01 1.115273e+00 5.959900e-02 -5.566257e-01 4.077750e-01 -2.358627e-02 -1.005514e+00
<VARIANCE> 25
 2.669845e+01 3.334340e+01 3.038612e+01 3.509778e+01 4.731435e+01 3.789873e+01 5.211944e+01 6.690549e+01 4.952931e+01 4.689256e+01 4.839212e+01 3.662095e+01 1.555396e+00 3.065426e+00 2.587920e+00 2.901312e+00 3.543346e+00 3.415819e+00 4.115746e+00 5.213125e+00 3.918621e+00 3.337748e+00 3.317306e+00 2.773543e+00 4.155510e+00
<GCONST> 1.059416e+02
<TRANSP> 5
 0.000000e+00 1.000000e+00 0.000000e+00 0.000000e+00 0.000000e+00
 0.000000e+00 6.233280e-01 3.766721e-01 0.000000e+00 0.000000e+00
 0.000000e+00 0.000000e+00 7.639752e-01 2.360248e-01 0.000000e+00
 0.000000e+00 0.000000e+00 0.000000e+00 6.827155e-01 3.172844e-01
 0.000000e+00 0.000000e+00 0.000000e+00 0.000000e+00 0.000000e+00
<ENDHMM>
~h "O"
<BEGINHMM>
<NUMSTATES> 5
<STATE> 2
<MEAN> 25
 6.312176e+00 -4.690435e-02 -5.487293e+00 -9.460398e+00 -3.231894e+00 6.170762e+00 -4.501018e+00 -1.806247e+00 1.093751e+00 1.716620e+00 4.109727e+00 -4.739770e-01 1.863253e+00 -4.621659e-01 -6.673203e-01 -2.989665e+00 -1.416421e+00 2.489501e+00 -3.464805e-01 -1.802912e-01 5.726144e-01 1.873770e-02 1.300429e+00 -4.520948e-01 2.108922e+00
<VARIANCE> 25
 2.846492e+01 3.486114e+01 4.126451e+01 8.192492e+01 5.362869e+01 5.498290e+01 7.210869e+01 5.308442e+01 5.766607e+01 5.276534e+01 4.427589e+01 3.440120e+01 4.288211e+00 3.042616e+00 6.122574e+00 5.933585e+00 7.195107e+00 5.507970e+00 5.541369e+00 6.627916e+00 5.375729e+00 5.599887e+00 4.682091e+00 3.805542e+00 4.798327e+00
<GCONST> 1.138584e+02
<STATE> 3
<MEAN> 25
 8.737273e+00 -1.533652e+00 -6.583093e+00 -1.639320e+01 -5.511719e+00 1.262794e+01 -3.459479e+00 -2.049025e+00 1.884224e+00 -8.454815e-02 7.164051e+00 -3.962753e-01 1.157552e-01 -1.049205e-01 -1.885365e-01 -6.838436e-01 2.471271e-02 6.815039e-01 2.886075e-01 -1.559614e-02 -6.610905e-02 -2.114360e-01 2.782799e-01 1.031280e-01 1.689103e-01
<VARIANCE> 25
 1.019839e+01 2.814978e+01 2.612309e+01 4.985526e+01 3.970613e+01 3.712787e+01 5.658479e+01 4.608951e+01 4.296198e+01 5.488582e+01 4.021587e+01 3.678632e+01 3.860340e-01 1.216182e+00 9.913009e-01 2.199893e+00 1.719111e+00 1.917740e+00 2.236481e+00 2.140081e+00 2.541067e+00 2.580543e+00 1.831474e+00 1.745935e+00 8.363427e-01
<GCONST> 9.465233e+01
<STATE> 4
<MEAN> 25
 7.859114e+00 4.406120e-01 -6.514573e+00 -1.350052e+01 -2.778913e+00 8.975061e+00 -2.222179e+00 -2.030457e+00 3.937610e-01 1.420009e+00 4.601970e+00 -2.492931e-01 -2.895505e-01 1.930955e-01 3.735576e-01 1.668514e+00 5.048710e-01 -1.294637e+00 6.522688e-02 -6.124856e-02 5.892736e-02 3.329980e-01 -7.890137e-01 -1.994847e-01 -1.323371e+00
<VARIANCE> 25
 1.451696e+01 4.034685e+01 2.978710e+01 5.352389e+01 4.487286e+01 4.287941e+01 6.772089e+01 4.830012e+01 5.131358e+01 5.512916e+01 4.234308e+01 4.295352e+01 9.454321e-01 2.106871e+00 1.775267e+00 3.426349e+00 2.994423e+00 3.082472e+00 3.453553e+00 3.278167e+00 3.573816e+00 3.593444e+00 2.851798e+00 2.556395e+00 3.025969e+00
<GCONST> 1.035928e+02
<TRANSP> 5
 0.000000e+00 1.000000e+00 0.000000e+00 0.000000e+00 0.000000e+00
 0.000000e+00 5.750484e-01 4.249516e-01 0.000000e+00 0.000000e+00
 0.000000e+00 0.000000e+00 7.602355e-01 2.397645e-01 0.000000e+00
 0.000000e+00 0.000000e+00 0.000000e+00 7.870020e-01 2.129980e-01
 0.000000e+00 0.000000e+00 0.000000e+00 0.000000e+00 0.000000e+00
<ENDHMM>
~h "P"
<BEGINHMM>
<NUMSTATES> 5
<STATE> 2
<MEAN> 25
 1.133280e+00 5.386721e+00 -1.564024e+00 7.223361e-01 1.926237e+00 5.090113e-01 2.247065e+00 -2.421768e+00 -7.813630e-01 4.755718e-01 -4.859965e-01 -3.539550e-01 -1.279030e+00 6.313742e-02 -1.382807e-01 4.084520e-01 1.930500e-01 -6.374012e-01 2.373510e-01 3.115063e-01 2.280531e-01 -5.147313e-02 -5.196049e-02 4.263328e-01 -1.174179e+00
<VARIANCE> 25
 3.880606e+01 2.319401e+01 3.145722e+01 3.304709e+01 2.642740e+01 3.855066e+01 3.188374e+01 3.222239e+01 3.764088e+01 2.766153e+01 2.665010e+01 2.698470e+01 1.724588e+00 2.389352e+00 1.998009e+00 2.363964e+00 2.307803e+00 2.694967e+00 2.453303e+00 2.446936e+00 2.792969e+00 2.369756e+00 2.378895e+00 2.034587e+00 7.363925e+00
<GCONST> 9.913517e+01
<STATE> 3
<MEAN> 25
 -4.246401e+00 2.786551e+00 -1.173946e+00 2.342283e+00 2.599329e+00 -1.772506e+00 2.014380e+00 -9.134980e-01 -4.267494e-01 2.154610e-03 -3.007447e-01 1.817382e+00 3.641876e-01 -1.999811e+00 -6.539200e-01 -1.015485e+00 -3.385425e-01 5.155852e-02 -7.540048e-01 9.958670e-03 1.340108e-01 9.080966e-02 6.992320e-01 9.386772e-02 5.875834e+00
<VARIANCE> 25
 2.147092e+01 2.845404e+01 2.216533e+01 2.246259e+01 2.541142e+01 2.495653e+01 3.195685e+01 2.949030e+01 3.021725e+01 2.172446e+01 2.079871e+01 1.904792e+01 4.841276e+00 3.095288e+00 3.779088e+00 4.595991e+00 3.462670e+00 5.131921e+00 3.692246e+00 3.845692e+00 4.191502e+00 3.276309e+00 3.192812e+00 2.901853e+00 6.971169e+00
<GCONST> 1.022220e+02
<STATE> 4
<MEAN> 25
 6.113048e-01 -2.373864e+00 -4.728099e+00 -3.351704e+00 3.591298e-01 6.310181e-01 1.021765e-01 -1.953828e+00 1.647109e-01 6.679296e-01 1.981656e+00 3.587914e-01 2.979978e+00 -2.181614e+00 -8.946905e-01 -3.109257e+00 -1.234901e+00 2.161507e+00 -1.183824e+00 -9.737812e-02 4.208041e-01 2.808053e-01 8.978317e-01 -1.357655e+00 6.514111e+00
<VARIANCE> 25
 4.666251e+01 2.893191e+01 2.635631e+01 6.430708e+01 2.945487e+01 6.282473e+01 3.112114e+01 2.911346e+01 2.836860e+01 2.444152e+01 2.503074e+01 2.534821e+01 4.076663e+00 6.660573e+00 6.336497e+00 7.828031e+00 5.839597e+00 8.878790e+00 6.029531e+00 6.056676e+00 6.110353e+00 4.542925e+00 4.607929e+00 4.965843e+00 9.263486e+00
<GCONST> 1.113485e+02
<TRANSP> 5
 0.000000e+00 1.000000e+00 0.000000e+00 0.000000e+00 0.000000e+00
 0.000000e+00 7.521005e-01 2.478995e-01 0.000000e+00 0.000000e+00
 0.000000e+00 0.000000e+00 3.853753e-01 6.146247e-01 0.000000e+00
 0.000000e+00 0.000000e+00 0.000000e+00 3.987103e-01 6.012897e-01
 0.000000e+00 0.000000e+00 0.000000e+00 0.000000e+00 0.000000e+00
<ENDHMM>
~h "Q"
<BEGINHMM>
<NUMSTATES> 5
<STATE> 2
<MEAN> 25
 -4.139391e+00 -1.243351e-01 -4.369961e+00 1.103524e+00 4.203114e+00 -1.972409e+00 1.262002e-01 -1.596739e+00 1.741412e-01 2.687258e+00 3.671534e-02 7.492322e-01 -1.030436e-01 -4.952310e-01 -9.057627e-01 -3.881887e-01 6.778458e-01 2.974129e-01 2.414276e-01 2.007545e-01 1.173818e-02 2.466988e-01 -2.829659e-01 1.374314e-01 5.558885e-01
<VARIANCE> 25
 4.604117e+01 5.970052e+01 6.235873e+01 4.265735e+01 5.915898e+01 7.629421e+01 6.532902e+01 5.921146e+01 4.250243e+01 4.384718e+01 3.821442e+01 3.865997e+01 5.247438e+00 7.357670e+00 6.005159e+00 5.534278e+00 6.951019e+00 6.323257e+00 5.338325e+00 5.655207e+00 4.428506e+00 4.495712e+00 3.967271e+00 3.517149e+00 1.653572e+01
<GCONST> 1.160357e+02
<STATE> 3
<MEAN> 25
 -3.272429e+00 3.948338e-02 -5.210664e+00 -1.600084e+00 2.630639e+00 -9.765353e-01 1.467501e+00 -1.594985e+00 -7.429830e-01 3.925846e+00 -1.205319e+00 5.868912e-01 -2.979457e-02 5.727401e-01 6.030294e-02 1.007961e-01 -1.869022e-01 -1.838101e-02 4.321083e-01 4.199368e-01 -2.420749e-01 -2.954196e-01 -1.005447e-02 5.100859e-02 -1.193109e+00
<VARIANCE> 25
 3.504876e+01 3.733753e+01 6.480848e+01 6.053091e+01 5.311262e+01 5.784217e+01 5.060621e+01 4.949937e+01 5.066456e+01 2.996266e+01 2.997426e+01 3.380653e+01 1.802759e+00 2.681913e+00 3.120698e+00 2.796965e+00 3.181218e+00 2.570561e+00 2.154624e+00 3.098519e+00 2.883236e+00 2.512120e+00 2.329928e+00 2.424162e+00 6.150554e+00
<GCONST> 1.047709e+02
<STATE> 4
<MEAN> 25
 -3.332300e+00 1.813182e+00 -3.166425e+00 2.756915e+00 1.170905e+00 -3.086792e+00 2.933501e+00 -6.676097e-01 -1.524353e+00 -7.699090e-02 -2.369815e-01 1.422937e+00 -1.096831e-02 3.464759e-02 4.538160e-02 4.536228e-02 1.099408e-01 8.176029e-02 5.227684e-02 1.018372e-01 -8.862133e-03 -1.420506e-01 -9.640596e-02 -5.635074e-02 -6.856544e-02
<VARIANCE> 25
 1.451534e+01 2.376820e+01 2.538882e+01 2.353039e+01 2.002401e+01 2.594981e+01 2.826585e+01 2.555527e+01 2.385152e+01 2.487468e+01 2.281534e+01 1.763898e+01 6.373003e-01 1.080396e+00 1.251221e+00 1.160751e+00 1.389664e+00 1.557688e+00 1.592817e+00 1.851112e+00 1.836713e+00 1.875668e+00 1.721086e+00 1.580759e+00 9.478592e-01
<GCONST> 8.743974e+01
<TRANSP> 5
 0.000000e+00 1.000000e+00 0.000000e+00 0.000000e+00 0.000000e+00
 0.000000e+00 7.913871e-01 2.086129e-01 0.000000e+00 0.000000e+00
 0.000000e+00 0.000000e+00 6.619937e-01 3.380063e-01 0.000000e+00
 0.000000e+00 0.000000e+00 0.000000e+00 8.516594e-01 1.483406e-01
 0.000000e+00 0.000000e+00 0.000000e+00 0.000000e+00 0.000000e+00
<ENDHMM>
~h "R"
<BEGINHMM>
<NUMSTATES> 5
<STATE> 2
<MEAN> 25
 6.203187e+00 -6.114643e+00 -4.778396e+00 -4.838228e-01 -3.608836e+00 -8.276225e-01 -5.126405e+00 3.177433e-01 7.208910e+00 2.496007e+00 -7.225046e-02 -3.020765e+00 4.962069e-01 -5.382669e-02 7.490142e-02 1.728201e+00 -4.231966e-01 -2.839535e-01 -8.069442e-01 -4.324072e-01 6.724635e-01 -1.787654e-01 2.519841e-01 1.561468e-01 -9.086008e-01
<VARIANCE> 25
 1.810840e+01 2.545188e+01 4.087119e+01 3.933929e+01 4.564704e+01 4.827987e+01 5.333687e+01 7.389292e+01 5.261359e+01 4.218088e+01 4.123776e+01 3.751108e+01 2.188632e+00 2.314743e+00 3.378660e+00 5.463310e+00 5.156873e+00 5.218822e+00 5.086679e+00 5.365926e+00 5.413355e+00 5.117880e+00 4.687101e+00 3.556446e+00 3.375389e+00
<GCONST> 1.089780e+02
<STATE> 3
<MEAN> 25
 7.109203e+00 -5.552961e+00 -3.649040e+00 2.964341e+00 -3.999206e+00 -1.628007e+00 -7.040891e+00 -1.604525e-01 7.053874e+00 2.533505e+00 1.040414e+00 -2.835440e+00 -6.497024e-02 3.502425e-01 6.350821e-01 6.581953e-01 4.427536e-01 -4.696701e-01 -1.858299e-01 -1.070908e-02 -7.983786e-01 -1.080819e-01 1.337361e-01 5.269486e-01 -1.073928e+00
<VARIANCE> 25
 1.562216e+01 2.239687e+01 4.170962e+01 3.448396e+01 5.212424e+01 4.782481e+01 5.157637e+01 6.807037e+01 5.281404e+01 4.538027e+01 3.872740e+01 3.452165e+01 1.975832e+00 2.286295e+00 3.093936e+00 3.266078e+00 5.220594e+00 4.818245e+00 4.546874e+00 5.222879e+00 4.950338e+00 4.136056e+00 3.945591e+00 3.453703e+00 3.092877e+00
<GCONST> 1.070144e+02
<STATE> 4
<MEAN> 25
 4.094011e+00 -3.480248e+00 -2.191072e+00 3.205547e+00 2.171791e-03 -2.374563e+00 -4.156161e+00 4.682661e-01 3.788751e+00 1.258049e+00 1.417820e-01 -6.735976e-01 -2.874562e-01 3.086862e-01 4.443699e-01 -1.106825e-01 1.068525e-01 1.639724e-03 3.417872e-01 7.933129e-02 -8.090116e-01 -2.180425e-01 7.408644e-02 3.323603e-01 -6.104177e-01
<VARIANCE> 25
 3.524915e+01 2.839886e+01 5.076823e+01 3.471138e+01 5.442231e+01 5.419403e+01 5.758941e+01 5.734490e+01 4.777515e+01 4.302551e+01 4.130997e+01 3.209441e+01 2.259897e+00 2.568645e+00 2.858842e+00 2.297894e+00 3.812112e+00 3.434623e+00 3.520769e+00 3.660805e+00 3.857033e+00 2.945631e+00 2.917330e+00 2.570596e+00 3.114483e+00
<GCONST> 1.055906e+02
<TRANSP> 5
 0.000000e+00 1.000000e+00 0.000000e+00 0.000000e+00 0.000000e+00
 0.000000e+00 3.932803e-01 6.067197e-01 0.000000e+00 0.000000e+00
 0.000000e+00 0.000000e+00 3.642478e-01 6.357522e-01 0.000000e+00
 0.000000e+00 0.000000e+00 0.000000e+00 5.833472e-01 4.166528e-01
 0.000000e+00 0.000000e+00 0.000000e+00 0.000000e+00 0.000000e+00
<ENDHMM>
~h "S"
<BEGINHMM>
<NUMSTATES> 5
<STATE> 2
<MEAN> 25
 -7.190783e+00 6.239555e+00 4.913165e-01 1.991975e+00 5.368826e+00 -4.737899e+00 1.427294e+00 2.264828e+00 7.177138e-01 2.757406e-01 -1.138591e+00 2.105367e+00 -4.693240e+00 1.964245e+00 -7.276024e-01 5.411320e-01 1.736761e+00 -3.475806e-01 1.424598e+00 8.125573e-01 1.924026e-01 -2.831021e-01 5.242692e-01 7.788056e-01 -3.804357e-01
<VARIANCE> 25
 6.894888e+01 4.388481e+01 4.512997e+01 3.547696e+01 4.686863e+01 4.195023e+01 6.948956e+01 4.949390e+01 4.493517e+01 3.233393e+01 3.574138e+01 2.784924e+01 3.028475e+00 5.384720e+00 4.380784e+00 4.529012e+00 5.550652e+00 4.608257e+00 5.529031e+00 5.326519e+00 4.241375e+00 3.613652e+00 3.606565e+00 2.840010e+00 2.919760e+00
<GCONST> 1.097831e+02
<STATE> 3
<MEAN> 25
 -2.257545e+01 7.107221e+00 -4.411490e+00 1.358862e+00 7.205637e+00 -3.585393e+00 4.239500e+00 3.758476e+00 1.647826e+00 7.813667e-01 1.916774e+00 4.402126e+00 -6.957744e-01 -5.245849e-01 -4.157033e-01 -2.267682e-01 -1.690891e-01 5.334308e-02 5.566371e-02 5.949901e-02 1.155358e-01 9.559749e-02 1.785160e-01 1.916171e-01 -2.425486e-01
<VARIANCE> 25
 1.578688e+01 2.347449e+01 3.581977e+01 3.483775e+01 3.634949e+01 3.865097e+01 4.888833e+01 3.681370e+01 3.750030e+01 2.376372e+01 2.569384e+01 2.128884e+01 2.749668e+00 1.428489e+00 1.735277e+00 1.406095e+00 1.632528e+00 1.743195e+00 1.868423e+00 1.889002e+00 1.889087e+00 1.737014e+00 1.666001e+00 1.446082e+00 8.960186e-01
<GCONST> 9.335617e+01
<STATE> 4
<MEAN> 25
 -1.475958e+01 3.498981e+00 -3.362528e+00 4.387336e-01 4.814623e+00 -4.774799e+00 1.915426e+00 2.939183e+00 2.096186e+00 4.197979e-01 7.777686e-02 3.022197e+00 4.422971e+00 -5.633415e-01 1.032369e+00 -2.475001e-01 -1.145036e+00 9.644026e-02 -1.492610e+00 -9.796321e-01 -2.325503e-02 -6.310089e-02 -7.266904e-01 -1.126632e+00 1.468581e-01
<VARIANCE> 25
 6.807550e+01 3.065045e+01 4.120545e+01 3.263027e+01 3.716306e+01 4.054510e+01 5.866609e+01 4.091908e+01 3.775372e+01 2.705305e+01 2.909875e+01 2.615381e+01 6.823007e+00 3.974430e+00 4.667580e+00 4.049201e+00 3.750772e+00 4.460115e+00 5.379952e+00 4.867248e+00 4.540582e+00 2.932837e+00 3.009596e+00 2.781790e+00 6.169447e+00
<GCONST> 1.083140e+02
<TRANSP> 5
 0.000000e+00 1.000000e+00 0.000000e+00 0.000000e+00 0.000000e+00
 0.000000e+00 7.174498e-01 2.825501e-01 0.000000e+00 0.000000e+00
 0.000000e+00 0.000000e+00 8.503668e-01 1.496333e-01 0.000000e+00
 0.000000e+00 0.000000e+00 0.000000e+00 7.137077e-01 2.862923e-01
 0.000000e+00 0.000000e+00 0.000000e+00 0.000000e+00 0.000000e+00
<ENDHMM>
~h "T"
<BEGINHMM>
<NUMSTATES> 5
<STATE> 2
<MEAN> 25
 4.029812e-01 4.541041e+00 -1.434691e+00 1.279755e+00 1.724188e+00 -3.496774e+00 -5.415167e-01 -1.242394e+00 2.361124e+00 1.653860e+00 -1.826650e+00 -1.132632e+00 -9.775963e-01 2.342396e-01 -1.953962e-01 2.087512e-01 1.072903e-01 -4.542854e-02 7.055795e-01 8.175458e-02 -2.063548e-01 -2.330506e-01 8.928405e-02 4.326047e-01 -2.027292e+00
<VARIANCE> 25
 3.072271e+01 2.500534e+01 3.436307e+01 3.102429e+01 3.389545e+01 3.432217e+01 4.568125e+01 3.920744e+01 4.080435e+01 3.112310e+01 3.209644e+01 2.731731e+01 2.117256e+00 2.973671e+00 2.245893e+00 2.718105e+00 3.218297e+00 2.681914e+00 3.070246e+00 2.915473e+00 2.795640e+00 2.390518e+00 2.397107e+00 2.160934e+00 7.300275e+00
<GCONST> 1.015638e+02
<STATE> 3
<MEAN> 25
 -4.154404e+00 3.517755e+00 -1.010672e+00 2.175758e+00 2.037946e+00 -3.183492e+00 1.799937e+00 -9.646050e-01 2.754397e-01 2.333890e-01 -8.376983e-01 1.289624e+00 -1.763215e+00 -2.225329e+00 -6.185298e-01 -1.138566e+00 3.464267e-01 -4.543317e-01 -2.603304e-02 5.988441e-01 -3.439835e-02 -1.422749e-01 4.381291e-01 6.504108e-01 4.672393e+00
<VARIANCE> 25
 2.749293e+01 3.140272e+01 2.944429e+01 2.623060e+01 2.974197e+01 2.901611e+01 3.659639e+01 3.427280e+01 3.414544e+01 2.419809e+01 2.622487e+01 2.130895e+01 3.090798e+00 3.406924e+00 3.952403e+00 3.638501e+00 3.748851e+00 4.118183e+00 4.168358e+00 4.350135e+00 4.699738e+00 3.128803e+00 3.586837e+00 2.939717e+00 9.568583e+00
<GCONST> 1.042516e+02
<STATE> 4
<MEAN> 25
 -6.584079e+00 -2.938356e+00 -3.368564e+00 -2.276742e+00 1.945081e+00 -5.003787e+00 5.463706e-02 7.366623e-01 1.566986e+00 4.984482e-01 -4.822478e-01 1.530932e+00 1.696330e+00 -1.113273e+00 -5.054953e-02 -1.477982e+00 -7.060852e-01 3.230349e-01 -1.742214e+00 -1.396830e-03 6.993738e-01 2.809933e-01 -1.590930e-02 -1.043443e+00 6.013458e+00
<VARIANCE> 25
 3.161510e+01 2.581526e+01 2.779137e+01 3.070452e+01 3.252310e+01 3.698884e+01 4.180578e+01 3.371635e+01 3.766121e+01 2.725904e+01 2.852281e+01 2.744081e+01 4.994402e+00 4.887992e+00 6.229870e+00 5.615169e+00 5.052015e+00 5.975924e+00 6.410049e+00 6.319600e+00 7.476181e+00 3.738503e+00 4.577034e+00 4.069162e+00 1.204846e+01
<GCONST> 1.099438e+02
<TRANSP> 5
 0.000000e+00 1.000000e+00 0.000000e+00 0.000000e+00 0.000000e+00
 0.000000e+00 7.466235e-01 2.533765e-01 0.000000e+00 0.000000e+00
 0.000000e+00 0.000000e+00 3.972885e-01 6.027115e-01 0.000000e+00
 0.000000e+00 0.000000e+00 0.000000e+00 4.782480e-01 5.217520e-01
 0.000000e+00 0.000000e+00 0.000000e+00 0.000000e+00 0.000000e+00
<ENDHMM>
~h "U"
<BEGINHMM>
<NUMSTATES> 5
<STATE> 2
<MEAN> 25
 6.361228e+00 4.239799e+00 -1.409289e+00 -3.709060e+00 -3.787749e+00 3.126906e+00 -8.361843e+00 -5.235091e+00 -3.079879e+00 2.592879e-01 3.333560e+00 6.232737e-01 2.208436e+00 1.070931e+00 -2.294132e-01 -2.394072e+00 -1.971189e+00 2.459922e+00 -1.436334e+00 -1.126229e+00 -1.073576e+00 -1.329983e-01 1.502184e+00 2.624437e-02 1.254153e+00
<VARIANCE> 25
 2.431656e+01 3.495459e+01 3.226998e+01 7.010826e+01 4.889631e+01 4.850824e+01 7.698851e+01 6.826366e+01 5.003254e+01 4.605554e+01 3.831421e+01 3.131236e+01 4.285331e+00 3.230369e+00 4.699177e+00 5.266810e+00 5.839924e+00 4.638887e+00 6.659078e+00 7.680490e+00 5.633557e+00 5.536469e+00 4.173636e+00 3.706795e+00 3.864864e+00
<GCONST> 1.121886e+02
<STATE> 3
<MEAN> 25
 9.523869e+00 7.037458e+00 -2.189202e+00 -1.077442e+01 -7.992898e+00 9.739696e+00 -8.160494e+00 -5.067235e+00 -5.597718e+00 -2.460070e+00 5.572292e+00 1.377143e+00 1.601927e-01 6.004269e-02 -1.604391e-01 -6.104423e-01 -1.252434e-01 5.800764e-01 1.322855e-01 -6.139581e-02 -1.685486e-01 -2.974426e-02 2.680690e-01 1.635573e-01 3.937836e-02
<VARIANCE> 25
 1.052388e+01 3.377000e+01 2.418128e+01 5.440429e+01 3.938689e+01 3.756035e+01 5.633240e+01 7.335764e+01 5.263068e+01 5.224345e+01 4.390632e+01 3.926228e+01 4.804607e-01 2.193161e+00 1.176715e+00 3.103074e+00 2.453290e+00 2.345477e+00 3.144757e+00 3.998540e+00 3.193927e+00 3.488073e+00 2.871269e+00 2.321366e+00 1.360166e+00
<GCONST> 1.002439e+02
<STATE> 4
<MEAN> 25
 8.135517e+00 5.875453e+00 -2.015821e+00 -6.650705e+00 -3.944914e+00 5.735250e+00 -6.724262e+00 -5.958112e+00 -4.441116e+00 5.807242e-01 4.252097e+00 8.604178e-01 -5.713187e-01 -3.994231e-01 4.937938e-01 1.763970e+00 1.048865e+00 -1.505116e+00 6.251461e-01 1.118466e-01 8.423172e-01 4.980783e-01 -8.927205e-01 -4.423988e-01 -1.297809e+00
<VARIANCE> 25
 1.467564e+01 4.064576e+01 3.142494e+01 6.347040e+01 4.704649e+01 4.859531e+01 8.155145e+01 6.971006e+01 5.348261e+01 5.501088e+01 4.638009e+01 3.821428e+01 1.289647e+00 2.847752e+00 2.572476e+00 3.929230e+00 4.231533e+00 3.706107e+00 5.101541e+00 4.811741e+00 4.380480e+00 4.403655e+00 3.885804e+00 3.490676e+00 3.983460e+00
<GCONST> 1.082999e+02
<TRANSP> 5
 0.000000e+00 1.000000e+00 0.000000e+00 0.000000e+00 0.000000e+00
 0.000000e+00 5.456692e-01 4.543308e-01 0.000000e+00 0.000000e+00
 0.000000e+00 0.000000e+00 7.455315e-01 2.544685e-01 0.000000e+00
 0.000000e+00 0.000000e+00 0.000000e+00 7.096501e-01 2.903499e-01
 0.000000e+00 0.000000e+00 0.000000e+00 0.000000e+00 0.000000e+00
<ENDHMM>
~h "V"
<BEGINHMM>
<NUMSTATES> 5
<STATE> 2
<MEAN> 25
 -1.690440e+00 2.523989e+00 -2.351832e-01 3.204727e+00 3.024067e+00 1.415671e+00 1.818703e+00 3.643292e-01 -2.897548e-01 7.843596e-01 7.428381e-01 1.556112e+00 -3.800238e+00 7.525704e-02 -1.949515e-02 1.527204e+00 1.154250e+00 -7.937331e-01 5.551802e-01 6.626143e-01 8.733692e-01 4.141510e-02 -3.233033e-01 4.795803e-01 -1.235412e+00
<VARIANCE> 25
 4.572532e+01 2.002681e+01 3.847275e+01 4.763029e+01 3.358319e+01 4.531290e+01 3.389240e+01 3.866918e+01 3.279524e+01 2.414506e+01 2.555162e+01 2.198105e+01 2.585024e+00 4.131170e+00 3.926935e+00 4.932402e+00 5.491619e+00 5.347203e+00 4.510333e+00 5.072756e+00 3.907558e+00 3.504653e+00 3.591760e+00 2.661725e+00 2.405811e+00
<GCONST> 1.053857e+02
<STATE> 3
<MEAN> 25
 -1.375441e+01 -2.490045e+00 -2.910330e+00 4.177967e+00 2.336874e+00 -1.805153e+00 7.515376e-01 1.154154e+00 1.202100e+00 1.405266e+00 8.916878e-01 2.851644e+00 -6.400127e-01 -6.054912e-01 -2.918971e-01 -5.461077e-02 -1.069000e-01 -1.828594e-01 -1.300686e-01 -5.189605e-02 -6.382705e-04 3.550765e-02 6.142566e-03 3.705215e-02 -6.604442e-02
<VARIANCE> 25
 1.842087e+01 1.980405e+01 2.748674e+01 2.180075e+01 2.557697e+01 2.568662e+01 2.888107e+01 2.767408e+01 2.442134e+01 2.080952e+01 2.004456e+01 1.788374e+01 2.291190e+00 1.413739e+00 1.664651e+00 1.611597e+00 1.741972e+00 1.866111e+00 1.761627e+00 1.725203e+00 1.763218e+00 1.682404e+00 1.606360e+00 1.397089e+00 1.488674e+00
<GCONST> 9.027221e+01
<STATE> 4
<MEAN> 25
 -8.252529e+00 -3.175468e+00 -3.002666e+00 3.055602e+00 2.369218e+00 -1.662603e+00 5.903958e-01 1.369512e+00 1.145657e+00 1.276041e+00 4.599794e-01 1.439477e+00 4.899966e+00 4.140138e-01 6.810063e-01 -1.885764e+00 -1.494903e+00 3.614465e-01 -4.652482e-01 -2.830620e-02 -6.196935e-01 -5.236188e-01 3.167885e-01 -1.045560e+00 2.028277e+00
<VARIANCE> 25
 6.493435e+01 2.097848e+01 3.474514e+01 4.204727e+01 2.841698e+01 3.978523e+01 2.726866e+01 3.266266e+01 2.406271e+01 2.049023e+01 1.939035e+01 2.035671e+01 5.096790e+00 4.431416e+00 6.717428e+00 7.439981e+00 4.382902e+00 7.285038e+00 4.201901e+00 4.649269e+00 4.937413e+00 3.071933e+00 3.519863e+00 3.383323e+00 4.050430e+00
<GCONST> 1.065118e+02
<TRANSP> 5
 0.000000e+00 1.000000e+00 0.000000e+00 0.000000e+00 0.000000e+00
 0.000000e+00 6.858556e-01 3.141443e-01 0.000000e+00 0.000000e+00
 0.000000e+00 0.000000e+00 8.521008e-01 1.478992e-01 0.000000e+00
 0.000000e+00 0.000000e+00 0.000000e+00 5.997649e-01 4.002351e-01
 0.000000e+00 0.000000e+00 0.000000e+00 0.000000e+00 0.000000e+00
<ENDHMM>
~h "W"
<BEGINHMM>
<NUMSTATES> 5
<STATE> 2
<MEAN> 25
 8.192984e+00 1.650823e+00 -3.344676e+00 -9.026842e+00 -2.804246e+00 6.732769e+00 -3.178140e+00 -1.766761e+00 -1.859532e+00 8.982690e-01 3.844010e+00 -4.331389e-01 1.513295e+00 1.326689e+00 1.430375e-01 -1.875816e+00 -1.403000e+00 1.158081e+00 -1.922457e-01 -2.258046e-01 -1.120492e+00 -7.349293e-01 7.584940e-01 8.634083e-01 1.342005e-01
<VARIANCE> 25
 2.766689e+01 6.148933e+01 3.510573e+01 8.247211e+01 4.225627e+01 6.029068e+01 6.441914e+01 4.671802e+01 5.137617e+01 4.729622e+01 4.415795e+01 3.858654e+01 2.297937e+00 2.415275e+00 2.513075e+00 3.883924e+00 4.050220e+00 4.316006e+00 3.954258e+00 4.161624e+00 3.534879e+00 3.489838e+00 3.415161e+00 3.552015e+00 4.435869e+00
<GCONST> 1.085976e+02
<STATE> 3
<MEAN> 25
 1.189334e+01 5.204279e+00 -2.043920e+00 -1.641913e+01 -8.958371e+00 1.014316e+01 -4.288088e+00 -3.527072e-01 -2.406422e+00 -3.061127e+00 4.321951e+00 2.103536e+00 -2.866188e-02 -4.865876e-01 -2.580460e-01 -5.337514e-01 -1.608738e-02 4.787551e-01 2.210374e-02 -1.788636e-01 2.046781e-01 1.944082e-01 4.058436e-01 1.394890e-01 5.322797e-01
<VARIANCE> 25
 9.726421e+00 3.496419e+01 2.061911e+01 4.803160e+01 3.465129e+01 3.899582e+01 3.921352e+01 4.371378e+01 4.651445e+01 3.600138e+01 3.725656e+01 2.917445e+01 4.089223e-01 2.598218e+00 1.373358e+00 2.362923e+00 2.158521e+00 2.615794e+00 2.125999e+00 2.080716e+00 2.100557e+00 2.622895e+00 2.624382e+00 1.910780e+00 1.943156e+00
<GCONST> 9.618295e+01
<STATE> 4
<MEAN> 25
 9.130423e+00 -3.988220e+00 -6.875633e+00 -1.599526e+01 -2.704934e+00 1.288004e+01 -2.625539e+00 -3.317595e+00 1.462749e+00 2.400666e+00 6.823603e+00 -2.778971e+00 -9.063556e-01 -1.915337e+00 -5.874330e-01 1.330826e+00 1.712878e+00 -6.216129e-01 -4.968056e-02 1.054556e-01 1.430244e+00 8.782675e-01 -1.014198e+00 -2.179610e+00 1.221439e+00
<VARIANCE> 25
 1.120362e+01 3.272632e+01 2.583089e+01 4.637474e+01 3.301801e+01 4.211895e+01 5.281682e+01 3.569558e+01 4.879128e+01 4.201204e+01 4.609784e+01 4.572048e+01 3.353396e-01 1.278370e+00 1.417304e+00 2.253071e+00 2.170354e+00 3.343331e+00 2.445461e+00 2.749363e+00 2.541423e+00 2.622715e+00 3.028047e+00 2.503639e+00 6.957294e-01
<GCONST> 9.675918e+01
<TRANSP> 5
 0.000000e+00 1.000000e+00 0.000000e+00 0.000000e+00 0.000000e+00
 0.000000e+00 6.948574e-01 3.051426e-01 0.000000e+00 0.000000e+00
 0.000000e+00 0.000000e+00 7.882282e-01 2.117718e-01 0.000000e+00
 0.000000e+00 0.000000e+00 0.000000e+00 7.007348e-01 2.992652e-01
 0.000000e+00 0.000000e+00 0.000000e+00 0.000000e+00 0.000000e+00
<ENDHMM>
~h "X"
<BEGINHMM>
<NUMSTATES> 5
<STATE> 2
<MEAN> 25
 -1.613166e+01 -3.063260e+00 -3.714543e+00 7.133529e+00 2.420343e+00 -8.379927e+00 3.085669e+00 3.393408e+00 3.894002e+00 -7.549887e-02 4.178745e+00 4.976409e+00 -2.259735e+00 6.329653e-01 -6.166166e-01 4.756085e-01 1.317372e+00 1.466064e-01 2.283744e-01 3.262932e-01 7.176303e-01 -3.194473e-01 1.411081e-01 5.524458e-01 9.108575e-01
<VARIANCE> 25
 6.994654e+01 1.933261e+01 5.824496e+01 2.411555e+01 2.925782e+01 2.441507e+01 4.788692e+01 3.620366e+01 2.988222e+01 2.641958e+01 2.189096e+01 3.277986e+01 9.344769e+00 3.950219e+00 5.124979e+00 2.177083e+00 3.507669e+00 2.909679e+00 5.255384e+00 6.570220e+00 4.218301e+00 3.784402e+00 3.549559e+00 3.288361e+00 8.530149e+00
<GCONST> 1.069372e+02
<STATE> 3
<MEAN> 25
 -2.146395e+01 5.506333e+00 -5.500514e+00 4.265762e+00 5.811233e+00 -5.689627e+00 4.325759e+00 3.805938e+00 3.353886e+00 -2.837816e-01 3.199683e+00 3.662849e+00 6.351769e-01 4.957634e-01 2.852870e-01 -5.135247e-01 1.463456e-01 8.717227e-02 -8.250414e-02 -3.223177e-01 -4.818967e-01 -1.543897e-01 -2.179940e-01 2.200766e-03 -1.256666e+00
<VARIANCE> 25
 2.936276e+01 1.735919e+01 5.868592e+01 1.881781e+01 1.501330e+01 2.649339e+01 3.555095e+01 3.036213e+01 3.041052e+01 1.849097e+01 1.569883e+01 2.119663e+01 1.279258e+00 1.490000e+00 2.256203e+00 1.737994e+00 1.782609e+00 2.313816e+00 1.695950e+00 1.751871e+00 3.228282e+00 1.315232e+00 1.570545e+00 1.284995e+00 2.022254e+00
<GCONST> 9.166699e+01
<STATE> 4
<MEAN> 25
 -8.886221e+00 3.210163e-02 -3.366963e+00 3.569113e+00 5.080433e+00 -2.486552e+00 2.967657e+00 1.651975e-01 -4.351844e-01 -1.894604e+00 3.060250e+00 1.628622e+00 4.103396e-01 -2.801436e-02 3.466036e-01 1.824413e-01 -7.121959e-02 4.882981e-01 -7.353299e-02 9.635219e-02 -5.164526e-02 2.162495e-02 -8.596972e-03 -1.180220e-01 -6.185805e-01
<VARIANCE> 25
 3.234372e+01 4.294379e+01 2.112067e+01 1.190223e+01 2.241920e+01 1.485648e+01 2.316128e+01 4.323687e+01 1.220414e+01 1.455867e+01 1.661531e+01 1.912069e+01 1.116642e+00 1.099446e+00 1.099358e+00 8.349570e-01 1.274320e+00 2.037374e+00 1.114950e+00 1.408251e+00 1.224129e+00 1.181611e+00 1.171405e+00 1.591083e+00 1.235487e+00
<GCONST> 8.509671e+01
<TRANSP> 5
 0.000000e+00 1.000000e+00 0.000000e+00 0.000000e+00 0.000000e+00
 0.000000e+00 8.612645e-01 1.387355e-01 0.000000e+00 0.000000e+00
 0.000000e+00 0.000000e+00 8.796895e-01 1.203105e-01 0.000000e+00
 0.000000e+00 0.000000e+00 0.000000e+00 8.519171e-01 1.480829e-01
 0.000000e+00 0.000000e+00 0.000000e+00 0.000000e+00 0.000000e+00
<ENDHMM>
~h "Y"
<BEGINHMM>
<NUMSTATES> 5
<STATE> 2
<MEAN> 25
 3.132909e-01 -1.346272e+00 9.162557e+00 -2.215083e+00 -7.714425e+00 -4.933795e+00 -2.297728e+00 4.064795e+00 -2.722079e+00 -4.748004e-01 2.461678e+00 9.600207e-01 -9.094468e-02 1.028684e+00 2.791600e+00 -1.602251e-03 -1.618801e+00 -4.629729e-01 -1.001925e+00 -7.665311e-01 -1.602155e+00 -3.951170e-02 1.395993e+00 6.176843e-01 5.511807e-01
<VARIANCE> 25
 2.999714e+01 5.940689e+01 6.281198e+01 4.020856e+01 6.044131e+01 5.168419e+01 5.348220e+01 7.004730e+01 5.295273e+01 4.104443e+01 3.849354e+01 2.723945e+01 2.265968e+00 2.444440e+00 3.365341e+00 2.788020e+00 4.001726e+00 3.715990e+00 4.119021e+00 4.606372e+00 3.601052e+00 3.999439e+00 3.068967e+00 2.700987e+00 4.583702e+00
<GCONST> 1.080792e+02
<STATE> 3
<MEAN> 25
 2.680247e-01 2.307158e+00 1.841468e+01 -1.746273e+00 -1.226901e+01 -4.019275e+00 -6.972921e+00 -1.149519e+00 -8.402381e+00 -8.312923e-01 6.014393e+00 2.056417e+00 1.360541e-01 -6.285838e-01 -5.085775e-01 -2.080190e-01 -5.302469e-01 -4.359705e-01 4.400139e-02 4.977413e-01 4.929219e-01 2.519919e-01 3.006080e-01 2.414257e-01 6.923257e-01
<VARIANCE> 25
 1.036921e+01 3.032936e+01 3.839167e+01 3.934167e+01 2.769383e+01 4.133625e+01 3.436362e+01 4.092945e+01 4.331964e+01 5.944662e+01 3.215646e+01 3.099094e+01 5.917936e-01 2.249787e+00 3.160047e+00 1.525546e+00 2.177646e+00 2.067604e+00 2.226792e+00 3.429684e+00 3.033384e+00 2.004540e+00 1.518945e+00 1.350962e+00 2.035401e+00
<GCONST> 9.669926e+01
<STATE> 4
<MEAN> 25
 2.418755e+00 -6.097832e+00 7.337418e+00 -5.020808e+00 -1.240838e+01 -7.608507e+00 -1.975340e+00 9.053525e+00 8.101220e-01 -4.603410e-01 3.764388e+00 1.383394e+00 4.514218e-01 -1.482409e+00 -2.816175e+00 -2.643849e-01 1.643428e+00 6.447156e-01 1.098109e+00 1.646082e+00 1.932035e+00 -7.837950e-01 -2.025133e+00 -1.157985e+00 6.567909e-01
<VARIANCE> 25
 8.296558e+00 1.961814e+01 3.922150e+01 3.013258e+01 2.681705e+01 2.821707e+01 4.680344e+01 4.779677e+01 4.438518e+01 3.793274e+01 3.938562e+01 2.582418e+01 3.449403e-01 1.140847e+00 1.984197e+00 1.276887e+00 2.475487e+00 1.977874e+00 2.698992e+00 3.484653e+00 2.621346e+00 3.308117e+00 2.421233e+00 1.766154e+00 5.585515e-01
<GCONST> 9.366684e+01
<TRANSP> 5
 0.000000e+00 1.000000e+00 0.000000e+00 0.000000e+00 0.000000e+00
 0.000000e+00 7.418060e-01 2.581940e-01 0.000000e+00 0.000000e+00
 0.000000e+00 0.000000e+00 7.886881e-01 2.113119e-01 0.000000e+00
 0.000000e+00 0.000000e+00 0.000000e+00 7.198579e-01 2.801421e-01
 0.000000e+00 0.000000e+00 0.000000e+00 0.000000e+00 0.000000e+00
<ENDHMM>
~h "Z"
<BEGINHMM>
<NUMSTATES> 5
<STATE> 2
<MEAN> 25
 -2.084811e+00 8.475659e+00 2.435493e+00 4.560942e+00 2.227657e+00 -7.965699e+00 -3.569503e+00 -3.943367e-01 9.668396e-01 -5.982654e-01 -2.322894e+00 2.899212e+00 -2.181680e+00 2.623396e+00 -4.282703e-01 1.064052e+00 1.580652e+00 -3.258608e-01 9.427820e-01 -3.963891e-02 1.984125e-01 -2.810082e-01 2.123465e-02 4.729342e-01 -5.116272e-01
<VARIANCE> 25
 3.611879e+01 4.279882e+01 3.876866e+01 3.543805e+01 4.409108e+01 3.716586e+01 6.298069e+01 3.867770e+01 4.205311e+01 3.347208e+01 2.942050e+01 2.789620e+01 3.014198e+00 3.354133e+00 3.171951e+00 3.502367e+00 3.505985e+00 3.782780e+00 4.467469e+00 5.236598e+00 3.667846e+00 3.010467e+00 3.025189e+00 2.538398e+00 2.851163e+00
<GCONST> 1.056219e+02
<STATE> 3
<MEAN> 25
 -1.299546e+01 1.488315e+01 1.615066e+00 6.941741e+00 7.420696e+00 -5.732340e+00 4.275823e-01 1.365069e+00 4.123709e-01 -3.413500e-01 -2.466309e-01 3.834244e+00 -1.011333e+00 -9.758345e-02 6.094968e-02 7.463024e-02 2.357882e-01 2.801709e-01 2.253206e-01 9.559289e-02 -1.073379e-01 5.672715e-03 2.667844e-01 1.382997e-01 1.730357e-01
<VARIANCE> 25
 4.733574e+01 2.786974e+01 3.438997e+01 3.880143e+01 3.524278e+01 3.939782e+01 4.915654e+01 3.236096e+01 3.026938e+01 2.379962e+01 2.657458e+01 2.100945e+01 2.065705e+00 1.597762e+00 1.386415e+00 1.206226e+00 1.736941e+00 1.794938e+00 1.873474e+00 1.729963e+00 1.661710e+00 1.430800e+00 1.393658e+00 1.262861e+00 1.358006e+00
<GCONST> 9.359931e+01
<STATE> 4
<MEAN> 25
 -1.116919e+01 8.448940e+00 2.483749e+00 3.975247e+00 3.492334e+00 -5.830321e+00 -1.136519e+00 7.397271e-01 1.293579e+00 -5.020628e-01 4.665878e-01 4.755328e+00 2.394500e+00 -1.787263e+00 5.881211e-01 -7.231849e-01 -2.057913e+00 -4.226910e-01 -1.295287e+00 -5.131865e-01 2.890175e-01 1.038653e-01 -2.668924e-03 -1.737718e-01 1.241863e+00
<VARIANCE> 25
 6.816504e+01 4.202745e+01 6.014153e+01 3.569711e+01 4.583743e+01 5.085484e+01 6.521700e+01 3.905561e+01 4.222839e+01 2.218481e+01 2.706431e+01 2.128200e+01 5.615498e+00 4.401880e+00 3.469149e+00 3.370159e+00 4.118196e+00 3.360206e+00 3.848564e+00 4.614918e+00 3.942062e+00 2.259588e+00 2.267311e+00 2.209088e+00 2.779573e+00
<GCONST> 1.063655e+02
<TRANSP> 5
 0.000000e+00 1.000000e+00 0.000000e+00 0.000000e+00 0.000000e+00
 0.000000e+00 7.334341e-01 2.665659e-01 0.000000e+00 0.000000e+00
 0.000000e+00 0.000000e+00 8.228223e-01 1.771777e-01 0.000000e+00
 0.000000e+00 0.000000e+00 0.000000e+00 7.687323e-01 2.312677e-01
 0.000000e+00 0.000000e+00 0.000000e+00 0.000000e+00 0.000000e+00
<ENDHMM>
~h "e"
<BEGINHMM>
<NUMSTATES> 5
<STATE> 2
<MEAN> 25
 4.660366e+00 -9.776843e-01 -1.053870e+00 -3.435420e+00 -1.782939e+00 -8.236558e-01 -5.903815e+00 -1.673140e+00 1.026169e+00 3.027302e+00 1.862773e+00 -1.189215e+00 2.204313e+00 -1.224037e+00 -1.886218e-01 -1.790840e+00 -1.355403e+00 6.424716e-01 -2.077637e+00 7.479498e-01 1.511618e+00 1.083072e+00 7.205759e-01 -1.400552e+00 2.692728e+00
<VARIANCE> 25
 2.702694e+01 2.571076e+01 3.710698e+01 5.099908e+01 4.064002e+01 6.886543e+01 5.364959e+01 5.005845e+01 5.312503e+01 3.605257e+01 4.105695e+01 2.715115e+01 6.272883e+00 3.511041e+00 6.617674e+00 5.617095e+00 6.369400e+00 6.131165e+00 6.852310e+00 8.901684e+00 7.804777e+00 5.150446e+00 5.534914e+00 4.209193e+00 4.743739e+00
<GCONST> 1.133253e+02
<STATE> 3
<MEAN> 25
 6.488094e+00 -3.923126e+00 -1.591982e+00 -5.489963e+00 -3.281625e+00 6.420515e-01 -8.679563e+00 3.018164e-01 3.605783e+00 4.470444e+00 2.687948e+00 -3.314637e+00 1.084298e+00 -9.681708e-01 -2.717466e-02 -6.290870e-01 -7.841522e-01 5.257073e-01 -1.035736e+00 6.722658e-01 1.106880e+00 5.845683e-01 1.729085e-01 -9.631757e-01 1.008333e+00
<VARIANCE> 25
 1.455500e+01 2.596068e+01 4.136136e+01 5.159722e+01 4.354479e+01 7.030083e+01 5.584187e+01 5.898896e+01 5.831388e+01 4.210658e+01 4.769716e+01 3.469996e+01 2.715376e+00 2.158002e+00 3.075983e+00 4.278194e+00 4.175790e+00 5.095470e+00 4.169705e+00 7.105299e+00 6.020119e+00 4.004723e+00 4.458075e+00 3.159134e+00 2.255370e+00
<GCONST> 1.083239e+02
<STATE> 4
<MEAN> 25
 6.177116e+00 -3.302657e+00 -8.805689e-01 -4.790252e+00 -3.668182e+00 -4.124688e-01 -9.189077e+00 1.085878e+00 4.250854e+00 4.923622e+00 2.181055e+00 -4.019743e+00 9.055017e-02 3.464076e-01 2.389068e-01 6.294419e-01 8.695833e-02 -1.088209e-01 4.273173e-01 -2.843765e-01 -1.375043e-01 -2.617123e-01 -2.707669e-01 1.296811e-01 -8.777043e-01
<VARIANCE> 25
 1.301704e+01 2.638940e+01 4.019093e+01 4.750056e+01 4.964013e+01 5.998666e+01 6.224526e+01 5.862061e+01 6.076801e+01 4.370241e+01 4.547485e+01 3.637947e+01 7.886789e-01 1.675677e+00 1.514271e+00 2.694553e+00 2.361330e+00 3.032588e+00 2.666925e+00 3.419338e+00 3.601706e+00 2.685410e+00 2.671830e+00 2.014108e+00 2.718288e+00
<GCONST> 1.016534e+02
<TRANSP> 5
 0.000000e+00 1.000000e+00 0.000000e+00 0.000000e+00 0.000000e+00
 0.000000e+00 1.739347e-01 8.260653e-01 0.000000e+00 0.000000e+00
 0.000000e+00 0.000000e+00 1.065241e-01 8.934760e-01 0.000000e+00
 0.000000e+00 0.000000e+00 0.000000e+00 6.500235e-01 3.499765e-01
 0.000000e+00 0.000000e+00 0.000000e+00 0.000000e+00 0.000000e+00
<ENDHMM>
~h "AI"
<BEGINHMM>
<NUMSTATES> 5
<STATE> 2
<MEAN> 25
 4.682719e+00 -1.235844e+01 -3.345534e+00 -5.812188e+00 -2.168257e+00 -1.283570e-01 -6.610191e-01 8.194291e+00 6.366492e+00 -2.817436e+00 -4.457630e+00 -4.800308e+00 -2.962403e-01 -3.270665e-01 1.054388e+00 2.332610e-01 -1.142453e+00 -1.200110e+00 8.856782e-01 1.493223e+00 -5.274670e-01 -7.269940e-01 6.223003e-02 7.068766e-01 2.498028e-01
<VARIANCE> 25
 9.368794e+00 1.690973e+01 4.289520e+01 2.722500e+01 4.848166e+01 5.330883e+01 4.953000e+01 5.041167e+01 4.452561e+01 3.734747e+01 3.843671e+01 2.903430e+01 4.452279e-01 1.496011e+00 1.765685e+00 1.542053e+00 2.710761e+00 2.891269e+00 2.296465e+00 2.896516e+00 2.335370e+00 2.337547e+00 2.987843e+00 2.075223e+00 5.796598e-01
<GCONST> 9.571468e+01
<STATE> 3
<MEAN> 25
 2.811179e+00 -7.674934e+00 7.814004e+00 -5.170678e+00 -1.298773e+01 -7.662148e+00 2.481632e-02 9.606951e+00 -1.226221e+00 7.941111e-01 3.615617e+00 2.195171e-01 -3.050809e-01 1.196175e+00 1.814235e+00 6.201763e-02 -1.159460e+00 -3.406722e-01 -4.632726e-01 -1.415953e+00 -1.475699e+00 9.463220e-01 1.334771e+00 4.780627e-01 -6.021013e-01
<VARIANCE> 25
 8.552794e+00 1.734576e+01 3.715409e+01 2.488994e+01 2.473276e+01 3.084782e+01 4.237491e+01 4.554062e+01 4.069090e+01 3.627590e+01 3.866828e+01 2.276702e+01 2.809485e-01 8.964517e-01 1.456550e+00 9.121469e-01 1.952911e+00 1.410732e+00 1.990718e+00 2.346052e+00 2.061420e+00 2.026678e+00 2.186535e+00 1.256862e+00 2.450611e-01
<GCONST> 8.855027e+01
<STATE> 4
<MEAN> 25
 1.527895e+00 5.595677e-01 1.276920e+01 -1.662275e+00 -1.194938e+01 -6.016155e+00 -1.571685e+00 2.992950e-01 -5.533612e+00 1.963059e+00 3.929577e+00 4.559989e-01 7.224021e-02 7.472770e-01 -5.366343e-01 7.558497e-01 1.040102e+00 2.497216e-01 1.076201e-01 -5.267975e-01 1.600459e-01 -2.321808e-01 -5.033718e-01 -1.140837e-01 -1.742320e+00
<VARIANCE> 25
 1.526364e+01 3.793930e+01 4.562330e+01 3.638944e+01 3.891256e+01 4.675079e+01 4.637259e+01 6.091485e+01 4.767353e+01 4.753510e+01 4.040431e+01 2.803861e+01 1.222935e+00 2.042824e+00 2.830745e+00 2.150797e+00 2.868760e+00 2.489895e+00 3.133706e+00 3.494956e+00 3.283139e+00 2.569557e+00 2.147134e+00 1.876229e+00 2.410557e+00
<GCONST> 1.014212e+02
<TRANSP> 5
 0.000000e+00 1.000000e+00 0.000000e+00 0.000000e+00 0.000000e+00
 0.000000e+00 7.859495e-01 2.140505e-01 0.000000e+00 0.000000e+00
 0.000000e+00 0.000000e+00 7.914124e-01 2.085876e-01 0.000000e+00
 0.000000e+00 0.000000e+00 0.000000e+00 8.499522e-01 1.500478e-01
 0.000000e+00 0.000000e+00 0.000000e+00 0.000000e+00 0.000000e+00
<ENDHMM>
~h "AU"
<BEGINHMM>
<NUMSTATES> 5
<STATE> 2
<MEAN> 25
 5.072847e+00 -7.258588e+00 -8.254315e+00 -1.061263e+01 8.789504e-01 7.667470e+00 -3.342564e+00 8.973326e-02 6.037545e+00 2.450309e+00 -6.304913e-01 -6.876805e+00 6.962290e-01 -5.071357e-01 -7.134046e-01 -1.432319e+00 2.976914e-01 1.913504e+00 -1.236686e-01 -4.448018e-01 2.347704e-01 3.403929e-02 7.064625e-01 -7.982598e-01 9.243371e-01
<VARIANCE> 25
 1.416311e+01 2.727739e+01 2.900865e+01 4.220161e+01 3.762757e+01 5.496086e+01 5.330291e+01 4.781094e+01 4.191495e+01 3.951660e+01 4.078690e+01 3.047115e+01 1.963239e+00 2.551073e+00 1.912684e+00 3.032197e+00 3.181571e+00 4.108055e+00 3.339115e+00 3.786119e+00 3.238662e+00 3.378776e+00 3.801139e+00 3.202981e+00 3.525423e+00
<GCONST> 1.036571e+02
<STATE> 3
<MEAN> 25
 7.635467e+00 -2.402220e+00 -8.086712e+00 -1.697606e+01 -2.501664e+00 1.364367e+01 -3.483027e+00 -2.982155e+00 3.325073e+00 8.305508e-01 5.884539e+00 -2.755972e+00 3.824934e-01 1.152917e+00 3.146708e-01 -6.683990e-01 -6.980672e-01 9.945502e-02 -1.887657e-01 2.160503e-02 -8.872404e-01 -3.638661e-01 5.077882e-01 1.166317e+00 -6.776042e-01
<VARIANCE> 25
 9.547997e+00 3.050878e+01 1.983497e+01 3.257867e+01 3.339674e+01 3.152194e+01 4.452270e+01 3.492048e+01 3.894766e+01 3.969902e+01 3.621224e+01 4.528873e+01 2.622846e-01 9.809741e-01 6.035291e-01 1.163986e+00 1.296596e+00 1.368871e+00 1.593588e+00 1.487490e+00 1.641988e+00 1.781914e+00 1.914087e+00 1.944185e+00 3.622278e-01
<GCONST> 8.824494e+01
<STATE> 4
<MEAN> 25
 9.413171e+00 6.329031e+00 -4.296990e+00 -1.378800e+01 -5.030762e+00 8.013105e+00 -4.839067e+00 -1.503047e+00 -2.693828e+00 -2.566559e-01 3.555846e+00 1.573003e+00 -3.048482e-01 3.040214e-01 5.055886e-01 1.937041e+00 4.652162e-01 -1.153947e+00 1.572378e-01 -1.748189e-01 -1.004558e-01 1.280362e-01 -5.727262e-01 -2.061589e-01 -1.579022e+00
<VARIANCE> 25
 1.526819e+01 3.795379e+01 2.748723e+01 6.891136e+01 4.792799e+01 4.748177e+01 6.717968e+01 6.047522e+01 4.703030e+01 5.697276e+01 4.099840e+01 3.986450e+01 1.282429e+00 2.651941e+00 1.804902e+00 4.056981e+00 3.685616e+00 3.434229e+00 3.740019e+00 3.709461e+00 3.285301e+00 3.484231e+00 3.143745e+00 2.760818e+00 2.147842e+00
<GCONST> 1.049340e+02
<TRANSP> 5
 0.000000e+00 1.000000e+00 0.000000e+00 0.000000e+00 0.000000e+00
 0.000000e+00 7.028444e-01 2.971556e-01 0.000000e+00 0.000000e+00
 0.000000e+00 0.000000e+00 8.542835e-01 1.457165e-01 0.000000e+00
 0.000000e+00 0.000000e+00 0.000000e+00 8.496454e-01 1.503546e-01
 0.000000e+00 0.000000e+00 0.000000e+00 0.000000e+00 0.000000e+00
<ENDHMM>
~h "NG"
<BEGINHMM>
<NUMSTATES> 5
<STATE> 2
<MEAN> 25
 8.049844e+00 -1.849281e+00 -1.465188e-01 -1.811690e+00 -3.293343e+00 3.041602e+00 1.446325e-01 -3.133027e+00 -2.129637e+00 2.283806e+00 -9.867986e-01 -4.564187e+00 4.717658e-01 1.038771e+00 1.693106e+00 1.009633e+00 -1.710081e+00 3.278327e-01 8.352011e-01 -1.997827e+00 -9.509735e-01 6.051376e-01 -7.268385e-01 1.310257e+00 -1.310328e+00
<VARIANCE> 25
 9.108370e+00 2.913007e+01 4.219504e+01 4.301671e+01 5.019641e+01 4.837821e+01 4.944258e+01 5.513071e+01 5.671109e+01 4.261708e+01 4.440623e+01 4.324704e+01 5.801883e-01 1.729919e+00 2.897780e+00 3.363431e+00 3.548905e+00 4.029536e+00 4.675492e+00 4.707223e+00 5.315601e+00 4.004927e+00 4.188847e+00 3.624249e+00 7.085966e-01
<GCONST> 1.035539e+02
<STATE> 3
<MEAN> 25
 8.508142e+00 4.083851e-01 4.704072e+00 -7.259924e-01 -7.902772e+00 4.965773e+00 -1.900424e-02 -6.498420e+00 -2.795951e+00 1.402955e+00 -1.731772e+00 -7.951419e-01 3.841259e-02 3.816546e-01 4.277914e-01 3.697661e-01 -1.767541e-01 -3.177083e-02 1.200241e-01 -3.437672e-01 -2.162432e-01 5.784178e-02 -1.364978e-01 2.538442e-01 -4.849533e-01
<VARIANCE> 25
 8.551909e+00 2.185720e+01 2.846252e+01 4.516473e+01 3.524012e+01 3.755079e+01 5.179834e+01 5.134259e+01 4.581767e+01 4.212571e+01 3.776328e+01 3.609250e+01 2.692705e-01 8.032783e-01 1.133711e+00 1.159954e+00 1.401914e+00 1.407798e+00 1.644236e+00 1.667174e+00 1.690235e+00 1.549595e+00 1.457580e+00 1.395240e+00 4.889460e-01
<GCONST> 8.958129e+01
<STATE> 4
<MEAN> 25
 6.683613e+00 3.200427e+00 3.774662e+00 1.919327e+00 -3.283056e+00 2.546161e+00 2.538705e+00 -5.818058e+00 -4.441610e+00 1.827782e+00 -3.480805e+00 -9.657503e-01 -8.133796e-01 3.697029e-01 -6.210608e-01 2.045880e-01 1.337770e+00 -6.389599e-01 1.090799e-01 7.766663e-01 6.281163e-02 -1.792746e-01 9.474177e-03 -3.020460e-01 -9.237477e-01
<VARIANCE> 25
 1.940574e+01 2.958969e+01 3.302942e+01 4.526318e+01 6.473641e+01 3.964759e+01 4.849785e+01 5.404317e+01 4.686292e+01 4.962103e+01 4.383446e+01 3.663890e+01 1.246870e+00 2.349473e+00 2.561437e+00 3.009206e+00 3.602022e+00 3.177746e+00 3.367046e+00 3.956251e+00 3.756368e+00 3.180270e+00 2.768972e+00 2.865921e+00 3.453479e+00
<GCONST> 1.043999e+02
<TRANSP> 5
 0.000000e+00 1.000000e+00 0.000000e+00 0.000000e+00 0.000000e+00
 0.000000e+00 5.741225e-01 4.258774e-01 0.000000e+00 0.000000e+00
 0.000000e+00 0.000000e+00 7.488489e-01 2.511511e-01 0.000000e+00
 0.000000e+00 0.000000e+00 0.000000e+00 6.564393e-01 3.435607e-01
 0.000000e+00 0.000000e+00 0.000000e+00 0.000000e+00 0.000000e+00
<ENDHMM>
~h "NY"
<BEGINHMM>
<NUMSTATES> 5
<STATE> 2
<MEAN> 25
 5.486318e+00 3.867177e+00 8.875275e+00 -4.236968e-01 -6.045822e+00 -2.563239e+00 -2.362545e+00 -1.622988e+00 -6.878490e+00 -9.974913e-01 2.591194e+00 1.197377e+00 -2.375255e-01 -2.686460e-01 6.016096e-01 -6.945847e-01 -6.103963e-01 2.168337e-01 2.119373e-01 4.370267e-01 -2.752549e-01 -1.735790e-01 3.616533e-01 6.740919e-02 5.647816e-01
<VARIANCE> 25
 1.912574e+01 2.910088e+01 3.659779e+01 6.152363e+01 3.569897e+01 3.927850e+01 4.497727e+01 6.493440e+01 4.807877e+01 4.388625e+01 3.879721e+01 3.919090e+01 2.378562e+00 4.880033e+00 3.547641e+00 5.761813e+00 3.977841e+00 3.966633e+00 4.482048e+00 9.419766e+00 4.975109e+00 3.586684e+00 3.367469e+00 2.824327e+00 3.520539e+00
<GCONST> 1.085582e+02
<STATE> 3
<MEAN> 25
 2.896864e+00 -7.068021e+00 7.273846e+00 -5.235596e+00 -8.998177e+00 -2.305940e+00 9.043648e-01 9.997053e+00 -2.178562e+00 -5.371636e+00 5.413474e-01 1.343970e-01 2.897995e-01 -1.760651e+00 -2.042152e+00 6.392252e-01 1.267647e+00 2.045167e-02 6.361915e-02 1.264531e+00 1.639430e+00 -1.127509e+00 -1.495119e+00 -3.974290e-01 6.192402e-01
<VARIANCE> 25
 8.326574e+00 2.173428e+01 3.334535e+01 3.005623e+01 3.459451e+01 2.805170e+01 3.392105e+01 3.889206e+01 4.392769e+01 3.560567e+01 3.346968e+01 2.850439e+01 2.862865e-01 1.256559e+00 1.127346e+00 1.169852e+00 2.250989e+00 1.901386e+00 2.007753e+00 3.038428e+00 1.901031e+00 2.207110e+00 1.662596e+00 1.836125e+00 5.243143e-01
<GCONST> 9.075470e+01
<STATE> 4
<MEAN> 25
 3.400259e+00 -7.533619e+00 -1.505441e-01 5.369516e-01 2.419429e+00 -2.180528e-01 1.078812e+00 8.438092e+00 1.463956e+00 -7.463427e+00 -4.775578e+00 -2.397953e-01 -9.149563e-03 6.830052e-02 -8.665397e-01 4.086226e-01 1.089438e+00 3.338931e-01 -1.778187e-01 -4.755851e-01 3.694175e-01 2.239805e-01 -3.228190e-01 -3.030515e-01 -9.589617e-01
<VARIANCE> 25
 1.099708e+01 2.911947e+01 2.986357e+01 4.254599e+01 7.355013e+01 3.459131e+01 4.414560e+01 4.186723e+01 4.258503e+01 3.303799e+01 3.180909e+01 2.819657e+01 5.255189e-01 1.174185e+00 1.517483e+00 1.713913e+00 2.282665e+00 1.530424e+00 1.810816e+00 1.703173e+00 1.957741e+00 1.622181e+00 1.703833e+00 1.661648e+00 1.027322e+00
<GCONST> 9.334828e+01
<TRANSP> 5
 0.000000e+00 1.000000e+00 0.000000e+00 0.000000e+00 0.000000e+00
 0.000000e+00 8.828232e-01 1.171768e-01 0.000000e+00 0.000000e+00
 0.000000e+00 0.000000e+00 7.373346e-01 2.626654e-01 0.000000e+00
 0.000000e+00 0.000000e+00 0.000000e+00 7.325225e-01 2.674775e-01
 0.000000e+00 0.000000e+00 0.000000e+00 0.000000e+00 0.000000e+00
<ENDHMM>
~h "OI"
<BEGINHMM>
<NUMSTATES> 5
<STATE> 2
<MEAN> 25
 7.601284e+00 3.389935e+00 -6.885694e+00 -1.556698e+01 -8.858206e+00 9.633633e+00 -9.368151e-02 -2.912028e+00 3.198179e-01 -4.065383e+00 2.562649e+00 2.542103e+00 2.062340e+00 -5.041783e-01 -7.805369e-01 -3.551557e+00 -1.494090e+00 2.132277e+00 -8.023540e-01 -6.021444e-01 1.111251e-01 8.781004e-01 1.181159e+00 1.259405e-01 2.177659e+00
<VARIANCE> 25
 2.069491e+01 2.308769e+01 2.471148e+01 5.231271e+01 4.878074e+01 3.615993e+01 4.399830e+01 3.725347e+01 3.391407e+01 2.900725e+01 3.948100e+01 4.129565e+01 6.169237e+00 3.285993e+00 3.205065e+00 1.040701e+01 5.236950e+00 5.048057e+00 6.107401e+00 3.576388e+00 2.687759e+00 4.449708e+00 4.294747e+00 3.516733e+00 1.568896e+00
<GCONST> 1.069676e+02
<STATE> 3
<MEAN> 25
 7.625271e+00 -3.449142e+00 -8.477194e+00 -1.463654e+01 -4.256236e+00 9.646581e+00 -3.418015e+00 -3.710585e+00 1.763958e+00 5.202453e+00 6.690990e+00 -3.548615e+00 -4.607564e-01 -1.392280e+00 5.917065e-01 2.021508e+00 7.631750e-01 -2.264743e+00 -1.333787e+00 8.447635e-01 8.662385e-01 1.837241e+00 -4.501851e-01 -1.668120e+00 5.869452e-01
<VARIANCE> 25
 1.026943e+01 3.199604e+01 3.208582e+01 4.611889e+01 2.695976e+01 4.360139e+01 6.933299e+01 4.192612e+01 4.004086e+01 5.244354e+01 5.380909e+01 5.379247e+01 2.496072e-01 9.521268e-01 1.876263e+00 2.862591e+00 2.038966e+00 5.611626e+00 2.740456e+00 4.832269e+00 2.747819e+00 3.416445e+00 3.940404e+00 3.517486e+00 4.254073e-01
<GCONST> 9.898437e+01
<STATE> 4
<MEAN> 25
 1.174866e+00 -2.020671e+00 9.804938e+00 -4.538651e-01 -1.060718e+01 -7.529884e+00 -4.188009e+00 9.182094e-01 -4.572523e+00 3.373770e+00 3.325341e+00 -6.452215e-01 -4.456358e-01 5.064453e-01 9.897418e-01 6.003131e-01 -3.225569e-01 -5.516290e-01 4.816910e-01 -8.099693e-02 -7.086199e-01 -6.778539e-01 3.390116e-03 6.220890e-01 -9.154004e-01
<VARIANCE> 25
 1.987512e+01 4.629736e+01 6.819896e+01 3.206321e+01 4.196453e+01 4.763295e+01 5.792573e+01 9.699830e+01 6.913262e+01 4.380135e+01 4.350952e+01 2.919784e+01 8.806971e-01 1.500289e+00 5.517341e+00 2.180236e+00 4.300735e+00 5.066956e+00 2.919890e+00 4.922165e+00 5.195558e+00 2.771371e+00 2.971028e+00 2.923539e+00 1.263249e+00
<GCONST> 1.054339e+02
<TRANSP> 5
 0.000000e+00 1.000000e+00 0.000000e+00 0.000000e+00 0.000000e+00
 0.000000e+00 6.743469e-01 3.256531e-01 0.000000e+00 0.000000e+00
 0.000000e+00 0.000000e+00 8.101849e-01 1.898151e-01 0.000000e+00
 0.000000e+00 0.000000e+00 0.000000e+00 9.210708e-01 7.892919e-02
 0.000000e+00 0.000000e+00 0.000000e+00 0.000000e+00 0.000000e+00
<ENDHMM>
~h "SY"
<BEGINHMM>
<NUMSTATES> 5
<STATE> 2
<MEAN> 25
 -9.442122e+00 4.544858e+00 4.693611e+00 1.455839e+00 2.692559e+00 -3.060878e+00 2.024566e+00 2.121900e+00 -7.002287e-01 -8.186153e-01 5.356651e-02 2.848779e+00 -4.029978e+00 6.641693e-01 -2.319372e-02 -3.940278e-01 1.021907e+00 4.729027e-01 8.031618e-01 4.088894e-01 3.062469e-01 7.699413e-02 6.944690e-01 3.463510e-01 4.324332e-01
<VARIANCE> 25
 7.799437e+01 3.818180e+01 5.142187e+01 3.314538e+01 5.055222e+01 4.487098e+01 4.859815e+01 5.125749e+01 4.018143e+01 3.091557e+01 3.246241e+01 2.472710e+01 4.240583e+00 5.094176e+00 4.465975e+00 3.771773e+00 4.792455e+00 4.538250e+00 4.961330e+00 4.422037e+00 3.960362e+00 3.485874e+00 3.347514e+00 2.698414e+00 3.557059e+00
<GCONST> 1.089063e+02
<STATE> 3
<MEAN> 25
 -2.412105e+01 2.933716e+00 2.697011e+00 -2.845412e+00 3.911607e+00 1.122553e+00 3.643912e+00 2.987568e+00 2.113987e+00 1.986504e+00 3.836434e+00 4.166321e+00 -3.364519e-01 -4.804717e-01 -9.280192e-02 -2.719440e-01 -4.043152e-01 1.136409e-01 9.981071e-02 -6.560325e-02 2.087457e-01 2.309559e-01 1.557134e-01 1.491607e-01 1.960200e-01
<VARIANCE> 25
 1.104446e+01 2.735333e+01 3.396228e+01 2.388910e+01 3.867781e+01 4.409725e+01 3.485590e+01 3.214304e+01 3.271513e+01 2.350749e+01 2.302843e+01 1.891980e+01 1.658849e+00 9.287084e-01 1.158241e+00 1.176188e+00 1.561622e+00 1.585811e+00 1.502265e+00 1.599164e+00 1.518383e+00 1.527251e+00 1.419354e+00 1.260288e+00 5.706445e-01
<GCONST> 8.892784e+01
<STATE> 4
<MEAN> 25
 -1.148450e+01 3.791973e-01 6.263519e+00 -1.626344e+00 -3.854622e+00 -3.910520e+00 7.595868e-01 1.491450e+00 3.566035e-01 -1.738892e-01 2.572002e+00 3.791540e+00 5.257288e+00 -8.380086e-01 8.480008e-01 2.681035e-01 -1.862820e+00 -1.417151e+00 -1.609820e+00 3.694707e-01 -2.782389e-01 -7.226712e-01 -5.358960e-01 -7.118835e-01 1.358470e+00
<VARIANCE> 25
 1.105302e+02 2.479358e+01 5.633180e+01 3.274661e+01 5.676278e+01 4.040781e+01 4.930777e+01 3.815900e+01 3.778786e+01 2.732465e+01 2.961006e+01 1.995143e+01 4.348822e+00 3.977016e+00 5.256356e+00 3.353506e+00 4.250849e+00 3.648792e+00 4.357352e+00 5.309446e+00 5.616979e+00 2.924073e+00 3.284731e+00 2.322152e+00 2.209366e+00
<GCONST> 1.072078e+02
<TRANSP> 5
 0.000000e+00 1.000000e+00 0.000000e+00 0.000000e+00 0.000000e+00
 0.000000e+00 7.825994e-01 2.174005e-01 0.000000e+00 0.000000e+00
 0.000000e+00 0.000000e+00 8.788160e-01 1.211840e-01 0.000000e+00
 0.000000e+00 0.000000e+00 0.000000e+00 7.612405e-01 2.387594e-01
 0.000000e+00 0.000000e+00 0.000000e+00 0.000000e+00 0.000000e+00
<ENDHMM>
~h "sp"
<BEGINHMM>
<NUMSTATES> 3
<STATE> 2
~s "silst"
<TRANSP> 3
 0.000000e+00 1.933237e-01 8.066764e-01
 0.000000e+00 9.518225e-01 4.817759e-02
 0.000000e+00 0.000000e+00 0.000000e+00
<ENDHMM>
~h "sil"
<BEGINHMM>
<NUMSTATES> 5
<STATE> 2
<MEAN> 25
 -5.906819e+00 3.766253e-01 -8.855780e-01 4.384367e+00 3.550926e+00 4.324917e-01 4.829139e+00 1.091634e+00 -8.970292e-02 -4.173050e-01 6.945639e-02 3.289018e+00 -1.246970e-01 -1.790589e-01 -5.754644e-02 6.943390e-02 -1.452024e-01 -1.922118e-01 -1.409912e-02 1.148527e-01 -7.265536e-02 -1.290412e-01 1.240107e-02 1.447906e-01 -2.841708e-02
<VARIANCE> 25
 2.326144e+01 2.962573e+01 3.840654e+01 4.990001e+01 4.311544e+01 4.972019e+01 3.907544e+01 5.966014e+01 3.783659e+01 3.804879e+01 3.512695e+01 3.206785e+01 1.692133e+00 2.912362e+00 2.709432e+00 3.697076e+00 3.345532e+00 3.571239e+00 2.998751e+00 4.633138e+00 3.070607e+00 3.282755e+00 2.716879e+00 2.626841e+00 3.077528e+00
<GCONST> 1.041752e+02
<STATE> 3
~s "silst"
<STATE> 4
<MEAN> 25
 -4.850755e+00 3.838567e+00 -1.635404e+00 3.793373e+00 4.120990e+00 3.548769e-01 4.589314e+00 6.581635e-01 3.343902e-02 -2.967373e-02 3.893133e-01 2.385460e+00 -1.392376e-02 2.251235e-02 3.720911e-04 -5.176921e-03 1.795911e-02 1.384352e-02 3.917881e-03 -3.445512e-03 3.377449e-03 1.704613e-02 1.141718e-02 -1.272508e-02 -2.117935e-02
<VARIANCE> 25
 6.481212e+00 9.174985e+00 1.433168e+01 1.257423e+01 1.586747e+01 1.908511e+01 1.964586e+01 2.238722e+01 1.992084e+01 1.705747e+01 1.799045e+01 1.480393e+01 1.401784e-01 3.068179e-01 4.747338e-01 6.594350e-01 8.721095e-01 1.069972e+00 1.219290e+00 1.351205e+00 1.400578e+00 1.394991e+00 1.327872e+00 1.208395e+00 7.608301e-02
<GCONST> 7.312811e+01
<TRANSP> 5
 0.000000e+00 1.000000e+00 0.000000e+00 0.000000e+00 0.000000e+00
 0.000000e+00 8.095075e-01 9.670766e-02 9.378494e-02 0.000000e+00
 0.000000e+00 0.000000e+00 9.239346e-01 7.606541e-02 0.000000e+00
 0.000000e+00 3.221191e-02 0.000000e+00 9.486733e-01 1.911476e-02
 0.000000e+00 0.000000e+00 0.000000e+00 0.000000e+00 0.000000e+00
<ENDHMM>
