~h "A"
<BEGINHMM>
<NUMSTATES> 5
<STATE> 2
<MEAN> 25
 -5.500240e-10 4.367719e-10 -2.159301e-09 -4.064597e-09 -1.272575e-08 3.558209e-09 6.943496e-09 -5.310472e-09 1.008330e-08 2.986367e-09 3.347434e-09 -2.397374e-09 4.237348e-04 2.566968e-03 -2.370497e-04 -1.752733e-03 1.521013e-04 1.364683e-03 -1.826758e-05 -2.956073e-03 -3.078121e-04 7.898221e-04 -1.167312e-03 -2.142503e-03 7.328536e-05
<VARIANCE> 25
 6.425375e+01 5.464735e+01 6.751440e+01 5.847112e+01 6.336512e+01 5.479220e+01 5.838044e+01 6.064297e+01 5.471418e+01 3.678755e+01 4.127589e+01 3.708737e+01 2.544317e+00 2.680323e+00 2.750474e+00 3.045642e+00 3.363681e+00 3.039879e+00 3.277550e+00 3.876794e+00 3.406813e+00 2.756114e+00 2.815221e+00 2.392728e+00 4.789593e+00
<GCONST> 1.082826e+02
<STATE> 3
<MEAN> 25
 -5.500240e-10 4.367719e-10 -2.159301e-09 -4.064597e-09 -1.272575e-08 3.558209e-09 6.943496e-09 -5.310472e-09 1.008330e-08 2.986367e-09 3.347434e-09 -2.397374e-09 4.237348e-04 2.566968e-03 -2.370497e-04 -1.752733e-03 1.521013e-04 1.364683e-03 -1.826758e-05 -2.956073e-03 -3.078121e-04 7.898221e-04 -1.167312e-03 -2.142503e-03 7.328536e-05
<VARIANCE> 25
 6.425375e+01 5.464735e+01 6.751440e+01 5.847112e+01 6.336512e+01 5.479220e+01 5.838044e+01 6.064297e+01 5.471418e+01 3.678755e+01 4.127589e+01 3.708737e+01 2.544317e+00 2.680323e+00 2.750474e+00 3.045642e+00 3.363681e+00 3.039879e+00 3.277550e+00 3.876794e+00 3.406813e+00 2.756114e+00 2.815221e+00 2.392728e+00 4.789593e+00
<GCONST> 1.082826e+02
<STATE> 4
<MEAN> 25
 -5.500240e-10 4.367719e-10 -2.159301e-09 -4.064597e-09 -1.272575e-08 3.558209e-09 6.943496e-09 -5.310472e-09 1.008330e-08 2.986367e-09 3.347434e-09 -2.397374e-09 4.237348e-04 2.566968e-03 -2.370497e-04 -1.752733e-03 1.521013e-04 1.364683e-03 -1.826758e-05 -2.956073e-03 -3.078121e-04 7.898221e-04 -1.167312e-03 -2.142503e-03 7.328536e-05
<VARIANCE> 25
 6.425375e+01 5.464735e+01 6.751440e+01 5.847112e+01 6.336512e+01 5.479220e+01 5.838044e+01 6.064297e+01 5.471418e+01 3.678755e+01 4.127589e+01 3.708737e+01 2.544317e+00 2.680323e+00 2.750474e+00 3.045642e+00 3.363681e+00 3.039879e+00 3.277550e+00 3.876794e+00 3.406813e+00 2.756114e+00 2.815221e+00 2.392728e+00 4.789593e+00
<GCONST> 1.082826e+02
<TRANSP> 5
 0.000000e+00 1.000000e+00 0.000000e+00 0.000000e+00 0.000000e+00
 0.000000e+00 6.000000e-01 4.000000e-01 0.000000e+00 0.000000e+00
 0.000000e+00 0.000000e+00 6.000000e-01 4.000000e-01 0.000000e+00
 0.000000e+00 0.000000e+00 0.000000e+00 7.000000e-01 3.000000e-01
 0.000000e+00 0.000000e+00 0.000000e+00 0.000000e+00 0.000000e+00
<ENDHMM>
~h "B"
<BEGINHMM>
<NUMSTATES> 5
<STATE> 2
<MEAN> 25
 -5.500240e-10 4.367719e-10 -2.159301e-09 -4.064597e-09 -1.272575e-08 3.558209e-09 6.943496e-09 -5.310472e-09 1.008330e-08 2.986367e-09 3.347434e-09 -2.397374e-09 4.237348e-04 2.566968e-03 -2.370497e-04 -1.752733e-03 1.521013e-04 1.364683e-03 -1.826758e-05 -2.956073e-03 -3.078121e-04 7.898221e-04 -1.167312e-03 -2.142503e-03 7.328536e-05
<VARIANCE> 25
 6.425375e+01 5.464735e+01 6.751440e+01 5.847112e+01 6.336512e+01 5.479220e+01 5.838044e+01 6.064297e+01 5.471418e+01 3.678755e+01 4.127589e+01 3.708737e+01 2.544317e+00 2.680323e+00 2.750474e+00 3.045642e+00 3.363681e+00 3.039879e+00 3.277550e+00 3.876794e+00 3.406813e+00 2.756114e+00 2.815221e+00 2.392728e+00 4.789593e+00
<GCONST> 1.082826e+02
<STATE> 3
<MEAN> 25
 -5.500240e-10 4.367719e-10 -2.159301e-09 -4.064597e-09 -1.272575e-08 3.558209e-09 6.943496e-09 -5.310472e-09 1.008330e-08 2.986367e-09 3.347434e-09 -2.397374e-09 4.237348e-04 2.566968e-03 -2.370497e-04 -1.752733e-03 1.521013e-04 1.364683e-03 -1.826758e-05 -2.956073e-03 -3.078121e-04 7.898221e-04 -1.167312e-03 -2.142503e-03 7.328536e-05
<VARIANCE> 25
 6.425375e+01 5.464735e+01 6.751440e+01 5.847112e+01 6.336512e+01 5.479220e+01 5.838044e+01 6.064297e+01 5.471418e+01 3.678755e+01 4.127589e+01 3.708737e+01 2.544317e+00 2.680323e+00 2.750474e+00 3.045642e+00 3.363681e+00 3.039879e+00 3.277550e+00 3.876794e+00 3.406813e+00 2.756114e+00 2.815221e+00 2.392728e+00 4.789593e+00
<GCONST> 1.082826e+02
<STATE> 4
<MEAN> 25
 -5.500240e-10 4.367719e-10 -2.159301e-09 -4.064597e-09 -1.272575e-08 3.558209e-09 6.943496e-09 -5.310472e-09 1.008330e-08 2.986367e-09 3.347434e-09 -2.397374e-09 4.237348e-04 2.566968e-03 -2.370497e-04 -1.752733e-03 1.521013e-04 1.364683e-03 -1.826758e-05 -2.956073e-03 -3.078121e-04 7.898221e-04 -1.167312e-03 -2.142503e-03 7.328536e-05
<VARIANCE> 25
 6.425375e+01 5.464735e+01 6.751440e+01 5.847112e+01 6.336512e+01 5.479220e+01 5.838044e+01 6.064297e+01 5.471418e+01 3.678755e+01 4.127589e+01 3.708737e+01 2.544317e+00 2.680323e+00 2.750474e+00 3.045642e+00 3.363681e+00 3.039879e+00 3.277550e+00 3.876794e+00 3.406813e+00 2.756114e+00 2.815221e+00 2.392728e+00 4.789593e+00
<GCONST> 1.082826e+02
<TRANSP> 5
 0.000000e+00 1.000000e+00 0.000000e+00 0.000000e+00 0.000000e+00
 0.000000e+00 6.000000e-01 4.000000e-01 0.000000e+00 0.000000e+00
 0.000000e+00 0.000000e+00 6.000000e-01 4.000000e-01 0.000000e+00
 0.000000e+00 0.000000e+00 0.000000e+00 7.000000e-01 3.000000e-01
 0.000000e+00 0.000000e+00 0.000000e+00 0.000000e+00 0.000000e+00
<ENDHMM>
~h "D"
<BEGINHMM>
<NUMSTATES> 5
<STATE> 2
<MEAN> 25
 -5.500240e-10 4.367719e-10 -2.159301e-09 -4.064597e-09 -1.272575e-08 3.558209e-09 6.943496e-09 -5.310472e-09 1.008330e-08 2.986367e-09 3.347434e-09 -2.397374e-09 4.237348e-04 2.566968e-03 -2.370497e-04 -1.752733e-03 1.521013e-04 1.364683e-03 -1.826758e-05 -2.956073e-03 -3.078121e-04 7.898221e-04 -1.167312e-03 -2.142503e-03 7.328536e-05
<VARIANCE> 25
 6.425375e+01 5.464735e+01 6.751440e+01 5.847112e+01 6.336512e+01 5.479220e+01 5.838044e+01 6.064297e+01 5.471418e+01 3.678755e+01 4.127589e+01 3.708737e+01 2.544317e+00 2.680323e+00 2.750474e+00 3.045642e+00 3.363681e+00 3.039879e+00 3.277550e+00 3.876794e+00 3.406813e+00 2.756114e+00 2.815221e+00 2.392728e+00 4.789593e+00
<GCONST> 1.082826e+02
<STATE> 3
<MEAN> 25
 -5.500240e-10 4.367719e-10 -2.159301e-09 -4.064597e-09 -1.272575e-08 3.558209e-09 6.943496e-09 -5.310472e-09 1.008330e-08 2.986367e-09 3.347434e-09 -2.397374e-09 4.237348e-04 2.566968e-03 -2.370497e-04 -1.752733e-03 1.521013e-04 1.364683e-03 -1.826758e-05 -2.956073e-03 -3.078121e-04 7.898221e-04 -1.167312e-03 -2.142503e-03 7.328536e-05
<VARIANCE> 25
 6.425375e+01 5.464735e+01 6.751440e+01 5.847112e+01 6.336512e+01 5.479220e+01 5.838044e+01 6.064297e+01 5.471418e+01 3.678755e+01 4.127589e+01 3.708737e+01 2.544317e+00 2.680323e+00 2.750474e+00 3.045642e+00 3.363681e+00 3.039879e+00 3.277550e+00 3.876794e+00 3.406813e+00 2.756114e+00 2.815221e+00 2.392728e+00 4.789593e+00
<GCONST> 1.082826e+02
<STATE> 4
<MEAN> 25
 -5.500240e-10 4.367719e-10 -2.159301e-09 -4.064597e-09 -1.272575e-08 3.558209e-09 6.943496e-09 -5.310472e-09 1.008330e-08 2.986367e-09 3.347434e-09 -2.397374e-09 4.237348e-04 2.566968e-03 -2.370497e-04 -1.752733e-03 1.521013e-04 1.364683e-03 -1.826758e-05 -2.956073e-03 -3.078121e-04 7.898221e-04 -1.167312e-03 -2.142503e-03 7.328536e-05
<VARIANCE> 25
 6.425375e+01 5.464735e+01 6.751440e+01 5.847112e+01 6.336512e+01 5.479220e+01 5.838044e+01 6.064297e+01 5.471418e+01 3.678755e+01 4.127589e+01 3.708737e+01 2.544317e+00 2.680323e+00 2.750474e+00 3.045642e+00 3.363681e+00 3.039879e+00 3.277550e+00 3.876794e+00 3.406813e+00 2.756114e+00 2.815221e+00 2.392728e+00 4.789593e+00
<GCONST> 1.082826e+02
<TRANSP> 5
 0.000000e+00 1.000000e+00 0.000000e+00 0.000000e+00 0.000000e+00
 0.000000e+00 6.000000e-01 4.000000e-01 0.000000e+00 0.000000e+00
 0.000000e+00 0.000000e+00 6.000000e-01 4.000000e-01 0.000000e+00
 0.000000e+00 0.000000e+00 0.000000e+00 7.000000e-01 3.000000e-01
 0.000000e+00 0.000000e+00 0.000000e+00 0.000000e+00 0.000000e+00
<ENDHMM>
~h "I"
<BEGINHMM>
<NUMSTATES> 5
<STATE> 2
<MEAN> 25
 -5.500240e-10 4.367719e-10 -2.159301e-09 -4.064597e-09 -1.272575e-08 3.558209e-09 6.943496e-09 -5.310472e-09 1.008330e-08 2.986367e-09 3.347434e-09 -2.397374e-09 4.237348e-04 2.566968e-03 -2.370497e-04 -1.752733e-03 1.521013e-04 1.364683e-03 -1.826758e-05 -2.956073e-03 -3.078121e-04 7.898221e-04 -1.167312e-03 -2.142503e-03 7.328536e-05
<VARIANCE> 25
 6.425375e+01 5.464735e+01 6.751440e+01 5.847112e+01 6.336512e+01 5.479220e+01 5.838044e+01 6.064297e+01 5.471418e+01 3.678755e+01 4.127589e+01 3.708737e+01 2.544317e+00 2.680323e+00 2.750474e+00 3.045642e+00 3.363681e+00 3.039879e+00 3.277550e+00 3.876794e+00 3.406813e+00 2.756114e+00 2.815221e+00 2.392728e+00 4.789593e+00
<GCONST> 1.082826e+02
<STATE> 3
<MEAN> 25
 -5.500240e-10 4.367719e-10 -2.159301e-09 -4.064597e-09 -1.272575e-08 3.558209e-09 6.943496e-09 -5.310472e-09 1.008330e-08 2.986367e-09 3.347434e-09 -2.397374e-09 4.237348e-04 2.566968e-03 -2.370497e-04 -1.752733e-03 1.521013e-04 1.364683e-03 -1.826758e-05 -2.956073e-03 -3.078121e-04 7.898221e-04 -1.167312e-03 -2.142503e-03 7.328536e-05
<VARIANCE> 25
 6.425375e+01 5.464735e+01 6.751440e+01 5.847112e+01 6.336512e+01 5.479220e+01 5.838044e+01 6.064297e+01 5.471418e+01 3.678755e+01 4.127589e+01 3.708737e+01 2.544317e+00 2.680323e+00 2.750474e+00 3.045642e+00 3.363681e+00 3.039879e+00 3.277550e+00 3.876794e+00 3.406813e+00 2.756114e+00 2.815221e+00 2.392728e+00 4.789593e+00
<GCONST> 1.082826e+02
<STATE> 4
<MEAN> 25
 -5.500240e-10 4.367719e-10 -2.159301e-09 -4.064597e-09 -1.272575e-08 3.558209e-09 6.943496e-09 -5.310472e-09 1.008330e-08 2.986367e-09 3.347434e-09 -2.397374e-09 4.237348e-04 2.566968e-03 -2.370497e-04 -1.752733e-03 1.521013e-04 1.364683e-03 -1.826758e-05 -2.956073e-03 -3.078121e-04 7.898221e-04 -1.167312e-03 -2.142503e-03 7.328536e-05
<VARIANCE> 25
 6.425375e+01 5.464735e+01 6.751440e+01 5.847112e+01 6.336512e+01 5.479220e+01 5.838044e+01 6.064297e+01 5.471418e+01 3.678755e+01 4.127589e+01 3.708737e+01 2.544317e+00 2.680323e+00 2.750474e+00 3.045642e+00 3.363681e+00 3.039879e+00 3.277550e+00 3.876794e+00 3.406813e+00 2.756114e+00 2.815221e+00 2.392728e+00 4.789593e+00
<GCONST> 1.082826e+02
<TRANSP> 5
 0.000000e+00 1.000000e+00 0.000000e+00 0.000000e+00 0.000000e+00
 0.000000e+00 6.000000e-01 4.000000e-01 0.000000e+00 0.000000e+00
 0.000000e+00 0.000000e+00 6.000000e-01 4.000000e-01 0.000000e+00
 0.000000e+00 0.000000e+00 0.000000e+00 7.000000e-01 3.000000e-01
 0.000000e+00 0.000000e+00 0.000000e+00 0.000000e+00 0.000000e+00
<ENDHMM>
~h "AI"
<BEGINHMM>
<NUMSTATES> 5
<STATE> 2
<MEAN> 25
 -5.500240e-10 4.367719e-10 -2.159301e-09 -4.064597e-09 -1.272575e-08 3.558209e-09 6.943496e-09 -5.310472e-09 1.008330e-08 2.986367e-09 3.347434e-09 -2.397374e-09 4.237348e-04 2.566968e-03 -2.370497e-04 -1.752733e-03 1.521013e-04 1.364683e-03 -1.826758e-05 -2.956073e-03 -3.078121e-04 7.898221e-04 -1.167312e-03 -2.142503e-03 7.328536e-05
<VARIANCE> 25
 6.425375e+01 5.464735e+01 6.751440e+01 5.847112e+01 6.336512e+01 5.479220e+01 5.838044e+01 6.064297e+01 5.471418e+01 3.678755e+01 4.127589e+01 3.708737e+01 2.544317e+00 2.680323e+00 2.750474e+00 3.045642e+00 3.363681e+00 3.039879e+00 3.277550e+00 3.876794e+00 3.406813e+00 2.756114e+00 2.815221e+00 2.392728e+00 4.789593e+00
<GCONST> 1.082826e+02
<STATE> 3
<MEAN> 25
 -5.500240e-10 4.367719e-10 -2.159301e-09 -4.064597e-09 -1.272575e-08 3.558209e-09 6.943496e-09 -5.310472e-09 1.008330e-08 2.986367e-09 3.347434e-09 -2.397374e-09 4.237348e-04 2.566968e-03 -2.370497e-04 -1.752733e-03 1.521013e-04 1.364683e-03 -1.826758e-05 -2.956073e-03 -3.078121e-04 7.898221e-04 -1.167312e-03 -2.142503e-03 7.328536e-05
<VARIANCE> 25
 6.425375e+01 5.464735e+01 6.751440e+01 5.847112e+01 6.336512e+01 5.479220e+01 5.838044e+01 6.064297e+01 5.471418e+01 3.678755e+01 4.127589e+01 3.708737e+01 2.544317e+00 2.680323e+00 2.750474e+00 3.045642e+00 3.363681e+00 3.039879e+00 3.277550e+00 3.876794e+00 3.406813e+00 2.756114e+00 2.815221e+00 2.392728e+00 4.789593e+00
<GCONST> 1.082826e+02
<STATE> 4
<MEAN> 25
 -5.500240e-10 4.367719e-10 -2.159301e-09 -4.064597e-09 -1.272575e-08 3.558209e-09 6.943496e-09 -5.310472e-09 1.008330e-08 2.986367e-09 3.347434e-09 -2.397374e-09 4.237348e-04 2.566968e-03 -2.370497e-04 -1.752733e-03 1.521013e-04 1.364683e-03 -1.826758e-05 -2.956073e-03 -3.078121e-04 7.898221e-04 -1.167312e-03 -2.142503e-03 7.328536e-05
<VARIANCE> 25
 6.425375e+01 5.464735e+01 6.751440e+01 5.847112e+01 6.336512e+01 5.479220e+01 5.838044e+01 6.064297e+01 5.471418e+01 3.678755e+01 4.127589e+01 3.708737e+01 2.544317e+00 2.680323e+00 2.750474e+00 3.045642e+00 3.363681e+00 3.039879e+00 3.277550e+00 3.876794e+00 3.406813e+00 2.756114e+00 2.815221e+00 2.392728e+00 4.789593e+00
<GCONST> 1.082826e+02
<TRANSP> 5
 0.000000e+00 1.000000e+00 0.000000e+00 0.000000e+00 0.000000e+00
 0.000000e+00 6.000000e-01 4.000000e-01 0.000000e+00 0.000000e+00
 0.000000e+00 0.000000e+00 6.000000e-01 4.000000e-01 0.000000e+00
 0.000000e+00 0.000000e+00 0.000000e+00 7.000000e-01 3.000000e-01
 0.000000e+00 0.000000e+00 0.000000e+00 0.000000e+00 0.000000e+00
<ENDHMM>
~h "K"
<BEGINHMM>
<NUMSTATES> 5
<STATE> 2
<MEAN> 25
 -5.500240e-10 4.367719e-10 -2.159301e-09 -4.064597e-09 -1.272575e-08 3.558209e-09 6.943496e-09 -5.310472e-09 1.008330e-08 2.986367e-09 3.347434e-09 -2.397374e-09 4.237348e-04 2.566968e-03 -2.370497e-04 -1.752733e-03 1.521013e-04 1.364683e-03 -1.826758e-05 -2.956073e-03 -3.078121e-04 7.898221e-04 -1.167312e-03 -2.142503e-03 7.328536e-05
<VARIANCE> 25
 6.425375e+01 5.464735e+01 6.751440e+01 5.847112e+01 6.336512e+01 5.479220e+01 5.838044e+01 6.064297e+01 5.471418e+01 3.678755e+01 4.127589e+01 3.708737e+01 2.544317e+00 2.680323e+00 2.750474e+00 3.045642e+00 3.363681e+00 3.039879e+00 3.277550e+00 3.876794e+00 3.406813e+00 2.756114e+00 2.815221e+00 2.392728e+00 4.789593e+00
<GCONST> 1.082826e+02
<STATE> 3
<MEAN> 25
 -5.500240e-10 4.367719e-10 -2.159301e-09 -4.064597e-09 -1.272575e-08 3.558209e-09 6.943496e-09 -5.310472e-09 1.008330e-08 2.986367e-09 3.347434e-09 -2.397374e-09 4.237348e-04 2.566968e-03 -2.370497e-04 -1.752733e-03 1.521013e-04 1.364683e-03 -1.826758e-05 -2.956073e-03 -3.078121e-04 7.898221e-04 -1.167312e-03 -2.142503e-03 7.328536e-05
<VARIANCE> 25
 6.425375e+01 5.464735e+01 6.751440e+01 5.847112e+01 6.336512e+01 5.479220e+01 5.838044e+01 6.064297e+01 5.471418e+01 3.678755e+01 4.127589e+01 3.708737e+01 2.544317e+00 2.680323e+00 2.750474e+00 3.045642e+00 3.363681e+00 3.039879e+00 3.277550e+00 3.876794e+00 3.406813e+00 2.756114e+00 2.815221e+00 2.392728e+00 4.789593e+00
<GCONST> 1.082826e+02
<STATE> 4
<MEAN> 25
 -5.500240e-10 4.367719e-10 -2.159301e-09 -4.064597e-09 -1.272575e-08 3.558209e-09 6.943496e-09 -5.310472e-09 1.008330e-08 2.986367e-09 3.347434e-09 -2.397374e-09 4.237348e-04 2.566968e-03 -2.370497e-04 -1.752733e-03 1.521013e-04 1.364683e-03 -1.826758e-05 -2.956073e-03 -3.078121e-04 7.898221e-04 -1.167312e-03 -2.142503e-03 7.328536e-05
<VARIANCE> 25
 6.425375e+01 5.464735e+01 6.751440e+01 5.847112e+01 6.336512e+01 5.479220e+01 5.838044e+01 6.064297e+01 5.471418e+01 3.678755e+01 4.127589e+01 3.708737e+01 2.544317e+00 2.680323e+00 2.750474e+00 3.045642e+00 3.363681e+00 3.039879e+00 3.277550e+00 3.876794e+00 3.406813e+00 2.756114e+00 2.815221e+00 2.392728e+00 4.789593e+00
<GCONST> 1.082826e+02
<TRANSP> 5
 0.000000e+00 1.000000e+00 0.000000e+00 0.000000e+00 0.000000e+00
 0.000000e+00 6.000000e-01 4.000000e-01 0.000000e+00 0.000000e+00
 0.000000e+00 0.000000e+00 6.000000e-01 4.000000e-01 0.000000e+00
 0.000000e+00 0.000000e+00 0.000000e+00 7.000000e-01 3.000000e-01
 0.000000e+00 0.000000e+00 0.000000e+00 0.000000e+00 0.000000e+00
<ENDHMM>
~h "N"
<BEGINHMM>
<NUMSTATES> 5
<STATE> 2
<MEAN> 25
 -5.500240e-10 4.367719e-10 -2.159301e-09 -4.064597e-09 -1.272575e-08 3.558209e-09 6.943496e-09 -5.310472e-09 1.008330e-08 2.986367e-09 3.347434e-09 -2.397374e-09 4.237348e-04 2.566968e-03 -2.370497e-04 -1.752733e-03 1.521013e-04 1.364683e-03 -1.826758e-05 -2.956073e-03 -3.078121e-04 7.898221e-04 -1.167312e-03 -2.142503e-03 7.328536e-05
<VARIANCE> 25
 6.425375e+01 5.464735e+01 6.751440e+01 5.847112e+01 6.336512e+01 5.479220e+01 5.838044e+01 6.064297e+01 5.471418e+01 3.678755e+01 4.127589e+01 3.708737e+01 2.544317e+00 2.680323e+00 2.750474e+00 3.045642e+00 3.363681e+00 3.039879e+00 3.277550e+00 3.876794e+00 3.406813e+00 2.756114e+00 2.815221e+00 2.392728e+00 4.789593e+00
<GCONST> 1.082826e+02
<STATE> 3
<MEAN> 25
 -5.500240e-10 4.367719e-10 -2.159301e-09 -4.064597e-09 -1.272575e-08 3.558209e-09 6.943496e-09 -5.310472e-09 1.008330e-08 2.986367e-09 3.347434e-09 -2.397374e-09 4.237348e-04 2.566968e-03 -2.370497e-04 -1.752733e-03 1.521013e-04 1.364683e-03 -1.826758e-05 -2.956073e-03 -3.078121e-04 7.898221e-04 -1.167312e-03 -2.142503e-03 7.328536e-05
<VARIANCE> 25
 6.425375e+01 5.464735e+01 6.751440e+01 5.847112e+01 6.336512e+01 5.479220e+01 5.838044e+01 6.064297e+01 5.471418e+01 3.678755e+01 4.127589e+01 3.708737e+01 2.544317e+00 2.680323e+00 2.750474e+00 3.045642e+00 3.363681e+00 3.039879e+00 3.277550e+00 3.876794e+00 3.406813e+00 2.756114e+00 2.815221e+00 2.392728e+00 4.789593e+00
<GCONST> 1.082826e+02
<STATE> 4
<MEAN> 25
 -5.500240e-10 4.367719e-10 -2.159301e-09 -4.064597e-09 -1.272575e-08 3.558209e-09 6.943496e-09 -5.310472e-09 1.008330e-08 2.986367e-09 3.347434e-09 -2.397374e-09 4.237348e-04 2.566968e-03 -2.370497e-04 -1.752733e-03 1.521013e-04 1.364683e-03 -1.826758e-05 -2.956073e-03 -3.078121e-04 7.898221e-04 -1.167312e-03 -2.142503e-03 7.328536e-05
<VARIANCE> 25
 6.425375e+01 5.464735e+01 6.751440e+01 5.847112e+01 6.336512e+01 5.479220e+01 5.838044e+01 6.064297e+01 5.471418e+01 3.678755e+01 4.127589e+01 3.708737e+01 2.544317e+00 2.680323e+00 2.750474e+00 3.045642e+00 3.363681e+00 3.039879e+00 3.277550e+00 3.876794e+00 3.406813e+00 2.756114e+00 2.815221e+00 2.392728e+00 4.789593e+00
<GCONST> 1.082826e+02
<TRANSP> 5
 0.000000e+00 1.000000e+00 0.000000e+00 0.000000e+00 0.000000e+00
 0.000000e+00 6.000000e-01 4.000000e-01 0.000000e+00 0.000000e+00
 0.000000e+00 0.000000e+00 6.000000e-01 4.000000e-01 0.000000e+00
 0.000000e+00 0.000000e+00 0.000000e+00 7.000000e-01 3.000000e-01
 0.000000e+00 0.000000e+00 0.000000e+00 0.000000e+00 0.000000e+00
<ENDHMM>
~h "NG"
<BEGINHMM>
<NUMSTATES> 5
<STATE> 2
<MEAN> 25
 -5.500240e-10 4.367719e-10 -2.159301e-09 -4.064597e-09 -1.272575e-08 3.558209e-09 6.943496e-09 -5.310472e-09 1.008330e-08 2.986367e-09 3.347434e-09 -2.397374e-09 4.237348e-04 2.566968e-03 -2.370497e-04 -1.752733e-03 1.521013e-04 1.364683e-03 -1.826758e-05 -2.956073e-03 -3.078121e-04 7.898221e-04 -1.167312e-03 -2.142503e-03 7.328536e-05
<VARIANCE> 25
 6.425375e+01 5.464735e+01 6.751440e+01 5.847112e+01 6.336512e+01 5.479220e+01 5.838044e+01 6.064297e+01 5.471418e+01 3.678755e+01 4.127589e+01 3.708737e+01 2.544317e+00 2.680323e+00 2.750474e+00 3.045642e+00 3.363681e+00 3.039879e+00 3.277550e+00 3.876794e+00 3.406813e+00 2.756114e+00 2.815221e+00 2.392728e+00 4.789593e+00
<GCONST> 1.082826e+02
<STATE> 3
<MEAN> 25
 -5.500240e-10 4.367719e-10 -2.159301e-09 -4.064597e-09 -1.272575e-08 3.558209e-09 6.943496e-09 -5.310472e-09 1.008330e-08 2.986367e-09 3.347434e-09 -2.397374e-09 4.237348e-04 2.566968e-03 -2.370497e-04 -1.752733e-03 1.521013e-04 1.364683e-03 -1.826758e-05 -2.956073e-03 -3.078121e-04 7.898221e-04 -1.167312e-03 -2.142503e-03 7.328536e-05
<VARIANCE> 25
 6.425375e+01 5.464735e+01 6.751440e+01 5.847112e+01 6.336512e+01 5.479220e+01 5.838044e+01 6.064297e+01 5.471418e+01 3.678755e+01 4.127589e+01 3.708737e+01 2.544317e+00 2.680323e+00 2.750474e+00 3.045642e+00 3.363681e+00 3.039879e+00 3.277550e+00 3.876794e+00 3.406813e+00 2.756114e+00 2.815221e+00 2.392728e+00 4.789593e+00
<GCONST> 1.082826e+02
<STATE> 4
<MEAN> 25
 -5.500240e-10 4.367719e-10 -2.159301e-09 -4.064597e-09 -1.272575e-08 3.558209e-09 6.943496e-09 -5.310472e-09 1.008330e-08 2.986367e-09 3.347434e-09 -2.397374e-09 4.237348e-04 2.566968e-03 -2.370497e-04 -1.752733e-03 1.521013e-04 1.364683e-03 -1.826758e-05 -2.956073e-03 -3.078121e-04 7.898221e-04 -1.167312e-03 -2.142503e-03 7.328536e-05
<VARIANCE> 25
 6.425375e+01 5.464735e+01 6.751440e+01 5.847112e+01 6.336512e+01 5.479220e+01 5.838044e+01 6.064297e+01 5.471418e+01 3.678755e+01 4.127589e+01 3.708737e+01 2.544317e+00 2.680323e+00 2.750474e+00 3.045642e+00 3.363681e+00 3.039879e+00 3.277550e+00 3.876794e+00 3.406813e+00 2.756114e+00 2.815221e+00 2.392728e+00 4.789593e+00
<GCONST> 1.082826e+02
<TRANSP> 5
 0.000000e+00 1.000000e+00 0.000000e+00 0.000000e+00 0.000000e+00
 0.000000e+00 6.000000e-01 4.000000e-01 0.000000e+00 0.000000e+00
 0.000000e+00 0.000000e+00 6.000000e-01 4.000000e-01 0.000000e+00
 0.000000e+00 0.000000e+00 0.000000e+00 7.000000e-01 3.000000e-01
 0.000000e+00 0.000000e+00 0.000000e+00 0.000000e+00 0.000000e+00
<ENDHMM>
~h "Y"
<BEGINHMM>
<NUMSTATES> 5
<STATE> 2
<MEAN> 25
 -5.500240e-10 4.367719e-10 -2.159301e-09 -4.064597e-09 -1.272575e-08 3.558209e-09 6.943496e-09 -5.310472e-09 1.008330e-08 2.986367e-09 3.347434e-09 -2.397374e-09 4.237348e-04 2.566968e-03 -2.370497e-04 -1.752733e-03 1.521013e-04 1.364683e-03 -1.826758e-05 -2.956073e-03 -3.078121e-04 7.898221e-04 -1.167312e-03 -2.142503e-03 7.328536e-05
<VARIANCE> 25
 6.425375e+01 5.464735e+01 6.751440e+01 5.847112e+01 6.336512e+01 5.479220e+01 5.838044e+01 6.064297e+01 5.471418e+01 3.678755e+01 4.127589e+01 3.708737e+01 2.544317e+00 2.680323e+00 2.750474e+00 3.045642e+00 3.363681e+00 3.039879e+00 3.277550e+00 3.876794e+00 3.406813e+00 2.756114e+00 2.815221e+00 2.392728e+00 4.789593e+00
<GCONST> 1.082826e+02
<STATE> 3
<MEAN> 25
 -5.500240e-10 4.367719e-10 -2.159301e-09 -4.064597e-09 -1.272575e-08 3.558209e-09 6.943496e-09 -5.310472e-09 1.008330e-08 2.986367e-09 3.347434e-09 -2.397374e-09 4.237348e-04 2.566968e-03 -2.370497e-04 -1.752733e-03 1.521013e-04 1.364683e-03 -1.826758e-05 -2.956073e-03 -3.078121e-04 7.898221e-04 -1.167312e-03 -2.142503e-03 7.328536e-05
<VARIANCE> 25
 6.425375e+01 5.464735e+01 6.751440e+01 5.847112e+01 6.336512e+01 5.479220e+01 5.838044e+01 6.064297e+01 5.471418e+01 3.678755e+01 4.127589e+01 3.708737e+01 2.544317e+00 2.680323e+00 2.750474e+00 3.045642e+00 3.363681e+00 3.039879e+00 3.277550e+00 3.876794e+00 3.406813e+00 2.756114e+00 2.815221e+00 2.392728e+00 4.789593e+00
<GCONST> 1.082826e+02
<STATE> 4
<MEAN> 25
 -5.500240e-10 4.367719e-10 -2.159301e-09 -4.064597e-09 -1.272575e-08 3.558209e-09 6.943496e-09 -5.310472e-09 1.008330e-08 2.986367e-09 3.347434e-09 -2.397374e-09 4.237348e-04 2.566968e-03 -2.370497e-04 -1.752733e-03 1.521013e-04 1.364683e-03 -1.826758e-05 -2.956073e-03 -3.078121e-04 7.898221e-04 -1.167312e-03 -2.142503e-03 7.328536e-05
<VARIANCE> 25
 6.425375e+01 5.464735e+01 6.751440e+01 5.847112e+01 6.336512e+01 5.479220e+01 5.838044e+01 6.064297e+01 5.471418e+01 3.678755e+01 4.127589e+01 3.708737e+01 2.544317e+00 2.680323e+00 2.750474e+00 3.045642e+00 3.363681e+00 3.039879e+00 3.277550e+00 3.876794e+00 3.406813e+00 2.756114e+00 2.815221e+00 2.392728e+00 4.789593e+00
<GCONST> 1.082826e+02
<TRANSP> 5
 0.000000e+00 1.000000e+00 0.000000e+00 0.000000e+00 0.000000e+00
 0.000000e+00 6.000000e-01 4.000000e-01 0.000000e+00 0.000000e+00
 0.000000e+00 0.000000e+00 6.000000e-01 4.000000e-01 0.000000e+00
 0.000000e+00 0.000000e+00 0.000000e+00 7.000000e-01 3.000000e-01
 0.000000e+00 0.000000e+00 0.000000e+00 0.000000e+00 0.000000e+00
<ENDHMM>
~h "S"
<BEGINHMM>
<NUMSTATES> 5
<STATE> 2
<MEAN> 25
 -5.500240e-10 4.367719e-10 -2.159301e-09 -4.064597e-09 -1.272575e-08 3.558209e-09 6.943496e-09 -5.310472e-09 1.008330e-08 2.986367e-09 3.347434e-09 -2.397374e-09 4.237348e-04 2.566968e-03 -2.370497e-04 -1.752733e-03 1.521013e-04 1.364683e-03 -1.826758e-05 -2.956073e-03 -3.078121e-04 7.898221e-04 -1.167312e-03 -2.142503e-03 7.328536e-05
<VARIANCE> 25
 6.425375e+01 5.464735e+01 6.751440e+01 5.847112e+01 6.336512e+01 5.479220e+01 5.838044e+01 6.064297e+01 5.471418e+01 3.678755e+01 4.127589e+01 3.708737e+01 2.544317e+00 2.680323e+00 2.750474e+00 3.045642e+00 3.363681e+00 3.039879e+00 3.277550e+00 3.876794e+00 3.406813e+00 2.756114e+00 2.815221e+00 2.392728e+00 4.789593e+00
<GCONST> 1.082826e+02
<STATE> 3
<MEAN> 25
 -5.500240e-10 4.367719e-10 -2.159301e-09 -4.064597e-09 -1.272575e-08 3.558209e-09 6.943496e-09 -5.310472e-09 1.008330e-08 2.986367e-09 3.347434e-09 -2.397374e-09 4.237348e-04 2.566968e-03 -2.370497e-04 -1.752733e-03 1.521013e-04 1.364683e-03 -1.826758e-05 -2.956073e-03 -3.078121e-04 7.898221e-04 -1.167312e-03 -2.142503e-03 7.328536e-05
<VARIANCE> 25
 6.425375e+01 5.464735e+01 6.751440e+01 5.847112e+01 6.336512e+01 5.479220e+01 5.838044e+01 6.064297e+01 5.471418e+01 3.678755e+01 4.127589e+01 3.708737e+01 2.544317e+00 2.680323e+00 2.750474e+00 3.045642e+00 3.363681e+00 3.039879e+00 3.277550e+00 3.876794e+00 3.406813e+00 2.756114e+00 2.815221e+00 2.392728e+00 4.789593e+00
<GCONST> 1.082826e+02
<STATE> 4
<MEAN> 25
 -5.500240e-10 4.367719e-10 -2.159301e-09 -4.064597e-09 -1.272575e-08 3.558209e-09 6.943496e-09 -5.310472e-09 1.008330e-08 2.986367e-09 3.347434e-09 -2.397374e-09 4.237348e-04 2.566968e-03 -2.370497e-04 -1.752733e-03 1.521013e-04 1.364683e-03 -1.826758e-05 -2.956073e-03 -3.078121e-04 7.898221e-04 -1.167312e-03 -2.142503e-03 7.328536e-05
<VARIANCE> 25
 6.425375e+01 5.464735e+01 6.751440e+01 5.847112e+01 6.336512e+01 5.479220e+01 5.838044e+01 6.064297e+01 5.471418e+01 3.678755e+01 4.127589e+01 3.708737e+01 2.544317e+00 2.680323e+00 2.750474e+00 3.045642e+00 3.363681e+00 3.039879e+00 3.277550e+00 3.876794e+00 3.406813e+00 2.756114e+00 2.815221e+00 2.392728e+00 4.789593e+00
<GCONST> 1.082826e+02
<TRANSP> 5
 0.000000e+00 1.000000e+00 0.000000e+00 0.000000e+00 0.000000e+00
 0.000000e+00 6.000000e-01 4.000000e-01 0.000000e+00 0.000000e+00
 0.000000e+00 0.000000e+00 6.000000e-01 4.000000e-01 0.000000e+00
 0.000000e+00 0.000000e+00 0.000000e+00 7.000000e-01 3.000000e-01
 0.000000e+00 0.000000e+00 0.000000e+00 0.000000e+00 0.000000e+00
<ENDHMM>
~h "E"
<BEGINHMM>
<NUMSTATES> 5
<STATE> 2
<MEAN> 25
 -5.500240e-10 4.367719e-10 -2.159301e-09 -4.064597e-09 -1.272575e-08 3.558209e-09 6.943496e-09 -5.310472e-09 1.008330e-08 2.986367e-09 3.347434e-09 -2.397374e-09 4.237348e-04 2.566968e-03 -2.370497e-04 -1.752733e-03 1.521013e-04 1.364683e-03 -1.826758e-05 -2.956073e-03 -3.078121e-04 7.898221e-04 -1.167312e-03 -2.142503e-03 7.328536e-05
<VARIANCE> 25
 6.425375e+01 5.464735e+01 6.751440e+01 5.847112e+01 6.336512e+01 5.479220e+01 5.838044e+01 6.064297e+01 5.471418e+01 3.678755e+01 4.127589e+01 3.708737e+01 2.544317e+00 2.680323e+00 2.750474e+00 3.045642e+00 3.363681e+00 3.039879e+00 3.277550e+00 3.876794e+00 3.406813e+00 2.756114e+00 2.815221e+00 2.392728e+00 4.789593e+00
<GCONST> 1.082826e+02
<STATE> 3
<MEAN> 25
 -5.500240e-10 4.367719e-10 -2.159301e-09 -4.064597e-09 -1.272575e-08 3.558209e-09 6.943496e-09 -5.310472e-09 1.008330e-08 2.986367e-09 3.347434e-09 -2.397374e-09 4.237348e-04 2.566968e-03 -2.370497e-04 -1.752733e-03 1.521013e-04 1.364683e-03 -1.826758e-05 -2.956073e-03 -3.078121e-04 7.898221e-04 -1.167312e-03 -2.142503e-03 7.328536e-05
<VARIANCE> 25
 6.425375e+01 5.464735e+01 6.751440e+01 5.847112e+01 6.336512e+01 5.479220e+01 5.838044e+01 6.064297e+01 5.471418e+01 3.678755e+01 4.127589e+01 3.708737e+01 2.544317e+00 2.680323e+00 2.750474e+00 3.045642e+00 3.363681e+00 3.039879e+00 3.277550e+00 3.876794e+00 3.406813e+00 2.756114e+00 2.815221e+00 2.392728e+00 4.789593e+00
<GCONST> 1.082826e+02
<STATE> 4
<MEAN> 25
 -5.500240e-10 4.367719e-10 -2.159301e-09 -4.064597e-09 -1.272575e-08 3.558209e-09 6.943496e-09 -5.310472e-09 1.008330e-08 2.986367e-09 3.347434e-09 -2.397374e-09 4.237348e-04 2.566968e-03 -2.370497e-04 -1.752733e-03 1.521013e-04 1.364683e-03 -1.826758e-05 -2.956073e-03 -3.078121e-04 7.898221e-04 -1.167312e-03 -2.142503e-03 7.328536e-05
<VARIANCE> 25
 6.425375e+01 5.464735e+01 6.751440e+01 5.847112e+01 6.336512e+01 5.479220e+01 5.838044e+01 6.064297e+01 5.471418e+01 3.678755e+01 4.127589e+01 3.708737e+01 2.544317e+00 2.680323e+00 2.750474e+00 3.045642e+00 3.363681e+00 3.039879e+00 3.277550e+00 3.876794e+00 3.406813e+00 2.756114e+00 2.815221e+00 2.392728e+00 4.789593e+00
<GCONST> 1.082826e+02
<TRANSP> 5
 0.000000e+00 1.000000e+00 0.000000e+00 0.000000e+00 0.000000e+00
 0.000000e+00 6.000000e-01 4.000000e-01 0.000000e+00 0.000000e+00
 0.000000e+00 0.000000e+00 6.000000e-01 4.000000e-01 0.000000e+00
 0.000000e+00 0.000000e+00 0.000000e+00 7.000000e-01 3.000000e-01
 0.000000e+00 0.000000e+00 0.000000e+00 0.000000e+00 0.000000e+00
<ENDHMM>
~h "L"
<BEGINHMM>
<NUMSTATES> 5
<STATE> 2
<MEAN> 25
 -5.500240e-10 4.367719e-10 -2.159301e-09 -4.064597e-09 -1.272575e-08 3.558209e-09 6.943496e-09 -5.310472e-09 1.008330e-08 2.986367e-09 3.347434e-09 -2.397374e-09 4.237348e-04 2.566968e-03 -2.370497e-04 -1.752733e-03 1.521013e-04 1.364683e-03 -1.826758e-05 -2.956073e-03 -3.078121e-04 7.898221e-04 -1.167312e-03 -2.142503e-03 7.328536e-05
<VARIANCE> 25
 6.425375e+01 5.464735e+01 6.751440e+01 5.847112e+01 6.336512e+01 5.479220e+01 5.838044e+01 6.064297e+01 5.471418e+01 3.678755e+01 4.127589e+01 3.708737e+01 2.544317e+00 2.680323e+00 2.750474e+00 3.045642e+00 3.363681e+00 3.039879e+00 3.277550e+00 3.876794e+00 3.406813e+00 2.756114e+00 2.815221e+00 2.392728e+00 4.789593e+00
<GCONST> 1.082826e+02
<STATE> 3
<MEAN> 25
 -5.500240e-10 4.367719e-10 -2.159301e-09 -4.064597e-09 -1.272575e-08 3.558209e-09 6.943496e-09 -5.310472e-09 1.008330e-08 2.986367e-09 3.347434e-09 -2.397374e-09 4.237348e-04 2.566968e-03 -2.370497e-04 -1.752733e-03 1.521013e-04 1.364683e-03 -1.826758e-05 -2.956073e-03 -3.078121e-04 7.898221e-04 -1.167312e-03 -2.142503e-03 7.328536e-05
<VARIANCE> 25
 6.425375e+01 5.464735e+01 6.751440e+01 5.847112e+01 6.336512e+01 5.479220e+01 5.838044e+01 6.064297e+01 5.471418e+01 3.678755e+01 4.127589e+01 3.708737e+01 2.544317e+00 2.680323e+00 2.750474e+00 3.045642e+00 3.363681e+00 3.039879e+00 3.277550e+00 3.876794e+00 3.406813e+00 2.756114e+00 2.815221e+00 2.392728e+00 4.789593e+00
<GCONST> 1.082826e+02
<STATE> 4
<MEAN> 25
 -5.500240e-10 4.367719e-10 -2.159301e-09 -4.064597e-09 -1.272575e-08 3.558209e-09 6.943496e-09 -5.310472e-09 1.008330e-08 2.986367e-09 3.347434e-09 -2.397374e-09 4.237348e-04 2.566968e-03 -2.370497e-04 -1.752733e-03 1.521013e-04 1.364683e-03 -1.826758e-05 -2.956073e-03 -3.078121e-04 7.898221e-04 -1.167312e-03 -2.142503e-03 7.328536e-05
<VARIANCE> 25
 6.425375e+01 5.464735e+01 6.751440e+01 5.847112e+01 6.336512e+01 5.479220e+01 5.838044e+01 6.064297e+01 5.471418e+01 3.678755e+01 4.127589e+01 3.708737e+01 2.544317e+00 2.680323e+00 2.750474e+00 3.045642e+00 3.363681e+00 3.039879e+00 3.277550e+00 3.876794e+00 3.406813e+00 2.756114e+00 2.815221e+00 2.392728e+00 4.789593e+00
<GCONST> 1.082826e+02
<TRANSP> 5
 0.000000e+00 1.000000e+00 0.000000e+00 0.000000e+00 0.000000e+00
 0.000000e+00 6.000000e-01 4.000000e-01 0.000000e+00 0.000000e+00
 0.000000e+00 0.000000e+00 6.000000e-01 4.000000e-01 0.000000e+00
 0.000000e+00 0.000000e+00 0.000000e+00 7.000000e-01 3.000000e-01
 0.000000e+00 0.000000e+00 0.000000e+00 0.000000e+00 0.000000e+00
<ENDHMM>
~h "U"
<BEGINHMM>
<NUMSTATES> 5
<STATE> 2
<MEAN> 25
 -5.500240e-10 4.367719e-10 -2.159301e-09 -4.064597e-09 -1.272575e-08 3.558209e-09 6.943496e-09 -5.310472e-09 1.008330e-08 2.986367e-09 3.347434e-09 -2.397374e-09 4.237348e-04 2.566968e-03 -2.370497e-04 -1.752733e-03 1.521013e-04 1.364683e-03 -1.826758e-05 -2.956073e-03 -3.078121e-04 7.898221e-04 -1.167312e-03 -2.142503e-03 7.328536e-05
<VARIANCE> 25
 6.425375e+01 5.464735e+01 6.751440e+01 5.847112e+01 6.336512e+01 5.479220e+01 5.838044e+01 6.064297e+01 5.471418e+01 3.678755e+01 4.127589e+01 3.708737e+01 2.544317e+00 2.680323e+00 2.750474e+00 3.045642e+00 3.363681e+00 3.039879e+00 3.277550e+00 3.876794e+00 3.406813e+00 2.756114e+00 2.815221e+00 2.392728e+00 4.789593e+00
<GCONST> 1.082826e+02
<STATE> 3
<MEAN> 25
 -5.500240e-10 4.367719e-10 -2.159301e-09 -4.064597e-09 -1.272575e-08 3.558209e-09 6.943496e-09 -5.310472e-09 1.008330e-08 2.986367e-09 3.347434e-09 -2.397374e-09 4.237348e-04 2.566968e-03 -2.370497e-04 -1.752733e-03 1.521013e-04 1.364683e-03 -1.826758e-05 -2.956073e-03 -3.078121e-04 7.898221e-04 -1.167312e-03 -2.142503e-03 7.328536e-05
<VARIANCE> 25
 6.425375e+01 5.464735e+01 6.751440e+01 5.847112e+01 6.336512e+01 5.479220e+01 5.838044e+01 6.064297e+01 5.471418e+01 3.678755e+01 4.127589e+01 3.708737e+01 2.544317e+00 2.680323e+00 2.750474e+00 3.045642e+00 3.363681e+00 3.039879e+00 3.277550e+00 3.876794e+00 3.406813e+00 2.756114e+00 2.815221e+00 2.392728e+00 4.789593e+00
<GCONST> 1.082826e+02
<STATE> 4
<MEAN> 25
 -5.500240e-10 4.367719e-10 -2.159301e-09 -4.064597e-09 -1.272575e-08 3.558209e-09 6.943496e-09 -5.310472e-09 1.008330e-08 2.986367e-09 3.347434e-09 -2.397374e-09 4.237348e-04 2.566968e-03 -2.370497e-04 -1.752733e-03 1.521013e-04 1.364683e-03 -1.826758e-05 -2.956073e-03 -3.078121e-04 7.898221e-04 -1.167312e-03 -2.142503e-03 7.328536e-05
<VARIANCE> 25
 6.425375e+01 5.464735e+01 6.751440e+01 5.847112e+01 6.336512e+01 5.479220e+01 5.838044e+01 6.064297e+01 5.471418e+01 3.678755e+01 4.127589e+01 3.708737e+01 2.544317e+00 2.680323e+00 2.750474e+00 3.045642e+00 3.363681e+00 3.039879e+00 3.277550e+00 3.876794e+00 3.406813e+00 2.756114e+00 2.815221e+00 2.392728e+00 4.789593e+00
<GCONST> 1.082826e+02
<TRANSP> 5
 0.000000e+00 1.000000e+00 0.000000e+00 0.000000e+00 0.000000e+00
 0.000000e+00 6.000000e-01 4.000000e-01 0.000000e+00 0.000000e+00
 0.000000e+00 0.000000e+00 6.000000e-01 4.000000e-01 0.000000e+00
 0.000000e+00 0.000000e+00 0.000000e+00 7.000000e-01 3.000000e-01
 0.000000e+00 0.000000e+00 0.000000e+00 0.000000e+00 0.000000e+00
<ENDHMM>
~h "H"
<BEGINHMM>
<NUMSTATES> 5
<STATE> 2
<MEAN> 25
 -5.500240e-10 4.367719e-10 -2.159301e-09 -4.064597e-09 -1.272575e-08 3.558209e-09 6.943496e-09 -5.310472e-09 1.008330e-08 2.986367e-09 3.347434e-09 -2.397374e-09 4.237348e-04 2.566968e-03 -2.370497e-04 -1.752733e-03 1.521013e-04 1.364683e-03 -1.826758e-05 -2.956073e-03 -3.078121e-04 7.898221e-04 -1.167312e-03 -2.142503e-03 7.328536e-05
<VARIANCE> 25
 6.425375e+01 5.464735e+01 6.751440e+01 5.847112e+01 6.336512e+01 5.479220e+01 5.838044e+01 6.064297e+01 5.471418e+01 3.678755e+01 4.127589e+01 3.708737e+01 2.544317e+00 2.680323e+00 2.750474e+00 3.045642e+00 3.363681e+00 3.039879e+00 3.277550e+00 3.876794e+00 3.406813e+00 2.756114e+00 2.815221e+00 2.392728e+00 4.789593e+00
<GCONST> 1.082826e+02
<STATE> 3
<MEAN> 25
 -5.500240e-10 4.367719e-10 -2.159301e-09 -4.064597e-09 -1.272575e-08 3.558209e-09 6.943496e-09 -5.310472e-09 1.008330e-08 2.986367e-09 3.347434e-09 -2.397374e-09 4.237348e-04 2.566968e-03 -2.370497e-04 -1.752733e-03 1.521013e-04 1.364683e-03 -1.826758e-05 -2.956073e-03 -3.078121e-04 7.898221e-04 -1.167312e-03 -2.142503e-03 7.328536e-05
<VARIANCE> 25
 6.425375e+01 5.464735e+01 6.751440e+01 5.847112e+01 6.336512e+01 5.479220e+01 5.838044e+01 6.064297e+01 5.471418e+01 3.678755e+01 4.127589e+01 3.708737e+01 2.544317e+00 2.680323e+00 2.750474e+00 3.045642e+00 3.363681e+00 3.039879e+00 3.277550e+00 3.876794e+00 3.406813e+00 2.756114e+00 2.815221e+00 2.392728e+00 4.789593e+00
<GCONST> 1.082826e+02
<STATE> 4
<MEAN> 25
 -5.500240e-10 4.367719e-10 -2.159301e-09 -4.064597e-09 -1.272575e-08 3.558209e-09 6.943496e-09 -5.310472e-09 1.008330e-08 2.986367e-09 3.347434e-09 -2.397374e-09 4.237348e-04 2.566968e-03 -2.370497e-04 -1.752733e-03 1.521013e-04 1.364683e-03 -1.826758e-05 -2.956073e-03 -3.078121e-04 7.898221e-04 -1.167312e-03 -2.142503e-03 7.328536e-05
<VARIANCE> 25
 6.425375e+01 5.464735e+01 6.751440e+01 5.847112e+01 6.336512e+01 5.479220e+01 5.838044e+01 6.064297e+01 5.471418e+01 3.678755e+01 4.127589e+01 3.708737e+01 2.544317e+00 2.680323e+00 2.750474e+00 3.045642e+00 3.363681e+00 3.039879e+00 3.277550e+00 3.876794e+00 3.406813e+00 2.756114e+00 2.815221e+00 2.392728e+00 4.789593e+00
<GCONST> 1.082826e+02
<TRANSP> 5
 0.000000e+00 1.000000e+00 0.000000e+00 0.000000e+00 0.000000e+00
 0.000000e+00 6.000000e-01 4.000000e-01 0.000000e+00 0.000000e+00
 0.000000e+00 0.000000e+00 6.000000e-01 4.000000e-01 0.000000e+00
 0.000000e+00 0.000000e+00 0.000000e+00 7.000000e-01 3.000000e-01
 0.000000e+00 0.000000e+00 0.000000e+00 0.000000e+00 0.000000e+00
<ENDHMM>
~h "R"
<BEGINHMM>
<NUMSTATES> 5
<STATE> 2
<MEAN> 25
 -5.500240e-10 4.367719e-10 -2.159301e-09 -4.064597e-09 -1.272575e-08 3.558209e-09 6.943496e-09 -5.310472e-09 1.008330e-08 2.986367e-09 3.347434e-09 -2.397374e-09 4.237348e-04 2.566968e-03 -2.370497e-04 -1.752733e-03 1.521013e-04 1.364683e-03 -1.826758e-05 -2.956073e-03 -3.078121e-04 7.898221e-04 -1.167312e-03 -2.142503e-03 7.328536e-05
<VARIANCE> 25
 6.425375e+01 5.464735e+01 6.751440e+01 5.847112e+01 6.336512e+01 5.479220e+01 5.838044e+01 6.064297e+01 5.471418e+01 3.678755e+01 4.127589e+01 3.708737e+01 2.544317e+00 2.680323e+00 2.750474e+00 3.045642e+00 3.363681e+00 3.039879e+00 3.277550e+00 3.876794e+00 3.406813e+00 2.756114e+00 2.815221e+00 2.392728e+00 4.789593e+00
<GCONST> 1.082826e+02
<STATE> 3
<MEAN> 25
 -5.500240e-10 4.367719e-10 -2.159301e-09 -4.064597e-09 -1.272575e-08 3.558209e-09 6.943496e-09 -5.310472e-09 1.008330e-08 2.986367e-09 3.347434e-09 -2.397374e-09 4.237348e-04 2.566968e-03 -2.370497e-04 -1.752733e-03 1.521013e-04 1.364683e-03 -1.826758e-05 -2.956073e-03 -3.078121e-04 7.898221e-04 -1.167312e-03 -2.142503e-03 7.328536e-05
<VARIANCE> 25
 6.425375e+01 5.464735e+01 6.751440e+01 5.847112e+01 6.336512e+01 5.479220e+01 5.838044e+01 6.064297e+01 5.471418e+01 3.678755e+01 4.127589e+01 3.708737e+01 2.544317e+00 2.680323e+00 2.750474e+00 3.045642e+00 3.363681e+00 3.039879e+00 3.277550e+00 3.876794e+00 3.406813e+00 2.756114e+00 2.815221e+00 2.392728e+00 4.789593e+00
<GCONST> 1.082826e+02
<STATE> 4
<MEAN> 25
 -5.500240e-10 4.367719e-10 -2.159301e-09 -4.064597e-09 -1.272575e-08 3.558209e-09 6.943496e-09 -5.310472e-09 1.008330e-08 2.986367e-09 3.347434e-09 -2.397374e-09 4.237348e-04 2.566968e-03 -2.370497e-04 -1.752733e-03 1.521013e-04 1.364683e-03 -1.826758e-05 -2.956073e-03 -3.078121e-04 7.898221e-04 -1.167312e-03 -2.142503e-03 7.328536e-05
<VARIANCE> 25
 6.425375e+01 5.464735e+01 6.751440e+01 5.847112e+01 6.336512e+01 5.479220e+01 5.838044e+01 6.064297e+01 5.471418e+01 3.678755e+01 4.127589e+01 3.708737e+01 2.544317e+00 2.680323e+00 2.750474e+00 3.045642e+00 3.363681e+00 3.039879e+00 3.277550e+00 3.876794e+00 3.406813e+00 2.756114e+00 2.815221e+00 2.392728e+00 4.789593e+00
<GCONST> 1.082826e+02
<TRANSP> 5
 0.000000e+00 1.000000e+00 0.000000e+00 0.000000e+00 0.000000e+00
 0.000000e+00 6.000000e-01 4.000000e-01 0.000000e+00 0.000000e+00
 0.000000e+00 0.000000e+00 6.000000e-01 4.000000e-01 0.000000e+00
 0.000000e+00 0.000000e+00 0.000000e+00 7.000000e-01 3.000000e-01
 0.000000e+00 0.000000e+00 0.000000e+00 0.000000e+00 0.000000e+00
<ENDHMM>
~h "M"
<BEGINHMM>
<NUMSTATES> 5
<STATE> 2
<MEAN> 25
 -5.500240e-10 4.367719e-10 -2.159301e-09 -4.064597e-09 -1.272575e-08 3.558209e-09 6.943496e-09 -5.310472e-09 1.008330e-08 2.986367e-09 3.347434e-09 -2.397374e-09 4.237348e-04 2.566968e-03 -2.370497e-04 -1.752733e-03 1.521013e-04 1.364683e-03 -1.826758e-05 -2.956073e-03 -3.078121e-04 7.898221e-04 -1.167312e-03 -2.142503e-03 7.328536e-05
<VARIANCE> 25
 6.425375e+01 5.464735e+01 6.751440e+01 5.847112e+01 6.336512e+01 5.479220e+01 5.838044e+01 6.064297e+01 5.471418e+01 3.678755e+01 4.127589e+01 3.708737e+01 2.544317e+00 2.680323e+00 2.750474e+00 3.045642e+00 3.363681e+00 3.039879e+00 3.277550e+00 3.876794e+00 3.406813e+00 2.756114e+00 2.815221e+00 2.392728e+00 4.789593e+00
<GCONST> 1.082826e+02
<STATE> 3
<MEAN> 25
 -5.500240e-10 4.367719e-10 -2.159301e-09 -4.064597e-09 -1.272575e-08 3.558209e-09 6.943496e-09 -5.310472e-09 1.008330e-08 2.986367e-09 3.347434e-09 -2.397374e-09 4.237348e-04 2.566968e-03 -2.370497e-04 -1.752733e-03 1.521013e-04 1.364683e-03 -1.826758e-05 -2.956073e-03 -3.078121e-04 7.898221e-04 -1.167312e-03 -2.142503e-03 7.328536e-05
<VARIANCE> 25
 6.425375e+01 5.464735e+01 6.751440e+01 5.847112e+01 6.336512e+01 5.479220e+01 5.838044e+01 6.064297e+01 5.471418e+01 3.678755e+01 4.127589e+01 3.708737e+01 2.544317e+00 2.680323e+00 2.750474e+00 3.045642e+00 3.363681e+00 3.039879e+00 3.277550e+00 3.876794e+00 3.406813e+00 2.756114e+00 2.815221e+00 2.392728e+00 4.789593e+00
<GCONST> 1.082826e+02
<STATE> 4
<MEAN> 25
 -5.500240e-10 4.367719e-10 -2.159301e-09 -4.064597e-09 -1.272575e-08 3.558209e-09 6.943496e-09 -5.310472e-09 1.008330e-08 2.986367e-09 3.347434e-09 -2.397374e-09 4.237348e-04 2.566968e-03 -2.370497e-04 -1.752733e-03 1.521013e-04 1.364683e-03 -1.826758e-05 -2.956073e-03 -3.078121e-04 7.898221e-04 -1.167312e-03 -2.142503e-03 7.328536e-05
<VARIANCE> 25
 6.425375e+01 5.464735e+01 6.751440e+01 5.847112e+01 6.336512e+01 5.479220e+01 5.838044e+01 6.064297e+01 5.471418e+01 3.678755e+01 4.127589e+01 3.708737e+01 2.544317e+00 2.680323e+00 2.750474e+00 3.045642e+00 3.363681e+00 3.039879e+00 3.277550e+00 3.876794e+00 3.406813e+00 2.756114e+00 2.815221e+00 2.392728e+00 4.789593e+00
<GCONST> 1.082826e+02
<TRANSP> 5
 0.000000e+00 1.000000e+00 0.000000e+00 0.000000e+00 0.000000e+00
 0.000000e+00 6.000000e-01 4.000000e-01 0.000000e+00 0.000000e+00
 0.000000e+00 0.000000e+00 6.000000e-01 4.000000e-01 0.000000e+00
 0.000000e+00 0.000000e+00 0.000000e+00 7.000000e-01 3.000000e-01
 0.000000e+00 0.000000e+00 0.000000e+00 0.000000e+00 0.000000e+00
<ENDHMM>
~h "P"
<BEGINHMM>
<NUMSTATES> 5
<STATE> 2
<MEAN> 25
 -5.500240e-10 4.367719e-10 -2.159301e-09 -4.064597e-09 -1.272575e-08 3.558209e-09 6.943496e-09 -5.310472e-09 1.008330e-08 2.986367e-09 3.347434e-09 -2.397374e-09 4.237348e-04 2.566968e-03 -2.370497e-04 -1.752733e-03 1.521013e-04 1.364683e-03 -1.826758e-05 -2.956073e-03 -3.078121e-04 7.898221e-04 -1.167312e-03 -2.142503e-03 7.328536e-05
<VARIANCE> 25
 6.425375e+01 5.464735e+01 6.751440e+01 5.847112e+01 6.336512e+01 5.479220e+01 5.838044e+01 6.064297e+01 5.471418e+01 3.678755e+01 4.127589e+01 3.708737e+01 2.544317e+00 2.680323e+00 2.750474e+00 3.045642e+00 3.363681e+00 3.039879e+00 3.277550e+00 3.876794e+00 3.406813e+00 2.756114e+00 2.815221e+00 2.392728e+00 4.789593e+00
<GCONST> 1.082826e+02
<STATE> 3
<MEAN> 25
 -5.500240e-10 4.367719e-10 -2.159301e-09 -4.064597e-09 -1.272575e-08 3.558209e-09 6.943496e-09 -5.310472e-09 1.008330e-08 2.986367e-09 3.347434e-09 -2.397374e-09 4.237348e-04 2.566968e-03 -2.370497e-04 -1.752733e-03 1.521013e-04 1.364683e-03 -1.826758e-05 -2.956073e-03 -3.078121e-04 7.898221e-04 -1.167312e-03 -2.142503e-03 7.328536e-05
<VARIANCE> 25
 6.425375e+01 5.464735e+01 6.751440e+01 5.847112e+01 6.336512e+01 5.479220e+01 5.838044e+01 6.064297e+01 5.471418e+01 3.678755e+01 4.127589e+01 3.708737e+01 2.544317e+00 2.680323e+00 2.750474e+00 3.045642e+00 3.363681e+00 3.039879e+00 3.277550e+00 3.876794e+00 3.406813e+00 2.756114e+00 2.815221e+00 2.392728e+00 4.789593e+00
<GCONST> 1.082826e+02
<STATE> 4
<MEAN> 25
 -5.500240e-10 4.367719e-10 -2.159301e-09 -4.064597e-09 -1.272575e-08 3.558209e-09 6.943496e-09 -5.310472e-09 1.008330e-08 2.986367e-09 3.347434e-09 -2.397374e-09 4.237348e-04 2.566968e-03 -2.370497e-04 -1.752733e-03 1.521013e-04 1.364683e-03 -1.826758e-05 -2.956073e-03 -3.078121e-04 7.898221e-04 -1.167312e-03 -2.142503e-03 7.328536e-05
<VARIANCE> 25
 6.425375e+01 5.464735e+01 6.751440e+01 5.847112e+01 6.336512e+01 5.479220e+01 5.838044e+01 6.064297e+01 5.471418e+01 3.678755e+01 4.127589e+01 3.708737e+01 2.544317e+00 2.680323e+00 2.750474e+00 3.045642e+00 3.363681e+00 3.039879e+00 3.277550e+00 3.876794e+00 3.406813e+00 2.756114e+00 2.815221e+00 2.392728e+00 4.789593e+00
<GCONST> 1.082826e+02
<TRANSP> 5
 0.000000e+00 1.000000e+00 0.000000e+00 0.000000e+00 0.000000e+00
 0.000000e+00 6.000000e-01 4.000000e-01 0.000000e+00 0.000000e+00
 0.000000e+00 0.000000e+00 6.000000e-01 4.000000e-01 0.000000e+00
 0.000000e+00 0.000000e+00 0.000000e+00 7.000000e-01 3.000000e-01
 0.000000e+00 0.000000e+00 0.000000e+00 0.000000e+00 0.000000e+00
<ENDHMM>
~h "e"
<BEGINHMM>
<NUMSTATES> 5
<STATE> 2
<MEAN> 25
 -5.500240e-10 4.367719e-10 -2.159301e-09 -4.064597e-09 -1.272575e-08 3.558209e-09 6.943496e-09 -5.310472e-09 1.008330e-08 2.986367e-09 3.347434e-09 -2.397374e-09 4.237348e-04 2.566968e-03 -2.370497e-04 -1.752733e-03 1.521013e-04 1.364683e-03 -1.826758e-05 -2.956073e-03 -3.078121e-04 7.898221e-04 -1.167312e-03 -2.142503e-03 7.328536e-05
<VARIANCE> 25
 6.425375e+01 5.464735e+01 6.751440e+01 5.847112e+01 6.336512e+01 5.479220e+01 5.838044e+01 6.064297e+01 5.471418e+01 3.678755e+01 4.127589e+01 3.708737e+01 2.544317e+00 2.680323e+00 2.750474e+00 3.045642e+00 3.363681e+00 3.039879e+00 3.277550e+00 3.876794e+00 3.406813e+00 2.756114e+00 2.815221e+00 2.392728e+00 4.789593e+00
<GCONST> 1.082826e+02
<STATE> 3
<MEAN> 25
 -5.500240e-10 4.367719e-10 -2.159301e-09 -4.064597e-09 -1.272575e-08 3.558209e-09 6.943496e-09 -5.310472e-09 1.008330e-08 2.986367e-09 3.347434e-09 -2.397374e-09 4.237348e-04 2.566968e-03 -2.370497e-04 -1.752733e-03 1.521013e-04 1.364683e-03 -1.826758e-05 -2.956073e-03 -3.078121e-04 7.898221e-04 -1.167312e-03 -2.142503e-03 7.328536e-05
<VARIANCE> 25
 6.425375e+01 5.464735e+01 6.751440e+01 5.847112e+01 6.336512e+01 5.479220e+01 5.838044e+01 6.064297e+01 5.471418e+01 3.678755e+01 4.127589e+01 3.708737e+01 2.544317e+00 2.680323e+00 2.750474e+00 3.045642e+00 3.363681e+00 3.039879e+00 3.277550e+00 3.876794e+00 3.406813e+00 2.756114e+00 2.815221e+00 2.392728e+00 4.789593e+00
<GCONST> 1.082826e+02
<STATE> 4
<MEAN> 25
 -5.500240e-10 4.367719e-10 -2.159301e-09 -4.064597e-09 -1.272575e-08 3.558209e-09 6.943496e-09 -5.310472e-09 1.008330e-08 2.986367e-09 3.347434e-09 -2.397374e-09 4.237348e-04 2.566968e-03 -2.370497e-04 -1.752733e-03 1.521013e-04 1.364683e-03 -1.826758e-05 -2.956073e-03 -3.078121e-04 7.898221e-04 -1.167312e-03 -2.142503e-03 7.328536e-05
<VARIANCE> 25
 6.425375e+01 5.464735e+01 6.751440e+01 5.847112e+01 6.336512e+01 5.479220e+01 5.838044e+01 6.064297e+01 5.471418e+01 3.678755e+01 4.127589e+01 3.708737e+01 2.544317e+00 2.680323e+00 2.750474e+00 3.045642e+00 3.363681e+00 3.039879e+00 3.277550e+00 3.876794e+00 3.406813e+00 2.756114e+00 2.815221e+00 2.392728e+00 4.789593e+00
<GCONST> 1.082826e+02
<TRANSP> 5
 0.000000e+00 1.000000e+00 0.000000e+00 0.000000e+00 0.000000e+00
 0.000000e+00 6.000000e-01 4.000000e-01 0.000000e+00 0.000000e+00
 0.000000e+00 0.000000e+00 6.000000e-01 4.000000e-01 0.000000e+00
 0.000000e+00 0.000000e+00 0.000000e+00 7.000000e-01 3.000000e-01
 0.000000e+00 0.000000e+00 0.000000e+00 0.000000e+00 0.000000e+00
<ENDHMM>
~h "O"
<BEGINHMM>
<NUMSTATES> 5
<STATE> 2
<MEAN> 25
 -5.500240e-10 4.367719e-10 -2.159301e-09 -4.064597e-09 -1.272575e-08 3.558209e-09 6.943496e-09 -5.310472e-09 1.008330e-08 2.986367e-09 3.347434e-09 -2.397374e-09 4.237348e-04 2.566968e-03 -2.370497e-04 -1.752733e-03 1.521013e-04 1.364683e-03 -1.826758e-05 -2.956073e-03 -3.078121e-04 7.898221e-04 -1.167312e-03 -2.142503e-03 7.328536e-05
<VARIANCE> 25
 6.425375e+01 5.464735e+01 6.751440e+01 5.847112e+01 6.336512e+01 5.479220e+01 5.838044e+01 6.064297e+01 5.471418e+01 3.678755e+01 4.127589e+01 3.708737e+01 2.544317e+00 2.680323e+00 2.750474e+00 3.045642e+00 3.363681e+00 3.039879e+00 3.277550e+00 3.876794e+00 3.406813e+00 2.756114e+00 2.815221e+00 2.392728e+00 4.789593e+00
<GCONST> 1.082826e+02
<STATE> 3
<MEAN> 25
 -5.500240e-10 4.367719e-10 -2.159301e-09 -4.064597e-09 -1.272575e-08 3.558209e-09 6.943496e-09 -5.310472e-09 1.008330e-08 2.986367e-09 3.347434e-09 -2.397374e-09 4.237348e-04 2.566968e-03 -2.370497e-04 -1.752733e-03 1.521013e-04 1.364683e-03 -1.826758e-05 -2.956073e-03 -3.078121e-04 7.898221e-04 -1.167312e-03 -2.142503e-03 7.328536e-05
<VARIANCE> 25
 6.425375e+01 5.464735e+01 6.751440e+01 5.847112e+01 6.336512e+01 5.479220e+01 5.838044e+01 6.064297e+01 5.471418e+01 3.678755e+01 4.127589e+01 3.708737e+01 2.544317e+00 2.680323e+00 2.750474e+00 3.045642e+00 3.363681e+00 3.039879e+00 3.277550e+00 3.876794e+00 3.406813e+00 2.756114e+00 2.815221e+00 2.392728e+00 4.789593e+00
<GCONST> 1.082826e+02
<STATE> 4
<MEAN> 25
 -5.500240e-10 4.367719e-10 -2.159301e-09 -4.064597e-09 -1.272575e-08 3.558209e-09 6.943496e-09 -5.310472e-09 1.008330e-08 2.986367e-09 3.347434e-09 -2.397374e-09 4.237348e-04 2.566968e-03 -2.370497e-04 -1.752733e-03 1.521013e-04 1.364683e-03 -1.826758e-05 -2.956073e-03 -3.078121e-04 7.898221e-04 -1.167312e-03 -2.142503e-03 7.328536e-05
<VARIANCE> 25
 6.425375e+01 5.464735e+01 6.751440e+01 5.847112e+01 6.336512e+01 5.479220e+01 5.838044e+01 6.064297e+01 5.471418e+01 3.678755e+01 4.127589e+01 3.708737e+01 2.544317e+00 2.680323e+00 2.750474e+00 3.045642e+00 3.363681e+00 3.039879e+00 3.277550e+00 3.876794e+00 3.406813e+00 2.756114e+00 2.815221e+00 2.392728e+00 4.789593e+00
<GCONST> 1.082826e+02
<TRANSP> 5
 0.000000e+00 1.000000e+00 0.000000e+00 0.000000e+00 0.000000e+00
 0.000000e+00 6.000000e-01 4.000000e-01 0.000000e+00 0.000000e+00
 0.000000e+00 0.000000e+00 6.000000e-01 4.000000e-01 0.000000e+00
 0.000000e+00 0.000000e+00 0.000000e+00 7.000000e-01 3.000000e-01
 0.000000e+00 0.000000e+00 0.000000e+00 0.000000e+00 0.000000e+00
<ENDHMM>
~h "G"
<BEGINHMM>
<NUMSTATES> 5
<STATE> 2
<MEAN> 25
 -5.500240e-10 4.367719e-10 -2.159301e-09 -4.064597e-09 -1.272575e-08 3.558209e-09 6.943496e-09 -5.310472e-09 1.008330e-08 2.986367e-09 3.347434e-09 -2.397374e-09 4.237348e-04 2.566968e-03 -2.370497e-04 -1.752733e-03 1.521013e-04 1.364683e-03 -1.826758e-05 -2.956073e-03 -3.078121e-04 7.898221e-04 -1.167312e-03 -2.142503e-03 7.328536e-05
<VARIANCE> 25
 6.425375e+01 5.464735e+01 6.751440e+01 5.847112e+01 6.336512e+01 5.479220e+01 5.838044e+01 6.064297e+01 5.471418e+01 3.678755e+01 4.127589e+01 3.708737e+01 2.544317e+00 2.680323e+00 2.750474e+00 3.045642e+00 3.363681e+00 3.039879e+00 3.277550e+00 3.876794e+00 3.406813e+00 2.756114e+00 2.815221e+00 2.392728e+00 4.789593e+00
<GCONST> 1.082826e+02
<STATE> 3
<MEAN> 25
 -5.500240e-10 4.367719e-10 -2.159301e-09 -4.064597e-09 -1.272575e-08 3.558209e-09 6.943496e-09 -5.310472e-09 1.008330e-08 2.986367e-09 3.347434e-09 -2.397374e-09 4.237348e-04 2.566968e-03 -2.370497e-04 -1.752733e-03 1.521013e-04 1.364683e-03 -1.826758e-05 -2.956073e-03 -3.078121e-04 7.898221e-04 -1.167312e-03 -2.142503e-03 7.328536e-05
<VARIANCE> 25
 6.425375e+01 5.464735e+01 6.751440e+01 5.847112e+01 6.336512e+01 5.479220e+01 5.838044e+01 6.064297e+01 5.471418e+01 3.678755e+01 4.127589e+01 3.708737e+01 2.544317e+00 2.680323e+00 2.750474e+00 3.045642e+00 3.363681e+00 3.039879e+00 3.277550e+00 3.876794e+00 3.406813e+00 2.756114e+00 2.815221e+00 2.392728e+00 4.789593e+00
<GCONST> 1.082826e+02
<STATE> 4
<MEAN> 25
 -5.500240e-10 4.367719e-10 -2.159301e-09 -4.064597e-09 -1.272575e-08 3.558209e-09 6.943496e-09 -5.310472e-09 1.008330e-08 2.986367e-09 3.347434e-09 -2.397374e-09 4.237348e-04 2.566968e-03 -2.370497e-04 -1.752733e-03 1.521013e-04 1.364683e-03 -1.826758e-05 -2.956073e-03 -3.078121e-04 7.898221e-04 -1.167312e-03 -2.142503e-03 7.328536e-05
<VARIANCE> 25
 6.425375e+01 5.464735e+01 6.751440e+01 5.847112e+01 6.336512e+01 5.479220e+01 5.838044e+01 6.064297e+01 5.471418e+01 3.678755e+01 4.127589e+01 3.708737e+01 2.544317e+00 2.680323e+00 2.750474e+00 3.045642e+00 3.363681e+00 3.039879e+00 3.277550e+00 3.876794e+00 3.406813e+00 2.756114e+00 2.815221e+00 2.392728e+00 4.789593e+00
<GCONST> 1.082826e+02
<TRANSP> 5
 0.000000e+00 1.000000e+00 0.000000e+00 0.000000e+00 0.000000e+00
 0.000000e+00 6.000000e-01 4.000000e-01 0.000000e+00 0.000000e+00
 0.000000e+00 0.000000e+00 6.000000e-01 4.000000e-01 0.000000e+00
 0.000000e+00 0.000000e+00 0.000000e+00 7.000000e-01 3.000000e-01
 0.000000e+00 0.000000e+00 0.000000e+00 0.000000e+00 0.000000e+00
<ENDHMM>
~h "NY"
<BEGINHMM>
<NUMSTATES> 5
<STATE> 2
<MEAN> 25
 -5.500240e-10 4.367719e-10 -2.159301e-09 -4.064597e-09 -1.272575e-08 3.558209e-09 6.943496e-09 -5.310472e-09 1.008330e-08 2.986367e-09 3.347434e-09 -2.397374e-09 4.237348e-04 2.566968e-03 -2.370497e-04 -1.752733e-03 1.521013e-04 1.364683e-03 -1.826758e-05 -2.956073e-03 -3.078121e-04 7.898221e-04 -1.167312e-03 -2.142503e-03 7.328536e-05
<VARIANCE> 25
 6.425375e+01 5.464735e+01 6.751440e+01 5.847112e+01 6.336512e+01 5.479220e+01 5.838044e+01 6.064297e+01 5.471418e+01 3.678755e+01 4.127589e+01 3.708737e+01 2.544317e+00 2.680323e+00 2.750474e+00 3.045642e+00 3.363681e+00 3.039879e+00 3.277550e+00 3.876794e+00 3.406813e+00 2.756114e+00 2.815221e+00 2.392728e+00 4.789593e+00
<GCONST> 1.082826e+02
<STATE> 3
<MEAN> 25
 -5.500240e-10 4.367719e-10 -2.159301e-09 -4.064597e-09 -1.272575e-08 3.558209e-09 6.943496e-09 -5.310472e-09 1.008330e-08 2.986367e-09 3.347434e-09 -2.397374e-09 4.237348e-04 2.566968e-03 -2.370497e-04 -1.752733e-03 1.521013e-04 1.364683e-03 -1.826758e-05 -2.956073e-03 -3.078121e-04 7.898221e-04 -1.167312e-03 -2.142503e-03 7.328536e-05
<VARIANCE> 25
 6.425375e+01 5.464735e+01 6.751440e+01 5.847112e+01 6.336512e+01 5.479220e+01 5.838044e+01 6.064297e+01 5.471418e+01 3.678755e+01 4.127589e+01 3.708737e+01 2.544317e+00 2.680323e+00 2.750474e+00 3.045642e+00 3.363681e+00 3.039879e+00 3.277550e+00 3.876794e+00 3.406813e+00 2.756114e+00 2.815221e+00 2.392728e+00 4.789593e+00
<GCONST> 1.082826e+02
<STATE> 4
<MEAN> 25
 -5.500240e-10 4.367719e-10 -2.159301e-09 -4.064597e-09 -1.272575e-08 3.558209e-09 6.943496e-09 -5.310472e-09 1.008330e-08 2.986367e-09 3.347434e-09 -2.397374e-09 4.237348e-04 2.566968e-03 -2.370497e-04 -1.752733e-03 1.521013e-04 1.364683e-03 -1.826758e-05 -2.956073e-03 -3.078121e-04 7.898221e-04 -1.167312e-03 -2.142503e-03 7.328536e-05
<VARIANCE> 25
 6.425375e+01 5.464735e+01 6.751440e+01 5.847112e+01 6.336512e+01 5.479220e+01 5.838044e+01 6.064297e+01 5.471418e+01 3.678755e+01 4.127589e+01 3.708737e+01 2.544317e+00 2.680323e+00 2.750474e+00 3.045642e+00 3.363681e+00 3.039879e+00 3.277550e+00 3.876794e+00 3.406813e+00 2.756114e+00 2.815221e+00 2.392728e+00 4.789593e+00
<GCONST> 1.082826e+02
<TRANSP> 5
 0.000000e+00 1.000000e+00 0.000000e+00 0.000000e+00 0.000000e+00
 0.000000e+00 6.000000e-01 4.000000e-01 0.000000e+00 0.000000e+00
 0.000000e+00 0.000000e+00 6.000000e-01 4.000000e-01 0.000000e+00
 0.000000e+00 0.000000e+00 0.000000e+00 7.000000e-01 3.000000e-01
 0.000000e+00 0.000000e+00 0.000000e+00 0.000000e+00 0.000000e+00
<ENDHMM>
~h "T"
<BEGINHMM>
<NUMSTATES> 5
<STATE> 2
<MEAN> 25
 -5.500240e-10 4.367719e-10 -2.159301e-09 -4.064597e-09 -1.272575e-08 3.558209e-09 6.943496e-09 -5.310472e-09 1.008330e-08 2.986367e-09 3.347434e-09 -2.397374e-09 4.237348e-04 2.566968e-03 -2.370497e-04 -1.752733e-03 1.521013e-04 1.364683e-03 -1.826758e-05 -2.956073e-03 -3.078121e-04 7.898221e-04 -1.167312e-03 -2.142503e-03 7.328536e-05
<VARIANCE> 25
 6.425375e+01 5.464735e+01 6.751440e+01 5.847112e+01 6.336512e+01 5.479220e+01 5.838044e+01 6.064297e+01 5.471418e+01 3.678755e+01 4.127589e+01 3.708737e+01 2.544317e+00 2.680323e+00 2.750474e+00 3.045642e+00 3.363681e+00 3.039879e+00 3.277550e+00 3.876794e+00 3.406813e+00 2.756114e+00 2.815221e+00 2.392728e+00 4.789593e+00
<GCONST> 1.082826e+02
<STATE> 3
<MEAN> 25
 -5.500240e-10 4.367719e-10 -2.159301e-09 -4.064597e-09 -1.272575e-08 3.558209e-09 6.943496e-09 -5.310472e-09 1.008330e-08 2.986367e-09 3.347434e-09 -2.397374e-09 4.237348e-04 2.566968e-03 -2.370497e-04 -1.752733e-03 1.521013e-04 1.364683e-03 -1.826758e-05 -2.956073e-03 -3.078121e-04 7.898221e-04 -1.167312e-03 -2.142503e-03 7.328536e-05
<VARIANCE> 25
 6.425375e+01 5.464735e+01 6.751440e+01 5.847112e+01 6.336512e+01 5.479220e+01 5.838044e+01 6.064297e+01 5.471418e+01 3.678755e+01 4.127589e+01 3.708737e+01 2.544317e+00 2.680323e+00 2.750474e+00 3.045642e+00 3.363681e+00 3.039879e+00 3.277550e+00 3.876794e+00 3.406813e+00 2.756114e+00 2.815221e+00 2.392728e+00 4.789593e+00
<GCONST> 1.082826e+02
<STATE> 4
<MEAN> 25
 -5.500240e-10 4.367719e-10 -2.159301e-09 -4.064597e-09 -1.272575e-08 3.558209e-09 6.943496e-09 -5.310472e-09 1.008330e-08 2.986367e-09 3.347434e-09 -2.397374e-09 4.237348e-04 2.566968e-03 -2.370497e-04 -1.752733e-03 1.521013e-04 1.364683e-03 -1.826758e-05 -2.956073e-03 -3.078121e-04 7.898221e-04 -1.167312e-03 -2.142503e-03 7.328536e-05
<VARIANCE> 25
 6.425375e+01 5.464735e+01 6.751440e+01 5.847112e+01 6.336512e+01 5.479220e+01 5.838044e+01 6.064297e+01 5.471418e+01 3.678755e+01 4.127589e+01 3.708737e+01 2.544317e+00 2.680323e+00 2.750474e+00 3.045642e+00 3.363681e+00 3.039879e+00 3.277550e+00 3.876794e+00 3.406813e+00 2.756114e+00 2.815221e+00 2.392728e+00 4.789593e+00
<GCONST> 1.082826e+02
<TRANSP> 5
 0.000000e+00 1.000000e+00 0.000000e+00 0.000000e+00 0.000000e+00
 0.000000e+00 6.000000e-01 4.000000e-01 0.000000e+00 0.000000e+00
 0.000000e+00 0.000000e+00 6.000000e-01 4.000000e-01 0.000000e+00
 0.000000e+00 0.000000e+00 0.000000e+00 7.000000e-01 3.000000e-01
 0.000000e+00 0.000000e+00 0.000000e+00 0.000000e+00 0.000000e+00
<ENDHMM>
~h "Z"
<BEGINHMM>
<NUMSTATES> 5
<STATE> 2
<MEAN> 25
 -5.500240e-10 4.367719e-10 -2.159301e-09 -4.064597e-09 -1.272575e-08 3.558209e-09 6.943496e-09 -5.310472e-09 1.008330e-08 2.986367e-09 3.347434e-09 -2.397374e-09 4.237348e-04 2.566968e-03 -2.370497e-04 -1.752733e-03 1.521013e-04 1.364683e-03 -1.826758e-05 -2.956073e-03 -3.078121e-04 7.898221e-04 -1.167312e-03 -2.142503e-03 7.328536e-05
<VARIANCE> 25
 6.425375e+01 5.464735e+01 6.751440e+01 5.847112e+01 6.336512e+01 5.479220e+01 5.838044e+01 6.064297e+01 5.471418e+01 3.678755e+01 4.127589e+01 3.708737e+01 2.544317e+00 2.680323e+00 2.750474e+00 3.045642e+00 3.363681e+00 3.039879e+00 3.277550e+00 3.876794e+00 3.406813e+00 2.756114e+00 2.815221e+00 2.392728e+00 4.789593e+00
<GCONST> 1.082826e+02
<STATE> 3
<MEAN> 25
 -5.500240e-10 4.367719e-10 -2.159301e-09 -4.064597e-09 -1.272575e-08 3.558209e-09 6.943496e-09 -5.310472e-09 1.008330e-08 2.986367e-09 3.347434e-09 -2.397374e-09 4.237348e-04 2.566968e-03 -2.370497e-04 -1.752733e-03 1.521013e-04 1.364683e-03 -1.826758e-05 -2.956073e-03 -3.078121e-04 7.898221e-04 -1.167312e-03 -2.142503e-03 7.328536e-05
<VARIANCE> 25
 6.425375e+01 5.464735e+01 6.751440e+01 5.847112e+01 6.336512e+01 5.479220e+01 5.838044e+01 6.064297e+01 5.471418e+01 3.678755e+01 4.127589e+01 3.708737e+01 2.544317e+00 2.680323e+00 2.750474e+00 3.045642e+00 3.363681e+00 3.039879e+00 3.277550e+00 3.876794e+00 3.406813e+00 2.756114e+00 2.815221e+00 2.392728e+00 4.789593e+00
<GCONST> 1.082826e+02
<STATE> 4
<MEAN> 25
 -5.500240e-10 4.367719e-10 -2.159301e-09 -4.064597e-09 -1.272575e-08 3.558209e-09 6.943496e-09 -5.310472e-09 1.008330e-08 2.986367e-09 3.347434e-09 -2.397374e-09 4.237348e-04 2.566968e-03 -2.370497e-04 -1.752733e-03 1.521013e-04 1.364683e-03 -1.826758e-05 -2.956073e-03 -3.078121e-04 7.898221e-04 -1.167312e-03 -2.142503e-03 7.328536e-05
<VARIANCE> 25
 6.425375e+01 5.464735e+01 6.751440e+01 5.847112e+01 6.336512e+01 5.479220e+01 5.838044e+01 6.064297e+01 5.471418e+01 3.678755e+01 4.127589e+01 3.708737e+01 2.544317e+00 2.680323e+00 2.750474e+00 3.045642e+00 3.363681e+00 3.039879e+00 3.277550e+00 3.876794e+00 3.406813e+00 2.756114e+00 2.815221e+00 2.392728e+00 4.789593e+00
<GCONST> 1.082826e+02
<TRANSP> 5
 0.000000e+00 1.000000e+00 0.000000e+00 0.000000e+00 0.000000e+00
 0.000000e+00 6.000000e-01 4.000000e-01 0.000000e+00 0.000000e+00
 0.000000e+00 0.000000e+00 6.000000e-01 4.000000e-01 0.000000e+00
 0.000000e+00 0.000000e+00 0.000000e+00 7.000000e-01 3.000000e-01
 0.000000e+00 0.000000e+00 0.000000e+00 0.000000e+00 0.000000e+00
<ENDHMM>
~h "C"
<BEGINHMM>
<NUMSTATES> 5
<STATE> 2
<MEAN> 25
 -5.500240e-10 4.367719e-10 -2.159301e-09 -4.064597e-09 -1.272575e-08 3.558209e-09 6.943496e-09 -5.310472e-09 1.008330e-08 2.986367e-09 3.347434e-09 -2.397374e-09 4.237348e-04 2.566968e-03 -2.370497e-04 -1.752733e-03 1.521013e-04 1.364683e-03 -1.826758e-05 -2.956073e-03 -3.078121e-04 7.898221e-04 -1.167312e-03 -2.142503e-03 7.328536e-05
<VARIANCE> 25
 6.425375e+01 5.464735e+01 6.751440e+01 5.847112e+01 6.336512e+01 5.479220e+01 5.838044e+01 6.064297e+01 5.471418e+01 3.678755e+01 4.127589e+01 3.708737e+01 2.544317e+00 2.680323e+00 2.750474e+00 3.045642e+00 3.363681e+00 3.039879e+00 3.277550e+00 3.876794e+00 3.406813e+00 2.756114e+00 2.815221e+00 2.392728e+00 4.789593e+00
<GCONST> 1.082826e+02
<STATE> 3
<MEAN> 25
 -5.500240e-10 4.367719e-10 -2.159301e-09 -4.064597e-09 -1.272575e-08 3.558209e-09 6.943496e-09 -5.310472e-09 1.008330e-08 2.986367e-09 3.347434e-09 -2.397374e-09 4.237348e-04 2.566968e-03 -2.370497e-04 -1.752733e-03 1.521013e-04 1.364683e-03 -1.826758e-05 -2.956073e-03 -3.078121e-04 7.898221e-04 -1.167312e-03 -2.142503e-03 7.328536e-05
<VARIANCE> 25
 6.425375e+01 5.464735e+01 6.751440e+01 5.847112e+01 6.336512e+01 5.479220e+01 5.838044e+01 6.064297e+01 5.471418e+01 3.678755e+01 4.127589e+01 3.708737e+01 2.544317e+00 2.680323e+00 2.750474e+00 3.045642e+00 3.363681e+00 3.039879e+00 3.277550e+00 3.876794e+00 3.406813e+00 2.756114e+00 2.815221e+00 2.392728e+00 4.789593e+00
<GCONST> 1.082826e+02
<STATE> 4
<MEAN> 25
 -5.500240e-10 4.367719e-10 -2.159301e-09 -4.064597e-09 -1.272575e-08 3.558209e-09 6.943496e-09 -5.310472e-09 1.008330e-08 2.986367e-09 3.347434e-09 -2.397374e-09 4.237348e-04 2.566968e-03 -2.370497e-04 -1.752733e-03 1.521013e-04 1.364683e-03 -1.826758e-05 -2.956073e-03 -3.078121e-04 7.898221e-04 -1.167312e-03 -2.142503e-03 7.328536e-05
<VARIANCE> 25
 6.425375e+01 5.464735e+01 6.751440e+01 5.847112e+01 6.336512e+01 5.479220e+01 5.838044e+01 6.064297e+01 5.471418e+01 3.678755e+01 4.127589e+01 3.708737e+01 2.544317e+00 2.680323e+00 2.750474e+00 3.045642e+00 3.363681e+00 3.039879e+00 3.277550e+00 3.876794e+00 3.406813e+00 2.756114e+00 2.815221e+00 2.392728e+00 4.789593e+00
<GCONST> 1.082826e+02
<TRANSP> 5
 0.000000e+00 1.000000e+00 0.000000e+00 0.000000e+00 0.000000e+00
 0.000000e+00 6.000000e-01 4.000000e-01 0.000000e+00 0.000000e+00
 0.000000e+00 0.000000e+00 6.000000e-01 4.000000e-01 0.000000e+00
 0.000000e+00 0.000000e+00 0.000000e+00 7.000000e-01 3.000000e-01
 0.000000e+00 0.000000e+00 0.000000e+00 0.000000e+00 0.000000e+00
<ENDHMM>
~h "W"
<BEGINHMM>
<NUMSTATES> 5
<STATE> 2
<MEAN> 25
 -5.500240e-10 4.367719e-10 -2.159301e-09 -4.064597e-09 -1.272575e-08 3.558209e-09 6.943496e-09 -5.310472e-09 1.008330e-08 2.986367e-09 3.347434e-09 -2.397374e-09 4.237348e-04 2.566968e-03 -2.370497e-04 -1.752733e-03 1.521013e-04 1.364683e-03 -1.826758e-05 -2.956073e-03 -3.078121e-04 7.898221e-04 -1.167312e-03 -2.142503e-03 7.328536e-05
<VARIANCE> 25
 6.425375e+01 5.464735e+01 6.751440e+01 5.847112e+01 6.336512e+01 5.479220e+01 5.838044e+01 6.064297e+01 5.471418e+01 3.678755e+01 4.127589e+01 3.708737e+01 2.544317e+00 2.680323e+00 2.750474e+00 3.045642e+00 3.363681e+00 3.039879e+00 3.277550e+00 3.876794e+00 3.406813e+00 2.756114e+00 2.815221e+00 2.392728e+00 4.789593e+00
<GCONST> 1.082826e+02
<STATE> 3
<MEAN> 25
 -5.500240e-10 4.367719e-10 -2.159301e-09 -4.064597e-09 -1.272575e-08 3.558209e-09 6.943496e-09 -5.310472e-09 1.008330e-08 2.986367e-09 3.347434e-09 -2.397374e-09 4.237348e-04 2.566968e-03 -2.370497e-04 -1.752733e-03 1.521013e-04 1.364683e-03 -1.826758e-05 -2.956073e-03 -3.078121e-04 7.898221e-04 -1.167312e-03 -2.142503e-03 7.328536e-05
<VARIANCE> 25
 6.425375e+01 5.464735e+01 6.751440e+01 5.847112e+01 6.336512e+01 5.479220e+01 5.838044e+01 6.064297e+01 5.471418e+01 3.678755e+01 4.127589e+01 3.708737e+01 2.544317e+00 2.680323e+00 2.750474e+00 3.045642e+00 3.363681e+00 3.039879e+00 3.277550e+00 3.876794e+00 3.406813e+00 2.756114e+00 2.815221e+00 2.392728e+00 4.789593e+00
<GCONST> 1.082826e+02
<STATE> 4
<MEAN> 25
 -5.500240e-10 4.367719e-10 -2.159301e-09 -4.064597e-09 -1.272575e-08 3.558209e-09 6.943496e-09 -5.310472e-09 1.008330e-08 2.986367e-09 3.347434e-09 -2.397374e-09 4.237348e-04 2.566968e-03 -2.370497e-04 -1.752733e-03 1.521013e-04 1.364683e-03 -1.826758e-05 -2.956073e-03 -3.078121e-04 7.898221e-04 -1.167312e-03 -2.142503e-03 7.328536e-05
<VARIANCE> 25
 6.425375e+01 5.464735e+01 6.751440e+01 5.847112e+01 6.336512e+01 5.479220e+01 5.838044e+01 6.064297e+01 5.471418e+01 3.678755e+01 4.127589e+01 3.708737e+01 2.544317e+00 2.680323e+00 2.750474e+00 3.045642e+00 3.363681e+00 3.039879e+00 3.277550e+00 3.876794e+00 3.406813e+00 2.756114e+00 2.815221e+00 2.392728e+00 4.789593e+00
<GCONST> 1.082826e+02
<TRANSP> 5
 0.000000e+00 1.000000e+00 0.000000e+00 0.000000e+00 0.000000e+00
 0.000000e+00 6.000000e-01 4.000000e-01 0.000000e+00 0.000000e+00
 0.000000e+00 0.000000e+00 6.000000e-01 4.000000e-01 0.000000e+00
 0.000000e+00 0.000000e+00 0.000000e+00 7.000000e-01 3.000000e-01
 0.000000e+00 0.000000e+00 0.000000e+00 0.000000e+00 0.000000e+00
<ENDHMM>
~h "J"
<BEGINHMM>
<NUMSTATES> 5
<STATE> 2
<MEAN> 25
 -5.500240e-10 4.367719e-10 -2.159301e-09 -4.064597e-09 -1.272575e-08 3.558209e-09 6.943496e-09 -5.310472e-09 1.008330e-08 2.986367e-09 3.347434e-09 -2.397374e-09 4.237348e-04 2.566968e-03 -2.370497e-04 -1.752733e-03 1.521013e-04 1.364683e-03 -1.826758e-05 -2.956073e-03 -3.078121e-04 7.898221e-04 -1.167312e-03 -2.142503e-03 7.328536e-05
<VARIANCE> 25
 6.425375e+01 5.464735e+01 6.751440e+01 5.847112e+01 6.336512e+01 5.479220e+01 5.838044e+01 6.064297e+01 5.471418e+01 3.678755e+01 4.127589e+01 3.708737e+01 2.544317e+00 2.680323e+00 2.750474e+00 3.045642e+00 3.363681e+00 3.039879e+00 3.277550e+00 3.876794e+00 3.406813e+00 2.756114e+00 2.815221e+00 2.392728e+00 4.789593e+00
<GCONST> 1.082826e+02
<STATE> 3
<MEAN> 25
 -5.500240e-10 4.367719e-10 -2.159301e-09 -4.064597e-09 -1.272575e-08 3.558209e-09 6.943496e-09 -5.310472e-09 1.008330e-08 2.986367e-09 3.347434e-09 -2.397374e-09 4.237348e-04 2.566968e-03 -2.370497e-04 -1.752733e-03 1.521013e-04 1.364683e-03 -1.826758e-05 -2.956073e-03 -3.078121e-04 7.898221e-04 -1.167312e-03 -2.142503e-03 7.328536e-05
<VARIANCE> 25
 6.425375e+01 5.464735e+01 6.751440e+01 5.847112e+01 6.336512e+01 5.479220e+01 5.838044e+01 6.064297e+01 5.471418e+01 3.678755e+01 4.127589e+01 3.708737e+01 2.544317e+00 2.680323e+00 2.750474e+00 3.045642e+00 3.363681e+00 3.039879e+00 3.277550e+00 3.876794e+00 3.406813e+00 2.756114e+00 2.815221e+00 2.392728e+00 4.789593e+00
<GCONST> 1.082826e+02
<STATE> 4
<MEAN> 25
 -5.500240e-10 4.367719e-10 -2.159301e-09 -4.064597e-09 -1.272575e-08 3.558209e-09 6.943496e-09 -5.310472e-09 1.008330e-08 2.986367e-09 3.347434e-09 -2.397374e-09 4.237348e-04 2.566968e-03 -2.370497e-04 -1.752733e-03 1.521013e-04 1.364683e-03 -1.826758e-05 -2.956073e-03 -3.078121e-04 7.898221e-04 -1.167312e-03 -2.142503e-03 7.328536e-05
<VARIANCE> 25
 6.425375e+01 5.464735e+01 6.751440e+01 5.847112e+01 6.336512e+01 5.479220e+01 5.838044e+01 6.064297e+01 5.471418e+01 3.678755e+01 4.127589e+01 3.708737e+01 2.544317e+00 2.680323e+00 2.750474e+00 3.045642e+00 3.363681e+00 3.039879e+00 3.277550e+00 3.876794e+00 3.406813e+00 2.756114e+00 2.815221e+00 2.392728e+00 4.789593e+00
<GCONST> 1.082826e+02
<TRANSP> 5
 0.000000e+00 1.000000e+00 0.000000e+00 0.000000e+00 0.000000e+00
 0.000000e+00 6.000000e-01 4.000000e-01 0.000000e+00 0.000000e+00
 0.000000e+00 0.000000e+00 6.000000e-01 4.000000e-01 0.000000e+00
 0.000000e+00 0.000000e+00 0.000000e+00 7.000000e-01 3.000000e-01
 0.000000e+00 0.000000e+00 0.000000e+00 0.000000e+00 0.000000e+00
<ENDHMM>
~h "V"
<BEGINHMM>
<NUMSTATES> 5
<STATE> 2
<MEAN> 25
 -5.500240e-10 4.367719e-10 -2.159301e-09 -4.064597e-09 -1.272575e-08 3.558209e-09 6.943496e-09 -5.310472e-09 1.008330e-08 2.986367e-09 3.347434e-09 -2.397374e-09 4.237348e-04 2.566968e-03 -2.370497e-04 -1.752733e-03 1.521013e-04 1.364683e-03 -1.826758e-05 -2.956073e-03 -3.078121e-04 7.898221e-04 -1.167312e-03 -2.142503e-03 7.328536e-05
<VARIANCE> 25
 6.425375e+01 5.464735e+01 6.751440e+01 5.847112e+01 6.336512e+01 5.479220e+01 5.838044e+01 6.064297e+01 5.471418e+01 3.678755e+01 4.127589e+01 3.708737e+01 2.544317e+00 2.680323e+00 2.750474e+00 3.045642e+00 3.363681e+00 3.039879e+00 3.277550e+00 3.876794e+00 3.406813e+00 2.756114e+00 2.815221e+00 2.392728e+00 4.789593e+00
<GCONST> 1.082826e+02
<STATE> 3
<MEAN> 25
 -5.500240e-10 4.367719e-10 -2.159301e-09 -4.064597e-09 -1.272575e-08 3.558209e-09 6.943496e-09 -5.310472e-09 1.008330e-08 2.986367e-09 3.347434e-09 -2.397374e-09 4.237348e-04 2.566968e-03 -2.370497e-04 -1.752733e-03 1.521013e-04 1.364683e-03 -1.826758e-05 -2.956073e-03 -3.078121e-04 7.898221e-04 -1.167312e-03 -2.142503e-03 7.328536e-05
<VARIANCE> 25
 6.425375e+01 5.464735e+01 6.751440e+01 5.847112e+01 6.336512e+01 5.479220e+01 5.838044e+01 6.064297e+01 5.471418e+01 3.678755e+01 4.127589e+01 3.708737e+01 2.544317e+00 2.680323e+00 2.750474e+00 3.045642e+00 3.363681e+00 3.039879e+00 3.277550e+00 3.876794e+00 3.406813e+00 2.756114e+00 2.815221e+00 2.392728e+00 4.789593e+00
<GCONST> 1.082826e+02
<STATE> 4
<MEAN> 25
 -5.500240e-10 4.367719e-10 -2.159301e-09 -4.064597e-09 -1.272575e-08 3.558209e-09 6.943496e-09 -5.310472e-09 1.008330e-08 2.986367e-09 3.347434e-09 -2.397374e-09 4.237348e-04 2.566968e-03 -2.370497e-04 -1.752733e-03 1.521013e-04 1.364683e-03 -1.826758e-05 -2.956073e-03 -3.078121e-04 7.898221e-04 -1.167312e-03 -2.142503e-03 7.328536e-05
<VARIANCE> 25
 6.425375e+01 5.464735e+01 6.751440e+01 5.847112e+01 6.336512e+01 5.479220e+01 5.838044e+01 6.064297e+01 5.471418e+01 3.678755e+01 4.127589e+01 3.708737e+01 2.544317e+00 2.680323e+00 2.750474e+00 3.045642e+00 3.363681e+00 3.039879e+00 3.277550e+00 3.876794e+00 3.406813e+00 2.756114e+00 2.815221e+00 2.392728e+00 4.789593e+00
<GCONST> 1.082826e+02
<TRANSP> 5
 0.000000e+00 1.000000e+00 0.000000e+00 0.000000e+00 0.000000e+00
 0.000000e+00 6.000000e-01 4.000000e-01 0.000000e+00 0.000000e+00
 0.000000e+00 0.000000e+00 6.000000e-01 4.000000e-01 0.000000e+00
 0.000000e+00 0.000000e+00 0.000000e+00 7.000000e-01 3.000000e-01
 0.000000e+00 0.000000e+00 0.000000e+00 0.000000e+00 0.000000e+00
<ENDHMM>
~h "F"
<BEGINHMM>
<NUMSTATES> 5
<STATE> 2
<MEAN> 25
 -5.500240e-10 4.367719e-10 -2.159301e-09 -4.064597e-09 -1.272575e-08 3.558209e-09 6.943496e-09 -5.310472e-09 1.008330e-08 2.986367e-09 3.347434e-09 -2.397374e-09 4.237348e-04 2.566968e-03 -2.370497e-04 -1.752733e-03 1.521013e-04 1.364683e-03 -1.826758e-05 -2.956073e-03 -3.078121e-04 7.898221e-04 -1.167312e-03 -2.142503e-03 7.328536e-05
<VARIANCE> 25
 6.425375e+01 5.464735e+01 6.751440e+01 5.847112e+01 6.336512e+01 5.479220e+01 5.838044e+01 6.064297e+01 5.471418e+01 3.678755e+01 4.127589e+01 3.708737e+01 2.544317e+00 2.680323e+00 2.750474e+00 3.045642e+00 3.363681e+00 3.039879e+00 3.277550e+00 3.876794e+00 3.406813e+00 2.756114e+00 2.815221e+00 2.392728e+00 4.789593e+00
<GCONST> 1.082826e+02
<STATE> 3
<MEAN> 25
 -5.500240e-10 4.367719e-10 -2.159301e-09 -4.064597e-09 -1.272575e-08 3.558209e-09 6.943496e-09 -5.310472e-09 1.008330e-08 2.986367e-09 3.347434e-09 -2.397374e-09 4.237348e-04 2.566968e-03 -2.370497e-04 -1.752733e-03 1.521013e-04 1.364683e-03 -1.826758e-05 -2.956073e-03 -3.078121e-04 7.898221e-04 -1.167312e-03 -2.142503e-03 7.328536e-05
<VARIANCE> 25
 6.425375e+01 5.464735e+01 6.751440e+01 5.847112e+01 6.336512e+01 5.479220e+01 5.838044e+01 6.064297e+01 5.471418e+01 3.678755e+01 4.127589e+01 3.708737e+01 2.544317e+00 2.680323e+00 2.750474e+00 3.045642e+00 3.363681e+00 3.039879e+00 3.277550e+00 3.876794e+00 3.406813e+00 2.756114e+00 2.815221e+00 2.392728e+00 4.789593e+00
<GCONST> 1.082826e+02
<STATE> 4
<MEAN> 25
 -5.500240e-10 4.367719e-10 -2.159301e-09 -4.064597e-09 -1.272575e-08 3.558209e-09 6.943496e-09 -5.310472e-09 1.008330e-08 2.986367e-09 3.347434e-09 -2.397374e-09 4.237348e-04 2.566968e-03 -2.370497e-04 -1.752733e-03 1.521013e-04 1.364683e-03 -1.826758e-05 -2.956073e-03 -3.078121e-04 7.898221e-04 -1.167312e-03 -2.142503e-03 7.328536e-05
<VARIANCE> 25
 6.425375e+01 5.464735e+01 6.751440e+01 5.847112e+01 6.336512e+01 5.479220e+01 5.838044e+01 6.064297e+01 5.471418e+01 3.678755e+01 4.127589e+01 3.708737e+01 2.544317e+00 2.680323e+00 2.750474e+00 3.045642e+00 3.363681e+00 3.039879e+00 3.277550e+00 3.876794e+00 3.406813e+00 2.756114e+00 2.815221e+00 2.392728e+00 4.789593e+00
<GCONST> 1.082826e+02
<TRANSP> 5
 0.000000e+00 1.000000e+00 0.000000e+00 0.000000e+00 0.000000e+00
 0.000000e+00 6.000000e-01 4.000000e-01 0.000000e+00 0.000000e+00
 0.000000e+00 0.000000e+00 6.000000e-01 4.000000e-01 0.000000e+00
 0.000000e+00 0.000000e+00 0.000000e+00 7.000000e-01 3.000000e-01
 0.000000e+00 0.000000e+00 0.000000e+00 0.000000e+00 0.000000e+00
<ENDHMM>
~h "Q"
<BEGINHMM>
<NUMSTATES> 5
<STATE> 2
<MEAN> 25
 -5.500240e-10 4.367719e-10 -2.159301e-09 -4.064597e-09 -1.272575e-08 3.558209e-09 6.943496e-09 -5.310472e-09 1.008330e-08 2.986367e-09 3.347434e-09 -2.397374e-09 4.237348e-04 2.566968e-03 -2.370497e-04 -1.752733e-03 1.521013e-04 1.364683e-03 -1.826758e-05 -2.956073e-03 -3.078121e-04 7.898221e-04 -1.167312e-03 -2.142503e-03 7.328536e-05
<VARIANCE> 25
 6.425375e+01 5.464735e+01 6.751440e+01 5.847112e+01 6.336512e+01 5.479220e+01 5.838044e+01 6.064297e+01 5.471418e+01 3.678755e+01 4.127589e+01 3.708737e+01 2.544317e+00 2.680323e+00 2.750474e+00 3.045642e+00 3.363681e+00 3.039879e+00 3.277550e+00 3.876794e+00 3.406813e+00 2.756114e+00 2.815221e+00 2.392728e+00 4.789593e+00
<GCONST> 1.082826e+02
<STATE> 3
<MEAN> 25
 -5.500240e-10 4.367719e-10 -2.159301e-09 -4.064597e-09 -1.272575e-08 3.558209e-09 6.943496e-09 -5.310472e-09 1.008330e-08 2.986367e-09 3.347434e-09 -2.397374e-09 4.237348e-04 2.566968e-03 -2.370497e-04 -1.752733e-03 1.521013e-04 1.364683e-03 -1.826758e-05 -2.956073e-03 -3.078121e-04 7.898221e-04 -1.167312e-03 -2.142503e-03 7.328536e-05
<VARIANCE> 25
 6.425375e+01 5.464735e+01 6.751440e+01 5.847112e+01 6.336512e+01 5.479220e+01 5.838044e+01 6.064297e+01 5.471418e+01 3.678755e+01 4.127589e+01 3.708737e+01 2.544317e+00 2.680323e+00 2.750474e+00 3.045642e+00 3.363681e+00 3.039879e+00 3.277550e+00 3.876794e+00 3.406813e+00 2.756114e+00 2.815221e+00 2.392728e+00 4.789593e+00
<GCONST> 1.082826e+02
<STATE> 4
<MEAN> 25
 -5.500240e-10 4.367719e-10 -2.159301e-09 -4.064597e-09 -1.272575e-08 3.558209e-09 6.943496e-09 -5.310472e-09 1.008330e-08 2.986367e-09 3.347434e-09 -2.397374e-09 4.237348e-04 2.566968e-03 -2.370497e-04 -1.752733e-03 1.521013e-04 1.364683e-03 -1.826758e-05 -2.956073e-03 -3.078121e-04 7.898221e-04 -1.167312e-03 -2.142503e-03 7.328536e-05
<VARIANCE> 25
 6.425375e+01 5.464735e+01 6.751440e+01 5.847112e+01 6.336512e+01 5.479220e+01 5.838044e+01 6.064297e+01 5.471418e+01 3.678755e+01 4.127589e+01 3.708737e+01 2.544317e+00 2.680323e+00 2.750474e+00 3.045642e+00 3.363681e+00 3.039879e+00 3.277550e+00 3.876794e+00 3.406813e+00 2.756114e+00 2.815221e+00 2.392728e+00 4.789593e+00
<GCONST> 1.082826e+02
<TRANSP> 5
 0.000000e+00 1.000000e+00 0.000000e+00 0.000000e+00 0.000000e+00
 0.000000e+00 6.000000e-01 4.000000e-01 0.000000e+00 0.000000e+00
 0.000000e+00 0.000000e+00 6.000000e-01 4.000000e-01 0.000000e+00
 0.000000e+00 0.000000e+00 0.000000e+00 7.000000e-01 3.000000e-01
 0.000000e+00 0.000000e+00 0.000000e+00 0.000000e+00 0.000000e+00
<ENDHMM>
~h "SY"
<BEGINHMM>
<NUMSTATES> 5
<STATE> 2
<MEAN> 25
 -5.500240e-10 4.367719e-10 -2.159301e-09 -4.064597e-09 -1.272575e-08 3.558209e-09 6.943496e-09 -5.310472e-09 1.008330e-08 2.986367e-09 3.347434e-09 -2.397374e-09 4.237348e-04 2.566968e-03 -2.370497e-04 -1.752733e-03 1.521013e-04 1.364683e-03 -1.826758e-05 -2.956073e-03 -3.078121e-04 7.898221e-04 -1.167312e-03 -2.142503e-03 7.328536e-05
<VARIANCE> 25
 6.425375e+01 5.464735e+01 6.751440e+01 5.847112e+01 6.336512e+01 5.479220e+01 5.838044e+01 6.064297e+01 5.471418e+01 3.678755e+01 4.127589e+01 3.708737e+01 2.544317e+00 2.680323e+00 2.750474e+00 3.045642e+00 3.363681e+00 3.039879e+00 3.277550e+00 3.876794e+00 3.406813e+00 2.756114e+00 2.815221e+00 2.392728e+00 4.789593e+00
<GCONST> 1.082826e+02
<STATE> 3
<MEAN> 25
 -5.500240e-10 4.367719e-10 -2.159301e-09 -4.064597e-09 -1.272575e-08 3.558209e-09 6.943496e-09 -5.310472e-09 1.008330e-08 2.986367e-09 3.347434e-09 -2.397374e-09 4.237348e-04 2.566968e-03 -2.370497e-04 -1.752733e-03 1.521013e-04 1.364683e-03 -1.826758e-05 -2.956073e-03 -3.078121e-04 7.898221e-04 -1.167312e-03 -2.142503e-03 7.328536e-05
<VARIANCE> 25
 6.425375e+01 5.464735e+01 6.751440e+01 5.847112e+01 6.336512e+01 5.479220e+01 5.838044e+01 6.064297e+01 5.471418e+01 3.678755e+01 4.127589e+01 3.708737e+01 2.544317e+00 2.680323e+00 2.750474e+00 3.045642e+00 3.363681e+00 3.039879e+00 3.277550e+00 3.876794e+00 3.406813e+00 2.756114e+00 2.815221e+00 2.392728e+00 4.789593e+00
<GCONST> 1.082826e+02
<STATE> 4
<MEAN> 25
 -5.500240e-10 4.367719e-10 -2.159301e-09 -4.064597e-09 -1.272575e-08 3.558209e-09 6.943496e-09 -5.310472e-09 1.008330e-08 2.986367e-09 3.347434e-09 -2.397374e-09 4.237348e-04 2.566968e-03 -2.370497e-04 -1.752733e-03 1.521013e-04 1.364683e-03 -1.826758e-05 -2.956073e-03 -3.078121e-04 7.898221e-04 -1.167312e-03 -2.142503e-03 7.328536e-05
<VARIANCE> 25
 6.425375e+01 5.464735e+01 6.751440e+01 5.847112e+01 6.336512e+01 5.479220e+01 5.838044e+01 6.064297e+01 5.471418e+01 3.678755e+01 4.127589e+01 3.708737e+01 2.544317e+00 2.680323e+00 2.750474e+00 3.045642e+00 3.363681e+00 3.039879e+00 3.277550e+00 3.876794e+00 3.406813e+00 2.756114e+00 2.815221e+00 2.392728e+00 4.789593e+00
<GCONST> 1.082826e+02
<TRANSP> 5
 0.000000e+00 1.000000e+00 0.000000e+00 0.000000e+00 0.000000e+00
 0.000000e+00 6.000000e-01 4.000000e-01 0.000000e+00 0.000000e+00
 0.000000e+00 0.000000e+00 6.000000e-01 4.000000e-01 0.000000e+00
 0.000000e+00 0.000000e+00 0.000000e+00 7.000000e-01 3.000000e-01
 0.000000e+00 0.000000e+00 0.000000e+00 0.000000e+00 0.000000e+00
<ENDHMM>
~h "X"
<BEGINHMM>
<NUMSTATES> 5
<STATE> 2
<MEAN> 25
 -5.500240e-10 4.367719e-10 -2.159301e-09 -4.064597e-09 -1.272575e-08 3.558209e-09 6.943496e-09 -5.310472e-09 1.008330e-08 2.986367e-09 3.347434e-09 -2.397374e-09 4.237348e-04 2.566968e-03 -2.370497e-04 -1.752733e-03 1.521013e-04 1.364683e-03 -1.826758e-05 -2.956073e-03 -3.078121e-04 7.898221e-04 -1.167312e-03 -2.142503e-03 7.328536e-05
<VARIANCE> 25
 6.425375e+01 5.464735e+01 6.751440e+01 5.847112e+01 6.336512e+01 5.479220e+01 5.838044e+01 6.064297e+01 5.471418e+01 3.678755e+01 4.127589e+01 3.708737e+01 2.544317e+00 2.680323e+00 2.750474e+00 3.045642e+00 3.363681e+00 3.039879e+00 3.277550e+00 3.876794e+00 3.406813e+00 2.756114e+00 2.815221e+00 2.392728e+00 4.789593e+00
<GCONST> 1.082826e+02
<STATE> 3
<MEAN> 25
 -5.500240e-10 4.367719e-10 -2.159301e-09 -4.064597e-09 -1.272575e-08 3.558209e-09 6.943496e-09 -5.310472e-09 1.008330e-08 2.986367e-09 3.347434e-09 -2.397374e-09 4.237348e-04 2.566968e-03 -2.370497e-04 -1.752733e-03 1.521013e-04 1.364683e-03 -1.826758e-05 -2.956073e-03 -3.078121e-04 7.898221e-04 -1.167312e-03 -2.142503e-03 7.328536e-05
<VARIANCE> 25
 6.425375e+01 5.464735e+01 6.751440e+01 5.847112e+01 6.336512e+01 5.479220e+01 5.838044e+01 6.064297e+01 5.471418e+01 3.678755e+01 4.127589e+01 3.708737e+01 2.544317e+00 2.680323e+00 2.750474e+00 3.045642e+00 3.363681e+00 3.039879e+00 3.277550e+00 3.876794e+00 3.406813e+00 2.756114e+00 2.815221e+00 2.392728e+00 4.789593e+00
<GCONST> 1.082826e+02
<STATE> 4
<MEAN> 25
 -5.500240e-10 4.367719e-10 -2.159301e-09 -4.064597e-09 -1.272575e-08 3.558209e-09 6.943496e-09 -5.310472e-09 1.008330e-08 2.986367e-09 3.347434e-09 -2.397374e-09 4.237348e-04 2.566968e-03 -2.370497e-04 -1.752733e-03 1.521013e-04 1.364683e-03 -1.826758e-05 -2.956073e-03 -3.078121e-04 7.898221e-04 -1.167312e-03 -2.142503e-03 7.328536e-05
<VARIANCE> 25
 6.425375e+01 5.464735e+01 6.751440e+01 5.847112e+01 6.336512e+01 5.479220e+01 5.838044e+01 6.064297e+01 5.471418e+01 3.678755e+01 4.127589e+01 3.708737e+01 2.544317e+00 2.680323e+00 2.750474e+00 3.045642e+00 3.363681e+00 3.039879e+00 3.277550e+00 3.876794e+00 3.406813e+00 2.756114e+00 2.815221e+00 2.392728e+00 4.789593e+00
<GCONST> 1.082826e+02
<TRANSP> 5
 0.000000e+00 1.000000e+00 0.000000e+00 0.000000e+00 0.000000e+00
 0.000000e+00 6.000000e-01 4.000000e-01 0.000000e+00 0.000000e+00
 0.000000e+00 0.000000e+00 6.000000e-01 4.000000e-01 0.000000e+00
 0.000000e+00 0.000000e+00 0.000000e+00 7.000000e-01 3.000000e-01
 0.000000e+00 0.000000e+00 0.000000e+00 0.000000e+00 0.000000e+00
<ENDHMM>
~h "AU"
<BEGINHMM>
<NUMSTATES> 5
<STATE> 2
<MEAN> 25
 -5.500240e-10 4.367719e-10 -2.159301e-09 -4.064597e-09 -1.272575e-08 3.558209e-09 6.943496e-09 -5.310472e-09 1.008330e-08 2.986367e-09 3.347434e-09 -2.397374e-09 4.237348e-04 2.566968e-03 -2.370497e-04 -1.752733e-03 1.521013e-04 1.364683e-03 -1.826758e-05 -2.956073e-03 -3.078121e-04 7.898221e-04 -1.167312e-03 -2.142503e-03 7.328536e-05
<VARIANCE> 25
 6.425375e+01 5.464735e+01 6.751440e+01 5.847112e+01 6.336512e+01 5.479220e+01 5.838044e+01 6.064297e+01 5.471418e+01 3.678755e+01 4.127589e+01 3.708737e+01 2.544317e+00 2.680323e+00 2.750474e+00 3.045642e+00 3.363681e+00 3.039879e+00 3.277550e+00 3.876794e+00 3.406813e+00 2.756114e+00 2.815221e+00 2.392728e+00 4.789593e+00
<GCONST> 1.082826e+02
<STATE> 3
<MEAN> 25
 -5.500240e-10 4.367719e-10 -2.159301e-09 -4.064597e-09 -1.272575e-08 3.558209e-09 6.943496e-09 -5.310472e-09 1.008330e-08 2.986367e-09 3.347434e-09 -2.397374e-09 4.237348e-04 2.566968e-03 -2.370497e-04 -1.752733e-03 1.521013e-04 1.364683e-03 -1.826758e-05 -2.956073e-03 -3.078121e-04 7.898221e-04 -1.167312e-03 -2.142503e-03 7.328536e-05
<VARIANCE> 25
 6.425375e+01 5.464735e+01 6.751440e+01 5.847112e+01 6.336512e+01 5.479220e+01 5.838044e+01 6.064297e+01 5.471418e+01 3.678755e+01 4.127589e+01 3.708737e+01 2.544317e+00 2.680323e+00 2.750474e+00 3.045642e+00 3.363681e+00 3.039879e+00 3.277550e+00 3.876794e+00 3.406813e+00 2.756114e+00 2.815221e+00 2.392728e+00 4.789593e+00
<GCONST> 1.082826e+02
<STATE> 4
<MEAN> 25
 -5.500240e-10 4.367719e-10 -2.159301e-09 -4.064597e-09 -1.272575e-08 3.558209e-09 6.943496e-09 -5.310472e-09 1.008330e-08 2.986367e-09 3.347434e-09 -2.397374e-09 4.237348e-04 2.566968e-03 -2.370497e-04 -1.752733e-03 1.521013e-04 1.364683e-03 -1.826758e-05 -2.956073e-03 -3.078121e-04 7.898221e-04 -1.167312e-03 -2.142503e-03 7.328536e-05
<VARIANCE> 25
 6.425375e+01 5.464735e+01 6.751440e+01 5.847112e+01 6.336512e+01 5.479220e+01 5.838044e+01 6.064297e+01 5.471418e+01 3.678755e+01 4.127589e+01 3.708737e+01 2.544317e+00 2.680323e+00 2.750474e+00 3.045642e+00 3.363681e+00 3.039879e+00 3.277550e+00 3.876794e+00 3.406813e+00 2.756114e+00 2.815221e+00 2.392728e+00 4.789593e+00
<GCONST> 1.082826e+02
<TRANSP> 5
 0.000000e+00 1.000000e+00 0.000000e+00 0.000000e+00 0.000000e+00
 0.000000e+00 6.000000e-01 4.000000e-01 0.000000e+00 0.000000e+00
 0.000000e+00 0.000000e+00 6.000000e-01 4.000000e-01 0.000000e+00
 0.000000e+00 0.000000e+00 0.000000e+00 7.000000e-01 3.000000e-01
 0.000000e+00 0.000000e+00 0.000000e+00 0.000000e+00 0.000000e+00
<ENDHMM>
~h "OI"
<BEGINHMM>
<NUMSTATES> 5
<STATE> 2
<MEAN> 25
 -5.500240e-10 4.367719e-10 -2.159301e-09 -4.064597e-09 -1.272575e-08 3.558209e-09 6.943496e-09 -5.310472e-09 1.008330e-08 2.986367e-09 3.347434e-09 -2.397374e-09 4.237348e-04 2.566968e-03 -2.370497e-04 -1.752733e-03 1.521013e-04 1.364683e-03 -1.826758e-05 -2.956073e-03 -3.078121e-04 7.898221e-04 -1.167312e-03 -2.142503e-03 7.328536e-05
<VARIANCE> 25
 6.425375e+01 5.464735e+01 6.751440e+01 5.847112e+01 6.336512e+01 5.479220e+01 5.838044e+01 6.064297e+01 5.471418e+01 3.678755e+01 4.127589e+01 3.708737e+01 2.544317e+00 2.680323e+00 2.750474e+00 3.045642e+00 3.363681e+00 3.039879e+00 3.277550e+00 3.876794e+00 3.406813e+00 2.756114e+00 2.815221e+00 2.392728e+00 4.789593e+00
<GCONST> 1.082826e+02
<STATE> 3
<MEAN> 25
 -5.500240e-10 4.367719e-10 -2.159301e-09 -4.064597e-09 -1.272575e-08 3.558209e-09 6.943496e-09 -5.310472e-09 1.008330e-08 2.986367e-09 3.347434e-09 -2.397374e-09 4.237348e-04 2.566968e-03 -2.370497e-04 -1.752733e-03 1.521013e-04 1.364683e-03 -1.826758e-05 -2.956073e-03 -3.078121e-04 7.898221e-04 -1.167312e-03 -2.142503e-03 7.328536e-05
<VARIANCE> 25
 6.425375e+01 5.464735e+01 6.751440e+01 5.847112e+01 6.336512e+01 5.479220e+01 5.838044e+01 6.064297e+01 5.471418e+01 3.678755e+01 4.127589e+01 3.708737e+01 2.544317e+00 2.680323e+00 2.750474e+00 3.045642e+00 3.363681e+00 3.039879e+00 3.277550e+00 3.876794e+00 3.406813e+00 2.756114e+00 2.815221e+00 2.392728e+00 4.789593e+00
<GCONST> 1.082826e+02
<STATE> 4
<MEAN> 25
 -5.500240e-10 4.367719e-10 -2.159301e-09 -4.064597e-09 -1.272575e-08 3.558209e-09 6.943496e-09 -5.310472e-09 1.008330e-08 2.986367e-09 3.347434e-09 -2.397374e-09 4.237348e-04 2.566968e-03 -2.370497e-04 -1.752733e-03 1.521013e-04 1.364683e-03 -1.826758e-05 -2.956073e-03 -3.078121e-04 7.898221e-04 -1.167312e-03 -2.142503e-03 7.328536e-05
<VARIANCE> 25
 6.425375e+01 5.464735e+01 6.751440e+01 5.847112e+01 6.336512e+01 5.479220e+01 5.838044e+01 6.064297e+01 5.471418e+01 3.678755e+01 4.127589e+01 3.708737e+01 2.544317e+00 2.680323e+00 2.750474e+00 3.045642e+00 3.363681e+00 3.039879e+00 3.277550e+00 3.876794e+00 3.406813e+00 2.756114e+00 2.815221e+00 2.392728e+00 4.789593e+00
<GCONST> 1.082826e+02
<TRANSP> 5
 0.000000e+00 1.000000e+00 0.000000e+00 0.000000e+00 0.000000e+00
 0.000000e+00 6.000000e-01 4.000000e-01 0.000000e+00 0.000000e+00
 0.000000e+00 0.000000e+00 6.000000e-01 4.000000e-01 0.000000e+00
 0.000000e+00 0.000000e+00 0.000000e+00 7.000000e-01 3.000000e-01
 0.000000e+00 0.000000e+00 0.000000e+00 0.000000e+00 0.000000e+00
<ENDHMM>
~h "sil"
<BEGINHMM>
<NUMSTATES> 5
<STATE> 2
<MEAN> 25
 -5.500240e-10 4.367719e-10 -2.159301e-09 -4.064597e-09 -1.272575e-08 3.558209e-09 6.943496e-09 -5.310472e-09 1.008330e-08 2.986367e-09 3.347434e-09 -2.397374e-09 4.237348e-04 2.566968e-03 -2.370497e-04 -1.752733e-03 1.521013e-04 1.364683e-03 -1.826758e-05 -2.956073e-03 -3.078121e-04 7.898221e-04 -1.167312e-03 -2.142503e-03 7.328536e-05
<VARIANCE> 25
 6.425375e+01 5.464735e+01 6.751440e+01 5.847112e+01 6.336512e+01 5.479220e+01 5.838044e+01 6.064297e+01 5.471418e+01 3.678755e+01 4.127589e+01 3.708737e+01 2.544317e+00 2.680323e+00 2.750474e+00 3.045642e+00 3.363681e+00 3.039879e+00 3.277550e+00 3.876794e+00 3.406813e+00 2.756114e+00 2.815221e+00 2.392728e+00 4.789593e+00
<GCONST> 1.082826e+02
<STATE> 3
<MEAN> 25
 -5.500240e-10 4.367719e-10 -2.159301e-09 -4.064597e-09 -1.272575e-08 3.558209e-09 6.943496e-09 -5.310472e-09 1.008330e-08 2.986367e-09 3.347434e-09 -2.397374e-09 4.237348e-04 2.566968e-03 -2.370497e-04 -1.752733e-03 1.521013e-04 1.364683e-03 -1.826758e-05 -2.956073e-03 -3.078121e-04 7.898221e-04 -1.167312e-03 -2.142503e-03 7.328536e-05
<VARIANCE> 25
 6.425375e+01 5.464735e+01 6.751440e+01 5.847112e+01 6.336512e+01 5.479220e+01 5.838044e+01 6.064297e+01 5.471418e+01 3.678755e+01 4.127589e+01 3.708737e+01 2.544317e+00 2.680323e+00 2.750474e+00 3.045642e+00 3.363681e+00 3.039879e+00 3.277550e+00 3.876794e+00 3.406813e+00 2.756114e+00 2.815221e+00 2.392728e+00 4.789593e+00
<GCONST> 1.082826e+02
<STATE> 4
<MEAN> 25
 -5.500240e-10 4.367719e-10 -2.159301e-09 -4.064597e-09 -1.272575e-08 3.558209e-09 6.943496e-09 -5.310472e-09 1.008330e-08 2.986367e-09 3.347434e-09 -2.397374e-09 4.237348e-04 2.566968e-03 -2.370497e-04 -1.752733e-03 1.521013e-04 1.364683e-03 -1.826758e-05 -2.956073e-03 -3.078121e-04 7.898221e-04 -1.167312e-03 -2.142503e-03 7.328536e-05
<VARIANCE> 25
 6.425375e+01 5.464735e+01 6.751440e+01 5.847112e+01 6.336512e+01 5.479220e+01 5.838044e+01 6.064297e+01 5.471418e+01 3.678755e+01 4.127589e+01 3.708737e+01 2.544317e+00 2.680323e+00 2.750474e+00 3.045642e+00 3.363681e+00 3.039879e+00 3.277550e+00 3.876794e+00 3.406813e+00 2.756114e+00 2.815221e+00 2.392728e+00 4.789593e+00
<GCONST> 1.082826e+02
<TRANSP> 5
 0.000000e+00 1.000000e+00 0.000000e+00 0.000000e+00 0.000000e+00
 0.000000e+00 6.000000e-01 4.000000e-01 0.000000e+00 0.000000e+00
 0.000000e+00 0.000000e+00 6.000000e-01 4.000000e-01 0.000000e+00
 0.000000e+00 0.000000e+00 0.000000e+00 7.000000e-01 3.000000e-01
 0.000000e+00 0.000000e+00 0.000000e+00 0.000000e+00 0.000000e+00
<ENDHMM>
