~h "A"
<BEGINHMM>
<NUMSTATES> 5
<STATE> 2
<MEAN> 25
 -1.400684e-08 1.340949e-09 -5.880224e-09 -5.850504e-09 -8.629606e-09 9.788849e-10 1.603528e-09 -2.089255e-09 -1.431287e-09 1.124078e-09 6.218134e-09 1.751836e-10 6.873771e-04 2.279059e-03 -1.340097e-04 -1.498200e-03 1.847303e-04 1.120826e-03 -1.722512e-04 -2.740095e-03 -4.268390e-04 6.764302e-04 -1.223392e-03 -2.049843e-03 2.799437e-04
<VARIANCE> 25
 6.265284e+01 5.740559e+01 6.585151e+01 5.762260e+01 6.466252e+01 5.597293e+01 5.960957e+01 6.186906e+01 5.337073e+01 3.722601e+01 4.200803e+01 3.944658e+01 2.509136e+00 2.716836e+00 2.703731e+00 3.014234e+00 3.344649e+00 3.090596e+00 3.260105e+00 3.926405e+00 3.375312e+00 2.769264e+00 2.873168e+00 2.434404e+00 4.852659e+00
<GCONST> 1.084523e+02
<STATE> 3
<MEAN> 25
 -1.400684e-08 1.340949e-09 -5.880224e-09 -5.850504e-09 -8.629606e-09 9.788849e-10 1.603528e-09 -2.089255e-09 -1.431287e-09 1.124078e-09 6.218134e-09 1.751836e-10 6.873771e-04 2.279059e-03 -1.340097e-04 -1.498200e-03 1.847303e-04 1.120826e-03 -1.722512e-04 -2.740095e-03 -4.268390e-04 6.764302e-04 -1.223392e-03 -2.049843e-03 2.799437e-04
<VARIANCE> 25
 6.265284e+01 5.740559e+01 6.585151e+01 5.762260e+01 6.466252e+01 5.597293e+01 5.960957e+01 6.186906e+01 5.337073e+01 3.722601e+01 4.200803e+01 3.944658e+01 2.509136e+00 2.716836e+00 2.703731e+00 3.014234e+00 3.344649e+00 3.090596e+00 3.260105e+00 3.926405e+00 3.375312e+00 2.769264e+00 2.873168e+00 2.434404e+00 4.852659e+00
<GCONST> 1.084523e+02
<STATE> 4
<MEAN> 25
 -1.400684e-08 1.340949e-09 -5.880224e-09 -5.850504e-09 -8.629606e-09 9.788849e-10 1.603528e-09 -2.089255e-09 -1.431287e-09 1.124078e-09 6.218134e-09 1.751836e-10 6.873771e-04 2.279059e-03 -1.340097e-04 -1.498200e-03 1.847303e-04 1.120826e-03 -1.722512e-04 -2.740095e-03 -4.268390e-04 6.764302e-04 -1.223392e-03 -2.049843e-03 2.799437e-04
<VARIANCE> 25
 6.265284e+01 5.740559e+01 6.585151e+01 5.762260e+01 6.466252e+01 5.597293e+01 5.960957e+01 6.186906e+01 5.337073e+01 3.722601e+01 4.200803e+01 3.944658e+01 2.509136e+00 2.716836e+00 2.703731e+00 3.014234e+00 3.344649e+00 3.090596e+00 3.260105e+00 3.926405e+00 3.375312e+00 2.769264e+00 2.873168e+00 2.434404e+00 4.852659e+00
<GCONST> 1.084523e+02
<TRANSP> 5
 0.000000e+00 1.000000e+00 0.000000e+00 0.000000e+00 0.000000e+00
 0.000000e+00 6.000000e-01 4.000000e-01 0.000000e+00 0.000000e+00
 0.000000e+00 0.000000e+00 6.000000e-01 4.000000e-01 0.000000e+00
 0.000000e+00 0.000000e+00 0.000000e+00 7.000000e-01 3.000000e-01
 0.000000e+00 0.000000e+00 0.000000e+00 0.000000e+00 0.000000e+00
<ENDHMM>
~h "B"
<BEGINHMM>
<NUMSTATES> 5
<STATE> 2
<MEAN> 25
 -1.400684e-08 1.340949e-09 -5.880224e-09 -5.850504e-09 -8.629606e-09 9.788849e-10 1.603528e-09 -2.089255e-09 -1.431287e-09 1.124078e-09 6.218134e-09 1.751836e-10 6.873771e-04 2.279059e-03 -1.340097e-04 -1.498200e-03 1.847303e-04 1.120826e-03 -1.722512e-04 -2.740095e-03 -4.268390e-04 6.764302e-04 -1.223392e-03 -2.049843e-03 2.799437e-04
<VARIANCE> 25
 6.265284e+01 5.740559e+01 6.585151e+01 5.762260e+01 6.466252e+01 5.597293e+01 5.960957e+01 6.186906e+01 5.337073e+01 3.722601e+01 4.200803e+01 3.944658e+01 2.509136e+00 2.716836e+00 2.703731e+00 3.014234e+00 3.344649e+00 3.090596e+00 3.260105e+00 3.926405e+00 3.375312e+00 2.769264e+00 2.873168e+00 2.434404e+00 4.852659e+00
<GCONST> 1.084523e+02
<STATE> 3
<MEAN> 25
 -1.400684e-08 1.340949e-09 -5.880224e-09 -5.850504e-09 -8.629606e-09 9.788849e-10 1.603528e-09 -2.089255e-09 -1.431287e-09 1.124078e-09 6.218134e-09 1.751836e-10 6.873771e-04 2.279059e-03 -1.340097e-04 -1.498200e-03 1.847303e-04 1.120826e-03 -1.722512e-04 -2.740095e-03 -4.268390e-04 6.764302e-04 -1.223392e-03 -2.049843e-03 2.799437e-04
<VARIANCE> 25
 6.265284e+01 5.740559e+01 6.585151e+01 5.762260e+01 6.466252e+01 5.597293e+01 5.960957e+01 6.186906e+01 5.337073e+01 3.722601e+01 4.200803e+01 3.944658e+01 2.509136e+00 2.716836e+00 2.703731e+00 3.014234e+00 3.344649e+00 3.090596e+00 3.260105e+00 3.926405e+00 3.375312e+00 2.769264e+00 2.873168e+00 2.434404e+00 4.852659e+00
<GCONST> 1.084523e+02
<STATE> 4
<MEAN> 25
 -1.400684e-08 1.340949e-09 -5.880224e-09 -5.850504e-09 -8.629606e-09 9.788849e-10 1.603528e-09 -2.089255e-09 -1.431287e-09 1.124078e-09 6.218134e-09 1.751836e-10 6.873771e-04 2.279059e-03 -1.340097e-04 -1.498200e-03 1.847303e-04 1.120826e-03 -1.722512e-04 -2.740095e-03 -4.268390e-04 6.764302e-04 -1.223392e-03 -2.049843e-03 2.799437e-04
<VARIANCE> 25
 6.265284e+01 5.740559e+01 6.585151e+01 5.762260e+01 6.466252e+01 5.597293e+01 5.960957e+01 6.186906e+01 5.337073e+01 3.722601e+01 4.200803e+01 3.944658e+01 2.509136e+00 2.716836e+00 2.703731e+00 3.014234e+00 3.344649e+00 3.090596e+00 3.260105e+00 3.926405e+00 3.375312e+00 2.769264e+00 2.873168e+00 2.434404e+00 4.852659e+00
<GCONST> 1.084523e+02
<TRANSP> 5
 0.000000e+00 1.000000e+00 0.000000e+00 0.000000e+00 0.000000e+00
 0.000000e+00 6.000000e-01 4.000000e-01 0.000000e+00 0.000000e+00
 0.000000e+00 0.000000e+00 6.000000e-01 4.000000e-01 0.000000e+00
 0.000000e+00 0.000000e+00 0.000000e+00 7.000000e-01 3.000000e-01
 0.000000e+00 0.000000e+00 0.000000e+00 0.000000e+00 0.000000e+00
<ENDHMM>
~h "D"
<BEGINHMM>
<NUMSTATES> 5
<STATE> 2
<MEAN> 25
 -1.400684e-08 1.340949e-09 -5.880224e-09 -5.850504e-09 -8.629606e-09 9.788849e-10 1.603528e-09 -2.089255e-09 -1.431287e-09 1.124078e-09 6.218134e-09 1.751836e-10 6.873771e-04 2.279059e-03 -1.340097e-04 -1.498200e-03 1.847303e-04 1.120826e-03 -1.722512e-04 -2.740095e-03 -4.268390e-04 6.764302e-04 -1.223392e-03 -2.049843e-03 2.799437e-04
<VARIANCE> 25
 6.265284e+01 5.740559e+01 6.585151e+01 5.762260e+01 6.466252e+01 5.597293e+01 5.960957e+01 6.186906e+01 5.337073e+01 3.722601e+01 4.200803e+01 3.944658e+01 2.509136e+00 2.716836e+00 2.703731e+00 3.014234e+00 3.344649e+00 3.090596e+00 3.260105e+00 3.926405e+00 3.375312e+00 2.769264e+00 2.873168e+00 2.434404e+00 4.852659e+00
<GCONST> 1.084523e+02
<STATE> 3
<MEAN> 25
 -1.400684e-08 1.340949e-09 -5.880224e-09 -5.850504e-09 -8.629606e-09 9.788849e-10 1.603528e-09 -2.089255e-09 -1.431287e-09 1.124078e-09 6.218134e-09 1.751836e-10 6.873771e-04 2.279059e-03 -1.340097e-04 -1.498200e-03 1.847303e-04 1.120826e-03 -1.722512e-04 -2.740095e-03 -4.268390e-04 6.764302e-04 -1.223392e-03 -2.049843e-03 2.799437e-04
<VARIANCE> 25
 6.265284e+01 5.740559e+01 6.585151e+01 5.762260e+01 6.466252e+01 5.597293e+01 5.960957e+01 6.186906e+01 5.337073e+01 3.722601e+01 4.200803e+01 3.944658e+01 2.509136e+00 2.716836e+00 2.703731e+00 3.014234e+00 3.344649e+00 3.090596e+00 3.260105e+00 3.926405e+00 3.375312e+00 2.769264e+00 2.873168e+00 2.434404e+00 4.852659e+00
<GCONST> 1.084523e+02
<STATE> 4
<MEAN> 25
 -1.400684e-08 1.340949e-09 -5.880224e-09 -5.850504e-09 -8.629606e-09 9.788849e-10 1.603528e-09 -2.089255e-09 -1.431287e-09 1.124078e-09 6.218134e-09 1.751836e-10 6.873771e-04 2.279059e-03 -1.340097e-04 -1.498200e-03 1.847303e-04 1.120826e-03 -1.722512e-04 -2.740095e-03 -4.268390e-04 6.764302e-04 -1.223392e-03 -2.049843e-03 2.799437e-04
<VARIANCE> 25
 6.265284e+01 5.740559e+01 6.585151e+01 5.762260e+01 6.466252e+01 5.597293e+01 5.960957e+01 6.186906e+01 5.337073e+01 3.722601e+01 4.200803e+01 3.944658e+01 2.509136e+00 2.716836e+00 2.703731e+00 3.014234e+00 3.344649e+00 3.090596e+00 3.260105e+00 3.926405e+00 3.375312e+00 2.769264e+00 2.873168e+00 2.434404e+00 4.852659e+00
<GCONST> 1.084523e+02
<TRANSP> 5
 0.000000e+00 1.000000e+00 0.000000e+00 0.000000e+00 0.000000e+00
 0.000000e+00 6.000000e-01 4.000000e-01 0.000000e+00 0.000000e+00
 0.000000e+00 0.000000e+00 6.000000e-01 4.000000e-01 0.000000e+00
 0.000000e+00 0.000000e+00 0.000000e+00 7.000000e-01 3.000000e-01
 0.000000e+00 0.000000e+00 0.000000e+00 0.000000e+00 0.000000e+00
<ENDHMM>
~h "I"
<BEGINHMM>
<NUMSTATES> 5
<STATE> 2
<MEAN> 25
 -1.400684e-08 1.340949e-09 -5.880224e-09 -5.850504e-09 -8.629606e-09 9.788849e-10 1.603528e-09 -2.089255e-09 -1.431287e-09 1.124078e-09 6.218134e-09 1.751836e-10 6.873771e-04 2.279059e-03 -1.340097e-04 -1.498200e-03 1.847303e-04 1.120826e-03 -1.722512e-04 -2.740095e-03 -4.268390e-04 6.764302e-04 -1.223392e-03 -2.049843e-03 2.799437e-04
<VARIANCE> 25
 6.265284e+01 5.740559e+01 6.585151e+01 5.762260e+01 6.466252e+01 5.597293e+01 5.960957e+01 6.186906e+01 5.337073e+01 3.722601e+01 4.200803e+01 3.944658e+01 2.509136e+00 2.716836e+00 2.703731e+00 3.014234e+00 3.344649e+00 3.090596e+00 3.260105e+00 3.926405e+00 3.375312e+00 2.769264e+00 2.873168e+00 2.434404e+00 4.852659e+00
<GCONST> 1.084523e+02
<STATE> 3
<MEAN> 25
 -1.400684e-08 1.340949e-09 -5.880224e-09 -5.850504e-09 -8.629606e-09 9.788849e-10 1.603528e-09 -2.089255e-09 -1.431287e-09 1.124078e-09 6.218134e-09 1.751836e-10 6.873771e-04 2.279059e-03 -1.340097e-04 -1.498200e-03 1.847303e-04 1.120826e-03 -1.722512e-04 -2.740095e-03 -4.268390e-04 6.764302e-04 -1.223392e-03 -2.049843e-03 2.799437e-04
<VARIANCE> 25
 6.265284e+01 5.740559e+01 6.585151e+01 5.762260e+01 6.466252e+01 5.597293e+01 5.960957e+01 6.186906e+01 5.337073e+01 3.722601e+01 4.200803e+01 3.944658e+01 2.509136e+00 2.716836e+00 2.703731e+00 3.014234e+00 3.344649e+00 3.090596e+00 3.260105e+00 3.926405e+00 3.375312e+00 2.769264e+00 2.873168e+00 2.434404e+00 4.852659e+00
<GCONST> 1.084523e+02
<STATE> 4
<MEAN> 25
 -1.400684e-08 1.340949e-09 -5.880224e-09 -5.850504e-09 -8.629606e-09 9.788849e-10 1.603528e-09 -2.089255e-09 -1.431287e-09 1.124078e-09 6.218134e-09 1.751836e-10 6.873771e-04 2.279059e-03 -1.340097e-04 -1.498200e-03 1.847303e-04 1.120826e-03 -1.722512e-04 -2.740095e-03 -4.268390e-04 6.764302e-04 -1.223392e-03 -2.049843e-03 2.799437e-04
<VARIANCE> 25
 6.265284e+01 5.740559e+01 6.585151e+01 5.762260e+01 6.466252e+01 5.597293e+01 5.960957e+01 6.186906e+01 5.337073e+01 3.722601e+01 4.200803e+01 3.944658e+01 2.509136e+00 2.716836e+00 2.703731e+00 3.014234e+00 3.344649e+00 3.090596e+00 3.260105e+00 3.926405e+00 3.375312e+00 2.769264e+00 2.873168e+00 2.434404e+00 4.852659e+00
<GCONST> 1.084523e+02
<TRANSP> 5
 0.000000e+00 1.000000e+00 0.000000e+00 0.000000e+00 0.000000e+00
 0.000000e+00 6.000000e-01 4.000000e-01 0.000000e+00 0.000000e+00
 0.000000e+00 0.000000e+00 6.000000e-01 4.000000e-01 0.000000e+00
 0.000000e+00 0.000000e+00 0.000000e+00 7.000000e-01 3.000000e-01
 0.000000e+00 0.000000e+00 0.000000e+00 0.000000e+00 0.000000e+00
<ENDHMM>
~h "AI"
<BEGINHMM>
<NUMSTATES> 5
<STATE> 2
<MEAN> 25
 -1.400684e-08 1.340949e-09 -5.880224e-09 -5.850504e-09 -8.629606e-09 9.788849e-10 1.603528e-09 -2.089255e-09 -1.431287e-09 1.124078e-09 6.218134e-09 1.751836e-10 6.873771e-04 2.279059e-03 -1.340097e-04 -1.498200e-03 1.847303e-04 1.120826e-03 -1.722512e-04 -2.740095e-03 -4.268390e-04 6.764302e-04 -1.223392e-03 -2.049843e-03 2.799437e-04
<VARIANCE> 25
 6.265284e+01 5.740559e+01 6.585151e+01 5.762260e+01 6.466252e+01 5.597293e+01 5.960957e+01 6.186906e+01 5.337073e+01 3.722601e+01 4.200803e+01 3.944658e+01 2.509136e+00 2.716836e+00 2.703731e+00 3.014234e+00 3.344649e+00 3.090596e+00 3.260105e+00 3.926405e+00 3.375312e+00 2.769264e+00 2.873168e+00 2.434404e+00 4.852659e+00
<GCONST> 1.084523e+02
<STATE> 3
<MEAN> 25
 -1.400684e-08 1.340949e-09 -5.880224e-09 -5.850504e-09 -8.629606e-09 9.788849e-10 1.603528e-09 -2.089255e-09 -1.431287e-09 1.124078e-09 6.218134e-09 1.751836e-10 6.873771e-04 2.279059e-03 -1.340097e-04 -1.498200e-03 1.847303e-04 1.120826e-03 -1.722512e-04 -2.740095e-03 -4.268390e-04 6.764302e-04 -1.223392e-03 -2.049843e-03 2.799437e-04
<VARIANCE> 25
 6.265284e+01 5.740559e+01 6.585151e+01 5.762260e+01 6.466252e+01 5.597293e+01 5.960957e+01 6.186906e+01 5.337073e+01 3.722601e+01 4.200803e+01 3.944658e+01 2.509136e+00 2.716836e+00 2.703731e+00 3.014234e+00 3.344649e+00 3.090596e+00 3.260105e+00 3.926405e+00 3.375312e+00 2.769264e+00 2.873168e+00 2.434404e+00 4.852659e+00
<GCONST> 1.084523e+02
<STATE> 4
<MEAN> 25
 -1.400684e-08 1.340949e-09 -5.880224e-09 -5.850504e-09 -8.629606e-09 9.788849e-10 1.603528e-09 -2.089255e-09 -1.431287e-09 1.124078e-09 6.218134e-09 1.751836e-10 6.873771e-04 2.279059e-03 -1.340097e-04 -1.498200e-03 1.847303e-04 1.120826e-03 -1.722512e-04 -2.740095e-03 -4.268390e-04 6.764302e-04 -1.223392e-03 -2.049843e-03 2.799437e-04
<VARIANCE> 25
 6.265284e+01 5.740559e+01 6.585151e+01 5.762260e+01 6.466252e+01 5.597293e+01 5.960957e+01 6.186906e+01 5.337073e+01 3.722601e+01 4.200803e+01 3.944658e+01 2.509136e+00 2.716836e+00 2.703731e+00 3.014234e+00 3.344649e+00 3.090596e+00 3.260105e+00 3.926405e+00 3.375312e+00 2.769264e+00 2.873168e+00 2.434404e+00 4.852659e+00
<GCONST> 1.084523e+02
<TRANSP> 5
 0.000000e+00 1.000000e+00 0.000000e+00 0.000000e+00 0.000000e+00
 0.000000e+00 6.000000e-01 4.000000e-01 0.000000e+00 0.000000e+00
 0.000000e+00 0.000000e+00 6.000000e-01 4.000000e-01 0.000000e+00
 0.000000e+00 0.000000e+00 0.000000e+00 7.000000e-01 3.000000e-01
 0.000000e+00 0.000000e+00 0.000000e+00 0.000000e+00 0.000000e+00
<ENDHMM>
~h "K"
<BEGINHMM>
<NUMSTATES> 5
<STATE> 2
<MEAN> 25
 -1.400684e-08 1.340949e-09 -5.880224e-09 -5.850504e-09 -8.629606e-09 9.788849e-10 1.603528e-09 -2.089255e-09 -1.431287e-09 1.124078e-09 6.218134e-09 1.751836e-10 6.873771e-04 2.279059e-03 -1.340097e-04 -1.498200e-03 1.847303e-04 1.120826e-03 -1.722512e-04 -2.740095e-03 -4.268390e-04 6.764302e-04 -1.223392e-03 -2.049843e-03 2.799437e-04
<VARIANCE> 25
 6.265284e+01 5.740559e+01 6.585151e+01 5.762260e+01 6.466252e+01 5.597293e+01 5.960957e+01 6.186906e+01 5.337073e+01 3.722601e+01 4.200803e+01 3.944658e+01 2.509136e+00 2.716836e+00 2.703731e+00 3.014234e+00 3.344649e+00 3.090596e+00 3.260105e+00 3.926405e+00 3.375312e+00 2.769264e+00 2.873168e+00 2.434404e+00 4.852659e+00
<GCONST> 1.084523e+02
<STATE> 3
<MEAN> 25
 -1.400684e-08 1.340949e-09 -5.880224e-09 -5.850504e-09 -8.629606e-09 9.788849e-10 1.603528e-09 -2.089255e-09 -1.431287e-09 1.124078e-09 6.218134e-09 1.751836e-10 6.873771e-04 2.279059e-03 -1.340097e-04 -1.498200e-03 1.847303e-04 1.120826e-03 -1.722512e-04 -2.740095e-03 -4.268390e-04 6.764302e-04 -1.223392e-03 -2.049843e-03 2.799437e-04
<VARIANCE> 25
 6.265284e+01 5.740559e+01 6.585151e+01 5.762260e+01 6.466252e+01 5.597293e+01 5.960957e+01 6.186906e+01 5.337073e+01 3.722601e+01 4.200803e+01 3.944658e+01 2.509136e+00 2.716836e+00 2.703731e+00 3.014234e+00 3.344649e+00 3.090596e+00 3.260105e+00 3.926405e+00 3.375312e+00 2.769264e+00 2.873168e+00 2.434404e+00 4.852659e+00
<GCONST> 1.084523e+02
<STATE> 4
<MEAN> 25
 -1.400684e-08 1.340949e-09 -5.880224e-09 -5.850504e-09 -8.629606e-09 9.788849e-10 1.603528e-09 -2.089255e-09 -1.431287e-09 1.124078e-09 6.218134e-09 1.751836e-10 6.873771e-04 2.279059e-03 -1.340097e-04 -1.498200e-03 1.847303e-04 1.120826e-03 -1.722512e-04 -2.740095e-03 -4.268390e-04 6.764302e-04 -1.223392e-03 -2.049843e-03 2.799437e-04
<VARIANCE> 25
 6.265284e+01 5.740559e+01 6.585151e+01 5.762260e+01 6.466252e+01 5.597293e+01 5.960957e+01 6.186906e+01 5.337073e+01 3.722601e+01 4.200803e+01 3.944658e+01 2.509136e+00 2.716836e+00 2.703731e+00 3.014234e+00 3.344649e+00 3.090596e+00 3.260105e+00 3.926405e+00 3.375312e+00 2.769264e+00 2.873168e+00 2.434404e+00 4.852659e+00
<GCONST> 1.084523e+02
<TRANSP> 5
 0.000000e+00 1.000000e+00 0.000000e+00 0.000000e+00 0.000000e+00
 0.000000e+00 6.000000e-01 4.000000e-01 0.000000e+00 0.000000e+00
 0.000000e+00 0.000000e+00 6.000000e-01 4.000000e-01 0.000000e+00
 0.000000e+00 0.000000e+00 0.000000e+00 7.000000e-01 3.000000e-01
 0.000000e+00 0.000000e+00 0.000000e+00 0.000000e+00 0.000000e+00
<ENDHMM>
~h "N"
<BEGINHMM>
<NUMSTATES> 5
<STATE> 2
<MEAN> 25
 -1.400684e-08 1.340949e-09 -5.880224e-09 -5.850504e-09 -8.629606e-09 9.788849e-10 1.603528e-09 -2.089255e-09 -1.431287e-09 1.124078e-09 6.218134e-09 1.751836e-10 6.873771e-04 2.279059e-03 -1.340097e-04 -1.498200e-03 1.847303e-04 1.120826e-03 -1.722512e-04 -2.740095e-03 -4.268390e-04 6.764302e-04 -1.223392e-03 -2.049843e-03 2.799437e-04
<VARIANCE> 25
 6.265284e+01 5.740559e+01 6.585151e+01 5.762260e+01 6.466252e+01 5.597293e+01 5.960957e+01 6.186906e+01 5.337073e+01 3.722601e+01 4.200803e+01 3.944658e+01 2.509136e+00 2.716836e+00 2.703731e+00 3.014234e+00 3.344649e+00 3.090596e+00 3.260105e+00 3.926405e+00 3.375312e+00 2.769264e+00 2.873168e+00 2.434404e+00 4.852659e+00
<GCONST> 1.084523e+02
<STATE> 3
<MEAN> 25
 -1.400684e-08 1.340949e-09 -5.880224e-09 -5.850504e-09 -8.629606e-09 9.788849e-10 1.603528e-09 -2.089255e-09 -1.431287e-09 1.124078e-09 6.218134e-09 1.751836e-10 6.873771e-04 2.279059e-03 -1.340097e-04 -1.498200e-03 1.847303e-04 1.120826e-03 -1.722512e-04 -2.740095e-03 -4.268390e-04 6.764302e-04 -1.223392e-03 -2.049843e-03 2.799437e-04
<VARIANCE> 25
 6.265284e+01 5.740559e+01 6.585151e+01 5.762260e+01 6.466252e+01 5.597293e+01 5.960957e+01 6.186906e+01 5.337073e+01 3.722601e+01 4.200803e+01 3.944658e+01 2.509136e+00 2.716836e+00 2.703731e+00 3.014234e+00 3.344649e+00 3.090596e+00 3.260105e+00 3.926405e+00 3.375312e+00 2.769264e+00 2.873168e+00 2.434404e+00 4.852659e+00
<GCONST> 1.084523e+02
<STATE> 4
<MEAN> 25
 -1.400684e-08 1.340949e-09 -5.880224e-09 -5.850504e-09 -8.629606e-09 9.788849e-10 1.603528e-09 -2.089255e-09 -1.431287e-09 1.124078e-09 6.218134e-09 1.751836e-10 6.873771e-04 2.279059e-03 -1.340097e-04 -1.498200e-03 1.847303e-04 1.120826e-03 -1.722512e-04 -2.740095e-03 -4.268390e-04 6.764302e-04 -1.223392e-03 -2.049843e-03 2.799437e-04
<VARIANCE> 25
 6.265284e+01 5.740559e+01 6.585151e+01 5.762260e+01 6.466252e+01 5.597293e+01 5.960957e+01 6.186906e+01 5.337073e+01 3.722601e+01 4.200803e+01 3.944658e+01 2.509136e+00 2.716836e+00 2.703731e+00 3.014234e+00 3.344649e+00 3.090596e+00 3.260105e+00 3.926405e+00 3.375312e+00 2.769264e+00 2.873168e+00 2.434404e+00 4.852659e+00
<GCONST> 1.084523e+02
<TRANSP> 5
 0.000000e+00 1.000000e+00 0.000000e+00 0.000000e+00 0.000000e+00
 0.000000e+00 6.000000e-01 4.000000e-01 0.000000e+00 0.000000e+00
 0.000000e+00 0.000000e+00 6.000000e-01 4.000000e-01 0.000000e+00
 0.000000e+00 0.000000e+00 0.000000e+00 7.000000e-01 3.000000e-01
 0.000000e+00 0.000000e+00 0.000000e+00 0.000000e+00 0.000000e+00
<ENDHMM>
~h "NG"
<BEGINHMM>
<NUMSTATES> 5
<STATE> 2
<MEAN> 25
 -1.400684e-08 1.340949e-09 -5.880224e-09 -5.850504e-09 -8.629606e-09 9.788849e-10 1.603528e-09 -2.089255e-09 -1.431287e-09 1.124078e-09 6.218134e-09 1.751836e-10 6.873771e-04 2.279059e-03 -1.340097e-04 -1.498200e-03 1.847303e-04 1.120826e-03 -1.722512e-04 -2.740095e-03 -4.268390e-04 6.764302e-04 -1.223392e-03 -2.049843e-03 2.799437e-04
<VARIANCE> 25
 6.265284e+01 5.740559e+01 6.585151e+01 5.762260e+01 6.466252e+01 5.597293e+01 5.960957e+01 6.186906e+01 5.337073e+01 3.722601e+01 4.200803e+01 3.944658e+01 2.509136e+00 2.716836e+00 2.703731e+00 3.014234e+00 3.344649e+00 3.090596e+00 3.260105e+00 3.926405e+00 3.375312e+00 2.769264e+00 2.873168e+00 2.434404e+00 4.852659e+00
<GCONST> 1.084523e+02
<STATE> 3
<MEAN> 25
 -1.400684e-08 1.340949e-09 -5.880224e-09 -5.850504e-09 -8.629606e-09 9.788849e-10 1.603528e-09 -2.089255e-09 -1.431287e-09 1.124078e-09 6.218134e-09 1.751836e-10 6.873771e-04 2.279059e-03 -1.340097e-04 -1.498200e-03 1.847303e-04 1.120826e-03 -1.722512e-04 -2.740095e-03 -4.268390e-04 6.764302e-04 -1.223392e-03 -2.049843e-03 2.799437e-04
<VARIANCE> 25
 6.265284e+01 5.740559e+01 6.585151e+01 5.762260e+01 6.466252e+01 5.597293e+01 5.960957e+01 6.186906e+01 5.337073e+01 3.722601e+01 4.200803e+01 3.944658e+01 2.509136e+00 2.716836e+00 2.703731e+00 3.014234e+00 3.344649e+00 3.090596e+00 3.260105e+00 3.926405e+00 3.375312e+00 2.769264e+00 2.873168e+00 2.434404e+00 4.852659e+00
<GCONST> 1.084523e+02
<STATE> 4
<MEAN> 25
 -1.400684e-08 1.340949e-09 -5.880224e-09 -5.850504e-09 -8.629606e-09 9.788849e-10 1.603528e-09 -2.089255e-09 -1.431287e-09 1.124078e-09 6.218134e-09 1.751836e-10 6.873771e-04 2.279059e-03 -1.340097e-04 -1.498200e-03 1.847303e-04 1.120826e-03 -1.722512e-04 -2.740095e-03 -4.268390e-04 6.764302e-04 -1.223392e-03 -2.049843e-03 2.799437e-04
<VARIANCE> 25
 6.265284e+01 5.740559e+01 6.585151e+01 5.762260e+01 6.466252e+01 5.597293e+01 5.960957e+01 6.186906e+01 5.337073e+01 3.722601e+01 4.200803e+01 3.944658e+01 2.509136e+00 2.716836e+00 2.703731e+00 3.014234e+00 3.344649e+00 3.090596e+00 3.260105e+00 3.926405e+00 3.375312e+00 2.769264e+00 2.873168e+00 2.434404e+00 4.852659e+00
<GCONST> 1.084523e+02
<TRANSP> 5
 0.000000e+00 1.000000e+00 0.000000e+00 0.000000e+00 0.000000e+00
 0.000000e+00 6.000000e-01 4.000000e-01 0.000000e+00 0.000000e+00
 0.000000e+00 0.000000e+00 6.000000e-01 4.000000e-01 0.000000e+00
 0.000000e+00 0.000000e+00 0.000000e+00 7.000000e-01 3.000000e-01
 0.000000e+00 0.000000e+00 0.000000e+00 0.000000e+00 0.000000e+00
<ENDHMM>
~h "Y"
<BEGINHMM>
<NUMSTATES> 5
<STATE> 2
<MEAN> 25
 -1.400684e-08 1.340949e-09 -5.880224e-09 -5.850504e-09 -8.629606e-09 9.788849e-10 1.603528e-09 -2.089255e-09 -1.431287e-09 1.124078e-09 6.218134e-09 1.751836e-10 6.873771e-04 2.279059e-03 -1.340097e-04 -1.498200e-03 1.847303e-04 1.120826e-03 -1.722512e-04 -2.740095e-03 -4.268390e-04 6.764302e-04 -1.223392e-03 -2.049843e-03 2.799437e-04
<VARIANCE> 25
 6.265284e+01 5.740559e+01 6.585151e+01 5.762260e+01 6.466252e+01 5.597293e+01 5.960957e+01 6.186906e+01 5.337073e+01 3.722601e+01 4.200803e+01 3.944658e+01 2.509136e+00 2.716836e+00 2.703731e+00 3.014234e+00 3.344649e+00 3.090596e+00 3.260105e+00 3.926405e+00 3.375312e+00 2.769264e+00 2.873168e+00 2.434404e+00 4.852659e+00
<GCONST> 1.084523e+02
<STATE> 3
<MEAN> 25
 -1.400684e-08 1.340949e-09 -5.880224e-09 -5.850504e-09 -8.629606e-09 9.788849e-10 1.603528e-09 -2.089255e-09 -1.431287e-09 1.124078e-09 6.218134e-09 1.751836e-10 6.873771e-04 2.279059e-03 -1.340097e-04 -1.498200e-03 1.847303e-04 1.120826e-03 -1.722512e-04 -2.740095e-03 -4.268390e-04 6.764302e-04 -1.223392e-03 -2.049843e-03 2.799437e-04
<VARIANCE> 25
 6.265284e+01 5.740559e+01 6.585151e+01 5.762260e+01 6.466252e+01 5.597293e+01 5.960957e+01 6.186906e+01 5.337073e+01 3.722601e+01 4.200803e+01 3.944658e+01 2.509136e+00 2.716836e+00 2.703731e+00 3.014234e+00 3.344649e+00 3.090596e+00 3.260105e+00 3.926405e+00 3.375312e+00 2.769264e+00 2.873168e+00 2.434404e+00 4.852659e+00
<GCONST> 1.084523e+02
<STATE> 4
<MEAN> 25
 -1.400684e-08 1.340949e-09 -5.880224e-09 -5.850504e-09 -8.629606e-09 9.788849e-10 1.603528e-09 -2.089255e-09 -1.431287e-09 1.124078e-09 6.218134e-09 1.751836e-10 6.873771e-04 2.279059e-03 -1.340097e-04 -1.498200e-03 1.847303e-04 1.120826e-03 -1.722512e-04 -2.740095e-03 -4.268390e-04 6.764302e-04 -1.223392e-03 -2.049843e-03 2.799437e-04
<VARIANCE> 25
 6.265284e+01 5.740559e+01 6.585151e+01 5.762260e+01 6.466252e+01 5.597293e+01 5.960957e+01 6.186906e+01 5.337073e+01 3.722601e+01 4.200803e+01 3.944658e+01 2.509136e+00 2.716836e+00 2.703731e+00 3.014234e+00 3.344649e+00 3.090596e+00 3.260105e+00 3.926405e+00 3.375312e+00 2.769264e+00 2.873168e+00 2.434404e+00 4.852659e+00
<GCONST> 1.084523e+02
<TRANSP> 5
 0.000000e+00 1.000000e+00 0.000000e+00 0.000000e+00 0.000000e+00
 0.000000e+00 6.000000e-01 4.000000e-01 0.000000e+00 0.000000e+00
 0.000000e+00 0.000000e+00 6.000000e-01 4.000000e-01 0.000000e+00
 0.000000e+00 0.000000e+00 0.000000e+00 7.000000e-01 3.000000e-01
 0.000000e+00 0.000000e+00 0.000000e+00 0.000000e+00 0.000000e+00
<ENDHMM>
~h "S"
<BEGINHMM>
<NUMSTATES> 5
<STATE> 2
<MEAN> 25
 -1.400684e-08 1.340949e-09 -5.880224e-09 -5.850504e-09 -8.629606e-09 9.788849e-10 1.603528e-09 -2.089255e-09 -1.431287e-09 1.124078e-09 6.218134e-09 1.751836e-10 6.873771e-04 2.279059e-03 -1.340097e-04 -1.498200e-03 1.847303e-04 1.120826e-03 -1.722512e-04 -2.740095e-03 -4.268390e-04 6.764302e-04 -1.223392e-03 -2.049843e-03 2.799437e-04
<VARIANCE> 25
 6.265284e+01 5.740559e+01 6.585151e+01 5.762260e+01 6.466252e+01 5.597293e+01 5.960957e+01 6.186906e+01 5.337073e+01 3.722601e+01 4.200803e+01 3.944658e+01 2.509136e+00 2.716836e+00 2.703731e+00 3.014234e+00 3.344649e+00 3.090596e+00 3.260105e+00 3.926405e+00 3.375312e+00 2.769264e+00 2.873168e+00 2.434404e+00 4.852659e+00
<GCONST> 1.084523e+02
<STATE> 3
<MEAN> 25
 -1.400684e-08 1.340949e-09 -5.880224e-09 -5.850504e-09 -8.629606e-09 9.788849e-10 1.603528e-09 -2.089255e-09 -1.431287e-09 1.124078e-09 6.218134e-09 1.751836e-10 6.873771e-04 2.279059e-03 -1.340097e-04 -1.498200e-03 1.847303e-04 1.120826e-03 -1.722512e-04 -2.740095e-03 -4.268390e-04 6.764302e-04 -1.223392e-03 -2.049843e-03 2.799437e-04
<VARIANCE> 25
 6.265284e+01 5.740559e+01 6.585151e+01 5.762260e+01 6.466252e+01 5.597293e+01 5.960957e+01 6.186906e+01 5.337073e+01 3.722601e+01 4.200803e+01 3.944658e+01 2.509136e+00 2.716836e+00 2.703731e+00 3.014234e+00 3.344649e+00 3.090596e+00 3.260105e+00 3.926405e+00 3.375312e+00 2.769264e+00 2.873168e+00 2.434404e+00 4.852659e+00
<GCONST> 1.084523e+02
<STATE> 4
<MEAN> 25
 -1.400684e-08 1.340949e-09 -5.880224e-09 -5.850504e-09 -8.629606e-09 9.788849e-10 1.603528e-09 -2.089255e-09 -1.431287e-09 1.124078e-09 6.218134e-09 1.751836e-10 6.873771e-04 2.279059e-03 -1.340097e-04 -1.498200e-03 1.847303e-04 1.120826e-03 -1.722512e-04 -2.740095e-03 -4.268390e-04 6.764302e-04 -1.223392e-03 -2.049843e-03 2.799437e-04
<VARIANCE> 25
 6.265284e+01 5.740559e+01 6.585151e+01 5.762260e+01 6.466252e+01 5.597293e+01 5.960957e+01 6.186906e+01 5.337073e+01 3.722601e+01 4.200803e+01 3.944658e+01 2.509136e+00 2.716836e+00 2.703731e+00 3.014234e+00 3.344649e+00 3.090596e+00 3.260105e+00 3.926405e+00 3.375312e+00 2.769264e+00 2.873168e+00 2.434404e+00 4.852659e+00
<GCONST> 1.084523e+02
<TRANSP> 5
 0.000000e+00 1.000000e+00 0.000000e+00 0.000000e+00 0.000000e+00
 0.000000e+00 6.000000e-01 4.000000e-01 0.000000e+00 0.000000e+00
 0.000000e+00 0.000000e+00 6.000000e-01 4.000000e-01 0.000000e+00
 0.000000e+00 0.000000e+00 0.000000e+00 7.000000e-01 3.000000e-01
 0.000000e+00 0.000000e+00 0.000000e+00 0.000000e+00 0.000000e+00
<ENDHMM>
~h "E"
<BEGINHMM>
<NUMSTATES> 5
<STATE> 2
<MEAN> 25
 -1.400684e-08 1.340949e-09 -5.880224e-09 -5.850504e-09 -8.629606e-09 9.788849e-10 1.603528e-09 -2.089255e-09 -1.431287e-09 1.124078e-09 6.218134e-09 1.751836e-10 6.873771e-04 2.279059e-03 -1.340097e-04 -1.498200e-03 1.847303e-04 1.120826e-03 -1.722512e-04 -2.740095e-03 -4.268390e-04 6.764302e-04 -1.223392e-03 -2.049843e-03 2.799437e-04
<VARIANCE> 25
 6.265284e+01 5.740559e+01 6.585151e+01 5.762260e+01 6.466252e+01 5.597293e+01 5.960957e+01 6.186906e+01 5.337073e+01 3.722601e+01 4.200803e+01 3.944658e+01 2.509136e+00 2.716836e+00 2.703731e+00 3.014234e+00 3.344649e+00 3.090596e+00 3.260105e+00 3.926405e+00 3.375312e+00 2.769264e+00 2.873168e+00 2.434404e+00 4.852659e+00
<GCONST> 1.084523e+02
<STATE> 3
<MEAN> 25
 -1.400684e-08 1.340949e-09 -5.880224e-09 -5.850504e-09 -8.629606e-09 9.788849e-10 1.603528e-09 -2.089255e-09 -1.431287e-09 1.124078e-09 6.218134e-09 1.751836e-10 6.873771e-04 2.279059e-03 -1.340097e-04 -1.498200e-03 1.847303e-04 1.120826e-03 -1.722512e-04 -2.740095e-03 -4.268390e-04 6.764302e-04 -1.223392e-03 -2.049843e-03 2.799437e-04
<VARIANCE> 25
 6.265284e+01 5.740559e+01 6.585151e+01 5.762260e+01 6.466252e+01 5.597293e+01 5.960957e+01 6.186906e+01 5.337073e+01 3.722601e+01 4.200803e+01 3.944658e+01 2.509136e+00 2.716836e+00 2.703731e+00 3.014234e+00 3.344649e+00 3.090596e+00 3.260105e+00 3.926405e+00 3.375312e+00 2.769264e+00 2.873168e+00 2.434404e+00 4.852659e+00
<GCONST> 1.084523e+02
<STATE> 4
<MEAN> 25
 -1.400684e-08 1.340949e-09 -5.880224e-09 -5.850504e-09 -8.629606e-09 9.788849e-10 1.603528e-09 -2.089255e-09 -1.431287e-09 1.124078e-09 6.218134e-09 1.751836e-10 6.873771e-04 2.279059e-03 -1.340097e-04 -1.498200e-03 1.847303e-04 1.120826e-03 -1.722512e-04 -2.740095e-03 -4.268390e-04 6.764302e-04 -1.223392e-03 -2.049843e-03 2.799437e-04
<VARIANCE> 25
 6.265284e+01 5.740559e+01 6.585151e+01 5.762260e+01 6.466252e+01 5.597293e+01 5.960957e+01 6.186906e+01 5.337073e+01 3.722601e+01 4.200803e+01 3.944658e+01 2.509136e+00 2.716836e+00 2.703731e+00 3.014234e+00 3.344649e+00 3.090596e+00 3.260105e+00 3.926405e+00 3.375312e+00 2.769264e+00 2.873168e+00 2.434404e+00 4.852659e+00
<GCONST> 1.084523e+02
<TRANSP> 5
 0.000000e+00 1.000000e+00 0.000000e+00 0.000000e+00 0.000000e+00
 0.000000e+00 6.000000e-01 4.000000e-01 0.000000e+00 0.000000e+00
 0.000000e+00 0.000000e+00 6.000000e-01 4.000000e-01 0.000000e+00
 0.000000e+00 0.000000e+00 0.000000e+00 7.000000e-01 3.000000e-01
 0.000000e+00 0.000000e+00 0.000000e+00 0.000000e+00 0.000000e+00
<ENDHMM>
~h "L"
<BEGINHMM>
<NUMSTATES> 5
<STATE> 2
<MEAN> 25
 -1.400684e-08 1.340949e-09 -5.880224e-09 -5.850504e-09 -8.629606e-09 9.788849e-10 1.603528e-09 -2.089255e-09 -1.431287e-09 1.124078e-09 6.218134e-09 1.751836e-10 6.873771e-04 2.279059e-03 -1.340097e-04 -1.498200e-03 1.847303e-04 1.120826e-03 -1.722512e-04 -2.740095e-03 -4.268390e-04 6.764302e-04 -1.223392e-03 -2.049843e-03 2.799437e-04
<VARIANCE> 25
 6.265284e+01 5.740559e+01 6.585151e+01 5.762260e+01 6.466252e+01 5.597293e+01 5.960957e+01 6.186906e+01 5.337073e+01 3.722601e+01 4.200803e+01 3.944658e+01 2.509136e+00 2.716836e+00 2.703731e+00 3.014234e+00 3.344649e+00 3.090596e+00 3.260105e+00 3.926405e+00 3.375312e+00 2.769264e+00 2.873168e+00 2.434404e+00 4.852659e+00
<GCONST> 1.084523e+02
<STATE> 3
<MEAN> 25
 -1.400684e-08 1.340949e-09 -5.880224e-09 -5.850504e-09 -8.629606e-09 9.788849e-10 1.603528e-09 -2.089255e-09 -1.431287e-09 1.124078e-09 6.218134e-09 1.751836e-10 6.873771e-04 2.279059e-03 -1.340097e-04 -1.498200e-03 1.847303e-04 1.120826e-03 -1.722512e-04 -2.740095e-03 -4.268390e-04 6.764302e-04 -1.223392e-03 -2.049843e-03 2.799437e-04
<VARIANCE> 25
 6.265284e+01 5.740559e+01 6.585151e+01 5.762260e+01 6.466252e+01 5.597293e+01 5.960957e+01 6.186906e+01 5.337073e+01 3.722601e+01 4.200803e+01 3.944658e+01 2.509136e+00 2.716836e+00 2.703731e+00 3.014234e+00 3.344649e+00 3.090596e+00 3.260105e+00 3.926405e+00 3.375312e+00 2.769264e+00 2.873168e+00 2.434404e+00 4.852659e+00
<GCONST> 1.084523e+02
<STATE> 4
<MEAN> 25
 -1.400684e-08 1.340949e-09 -5.880224e-09 -5.850504e-09 -8.629606e-09 9.788849e-10 1.603528e-09 -2.089255e-09 -1.431287e-09 1.124078e-09 6.218134e-09 1.751836e-10 6.873771e-04 2.279059e-03 -1.340097e-04 -1.498200e-03 1.847303e-04 1.120826e-03 -1.722512e-04 -2.740095e-03 -4.268390e-04 6.764302e-04 -1.223392e-03 -2.049843e-03 2.799437e-04
<VARIANCE> 25
 6.265284e+01 5.740559e+01 6.585151e+01 5.762260e+01 6.466252e+01 5.597293e+01 5.960957e+01 6.186906e+01 5.337073e+01 3.722601e+01 4.200803e+01 3.944658e+01 2.509136e+00 2.716836e+00 2.703731e+00 3.014234e+00 3.344649e+00 3.090596e+00 3.260105e+00 3.926405e+00 3.375312e+00 2.769264e+00 2.873168e+00 2.434404e+00 4.852659e+00
<GCONST> 1.084523e+02
<TRANSP> 5
 0.000000e+00 1.000000e+00 0.000000e+00 0.000000e+00 0.000000e+00
 0.000000e+00 6.000000e-01 4.000000e-01 0.000000e+00 0.000000e+00
 0.000000e+00 0.000000e+00 6.000000e-01 4.000000e-01 0.000000e+00
 0.000000e+00 0.000000e+00 0.000000e+00 7.000000e-01 3.000000e-01
 0.000000e+00 0.000000e+00 0.000000e+00 0.000000e+00 0.000000e+00
<ENDHMM>
~h "U"
<BEGINHMM>
<NUMSTATES> 5
<STATE> 2
<MEAN> 25
 -1.400684e-08 1.340949e-09 -5.880224e-09 -5.850504e-09 -8.629606e-09 9.788849e-10 1.603528e-09 -2.089255e-09 -1.431287e-09 1.124078e-09 6.218134e-09 1.751836e-10 6.873771e-04 2.279059e-03 -1.340097e-04 -1.498200e-03 1.847303e-04 1.120826e-03 -1.722512e-04 -2.740095e-03 -4.268390e-04 6.764302e-04 -1.223392e-03 -2.049843e-03 2.799437e-04
<VARIANCE> 25
 6.265284e+01 5.740559e+01 6.585151e+01 5.762260e+01 6.466252e+01 5.597293e+01 5.960957e+01 6.186906e+01 5.337073e+01 3.722601e+01 4.200803e+01 3.944658e+01 2.509136e+00 2.716836e+00 2.703731e+00 3.014234e+00 3.344649e+00 3.090596e+00 3.260105e+00 3.926405e+00 3.375312e+00 2.769264e+00 2.873168e+00 2.434404e+00 4.852659e+00
<GCONST> 1.084523e+02
<STATE> 3
<MEAN> 25
 -1.400684e-08 1.340949e-09 -5.880224e-09 -5.850504e-09 -8.629606e-09 9.788849e-10 1.603528e-09 -2.089255e-09 -1.431287e-09 1.124078e-09 6.218134e-09 1.751836e-10 6.873771e-04 2.279059e-03 -1.340097e-04 -1.498200e-03 1.847303e-04 1.120826e-03 -1.722512e-04 -2.740095e-03 -4.268390e-04 6.764302e-04 -1.223392e-03 -2.049843e-03 2.799437e-04
<VARIANCE> 25
 6.265284e+01 5.740559e+01 6.585151e+01 5.762260e+01 6.466252e+01 5.597293e+01 5.960957e+01 6.186906e+01 5.337073e+01 3.722601e+01 4.200803e+01 3.944658e+01 2.509136e+00 2.716836e+00 2.703731e+00 3.014234e+00 3.344649e+00 3.090596e+00 3.260105e+00 3.926405e+00 3.375312e+00 2.769264e+00 2.873168e+00 2.434404e+00 4.852659e+00
<GCONST> 1.084523e+02
<STATE> 4
<MEAN> 25
 -1.400684e-08 1.340949e-09 -5.880224e-09 -5.850504e-09 -8.629606e-09 9.788849e-10 1.603528e-09 -2.089255e-09 -1.431287e-09 1.124078e-09 6.218134e-09 1.751836e-10 6.873771e-04 2.279059e-03 -1.340097e-04 -1.498200e-03 1.847303e-04 1.120826e-03 -1.722512e-04 -2.740095e-03 -4.268390e-04 6.764302e-04 -1.223392e-03 -2.049843e-03 2.799437e-04
<VARIANCE> 25
 6.265284e+01 5.740559e+01 6.585151e+01 5.762260e+01 6.466252e+01 5.597293e+01 5.960957e+01 6.186906e+01 5.337073e+01 3.722601e+01 4.200803e+01 3.944658e+01 2.509136e+00 2.716836e+00 2.703731e+00 3.014234e+00 3.344649e+00 3.090596e+00 3.260105e+00 3.926405e+00 3.375312e+00 2.769264e+00 2.873168e+00 2.434404e+00 4.852659e+00
<GCONST> 1.084523e+02
<TRANSP> 5
 0.000000e+00 1.000000e+00 0.000000e+00 0.000000e+00 0.000000e+00
 0.000000e+00 6.000000e-01 4.000000e-01 0.000000e+00 0.000000e+00
 0.000000e+00 0.000000e+00 6.000000e-01 4.000000e-01 0.000000e+00
 0.000000e+00 0.000000e+00 0.000000e+00 7.000000e-01 3.000000e-01
 0.000000e+00 0.000000e+00 0.000000e+00 0.000000e+00 0.000000e+00
<ENDHMM>
~h "H"
<BEGINHMM>
<NUMSTATES> 5
<STATE> 2
<MEAN> 25
 -1.400684e-08 1.340949e-09 -5.880224e-09 -5.850504e-09 -8.629606e-09 9.788849e-10 1.603528e-09 -2.089255e-09 -1.431287e-09 1.124078e-09 6.218134e-09 1.751836e-10 6.873771e-04 2.279059e-03 -1.340097e-04 -1.498200e-03 1.847303e-04 1.120826e-03 -1.722512e-04 -2.740095e-03 -4.268390e-04 6.764302e-04 -1.223392e-03 -2.049843e-03 2.799437e-04
<VARIANCE> 25
 6.265284e+01 5.740559e+01 6.585151e+01 5.762260e+01 6.466252e+01 5.597293e+01 5.960957e+01 6.186906e+01 5.337073e+01 3.722601e+01 4.200803e+01 3.944658e+01 2.509136e+00 2.716836e+00 2.703731e+00 3.014234e+00 3.344649e+00 3.090596e+00 3.260105e+00 3.926405e+00 3.375312e+00 2.769264e+00 2.873168e+00 2.434404e+00 4.852659e+00
<GCONST> 1.084523e+02
<STATE> 3
<MEAN> 25
 -1.400684e-08 1.340949e-09 -5.880224e-09 -5.850504e-09 -8.629606e-09 9.788849e-10 1.603528e-09 -2.089255e-09 -1.431287e-09 1.124078e-09 6.218134e-09 1.751836e-10 6.873771e-04 2.279059e-03 -1.340097e-04 -1.498200e-03 1.847303e-04 1.120826e-03 -1.722512e-04 -2.740095e-03 -4.268390e-04 6.764302e-04 -1.223392e-03 -2.049843e-03 2.799437e-04
<VARIANCE> 25
 6.265284e+01 5.740559e+01 6.585151e+01 5.762260e+01 6.466252e+01 5.597293e+01 5.960957e+01 6.186906e+01 5.337073e+01 3.722601e+01 4.200803e+01 3.944658e+01 2.509136e+00 2.716836e+00 2.703731e+00 3.014234e+00 3.344649e+00 3.090596e+00 3.260105e+00 3.926405e+00 3.375312e+00 2.769264e+00 2.873168e+00 2.434404e+00 4.852659e+00
<GCONST> 1.084523e+02
<STATE> 4
<MEAN> 25
 -1.400684e-08 1.340949e-09 -5.880224e-09 -5.850504e-09 -8.629606e-09 9.788849e-10 1.603528e-09 -2.089255e-09 -1.431287e-09 1.124078e-09 6.218134e-09 1.751836e-10 6.873771e-04 2.279059e-03 -1.340097e-04 -1.498200e-03 1.847303e-04 1.120826e-03 -1.722512e-04 -2.740095e-03 -4.268390e-04 6.764302e-04 -1.223392e-03 -2.049843e-03 2.799437e-04
<VARIANCE> 25
 6.265284e+01 5.740559e+01 6.585151e+01 5.762260e+01 6.466252e+01 5.597293e+01 5.960957e+01 6.186906e+01 5.337073e+01 3.722601e+01 4.200803e+01 3.944658e+01 2.509136e+00 2.716836e+00 2.703731e+00 3.014234e+00 3.344649e+00 3.090596e+00 3.260105e+00 3.926405e+00 3.375312e+00 2.769264e+00 2.873168e+00 2.434404e+00 4.852659e+00
<GCONST> 1.084523e+02
<TRANSP> 5
 0.000000e+00 1.000000e+00 0.000000e+00 0.000000e+00 0.000000e+00
 0.000000e+00 6.000000e-01 4.000000e-01 0.000000e+00 0.000000e+00
 0.000000e+00 0.000000e+00 6.000000e-01 4.000000e-01 0.000000e+00
 0.000000e+00 0.000000e+00 0.000000e+00 7.000000e-01 3.000000e-01
 0.000000e+00 0.000000e+00 0.000000e+00 0.000000e+00 0.000000e+00
<ENDHMM>
~h "R"
<BEGINHMM>
<NUMSTATES> 5
<STATE> 2
<MEAN> 25
 -1.400684e-08 1.340949e-09 -5.880224e-09 -5.850504e-09 -8.629606e-09 9.788849e-10 1.603528e-09 -2.089255e-09 -1.431287e-09 1.124078e-09 6.218134e-09 1.751836e-10 6.873771e-04 2.279059e-03 -1.340097e-04 -1.498200e-03 1.847303e-04 1.120826e-03 -1.722512e-04 -2.740095e-03 -4.268390e-04 6.764302e-04 -1.223392e-03 -2.049843e-03 2.799437e-04
<VARIANCE> 25
 6.265284e+01 5.740559e+01 6.585151e+01 5.762260e+01 6.466252e+01 5.597293e+01 5.960957e+01 6.186906e+01 5.337073e+01 3.722601e+01 4.200803e+01 3.944658e+01 2.509136e+00 2.716836e+00 2.703731e+00 3.014234e+00 3.344649e+00 3.090596e+00 3.260105e+00 3.926405e+00 3.375312e+00 2.769264e+00 2.873168e+00 2.434404e+00 4.852659e+00
<GCONST> 1.084523e+02
<STATE> 3
<MEAN> 25
 -1.400684e-08 1.340949e-09 -5.880224e-09 -5.850504e-09 -8.629606e-09 9.788849e-10 1.603528e-09 -2.089255e-09 -1.431287e-09 1.124078e-09 6.218134e-09 1.751836e-10 6.873771e-04 2.279059e-03 -1.340097e-04 -1.498200e-03 1.847303e-04 1.120826e-03 -1.722512e-04 -2.740095e-03 -4.268390e-04 6.764302e-04 -1.223392e-03 -2.049843e-03 2.799437e-04
<VARIANCE> 25
 6.265284e+01 5.740559e+01 6.585151e+01 5.762260e+01 6.466252e+01 5.597293e+01 5.960957e+01 6.186906e+01 5.337073e+01 3.722601e+01 4.200803e+01 3.944658e+01 2.509136e+00 2.716836e+00 2.703731e+00 3.014234e+00 3.344649e+00 3.090596e+00 3.260105e+00 3.926405e+00 3.375312e+00 2.769264e+00 2.873168e+00 2.434404e+00 4.852659e+00
<GCONST> 1.084523e+02
<STATE> 4
<MEAN> 25
 -1.400684e-08 1.340949e-09 -5.880224e-09 -5.850504e-09 -8.629606e-09 9.788849e-10 1.603528e-09 -2.089255e-09 -1.431287e-09 1.124078e-09 6.218134e-09 1.751836e-10 6.873771e-04 2.279059e-03 -1.340097e-04 -1.498200e-03 1.847303e-04 1.120826e-03 -1.722512e-04 -2.740095e-03 -4.268390e-04 6.764302e-04 -1.223392e-03 -2.049843e-03 2.799437e-04
<VARIANCE> 25
 6.265284e+01 5.740559e+01 6.585151e+01 5.762260e+01 6.466252e+01 5.597293e+01 5.960957e+01 6.186906e+01 5.337073e+01 3.722601e+01 4.200803e+01 3.944658e+01 2.509136e+00 2.716836e+00 2.703731e+00 3.014234e+00 3.344649e+00 3.090596e+00 3.260105e+00 3.926405e+00 3.375312e+00 2.769264e+00 2.873168e+00 2.434404e+00 4.852659e+00
<GCONST> 1.084523e+02
<TRANSP> 5
 0.000000e+00 1.000000e+00 0.000000e+00 0.000000e+00 0.000000e+00
 0.000000e+00 6.000000e-01 4.000000e-01 0.000000e+00 0.000000e+00
 0.000000e+00 0.000000e+00 6.000000e-01 4.000000e-01 0.000000e+00
 0.000000e+00 0.000000e+00 0.000000e+00 7.000000e-01 3.000000e-01
 0.000000e+00 0.000000e+00 0.000000e+00 0.000000e+00 0.000000e+00
<ENDHMM>
~h "M"
<BEGINHMM>
<NUMSTATES> 5
<STATE> 2
<MEAN> 25
 -1.400684e-08 1.340949e-09 -5.880224e-09 -5.850504e-09 -8.629606e-09 9.788849e-10 1.603528e-09 -2.089255e-09 -1.431287e-09 1.124078e-09 6.218134e-09 1.751836e-10 6.873771e-04 2.279059e-03 -1.340097e-04 -1.498200e-03 1.847303e-04 1.120826e-03 -1.722512e-04 -2.740095e-03 -4.268390e-04 6.764302e-04 -1.223392e-03 -2.049843e-03 2.799437e-04
<VARIANCE> 25
 6.265284e+01 5.740559e+01 6.585151e+01 5.762260e+01 6.466252e+01 5.597293e+01 5.960957e+01 6.186906e+01 5.337073e+01 3.722601e+01 4.200803e+01 3.944658e+01 2.509136e+00 2.716836e+00 2.703731e+00 3.014234e+00 3.344649e+00 3.090596e+00 3.260105e+00 3.926405e+00 3.375312e+00 2.769264e+00 2.873168e+00 2.434404e+00 4.852659e+00
<GCONST> 1.084523e+02
<STATE> 3
<MEAN> 25
 -1.400684e-08 1.340949e-09 -5.880224e-09 -5.850504e-09 -8.629606e-09 9.788849e-10 1.603528e-09 -2.089255e-09 -1.431287e-09 1.124078e-09 6.218134e-09 1.751836e-10 6.873771e-04 2.279059e-03 -1.340097e-04 -1.498200e-03 1.847303e-04 1.120826e-03 -1.722512e-04 -2.740095e-03 -4.268390e-04 6.764302e-04 -1.223392e-03 -2.049843e-03 2.799437e-04
<VARIANCE> 25
 6.265284e+01 5.740559e+01 6.585151e+01 5.762260e+01 6.466252e+01 5.597293e+01 5.960957e+01 6.186906e+01 5.337073e+01 3.722601e+01 4.200803e+01 3.944658e+01 2.509136e+00 2.716836e+00 2.703731e+00 3.014234e+00 3.344649e+00 3.090596e+00 3.260105e+00 3.926405e+00 3.375312e+00 2.769264e+00 2.873168e+00 2.434404e+00 4.852659e+00
<GCONST> 1.084523e+02
<STATE> 4
<MEAN> 25
 -1.400684e-08 1.340949e-09 -5.880224e-09 -5.850504e-09 -8.629606e-09 9.788849e-10 1.603528e-09 -2.089255e-09 -1.431287e-09 1.124078e-09 6.218134e-09 1.751836e-10 6.873771e-04 2.279059e-03 -1.340097e-04 -1.498200e-03 1.847303e-04 1.120826e-03 -1.722512e-04 -2.740095e-03 -4.268390e-04 6.764302e-04 -1.223392e-03 -2.049843e-03 2.799437e-04
<VARIANCE> 25
 6.265284e+01 5.740559e+01 6.585151e+01 5.762260e+01 6.466252e+01 5.597293e+01 5.960957e+01 6.186906e+01 5.337073e+01 3.722601e+01 4.200803e+01 3.944658e+01 2.509136e+00 2.716836e+00 2.703731e+00 3.014234e+00 3.344649e+00 3.090596e+00 3.260105e+00 3.926405e+00 3.375312e+00 2.769264e+00 2.873168e+00 2.434404e+00 4.852659e+00
<GCONST> 1.084523e+02
<TRANSP> 5
 0.000000e+00 1.000000e+00 0.000000e+00 0.000000e+00 0.000000e+00
 0.000000e+00 6.000000e-01 4.000000e-01 0.000000e+00 0.000000e+00
 0.000000e+00 0.000000e+00 6.000000e-01 4.000000e-01 0.000000e+00
 0.000000e+00 0.000000e+00 0.000000e+00 7.000000e-01 3.000000e-01
 0.000000e+00 0.000000e+00 0.000000e+00 0.000000e+00 0.000000e+00
<ENDHMM>
~h "P"
<BEGINHMM>
<NUMSTATES> 5
<STATE> 2
<MEAN> 25
 -1.400684e-08 1.340949e-09 -5.880224e-09 -5.850504e-09 -8.629606e-09 9.788849e-10 1.603528e-09 -2.089255e-09 -1.431287e-09 1.124078e-09 6.218134e-09 1.751836e-10 6.873771e-04 2.279059e-03 -1.340097e-04 -1.498200e-03 1.847303e-04 1.120826e-03 -1.722512e-04 -2.740095e-03 -4.268390e-04 6.764302e-04 -1.223392e-03 -2.049843e-03 2.799437e-04
<VARIANCE> 25
 6.265284e+01 5.740559e+01 6.585151e+01 5.762260e+01 6.466252e+01 5.597293e+01 5.960957e+01 6.186906e+01 5.337073e+01 3.722601e+01 4.200803e+01 3.944658e+01 2.509136e+00 2.716836e+00 2.703731e+00 3.014234e+00 3.344649e+00 3.090596e+00 3.260105e+00 3.926405e+00 3.375312e+00 2.769264e+00 2.873168e+00 2.434404e+00 4.852659e+00
<GCONST> 1.084523e+02
<STATE> 3
<MEAN> 25
 -1.400684e-08 1.340949e-09 -5.880224e-09 -5.850504e-09 -8.629606e-09 9.788849e-10 1.603528e-09 -2.089255e-09 -1.431287e-09 1.124078e-09 6.218134e-09 1.751836e-10 6.873771e-04 2.279059e-03 -1.340097e-04 -1.498200e-03 1.847303e-04 1.120826e-03 -1.722512e-04 -2.740095e-03 -4.268390e-04 6.764302e-04 -1.223392e-03 -2.049843e-03 2.799437e-04
<VARIANCE> 25
 6.265284e+01 5.740559e+01 6.585151e+01 5.762260e+01 6.466252e+01 5.597293e+01 5.960957e+01 6.186906e+01 5.337073e+01 3.722601e+01 4.200803e+01 3.944658e+01 2.509136e+00 2.716836e+00 2.703731e+00 3.014234e+00 3.344649e+00 3.090596e+00 3.260105e+00 3.926405e+00 3.375312e+00 2.769264e+00 2.873168e+00 2.434404e+00 4.852659e+00
<GCONST> 1.084523e+02
<STATE> 4
<MEAN> 25
 -1.400684e-08 1.340949e-09 -5.880224e-09 -5.850504e-09 -8.629606e-09 9.788849e-10 1.603528e-09 -2.089255e-09 -1.431287e-09 1.124078e-09 6.218134e-09 1.751836e-10 6.873771e-04 2.279059e-03 -1.340097e-04 -1.498200e-03 1.847303e-04 1.120826e-03 -1.722512e-04 -2.740095e-03 -4.268390e-04 6.764302e-04 -1.223392e-03 -2.049843e-03 2.799437e-04
<VARIANCE> 25
 6.265284e+01 5.740559e+01 6.585151e+01 5.762260e+01 6.466252e+01 5.597293e+01 5.960957e+01 6.186906e+01 5.337073e+01 3.722601e+01 4.200803e+01 3.944658e+01 2.509136e+00 2.716836e+00 2.703731e+00 3.014234e+00 3.344649e+00 3.090596e+00 3.260105e+00 3.926405e+00 3.375312e+00 2.769264e+00 2.873168e+00 2.434404e+00 4.852659e+00
<GCONST> 1.084523e+02
<TRANSP> 5
 0.000000e+00 1.000000e+00 0.000000e+00 0.000000e+00 0.000000e+00
 0.000000e+00 6.000000e-01 4.000000e-01 0.000000e+00 0.000000e+00
 0.000000e+00 0.000000e+00 6.000000e-01 4.000000e-01 0.000000e+00
 0.000000e+00 0.000000e+00 0.000000e+00 7.000000e-01 3.000000e-01
 0.000000e+00 0.000000e+00 0.000000e+00 0.000000e+00 0.000000e+00
<ENDHMM>
~h "e"
<BEGINHMM>
<NUMSTATES> 5
<STATE> 2
<MEAN> 25
 -1.400684e-08 1.340949e-09 -5.880224e-09 -5.850504e-09 -8.629606e-09 9.788849e-10 1.603528e-09 -2.089255e-09 -1.431287e-09 1.124078e-09 6.218134e-09 1.751836e-10 6.873771e-04 2.279059e-03 -1.340097e-04 -1.498200e-03 1.847303e-04 1.120826e-03 -1.722512e-04 -2.740095e-03 -4.268390e-04 6.764302e-04 -1.223392e-03 -2.049843e-03 2.799437e-04
<VARIANCE> 25
 6.265284e+01 5.740559e+01 6.585151e+01 5.762260e+01 6.466252e+01 5.597293e+01 5.960957e+01 6.186906e+01 5.337073e+01 3.722601e+01 4.200803e+01 3.944658e+01 2.509136e+00 2.716836e+00 2.703731e+00 3.014234e+00 3.344649e+00 3.090596e+00 3.260105e+00 3.926405e+00 3.375312e+00 2.769264e+00 2.873168e+00 2.434404e+00 4.852659e+00
<GCONST> 1.084523e+02
<STATE> 3
<MEAN> 25
 -1.400684e-08 1.340949e-09 -5.880224e-09 -5.850504e-09 -8.629606e-09 9.788849e-10 1.603528e-09 -2.089255e-09 -1.431287e-09 1.124078e-09 6.218134e-09 1.751836e-10 6.873771e-04 2.279059e-03 -1.340097e-04 -1.498200e-03 1.847303e-04 1.120826e-03 -1.722512e-04 -2.740095e-03 -4.268390e-04 6.764302e-04 -1.223392e-03 -2.049843e-03 2.799437e-04
<VARIANCE> 25
 6.265284e+01 5.740559e+01 6.585151e+01 5.762260e+01 6.466252e+01 5.597293e+01 5.960957e+01 6.186906e+01 5.337073e+01 3.722601e+01 4.200803e+01 3.944658e+01 2.509136e+00 2.716836e+00 2.703731e+00 3.014234e+00 3.344649e+00 3.090596e+00 3.260105e+00 3.926405e+00 3.375312e+00 2.769264e+00 2.873168e+00 2.434404e+00 4.852659e+00
<GCONST> 1.084523e+02
<STATE> 4
<MEAN> 25
 -1.400684e-08 1.340949e-09 -5.880224e-09 -5.850504e-09 -8.629606e-09 9.788849e-10 1.603528e-09 -2.089255e-09 -1.431287e-09 1.124078e-09 6.218134e-09 1.751836e-10 6.873771e-04 2.279059e-03 -1.340097e-04 -1.498200e-03 1.847303e-04 1.120826e-03 -1.722512e-04 -2.740095e-03 -4.268390e-04 6.764302e-04 -1.223392e-03 -2.049843e-03 2.799437e-04
<VARIANCE> 25
 6.265284e+01 5.740559e+01 6.585151e+01 5.762260e+01 6.466252e+01 5.597293e+01 5.960957e+01 6.186906e+01 5.337073e+01 3.722601e+01 4.200803e+01 3.944658e+01 2.509136e+00 2.716836e+00 2.703731e+00 3.014234e+00 3.344649e+00 3.090596e+00 3.260105e+00 3.926405e+00 3.375312e+00 2.769264e+00 2.873168e+00 2.434404e+00 4.852659e+00
<GCONST> 1.084523e+02
<TRANSP> 5
 0.000000e+00 1.000000e+00 0.000000e+00 0.000000e+00 0.000000e+00
 0.000000e+00 6.000000e-01 4.000000e-01 0.000000e+00 0.000000e+00
 0.000000e+00 0.000000e+00 6.000000e-01 4.000000e-01 0.000000e+00
 0.000000e+00 0.000000e+00 0.000000e+00 7.000000e-01 3.000000e-01
 0.000000e+00 0.000000e+00 0.000000e+00 0.000000e+00 0.000000e+00
<ENDHMM>
~h "O"
<BEGINHMM>
<NUMSTATES> 5
<STATE> 2
<MEAN> 25
 -1.400684e-08 1.340949e-09 -5.880224e-09 -5.850504e-09 -8.629606e-09 9.788849e-10 1.603528e-09 -2.089255e-09 -1.431287e-09 1.124078e-09 6.218134e-09 1.751836e-10 6.873771e-04 2.279059e-03 -1.340097e-04 -1.498200e-03 1.847303e-04 1.120826e-03 -1.722512e-04 -2.740095e-03 -4.268390e-04 6.764302e-04 -1.223392e-03 -2.049843e-03 2.799437e-04
<VARIANCE> 25
 6.265284e+01 5.740559e+01 6.585151e+01 5.762260e+01 6.466252e+01 5.597293e+01 5.960957e+01 6.186906e+01 5.337073e+01 3.722601e+01 4.200803e+01 3.944658e+01 2.509136e+00 2.716836e+00 2.703731e+00 3.014234e+00 3.344649e+00 3.090596e+00 3.260105e+00 3.926405e+00 3.375312e+00 2.769264e+00 2.873168e+00 2.434404e+00 4.852659e+00
<GCONST> 1.084523e+02
<STATE> 3
<MEAN> 25
 -1.400684e-08 1.340949e-09 -5.880224e-09 -5.850504e-09 -8.629606e-09 9.788849e-10 1.603528e-09 -2.089255e-09 -1.431287e-09 1.124078e-09 6.218134e-09 1.751836e-10 6.873771e-04 2.279059e-03 -1.340097e-04 -1.498200e-03 1.847303e-04 1.120826e-03 -1.722512e-04 -2.740095e-03 -4.268390e-04 6.764302e-04 -1.223392e-03 -2.049843e-03 2.799437e-04
<VARIANCE> 25
 6.265284e+01 5.740559e+01 6.585151e+01 5.762260e+01 6.466252e+01 5.597293e+01 5.960957e+01 6.186906e+01 5.337073e+01 3.722601e+01 4.200803e+01 3.944658e+01 2.509136e+00 2.716836e+00 2.703731e+00 3.014234e+00 3.344649e+00 3.090596e+00 3.260105e+00 3.926405e+00 3.375312e+00 2.769264e+00 2.873168e+00 2.434404e+00 4.852659e+00
<GCONST> 1.084523e+02
<STATE> 4
<MEAN> 25
 -1.400684e-08 1.340949e-09 -5.880224e-09 -5.850504e-09 -8.629606e-09 9.788849e-10 1.603528e-09 -2.089255e-09 -1.431287e-09 1.124078e-09 6.218134e-09 1.751836e-10 6.873771e-04 2.279059e-03 -1.340097e-04 -1.498200e-03 1.847303e-04 1.120826e-03 -1.722512e-04 -2.740095e-03 -4.268390e-04 6.764302e-04 -1.223392e-03 -2.049843e-03 2.799437e-04
<VARIANCE> 25
 6.265284e+01 5.740559e+01 6.585151e+01 5.762260e+01 6.466252e+01 5.597293e+01 5.960957e+01 6.186906e+01 5.337073e+01 3.722601e+01 4.200803e+01 3.944658e+01 2.509136e+00 2.716836e+00 2.703731e+00 3.014234e+00 3.344649e+00 3.090596e+00 3.260105e+00 3.926405e+00 3.375312e+00 2.769264e+00 2.873168e+00 2.434404e+00 4.852659e+00
<GCONST> 1.084523e+02
<TRANSP> 5
 0.000000e+00 1.000000e+00 0.000000e+00 0.000000e+00 0.000000e+00
 0.000000e+00 6.000000e-01 4.000000e-01 0.000000e+00 0.000000e+00
 0.000000e+00 0.000000e+00 6.000000e-01 4.000000e-01 0.000000e+00
 0.000000e+00 0.000000e+00 0.000000e+00 7.000000e-01 3.000000e-01
 0.000000e+00 0.000000e+00 0.000000e+00 0.000000e+00 0.000000e+00
<ENDHMM>
~h "G"
<BEGINHMM>
<NUMSTATES> 5
<STATE> 2
<MEAN> 25
 -1.400684e-08 1.340949e-09 -5.880224e-09 -5.850504e-09 -8.629606e-09 9.788849e-10 1.603528e-09 -2.089255e-09 -1.431287e-09 1.124078e-09 6.218134e-09 1.751836e-10 6.873771e-04 2.279059e-03 -1.340097e-04 -1.498200e-03 1.847303e-04 1.120826e-03 -1.722512e-04 -2.740095e-03 -4.268390e-04 6.764302e-04 -1.223392e-03 -2.049843e-03 2.799437e-04
<VARIANCE> 25
 6.265284e+01 5.740559e+01 6.585151e+01 5.762260e+01 6.466252e+01 5.597293e+01 5.960957e+01 6.186906e+01 5.337073e+01 3.722601e+01 4.200803e+01 3.944658e+01 2.509136e+00 2.716836e+00 2.703731e+00 3.014234e+00 3.344649e+00 3.090596e+00 3.260105e+00 3.926405e+00 3.375312e+00 2.769264e+00 2.873168e+00 2.434404e+00 4.852659e+00
<GCONST> 1.084523e+02
<STATE> 3
<MEAN> 25
 -1.400684e-08 1.340949e-09 -5.880224e-09 -5.850504e-09 -8.629606e-09 9.788849e-10 1.603528e-09 -2.089255e-09 -1.431287e-09 1.124078e-09 6.218134e-09 1.751836e-10 6.873771e-04 2.279059e-03 -1.340097e-04 -1.498200e-03 1.847303e-04 1.120826e-03 -1.722512e-04 -2.740095e-03 -4.268390e-04 6.764302e-04 -1.223392e-03 -2.049843e-03 2.799437e-04
<VARIANCE> 25
 6.265284e+01 5.740559e+01 6.585151e+01 5.762260e+01 6.466252e+01 5.597293e+01 5.960957e+01 6.186906e+01 5.337073e+01 3.722601e+01 4.200803e+01 3.944658e+01 2.509136e+00 2.716836e+00 2.703731e+00 3.014234e+00 3.344649e+00 3.090596e+00 3.260105e+00 3.926405e+00 3.375312e+00 2.769264e+00 2.873168e+00 2.434404e+00 4.852659e+00
<GCONST> 1.084523e+02
<STATE> 4
<MEAN> 25
 -1.400684e-08 1.340949e-09 -5.880224e-09 -5.850504e-09 -8.629606e-09 9.788849e-10 1.603528e-09 -2.089255e-09 -1.431287e-09 1.124078e-09 6.218134e-09 1.751836e-10 6.873771e-04 2.279059e-03 -1.340097e-04 -1.498200e-03 1.847303e-04 1.120826e-03 -1.722512e-04 -2.740095e-03 -4.268390e-04 6.764302e-04 -1.223392e-03 -2.049843e-03 2.799437e-04
<VARIANCE> 25
 6.265284e+01 5.740559e+01 6.585151e+01 5.762260e+01 6.466252e+01 5.597293e+01 5.960957e+01 6.186906e+01 5.337073e+01 3.722601e+01 4.200803e+01 3.944658e+01 2.509136e+00 2.716836e+00 2.703731e+00 3.014234e+00 3.344649e+00 3.090596e+00 3.260105e+00 3.926405e+00 3.375312e+00 2.769264e+00 2.873168e+00 2.434404e+00 4.852659e+00
<GCONST> 1.084523e+02
<TRANSP> 5
 0.000000e+00 1.000000e+00 0.000000e+00 0.000000e+00 0.000000e+00
 0.000000e+00 6.000000e-01 4.000000e-01 0.000000e+00 0.000000e+00
 0.000000e+00 0.000000e+00 6.000000e-01 4.000000e-01 0.000000e+00
 0.000000e+00 0.000000e+00 0.000000e+00 7.000000e-01 3.000000e-01
 0.000000e+00 0.000000e+00 0.000000e+00 0.000000e+00 0.000000e+00
<ENDHMM>
~h "NY"
<BEGINHMM>
<NUMSTATES> 5
<STATE> 2
<MEAN> 25
 -1.400684e-08 1.340949e-09 -5.880224e-09 -5.850504e-09 -8.629606e-09 9.788849e-10 1.603528e-09 -2.089255e-09 -1.431287e-09 1.124078e-09 6.218134e-09 1.751836e-10 6.873771e-04 2.279059e-03 -1.340097e-04 -1.498200e-03 1.847303e-04 1.120826e-03 -1.722512e-04 -2.740095e-03 -4.268390e-04 6.764302e-04 -1.223392e-03 -2.049843e-03 2.799437e-04
<VARIANCE> 25
 6.265284e+01 5.740559e+01 6.585151e+01 5.762260e+01 6.466252e+01 5.597293e+01 5.960957e+01 6.186906e+01 5.337073e+01 3.722601e+01 4.200803e+01 3.944658e+01 2.509136e+00 2.716836e+00 2.703731e+00 3.014234e+00 3.344649e+00 3.090596e+00 3.260105e+00 3.926405e+00 3.375312e+00 2.769264e+00 2.873168e+00 2.434404e+00 4.852659e+00
<GCONST> 1.084523e+02
<STATE> 3
<MEAN> 25
 -1.400684e-08 1.340949e-09 -5.880224e-09 -5.850504e-09 -8.629606e-09 9.788849e-10 1.603528e-09 -2.089255e-09 -1.431287e-09 1.124078e-09 6.218134e-09 1.751836e-10 6.873771e-04 2.279059e-03 -1.340097e-04 -1.498200e-03 1.847303e-04 1.120826e-03 -1.722512e-04 -2.740095e-03 -4.268390e-04 6.764302e-04 -1.223392e-03 -2.049843e-03 2.799437e-04
<VARIANCE> 25
 6.265284e+01 5.740559e+01 6.585151e+01 5.762260e+01 6.466252e+01 5.597293e+01 5.960957e+01 6.186906e+01 5.337073e+01 3.722601e+01 4.200803e+01 3.944658e+01 2.509136e+00 2.716836e+00 2.703731e+00 3.014234e+00 3.344649e+00 3.090596e+00 3.260105e+00 3.926405e+00 3.375312e+00 2.769264e+00 2.873168e+00 2.434404e+00 4.852659e+00
<GCONST> 1.084523e+02
<STATE> 4
<MEAN> 25
 -1.400684e-08 1.340949e-09 -5.880224e-09 -5.850504e-09 -8.629606e-09 9.788849e-10 1.603528e-09 -2.089255e-09 -1.431287e-09 1.124078e-09 6.218134e-09 1.751836e-10 6.873771e-04 2.279059e-03 -1.340097e-04 -1.498200e-03 1.847303e-04 1.120826e-03 -1.722512e-04 -2.740095e-03 -4.268390e-04 6.764302e-04 -1.223392e-03 -2.049843e-03 2.799437e-04
<VARIANCE> 25
 6.265284e+01 5.740559e+01 6.585151e+01 5.762260e+01 6.466252e+01 5.597293e+01 5.960957e+01 6.186906e+01 5.337073e+01 3.722601e+01 4.200803e+01 3.944658e+01 2.509136e+00 2.716836e+00 2.703731e+00 3.014234e+00 3.344649e+00 3.090596e+00 3.260105e+00 3.926405e+00 3.375312e+00 2.769264e+00 2.873168e+00 2.434404e+00 4.852659e+00
<GCONST> 1.084523e+02
<TRANSP> 5
 0.000000e+00 1.000000e+00 0.000000e+00 0.000000e+00 0.000000e+00
 0.000000e+00 6.000000e-01 4.000000e-01 0.000000e+00 0.000000e+00
 0.000000e+00 0.000000e+00 6.000000e-01 4.000000e-01 0.000000e+00
 0.000000e+00 0.000000e+00 0.000000e+00 7.000000e-01 3.000000e-01
 0.000000e+00 0.000000e+00 0.000000e+00 0.000000e+00 0.000000e+00
<ENDHMM>
~h "T"
<BEGINHMM>
<NUMSTATES> 5
<STATE> 2
<MEAN> 25
 -1.400684e-08 1.340949e-09 -5.880224e-09 -5.850504e-09 -8.629606e-09 9.788849e-10 1.603528e-09 -2.089255e-09 -1.431287e-09 1.124078e-09 6.218134e-09 1.751836e-10 6.873771e-04 2.279059e-03 -1.340097e-04 -1.498200e-03 1.847303e-04 1.120826e-03 -1.722512e-04 -2.740095e-03 -4.268390e-04 6.764302e-04 -1.223392e-03 -2.049843e-03 2.799437e-04
<VARIANCE> 25
 6.265284e+01 5.740559e+01 6.585151e+01 5.762260e+01 6.466252e+01 5.597293e+01 5.960957e+01 6.186906e+01 5.337073e+01 3.722601e+01 4.200803e+01 3.944658e+01 2.509136e+00 2.716836e+00 2.703731e+00 3.014234e+00 3.344649e+00 3.090596e+00 3.260105e+00 3.926405e+00 3.375312e+00 2.769264e+00 2.873168e+00 2.434404e+00 4.852659e+00
<GCONST> 1.084523e+02
<STATE> 3
<MEAN> 25
 -1.400684e-08 1.340949e-09 -5.880224e-09 -5.850504e-09 -8.629606e-09 9.788849e-10 1.603528e-09 -2.089255e-09 -1.431287e-09 1.124078e-09 6.218134e-09 1.751836e-10 6.873771e-04 2.279059e-03 -1.340097e-04 -1.498200e-03 1.847303e-04 1.120826e-03 -1.722512e-04 -2.740095e-03 -4.268390e-04 6.764302e-04 -1.223392e-03 -2.049843e-03 2.799437e-04
<VARIANCE> 25
 6.265284e+01 5.740559e+01 6.585151e+01 5.762260e+01 6.466252e+01 5.597293e+01 5.960957e+01 6.186906e+01 5.337073e+01 3.722601e+01 4.200803e+01 3.944658e+01 2.509136e+00 2.716836e+00 2.703731e+00 3.014234e+00 3.344649e+00 3.090596e+00 3.260105e+00 3.926405e+00 3.375312e+00 2.769264e+00 2.873168e+00 2.434404e+00 4.852659e+00
<GCONST> 1.084523e+02
<STATE> 4
<MEAN> 25
 -1.400684e-08 1.340949e-09 -5.880224e-09 -5.850504e-09 -8.629606e-09 9.788849e-10 1.603528e-09 -2.089255e-09 -1.431287e-09 1.124078e-09 6.218134e-09 1.751836e-10 6.873771e-04 2.279059e-03 -1.340097e-04 -1.498200e-03 1.847303e-04 1.120826e-03 -1.722512e-04 -2.740095e-03 -4.268390e-04 6.764302e-04 -1.223392e-03 -2.049843e-03 2.799437e-04
<VARIANCE> 25
 6.265284e+01 5.740559e+01 6.585151e+01 5.762260e+01 6.466252e+01 5.597293e+01 5.960957e+01 6.186906e+01 5.337073e+01 3.722601e+01 4.200803e+01 3.944658e+01 2.509136e+00 2.716836e+00 2.703731e+00 3.014234e+00 3.344649e+00 3.090596e+00 3.260105e+00 3.926405e+00 3.375312e+00 2.769264e+00 2.873168e+00 2.434404e+00 4.852659e+00
<GCONST> 1.084523e+02
<TRANSP> 5
 0.000000e+00 1.000000e+00 0.000000e+00 0.000000e+00 0.000000e+00
 0.000000e+00 6.000000e-01 4.000000e-01 0.000000e+00 0.000000e+00
 0.000000e+00 0.000000e+00 6.000000e-01 4.000000e-01 0.000000e+00
 0.000000e+00 0.000000e+00 0.000000e+00 7.000000e-01 3.000000e-01
 0.000000e+00 0.000000e+00 0.000000e+00 0.000000e+00 0.000000e+00
<ENDHMM>
~h "C"
<BEGINHMM>
<NUMSTATES> 5
<STATE> 2
<MEAN> 25
 -1.400684e-08 1.340949e-09 -5.880224e-09 -5.850504e-09 -8.629606e-09 9.788849e-10 1.603528e-09 -2.089255e-09 -1.431287e-09 1.124078e-09 6.218134e-09 1.751836e-10 6.873771e-04 2.279059e-03 -1.340097e-04 -1.498200e-03 1.847303e-04 1.120826e-03 -1.722512e-04 -2.740095e-03 -4.268390e-04 6.764302e-04 -1.223392e-03 -2.049843e-03 2.799437e-04
<VARIANCE> 25
 6.265284e+01 5.740559e+01 6.585151e+01 5.762260e+01 6.466252e+01 5.597293e+01 5.960957e+01 6.186906e+01 5.337073e+01 3.722601e+01 4.200803e+01 3.944658e+01 2.509136e+00 2.716836e+00 2.703731e+00 3.014234e+00 3.344649e+00 3.090596e+00 3.260105e+00 3.926405e+00 3.375312e+00 2.769264e+00 2.873168e+00 2.434404e+00 4.852659e+00
<GCONST> 1.084523e+02
<STATE> 3
<MEAN> 25
 -1.400684e-08 1.340949e-09 -5.880224e-09 -5.850504e-09 -8.629606e-09 9.788849e-10 1.603528e-09 -2.089255e-09 -1.431287e-09 1.124078e-09 6.218134e-09 1.751836e-10 6.873771e-04 2.279059e-03 -1.340097e-04 -1.498200e-03 1.847303e-04 1.120826e-03 -1.722512e-04 -2.740095e-03 -4.268390e-04 6.764302e-04 -1.223392e-03 -2.049843e-03 2.799437e-04
<VARIANCE> 25
 6.265284e+01 5.740559e+01 6.585151e+01 5.762260e+01 6.466252e+01 5.597293e+01 5.960957e+01 6.186906e+01 5.337073e+01 3.722601e+01 4.200803e+01 3.944658e+01 2.509136e+00 2.716836e+00 2.703731e+00 3.014234e+00 3.344649e+00 3.090596e+00 3.260105e+00 3.926405e+00 3.375312e+00 2.769264e+00 2.873168e+00 2.434404e+00 4.852659e+00
<GCONST> 1.084523e+02
<STATE> 4
<MEAN> 25
 -1.400684e-08 1.340949e-09 -5.880224e-09 -5.850504e-09 -8.629606e-09 9.788849e-10 1.603528e-09 -2.089255e-09 -1.431287e-09 1.124078e-09 6.218134e-09 1.751836e-10 6.873771e-04 2.279059e-03 -1.340097e-04 -1.498200e-03 1.847303e-04 1.120826e-03 -1.722512e-04 -2.740095e-03 -4.268390e-04 6.764302e-04 -1.223392e-03 -2.049843e-03 2.799437e-04
<VARIANCE> 25
 6.265284e+01 5.740559e+01 6.585151e+01 5.762260e+01 6.466252e+01 5.597293e+01 5.960957e+01 6.186906e+01 5.337073e+01 3.722601e+01 4.200803e+01 3.944658e+01 2.509136e+00 2.716836e+00 2.703731e+00 3.014234e+00 3.344649e+00 3.090596e+00 3.260105e+00 3.926405e+00 3.375312e+00 2.769264e+00 2.873168e+00 2.434404e+00 4.852659e+00
<GCONST> 1.084523e+02
<TRANSP> 5
 0.000000e+00 1.000000e+00 0.000000e+00 0.000000e+00 0.000000e+00
 0.000000e+00 6.000000e-01 4.000000e-01 0.000000e+00 0.000000e+00
 0.000000e+00 0.000000e+00 6.000000e-01 4.000000e-01 0.000000e+00
 0.000000e+00 0.000000e+00 0.000000e+00 7.000000e-01 3.000000e-01
 0.000000e+00 0.000000e+00 0.000000e+00 0.000000e+00 0.000000e+00
<ENDHMM>
~h "W"
<BEGINHMM>
<NUMSTATES> 5
<STATE> 2
<MEAN> 25
 -1.400684e-08 1.340949e-09 -5.880224e-09 -5.850504e-09 -8.629606e-09 9.788849e-10 1.603528e-09 -2.089255e-09 -1.431287e-09 1.124078e-09 6.218134e-09 1.751836e-10 6.873771e-04 2.279059e-03 -1.340097e-04 -1.498200e-03 1.847303e-04 1.120826e-03 -1.722512e-04 -2.740095e-03 -4.268390e-04 6.764302e-04 -1.223392e-03 -2.049843e-03 2.799437e-04
<VARIANCE> 25
 6.265284e+01 5.740559e+01 6.585151e+01 5.762260e+01 6.466252e+01 5.597293e+01 5.960957e+01 6.186906e+01 5.337073e+01 3.722601e+01 4.200803e+01 3.944658e+01 2.509136e+00 2.716836e+00 2.703731e+00 3.014234e+00 3.344649e+00 3.090596e+00 3.260105e+00 3.926405e+00 3.375312e+00 2.769264e+00 2.873168e+00 2.434404e+00 4.852659e+00
<GCONST> 1.084523e+02
<STATE> 3
<MEAN> 25
 -1.400684e-08 1.340949e-09 -5.880224e-09 -5.850504e-09 -8.629606e-09 9.788849e-10 1.603528e-09 -2.089255e-09 -1.431287e-09 1.124078e-09 6.218134e-09 1.751836e-10 6.873771e-04 2.279059e-03 -1.340097e-04 -1.498200e-03 1.847303e-04 1.120826e-03 -1.722512e-04 -2.740095e-03 -4.268390e-04 6.764302e-04 -1.223392e-03 -2.049843e-03 2.799437e-04
<VARIANCE> 25
 6.265284e+01 5.740559e+01 6.585151e+01 5.762260e+01 6.466252e+01 5.597293e+01 5.960957e+01 6.186906e+01 5.337073e+01 3.722601e+01 4.200803e+01 3.944658e+01 2.509136e+00 2.716836e+00 2.703731e+00 3.014234e+00 3.344649e+00 3.090596e+00 3.260105e+00 3.926405e+00 3.375312e+00 2.769264e+00 2.873168e+00 2.434404e+00 4.852659e+00
<GCONST> 1.084523e+02
<STATE> 4
<MEAN> 25
 -1.400684e-08 1.340949e-09 -5.880224e-09 -5.850504e-09 -8.629606e-09 9.788849e-10 1.603528e-09 -2.089255e-09 -1.431287e-09 1.124078e-09 6.218134e-09 1.751836e-10 6.873771e-04 2.279059e-03 -1.340097e-04 -1.498200e-03 1.847303e-04 1.120826e-03 -1.722512e-04 -2.740095e-03 -4.268390e-04 6.764302e-04 -1.223392e-03 -2.049843e-03 2.799437e-04
<VARIANCE> 25
 6.265284e+01 5.740559e+01 6.585151e+01 5.762260e+01 6.466252e+01 5.597293e+01 5.960957e+01 6.186906e+01 5.337073e+01 3.722601e+01 4.200803e+01 3.944658e+01 2.509136e+00 2.716836e+00 2.703731e+00 3.014234e+00 3.344649e+00 3.090596e+00 3.260105e+00 3.926405e+00 3.375312e+00 2.769264e+00 2.873168e+00 2.434404e+00 4.852659e+00
<GCONST> 1.084523e+02
<TRANSP> 5
 0.000000e+00 1.000000e+00 0.000000e+00 0.000000e+00 0.000000e+00
 0.000000e+00 6.000000e-01 4.000000e-01 0.000000e+00 0.000000e+00
 0.000000e+00 0.000000e+00 6.000000e-01 4.000000e-01 0.000000e+00
 0.000000e+00 0.000000e+00 0.000000e+00 7.000000e-01 3.000000e-01
 0.000000e+00 0.000000e+00 0.000000e+00 0.000000e+00 0.000000e+00
<ENDHMM>
~h "J"
<BEGINHMM>
<NUMSTATES> 5
<STATE> 2
<MEAN> 25
 -1.400684e-08 1.340949e-09 -5.880224e-09 -5.850504e-09 -8.629606e-09 9.788849e-10 1.603528e-09 -2.089255e-09 -1.431287e-09 1.124078e-09 6.218134e-09 1.751836e-10 6.873771e-04 2.279059e-03 -1.340097e-04 -1.498200e-03 1.847303e-04 1.120826e-03 -1.722512e-04 -2.740095e-03 -4.268390e-04 6.764302e-04 -1.223392e-03 -2.049843e-03 2.799437e-04
<VARIANCE> 25
 6.265284e+01 5.740559e+01 6.585151e+01 5.762260e+01 6.466252e+01 5.597293e+01 5.960957e+01 6.186906e+01 5.337073e+01 3.722601e+01 4.200803e+01 3.944658e+01 2.509136e+00 2.716836e+00 2.703731e+00 3.014234e+00 3.344649e+00 3.090596e+00 3.260105e+00 3.926405e+00 3.375312e+00 2.769264e+00 2.873168e+00 2.434404e+00 4.852659e+00
<GCONST> 1.084523e+02
<STATE> 3
<MEAN> 25
 -1.400684e-08 1.340949e-09 -5.880224e-09 -5.850504e-09 -8.629606e-09 9.788849e-10 1.603528e-09 -2.089255e-09 -1.431287e-09 1.124078e-09 6.218134e-09 1.751836e-10 6.873771e-04 2.279059e-03 -1.340097e-04 -1.498200e-03 1.847303e-04 1.120826e-03 -1.722512e-04 -2.740095e-03 -4.268390e-04 6.764302e-04 -1.223392e-03 -2.049843e-03 2.799437e-04
<VARIANCE> 25
 6.265284e+01 5.740559e+01 6.585151e+01 5.762260e+01 6.466252e+01 5.597293e+01 5.960957e+01 6.186906e+01 5.337073e+01 3.722601e+01 4.200803e+01 3.944658e+01 2.509136e+00 2.716836e+00 2.703731e+00 3.014234e+00 3.344649e+00 3.090596e+00 3.260105e+00 3.926405e+00 3.375312e+00 2.769264e+00 2.873168e+00 2.434404e+00 4.852659e+00
<GCONST> 1.084523e+02
<STATE> 4
<MEAN> 25
 -1.400684e-08 1.340949e-09 -5.880224e-09 -5.850504e-09 -8.629606e-09 9.788849e-10 1.603528e-09 -2.089255e-09 -1.431287e-09 1.124078e-09 6.218134e-09 1.751836e-10 6.873771e-04 2.279059e-03 -1.340097e-04 -1.498200e-03 1.847303e-04 1.120826e-03 -1.722512e-04 -2.740095e-03 -4.268390e-04 6.764302e-04 -1.223392e-03 -2.049843e-03 2.799437e-04
<VARIANCE> 25
 6.265284e+01 5.740559e+01 6.585151e+01 5.762260e+01 6.466252e+01 5.597293e+01 5.960957e+01 6.186906e+01 5.337073e+01 3.722601e+01 4.200803e+01 3.944658e+01 2.509136e+00 2.716836e+00 2.703731e+00 3.014234e+00 3.344649e+00 3.090596e+00 3.260105e+00 3.926405e+00 3.375312e+00 2.769264e+00 2.873168e+00 2.434404e+00 4.852659e+00
<GCONST> 1.084523e+02
<TRANSP> 5
 0.000000e+00 1.000000e+00 0.000000e+00 0.000000e+00 0.000000e+00
 0.000000e+00 6.000000e-01 4.000000e-01 0.000000e+00 0.000000e+00
 0.000000e+00 0.000000e+00 6.000000e-01 4.000000e-01 0.000000e+00
 0.000000e+00 0.000000e+00 0.000000e+00 7.000000e-01 3.000000e-01
 0.000000e+00 0.000000e+00 0.000000e+00 0.000000e+00 0.000000e+00
<ENDHMM>
~h "V"
<BEGINHMM>
<NUMSTATES> 5
<STATE> 2
<MEAN> 25
 -1.400684e-08 1.340949e-09 -5.880224e-09 -5.850504e-09 -8.629606e-09 9.788849e-10 1.603528e-09 -2.089255e-09 -1.431287e-09 1.124078e-09 6.218134e-09 1.751836e-10 6.873771e-04 2.279059e-03 -1.340097e-04 -1.498200e-03 1.847303e-04 1.120826e-03 -1.722512e-04 -2.740095e-03 -4.268390e-04 6.764302e-04 -1.223392e-03 -2.049843e-03 2.799437e-04
<VARIANCE> 25
 6.265284e+01 5.740559e+01 6.585151e+01 5.762260e+01 6.466252e+01 5.597293e+01 5.960957e+01 6.186906e+01 5.337073e+01 3.722601e+01 4.200803e+01 3.944658e+01 2.509136e+00 2.716836e+00 2.703731e+00 3.014234e+00 3.344649e+00 3.090596e+00 3.260105e+00 3.926405e+00 3.375312e+00 2.769264e+00 2.873168e+00 2.434404e+00 4.852659e+00
<GCONST> 1.084523e+02
<STATE> 3
<MEAN> 25
 -1.400684e-08 1.340949e-09 -5.880224e-09 -5.850504e-09 -8.629606e-09 9.788849e-10 1.603528e-09 -2.089255e-09 -1.431287e-09 1.124078e-09 6.218134e-09 1.751836e-10 6.873771e-04 2.279059e-03 -1.340097e-04 -1.498200e-03 1.847303e-04 1.120826e-03 -1.722512e-04 -2.740095e-03 -4.268390e-04 6.764302e-04 -1.223392e-03 -2.049843e-03 2.799437e-04
<VARIANCE> 25
 6.265284e+01 5.740559e+01 6.585151e+01 5.762260e+01 6.466252e+01 5.597293e+01 5.960957e+01 6.186906e+01 5.337073e+01 3.722601e+01 4.200803e+01 3.944658e+01 2.509136e+00 2.716836e+00 2.703731e+00 3.014234e+00 3.344649e+00 3.090596e+00 3.260105e+00 3.926405e+00 3.375312e+00 2.769264e+00 2.873168e+00 2.434404e+00 4.852659e+00
<GCONST> 1.084523e+02
<STATE> 4
<MEAN> 25
 -1.400684e-08 1.340949e-09 -5.880224e-09 -5.850504e-09 -8.629606e-09 9.788849e-10 1.603528e-09 -2.089255e-09 -1.431287e-09 1.124078e-09 6.218134e-09 1.751836e-10 6.873771e-04 2.279059e-03 -1.340097e-04 -1.498200e-03 1.847303e-04 1.120826e-03 -1.722512e-04 -2.740095e-03 -4.268390e-04 6.764302e-04 -1.223392e-03 -2.049843e-03 2.799437e-04
<VARIANCE> 25
 6.265284e+01 5.740559e+01 6.585151e+01 5.762260e+01 6.466252e+01 5.597293e+01 5.960957e+01 6.186906e+01 5.337073e+01 3.722601e+01 4.200803e+01 3.944658e+01 2.509136e+00 2.716836e+00 2.703731e+00 3.014234e+00 3.344649e+00 3.090596e+00 3.260105e+00 3.926405e+00 3.375312e+00 2.769264e+00 2.873168e+00 2.434404e+00 4.852659e+00
<GCONST> 1.084523e+02
<TRANSP> 5
 0.000000e+00 1.000000e+00 0.000000e+00 0.000000e+00 0.000000e+00
 0.000000e+00 6.000000e-01 4.000000e-01 0.000000e+00 0.000000e+00
 0.000000e+00 0.000000e+00 6.000000e-01 4.000000e-01 0.000000e+00
 0.000000e+00 0.000000e+00 0.000000e+00 7.000000e-01 3.000000e-01
 0.000000e+00 0.000000e+00 0.000000e+00 0.000000e+00 0.000000e+00
<ENDHMM>
~h "F"
<BEGINHMM>
<NUMSTATES> 5
<STATE> 2
<MEAN> 25
 -1.400684e-08 1.340949e-09 -5.880224e-09 -5.850504e-09 -8.629606e-09 9.788849e-10 1.603528e-09 -2.089255e-09 -1.431287e-09 1.124078e-09 6.218134e-09 1.751836e-10 6.873771e-04 2.279059e-03 -1.340097e-04 -1.498200e-03 1.847303e-04 1.120826e-03 -1.722512e-04 -2.740095e-03 -4.268390e-04 6.764302e-04 -1.223392e-03 -2.049843e-03 2.799437e-04
<VARIANCE> 25
 6.265284e+01 5.740559e+01 6.585151e+01 5.762260e+01 6.466252e+01 5.597293e+01 5.960957e+01 6.186906e+01 5.337073e+01 3.722601e+01 4.200803e+01 3.944658e+01 2.509136e+00 2.716836e+00 2.703731e+00 3.014234e+00 3.344649e+00 3.090596e+00 3.260105e+00 3.926405e+00 3.375312e+00 2.769264e+00 2.873168e+00 2.434404e+00 4.852659e+00
<GCONST> 1.084523e+02
<STATE> 3
<MEAN> 25
 -1.400684e-08 1.340949e-09 -5.880224e-09 -5.850504e-09 -8.629606e-09 9.788849e-10 1.603528e-09 -2.089255e-09 -1.431287e-09 1.124078e-09 6.218134e-09 1.751836e-10 6.873771e-04 2.279059e-03 -1.340097e-04 -1.498200e-03 1.847303e-04 1.120826e-03 -1.722512e-04 -2.740095e-03 -4.268390e-04 6.764302e-04 -1.223392e-03 -2.049843e-03 2.799437e-04
<VARIANCE> 25
 6.265284e+01 5.740559e+01 6.585151e+01 5.762260e+01 6.466252e+01 5.597293e+01 5.960957e+01 6.186906e+01 5.337073e+01 3.722601e+01 4.200803e+01 3.944658e+01 2.509136e+00 2.716836e+00 2.703731e+00 3.014234e+00 3.344649e+00 3.090596e+00 3.260105e+00 3.926405e+00 3.375312e+00 2.769264e+00 2.873168e+00 2.434404e+00 4.852659e+00
<GCONST> 1.084523e+02
<STATE> 4
<MEAN> 25
 -1.400684e-08 1.340949e-09 -5.880224e-09 -5.850504e-09 -8.629606e-09 9.788849e-10 1.603528e-09 -2.089255e-09 -1.431287e-09 1.124078e-09 6.218134e-09 1.751836e-10 6.873771e-04 2.279059e-03 -1.340097e-04 -1.498200e-03 1.847303e-04 1.120826e-03 -1.722512e-04 -2.740095e-03 -4.268390e-04 6.764302e-04 -1.223392e-03 -2.049843e-03 2.799437e-04
<VARIANCE> 25
 6.265284e+01 5.740559e+01 6.585151e+01 5.762260e+01 6.466252e+01 5.597293e+01 5.960957e+01 6.186906e+01 5.337073e+01 3.722601e+01 4.200803e+01 3.944658e+01 2.509136e+00 2.716836e+00 2.703731e+00 3.014234e+00 3.344649e+00 3.090596e+00 3.260105e+00 3.926405e+00 3.375312e+00 2.769264e+00 2.873168e+00 2.434404e+00 4.852659e+00
<GCONST> 1.084523e+02
<TRANSP> 5
 0.000000e+00 1.000000e+00 0.000000e+00 0.000000e+00 0.000000e+00
 0.000000e+00 6.000000e-01 4.000000e-01 0.000000e+00 0.000000e+00
 0.000000e+00 0.000000e+00 6.000000e-01 4.000000e-01 0.000000e+00
 0.000000e+00 0.000000e+00 0.000000e+00 7.000000e-01 3.000000e-01
 0.000000e+00 0.000000e+00 0.000000e+00 0.000000e+00 0.000000e+00
<ENDHMM>
~h "Q"
<BEGINHMM>
<NUMSTATES> 5
<STATE> 2
<MEAN> 25
 -1.400684e-08 1.340949e-09 -5.880224e-09 -5.850504e-09 -8.629606e-09 9.788849e-10 1.603528e-09 -2.089255e-09 -1.431287e-09 1.124078e-09 6.218134e-09 1.751836e-10 6.873771e-04 2.279059e-03 -1.340097e-04 -1.498200e-03 1.847303e-04 1.120826e-03 -1.722512e-04 -2.740095e-03 -4.268390e-04 6.764302e-04 -1.223392e-03 -2.049843e-03 2.799437e-04
<VARIANCE> 25
 6.265284e+01 5.740559e+01 6.585151e+01 5.762260e+01 6.466252e+01 5.597293e+01 5.960957e+01 6.186906e+01 5.337073e+01 3.722601e+01 4.200803e+01 3.944658e+01 2.509136e+00 2.716836e+00 2.703731e+00 3.014234e+00 3.344649e+00 3.090596e+00 3.260105e+00 3.926405e+00 3.375312e+00 2.769264e+00 2.873168e+00 2.434404e+00 4.852659e+00
<GCONST> 1.084523e+02
<STATE> 3
<MEAN> 25
 -1.400684e-08 1.340949e-09 -5.880224e-09 -5.850504e-09 -8.629606e-09 9.788849e-10 1.603528e-09 -2.089255e-09 -1.431287e-09 1.124078e-09 6.218134e-09 1.751836e-10 6.873771e-04 2.279059e-03 -1.340097e-04 -1.498200e-03 1.847303e-04 1.120826e-03 -1.722512e-04 -2.740095e-03 -4.268390e-04 6.764302e-04 -1.223392e-03 -2.049843e-03 2.799437e-04
<VARIANCE> 25
 6.265284e+01 5.740559e+01 6.585151e+01 5.762260e+01 6.466252e+01 5.597293e+01 5.960957e+01 6.186906e+01 5.337073e+01 3.722601e+01 4.200803e+01 3.944658e+01 2.509136e+00 2.716836e+00 2.703731e+00 3.014234e+00 3.344649e+00 3.090596e+00 3.260105e+00 3.926405e+00 3.375312e+00 2.769264e+00 2.873168e+00 2.434404e+00 4.852659e+00
<GCONST> 1.084523e+02
<STATE> 4
<MEAN> 25
 -1.400684e-08 1.340949e-09 -5.880224e-09 -5.850504e-09 -8.629606e-09 9.788849e-10 1.603528e-09 -2.089255e-09 -1.431287e-09 1.124078e-09 6.218134e-09 1.751836e-10 6.873771e-04 2.279059e-03 -1.340097e-04 -1.498200e-03 1.847303e-04 1.120826e-03 -1.722512e-04 -2.740095e-03 -4.268390e-04 6.764302e-04 -1.223392e-03 -2.049843e-03 2.799437e-04
<VARIANCE> 25
 6.265284e+01 5.740559e+01 6.585151e+01 5.762260e+01 6.466252e+01 5.597293e+01 5.960957e+01 6.186906e+01 5.337073e+01 3.722601e+01 4.200803e+01 3.944658e+01 2.509136e+00 2.716836e+00 2.703731e+00 3.014234e+00 3.344649e+00 3.090596e+00 3.260105e+00 3.926405e+00 3.375312e+00 2.769264e+00 2.873168e+00 2.434404e+00 4.852659e+00
<GCONST> 1.084523e+02
<TRANSP> 5
 0.000000e+00 1.000000e+00 0.000000e+00 0.000000e+00 0.000000e+00
 0.000000e+00 6.000000e-01 4.000000e-01 0.000000e+00 0.000000e+00
 0.000000e+00 0.000000e+00 6.000000e-01 4.000000e-01 0.000000e+00
 0.000000e+00 0.000000e+00 0.000000e+00 7.000000e-01 3.000000e-01
 0.000000e+00 0.000000e+00 0.000000e+00 0.000000e+00 0.000000e+00
<ENDHMM>
~h "SY"
<BEGINHMM>
<NUMSTATES> 5
<STATE> 2
<MEAN> 25
 -1.400684e-08 1.340949e-09 -5.880224e-09 -5.850504e-09 -8.629606e-09 9.788849e-10 1.603528e-09 -2.089255e-09 -1.431287e-09 1.124078e-09 6.218134e-09 1.751836e-10 6.873771e-04 2.279059e-03 -1.340097e-04 -1.498200e-03 1.847303e-04 1.120826e-03 -1.722512e-04 -2.740095e-03 -4.268390e-04 6.764302e-04 -1.223392e-03 -2.049843e-03 2.799437e-04
<VARIANCE> 25
 6.265284e+01 5.740559e+01 6.585151e+01 5.762260e+01 6.466252e+01 5.597293e+01 5.960957e+01 6.186906e+01 5.337073e+01 3.722601e+01 4.200803e+01 3.944658e+01 2.509136e+00 2.716836e+00 2.703731e+00 3.014234e+00 3.344649e+00 3.090596e+00 3.260105e+00 3.926405e+00 3.375312e+00 2.769264e+00 2.873168e+00 2.434404e+00 4.852659e+00
<GCONST> 1.084523e+02
<STATE> 3
<MEAN> 25
 -1.400684e-08 1.340949e-09 -5.880224e-09 -5.850504e-09 -8.629606e-09 9.788849e-10 1.603528e-09 -2.089255e-09 -1.431287e-09 1.124078e-09 6.218134e-09 1.751836e-10 6.873771e-04 2.279059e-03 -1.340097e-04 -1.498200e-03 1.847303e-04 1.120826e-03 -1.722512e-04 -2.740095e-03 -4.268390e-04 6.764302e-04 -1.223392e-03 -2.049843e-03 2.799437e-04
<VARIANCE> 25
 6.265284e+01 5.740559e+01 6.585151e+01 5.762260e+01 6.466252e+01 5.597293e+01 5.960957e+01 6.186906e+01 5.337073e+01 3.722601e+01 4.200803e+01 3.944658e+01 2.509136e+00 2.716836e+00 2.703731e+00 3.014234e+00 3.344649e+00 3.090596e+00 3.260105e+00 3.926405e+00 3.375312e+00 2.769264e+00 2.873168e+00 2.434404e+00 4.852659e+00
<GCONST> 1.084523e+02
<STATE> 4
<MEAN> 25
 -1.400684e-08 1.340949e-09 -5.880224e-09 -5.850504e-09 -8.629606e-09 9.788849e-10 1.603528e-09 -2.089255e-09 -1.431287e-09 1.124078e-09 6.218134e-09 1.751836e-10 6.873771e-04 2.279059e-03 -1.340097e-04 -1.498200e-03 1.847303e-04 1.120826e-03 -1.722512e-04 -2.740095e-03 -4.268390e-04 6.764302e-04 -1.223392e-03 -2.049843e-03 2.799437e-04
<VARIANCE> 25
 6.265284e+01 5.740559e+01 6.585151e+01 5.762260e+01 6.466252e+01 5.597293e+01 5.960957e+01 6.186906e+01 5.337073e+01 3.722601e+01 4.200803e+01 3.944658e+01 2.509136e+00 2.716836e+00 2.703731e+00 3.014234e+00 3.344649e+00 3.090596e+00 3.260105e+00 3.926405e+00 3.375312e+00 2.769264e+00 2.873168e+00 2.434404e+00 4.852659e+00
<GCONST> 1.084523e+02
<TRANSP> 5
 0.000000e+00 1.000000e+00 0.000000e+00 0.000000e+00 0.000000e+00
 0.000000e+00 6.000000e-01 4.000000e-01 0.000000e+00 0.000000e+00
 0.000000e+00 0.000000e+00 6.000000e-01 4.000000e-01 0.000000e+00
 0.000000e+00 0.000000e+00 0.000000e+00 7.000000e-01 3.000000e-01
 0.000000e+00 0.000000e+00 0.000000e+00 0.000000e+00 0.000000e+00
<ENDHMM>
~h "X"
<BEGINHMM>
<NUMSTATES> 5
<STATE> 2
<MEAN> 25
 -1.400684e-08 1.340949e-09 -5.880224e-09 -5.850504e-09 -8.629606e-09 9.788849e-10 1.603528e-09 -2.089255e-09 -1.431287e-09 1.124078e-09 6.218134e-09 1.751836e-10 6.873771e-04 2.279059e-03 -1.340097e-04 -1.498200e-03 1.847303e-04 1.120826e-03 -1.722512e-04 -2.740095e-03 -4.268390e-04 6.764302e-04 -1.223392e-03 -2.049843e-03 2.799437e-04
<VARIANCE> 25
 6.265284e+01 5.740559e+01 6.585151e+01 5.762260e+01 6.466252e+01 5.597293e+01 5.960957e+01 6.186906e+01 5.337073e+01 3.722601e+01 4.200803e+01 3.944658e+01 2.509136e+00 2.716836e+00 2.703731e+00 3.014234e+00 3.344649e+00 3.090596e+00 3.260105e+00 3.926405e+00 3.375312e+00 2.769264e+00 2.873168e+00 2.434404e+00 4.852659e+00
<GCONST> 1.084523e+02
<STATE> 3
<MEAN> 25
 -1.400684e-08 1.340949e-09 -5.880224e-09 -5.850504e-09 -8.629606e-09 9.788849e-10 1.603528e-09 -2.089255e-09 -1.431287e-09 1.124078e-09 6.218134e-09 1.751836e-10 6.873771e-04 2.279059e-03 -1.340097e-04 -1.498200e-03 1.847303e-04 1.120826e-03 -1.722512e-04 -2.740095e-03 -4.268390e-04 6.764302e-04 -1.223392e-03 -2.049843e-03 2.799437e-04
<VARIANCE> 25
 6.265284e+01 5.740559e+01 6.585151e+01 5.762260e+01 6.466252e+01 5.597293e+01 5.960957e+01 6.186906e+01 5.337073e+01 3.722601e+01 4.200803e+01 3.944658e+01 2.509136e+00 2.716836e+00 2.703731e+00 3.014234e+00 3.344649e+00 3.090596e+00 3.260105e+00 3.926405e+00 3.375312e+00 2.769264e+00 2.873168e+00 2.434404e+00 4.852659e+00
<GCONST> 1.084523e+02
<STATE> 4
<MEAN> 25
 -1.400684e-08 1.340949e-09 -5.880224e-09 -5.850504e-09 -8.629606e-09 9.788849e-10 1.603528e-09 -2.089255e-09 -1.431287e-09 1.124078e-09 6.218134e-09 1.751836e-10 6.873771e-04 2.279059e-03 -1.340097e-04 -1.498200e-03 1.847303e-04 1.120826e-03 -1.722512e-04 -2.740095e-03 -4.268390e-04 6.764302e-04 -1.223392e-03 -2.049843e-03 2.799437e-04
<VARIANCE> 25
 6.265284e+01 5.740559e+01 6.585151e+01 5.762260e+01 6.466252e+01 5.597293e+01 5.960957e+01 6.186906e+01 5.337073e+01 3.722601e+01 4.200803e+01 3.944658e+01 2.509136e+00 2.716836e+00 2.703731e+00 3.014234e+00 3.344649e+00 3.090596e+00 3.260105e+00 3.926405e+00 3.375312e+00 2.769264e+00 2.873168e+00 2.434404e+00 4.852659e+00
<GCONST> 1.084523e+02
<TRANSP> 5
 0.000000e+00 1.000000e+00 0.000000e+00 0.000000e+00 0.000000e+00
 0.000000e+00 6.000000e-01 4.000000e-01 0.000000e+00 0.000000e+00
 0.000000e+00 0.000000e+00 6.000000e-01 4.000000e-01 0.000000e+00
 0.000000e+00 0.000000e+00 0.000000e+00 7.000000e-01 3.000000e-01
 0.000000e+00 0.000000e+00 0.000000e+00 0.000000e+00 0.000000e+00
<ENDHMM>
~h "Z"
<BEGINHMM>
<NUMSTATES> 5
<STATE> 2
<MEAN> 25
 -1.400684e-08 1.340949e-09 -5.880224e-09 -5.850504e-09 -8.629606e-09 9.788849e-10 1.603528e-09 -2.089255e-09 -1.431287e-09 1.124078e-09 6.218134e-09 1.751836e-10 6.873771e-04 2.279059e-03 -1.340097e-04 -1.498200e-03 1.847303e-04 1.120826e-03 -1.722512e-04 -2.740095e-03 -4.268390e-04 6.764302e-04 -1.223392e-03 -2.049843e-03 2.799437e-04
<VARIANCE> 25
 6.265284e+01 5.740559e+01 6.585151e+01 5.762260e+01 6.466252e+01 5.597293e+01 5.960957e+01 6.186906e+01 5.337073e+01 3.722601e+01 4.200803e+01 3.944658e+01 2.509136e+00 2.716836e+00 2.703731e+00 3.014234e+00 3.344649e+00 3.090596e+00 3.260105e+00 3.926405e+00 3.375312e+00 2.769264e+00 2.873168e+00 2.434404e+00 4.852659e+00
<GCONST> 1.084523e+02
<STATE> 3
<MEAN> 25
 -1.400684e-08 1.340949e-09 -5.880224e-09 -5.850504e-09 -8.629606e-09 9.788849e-10 1.603528e-09 -2.089255e-09 -1.431287e-09 1.124078e-09 6.218134e-09 1.751836e-10 6.873771e-04 2.279059e-03 -1.340097e-04 -1.498200e-03 1.847303e-04 1.120826e-03 -1.722512e-04 -2.740095e-03 -4.268390e-04 6.764302e-04 -1.223392e-03 -2.049843e-03 2.799437e-04
<VARIANCE> 25
 6.265284e+01 5.740559e+01 6.585151e+01 5.762260e+01 6.466252e+01 5.597293e+01 5.960957e+01 6.186906e+01 5.337073e+01 3.722601e+01 4.200803e+01 3.944658e+01 2.509136e+00 2.716836e+00 2.703731e+00 3.014234e+00 3.344649e+00 3.090596e+00 3.260105e+00 3.926405e+00 3.375312e+00 2.769264e+00 2.873168e+00 2.434404e+00 4.852659e+00
<GCONST> 1.084523e+02
<STATE> 4
<MEAN> 25
 -1.400684e-08 1.340949e-09 -5.880224e-09 -5.850504e-09 -8.629606e-09 9.788849e-10 1.603528e-09 -2.089255e-09 -1.431287e-09 1.124078e-09 6.218134e-09 1.751836e-10 6.873771e-04 2.279059e-03 -1.340097e-04 -1.498200e-03 1.847303e-04 1.120826e-03 -1.722512e-04 -2.740095e-03 -4.268390e-04 6.764302e-04 -1.223392e-03 -2.049843e-03 2.799437e-04
<VARIANCE> 25
 6.265284e+01 5.740559e+01 6.585151e+01 5.762260e+01 6.466252e+01 5.597293e+01 5.960957e+01 6.186906e+01 5.337073e+01 3.722601e+01 4.200803e+01 3.944658e+01 2.509136e+00 2.716836e+00 2.703731e+00 3.014234e+00 3.344649e+00 3.090596e+00 3.260105e+00 3.926405e+00 3.375312e+00 2.769264e+00 2.873168e+00 2.434404e+00 4.852659e+00
<GCONST> 1.084523e+02
<TRANSP> 5
 0.000000e+00 1.000000e+00 0.000000e+00 0.000000e+00 0.000000e+00
 0.000000e+00 6.000000e-01 4.000000e-01 0.000000e+00 0.000000e+00
 0.000000e+00 0.000000e+00 6.000000e-01 4.000000e-01 0.000000e+00
 0.000000e+00 0.000000e+00 0.000000e+00 7.000000e-01 3.000000e-01
 0.000000e+00 0.000000e+00 0.000000e+00 0.000000e+00 0.000000e+00
<ENDHMM>
~h "AU"
<BEGINHMM>
<NUMSTATES> 5
<STATE> 2
<MEAN> 25
 -1.400684e-08 1.340949e-09 -5.880224e-09 -5.850504e-09 -8.629606e-09 9.788849e-10 1.603528e-09 -2.089255e-09 -1.431287e-09 1.124078e-09 6.218134e-09 1.751836e-10 6.873771e-04 2.279059e-03 -1.340097e-04 -1.498200e-03 1.847303e-04 1.120826e-03 -1.722512e-04 -2.740095e-03 -4.268390e-04 6.764302e-04 -1.223392e-03 -2.049843e-03 2.799437e-04
<VARIANCE> 25
 6.265284e+01 5.740559e+01 6.585151e+01 5.762260e+01 6.466252e+01 5.597293e+01 5.960957e+01 6.186906e+01 5.337073e+01 3.722601e+01 4.200803e+01 3.944658e+01 2.509136e+00 2.716836e+00 2.703731e+00 3.014234e+00 3.344649e+00 3.090596e+00 3.260105e+00 3.926405e+00 3.375312e+00 2.769264e+00 2.873168e+00 2.434404e+00 4.852659e+00
<GCONST> 1.084523e+02
<STATE> 3
<MEAN> 25
 -1.400684e-08 1.340949e-09 -5.880224e-09 -5.850504e-09 -8.629606e-09 9.788849e-10 1.603528e-09 -2.089255e-09 -1.431287e-09 1.124078e-09 6.218134e-09 1.751836e-10 6.873771e-04 2.279059e-03 -1.340097e-04 -1.498200e-03 1.847303e-04 1.120826e-03 -1.722512e-04 -2.740095e-03 -4.268390e-04 6.764302e-04 -1.223392e-03 -2.049843e-03 2.799437e-04
<VARIANCE> 25
 6.265284e+01 5.740559e+01 6.585151e+01 5.762260e+01 6.466252e+01 5.597293e+01 5.960957e+01 6.186906e+01 5.337073e+01 3.722601e+01 4.200803e+01 3.944658e+01 2.509136e+00 2.716836e+00 2.703731e+00 3.014234e+00 3.344649e+00 3.090596e+00 3.260105e+00 3.926405e+00 3.375312e+00 2.769264e+00 2.873168e+00 2.434404e+00 4.852659e+00
<GCONST> 1.084523e+02
<STATE> 4
<MEAN> 25
 -1.400684e-08 1.340949e-09 -5.880224e-09 -5.850504e-09 -8.629606e-09 9.788849e-10 1.603528e-09 -2.089255e-09 -1.431287e-09 1.124078e-09 6.218134e-09 1.751836e-10 6.873771e-04 2.279059e-03 -1.340097e-04 -1.498200e-03 1.847303e-04 1.120826e-03 -1.722512e-04 -2.740095e-03 -4.268390e-04 6.764302e-04 -1.223392e-03 -2.049843e-03 2.799437e-04
<VARIANCE> 25
 6.265284e+01 5.740559e+01 6.585151e+01 5.762260e+01 6.466252e+01 5.597293e+01 5.960957e+01 6.186906e+01 5.337073e+01 3.722601e+01 4.200803e+01 3.944658e+01 2.509136e+00 2.716836e+00 2.703731e+00 3.014234e+00 3.344649e+00 3.090596e+00 3.260105e+00 3.926405e+00 3.375312e+00 2.769264e+00 2.873168e+00 2.434404e+00 4.852659e+00
<GCONST> 1.084523e+02
<TRANSP> 5
 0.000000e+00 1.000000e+00 0.000000e+00 0.000000e+00 0.000000e+00
 0.000000e+00 6.000000e-01 4.000000e-01 0.000000e+00 0.000000e+00
 0.000000e+00 0.000000e+00 6.000000e-01 4.000000e-01 0.000000e+00
 0.000000e+00 0.000000e+00 0.000000e+00 7.000000e-01 3.000000e-01
 0.000000e+00 0.000000e+00 0.000000e+00 0.000000e+00 0.000000e+00
<ENDHMM>
~h "OI"
<BEGINHMM>
<NUMSTATES> 5
<STATE> 2
<MEAN> 25
 -1.400684e-08 1.340949e-09 -5.880224e-09 -5.850504e-09 -8.629606e-09 9.788849e-10 1.603528e-09 -2.089255e-09 -1.431287e-09 1.124078e-09 6.218134e-09 1.751836e-10 6.873771e-04 2.279059e-03 -1.340097e-04 -1.498200e-03 1.847303e-04 1.120826e-03 -1.722512e-04 -2.740095e-03 -4.268390e-04 6.764302e-04 -1.223392e-03 -2.049843e-03 2.799437e-04
<VARIANCE> 25
 6.265284e+01 5.740559e+01 6.585151e+01 5.762260e+01 6.466252e+01 5.597293e+01 5.960957e+01 6.186906e+01 5.337073e+01 3.722601e+01 4.200803e+01 3.944658e+01 2.509136e+00 2.716836e+00 2.703731e+00 3.014234e+00 3.344649e+00 3.090596e+00 3.260105e+00 3.926405e+00 3.375312e+00 2.769264e+00 2.873168e+00 2.434404e+00 4.852659e+00
<GCONST> 1.084523e+02
<STATE> 3
<MEAN> 25
 -1.400684e-08 1.340949e-09 -5.880224e-09 -5.850504e-09 -8.629606e-09 9.788849e-10 1.603528e-09 -2.089255e-09 -1.431287e-09 1.124078e-09 6.218134e-09 1.751836e-10 6.873771e-04 2.279059e-03 -1.340097e-04 -1.498200e-03 1.847303e-04 1.120826e-03 -1.722512e-04 -2.740095e-03 -4.268390e-04 6.764302e-04 -1.223392e-03 -2.049843e-03 2.799437e-04
<VARIANCE> 25
 6.265284e+01 5.740559e+01 6.585151e+01 5.762260e+01 6.466252e+01 5.597293e+01 5.960957e+01 6.186906e+01 5.337073e+01 3.722601e+01 4.200803e+01 3.944658e+01 2.509136e+00 2.716836e+00 2.703731e+00 3.014234e+00 3.344649e+00 3.090596e+00 3.260105e+00 3.926405e+00 3.375312e+00 2.769264e+00 2.873168e+00 2.434404e+00 4.852659e+00
<GCONST> 1.084523e+02
<STATE> 4
<MEAN> 25
 -1.400684e-08 1.340949e-09 -5.880224e-09 -5.850504e-09 -8.629606e-09 9.788849e-10 1.603528e-09 -2.089255e-09 -1.431287e-09 1.124078e-09 6.218134e-09 1.751836e-10 6.873771e-04 2.279059e-03 -1.340097e-04 -1.498200e-03 1.847303e-04 1.120826e-03 -1.722512e-04 -2.740095e-03 -4.268390e-04 6.764302e-04 -1.223392e-03 -2.049843e-03 2.799437e-04
<VARIANCE> 25
 6.265284e+01 5.740559e+01 6.585151e+01 5.762260e+01 6.466252e+01 5.597293e+01 5.960957e+01 6.186906e+01 5.337073e+01 3.722601e+01 4.200803e+01 3.944658e+01 2.509136e+00 2.716836e+00 2.703731e+00 3.014234e+00 3.344649e+00 3.090596e+00 3.260105e+00 3.926405e+00 3.375312e+00 2.769264e+00 2.873168e+00 2.434404e+00 4.852659e+00
<GCONST> 1.084523e+02
<TRANSP> 5
 0.000000e+00 1.000000e+00 0.000000e+00 0.000000e+00 0.000000e+00
 0.000000e+00 6.000000e-01 4.000000e-01 0.000000e+00 0.000000e+00
 0.000000e+00 0.000000e+00 6.000000e-01 4.000000e-01 0.000000e+00
 0.000000e+00 0.000000e+00 0.000000e+00 7.000000e-01 3.000000e-01
 0.000000e+00 0.000000e+00 0.000000e+00 0.000000e+00 0.000000e+00
<ENDHMM>
~h "sil"
<BEGINHMM>
<NUMSTATES> 5
<STATE> 2
<MEAN> 25
 -1.400684e-08 1.340949e-09 -5.880224e-09 -5.850504e-09 -8.629606e-09 9.788849e-10 1.603528e-09 -2.089255e-09 -1.431287e-09 1.124078e-09 6.218134e-09 1.751836e-10 6.873771e-04 2.279059e-03 -1.340097e-04 -1.498200e-03 1.847303e-04 1.120826e-03 -1.722512e-04 -2.740095e-03 -4.268390e-04 6.764302e-04 -1.223392e-03 -2.049843e-03 2.799437e-04
<VARIANCE> 25
 6.265284e+01 5.740559e+01 6.585151e+01 5.762260e+01 6.466252e+01 5.597293e+01 5.960957e+01 6.186906e+01 5.337073e+01 3.722601e+01 4.200803e+01 3.944658e+01 2.509136e+00 2.716836e+00 2.703731e+00 3.014234e+00 3.344649e+00 3.090596e+00 3.260105e+00 3.926405e+00 3.375312e+00 2.769264e+00 2.873168e+00 2.434404e+00 4.852659e+00
<GCONST> 1.084523e+02
<STATE> 3
<MEAN> 25
 -1.400684e-08 1.340949e-09 -5.880224e-09 -5.850504e-09 -8.629606e-09 9.788849e-10 1.603528e-09 -2.089255e-09 -1.431287e-09 1.124078e-09 6.218134e-09 1.751836e-10 6.873771e-04 2.279059e-03 -1.340097e-04 -1.498200e-03 1.847303e-04 1.120826e-03 -1.722512e-04 -2.740095e-03 -4.268390e-04 6.764302e-04 -1.223392e-03 -2.049843e-03 2.799437e-04
<VARIANCE> 25
 6.265284e+01 5.740559e+01 6.585151e+01 5.762260e+01 6.466252e+01 5.597293e+01 5.960957e+01 6.186906e+01 5.337073e+01 3.722601e+01 4.200803e+01 3.944658e+01 2.509136e+00 2.716836e+00 2.703731e+00 3.014234e+00 3.344649e+00 3.090596e+00 3.260105e+00 3.926405e+00 3.375312e+00 2.769264e+00 2.873168e+00 2.434404e+00 4.852659e+00
<GCONST> 1.084523e+02
<STATE> 4
<MEAN> 25
 -1.400684e-08 1.340949e-09 -5.880224e-09 -5.850504e-09 -8.629606e-09 9.788849e-10 1.603528e-09 -2.089255e-09 -1.431287e-09 1.124078e-09 6.218134e-09 1.751836e-10 6.873771e-04 2.279059e-03 -1.340097e-04 -1.498200e-03 1.847303e-04 1.120826e-03 -1.722512e-04 -2.740095e-03 -4.268390e-04 6.764302e-04 -1.223392e-03 -2.049843e-03 2.799437e-04
<VARIANCE> 25
 6.265284e+01 5.740559e+01 6.585151e+01 5.762260e+01 6.466252e+01 5.597293e+01 5.960957e+01 6.186906e+01 5.337073e+01 3.722601e+01 4.200803e+01 3.944658e+01 2.509136e+00 2.716836e+00 2.703731e+00 3.014234e+00 3.344649e+00 3.090596e+00 3.260105e+00 3.926405e+00 3.375312e+00 2.769264e+00 2.873168e+00 2.434404e+00 4.852659e+00
<GCONST> 1.084523e+02
<TRANSP> 5
 0.000000e+00 1.000000e+00 0.000000e+00 0.000000e+00 0.000000e+00
 0.000000e+00 6.000000e-01 4.000000e-01 0.000000e+00 0.000000e+00
 0.000000e+00 0.000000e+00 6.000000e-01 4.000000e-01 0.000000e+00
 0.000000e+00 0.000000e+00 0.000000e+00 7.000000e-01 3.000000e-01
 0.000000e+00 0.000000e+00 0.000000e+00 0.000000e+00 0.000000e+00
<ENDHMM>
