~o
<STREAMINFO> 1 25
<VECSIZE> 25<NULLD><MFCC_D_N_Z_0><DIAGC>
~s "silst"
<MEAN> 25
 -5.723759e+00 1.446287e+00 -1.668486e+00 4.159612e+00 4.222440e+00 -1.335876e+00 4.779533e+00 1.842870e+00 6.719884e-02 -9.894459e-01 5.669006e-01 3.917007e+00 -4.852073e-02 8.882722e-02 1.313957e-02 -3.135003e-02 6.275157e-02 9.347695e-02 4.442399e-02 -6.655857e-02 6.032170e-02 7.409190e-02 3.387233e-02 -4.690561e-02 -1.608468e-01
<VARIANCE> 25
 1.257431e+01 2.703277e+01 1.856479e+01 2.465657e+01 2.221320e+01 2.619440e+01 2.670724e+01 3.387506e+01 2.605140e+01 2.594021e+01 2.198653e+01 2.232538e+01 4.805111e-01 9.228930e-01 9.209686e-01 1.285964e+00 1.322049e+00 1.646633e+00 1.641147e+00 2.069890e+00 1.863563e+00 1.909301e+00 1.627783e+00 1.604549e+00 4.990162e-01
<GCONST> 8.667882e+01
~h "A"
<BEGINHMM>
<NUMSTATES> 5
<STATE> 2
<MEAN> 25
 4.671239e+00 -9.050166e+00 -5.047767e+00 -6.237450e+00 -1.362516e+00 2.036321e+00 -3.007509e+00 5.199408e+00 5.488748e+00 -1.049127e-01 -2.306756e+00 -5.494339e+00 3.998542e-01 -1.881367e+00 -1.316746e+00 -7.362021e-01 9.678977e-01 1.303139e+00 2.831809e-01 9.515842e-01 9.175634e-01 -8.776672e-01 -1.175579e+00 -1.347606e+00 1.684704e+00
<VARIANCE> 25
 1.625888e+01 2.472763e+01 3.634064e+01 3.488706e+01 5.341275e+01 6.669584e+01 4.800384e+01 6.696159e+01 4.696885e+01 4.050880e+01 4.572721e+01 3.358589e+01 2.156557e+00 2.304369e+00 2.585502e+00 2.975820e+00 3.794152e+00 3.999744e+00 4.186022e+00 5.637938e+00 4.161974e+00 3.511852e+00 3.882014e+00 3.110644e+00 3.963056e+00
<GCONST> 1.063050e+02
<STATE> 3
<MEAN> 25
 4.795938e+00 -1.213503e+01 -7.226573e+00 -6.822540e+00 2.185917e+00 5.334525e+00 -2.355910e+00 4.656263e+00 5.745101e+00 -2.262602e+00 -4.488129e+00 -7.381847e+00 7.489916e-03 2.151385e-02 -3.785898e-02 1.963616e-01 3.162235e-01 -1.138166e-01 1.535308e-01 -2.600420e-02 -1.179600e-01 -1.008740e-01 -2.013184e-01 9.267640e-03 -2.055451e-01
<VARIANCE> 25
 8.547574e+00 1.764912e+01 2.544534e+01 2.381928e+01 3.285066e+01 4.689961e+01 3.802954e+01 5.170064e+01 4.168945e+01 3.514151e+01 3.673413e+01 2.906347e+01 3.965869e-01 9.674910e-01 8.890519e-01 1.144710e+00 1.639598e+00 2.197208e+00 1.710768e+00 2.267271e+00 1.625726e+00 1.806250e+00 1.893815e+00 1.444188e+00 8.897757e-01
<GCONST> 9.022030e+01
<STATE> 4
<MEAN> 25
 4.131289e+00 -7.021464e+00 -6.448976e+00 -3.344517e+00 2.627969e+00 1.074861e+00 -3.012761e-01 3.637687e+00 4.557069e+00 -1.239381e+00 -4.827598e+00 -4.854829e+00 -4.425053e-02 1.178887e+00 6.076154e-01 6.808496e-01 -2.748522e-01 -5.494452e-01 -4.724205e-02 -3.097177e-01 -3.714813e-01 3.422027e-01 2.634111e-01 5.121469e-01 -1.888368e+00
<VARIANCE> 25
 1.519309e+01 2.983358e+01 3.007132e+01 3.545828e+01 4.510318e+01 4.678728e+01 4.389492e+01 5.086895e+01 4.117609e+01 4.060099e+01 4.060778e+01 3.371288e+01 1.081502e+00 1.867521e+00 1.775436e+00 2.042230e+00 2.508157e+00 2.749821e+00 2.845472e+00 3.109345e+00 2.683899e+00 2.640405e+00 2.609982e+00 2.194663e+00 2.695886e+00
<GCONST> 9.984202e+01
<TRANSP> 5
 0.000000e+00 1.000000e+00 0.000000e+00 0.000000e+00 0.000000e+00
 0.000000e+00 5.653679e-01 4.346320e-01 0.000000e+00 0.000000e+00
 0.000000e+00 0.000000e+00 7.528846e-01 2.471154e-01 0.000000e+00
 0.000000e+00 0.000000e+00 0.000000e+00 7.294660e-01 2.705339e-01
 0.000000e+00 0.000000e+00 0.000000e+00 0.000000e+00 0.000000e+00
<ENDHMM>
~h "B"
<BEGINHMM>
<NUMSTATES> 5
<STATE> 2
<MEAN> 25
 9.837357e+00 7.675237e+00 4.203971e+00 2.336977e+00 1.380047e+00 4.542549e+00 2.706946e-01 -5.471878e+00 -5.162777e+00 -1.930088e-01 3.050326e-01 -1.900226e+00 7.430821e-01 1.570156e+00 6.516098e-01 5.297422e-01 6.676893e-01 3.422197e-01 8.825001e-01 -3.916758e-01 -5.144474e-01 -2.392380e-01 -3.214109e-01 -4.225107e-02 -1.340188e+00
<VARIANCE> 25
 3.316175e+01 3.782000e+01 2.845705e+01 3.620115e+01 3.469929e+01 3.875389e+01 4.322590e+01 3.848993e+01 4.882122e+01 3.074404e+01 4.271784e+01 2.769941e+01 2.326513e+00 2.283796e+00 2.327593e+00 2.822209e+00 2.741040e+00 2.833744e+00 3.190079e+00 3.203171e+00 3.743727e+00 2.740984e+00 3.057548e+00 2.258866e+00 5.583739e+00
<GCONST> 1.029368e+02
<STATE> 3
<MEAN> 25
 1.069227e+01 1.068470e+01 5.237352e+00 2.859071e+00 2.118140e+00 4.951836e+00 2.394519e+00 -6.149028e+00 -6.293836e+00 -8.223344e-01 -1.238691e-01 -1.458358e+00 -1.125978e+00 -1.705335e+00 -1.199512e+00 -9.680734e-01 1.315268e-01 -8.859110e-01 -1.253071e+00 3.972469e-01 1.041841e+00 2.837185e-01 9.584957e-01 8.154150e-01 2.884252e+00
<VARIANCE> 25
 2.269829e+01 2.664520e+01 2.059925e+01 2.660306e+01 3.176285e+01 3.611983e+01 3.057236e+01 3.577846e+01 4.353052e+01 2.920811e+01 3.840110e+01 2.566010e+01 2.688332e+00 3.104370e+00 3.100567e+00 4.739620e+00 3.347744e+00 3.637503e+00 3.581893e+00 3.445529e+00 4.723883e+00 3.470209e+00 3.981298e+00 2.742497e+00 5.168824e+00
<GCONST> 1.033934e+02
<STATE> 4
<MEAN> 25
 6.450499e+00 2.250578e+00 -3.169659e-01 -2.035330e+00 1.147314e+00 2.712085e+00 -3.092504e+00 -5.014575e+00 -1.492191e+00 2.012720e+00 3.614667e+00 2.081127e-01 -9.920788e-01 -3.387184e+00 -1.889189e+00 -2.500110e+00 -1.590234e+00 -3.328915e-01 -2.347132e+00 1.189463e+00 2.385012e+00 1.244368e+00 8.787666e-01 -6.995156e-01 4.995943e+00
<VARIANCE> 25
 2.536921e+01 3.737775e+01 3.287512e+01 7.561472e+01 3.360336e+01 4.723778e+01 3.811207e+01 3.131121e+01 3.758603e+01 4.181255e+01 3.944750e+01 2.989797e+01 2.494236e+00 3.562070e+00 5.430617e+00 6.716839e+00 4.654378e+00 7.064617e+00 4.973965e+00 6.668339e+00 9.323043e+00 6.652751e+00 6.220459e+00 6.675486e+00 4.554381e+00
<GCONST> 1.116522e+02
<TRANSP> 5
 0.000000e+00 1.000000e+00 0.000000e+00 0.000000e+00 0.000000e+00
 0.000000e+00 7.522957e-01 2.477042e-01 0.000000e+00 0.000000e+00
 0.000000e+00 0.000000e+00 4.182820e-01 5.817179e-01 0.000000e+00
 0.000000e+00 0.000000e+00 0.000000e+00 4.357051e-01 5.642949e-01
 0.000000e+00 0.000000e+00 0.000000e+00 0.000000e+00 0.000000e+00
<ENDHMM>
~h "C"
<BEGINHMM>
<NUMSTATES> 5
<STATE> 2
<MEAN> 25
 -7.510136e-01 6.212502e+00 3.112070e+00 3.568113e+00 2.598774e-01 -6.189626e+00 -1.878908e-01 1.045674e-02 -3.140488e-01 -8.989303e-01 -1.381717e+00 2.110980e+00 -1.711285e+00 1.271216e-01 -6.776248e-01 -3.376786e-01 8.708951e-01 1.435326e-01 5.219230e-01 -2.550268e-01 1.980831e-01 1.058375e-01 8.086794e-02 1.896754e-01 -1.622671e+00
<VARIANCE> 25
 3.013019e+01 3.534369e+01 3.813053e+01 2.762690e+01 4.111238e+01 4.241284e+01 4.813048e+01 4.341842e+01 4.091734e+01 2.924719e+01 2.819046e+01 2.322963e+01 4.798796e+00 5.231303e+00 3.224416e+00 3.442406e+00 4.421991e+00 3.260180e+00 3.770675e+00 3.540093e+00 3.343544e+00 2.800791e+00 2.792624e+00 2.457068e+00 1.070685e+01
<GCONST> 1.059812e+02
<STATE> 3
<MEAN> 25
 -1.575953e+01 2.475484e+00 -1.678145e+00 -2.422403e+00 4.318098e+00 -2.889711e+00 2.096916e+00 -3.314933e-01 4.527544e-01 8.575844e-01 1.368069e+00 3.947577e+00 -2.781076e+00 -4.315719e-01 -2.429358e-01 -1.220206e+00 -2.181387e-01 -1.686325e-02 1.562555e-01 4.485482e-01 3.099941e-01 1.638566e-01 5.128148e-01 5.936942e-01 4.458680e+00
<VARIANCE> 25
 4.656981e+01 2.972823e+01 3.132592e+01 3.188641e+01 3.285105e+01 3.876194e+01 3.726408e+01 3.262161e+01 2.866340e+01 2.237233e+01 2.153251e+01 1.779749e+01 7.929525e+00 3.324039e+00 4.049102e+00 3.465456e+00 4.049481e+00 4.073354e+00 3.700131e+00 3.585680e+00 3.082626e+00 2.484426e+00 2.545672e+00 1.858295e+00 7.256404e+00
<GCONST> 1.036244e+02
<STATE> 4
<MEAN> 25
 -1.031084e+01 1.476599e+00 2.116058e+00 -2.170392e+00 -1.650324e+00 -5.856531e+00 -4.374439e-01 2.542245e+00 1.964324e+00 -1.090869e+00 -6.249501e-02 3.798017e+00 5.198527e+00 -1.616332e+00 9.859242e-01 3.897456e-01 -2.073822e+00 -5.330482e-01 -1.798266e+00 9.332920e-01 7.705880e-01 -5.664366e-01 -6.556644e-01 -1.241418e+00 2.247672e+00
<VARIANCE> 25
 9.453742e+01 3.100727e+01 3.274518e+01 2.941374e+01 3.958422e+01 3.777097e+01 5.331343e+01 4.068804e+01 3.205742e+01 2.403692e+01 2.610385e+01 1.958795e+01 4.405687e+00 5.700898e+00 5.818853e+00 4.431977e+00 4.693763e+00 5.102347e+00 4.751569e+00 7.529988e+00 6.022348e+00 3.602741e+00 3.520706e+00 2.823128e+00 2.283466e+00
<GCONST> 1.081027e+02
<TRANSP> 5
 0.000000e+00 1.000000e+00 0.000000e+00 0.000000e+00 0.000000e+00
 0.000000e+00 7.913738e-01 2.086262e-01 0.000000e+00 0.000000e+00
 0.000000e+00 0.000000e+00 7.186976e-01 2.813024e-01 0.000000e+00
 0.000000e+00 0.000000e+00 0.000000e+00 6.525764e-01 3.474236e-01
 0.000000e+00 0.000000e+00 0.000000e+00 0.000000e+00 0.000000e+00
<ENDHMM>
~h "D"
<BEGINHMM>
<NUMSTATES> 5
<STATE> 2
<MEAN> 25
 7.487762e+00 4.575729e+00 6.683853e+00 6.850069e+00 -7.336119e-01 -3.357645e+00 -3.203794e+00 -3.368649e-01 1.517849e+00 -9.233992e-01 -4.414686e+00 -1.801229e+00 8.644099e-01 1.302347e+00 9.633383e-01 9.978368e-01 7.674540e-01 -3.628688e-01 4.494290e-02 -6.843384e-02 2.302509e-01 -2.128682e-01 -7.093968e-01 -2.112606e-01 -1.233249e+00
<VARIANCE> 25
 3.769181e+01 5.262910e+01 3.561238e+01 3.380951e+01 4.973583e+01 3.749476e+01 5.413879e+01 6.720042e+01 4.558901e+01 3.886955e+01 3.880900e+01 3.084096e+01 2.974000e+00 3.395893e+00 2.731121e+00 3.123344e+00 4.170511e+00 3.168258e+00 4.000065e+00 5.323580e+00 3.895704e+00 3.115777e+00 3.529800e+00 2.738397e+00 7.067025e+00
<GCONST> 1.077468e+02
<STATE> 3
<MEAN> 25
 7.746261e+00 5.963286e+00 8.942901e+00 7.782742e+00 1.065845e+00 -3.750644e+00 -3.009511e+00 -1.239393e-01 1.157649e+00 -1.477091e+00 -4.684306e+00 -1.269366e+00 -1.930159e+00 -2.570573e+00 -8.452915e-03 -1.928655e+00 -5.856646e-01 -4.572052e-01 -7.517319e-01 1.074160e+00 -4.456877e-01 -2.021690e-01 1.636429e+00 1.415165e+00 3.892926e+00
<VARIANCE> 25
 3.106779e+01 3.919442e+01 2.852327e+01 3.346957e+01 3.777937e+01 3.545241e+01 4.697284e+01 4.757755e+01 3.973064e+01 3.694028e+01 3.094599e+01 3.252917e+01 2.585089e+00 3.498169e+00 3.893382e+00 3.644011e+00 5.791763e+00 4.274184e+00 5.435125e+00 7.513651e+00 6.222516e+00 4.087137e+00 3.827325e+00 3.155905e+00 5.613479e+00
<GCONST> 1.082563e+02
<STATE> 4
<MEAN> 25
 2.586779e+00 -3.306893e+00 6.612844e+00 4.248325e-01 -4.792668e+00 -5.693208e+00 -6.439793e+00 4.185373e+00 1.518057e+00 -1.246486e+00 9.317664e-01 2.635793e+00 -8.602442e-01 -2.180240e+00 -1.042044e+00 -2.003193e+00 -2.459227e+00 -1.165227e-01 -8.271471e-01 1.519886e+00 6.318904e-01 1.582254e-01 1.403272e+00 -4.748037e-02 4.196021e+00
<VARIANCE> 25
 1.892965e+01 2.992641e+01 4.009005e+01 3.498381e+01 6.492072e+01 4.215694e+01 7.079166e+01 5.887104e+01 6.316430e+01 2.880507e+01 2.984967e+01 2.532088e+01 3.299606e+00 3.307542e+00 6.421410e+00 4.340907e+00 6.089493e+00 4.652658e+00 6.567778e+00 1.065076e+01 9.921017e+00 4.651226e+00 6.106882e+00 4.357172e+00 5.217681e+00
<GCONST> 1.119908e+02
<TRANSP> 5
 0.000000e+00 1.000000e+00 0.000000e+00 0.000000e+00 0.000000e+00
 0.000000e+00 7.314842e-01 2.685158e-01 0.000000e+00 0.000000e+00
 0.000000e+00 0.000000e+00 4.640508e-01 5.359492e-01 0.000000e+00
 0.000000e+00 0.000000e+00 0.000000e+00 4.167396e-01 5.832604e-01
 0.000000e+00 0.000000e+00 0.000000e+00 0.000000e+00 0.000000e+00
<ENDHMM>
~h "E"
<BEGINHMM>
<NUMSTATES> 5
<STATE> 2
<MEAN> 25
 3.016710e+00 -7.819336e+00 4.034258e+00 -1.374524e+00 -9.048018e+00 -6.637115e+00 -1.429075e+00 7.633706e+00 2.153972e-01 -6.436635e-01 2.171665e+00 -1.210212e+00 3.876805e-01 -1.602481e+00 1.127201e+00 -1.041291e+00 -2.363178e+00 -4.723615e-01 5.741729e-01 2.155472e+00 -3.415449e-01 -5.035563e-01 8.420994e-01 -2.418395e-01 2.582048e+00
<VARIANCE> 25
 2.477302e+01 3.988794e+01 4.459890e+01 3.410493e+01 5.351862e+01 4.204766e+01 6.476340e+01 5.597854e+01 5.011631e+01 3.753547e+01 4.809187e+01 3.034071e+01 3.520571e+00 3.780408e+00 3.341974e+00 3.298368e+00 4.914915e+00 4.247315e+00 5.743371e+00 6.430089e+00 5.371093e+00 4.419196e+00 4.286560e+00 3.103584e+00 7.116488e+00
<GCONST> 1.102632e+02
<STATE> 3
<MEAN> 25
 2.929301e+00 -8.764346e+00 7.925269e+00 -4.109097e+00 -1.428416e+01 -6.970291e+00 4.147615e-01 9.319009e+00 -1.880960e+00 1.766472e-01 5.527999e+00 -2.121278e+00 -4.467029e-02 2.568019e-01 6.885976e-03 2.553125e-02 5.688077e-02 -2.878701e-02 2.913353e-01 -1.655432e-01 -1.150513e-01 9.928137e-02 -5.308701e-02 -7.001055e-02 -2.294433e-01
<VARIANCE> 25
 7.539294e+00 2.262016e+01 3.847588e+01 2.451403e+01 3.022523e+01 3.681020e+01 4.766017e+01 4.764694e+01 4.547202e+01 3.983068e+01 4.404647e+01 2.451589e+01 4.082419e-01 9.372619e-01 1.132719e+00 1.138143e+00 1.420492e+00 1.259693e+00 1.772483e+00 1.724631e+00 1.730644e+00 1.412203e+00 1.495724e+00 1.004560e+00 1.553451e+00
<GCONST> 8.989772e+01
<STATE> 4
<MEAN> 25
 1.516986e+00 -2.930068e+00 5.381883e+00 -2.872411e-02 -9.693262e+00 -7.485932e+00 2.808400e+00 3.703712e+00 -1.287681e+00 3.853635e-02 2.552354e+00 -4.138078e-01 -2.647849e-02 7.015907e-01 -4.797260e-01 5.442968e-01 1.021118e+00 1.941667e-01 -1.323963e-01 -5.937619e-01 1.704695e-01 8.739515e-03 -5.123347e-01 9.567453e-02 -1.499563e+00
<VARIANCE> 25
 1.774918e+01 3.900924e+01 5.067842e+01 2.798370e+01 4.718136e+01 4.760847e+01 5.132233e+01 5.355339e+01 4.604266e+01 3.673041e+01 4.311651e+01 2.879713e+01 1.121469e+00 1.664948e+00 1.603803e+00 1.721433e+00 2.567725e+00 2.213867e+00 2.971564e+00 2.584423e+00 2.481989e+00 2.221394e+00 2.132410e+00 1.731441e+00 2.658370e+00
<GCONST> 9.934480e+01
<TRANSP> 5
 0.000000e+00 1.000000e+00 0.000000e+00 0.000000e+00 0.000000e+00
 0.000000e+00 6.344991e-01 3.655009e-01 0.000000e+00 0.000000e+00
 0.000000e+00 0.000000e+00 8.290295e-01 1.709705e-01 0.000000e+00
 0.000000e+00 0.000000e+00 0.000000e+00 7.578517e-01 2.421483e-01
 0.000000e+00 0.000000e+00 0.000000e+00 0.000000e+00 0.000000e+00
<ENDHMM>
~h "F"
<BEGINHMM>
<NUMSTATES> 5
<STATE> 2
<MEAN> 25
 -2.410895e+00 1.897701e+00 7.798038e-02 3.167433e+00 3.416540e+00 1.769666e-01 1.268942e+00 -2.281705e-01 7.761168e-02 7.786476e-01 -2.559771e-02 1.101267e+00 -3.336137e+00 1.361199e-02 -5.037044e-01 1.195029e+00 8.744977e-01 -6.078753e-01 3.259963e-01 2.499868e-01 8.392059e-01 -2.349130e-02 -1.337960e-01 6.058300e-01 -1.082954e+00
<VARIANCE> 25
 4.834003e+01 2.548089e+01 3.753408e+01 3.999601e+01 3.592026e+01 5.072999e+01 3.575988e+01 3.619041e+01 3.499470e+01 2.754335e+01 2.771829e+01 2.293477e+01 3.339402e+00 4.460620e+00 4.072995e+00 4.606227e+00 5.786962e+00 5.091984e+00 4.288714e+00 4.724010e+00 4.174823e+00 3.716704e+00 3.507453e+00 2.618685e+00 2.456866e+00
<GCONST> 1.062594e+02
<STATE> 3
<MEAN> 25
 -1.261954e+01 -2.333685e+00 -3.322192e+00 3.620392e+00 3.000922e+00 -1.501616e+00 3.233948e-01 5.963870e-01 1.441267e+00 1.146903e+00 5.312800e-01 2.975998e+00 -5.665934e-01 -4.641894e-01 -3.055348e-01 -6.484123e-02 -2.907593e-02 5.041445e-03 -1.370326e-03 4.676834e-02 4.430745e-02 5.654825e-02 8.007096e-02 9.709587e-02 -1.727222e-01
<VARIANCE> 25
 2.311959e+01 2.211216e+01 2.357224e+01 2.022769e+01 2.393525e+01 2.797416e+01 2.698142e+01 2.759833e+01 2.521141e+01 2.245918e+01 2.080833e+01 1.869601e+01 1.569594e+00 1.186814e+00 1.321961e+00 1.320294e+00 1.498278e+00 1.697302e+00 1.748482e+00 1.721159e+00 1.721515e+00 1.693808e+00 1.524824e+00 1.420542e+00 1.359935e+00
<GCONST> 8.913774e+01
<STATE> 4
<MEAN> 25
 -9.054283e+00 -3.252057e+00 -4.651147e+00 2.057492e+00 3.609856e+00 -4.117989e-01 1.221234e+00 7.802460e-01 1.432004e+00 1.479972e+00 9.442148e-01 2.226119e+00 2.664864e+00 4.355820e-01 1.988154e-01 -7.747005e-01 -5.086304e-01 3.390848e-01 -9.873620e-02 -2.676426e-01 -3.430692e-01 -1.753371e-01 4.010300e-02 -5.880758e-01 5.970380e-01
<VARIANCE> 25
 5.200684e+01 2.795526e+01 3.139152e+01 3.187272e+01 3.189227e+01 3.360081e+01 2.806129e+01 3.041149e+01 2.774422e+01 2.419691e+01 2.288487e+01 2.000393e+01 8.090442e+00 3.298743e+00 3.784504e+00 4.656388e+00 3.453776e+00 4.459847e+00 3.271144e+00 3.244559e+00 3.247933e+00 2.898819e+00 2.656067e+00 2.651213e+00 5.629900e+00
<GCONST> 1.036713e+02
<TRANSP> 5
 0.000000e+00 1.000000e+00 0.000000e+00 0.000000e+00 0.000000e+00
 0.000000e+00 6.969119e-01 3.030881e-01 0.000000e+00 0.000000e+00
 0.000000e+00 0.000000e+00 8.556152e-01 1.443848e-01 0.000000e+00
 0.000000e+00 0.000000e+00 0.000000e+00 7.321274e-01 2.678726e-01
 0.000000e+00 0.000000e+00 0.000000e+00 0.000000e+00 0.000000e+00
<ENDHMM>
~h "G"
<BEGINHMM>
<NUMSTATES> 5
<STATE> 2
<MEAN> 25
 7.949094e+00 5.228046e+00 7.001789e+00 4.164983e+00 -2.593700e+00 -3.578226e+00 -2.251465e+00 -8.024510e-01 -3.777116e+00 2.422276e+00 -7.401802e-01 -3.488316e+00 2.768185e-01 1.288106e+00 7.227519e-01 1.150975e+00 5.582506e-01 -5.717139e-01 6.774077e-01 -3.265411e-01 -3.104374e-01 -2.221301e-01 -3.473649e-01 1.354647e-01 -1.790977e+00
<VARIANCE> 25
 2.407766e+01 4.631220e+01 4.184024e+01 3.977237e+01 5.297945e+01 5.082473e+01 6.162072e+01 5.608828e+01 4.985704e+01 4.135692e+01 3.912447e+01 3.337220e+01 2.759953e+00 3.008166e+00 3.577668e+00 3.127261e+00 4.798658e+00 4.136023e+00 4.351926e+00 4.332265e+00 5.184153e+00 3.470594e+00 3.290247e+00 3.035274e+00 5.606244e+00
<GCONST> 1.086040e+02
<STATE> 3
<MEAN> 25
 2.945605e+00 4.656957e+00 4.860979e+00 6.310405e+00 2.244538e+00 -4.704575e+00 -5.337471e-01 -1.281646e+00 -3.854864e+00 2.080656e+00 -2.061850e+00 -4.193652e-02 -2.016150e+00 -2.084805e+00 -1.494479e+00 -8.436641e-01 7.801827e-01 -7.859781e-01 -9.950774e-01 8.074374e-01 1.328702e-01 1.556947e-01 4.673871e-01 1.183477e+00 3.506439e+00
<VARIANCE> 25
 4.527117e+01 5.657312e+01 6.371559e+01 3.217884e+01 7.242271e+01 5.000267e+01 5.211755e+01 4.168381e+01 4.123739e+01 3.201875e+01 2.969941e+01 3.275983e+01 3.910284e+00 4.724921e+00 6.784417e+00 3.754722e+00 1.061264e+01 5.603463e+00 5.385492e+00 5.600099e+00 5.544994e+00 4.086568e+00 4.724955e+00 3.514249e+00 5.058772e+00
<GCONST> 1.125625e+02
<STATE> 4
<MEAN> 25
 1.477900e+00 -9.141241e-01 2.885075e+00 9.598611e-01 -3.990565e+00 -7.142233e+00 -4.859398e+00 2.787257e+00 -1.793519e+00 2.475397e+00 2.530602e+00 2.899891e-01 2.643728e-01 -1.273466e+00 -3.601214e-01 -2.088412e+00 -2.155833e+00 5.437779e-01 -6.768606e-01 1.461795e+00 1.262456e+00 -4.336499e-02 9.767032e-01 -7.701727e-01 2.556140e+00
<VARIANCE> 25
 2.160525e+01 3.160427e+01 5.689383e+01 3.250858e+01 8.793008e+01 5.584581e+01 6.156565e+01 5.452234e+01 5.359885e+01 3.517899e+01 4.378938e+01 2.920558e+01 2.989094e+00 2.735149e+00 5.441547e+00 3.363625e+00 8.167329e+00 4.457450e+00 4.796233e+00 6.529262e+00 7.328843e+00 3.514764e+00 5.404039e+00 3.926533e+00 2.681585e+00
<GCONST> 1.106466e+02
<TRANSP> 5
 0.000000e+00 1.000000e+00 0.000000e+00 0.000000e+00 0.000000e+00
 0.000000e+00 7.255917e-01 2.744083e-01 0.000000e+00 0.000000e+00
 0.000000e+00 0.000000e+00 5.800412e-01 4.199588e-01 0.000000e+00
 0.000000e+00 0.000000e+00 0.000000e+00 5.165165e-01 4.834835e-01
 0.000000e+00 0.000000e+00 0.000000e+00 0.000000e+00 0.000000e+00
<ENDHMM>
~h "H"
<BEGINHMM>
<NUMSTATES> 5
<STATE> 2
<MEAN> 25
 5.959479e-01 -2.586643e+00 -2.060993e+00 9.138148e-01 7.045956e+00 3.571023e+00 3.104479e+00 2.765676e+00 8.167877e-01 -5.638254e-01 -2.685105e+00 -5.260643e-02 -1.067139e+00 -1.584829e-01 9.745841e-02 8.794249e-01 1.513268e+00 4.009137e-01 8.479489e-01 2.653432e-01 4.404944e-01 -1.295933e-01 -3.420908e-03 6.269355e-01 -9.121183e-01
<VARIANCE> 25
 2.403629e+01 3.747937e+01 4.682067e+01 4.247401e+01 6.455673e+01 5.530255e+01 4.974353e+01 5.195028e+01 4.721461e+01 4.093813e+01 4.285471e+01 3.555077e+01 1.802235e+00 3.637562e+00 3.906362e+00 3.491016e+00 4.180421e+00 3.757304e+00 3.914224e+00 3.963954e+00 3.556871e+00 3.361917e+00 3.340526e+00 2.934578e+00 2.488994e+00
<GCONST> 1.069436e+02
<STATE> 3
<MEAN> 25
 -2.741296e+00 -4.674561e+00 -3.424643e+00 6.575531e-01 8.881379e+00 4.029277e+00 3.596557e+00 3.098202e+00 2.512695e+00 -5.093938e-01 -2.203598e+00 1.111459e+00 -3.744235e-01 -5.233992e-02 -1.983983e-01 -2.337452e-01 -3.361698e-01 -3.109905e-01 -1.065620e-01 -2.323594e-01 -5.983083e-02 -2.694525e-03 1.429491e-01 1.470473e-01 -9.501879e-01
<VARIANCE> 25
 3.165108e+01 4.324161e+01 4.797226e+01 4.410771e+01 6.314795e+01 5.401011e+01 5.461792e+01 5.004857e+01 4.576833e+01 4.436250e+01 3.822242e+01 3.304271e+01 1.669751e+00 2.717881e+00 2.549254e+00 2.524127e+00 3.080478e+00 3.099147e+00 3.188264e+00 3.148142e+00 2.907392e+00 2.723352e+00 2.592161e+00 2.290219e+00 3.489243e+00
<GCONST> 1.046676e+02
<STATE> 4
<MEAN> 25
 -3.711276e+00 -5.276644e+00 -4.855773e+00 2.658237e-01 6.286676e+00 1.738228e+00 2.701340e+00 1.505857e+00 1.527416e+00 -8.085620e-01 -1.294313e+00 1.284132e+00 2.775309e-01 2.924873e-01 1.258670e-02 -7.936139e-02 -3.180156e-01 -6.597737e-02 -7.716937e-02 -1.869295e-01 -1.352421e-01 3.060971e-03 2.274733e-02 -1.431247e-01 -1.849077e-01
<VARIANCE> 25
 2.906631e+01 4.867988e+01 3.976049e+01 3.044439e+01 4.269300e+01 4.022079e+01 3.828356e+01 3.607639e+01 3.397245e+01 3.091549e+01 3.014955e+01 2.618904e+01 1.636333e+00 1.925842e+00 1.777138e+00 1.628229e+00 1.907691e+00 1.964668e+00 2.131616e+00 2.112836e+00 2.130301e+00 1.980624e+00 1.855402e+00 1.848348e+00 2.164172e+00
<GCONST> 9.708852e+01
<TRANSP> 5
 0.000000e+00 1.000000e+00 0.000000e+00 0.000000e+00 0.000000e+00
 0.000000e+00 5.048783e-01 4.951217e-01 0.000000e+00 0.000000e+00
 0.000000e+00 0.000000e+00 5.472369e-01 4.527631e-01 0.000000e+00
 0.000000e+00 0.000000e+00 0.000000e+00 7.696670e-01 2.303331e-01
 0.000000e+00 0.000000e+00 0.000000e+00 0.000000e+00 0.000000e+00
<ENDHMM>
~h "I"
<BEGINHMM>
<NUMSTATES> 5
<STATE> 2
<MEAN> 25
 -4.883829e-01 1.212932e+00 1.279423e+01 2.256731e+00 -8.647943e+00 -6.118560e+00 -3.153041e+00 -2.104250e+00 -7.055957e+00 -1.209639e+00 3.472604e+00 8.215324e-01 5.979340e-01 -5.060311e-03 3.021742e+00 -3.621371e-01 -3.193280e+00 1.172132e-01 -1.417208e+00 -5.999363e-01 -1.901838e+00 -2.135247e-01 1.502555e+00 -4.354816e-01 1.934145e+00
<VARIANCE> 25
 3.077073e+01 3.639138e+01 4.687539e+01 3.691086e+01 5.172989e+01 4.532819e+01 5.194403e+01 5.384650e+01 4.416227e+01 3.411894e+01 3.291369e+01 2.721890e+01 5.986301e+00 3.203754e+00 4.470449e+00 4.571709e+00 4.413557e+00 5.188420e+00 6.500520e+00 6.360389e+00 5.361397e+00 4.658441e+00 3.665406e+00 3.538792e+00 4.426270e+00
<GCONST> 1.103280e+02
<STATE> 3
<MEAN> 25
 4.232922e-02 2.103655e+00 1.882132e+01 -4.027777e-01 -1.493361e+01 -2.494143e+00 -7.305242e+00 -4.117560e+00 -9.992496e+00 -8.419261e-01 6.235013e+00 -1.444563e+00 7.704499e-02 1.563076e-01 2.597593e-02 -1.343510e-01 -2.374381e-01 1.410028e-01 1.033305e-02 -9.574945e-02 4.101826e-02 1.591114e-01 5.637908e-02 -8.057266e-02 -1.012652e-01
<VARIANCE> 25
 1.065568e+01 2.381291e+01 2.878329e+01 3.794728e+01 2.267092e+01 4.388549e+01 3.691986e+01 4.342367e+01 3.331966e+01 4.492714e+01 3.216772e+01 3.347575e+01 6.753351e-01 1.366194e+00 1.767510e+00 1.572772e+00 2.007997e+00 2.246689e+00 2.265734e+00 2.551450e+00 2.052913e+00 1.782513e+00 1.625877e+00 1.387372e+00 1.258644e+00
<GCONST> 9.359845e+01
<STATE> 4
<MEAN> 25
 5.074295e-01 4.783418e+00 1.349887e+01 2.053208e+00 -9.649788e+00 -4.458557e+00 -2.042246e+00 -4.580240e+00 -6.557096e+00 -3.127257e-01 2.570792e+00 1.508787e-01 1.491538e-01 2.292556e-01 -1.388698e+00 4.166998e-01 1.338915e+00 -2.242106e-01 6.618444e-01 3.134463e-01 7.737519e-01 -1.091476e-02 -6.611512e-01 2.119470e-01 -1.664583e+00
<VARIANCE> 25
 1.840126e+01 3.402706e+01 4.034156e+01 3.689956e+01 4.542292e+01 6.035815e+01 4.136827e+01 5.318839e+01 3.758950e+01 3.597604e+01 3.760142e+01 3.043661e+01 1.807172e+00 2.231446e+00 2.376861e+00 2.246961e+00 3.361035e+00 2.965521e+00 3.451241e+00 3.661484e+00 3.252477e+00 2.598227e+00 2.586247e+00 2.128597e+00 3.549001e+00
<GCONST> 1.025693e+02
<TRANSP> 5
 0.000000e+00 1.000000e+00 0.000000e+00 0.000000e+00 0.000000e+00
 0.000000e+00 6.246754e-01 3.753246e-01 0.000000e+00 0.000000e+00
 0.000000e+00 0.000000e+00 7.869298e-01 2.130702e-01 0.000000e+00
 0.000000e+00 0.000000e+00 0.000000e+00 7.931520e-01 2.068480e-01
 0.000000e+00 0.000000e+00 0.000000e+00 0.000000e+00 0.000000e+00
<ENDHMM>
~h "J"
<BEGINHMM>
<NUMSTATES> 5
<STATE> 2
<MEAN> 25
 4.270023e+00 8.294626e+00 9.440279e+00 5.361403e+00 -2.139680e+00 -4.569795e+00 -8.273074e-01 1.565502e+00 -1.203025e+00 -3.206475e+00 -6.737024e-01 1.307947e+00 -2.453861e-01 1.340241e+00 5.857530e-01 3.014159e-01 9.205910e-01 1.249386e-01 7.745438e-01 6.347198e-03 2.465354e-01 -1.138994e-01 -3.168370e-01 3.639878e-02 -1.296463e+00
<VARIANCE> 25
 3.428246e+01 4.130093e+01 3.791806e+01 2.897644e+01 4.415568e+01 4.329364e+01 4.678504e+01 3.863931e+01 4.093385e+01 3.296898e+01 2.731705e+01 2.454621e+01 5.283099e+00 3.125031e+00 3.151245e+00 2.919715e+00 3.833952e+00 3.218900e+00 3.774661e+00 4.120511e+00 3.850937e+00 3.015271e+00 2.612525e+00 2.474073e+00 6.204043e+00
<GCONST> 1.053994e+02
<STATE> 3
<MEAN> 25
 -7.831742e+00 8.977980e+00 8.457655e+00 2.606891e+00 3.239930e+00 -3.033270e+00 1.190340e+00 -9.912774e-01 -1.988821e+00 -1.477898e+00 2.916193e-01 3.317906e+00 -1.722275e+00 -1.208435e+00 3.827812e-01 -5.181552e-01 -1.256152e+00 -9.880024e-01 -9.266827e-01 -4.824709e-01 -5.439605e-01 -1.131454e-01 9.821538e-01 1.009506e+00 3.580205e+00
<VARIANCE> 25
 6.581044e+01 3.894582e+01 4.776748e+01 3.415070e+01 4.665793e+01 4.633559e+01 3.349702e+01 3.082526e+01 2.966307e+01 2.265654e+01 2.209463e+01 1.985157e+01 1.343092e+01 3.679132e+00 4.780008e+00 4.411516e+00 9.369712e+00 4.719152e+00 3.868212e+00 3.984143e+00 3.805187e+00 2.706995e+00 2.465286e+00 2.137954e+00 3.481685e+00
<GCONST> 1.071205e+02
<STATE> 4
<MEAN> 25
 -1.144849e-01 4.053187e-02 1.048952e+01 9.088585e-01 -1.036656e+01 -9.110626e+00 -6.420326e+00 2.386243e+00 -1.095811e+00 -2.986317e+00 5.145191e+00 5.075024e+00 2.493744e+00 -2.812916e+00 -1.514011e+00 -1.009747e+00 -1.830733e+00 1.979975e-01 -1.405011e+00 2.125592e+00 1.596910e+00 4.410956e-01 1.783136e-01 -1.305419e+00 1.482651e+00
<VARIANCE> 25
 1.642573e+01 2.941868e+01 2.837561e+01 3.684620e+01 2.823023e+01 2.211247e+01 3.408312e+01 5.093588e+01 4.561590e+01 2.609370e+01 2.399533e+01 2.175395e+01 2.876385e+00 2.812681e+00 4.717040e+00 2.986665e+00 7.588299e+00 3.876992e+00 5.586328e+00 6.988126e+00 5.140756e+00 3.131495e+00 4.595116e+00 3.000117e+00 1.271077e+00
<GCONST> 1.037396e+02
<TRANSP> 5
 0.000000e+00 1.000000e+00 0.000000e+00 0.000000e+00 0.000000e+00
 0.000000e+00 8.090159e-01 1.909842e-01 0.000000e+00 0.000000e+00
 0.000000e+00 0.000000e+00 7.585162e-01 2.414838e-01 0.000000e+00
 0.000000e+00 0.000000e+00 0.000000e+00 6.533065e-01 3.466935e-01
 0.000000e+00 0.000000e+00 0.000000e+00 0.000000e+00 0.000000e+00
<ENDHMM>
~h "K"
<BEGINHMM>
<NUMSTATES> 5
<STATE> 2
<MEAN> 25
 -6.001607e-01 3.512573e+00 -9.487098e-01 1.350508e+00 1.211268e+00 -2.895968e+00 8.812593e-01 -7.768511e-01 -7.219321e-01 1.545178e+00 -1.000565e+00 4.234011e-01 -1.297047e+00 -5.441268e-01 -8.356463e-01 2.342717e-01 9.699695e-01 -3.737408e-01 4.631734e-02 3.149553e-01 2.187615e-01 1.365195e-01 -1.854140e-01 6.493576e-01 -7.374597e-01
<VARIANCE> 25
 3.439133e+01 3.303548e+01 4.018295e+01 3.589428e+01 4.530318e+01 4.796840e+01 4.445102e+01 4.734365e+01 4.374964e+01 3.578011e+01 3.391939e+01 3.143241e+01 2.521140e+00 4.919776e+00 4.196280e+00 3.399752e+00 4.967822e+00 4.358940e+00 4.312784e+00 4.176108e+00 3.870909e+00 3.499264e+00 3.190568e+00 2.683678e+00 1.121251e+01
<GCONST> 1.082323e+02
<STATE> 3
<MEAN> 25
 -5.432706e+00 -3.180438e+00 -6.569003e+00 7.023115e-01 5.986852e+00 -4.034074e+00 -8.659375e-01 1.417409e+00 -3.650547e-01 3.090530e+00 -1.840598e+00 2.785201e+00 -8.647918e-01 -2.094529e+00 -2.108191e+00 -9.385266e-01 1.315636e+00 -6.424968e-01 -9.295996e-01 9.856411e-01 1.024065e-01 9.451261e-01 -5.555273e-01 1.703309e-01 4.717183e+00
<VARIANCE> 25
 2.930567e+01 5.784386e+01 6.492830e+01 4.954073e+01 5.898277e+01 5.717222e+01 5.656910e+01 4.639637e+01 4.611487e+01 3.614059e+01 3.252778e+01 3.104091e+01 3.870277e+00 5.287465e+00 6.833490e+00 5.340064e+00 6.558735e+00 6.283774e+00 5.872880e+00 5.485666e+00 5.255805e+00 4.446954e+00 4.173253e+00 3.916293e+00 1.247493e+01
<GCONST> 1.140666e+02
<STATE> 4
<MEAN> 25
 -3.699603e+00 -3.463996e+00 -7.211908e+00 -2.037402e+00 4.528823e+00 -4.234074e+00 -1.486627e+00 3.132718e+00 3.900180e-01 3.737742e+00 -2.587932e+00 3.024794e-01 1.920465e+00 2.696363e-01 1.170423e+00 -8.788391e-01 -1.745132e+00 6.542073e-01 1.386613e-01 2.701291e-01 1.397420e-01 -6.084629e-01 4.123880e-01 -1.438624e+00 2.667763e+00
<VARIANCE> 25
 3.863920e+01 3.783649e+01 5.937407e+01 4.659640e+01 6.088832e+01 6.112368e+01 5.236551e+01 4.847805e+01 4.894183e+01 3.853700e+01 3.523614e+01 3.991291e+01 4.792974e+00 4.645417e+00 5.478912e+00 4.805057e+00 5.657101e+00 5.481894e+00 5.775028e+00 5.405772e+00 5.577185e+00 4.103345e+00 4.121630e+00 4.634201e+00 7.972775e+00
<GCONST> 1.134174e+02
<TRANSP> 5
 0.000000e+00 1.000000e+00 0.000000e+00 0.000000e+00 0.000000e+00
 0.000000e+00 6.434739e-01 3.565262e-01 0.000000e+00 0.000000e+00
 0.000000e+00 0.000000e+00 4.985060e-01 5.014939e-01 0.000000e+00
 0.000000e+00 0.000000e+00 0.000000e+00 5.619408e-01 4.380591e-01
 0.000000e+00 0.000000e+00 0.000000e+00 0.000000e+00 0.000000e+00
<ENDHMM>
~h "L"
<BEGINHMM>
<NUMSTATES> 5
<STATE> 2
<MEAN> 25
 6.564433e+00 -5.246365e+00 -4.128886e-01 -5.583837e+00 -3.249672e+00 1.913984e+00 -7.717734e+00 -4.776918e+00 5.045923e+00 4.298996e+00 1.000808e+00 -2.898400e+00 6.062843e-01 1.190960e-01 6.770766e-01 -6.941827e-01 4.417019e-01 1.170844e-01 -1.464885e+00 -1.369953e+00 3.199904e-01 1.230379e+00 2.946329e-01 -1.479736e-01 -3.596712e-01
<VARIANCE> 25
 1.700088e+01 2.617314e+01 5.259329e+01 5.658184e+01 4.740859e+01 7.180211e+01 6.770360e+01 9.620902e+01 6.031154e+01 4.606467e+01 4.965059e+01 4.124730e+01 1.083042e+00 1.902921e+00 3.099587e+00 4.171074e+00 4.936970e+00 5.542605e+00 4.563624e+00 5.255585e+00 4.823590e+00 3.732752e+00 4.349279e+00 3.275640e+00 1.467299e+00
<GCONST> 1.082116e+02
<STATE> 3
<MEAN> 25
 7.940612e+00 -4.634568e+00 9.952269e-01 -7.861283e+00 -2.730676e+00 3.679760e+00 -1.051631e+01 -8.327196e+00 4.880390e+00 6.952984e+00 2.699100e+00 -2.934587e+00 -5.679117e-02 1.446458e-01 8.280829e-02 -2.307402e-01 2.896821e-01 -5.532214e-02 -2.683629e-01 1.980372e-01 -5.577878e-02 -2.896702e-02 -6.223460e-02 1.412164e-02 -1.012757e-01
<VARIANCE> 25
 1.187542e+01 2.220617e+01 4.655852e+01 6.128974e+01 4.530494e+01 5.647942e+01 7.657735e+01 7.625297e+01 5.615838e+01 4.536633e+01 4.454861e+01 3.830412e+01 5.045994e-01 1.170377e+00 2.359503e+00 2.647839e+00 2.114271e+00 3.180830e+00 3.118415e+00 4.673866e+00 3.412979e+00 2.654666e+00 2.828084e+00 2.235554e+00 8.784357e-01
<GCONST> 1.010919e+02
<STATE> 4
<MEAN> 25
 6.301942e+00 -3.048061e+00 -6.548155e-01 -7.595819e+00 1.389249e-01 2.521866e+00 -7.990266e+00 -4.484586e+00 4.230448e+00 4.912983e+00 -1.602585e-02 -2.553126e+00 -5.678385e-01 -1.534522e-01 -4.763305e-01 7.332789e-01 -2.333000e-03 -1.724496e-01 1.152560e+00 1.244345e+00 -1.231298e-01 -1.003523e+00 -7.264826e-01 1.808992e-02 -1.040793e-01
<VARIANCE> 25
 1.733828e+01 3.327273e+01 5.972031e+01 7.079430e+01 5.185058e+01 6.195469e+01 7.974123e+01 7.292046e+01 5.717168e+01 5.054785e+01 5.102982e+01 4.184029e+01 8.193738e-01 2.556146e+00 2.989960e+00 3.182114e+00 3.537475e+00 4.183784e+00 4.269311e+00 5.368009e+00 4.224534e+00 3.537949e+00 4.136153e+00 2.926396e+00 2.615954e+00
<GCONST> 1.080105e+02
<TRANSP> 5
 0.000000e+00 1.000000e+00 0.000000e+00 0.000000e+00 0.000000e+00
 0.000000e+00 5.387750e-01 4.612251e-01 0.000000e+00 0.000000e+00
 0.000000e+00 0.000000e+00 5.706756e-01 4.293244e-01 0.000000e+00
 0.000000e+00 0.000000e+00 0.000000e+00 5.531978e-01 4.468022e-01
 0.000000e+00 0.000000e+00 0.000000e+00 0.000000e+00 0.000000e+00
<ENDHMM>
~h "M"
<BEGINHMM>
<NUMSTATES> 5
<STATE> 2
<MEAN> 25
 8.284554e+00 -1.073472e+00 3.776398e-01 -7.921120e-01 -1.153621e+00 5.162819e+00 -1.144172e+00 -6.416251e+00 -6.005053e+00 -1.976553e-03 1.796101e+00 -3.031618e+00 6.409695e-01 1.206794e+00 1.742105e+00 2.052984e+00 6.754109e-02 4.327611e-01 7.763368e-01 -2.739338e+00 -3.076163e+00 -1.738949e-01 -4.723329e-01 3.851631e-01 -9.421225e-01
<VARIANCE> 25
 2.285028e+01 3.438776e+01 3.804337e+01 5.859968e+01 4.051939e+01 5.217687e+01 5.194284e+01 6.058205e+01 6.210517e+01 4.005745e+01 5.074404e+01 3.678374e+01 2.019601e+00 2.391976e+00 3.377602e+00 3.830445e+00 3.714804e+00 4.149473e+00 4.769756e+00 5.178214e+00 5.193011e+00 4.452226e+00 6.263088e+00 4.006391e+00 4.628526e+00
<GCONST> 1.093573e+02
<STATE> 3
<MEAN> 25
 8.829135e+00 9.797117e-01 5.130432e+00 3.644781e+00 -1.788821e+00 6.147914e+00 1.780279e-01 -1.185217e+01 -1.245553e+01 -9.388443e-01 -2.894084e-01 -1.699377e+00 9.709240e-03 1.736144e-01 2.982765e-01 1.886311e-01 7.010519e-02 2.120090e-01 2.530297e-01 -2.384174e-01 -4.317933e-01 -2.238004e-01 -3.223647e-01 1.653025e-01 -7.544354e-02
<VARIANCE> 25
 9.160110e+00 2.086110e+01 2.026091e+01 3.605890e+01 4.084200e+01 6.015400e+01 5.826405e+01 5.283831e+01 4.559669e+01 5.722857e+01 6.268605e+01 4.045726e+01 5.308070e-01 1.117493e+00 1.082878e+00 1.558275e+00 1.585051e+00 1.863619e+00 1.755738e+00 2.209456e+00 2.418786e+00 2.064470e+00 2.502437e+00 1.665403e+00 1.664914e+00
<GCONST> 9.532259e+01
<STATE> 4
<MEAN> 25
 7.590438e+00 1.165319e+00 3.564787e+00 1.080304e+00 -7.707236e-01 5.959429e+00 1.282105e+00 -8.508865e+00 -9.512199e+00 -2.361178e+00 -1.854325e+00 -1.067885e+00 -1.608127e-01 -3.918135e-01 -1.165726e+00 -1.305437e+00 -7.547621e-03 -3.562928e-01 -3.668756e-01 1.436500e+00 1.696693e+00 2.501517e-01 5.805796e-01 -2.341616e-01 6.634657e-01
<VARIANCE> 25
 1.641061e+01 2.569057e+01 3.395363e+01 4.654750e+01 5.015682e+01 5.785646e+01 4.685891e+01 5.218592e+01 5.716749e+01 4.491491e+01 5.962753e+01 3.563883e+01 8.426265e-01 1.975378e+00 3.298702e+00 4.024567e+00 2.758624e+00 2.980192e+00 3.041739e+00 4.002903e+00 5.083902e+00 2.989084e+00 3.962923e+00 2.717360e+00 3.020516e+00
<GCONST> 1.045486e+02
<TRANSP> 5
 0.000000e+00 1.000000e+00 0.000000e+00 0.000000e+00 0.000000e+00
 0.000000e+00 6.072211e-01 3.927788e-01 0.000000e+00 0.000000e+00
 0.000000e+00 0.000000e+00 7.362998e-01 2.637002e-01 0.000000e+00
 0.000000e+00 0.000000e+00 0.000000e+00 6.544658e-01 3.455342e-01
 0.000000e+00 0.000000e+00 0.000000e+00 0.000000e+00 0.000000e+00
<ENDHMM>
~h "N"
<BEGINHMM>
<NUMSTATES> 5
<STATE> 2
<MEAN> 25
 7.646634e+00 -3.885159e+00 2.303184e+00 1.682091e+00 -3.753436e+00 -2.208230e+00 -4.551013e+00 -8.027186e-01 1.090008e+00 6.725061e-01 -4.446429e+00 -3.539535e+00 7.326412e-01 2.198148e+00 1.776132e+00 2.055817e+00 -5.974162e-01 -6.806230e-01 4.365823e-01 -3.591881e+00 -1.185050e+00 1.069321e+00 -7.456266e-01 5.925032e-01 -2.198152e+00
<VARIANCE> 25
 9.482267e+00 3.527048e+01 3.748990e+01 3.647207e+01 3.738380e+01 4.475045e+01 4.374784e+01 9.940871e+01 5.737885e+01 4.011435e+01 4.003245e+01 3.615527e+01 7.481776e-01 1.859793e+00 3.297158e+00 2.634259e+00 3.639258e+00 5.082182e+00 4.824603e+00 5.977882e+00 4.882369e+00 4.523242e+00 4.828726e+00 3.379486e+00 1.055921e+00
<GCONST> 1.045119e+02
<STATE> 3
<MEAN> 25
 8.864710e+00 1.625983e+00 6.463860e+00 5.388951e+00 -5.958380e+00 -2.081327e+00 -2.230467e+00 -9.620620e+00 -2.637374e+00 3.115843e+00 -5.351263e+00 -1.678983e+00 9.472856e-02 7.182732e-01 2.556087e-01 3.092732e-01 8.013569e-02 1.280459e-01 3.484885e-01 -4.653552e-01 -5.169102e-01 1.614360e-01 -1.345176e-01 2.980945e-01 -7.768178e-01
<VARIANCE> 25
 7.605832e+00 1.702178e+01 2.166421e+01 2.850579e+01 3.286027e+01 5.325239e+01 4.833391e+01 5.361262e+01 5.312101e+01 4.535210e+01 5.232486e+01 4.455821e+01 3.876182e-01 1.073791e+00 1.146691e+00 1.150254e+00 1.723207e+00 1.773442e+00 2.057579e+00 3.021514e+00 2.368147e+00 2.021154e+00 2.048781e+00 1.668827e+00 8.753938e-01
<GCONST> 9.311141e+01
<STATE> 4
<MEAN> 25
 5.847946e+00 4.446854e+00 5.536949e+00 6.091399e+00 -9.988013e-01 -2.177809e+00 -1.953428e-01 -6.155867e+00 -3.228247e+00 9.262607e-01 -5.626328e+00 1.223828e-01 -8.643405e-01 3.540850e-02 -4.613993e-01 -3.289914e-01 8.565786e-01 1.079576e-01 2.091639e-03 1.055707e+00 2.206440e-01 -5.865132e-01 4.610792e-01 5.095035e-02 -9.452571e-01
<VARIANCE> 25
 2.469706e+01 3.149397e+01 2.865018e+01 3.082376e+01 4.627699e+01 3.830313e+01 4.836373e+01 6.056995e+01 4.954651e+01 4.810107e+01 4.813945e+01 3.737415e+01 1.390519e+00 2.583395e+00 2.232301e+00 2.496967e+00 3.109299e+00 2.990881e+00 3.346243e+00 4.644637e+00 3.557017e+00 3.069576e+00 3.064997e+00 2.505568e+00 3.600951e+00
<GCONST> 1.038015e+02
<TRANSP> 5
 0.000000e+00 1.000000e+00 0.000000e+00 0.000000e+00 0.000000e+00
 0.000000e+00 6.275313e-01 3.724686e-01 0.000000e+00 0.000000e+00
 0.000000e+00 0.000000e+00 7.489346e-01 2.510653e-01 0.000000e+00
 0.000000e+00 0.000000e+00 0.000000e+00 7.026629e-01 2.973372e-01
 0.000000e+00 0.000000e+00 0.000000e+00 0.000000e+00 0.000000e+00
<ENDHMM>
~h "O"
<BEGINHMM>
<NUMSTATES> 5
<STATE> 2
<MEAN> 25
 5.875271e+00 -1.003748e-01 -6.017588e+00 -9.016740e+00 -2.709429e+00 5.758828e+00 -4.210001e+00 -2.044184e+00 7.312985e-01 1.757223e+00 3.694139e+00 -8.078566e-01 1.866780e+00 -4.108363e-01 -7.983898e-01 -2.880130e+00 -1.528119e+00 2.506254e+00 -3.990576e-01 -1.656744e-01 5.611975e-01 -7.047527e-02 1.395570e+00 -6.255447e-01 2.171121e+00
<VARIANCE> 25
 3.040817e+01 3.417091e+01 4.349114e+01 7.788975e+01 5.820905e+01 5.797338e+01 7.110854e+01 5.415407e+01 6.106094e+01 5.135809e+01 4.449427e+01 3.512458e+01 4.431007e+00 2.990412e+00 5.888074e+00 5.867483e+00 7.386919e+00 5.464994e+00 5.339466e+00 6.521222e+00 5.548995e+00 5.579218e+00 4.770529e+00 3.947751e+00 5.017711e+00
<GCONST> 1.141618e+02
<STATE> 3
<MEAN> 25
 8.568444e+00 -1.792075e+00 -7.324726e+00 -1.540263e+01 -5.752799e+00 1.255223e+01 -3.788383e+00 -2.446367e+00 1.965668e+00 -4.129744e-02 7.359597e+00 -1.255724e+00 1.518545e-01 -1.472923e-01 -2.561093e-01 -9.092682e-01 -6.843036e-02 9.791831e-01 3.506783e-01 1.161730e-02 -5.534114e-02 -3.286669e-01 4.434405e-01 8.386771e-02 2.783882e-01
<VARIANCE> 25
 1.022208e+01 2.666981e+01 2.475075e+01 4.933995e+01 4.222986e+01 3.776044e+01 5.685876e+01 4.715353e+01 4.616766e+01 5.792432e+01 4.112490e+01 3.662106e+01 4.991627e-01 1.414113e+00 1.164524e+00 2.509179e+00 2.058116e+00 2.114519e+00 2.645111e+00 2.484528e+00 3.074542e+00 2.870896e+00 2.083524e+00 2.064729e+00 1.165125e+00
<GCONST> 9.700665e+01
<STATE> 4
<MEAN> 25
 7.931694e+00 2.877516e-01 -6.750687e+00 -1.407493e+01 -3.342443e+00 9.859247e+00 -2.212188e+00 -2.357739e+00 5.865239e-01 8.131146e-01 4.693590e+00 -5.967104e-01 -2.108398e-01 1.676053e-01 3.330556e-01 1.330401e+00 4.411522e-01 -1.065041e+00 2.178495e-02 -7.351802e-02 2.764588e-02 3.139942e-01 -6.648008e-01 -1.078953e-01 -1.106586e+00
<VARIANCE> 25
 1.300103e+01 3.916982e+01 2.752145e+01 5.393808e+01 4.446190e+01 4.322998e+01 6.244216e+01 4.807407e+01 4.973178e+01 5.456739e+01 4.091643e+01 4.301263e+01 7.946203e-01 1.699249e+00 1.494983e+00 3.087358e+00 2.543460e+00 2.839972e+00 2.946906e+00 2.804866e+00 3.017037e+00 3.037476e+00 2.507998e+00 2.227821e+00 2.597251e+00
<GCONST> 1.012394e+02
<TRANSP> 5
 0.000000e+00 1.000000e+00 0.000000e+00 0.000000e+00 0.000000e+00
 0.000000e+00 5.790288e-01 4.209712e-01 0.000000e+00 0.000000e+00
 0.000000e+00 0.000000e+00 7.073411e-01 2.926589e-01 0.000000e+00
 0.000000e+00 0.000000e+00 0.000000e+00 8.293029e-01 1.706971e-01
 0.000000e+00 0.000000e+00 0.000000e+00 0.000000e+00 0.000000e+00
<ENDHMM>
~h "P"
<BEGINHMM>
<NUMSTATES> 5
<STATE> 2
<MEAN> 25
 1.381836e+00 5.161390e+00 -1.217766e+00 5.441049e-01 2.050357e+00 2.794729e-01 1.739806e+00 -2.333082e+00 -9.518586e-01 6.825304e-01 -5.916820e-01 5.690533e-02 -1.224313e+00 8.488914e-02 -1.053320e-01 3.406045e-01 2.606325e-01 -5.636582e-01 2.405688e-01 2.719297e-01 2.950112e-01 -2.770246e-02 -9.164198e-02 4.432318e-01 -1.150451e+00
<VARIANCE> 25
 4.225329e+01 2.490317e+01 3.148439e+01 3.248299e+01 2.662089e+01 3.923726e+01 3.142998e+01 3.249443e+01 3.848916e+01 2.679213e+01 2.899471e+01 2.784889e+01 1.897636e+00 2.460236e+00 2.065089e+00 2.356225e+00 2.403435e+00 2.707553e+00 2.492761e+00 2.581533e+00 2.988873e+00 2.410976e+00 2.579306e+00 2.056294e+00 8.379116e+00
<GCONST> 9.997529e+01
<STATE> 3
<MEAN> 25
 -3.328698e+00 3.211388e+00 -1.039012e+00 1.782780e+00 2.509115e+00 -1.608937e+00 1.716633e+00 -1.350448e+00 -2.562313e-01 1.044414e-01 -5.220770e-01 1.930264e+00 1.928861e-01 -2.090113e+00 -8.526362e-01 -1.216880e+00 -2.582267e-01 2.369290e-01 -5.440940e-01 1.815001e-01 3.032944e-01 1.691220e-01 7.672266e-01 -2.407049e-02 5.908565e+00
<VARIANCE> 25
 2.427482e+01 2.610798e+01 2.329432e+01 2.501164e+01 2.579533e+01 2.859855e+01 3.164504e+01 3.097556e+01 3.195105e+01 2.308323e+01 2.221101e+01 2.159377e+01 5.256920e+00 3.511086e+00 4.173372e+00 5.411765e+00 3.546372e+00 5.871877e+00 3.936301e+00 4.175109e+00 4.512339e+00 3.464366e+00 3.531707e+00 3.344818e+00 8.685286e+00
<GCONST> 1.042822e+02
<STATE> 4
<MEAN> 25
 1.202685e-01 -2.501513e+00 -4.694183e+00 -3.262258e+00 1.035723e+00 6.913220e-01 2.528076e-01 -1.512981e+00 4.856295e-01 9.048910e-01 1.789641e+00 4.194877e-01 2.687325e+00 -2.092316e+00 -9.736079e-01 -2.613619e+00 -1.241537e+00 1.824464e+00 -1.173444e+00 -9.191319e-03 2.351466e-01 1.440461e-01 9.180685e-01 -1.418546e+00 6.421430e+00
<VARIANCE> 25
 4.836327e+01 2.917169e+01 2.707889e+01 6.068142e+01 2.944524e+01 5.951980e+01 3.189082e+01 2.928176e+01 2.846999e+01 2.388998e+01 2.635447e+01 2.908386e+01 4.592922e+00 6.286015e+00 5.890381e+00 7.538074e+00 5.661107e+00 9.143221e+00 5.481791e+00 6.229830e+00 5.905932e+00 4.533186e+00 4.647047e+00 5.066933e+00 1.029627e+01
<GCONST> 1.114872e+02
<TRANSP> 5
 0.000000e+00 1.000000e+00 0.000000e+00 0.000000e+00 0.000000e+00
 0.000000e+00 7.384233e-01 2.615767e-01 0.000000e+00 0.000000e+00
 0.000000e+00 0.000000e+00 3.360450e-01 6.639551e-01 0.000000e+00
 0.000000e+00 0.000000e+00 0.000000e+00 4.219250e-01 5.780751e-01
 0.000000e+00 0.000000e+00 0.000000e+00 0.000000e+00 0.000000e+00
<ENDHMM>
~h "Q"
<BEGINHMM>
<NUMSTATES> 5
<STATE> 2
<MEAN> 25
 -3.336268e+00 -4.340723e-01 -4.397158e+00 5.999054e-01 4.484199e+00 -2.140114e+00 -9.094423e-01 -1.572949e+00 5.675669e-01 3.915717e+00 -2.289520e-01 8.648112e-01 -4.062848e-01 -3.472369e-01 -7.090593e-01 -1.876978e-01 7.049110e-01 1.799550e-01 3.836403e-01 1.680918e-01 1.547581e-01 1.597092e-01 -3.370489e-01 3.187773e-01 -1.011869e-01
<VARIANCE> 25
 4.404008e+01 5.710149e+01 5.708725e+01 4.210762e+01 6.979478e+01 7.811311e+01 5.237339e+01 4.819306e+01 4.650803e+01 4.282898e+01 3.950835e+01 3.896492e+01 4.961964e+00 7.308292e+00 5.446656e+00 5.574959e+00 6.834088e+00 7.040722e+00 5.056109e+00 4.792815e+00 4.519969e+00 4.280370e+00 4.183951e+00 3.355627e+00 1.719135e+01
<GCONST> 1.154493e+02
<STATE> 3
<MEAN> 25
 -4.228045e+00 5.379382e-01 -3.430481e+00 4.682684e-02 2.797330e+00 -1.876892e+00 1.802875e+00 -1.641361e+00 -7.359364e-01 3.442681e+00 -1.235074e+00 1.763661e+00 -3.862797e-02 4.137902e-01 -6.733767e-02 1.705323e-01 -1.736832e-02 9.803179e-02 5.003675e-01 3.662692e-01 -1.364207e-01 -3.750138e-01 5.152114e-02 3.581538e-02 -9.356042e-01
<VARIANCE> 25
 2.981157e+01 3.629602e+01 5.803037e+01 4.250547e+01 4.294426e+01 4.938751e+01 4.801208e+01 5.064288e+01 5.112091e+01 2.868131e+01 3.299687e+01 3.081516e+01 1.933930e+00 2.637333e+00 2.545458e+00 2.549435e+00 2.848456e+00 2.492694e+00 2.695731e+00 3.215823e+00 3.043279e+00 2.487833e+00 2.410338e+00 2.150063e+00 5.309350e+00
<GCONST> 1.033733e+02
<STATE> 4
<MEAN> 25
 -4.182632e+00 4.428910e-01 -2.853380e+00 2.892738e+00 1.698767e+00 -2.969887e+00 3.427626e+00 -1.153145e-01 -6.989146e-01 4.849254e-02 2.655734e-01 1.682510e+00 -1.828592e-02 1.789567e-02 1.872270e-02 1.529577e-02 4.212558e-02 7.499261e-02 6.423415e-02 1.381852e-01 3.188451e-02 -7.176320e-02 -2.482395e-02 -3.118521e-02 -8.011463e-02
<VARIANCE> 25
 1.380910e+01 3.116339e+01 2.100164e+01 2.042260e+01 2.099978e+01 2.242524e+01 2.502097e+01 2.396044e+01 2.146677e+01 2.364429e+01 2.318144e+01 1.666295e+01 5.751327e-01 1.021906e+00 1.051744e+00 1.212978e+00 1.323527e+00 1.520240e+00 1.508227e+00 1.876603e+00 1.713177e+00 1.900768e+00 1.872626e+00 1.577137e+00 8.837788e-01
<GCONST> 8.640135e+01
<TRANSP> 5
 0.000000e+00 1.000000e+00 0.000000e+00 0.000000e+00 0.000000e+00
 0.000000e+00 7.758620e-01 2.241379e-01 0.000000e+00 0.000000e+00
 0.000000e+00 0.000000e+00 6.552035e-01 3.447966e-01 0.000000e+00
 0.000000e+00 0.000000e+00 0.000000e+00 8.829438e-01 1.170562e-01
 0.000000e+00 0.000000e+00 0.000000e+00 0.000000e+00 0.000000e+00
<ENDHMM>
~h "R"
<BEGINHMM>
<NUMSTATES> 5
<STATE> 2
<MEAN> 25
 5.687671e+00 -6.032447e+00 -5.082155e+00 1.516837e-02 -3.506125e+00 -1.189558e+00 -4.604465e+00 4.164122e-01 6.919941e+00 2.349865e+00 -2.018577e-01 -3.650810e+00 5.476818e-01 -1.000619e-01 1.800954e-01 1.504601e+00 -3.582408e-01 -3.916409e-01 -7.989585e-01 -3.919096e-01 5.678557e-01 3.923335e-02 4.133084e-02 2.384935e-01 -8.053641e-01
<VARIANCE> 25
 1.999650e+01 2.448689e+01 4.034584e+01 3.772165e+01 4.873993e+01 4.752967e+01 5.290739e+01 7.287627e+01 5.128911e+01 4.015235e+01 4.061322e+01 3.697539e+01 2.265382e+00 2.235466e+00 3.142280e+00 4.541435e+00 5.123443e+00 5.042668e+00 4.742652e+00 5.417103e+00 5.222853e+00 4.628886e+00 4.432391e+00 3.663653e+00 3.987270e+00
<GCONST> 1.085522e+02
<STATE> 3
<MEAN> 25
 7.006248e+00 -5.838906e+00 -3.923436e+00 3.107792e+00 -4.203792e+00 -2.004508e+00 -6.779017e+00 -1.029032e-01 6.750534e+00 2.820774e+00 5.811124e-01 -3.168041e+00 2.863466e-02 2.246089e-01 5.753716e-01 5.867082e-01 2.501464e-01 -3.466250e-01 -2.250270e-01 1.212988e-02 -7.059664e-01 -9.262241e-02 1.130824e-01 4.864160e-01 -9.670427e-01
<VARIANCE> 25
 1.606761e+01 2.293844e+01 4.322271e+01 3.553267e+01 5.343274e+01 4.789994e+01 5.138855e+01 6.760750e+01 5.072696e+01 4.300290e+01 3.930627e+01 3.452395e+01 1.962609e+00 2.302338e+00 3.116575e+00 3.033649e+00 5.132642e+00 4.848070e+00 4.373549e+00 5.543236e+00 4.898030e+00 4.027408e+00 3.883963e+00 3.517277e+00 3.453177e+00
<GCONST> 1.070877e+02
<STATE> 4
<MEAN> 25
 4.399232e+00 -3.815086e+00 -2.607181e+00 3.286696e+00 -8.758465e-01 -2.596694e+00 -4.083917e+00 3.778701e-01 3.840264e+00 1.325583e+00 -1.453929e-01 -1.049149e+00 -3.065702e-01 3.316379e-01 4.713151e-01 -1.196958e-01 1.628608e-01 -5.772589e-03 3.479073e-01 9.249390e-02 -8.307949e-01 -2.466788e-01 8.764949e-02 3.343750e-01 -6.205976e-01
<VARIANCE> 25
 3.306033e+01 2.976095e+01 5.314176e+01 3.409772e+01 5.746794e+01 5.154205e+01 5.654593e+01 5.801735e+01 4.620326e+01 4.138753e+01 4.139585e+01 3.275521e+01 1.927670e+00 2.338190e+00 2.724785e+00 2.147799e+00 3.688375e+00 3.316275e+00 3.243472e+00 3.628587e+00 3.737441e+00 2.842649e+00 2.872560e+00 2.473186e+00 2.889785e+00
<GCONST> 1.048254e+02
<TRANSP> 5
 0.000000e+00 1.000000e+00 0.000000e+00 0.000000e+00 0.000000e+00
 0.000000e+00 4.354182e-01 5.645818e-01 0.000000e+00 0.000000e+00
 0.000000e+00 0.000000e+00 3.898127e-01 6.101873e-01 0.000000e+00
 0.000000e+00 0.000000e+00 0.000000e+00 5.839731e-01 4.160269e-01
 0.000000e+00 0.000000e+00 0.000000e+00 0.000000e+00 0.000000e+00
<ENDHMM>
~h "S"
<BEGINHMM>
<NUMSTATES> 5
<STATE> 2
<MEAN> 25
 -6.513615e+00 5.995304e+00 9.306176e-01 1.882903e+00 4.689507e+00 -4.731998e+00 1.197357e+00 1.899319e+00 7.175078e-01 1.393432e-01 -1.762103e+00 2.012444e+00 -4.569866e+00 2.042221e+00 -5.520260e-01 5.253653e-01 1.843724e+00 -4.107236e-01 1.395053e+00 7.138920e-01 2.741915e-01 -3.341359e-01 4.646496e-01 9.361852e-01 -4.616116e-01
<VARIANCE> 25
 6.713936e+01 4.545113e+01 4.497717e+01 3.321803e+01 4.811746e+01 4.361578e+01 6.658705e+01 4.974328e+01 4.499107e+01 3.298513e+01 3.720386e+01 2.840829e+01 3.004927e+00 5.355800e+00 4.157078e+00 4.043542e+00 5.088746e+00 4.721570e+00 5.318431e+00 5.592108e+00 4.286700e+00 3.676403e+00 3.674683e+00 3.005069e+00 2.928034e+00
<GCONST> 1.097053e+02
<STATE> 3
<MEAN> 25
 -2.198444e+01 7.121699e+00 -3.910687e+00 1.391728e+00 6.898058e+00 -3.600630e+00 4.011317e+00 3.387094e+00 1.598150e+00 6.687944e-01 1.430728e+00 4.629164e+00 -8.233315e-01 -4.603440e-01 -4.468331e-01 -1.945343e-01 -1.353708e-01 1.036482e-01 8.616791e-02 6.642288e-02 1.124968e-01 1.034640e-01 2.060674e-01 2.021735e-01 -2.264590e-01
<VARIANCE> 25
 2.012434e+01 2.295845e+01 3.322665e+01 3.324481e+01 3.568636e+01 3.964768e+01 4.697377e+01 3.828482e+01 3.599183e+01 2.492114e+01 2.529624e+01 2.263838e+01 2.877044e+00 1.481952e+00 1.677302e+00 1.431479e+00 1.617007e+00 1.781309e+00 1.876426e+00 1.866726e+00 1.887824e+00 1.740397e+00 1.695619e+00 1.454450e+00 1.083550e+00
<GCONST> 9.379849e+01
<STATE> 4
<MEAN> 25
 -1.493239e+01 3.245656e+00 -3.235978e+00 3.520307e-01 4.394724e+00 -4.362536e+00 2.048846e+00 2.675542e+00 2.403300e+00 3.513431e-01 -2.440448e-01 3.370571e+00 4.069113e+00 -6.141599e-01 7.890105e-01 -2.217409e-01 -1.094303e+00 1.249619e-02 -1.336764e+00 -8.513347e-01 1.643850e-02 -3.923680e-02 -7.024009e-01 -1.111106e+00 2.510178e-01
<VARIANCE> 25
 6.886768e+01 2.965170e+01 3.744823e+01 3.099274e+01 3.555993e+01 4.084650e+01 5.534465e+01 4.025353e+01 3.691300e+01 2.694417e+01 2.917348e+01 2.662669e+01 7.425094e+00 3.790502e+00 4.154021e+00 3.518421e+00 3.413021e+00 4.359100e+00 4.974468e+00 4.738329e+00 4.324821e+00 2.862320e+00 2.966598e+00 2.955055e+00 5.787930e+00
<GCONST> 1.074947e+02
<TRANSP> 5
 0.000000e+00 1.000000e+00 0.000000e+00 0.000000e+00 0.000000e+00
 0.000000e+00 7.098687e-01 2.901313e-01 0.000000e+00 0.000000e+00
 0.000000e+00 0.000000e+00 8.500534e-01 1.499466e-01 0.000000e+00
 0.000000e+00 0.000000e+00 0.000000e+00 7.289715e-01 2.710285e-01
 0.000000e+00 0.000000e+00 0.000000e+00 0.000000e+00 0.000000e+00
<ENDHMM>
~h "T"
<BEGINHMM>
<NUMSTATES> 5
<STATE> 2
<MEAN> 25
 6.491966e-01 4.671096e+00 -8.775672e-01 1.534316e+00 1.661080e+00 -3.888835e+00 -1.030284e+00 -1.562077e+00 2.014122e+00 1.588762e+00 -2.047056e+00 -7.219636e-01 -1.036047e+00 2.082300e-01 -1.751028e-01 1.140379e-01 2.493890e-01 -1.010805e-01 6.735564e-01 8.371936e-02 -1.369198e-01 -1.997663e-01 6.640844e-02 5.214686e-01 -1.938591e+00
<VARIANCE> 25
 3.064896e+01 2.639111e+01 3.551962e+01 3.111047e+01 3.460583e+01 3.559243e+01 4.405534e+01 4.106934e+01 4.126752e+01 3.111661e+01 3.248848e+01 2.867388e+01 2.364359e+00 3.372506e+00 2.398756e+00 2.770779e+00 3.434881e+00 2.842927e+00 3.141917e+00 3.241881e+00 2.942086e+00 2.511943e+00 2.608781e+00 2.209281e+00 8.693501e+00
<GCONST> 1.027461e+02
<STATE> 3
<MEAN> 25
 -4.425136e+00 2.904677e+00 -1.089749e+00 1.550308e+00 2.242669e+00 -3.483681e+00 1.328850e+00 -9.286081e-01 6.141847e-01 2.998509e-01 -1.146469e+00 1.788465e+00 -1.632071e+00 -2.077991e+00 -7.326705e-01 -1.181216e+00 3.177484e-01 -2.616045e-01 4.657224e-02 6.577241e-01 1.821523e-01 -6.805792e-02 3.194197e-01 5.230197e-01 4.600500e+00
<VARIANCE> 25
 3.052679e+01 3.343969e+01 3.041307e+01 2.774942e+01 2.957882e+01 3.199360e+01 3.601753e+01 3.487527e+01 3.500260e+01 2.572856e+01 2.681316e+01 2.335385e+01 3.475718e+00 3.709598e+00 4.017656e+00 3.681534e+00 3.680969e+00 4.114703e+00 4.226089e+00 4.284411e+00 4.825306e+00 3.198571e+00 3.611791e+00 3.176113e+00 1.214868e+01
<GCONST> 1.053829e+02
<STATE> 4
<MEAN> 25
 -5.921227e+00 -2.601367e+00 -3.505281e+00 -2.489045e+00 1.834511e+00 -4.501598e+00 -1.454131e-01 7.817174e-01 2.142069e+00 6.504081e-01 -1.087425e+00 1.447001e+00 1.630962e+00 -1.104341e+00 -1.605352e-01 -1.281037e+00 -8.276871e-01 3.489803e-01 -1.596705e+00 -5.564908e-03 5.987096e-01 1.716941e-01 3.405304e-02 -1.189416e+00 5.761268e+00
<VARIANCE> 25
 3.375891e+01 2.702016e+01 2.838389e+01 2.977050e+01 3.087627e+01 3.822020e+01 4.112526e+01 3.309274e+01 3.847050e+01 2.743333e+01 2.872006e+01 2.984850e+01 5.285095e+00 4.737833e+00 5.927213e+00 5.260985e+00 5.002113e+00 6.390059e+00 6.263731e+00 6.463552e+00 7.581411e+00 3.974335e+00 4.782232e+00 4.559634e+00 1.336872e+01
<GCONST> 1.104133e+02
<TRANSP> 5
 0.000000e+00 1.000000e+00 0.000000e+00 0.000000e+00 0.000000e+00
 0.000000e+00 7.326183e-01 2.673818e-01 0.000000e+00 0.000000e+00
 0.000000e+00 0.000000e+00 3.946868e-01 6.053132e-01 0.000000e+00
 0.000000e+00 0.000000e+00 0.000000e+00 4.847426e-01 5.152574e-01
 0.000000e+00 0.000000e+00 0.000000e+00 0.000000e+00 0.000000e+00
<ENDHMM>
~h "U"
<BEGINHMM>
<NUMSTATES> 5
<STATE> 2
<MEAN> 25
 6.222833e+00 3.996022e+00 -1.803979e+00 -3.505620e+00 -3.598426e+00 2.685873e+00 -7.980544e+00 -5.604321e+00 -2.997213e+00 2.844732e-01 3.135767e+00 2.289125e-01 2.185869e+00 1.037373e+00 -3.781566e-01 -2.233802e+00 -2.042960e+00 2.407984e+00 -1.393867e+00 -1.244926e+00 -1.076857e+00 -1.897571e-01 1.637679e+00 -1.451820e-01 1.311551e+00
<VARIANCE> 25
 2.417161e+01 3.420691e+01 3.378272e+01 6.898467e+01 4.971017e+01 4.954678e+01 7.574162e+01 6.910619e+01 5.032121e+01 4.490416e+01 4.038344e+01 3.282750e+01 4.343979e+00 3.165257e+00 4.544396e+00 5.217089e+00 5.915845e+00 4.684272e+00 6.531874e+00 7.707671e+00 5.602392e+00 5.403156e+00 4.292179e+00 3.933703e+00 4.094541e+00
<GCONST> 1.123769e+02
<STATE> 3
<MEAN> 25
 9.367256e+00 6.440472e+00 -2.706937e+00 -1.003428e+01 -8.230774e+00 9.802815e+00 -8.278160e+00 -6.169510e+00 -5.570044e+00 -2.505319e+00 6.238292e+00 8.400316e-01 2.111413e-01 1.425578e-01 -1.569093e-01 -7.530613e-01 -2.500510e-01 7.771410e-01 9.953678e-02 -3.861433e-02 -2.569970e-01 -1.425401e-01 3.322696e-01 1.549969e-01 5.148303e-02
<VARIANCE> 25
 1.016921e+01 3.212017e+01 2.450223e+01 5.454848e+01 4.006228e+01 3.774974e+01 5.659104e+01 7.281385e+01 5.427603e+01 5.339095e+01 4.332062e+01 4.007595e+01 5.654949e-01 2.327422e+00 1.311048e+00 3.328416e+00 2.737962e+00 2.481927e+00 3.562043e+00 4.445131e+00 3.556386e+00 3.703014e+00 3.127129e+00 2.472768e+00 1.609725e+00
<GCONST> 1.015358e+02
<STATE> 4
<MEAN> 25
 8.298900e+00 6.323215e+00 -2.159425e+00 -7.443155e+00 -4.721823e+00 5.919730e+00 -6.603526e+00 -5.965463e+00 -4.648356e+00 -2.948695e-02 3.975461e+00 3.758229e-01 -4.530902e-01 -3.528767e-01 4.225695e-01 1.428770e+00 9.228204e-01 -1.282256e+00 4.979610e-01 7.367970e-02 6.923762e-01 5.193710e-01 -7.876332e-01 -2.757590e-01 -1.109288e+00
<VARIANCE> 25
 1.383459e+01 4.061162e+01 2.998277e+01 6.136094e+01 4.549418e+01 4.850471e+01 7.389447e+01 6.740585e+01 5.155650e+01 5.355841e+01 4.638447e+01 3.995292e+01 1.127391e+00 2.481849e+00 2.160105e+00 3.488150e+00 3.641970e+00 3.369162e+00 4.188776e+00 4.203010e+00 3.807977e+00 3.809086e+00 3.596174e+00 3.209929e+00 3.489941e+00
<GCONST> 1.062506e+02
<TRANSP> 5
 0.000000e+00 1.000000e+00 0.000000e+00 0.000000e+00 0.000000e+00
 0.000000e+00 5.427458e-01 4.572542e-01 0.000000e+00 0.000000e+00
 0.000000e+00 0.000000e+00 7.104037e-01 2.895963e-01 0.000000e+00
 0.000000e+00 0.000000e+00 0.000000e+00 7.567902e-01 2.432098e-01
 0.000000e+00 0.000000e+00 0.000000e+00 0.000000e+00 0.000000e+00
<ENDHMM>
~h "V"
<BEGINHMM>
<NUMSTATES> 5
<STATE> 2
<MEAN> 25
 -1.889103e+00 2.450343e+00 3.099076e-01 3.675045e+00 3.267773e+00 8.573323e-01 1.713318e+00 3.085763e-01 -9.701449e-02 6.299782e-01 2.808255e-01 1.784876e+00 -3.685103e+00 9.060152e-02 -1.088287e-01 1.415324e+00 1.280398e+00 -6.822585e-01 4.003638e-01 4.797107e-01 1.065307e+00 1.675880e-02 -2.776894e-01 6.109281e-01 -1.263902e+00
<VARIANCE> 25
 4.483016e+01 2.104862e+01 3.787450e+01 4.441998e+01 3.323820e+01 4.726786e+01 3.421932e+01 4.071662e+01 3.268362e+01 2.453794e+01 2.619497e+01 2.163868e+01 2.434936e+00 4.099061e+00 3.943162e+00 4.696409e+00 5.588378e+00 5.218900e+00 4.254442e+00 5.206440e+00 3.872118e+00 3.698240e+00 3.680128e+00 2.593558e+00 2.061593e+00
<GCONST> 1.051821e+02
<STATE> 3
<MEAN> 25
 -1.352631e+01 -2.609701e+00 -2.840317e+00 4.006441e+00 2.644096e+00 -1.790057e+00 4.676994e-01 1.019513e+00 1.569839e+00 1.340490e+00 5.276088e-01 3.103584e+00 -6.237066e-01 -6.053420e-01 -2.958618e-01 -9.460898e-02 -1.259014e-01 -1.858202e-01 -1.089586e-01 -2.230905e-02 1.367055e-02 4.580331e-02 7.295489e-03 2.960917e-02 -4.980712e-02
<VARIANCE> 25
 1.943516e+01 2.116575e+01 2.699519e+01 2.346246e+01 2.388214e+01 2.601142e+01 2.803340e+01 2.839494e+01 2.509647e+01 2.189733e+01 1.985963e+01 1.877642e+01 2.292365e+00 1.353327e+00 1.623641e+00 1.606941e+00 1.649914e+00 1.924700e+00 1.779266e+00 1.697398e+00 1.748354e+00 1.655170e+00 1.577187e+00 1.405328e+00 1.368985e+00
<GCONST> 9.028363e+01
<STATE> 4
<MEAN> 25
 -7.667013e+00 -3.330375e+00 -2.895540e+00 2.528477e+00 2.444824e+00 -1.763643e+00 4.690652e-01 1.271845e+00 1.510219e+00 1.160231e+00 2.821562e-01 1.538036e+00 4.810755e+00 2.638007e-01 5.853972e-01 -1.789469e+00 -1.564649e+00 3.012579e-01 -4.874710e-01 9.165534e-02 -8.129238e-01 -6.451955e-01 3.767510e-01 -1.171386e+00 2.063328e+00
<VARIANCE> 25
 6.952425e+01 2.385976e+01 3.629276e+01 4.341945e+01 2.708824e+01 4.245975e+01 2.792050e+01 3.396249e+01 2.623725e+01 2.189275e+01 2.055679e+01 2.155561e+01 5.074810e+00 4.814552e+00 6.575716e+00 6.801611e+00 4.312582e+00 7.115394e+00 4.200854e+00 5.047403e+00 5.249712e+00 3.201925e+00 3.584405e+00 3.597300e+00 3.952029e+00
<GCONST> 1.073001e+02
<TRANSP> 5
 0.000000e+00 1.000000e+00 0.000000e+00 0.000000e+00 0.000000e+00
 0.000000e+00 6.963444e-01 3.036557e-01 0.000000e+00 0.000000e+00
 0.000000e+00 0.000000e+00 8.451493e-01 1.548507e-01 0.000000e+00
 0.000000e+00 0.000000e+00 0.000000e+00 6.125587e-01 3.874413e-01
 0.000000e+00 0.000000e+00 0.000000e+00 0.000000e+00 0.000000e+00
<ENDHMM>
~h "W"
<BEGINHMM>
<NUMSTATES> 5
<STATE> 2
<MEAN> 25
 8.158926e+00 1.341970e+00 -3.815304e+00 -8.723616e+00 -2.944374e+00 6.708184e+00 -3.210003e+00 -1.863751e+00 -1.736510e+00 1.109472e+00 3.767060e+00 -1.093829e+00 1.530255e+00 1.214658e+00 -1.291350e-03 -1.972494e+00 -1.387689e+00 1.321531e+00 -1.814763e-01 -3.242738e-01 -1.112321e+00 -6.279776e-01 8.853453e-01 7.443227e-01 2.284711e-01
<VARIANCE> 25
 2.612291e+01 6.364601e+01 3.602941e+01 7.322795e+01 4.559040e+01 5.990759e+01 6.451341e+01 4.607896e+01 5.261020e+01 4.684211e+01 4.477489e+01 4.061491e+01 2.395636e+00 2.367458e+00 2.637932e+00 3.611761e+00 4.341429e+00 4.240446e+00 4.101190e+00 4.219296e+00 3.563976e+00 3.611229e+00 3.407634e+00 3.593945e+00 4.884408e+00
<GCONST> 1.088659e+02
<STATE> 3
<MEAN> 25
 1.175367e+01 4.653881e+00 -2.771789e+00 -1.630951e+01 -9.258001e+00 1.080684e+01 -4.230823e+00 -6.091757e-01 -2.274971e+00 -2.738839e+00 4.435162e+00 1.445917e+00 -4.940002e-02 -5.057242e-01 -2.731967e-01 -5.526953e-01 2.707791e-02 4.796729e-01 4.228202e-02 -1.136191e-01 2.304354e-01 2.189656e-01 3.259073e-01 9.806055e-02 5.552241e-01
<VARIANCE> 25
 8.836082e+00 3.387757e+01 2.115639e+01 4.403562e+01 3.602866e+01 3.798997e+01 3.915165e+01 4.070372e+01 4.575137e+01 3.815035e+01 3.603990e+01 3.020188e+01 4.772385e-01 2.951785e+00 1.499078e+00 2.281046e+00 2.559121e+00 2.636213e+00 2.313097e+00 2.112417e+00 2.301581e+00 2.883374e+00 2.577617e+00 2.162058e+00 2.150038e+00
<GCONST> 9.698171e+01
<STATE> 4
<MEAN> 25
 8.670913e+00 -4.393236e+00 -7.481835e+00 -1.571899e+01 -2.166360e+00 1.307133e+01 -2.299893e+00 -2.880531e+00 1.286224e+00 2.305985e+00 5.776935e+00 -3.607129e+00 -7.906876e-01 -1.556212e+00 -4.357354e-01 1.326941e+00 1.544566e+00 -6.869473e-01 -1.189256e-01 1.666735e-01 1.092473e+00 6.526158e-01 -9.790019e-01 -1.748566e+00 9.065789e-01
<VARIANCE> 25
 1.005648e+01 3.385176e+01 2.366929e+01 4.151770e+01 3.594588e+01 4.109022e+01 4.913220e+01 3.488674e+01 4.682298e+01 4.477880e+01 4.382776e+01 4.425379e+01 3.843623e-01 1.616154e+00 1.268702e+00 2.050932e+00 2.262149e+00 2.986442e+00 2.078868e+00 2.471745e+00 2.405283e+00 2.313385e+00 2.665654e+00 2.649189e+00 1.022108e+00
<GCONST> 9.635042e+01
<TRANSP> 5
 0.000000e+00 1.000000e+00 0.000000e+00 0.000000e+00 0.000000e+00
 0.000000e+00 6.860251e-01 3.139748e-01 0.000000e+00 0.000000e+00
 0.000000e+00 0.000000e+00 7.920205e-01 2.079795e-01 0.000000e+00
 0.000000e+00 0.000000e+00 0.000000e+00 7.348219e-01 2.651781e-01
 0.000000e+00 0.000000e+00 0.000000e+00 0.000000e+00 0.000000e+00
<ENDHMM>
~h "X"
<BEGINHMM>
<NUMSTATES> 5
<STATE> 2
<MEAN> 25
 -1.707465e+01 -7.482424e-01 -2.921943e+00 6.106562e+00 3.539776e+00 -6.167593e+00 1.507860e+00 4.593076e+00 2.861578e+00 1.782613e+00 2.811547e+00 6.204457e+00 -1.425623e+00 5.653272e-01 -2.769212e-01 6.857769e-02 9.764365e-01 5.864448e-01 -1.421800e-01 -2.357903e-01 6.196270e-01 -3.284569e-01 1.047791e-02 4.431754e-01 -8.058131e-02
<VARIANCE> 25
 7.687643e+01 3.548357e+01 6.607898e+01 2.429630e+01 3.118607e+01 2.737913e+01 3.831651e+01 3.398262e+01 3.299317e+01 3.214340e+01 2.413122e+01 3.603731e+01 9.962452e+00 3.162739e+00 7.733240e+00 2.401469e+00 3.361830e+00 3.136473e+00 6.232406e+00 5.822750e+00 3.326410e+00 3.825900e+00 2.640478e+00 2.552709e+00 9.851727e+00
<GCONST> 1.079539e+02
<STATE> 3
<MEAN> 25
 -2.137760e+01 4.265119e+00 -1.931369e+00 2.793625e+00 6.412280e+00 -2.589437e+00 7.355000e-01 6.412500e+00 1.890314e+00 1.431975e+00 2.756738e+00 5.083442e+00 4.860606e-01 3.634828e-01 -4.299036e-02 -6.060496e-02 -9.497285e-03 -8.387882e-02 1.844234e-01 -2.982127e-01 -4.491784e-01 -5.750392e-02 -2.115124e-01 3.648572e-02 -1.068136e+00
<VARIANCE> 25
 3.926489e+01 1.378934e+01 3.955009e+01 9.029427e+00 1.344166e+01 2.444570e+01 9.886131e+00 2.283104e+01 2.990035e+01 1.529453e+01 1.555260e+01 3.083587e+01 8.701639e-01 1.208097e+00 1.699776e+00 1.372924e+00 1.603459e+00 1.674562e+00 1.494660e+00 1.748321e+00 4.268738e+00 1.216606e+00 1.147083e+00 9.966877e-01 1.697465e+00
<GCONST> 8.678764e+01
<STATE> 4
<MEAN> 25
 -1.213138e+01 4.743556e+00 1.044812e+00 3.113996e+00 5.039006e+00 -1.812996e+00 4.424107e-01 -1.164812e+00 -1.001517e+00 -1.399090e+00 2.401376e+00 4.998412e+00 8.597107e-01 1.252251e-01 3.563441e-01 1.412746e-02 -4.759665e-01 3.079970e-01 -4.004021e-01 -3.768291e-01 -9.674873e-01 -1.484765e-01 -4.601990e-01 -5.045274e-01 -1.022862e+00
<VARIANCE> 25
 4.028529e+01 9.576591e+00 2.277518e+01 6.268363e+00 1.611602e+01 1.495120e+01 1.076479e+01 3.299397e+01 1.514104e+01 1.711645e+01 1.981905e+01 1.790520e+01 8.386205e-01 1.016369e+00 1.197339e+00 1.109814e+00 9.436229e-01 6.993996e-01 3.844407e-01 1.724010e+00 1.886621e+00 9.234371e-01 1.188747e+00 2.037005e+00 9.577909e-01
<GCONST> 8.034386e+01
<TRANSP> 5
 0.000000e+00 1.000000e+00 0.000000e+00 0.000000e+00 0.000000e+00
 0.000000e+00 9.029649e-01 9.703505e-02 0.000000e+00 0.000000e+00
 0.000000e+00 0.000000e+00 8.415422e-01 1.584578e-01 0.000000e+00
 0.000000e+00 0.000000e+00 0.000000e+00 5.699965e-01 4.300036e-01
 0.000000e+00 0.000000e+00 0.000000e+00 0.000000e+00 0.000000e+00
<ENDHMM>
~h "Y"
<BEGINHMM>
<NUMSTATES> 5
<STATE> 2
<MEAN> 25
 2.236140e-01 -1.195926e+00 8.487980e+00 -1.924533e+00 -7.419707e+00 -4.480403e+00 -2.568285e+00 4.461176e+00 -2.567166e+00 -1.217757e+00 2.282319e+00 2.466629e-01 -3.860652e-02 9.567049e-01 2.774862e+00 -6.695230e-02 -1.763081e+00 -5.997262e-01 -1.096573e+00 -5.667232e-01 -1.449551e+00 -2.169354e-01 1.485633e+00 5.931076e-01 7.433562e-01
<VARIANCE> 25
 3.000527e+01 6.695379e+01 6.508231e+01 3.791717e+01 6.033927e+01 5.204152e+01 5.360875e+01 7.009226e+01 5.413342e+01 3.896118e+01 4.034090e+01 2.800387e+01 2.470480e+00 2.604435e+00 3.459196e+00 2.830860e+00 3.967921e+00 4.121308e+00 4.428832e+00 4.833631e+00 3.709843e+00 4.128651e+00 3.211154e+00 2.892658e+00 5.306032e+00
<GCONST> 1.089586e+02
<STATE> 3
<MEAN> 25
 4.931746e-01 1.882502e+00 1.768840e+01 -1.585277e+00 -1.266162e+01 -4.292514e+00 -7.832413e+00 -1.438968e-01 -7.541042e+00 -2.177426e+00 6.886013e+00 1.706594e+00 1.303471e-01 -6.762671e-01 -5.844818e-01 -2.091215e-01 -4.743553e-01 -4.508137e-01 1.462604e-01 5.158132e-01 5.806292e-01 2.522782e-01 2.540235e-01 1.821623e-01 7.529552e-01
<VARIANCE> 25
 9.727565e+00 3.260123e+01 3.739272e+01 3.726822e+01 2.716338e+01 4.114077e+01 3.612936e+01 4.199015e+01 3.839690e+01 5.545634e+01 3.078819e+01 2.941098e+01 6.350802e-01 2.516462e+00 3.764235e+00 1.551639e+00 2.230018e+00 2.124069e+00 2.715458e+00 3.787349e+00 3.492419e+00 2.145559e+00 1.763032e+00 1.490342e+00 2.362354e+00
<GCONST> 9.772070e+01
<STATE> 4
<MEAN> 25
 2.122209e+00 -5.823548e+00 6.792058e+00 -4.356817e+00 -1.223379e+01 -7.385737e+00 -2.004623e+00 8.657444e+00 8.350747e-01 -1.434680e+00 3.880772e+00 7.390720e-01 3.892330e-01 -1.321967e+00 -2.521390e+00 -1.859659e-01 1.497831e+00 6.354080e-01 9.895266e-01 1.451978e+00 1.522171e+00 -5.278819e-01 -1.895123e+00 -1.024128e+00 5.493549e-01
<VARIANCE> 25
 9.894873e+00 2.323602e+01 3.474940e+01 2.997832e+01 2.914492e+01 2.986154e+01 4.532236e+01 5.392687e+01 4.109253e+01 3.334310e+01 3.816250e+01 2.647001e+01 3.550258e-01 1.224476e+00 2.368795e+00 1.122973e+00 2.300053e+00 1.738198e+00 2.558251e+00 3.333637e+00 2.586631e+00 2.833016e+00 2.701741e+00 1.693685e+00 5.771401e-01
<GCONST> 9.368143e+01
<TRANSP> 5
 0.000000e+00 1.000000e+00 0.000000e+00 0.000000e+00 0.000000e+00
 0.000000e+00 7.339415e-01 2.660585e-01 0.000000e+00 0.000000e+00
 0.000000e+00 0.000000e+00 7.864036e-01 2.135964e-01 0.000000e+00
 0.000000e+00 0.000000e+00 0.000000e+00 7.121609e-01 2.878391e-01
 0.000000e+00 0.000000e+00 0.000000e+00 0.000000e+00 0.000000e+00
<ENDHMM>
~h "Z"
<BEGINHMM>
<NUMSTATES> 5
<STATE> 2
<MEAN> 25
 -2.535879e+00 8.749310e+00 3.080853e+00 4.773053e+00 1.688198e+00 -8.046471e+00 -3.425979e+00 -6.589980e-01 1.110674e+00 -5.619884e-01 -2.244805e+00 2.966953e+00 -2.164209e+00 2.455225e+00 -3.612971e-01 9.332082e-01 1.685348e+00 -2.944352e-01 9.709280e-01 -2.103868e-02 2.184250e-01 -2.068490e-01 -4.036010e-02 5.634281e-01 -5.804049e-01
<VARIANCE> 25
 3.646544e+01 4.160923e+01 3.605848e+01 3.480043e+01 4.556263e+01 3.971788e+01 6.142159e+01 3.804622e+01 4.346003e+01 3.249673e+01 2.901539e+01 2.724187e+01 2.722453e+00 2.997111e+00 2.848560e+00 2.741070e+00 3.022673e+00 3.775802e+00 4.054481e+00 5.011191e+00 3.455928e+00 2.813182e+00 2.988923e+00 2.695900e+00 2.587847e+00
<GCONST> 1.045019e+02
<STATE> 3
<MEAN> 25
 -1.258955e+01 1.528094e+01 2.566439e+00 7.551608e+00 7.304561e+00 -6.566588e+00 1.445895e-01 6.199058e-01 5.176072e-01 -2.984466e-01 -7.043042e-01 4.248517e+00 -1.012680e+00 -1.116773e-01 5.000808e-02 5.974584e-02 2.304128e-01 2.990399e-01 1.685257e-01 6.611983e-02 -1.253492e-01 2.899700e-03 2.555636e-01 1.523038e-01 2.385791e-01
<VARIANCE> 25
 4.355984e+01 2.643238e+01 2.738104e+01 4.127592e+01 3.432278e+01 3.937847e+01 4.642134e+01 3.419364e+01 2.856535e+01 2.233854e+01 2.661622e+01 2.074436e+01 2.018071e+00 1.752815e+00 1.449595e+00 1.269177e+00 1.771000e+00 1.798985e+00 1.868071e+00 1.750239e+00 1.710004e+00 1.406716e+00 1.417015e+00 1.291440e+00 1.561483e+00
<GCONST> 9.352106e+01
<STATE> 4
<MEAN> 25
 -1.224521e+01 7.952623e+00 1.173308e+00 3.676520e+00 4.398987e+00 -4.699986e+00 -3.229053e-01 1.244492e+00 1.523282e+00 -1.691756e-01 2.849077e-01 4.455307e+00 1.847061e+00 -1.384340e+00 2.829716e-01 -5.412105e-01 -1.567592e+00 -4.727672e-01 -9.500827e-01 -3.879367e-01 3.261075e-01 8.179091e-02 -5.232871e-02 -1.168072e-01 1.025113e+00
<VARIANCE> 25
 6.791846e+01 4.328960e+01 5.228200e+01 3.583387e+01 4.034699e+01 5.015308e+01 5.603175e+01 3.893635e+01 3.618877e+01 2.131149e+01 2.721792e+01 2.305509e+01 5.615511e+00 4.112900e+00 2.552666e+00 2.752321e+00 3.864372e+00 2.916952e+00 3.293309e+00 3.640453e+00 3.307516e+00 1.967107e+00 1.927703e+00 2.023640e+00 2.904358e+00
<GCONST> 1.041547e+02
<TRANSP> 5
 0.000000e+00 1.000000e+00 0.000000e+00 0.000000e+00 0.000000e+00
 0.000000e+00 7.459995e-01 2.540005e-01 0.000000e+00 0.000000e+00
 0.000000e+00 0.000000e+00 8.013874e-01 1.986127e-01 0.000000e+00
 0.000000e+00 0.000000e+00 0.000000e+00 7.806636e-01 2.193364e-01
 0.000000e+00 0.000000e+00 0.000000e+00 0.000000e+00 0.000000e+00
<ENDHMM>
~h "e"
<BEGINHMM>
<NUMSTATES> 5
<STATE> 2
<MEAN> 25
 4.548440e+00 -1.159351e+00 -1.426676e+00 -3.084344e+00 -1.839444e+00 -8.957609e-01 -5.389919e+00 -1.980962e+00 8.757083e-01 2.629836e+00 1.677170e+00 -1.686257e+00 2.166583e+00 -1.257281e+00 -3.811525e-01 -1.709346e+00 -1.400646e+00 6.338222e-01 -2.114563e+00 7.490915e-01 1.567746e+00 8.589293e-01 8.850918e-01 -1.684157e+00 2.768378e+00
<VARIANCE> 25
 2.792118e+01 2.525606e+01 3.674422e+01 4.990679e+01 4.088081e+01 7.185911e+01 5.208165e+01 5.192853e+01 5.700385e+01 3.639080e+01 4.403108e+01 2.861367e+01 6.229372e+00 3.533235e+00 6.065746e+00 5.224723e+00 6.109733e+00 6.298318e+00 6.536532e+00 8.703140e+00 8.280031e+00 5.144853e+00 5.552285e+00 4.244368e+00 4.989882e+00
<GCONST> 1.134416e+02
<STATE> 3
<MEAN> 25
 6.309776e+00 -4.249168e+00 -2.325264e+00 -5.253532e+00 -3.542056e+00 5.356084e-01 -8.412547e+00 1.243366e-01 3.904662e+00 3.814041e+00 2.844327e+00 -4.316822e+00 9.728637e-01 -9.008957e-01 -6.271963e-02 -4.905278e-01 -7.466530e-01 5.073390e-01 -9.922696e-01 6.636821e-01 1.086510e+00 4.130542e-01 1.992226e-01 -1.040124e+00 9.341233e-01
<VARIANCE> 25
 1.412118e+01 2.410941e+01 3.922780e+01 4.721089e+01 4.082869e+01 7.340987e+01 5.335513e+01 5.819021e+01 5.952881e+01 4.192100e+01 4.729757e+01 3.465474e+01 2.669128e+00 2.262253e+00 2.834746e+00 4.078557e+00 4.087334e+00 5.119846e+00 4.069719e+00 7.077907e+00 6.151258e+00 4.015505e+00 4.528331e+00 3.002961e+00 2.582229e+00
<GCONST> 1.079843e+02
<STATE> 4
<MEAN> 25
 6.015823e+00 -3.316159e+00 -1.241528e+00 -4.380836e+00 -3.761733e+00 -5.882882e-01 -8.994267e+00 5.767166e-01 4.582652e+00 4.169821e+00 2.248697e+00 -4.764574e+00 7.659809e-02 4.475889e-01 3.065292e-01 6.623555e-01 1.074068e-01 -1.392867e-01 4.387173e-01 -2.873737e-01 -2.245747e-01 -2.235685e-01 -3.231466e-01 2.200979e-01 -1.038805e+00
<VARIANCE> 25
 1.292339e+01 2.737650e+01 3.738413e+01 4.398925e+01 4.519001e+01 6.242781e+01 5.847295e+01 5.788998e+01 6.059017e+01 4.385398e+01 4.517923e+01 3.431742e+01 9.117125e-01 1.809140e+00 1.577922e+00 2.668945e+00 2.478976e+00 3.171991e+00 2.719147e+00 3.536297e+00 3.678082e+00 2.684605e+00 2.748230e+00 2.073953e+00 3.141960e+00
<GCONST> 1.019631e+02
<TRANSP> 5
 0.000000e+00 1.000000e+00 0.000000e+00 0.000000e+00 0.000000e+00
 0.000000e+00 2.376388e-01 7.623612e-01 0.000000e+00 0.000000e+00
 0.000000e+00 0.000000e+00 1.408784e-01 8.591216e-01 0.000000e+00
 0.000000e+00 0.000000e+00 0.000000e+00 6.512542e-01 3.487458e-01
 0.000000e+00 0.000000e+00 0.000000e+00 0.000000e+00 0.000000e+00
<ENDHMM>
~h "AI"
<BEGINHMM>
<NUMSTATES> 5
<STATE> 2
<MEAN> 25
 4.245946e+00 -1.225815e+01 -3.426970e+00 -5.155210e+00 -2.929607e+00 -3.882897e-02 -8.710673e-01 8.878520e+00 5.421648e+00 -3.170237e+00 -3.973773e+00 -4.863356e+00 -2.625898e-01 -2.155070e-01 1.126076e+00 1.654526e-01 -1.285331e+00 -1.133329e+00 7.656609e-01 1.426436e+00 -5.812712e-01 -6.080067e-01 3.112844e-01 6.000589e-01 1.879300e-01
<VARIANCE> 25
 9.565432e+00 1.840474e+01 3.988325e+01 2.187480e+01 4.785703e+01 5.737286e+01 4.791700e+01 4.927459e+01 4.815412e+01 3.719763e+01 3.940770e+01 2.853214e+01 4.773188e-01 1.607813e+00 1.799526e+00 1.427922e+00 2.652289e+00 2.986184e+00 2.154562e+00 2.970955e+00 2.239178e+00 2.426821e+00 3.088742e+00 2.102391e+00 6.755164e-01
<GCONST> 9.586546e+01
<STATE> 3
<MEAN> 25
 2.687799e+00 -7.457036e+00 7.644018e+00 -4.759746e+00 -1.353364e+01 -7.571549e+00 -7.442456e-01 9.804392e+00 -1.481648e+00 2.914107e-01 4.639358e+00 -7.952421e-01 -2.481702e-01 1.109837e+00 1.694953e+00 4.598361e-02 -9.907856e-01 -3.267636e-01 -5.243561e-01 -1.373428e+00 -1.314511e+00 7.827575e-01 1.209187e+00 4.256454e-01 -5.956162e-01
<VARIANCE> 25
 8.756471e+00 1.716037e+01 3.218143e+01 2.084979e+01 2.348467e+01 3.153067e+01 4.058346e+01 4.566607e+01 4.075872e+01 3.354741e+01 3.778017e+01 2.211454e+01 2.669182e-01 8.878142e-01 1.493413e+00 8.607944e-01 1.727530e+00 1.393103e+00 1.950019e+00 2.321599e+00 1.953385e+00 1.872425e+00 2.094915e+00 1.230872e+00 2.925007e-01
<GCONST> 8.776315e+01
<STATE> 4
<MEAN> 25
 1.757717e+00 6.178499e-01 1.227338e+01 -1.278013e+00 -1.198793e+01 -6.113358e+00 -2.224047e+00 9.569491e-01 -5.501695e+00 1.004931e+00 4.411835e+00 -1.650270e-01 7.315210e-02 7.192690e-01 -4.891145e-01 6.868967e-01 1.045398e+00 1.998861e-01 1.548855e-01 -5.252757e-01 1.313777e-01 -1.573994e-01 -5.323942e-01 -3.768342e-02 -1.698317e+00
<VARIANCE> 25
 1.416127e+01 3.730045e+01 4.439191e+01 3.279368e+01 3.860824e+01 4.788013e+01 4.606742e+01 5.914981e+01 4.488913e+01 4.191112e+01 4.007373e+01 2.752205e+01 1.155092e+00 1.822889e+00 2.592789e+00 1.923672e+00 2.803211e+00 2.445971e+00 3.116263e+00 3.264581e+00 3.192473e+00 2.376437e+00 2.081364e+00 1.752807e+00 2.254370e+00
<GCONST> 1.002076e+02
<TRANSP> 5
 0.000000e+00 1.000000e+00 0.000000e+00 0.000000e+00 0.000000e+00
 0.000000e+00 7.907148e-01 2.092852e-01 0.000000e+00 0.000000e+00
 0.000000e+00 0.000000e+00 7.880408e-01 2.119592e-01 0.000000e+00
 0.000000e+00 0.000000e+00 0.000000e+00 8.542381e-01 1.457619e-01
 0.000000e+00 0.000000e+00 0.000000e+00 0.000000e+00 0.000000e+00
<ENDHMM>
~h "AU"
<BEGINHMM>
<NUMSTATES> 5
<STATE> 2
<MEAN> 25
 4.804906e+00 -7.406421e+00 -8.840978e+00 -9.935702e+00 9.188656e-01 7.726526e+00 -3.610868e+00 1.247090e-02 5.847142e+00 2.471462e+00 -9.243082e-01 -7.153681e+00 6.550834e-01 -4.870757e-01 -7.437660e-01 -1.336956e+00 2.793636e-01 1.936961e+00 -1.844393e-01 -4.310662e-01 1.841197e-01 1.042714e-01 7.377849e-01 -8.179399e-01 8.856579e-01
<VARIANCE> 25
 1.290285e+01 2.668730e+01 2.652618e+01 4.035229e+01 3.931454e+01 5.221416e+01 5.173359e+01 4.767613e+01 4.184319e+01 4.236475e+01 4.349252e+01 3.207825e+01 1.823103e+00 2.635871e+00 1.762000e+00 2.762451e+00 3.177003e+00 4.120198e+00 3.238689e+00 3.630714e+00 3.207766e+00 3.289623e+00 3.720952e+00 3.235601e+00 3.885497e+00
<GCONST> 1.033134e+02
<STATE> 3
<MEAN> 25
 7.212941e+00 -3.135051e+00 -8.740550e+00 -1.606630e+01 -2.062888e+00 1.370256e+01 -3.167425e+00 -3.276134e+00 3.453156e+00 1.468058e+00 5.325142e+00 -3.745811e+00 3.657738e-01 1.076707e+00 2.827216e-01 -7.127659e-01 -6.482359e-01 1.574827e-01 -1.324228e-01 -1.895771e-02 -8.506522e-01 -2.855659e-01 5.646044e-01 1.089449e+00 -6.180212e-01
<VARIANCE> 25
 9.018470e+00 2.684097e+01 1.814995e+01 3.365963e+01 3.180544e+01 2.998686e+01 4.389346e+01 3.464103e+01 4.077312e+01 4.265200e+01 3.841831e+01 4.109108e+01 2.755896e-01 9.772014e-01 6.347546e-01 1.180133e+00 1.375645e+00 1.407929e+00 1.592067e+00 1.540005e+00 1.764135e+00 1.831259e+00 1.976093e+00 1.983284e+00 3.834596e-01
<GCONST> 8.840081e+01
<STATE> 4
<MEAN> 25
 9.197613e+00 6.195158e+00 -4.518166e+00 -1.395856e+01 -5.269615e+00 8.432593e+00 -4.616268e+00 -1.561993e+00 -2.818120e+00 5.319746e-02 3.342242e+00 1.333125e+00 -2.212286e-01 3.680018e-01 5.516601e-01 1.662729e+00 3.648265e-01 -1.085300e+00 8.826277e-02 -1.180944e-01 -1.570989e-01 3.392897e-02 -5.167502e-01 -9.675796e-02 -1.533393e+00
<VARIANCE> 25
 1.482706e+01 3.655887e+01 2.838188e+01 6.364293e+01 4.553813e+01 4.744800e+01 6.560345e+01 5.527206e+01 4.748008e+01 5.695822e+01 4.243719e+01 3.880293e+01 1.159435e+00 2.364094e+00 1.655481e+00 3.601236e+00 3.245762e+00 3.237869e+00 3.418721e+00 3.286856e+00 3.094441e+00 3.284760e+00 2.962088e+00 2.486834e+00 2.040527e+00
<GCONST> 1.035188e+02
<TRANSP> 5
 0.000000e+00 1.000000e+00 0.000000e+00 0.000000e+00 0.000000e+00
 0.000000e+00 6.919870e-01 3.080130e-01 0.000000e+00 0.000000e+00
 0.000000e+00 0.000000e+00 8.531722e-01 1.468278e-01 0.000000e+00
 0.000000e+00 0.000000e+00 0.000000e+00 8.584831e-01 1.415169e-01
 0.000000e+00 0.000000e+00 0.000000e+00 0.000000e+00 0.000000e+00
<ENDHMM>
~h "NG"
<BEGINHMM>
<NUMSTATES> 5
<STATE> 2
<MEAN> 25
 7.924896e+00 -1.712180e+00 -6.266251e-01 -2.346385e+00 -3.317056e+00 2.975240e+00 -4.024973e-01 -3.095906e+00 -2.773225e+00 2.114588e+00 -8.575883e-01 -5.104747e+00 5.407662e-01 1.060062e+00 1.617545e+00 7.984868e-01 -1.576455e+00 1.804956e-01 1.110590e+00 -1.998194e+00 -1.217092e+00 7.770855e-01 -8.287408e-01 1.303477e+00 -1.322628e+00
<VARIANCE> 25
 8.485235e+00 2.708775e+01 4.055818e+01 4.076814e+01 4.891607e+01 4.777060e+01 5.056607e+01 5.394838e+01 5.691601e+01 4.189610e+01 4.538003e+01 4.431573e+01 6.350665e-01 1.702326e+00 3.173975e+00 3.426257e+00 3.544813e+00 4.066388e+00 4.380583e+00 4.711963e+00 4.681037e+00 3.855915e+00 4.082443e+00 3.684037e+00 7.510037e-01
<GCONST> 1.033234e+02
<STATE> 3
<MEAN> 25
 8.646615e+00 5.485128e-01 4.440835e+00 -1.668849e+00 -7.955436e+00 4.344857e+00 6.782109e-01 -6.958469e+00 -4.333025e+00 2.016680e+00 -2.227875e+00 -1.155520e+00 8.997297e-02 4.093212e-01 5.046471e-01 4.222013e-01 -2.402893e-01 -5.162908e-02 2.322758e-01 -3.952646e-01 -2.960283e-01 1.212741e-01 -2.296623e-01 3.283550e-01 -5.534132e-01
<VARIANCE> 25
 7.380739e+00 1.893035e+01 2.609134e+01 4.442838e+01 3.699971e+01 4.281888e+01 5.021795e+01 4.423418e+01 4.230538e+01 4.082288e+01 3.819183e+01 3.711264e+01 3.103092e-01 8.600011e-01 1.304389e+00 1.388936e+00 1.570530e+00 1.592939e+00 1.825100e+00 1.867282e+00 1.843714e+00 1.719879e+00 1.633123e+00 1.580097e+00 5.714725e-01
<GCONST> 9.068539e+01
<STATE> 4
<MEAN> 25
 7.137134e+00 3.301770e+00 3.912495e+00 1.071756e+00 -3.921810e+00 2.312219e+00 2.731078e+00 -6.091849e+00 -5.308687e+00 2.061185e+00 -3.768411e+00 -9.487844e-01 -6.827861e-01 3.312902e-01 -4.629423e-01 2.592484e-01 1.131148e+00 -5.409040e-01 3.892798e-03 7.035881e-01 2.087620e-01 -2.574469e-01 5.697035e-02 -2.487498e-01 -8.507217e-01
<VARIANCE> 25
 1.640100e+01 2.788511e+01 3.143878e+01 4.484296e+01 6.597543e+01 4.217629e+01 4.882693e+01 5.099163e+01 4.336185e+01 4.755720e+01 4.192805e+01 3.707079e+01 1.104574e+00 1.975932e+00 2.178012e+00 2.507025e+00 3.295883e+00 2.925240e+00 2.896214e+00 3.399881e+00 3.207371e+00 2.762703e+00 2.445411e+00 2.524187e+00 3.017559e+00
<GCONST> 1.021924e+02
<TRANSP> 5
 0.000000e+00 1.000000e+00 0.000000e+00 0.000000e+00 0.000000e+00
 0.000000e+00 5.749971e-01 4.250029e-01 0.000000e+00 0.000000e+00
 0.000000e+00 0.000000e+00 7.301936e-01 2.698064e-01 0.000000e+00
 0.000000e+00 0.000000e+00 0.000000e+00 6.878711e-01 3.121288e-01
 0.000000e+00 0.000000e+00 0.000000e+00 0.000000e+00 0.000000e+00
<ENDHMM>
~h "NY"
<BEGINHMM>
<NUMSTATES> 5
<STATE> 2
<MEAN> 25
 5.453197e+00 3.511185e+00 8.582655e+00 -1.155423e+00 -6.362174e+00 -2.818746e+00 -2.341909e+00 -6.759760e-01 -7.089521e+00 -2.389891e+00 2.567032e+00 1.370405e+00 -2.653937e-01 -2.613216e-01 5.892132e-01 -6.311413e-01 -6.218792e-01 2.013856e-01 1.780495e-01 4.412226e-01 -1.721806e-01 -2.769996e-01 3.449257e-01 7.823011e-02 5.252352e-01
<VARIANCE> 25
 1.945870e+01 3.111644e+01 3.423373e+01 5.854217e+01 3.783130e+01 4.236538e+01 4.581730e+01 6.685464e+01 4.312787e+01 4.003726e+01 3.887219e+01 3.664220e+01 2.501122e+00 5.122425e+00 3.686849e+00 5.570963e+00 4.057872e+00 4.064619e+00 4.296340e+00 9.056683e+00 4.838267e+00 3.391274e+00 3.441248e+00 2.732938e+00 3.585358e+00
<GCONST> 1.084308e+02
<STATE> 3
<MEAN> 25
 2.957111e+00 -7.707796e+00 6.202281e+00 -4.600353e+00 -8.578176e+00 -1.992425e+00 -2.254388e-02 9.813123e+00 -1.443017e+00 -6.508409e+00 4.327983e-02 -4.829565e-01 2.888037e-01 -1.571005e+00 -2.002874e+00 7.075406e-01 1.394649e+00 8.809706e-02 -1.208297e-02 9.119368e-01 1.443690e+00 -7.703597e-01 -1.427001e+00 -4.291445e-01 4.506982e-01
<VARIANCE> 25
 9.541369e+00 2.636421e+01 3.078423e+01 2.726407e+01 3.651080e+01 3.170996e+01 3.400339e+01 3.906361e+01 4.198476e+01 3.297935e+01 3.525855e+01 2.702133e+01 3.039668e-01 1.577326e+00 1.217561e+00 1.129135e+00 1.952549e+00 1.718100e+00 1.983438e+00 2.827552e+00 1.928128e+00 1.961969e+00 1.688960e+00 1.593911e+00 6.997417e-01
<GCONST> 9.102711e+01
<STATE> 4
<MEAN> 25
 2.309395e+00 -6.883101e+00 -1.227093e+00 1.164615e+00 1.984890e+00 -1.000581e+00 5.736270e-01 6.741689e+00 1.071271e+00 -6.923425e+00 -3.977744e+00 -8.752453e-02 -3.104197e-02 8.048506e-02 -6.760489e-01 2.670721e-01 8.293778e-01 2.300662e-01 -1.712622e-01 -4.198374e-01 2.639815e-01 2.995424e-01 -2.528269e-01 -2.260962e-01 -8.472879e-01
<VARIANCE> 25
 1.483822e+01 3.397015e+01 2.697307e+01 3.237692e+01 5.744563e+01 3.071210e+01 4.077055e+01 4.652417e+01 4.236068e+01 3.710051e+01 3.458054e+01 2.719060e+01 5.162748e-01 1.205485e+00 1.564886e+00 1.434113e+00 2.108797e+00 1.543372e+00 1.764469e+00 1.765233e+00 1.847415e+00 1.707086e+00 1.594642e+00 1.645319e+00 1.146865e+00
<GCONST> 9.307188e+01
<TRANSP> 5
 0.000000e+00 1.000000e+00 0.000000e+00 0.000000e+00 0.000000e+00
 0.000000e+00 8.834311e-01 1.165689e-01 0.000000e+00 0.000000e+00
 0.000000e+00 0.000000e+00 7.543679e-01 2.456321e-01 0.000000e+00
 0.000000e+00 0.000000e+00 0.000000e+00 7.212594e-01 2.787406e-01
 0.000000e+00 0.000000e+00 0.000000e+00 0.000000e+00 0.000000e+00
<ENDHMM>
~h "OI"
<BEGINHMM>
<NUMSTATES> 5
<STATE> 2
<MEAN> 25
 6.554521e+00 3.108627e+00 -8.019735e+00 -1.461674e+01 -7.620144e+00 9.183551e+00 9.192577e-01 -3.274505e+00 2.093387e-01 -3.939804e+00 2.350374e+00 1.526992e+00 2.382244e+00 -3.197443e-01 -7.929688e-01 -3.619397e+00 -1.784479e+00 2.244788e+00 -8.542287e-01 -4.107670e-01 3.305838e-03 6.154523e-01 1.221498e+00 -1.024584e-01 2.207677e+00
<VARIANCE> 25
 2.679296e+01 2.397704e+01 2.685553e+01 4.629427e+01 5.445504e+01 3.398756e+01 4.624174e+01 3.518864e+01 3.438861e+01 3.529371e+01 3.850639e+01 3.768832e+01 5.853612e+00 2.894184e+00 3.205244e+00 1.011413e+01 5.043709e+00 5.674080e+00 5.650326e+00 3.750349e+00 3.197394e+00 3.893869e+00 4.277561e+00 3.683981e+00 2.006502e+00
<GCONST> 1.075288e+02
<STATE> 3
<MEAN> 25
 7.728381e+00 -2.749581e+00 -9.255333e+00 -1.593893e+01 -5.143812e+00 1.201278e+01 -2.803623e+00 -3.774040e+00 8.542495e-01 3.642048e+00 6.663824e+00 -2.611423e+00 -3.622630e-01 -1.519339e+00 2.365881e-01 1.681166e+00 9.475749e-01 -1.609647e+00 -1.297724e+00 3.827783e-01 8.458671e-01 2.041150e+00 -9.171286e-02 -1.846010e+00 6.914487e-01
<VARIANCE> 25
 8.106526e+00 3.071963e+01 2.378417e+01 3.980462e+01 2.970530e+01 3.685934e+01 6.034636e+01 3.760507e+01 3.920605e+01 4.955262e+01 5.375716e+01 5.290168e+01 3.221082e-01 8.781798e-01 1.219719e+00 3.151654e+00 1.643035e+00 5.492939e+00 2.771675e+00 3.715077e+00 2.930799e+00 3.063264e+00 3.500615e+00 3.082217e+00 4.644262e-01
<GCONST> 9.698997e+01
<STATE> 4
<MEAN> 25
 1.423055e+00 -2.373540e+00 8.957297e+00 -1.518559e+00 -1.134619e+01 -7.115726e+00 -5.226055e+00 9.167960e-01 -3.556418e+00 2.665850e+00 3.914782e+00 -2.270093e+00 -4.545031e-01 4.840350e-01 1.200354e+00 7.288144e-01 -4.622028e-01 -8.655957e-01 3.522640e-01 9.862256e-02 -6.779858e-01 -6.599733e-01 -1.368011e-01 6.041888e-01 -7.779264e-01
<VARIANCE> 25
 1.819532e+01 4.622217e+01 8.496281e+01 3.325742e+01 4.879224e+01 4.661600e+01 4.587389e+01 8.065955e+01 6.678340e+01 4.642438e+01 4.552468e+01 3.470755e+01 6.980255e-01 1.152408e+00 4.639879e+00 2.258962e+00 3.533432e+00 6.294629e+00 2.798754e+00 4.910565e+00 4.537837e+00 2.663260e+00 3.410038e+00 2.635200e+00 9.792132e-01
<GCONST> 1.044993e+02
<TRANSP> 5
 0.000000e+00 1.000000e+00 0.000000e+00 0.000000e+00 0.000000e+00
 0.000000e+00 6.706588e-01 3.293413e-01 0.000000e+00 0.000000e+00
 0.000000e+00 0.000000e+00 7.955378e-01 2.044621e-01 0.000000e+00
 0.000000e+00 0.000000e+00 0.000000e+00 9.261951e-01 7.380486e-02
 0.000000e+00 0.000000e+00 0.000000e+00 0.000000e+00 0.000000e+00
<ENDHMM>
~h "SY"
<BEGINHMM>
<NUMSTATES> 5
<STATE> 2
<MEAN> 25
 -9.063367e+00 4.531363e+00 4.979657e+00 1.018483e+00 2.976261e+00 -2.856744e+00 2.026361e+00 1.934827e+00 -5.269489e-01 -9.728376e-01 -5.838701e-01 2.889769e+00 -4.022292e+00 7.527034e-01 6.610076e-02 -4.205342e-01 1.080218e+00 3.384850e-01 7.668925e-01 2.577367e-01 4.688076e-01 -1.469403e-02 6.652931e-01 4.724462e-01 3.827345e-01
<VARIANCE> 25
 7.865948e+01 3.854310e+01 5.090498e+01 3.281662e+01 4.686583e+01 4.458186e+01 4.839130e+01 5.060291e+01 3.882873e+01 3.015472e+01 3.284211e+01 2.385414e+01 3.773083e+00 5.343509e+00 4.381392e+00 3.619002e+00 4.497505e+00 4.432690e+00 4.907282e+00 4.675094e+00 3.777725e+00 3.376142e+00 3.298404e+00 2.766735e+00 3.481343e+00
<GCONST> 1.084591e+02
<STATE> 3
<MEAN> 25
 -2.353535e+01 2.892694e+00 2.957119e+00 -3.148188e+00 4.337877e+00 6.391059e-01 3.298891e+00 2.552706e+00 2.270517e+00 1.388920e+00 3.211270e+00 4.441061e+00 -4.786038e-01 -4.740179e-01 -9.874606e-02 -2.886163e-01 -3.338116e-01 1.750702e-01 1.082647e-01 -6.092189e-02 2.518074e-01 2.473600e-01 1.956966e-01 1.739276e-01 2.523543e-01
<VARIANCE> 25
 1.536054e+01 2.531429e+01 3.574685e+01 2.713232e+01 3.380202e+01 4.526612e+01 3.492080e+01 3.378825e+01 3.210947e+01 2.607419e+01 2.298255e+01 1.938539e+01 1.709877e+00 9.104696e-01 1.157456e+00 1.190876e+00 1.467795e+00 1.542505e+00 1.498667e+00 1.572119e+00 1.541119e+00 1.531587e+00 1.407654e+00 1.247349e+00 6.578833e-01
<GCONST> 8.946368e+01
<STATE> 4
<MEAN> 25
 -1.251968e+01 1.086438e-01 5.865109e+00 -2.351554e+00 -3.518133e+00 -3.367660e+00 8.449972e-01 1.178523e+00 1.644277e+00 -4.232242e-01 2.258299e+00 3.984484e+00 4.685407e+00 -7.806451e-01 5.545511e-01 2.959658e-01 -1.855458e+00 -1.314084e+00 -1.366183e+00 4.155380e-01 -2.474195e-01 -7.000434e-01 -4.152631e-01 -7.970241e-01 1.295999e+00
<VARIANCE> 25
 1.088111e+02 2.468267e+01 4.923148e+01 3.096354e+01 5.230205e+01 4.140121e+01 4.647440e+01 3.598807e+01 3.220375e+01 2.673447e+01 2.920404e+01 1.876060e+01 5.878782e+00 3.524299e+00 4.524463e+00 3.099131e+00 3.883803e+00 3.576862e+00 4.198261e+00 4.804014e+00 4.635470e+00 2.734587e+00 3.296399e+00 2.365149e+00 2.352712e+00
<GCONST> 1.060946e+02
<TRANSP> 5
 0.000000e+00 1.000000e+00 0.000000e+00 0.000000e+00 0.000000e+00
 0.000000e+00 7.750490e-01 2.249510e-01 0.000000e+00 0.000000e+00
 0.000000e+00 0.000000e+00 8.729817e-01 1.270183e-01 0.000000e+00
 0.000000e+00 0.000000e+00 0.000000e+00 7.814289e-01 2.185710e-01
 0.000000e+00 0.000000e+00 0.000000e+00 0.000000e+00 0.000000e+00
<ENDHMM>
~h "sp"
<BEGINHMM>
<NUMSTATES> 3
<STATE> 2
~s "silst"
<TRANSP> 3
 0.000000e+00 2.089032e-01 7.910967e-01
 0.000000e+00 9.459818e-01 5.401818e-02
 0.000000e+00 0.000000e+00 0.000000e+00
<ENDHMM>
~h "sil"
<BEGINHMM>
<NUMSTATES> 5
<STATE> 2
<MEAN> 25
 -5.529189e+00 -1.255177e-01 -6.762551e-01 3.281598e+00 3.587430e+00 3.799587e-01 4.040723e+00 7.361277e-01 4.919639e-01 -1.171567e-01 1.343918e-02 2.911122e+00 -1.345332e-01 -1.605145e-01 -4.814812e-02 9.993187e-02 -1.285323e-01 -1.679934e-01 -1.800163e-03 1.240786e-01 -9.921015e-02 -1.074184e-01 2.300572e-03 1.530289e-01 -3.685528e-02
<VARIANCE> 25
 2.403296e+01 3.385540e+01 3.955282e+01 4.293627e+01 4.190605e+01 4.735370e+01 4.035588e+01 5.073855e+01 3.795437e+01 3.528167e+01 3.322074e+01 2.702604e+01 1.634874e+00 2.742439e+00 2.531775e+00 3.229234e+00 3.048987e+00 3.248262e+00 2.903583e+00 4.057758e+00 2.905630e+00 3.014237e+00 2.561625e+00 2.369516e+00 2.869426e+00
<GCONST> 1.026916e+02
<STATE> 3
~s "silst"
<STATE> 4
<MEAN> 25
 -4.733003e+00 2.857980e+00 -1.574994e+00 3.363409e+00 4.277994e+00 1.084144e-01 4.465396e+00 9.420124e-01 8.699310e-01 -6.169494e-02 4.575786e-01 2.749352e+00 -1.335147e-02 3.002121e-02 -1.314441e-03 -4.477974e-03 2.016613e-02 2.175491e-02 8.010244e-03 -7.701400e-03 6.059395e-03 2.091146e-02 8.637073e-03 -1.141350e-02 -3.029164e-02
<VARIANCE> 25
 6.592181e+00 1.776435e+01 1.330161e+01 1.261251e+01 1.548104e+01 2.100651e+01 2.074744e+01 2.297619e+01 2.164927e+01 1.778330e+01 1.777580e+01 1.515229e+01 1.547764e-01 3.458934e-01 4.928915e-01 6.724844e-01 8.841455e-01 1.080444e+00 1.231742e+00 1.366087e+00 1.411715e+00 1.405400e+00 1.337884e+00 1.215346e+00 9.874588e-02
<GCONST> 7.463216e+01
<TRANSP> 5
 0.000000e+00 1.000000e+00 0.000000e+00 0.000000e+00 0.000000e+00
 0.000000e+00 7.851966e-01 6.131069e-02 1.534927e-01 0.000000e+00
 0.000000e+00 0.000000e+00 9.026744e-01 9.732564e-02 0.000000e+00
 0.000000e+00 3.671356e-02 0.000000e+00 9.471817e-01 1.610477e-02
 0.000000e+00 0.000000e+00 0.000000e+00 0.000000e+00 0.000000e+00
<ENDHMM>
