~o
<STREAMINFO> 1 25
<VECSIZE> 25<NULLD><MFCC_D_N_Z_0><DIAGC>
~s "silst"
<MEAN> 25
 -5.070981e+00 -6.115467e-01 -3.027492e+00 2.958936e+00 3.235768e+00 -1.553492e+00 2.912285e+00 1.555498e+00 2.406073e-01 -1.448971e+00 -1.546881e-01 2.642119e+00 -5.007366e-02 1.178070e-01 1.504384e-02 1.428772e-02 3.833323e-02 5.929715e-02 4.691632e-02 -3.612475e-02 1.428997e-02 5.408783e-02 3.679580e-02 -1.213235e-02 -1.724779e-01
<VARIANCE> 25
 1.186979e+01 3.280616e+01 1.998173e+01 1.923568e+01 2.300093e+01 2.445098e+01 2.674321e+01 2.979971e+01 2.869838e+01 2.308473e+01 2.292655e+01 1.922879e+01 3.899854e-01 7.876425e-01 8.273827e-01 9.966763e-01 1.179003e+00 1.424941e+00 1.556763e+00 1.698200e+00 1.732415e+00 1.705477e+00 1.553154e+00 1.415458e+00 3.937226e-01
<GCONST> 8.451762e+01
~h "A"
<BEGINHMM>
<NUMSTATES> 5
<STATE> 2
<MEAN> 25
 4.843883e+00 -8.900419e+00 -4.428266e+00 -6.529214e+00 -1.293431e+00 1.890123e+00 -2.981357e+00 4.864547e+00 5.769432e+00 2.018231e-01 -2.087324e+00 -5.000137e+00 5.258178e-01 -2.000502e+00 -1.285140e+00 -9.332582e-01 9.055819e-01 1.220907e+00 4.435289e-01 9.586067e-01 1.094238e+00 -8.418157e-01 -1.226459e+00 -1.429575e+00 1.865722e+00
<VARIANCE> 25
 1.784229e+01 2.653500e+01 4.051361e+01 4.076510e+01 5.696092e+01 6.870193e+01 5.113123e+01 6.919663e+01 4.470243e+01 4.134046e+01 4.576587e+01 3.406443e+01 2.361023e+00 2.323778e+00 2.984393e+00 3.385061e+00 4.120739e+00 4.116327e+00 4.421351e+00 5.914105e+00 4.218073e+00 3.684109e+00 3.891687e+00 3.173347e+00 4.031654e+00
<GCONST> 1.075946e+02
<STATE> 3
<MEAN> 25
 4.913491e+00 -1.196816e+01 -6.784185e+00 -7.014724e+00 2.432472e+00 4.490164e+00 -1.072652e+00 4.229908e+00 6.377848e+00 -2.322128e+00 -4.616609e+00 -6.876225e+00 7.780137e-03 -7.047341e-02 -5.736563e-02 1.633979e-01 3.358925e-01 -9.152610e-02 2.012711e-01 -6.270416e-03 -6.125860e-02 -1.530128e-01 -2.343847e-01 -2.665089e-02 -8.303816e-02
<VARIANCE> 25
 8.955532e+00 1.716154e+01 2.991902e+01 3.041272e+01 3.604360e+01 4.758764e+01 4.018424e+01 5.369176e+01 3.685777e+01 3.299385e+01 3.448838e+01 2.843011e+01 3.606527e-01 7.793583e-01 9.078091e-01 1.112932e+00 1.630255e+00 2.083459e+00 1.681772e+00 2.204313e+00 1.532566e+00 1.738703e+00 1.769729e+00 1.368500e+00 4.801919e-01
<GCONST> 8.931595e+01
<STATE> 4
<MEAN> 25
 4.899749e+00 -7.454175e+00 -6.057878e+00 -4.533573e+00 2.242562e+00 1.245205e+00 -5.429155e-01 3.829904e+00 5.262680e+00 -7.985592e-01 -4.543330e+00 -5.421012e+00 -2.567751e-02 1.423911e+00 6.416963e-01 8.629755e-01 -2.714532e-01 -5.888497e-01 -1.080779e-01 -3.722413e-01 -4.941629e-01 4.085102e-01 3.284775e-01 5.622689e-01 -2.185259e+00
<VARIANCE> 25
 1.379251e+01 2.845203e+01 3.339228e+01 4.039528e+01 4.906303e+01 5.374994e+01 4.726122e+01 5.394344e+01 4.105282e+01 4.297824e+01 4.299317e+01 3.411509e+01 1.210814e+00 2.072317e+00 2.093643e+00 2.490986e+00 2.970482e+00 3.212358e+00 3.258420e+00 3.601467e+00 3.055835e+00 3.017622e+00 3.003371e+00 2.434544e+00 2.819678e+00
<GCONST> 1.021512e+02
<TRANSP> 5
 0.000000e+00 1.000000e+00 0.000000e+00 0.000000e+00 0.000000e+00
 0.000000e+00 5.665658e-01 4.334342e-01 0.000000e+00 0.000000e+00
 0.000000e+00 0.000000e+00 7.535125e-01 2.464875e-01 0.000000e+00
 0.000000e+00 0.000000e+00 0.000000e+00 7.197868e-01 2.802131e-01
 0.000000e+00 0.000000e+00 0.000000e+00 0.000000e+00 0.000000e+00
<ENDHMM>
~h "B"
<BEGINHMM>
<NUMSTATES> 5
<STATE> 2
<MEAN> 25
 9.357675e+00 7.650505e+00 3.981641e+00 2.368347e+00 1.568807e+00 4.348845e+00 1.470764e-01 -5.509159e+00 -4.291690e+00 -1.841006e-01 9.149460e-02 -1.950950e+00 8.066066e-01 1.752129e+00 6.908047e-01 6.083470e-01 6.152057e-01 3.180622e-01 1.012640e+00 -4.474986e-01 -5.179136e-01 -2.414348e-01 -4.569736e-01 -1.819981e-01 -1.389276e+00
<VARIANCE> 25
 3.564402e+01 3.538742e+01 2.836764e+01 3.882785e+01 3.384880e+01 3.570658e+01 4.272547e+01 3.854078e+01 4.658632e+01 2.991310e+01 3.963384e+01 2.838180e+01 2.300233e+00 2.139122e+00 2.270662e+00 3.095138e+00 2.691883e+00 2.786963e+00 3.349329e+00 3.360953e+00 3.590667e+00 2.828698e+00 2.976971e+00 2.277122e+00 5.347949e+00
<GCONST> 1.027482e+02
<STATE> 3
<MEAN> 25
 1.105343e+01 1.153506e+01 5.445859e+00 2.761676e+00 1.950032e+00 4.820611e+00 2.756152e+00 -6.126905e+00 -5.635668e+00 -3.945267e-01 -7.293767e-01 -2.179217e+00 -9.269022e-01 -1.335296e+00 -8.929845e-01 -5.242226e-01 2.245952e-01 -7.661785e-01 -9.014302e-01 4.073220e-01 5.513302e-01 1.781214e-03 7.489561e-01 8.608395e-01 2.213118e+00
<VARIANCE> 25
 1.943662e+01 2.426222e+01 2.001228e+01 2.671966e+01 3.081683e+01 3.379940e+01 2.948341e+01 3.796700e+01 4.272542e+01 3.044573e+01 3.815232e+01 2.601490e+01 2.497092e+00 2.630386e+00 2.700564e+00 3.701686e+00 2.966857e+00 3.348236e+00 2.843903e+00 3.027989e+00 3.625992e+00 2.737526e+00 3.271416e+00 2.406096e+00 4.277595e+00
<GCONST> 1.008701e+02
<STATE> 4
<MEAN> 25
 6.356237e+00 2.855560e+00 1.369925e-01 -1.133661e+00 1.514472e+00 2.673618e+00 -2.593658e+00 -5.197890e+00 -2.271889e+00 1.118974e+00 3.275356e+00 8.918899e-01 -9.403839e-01 -3.453117e+00 -1.836238e+00 -2.754229e+00 -1.606282e+00 -2.465326e-01 -2.670755e+00 1.040102e+00 2.207958e+00 1.449016e+00 1.197510e+00 -4.158895e-01 5.089379e+00
<VARIANCE> 25
 2.608335e+01 3.453870e+01 2.927204e+01 7.547953e+01 3.432003e+01 4.406573e+01 3.864662e+01 3.020733e+01 3.525122e+01 3.962827e+01 3.624681e+01 2.426320e+01 2.364140e+00 3.560876e+00 5.430938e+00 7.455114e+00 4.820320e+00 6.507137e+00 4.911625e+00 6.706800e+00 9.431999e+00 6.374443e+00 5.986301e+00 6.142026e+00 4.030864e+00
<GCONST> 1.107230e+02
<TRANSP> 5
 0.000000e+00 1.000000e+00 0.000000e+00 0.000000e+00 0.000000e+00
 0.000000e+00 7.300592e-01 2.699408e-01 0.000000e+00 0.000000e+00
 0.000000e+00 0.000000e+00 5.135228e-01 4.864772e-01 0.000000e+00
 0.000000e+00 0.000000e+00 0.000000e+00 4.403428e-01 5.596572e-01
 0.000000e+00 0.000000e+00 0.000000e+00 0.000000e+00 0.000000e+00
<ENDHMM>
~h "C"
<BEGINHMM>
<NUMSTATES> 5
<STATE> 2
<MEAN> 25
 -8.639712e-01 5.884451e+00 3.007699e+00 3.634755e+00 2.412300e-01 -6.334428e+00 4.558509e-02 3.365322e-01 -1.471925e-02 -1.098309e+00 -1.036440e+00 2.085623e+00 -1.576516e+00 1.373042e-01 -7.126722e-01 -2.534997e-01 7.620445e-01 1.640950e-01 5.428255e-01 -2.626317e-01 9.933693e-02 8.255935e-02 3.977335e-02 9.436932e-02 -1.824206e+00
<VARIANCE> 25
 2.694648e+01 3.364607e+01 3.826292e+01 2.794957e+01 4.127512e+01 4.204408e+01 5.010700e+01 4.340572e+01 4.123383e+01 2.851378e+01 2.839250e+01 2.389469e+01 4.310632e+00 5.046997e+00 3.105352e+00 3.379369e+00 4.214999e+00 3.103178e+00 3.809067e+00 3.406919e+00 3.171652e+00 2.773135e+00 2.602556e+00 2.455438e+00 9.613164e+00
<GCONST> 1.053218e+02
<STATE> 3
<MEAN> 25
 -1.558663e+01 2.327360e+00 -1.879768e+00 -2.137763e+00 4.084658e+00 -2.997705e+00 1.936870e+00 -6.587818e-02 9.519753e-02 8.057356e-01 1.601957e+00 3.545085e+00 -2.929982e+00 -4.168244e-01 -2.909296e-01 -1.289892e+00 -1.693810e-01 -1.004217e-02 1.271413e-01 4.654887e-01 2.066861e-01 1.957682e-01 6.082217e-01 6.345955e-01 4.408782e+00
<VARIANCE> 25
 4.702509e+01 3.027172e+01 3.225892e+01 3.265179e+01 3.372084e+01 3.803269e+01 3.885880e+01 3.297641e+01 2.900574e+01 2.207119e+01 2.154382e+01 1.676321e+01 6.528768e+00 3.390200e+00 4.165025e+00 3.412741e+00 4.068314e+00 3.777260e+00 3.710281e+00 3.643764e+00 3.064836e+00 2.540792e+00 2.496909e+00 1.839211e+00 6.492184e+00
<GCONST> 1.033660e+02
<STATE> 4
<MEAN> 25
 -1.141808e+01 1.925323e+00 2.224881e+00 -1.908349e+00 -1.335475e+00 -5.924816e+00 2.207227e-01 2.686686e+00 1.347535e+00 -8.980362e-01 6.145315e-01 4.180114e+00 5.396868e+00 -1.393344e+00 1.370016e+00 5.435102e-01 -2.043242e+00 -6.076975e-01 -1.712734e+00 8.732526e-01 7.763678e-01 -5.159364e-01 -7.528859e-01 -9.496561e-01 2.111886e+00
<VARIANCE> 25
 9.305871e+01 2.654361e+01 3.549281e+01 3.143123e+01 3.947093e+01 3.786071e+01 5.287824e+01 3.955617e+01 3.225247e+01 2.436489e+01 2.628825e+01 1.893085e+01 3.851193e+00 5.552367e+00 5.878610e+00 4.465203e+00 4.876233e+00 4.713857e+00 4.840899e+00 7.400498e+00 6.105773e+00 3.544993e+00 3.408592e+00 2.636407e+00 2.218056e+00
<GCONST> 1.077188e+02
<TRANSP> 5
 0.000000e+00 1.000000e+00 0.000000e+00 0.000000e+00 0.000000e+00
 0.000000e+00 7.855639e-01 2.144360e-01 0.000000e+00 0.000000e+00
 0.000000e+00 0.000000e+00 7.335155e-01 2.664845e-01 0.000000e+00
 0.000000e+00 0.000000e+00 0.000000e+00 6.441385e-01 3.558614e-01
 0.000000e+00 0.000000e+00 0.000000e+00 0.000000e+00 0.000000e+00
<ENDHMM>
~h "D"
<BEGINHMM>
<NUMSTATES> 5
<STATE> 2
<MEAN> 25
 7.369533e+00 5.337614e+00 6.750333e+00 7.151937e+00 -3.134825e-01 -3.262781e+00 -2.927584e+00 -3.889704e-01 1.880819e+00 -1.299116e+00 -4.178297e+00 -1.370524e+00 8.218933e-01 1.316216e+00 8.666964e-01 9.038925e-01 7.248231e-01 -3.121271e-01 1.019148e-01 -1.003591e-01 2.164311e-01 -2.075835e-01 -6.264879e-01 -2.419785e-01 -1.134319e+00
<VARIANCE> 25
 3.733721e+01 4.716953e+01 3.403182e+01 3.106451e+01 4.627288e+01 3.537946e+01 5.479998e+01 6.446366e+01 4.378651e+01 3.832182e+01 3.691679e+01 3.058576e+01 2.706349e+00 3.365002e+00 2.590833e+00 2.971258e+00 3.826065e+00 2.880127e+00 3.836385e+00 4.960258e+00 3.586636e+00 2.972253e+00 3.241296e+00 2.492935e+00 6.389769e+00
<GCONST> 1.063154e+02
<STATE> 3
<MEAN> 25
 8.710622e+00 7.258785e+00 8.840257e+00 8.125402e+00 1.002943e+00 -3.552731e+00 -2.817166e+00 -3.121508e-01 1.720689e+00 -1.518273e+00 -4.726074e+00 -1.824767e+00 -2.032247e+00 -2.529490e+00 2.266018e-01 -1.795571e+00 -4.013405e-01 -2.149372e-01 -6.678134e-01 8.794459e-01 -9.092828e-01 -1.135475e-01 1.605671e+00 1.347882e+00 3.603031e+00
<VARIANCE> 25
 2.462200e+01 2.818990e+01 2.940536e+01 2.791061e+01 3.399338e+01 3.162449e+01 4.563530e+01 5.313376e+01 4.126780e+01 3.800785e+01 3.101434e+01 2.871761e+01 2.143136e+00 2.963484e+00 3.965184e+00 3.433505e+00 5.206838e+00 4.219841e+00 5.211578e+00 7.731744e+00 6.277567e+00 4.192917e+00 3.688363e+00 3.102327e+00 4.314753e+00
<GCONST> 1.065387e+02
<STATE> 4
<MEAN> 25
 1.987207e+00 -3.194761e+00 7.585396e+00 8.359261e-01 -3.182600e+00 -4.789375e+00 -6.131842e+00 3.599237e+00 -1.114634e-01 -1.364365e+00 9.782109e-01 3.350780e+00 -1.113309e+00 -2.616717e+00 -7.143174e-01 -2.274954e+00 -2.799737e+00 -4.196074e-01 -1.334329e+00 1.644041e+00 3.225306e-01 3.135633e-01 1.616948e+00 4.414008e-01 4.838815e+00
<VARIANCE> 25
 1.808673e+01 2.524655e+01 4.030112e+01 3.605769e+01 6.587937e+01 4.634409e+01 7.590229e+01 5.409806e+01 6.028446e+01 2.976058e+01 2.961533e+01 2.491522e+01 3.021823e+00 3.581068e+00 6.504205e+00 4.980488e+00 5.607449e+00 4.260129e+00 6.201789e+00 1.101385e+01 9.779105e+00 4.644545e+00 5.466418e+00 3.924647e+00 4.260412e+00
<GCONST> 1.113806e+02
<TRANSP> 5
 0.000000e+00 1.000000e+00 0.000000e+00 0.000000e+00 0.000000e+00
 0.000000e+00 7.304272e-01 2.695728e-01 0.000000e+00 0.000000e+00
 0.000000e+00 0.000000e+00 4.148433e-01 5.851567e-01 0.000000e+00
 0.000000e+00 0.000000e+00 0.000000e+00 4.145219e-01 5.854781e-01
 0.000000e+00 0.000000e+00 0.000000e+00 0.000000e+00 0.000000e+00
<ENDHMM>
~h "E"
<BEGINHMM>
<NUMSTATES> 5
<STATE> 2
<MEAN> 25
 3.043865e+00 -7.815688e+00 4.314919e+00 -1.423107e+00 -9.032817e+00 -6.545263e+00 -1.095078e+00 7.389119e+00 6.321322e-01 -1.816572e-01 1.976882e+00 -9.526948e-01 4.744995e-01 -1.615205e+00 1.223136e+00 -1.066976e+00 -2.350582e+00 -5.316173e-01 6.987936e-01 2.036592e+00 -2.959870e-01 -4.150436e-01 7.094392e-01 -1.509939e-01 2.678808e+00
<VARIANCE> 25
 2.579100e+01 4.020517e+01 4.870530e+01 3.602386e+01 5.378026e+01 4.223729e+01 6.825938e+01 5.203666e+01 5.064358e+01 3.897383e+01 4.761882e+01 3.036445e+01 3.691690e+00 3.691784e+00 3.630548e+00 3.510564e+00 4.871517e+00 4.152783e+00 6.018679e+00 6.314171e+00 5.251873e+00 4.626424e+00 4.291708e+00 3.110346e+00 6.318654e+00
<GCONST> 1.105561e+02
<STATE> 3
<MEAN> 25
 2.731942e+00 -8.337158e+00 8.397746e+00 -4.156521e+00 -1.390906e+01 -7.080526e+00 1.723264e+00 8.041712e+00 -1.558032e+00 7.239962e-01 4.899857e+00 -8.945847e-01 -4.939457e-02 1.378718e-01 3.897096e-02 -7.367631e-02 2.851809e-02 -1.593562e-02 2.673795e-01 -9.904255e-02 -1.175059e-01 1.036108e-01 -3.279853e-02 -7.344428e-02 -1.727461e-02
<VARIANCE> 25
 8.165303e+00 2.659382e+01 4.451092e+01 2.724848e+01 3.163706e+01 3.601564e+01 5.153248e+01 5.155491e+01 4.410439e+01 4.401390e+01 4.316828e+01 2.749837e+01 3.226067e-01 6.466113e-01 9.796459e-01 9.150587e-01 1.197364e+00 1.097862e+00 1.576582e+00 1.431379e+00 1.446519e+00 1.246763e+00 1.305990e+00 8.922543e-01 5.567476e-01
<GCONST> 8.756942e+01
<STATE> 4
<MEAN> 25
 2.422633e+00 -3.915527e+00 5.953228e+00 -5.384957e-01 -1.009172e+01 -8.097104e+00 2.357191e+00 5.072607e+00 -1.428895e+00 1.086970e+00 2.510498e+00 -6.832250e-01 -2.083360e-02 1.053187e+00 -6.179278e-01 8.217154e-01 1.242229e+00 2.146762e-01 -1.275816e-01 -8.093579e-01 1.979552e-01 -1.681094e-02 -5.478632e-01 6.112603e-02 -2.086400e+00
<VARIANCE> 25
 1.784063e+01 4.086298e+01 4.911382e+01 3.393961e+01 4.413527e+01 4.593803e+01 5.966011e+01 5.798920e+01 5.260031e+01 4.224065e+01 4.597728e+01 2.844041e+01 1.466436e+00 2.151796e+00 2.055839e+00 2.249951e+00 3.263479e+00 2.776549e+00 3.936334e+00 3.358849e+00 3.271904e+00 2.969954e+00 2.699706e+00 2.112679e+00 3.281103e+00
<GCONST> 1.032727e+02
<TRANSP> 5
 0.000000e+00 1.000000e+00 0.000000e+00 0.000000e+00 0.000000e+00
 0.000000e+00 6.447017e-01 3.552984e-01 0.000000e+00 0.000000e+00
 0.000000e+00 0.000000e+00 8.262358e-01 1.737642e-01 0.000000e+00
 0.000000e+00 0.000000e+00 0.000000e+00 7.653988e-01 2.346012e-01
 0.000000e+00 0.000000e+00 0.000000e+00 0.000000e+00 0.000000e+00
<ENDHMM>
~h "F"
<BEGINHMM>
<NUMSTATES> 5
<STATE> 2
<MEAN> 25
 -2.942790e+00 2.308398e+00 -7.678435e-01 3.429373e+00 3.430167e+00 5.370361e-01 1.498392e+00 -2.580763e-01 -4.276446e-04 7.734265e-01 2.987868e-01 1.119998e+00 -3.330542e+00 -1.066398e-01 -5.161707e-01 1.151834e+00 6.551914e-01 -6.589177e-01 3.282143e-01 3.947466e-01 6.127375e-01 4.231264e-02 -1.115348e-01 4.966336e-01 -9.346631e-01
<VARIANCE> 25
 4.554610e+01 2.495534e+01 3.570155e+01 4.003971e+01 3.500477e+01 4.632371e+01 3.448519e+01 3.519732e+01 3.290482e+01 2.642218e+01 2.518924e+01 2.284573e+01 3.628542e+00 4.360397e+00 4.034503e+00 4.794273e+00 5.563481e+00 5.100670e+00 4.370255e+00 4.405126e+00 3.839132e+00 3.596189e+00 3.306775e+00 2.638220e+00 3.082100e+00
<GCONST> 1.058071e+02
<STATE> 3
<MEAN> 25
 -1.337453e+01 -2.381713e+00 -3.859864e+00 3.920532e+00 2.448774e+00 -1.487196e+00 5.751067e-01 8.962584e-01 1.237314e+00 1.331045e+00 1.179417e+00 2.900932e+00 -5.417846e-01 -4.752690e-01 -2.724705e-01 -7.005499e-02 -3.587047e-02 -1.757469e-03 3.189228e-03 4.967105e-02 3.436974e-02 2.536059e-02 7.182895e-02 9.430918e-02 -8.984760e-02
<VARIANCE> 25
 2.201147e+01 2.165710e+01 2.580984e+01 2.109265e+01 2.495792e+01 2.595493e+01 2.709078e+01 2.673811e+01 2.515335e+01 2.095208e+01 2.016488e+01 1.812947e+01 1.666428e+00 1.169229e+00 1.370188e+00 1.380107e+00 1.583667e+00 1.742129e+00 1.717704e+00 1.734018e+00 1.733453e+00 1.663971e+00 1.539145e+00 1.430212e+00 1.425021e+00
<GCONST> 8.925401e+01
<STATE> 4
<MEAN> 25
 -8.712172e+00 -2.274170e+00 -3.966613e+00 2.588482e+00 3.040200e+00 -5.615311e-01 1.367792e+00 5.151979e-01 7.656850e-01 1.029497e+00 1.010473e+00 2.015530e+00 3.457095e+00 5.794197e-01 3.448769e-01 -1.142810e+00 -6.666135e-01 4.990381e-01 -2.236198e-01 -3.957600e-01 -4.022937e-01 -2.167258e-01 2.766370e-02 -6.788046e-01 7.237166e-01
<VARIANCE> 25
 5.387877e+01 2.770184e+01 3.118379e+01 3.546935e+01 3.314236e+01 3.377367e+01 3.119949e+01 3.148509e+01 2.819365e+01 2.382576e+01 2.198526e+01 1.955685e+01 7.870492e+00 4.111925e+00 4.542750e+00 5.747760e+00 4.057576e+00 5.127706e+00 3.840376e+00 3.791436e+00 3.661559e+00 3.183414e+00 2.943464e+00 2.845460e+00 6.989047e+00
<GCONST> 1.057261e+02
<TRANSP> 5
 0.000000e+00 1.000000e+00 0.000000e+00 0.000000e+00 0.000000e+00
 0.000000e+00 6.919710e-01 3.080290e-01 0.000000e+00 0.000000e+00
 0.000000e+00 0.000000e+00 8.554186e-01 1.445814e-01 0.000000e+00
 0.000000e+00 0.000000e+00 0.000000e+00 6.829247e-01 3.170753e-01
 0.000000e+00 0.000000e+00 0.000000e+00 0.000000e+00 0.000000e+00
<ENDHMM>
~h "G"
<BEGINHMM>
<NUMSTATES> 5
<STATE> 2
<MEAN> 25
 7.803427e+00 5.741375e+00 7.030742e+00 4.484039e+00 -2.188943e+00 -3.546898e+00 -2.026119e+00 -1.447186e+00 -3.391764e+00 2.579473e+00 -9.710804e-01 -3.380293e+00 3.927806e-01 1.412959e+00 7.143300e-01 1.097729e+00 3.683178e-01 -4.159409e-01 8.138134e-01 -4.146349e-01 -2.005115e-01 -2.164847e-01 -3.675866e-01 -7.332421e-02 -1.888615e+00
<VARIANCE> 25
 2.365758e+01 4.415362e+01 4.118710e+01 3.772402e+01 5.279023e+01 5.063020e+01 6.168828e+01 5.511652e+01 4.797707e+01 4.081498e+01 3.764337e+01 3.444687e+01 2.244888e+00 2.619172e+00 3.230552e+00 3.300622e+00 4.661880e+00 3.744819e+00 4.098770e+00 4.356226e+00 5.002781e+00 3.284923e+00 3.081070e+00 2.747704e+00 4.724750e+00
<GCONST> 1.073850e+02
<STATE> 3
<MEAN> 25
 3.643762e+00 5.536616e+00 5.165821e+00 6.155660e+00 2.170964e+00 -3.560902e+00 1.644290e-01 -1.819934e+00 -3.582423e+00 2.146914e+00 -2.219053e+00 -6.824676e-01 -2.306954e+00 -2.234581e+00 -1.774104e+00 -7.631279e-01 1.376015e+00 -5.309771e-01 -1.011878e+00 7.986816e-01 -2.580204e-01 2.430389e-01 2.410532e-01 1.393114e+00 3.456537e+00
<VARIANCE> 25
 4.602475e+01 5.880209e+01 6.815486e+01 3.380073e+01 7.205946e+01 4.723866e+01 4.917231e+01 4.179391e+01 4.339325e+01 3.051294e+01 2.732347e+01 3.300193e+01 2.592705e+00 3.965760e+00 6.065420e+00 3.995907e+00 7.636102e+00 5.365125e+00 5.028509e+00 5.591085e+00 5.201921e+00 3.772226e+00 3.935317e+00 3.187303e+00 4.665285e+00
<GCONST> 1.109595e+02
<STATE> 4
<MEAN> 25
 1.105822e+00 -2.170425e-01 3.133952e+00 1.557680e+00 -3.310699e+00 -6.782562e+00 -5.560563e+00 1.958857e+00 -2.846753e+00 3.245639e+00 2.286206e+00 9.734187e-01 4.353577e-01 -1.099901e+00 1.101234e-01 -2.004759e+00 -2.697057e+00 1.180873e-01 -1.093421e+00 1.431760e+00 1.135918e+00 6.229018e-02 1.261134e+00 -5.463510e-01 2.671611e+00
<VARIANCE> 25
 2.118387e+01 2.903174e+01 6.627390e+01 3.326309e+01 8.977335e+01 5.309417e+01 6.094793e+01 5.126218e+01 5.208929e+01 3.731193e+01 4.250243e+01 2.969402e+01 2.701716e+00 3.259335e+00 5.568761e+00 3.925008e+00 7.449346e+00 4.410807e+00 5.176602e+00 6.335376e+00 7.710816e+00 3.731486e+00 5.019580e+00 3.576554e+00 2.436151e+00
<GCONST> 1.106759e+02
<TRANSP> 5
 0.000000e+00 1.000000e+00 0.000000e+00 0.000000e+00 0.000000e+00
 0.000000e+00 7.276562e-01 2.723438e-01 0.000000e+00 0.000000e+00
 0.000000e+00 0.000000e+00 5.913676e-01 4.086324e-01 0.000000e+00
 0.000000e+00 0.000000e+00 0.000000e+00 5.397367e-01 4.602633e-01
 0.000000e+00 0.000000e+00 0.000000e+00 0.000000e+00 0.000000e+00
<ENDHMM>
~h "H"
<BEGINHMM>
<NUMSTATES> 5
<STATE> 2
<MEAN> 25
 8.958345e-01 -2.437201e+00 -1.954545e+00 9.051862e-01 7.121063e+00 3.652381e+00 3.307462e+00 2.312316e+00 9.354903e-01 -8.755761e-01 -2.584513e+00 -1.043011e-02 -1.102268e+00 -4.585296e-02 1.796016e-01 1.144453e+00 1.603641e+00 5.585593e-01 9.302019e-01 3.566504e-01 3.334675e-01 -1.891392e-01 -2.971794e-02 6.166443e-01 -9.198728e-01
<VARIANCE> 25
 2.240708e+01 3.599137e+01 4.643251e+01 4.499083e+01 6.519312e+01 5.443926e+01 5.031392e+01 5.069979e+01 4.440881e+01 4.059225e+01 4.192666e+01 3.461689e+01 1.762130e+00 3.200567e+00 3.977419e+00 3.554271e+00 3.957688e+00 3.644891e+00 3.880166e+00 4.003200e+00 3.569593e+00 3.382543e+00 3.275500e+00 2.839646e+00 2.062201e+00
<GCONST> 1.063155e+02
<STATE> 3
<MEAN> 25
 -2.604601e+00 -4.239717e+00 -2.618816e+00 1.715603e+00 8.723526e+00 4.167122e+00 4.642116e+00 3.418180e+00 2.331094e+00 -8.945471e-01 -1.957652e+00 1.369645e+00 -4.369842e-01 -2.617367e-01 -3.178437e-01 -3.296098e-01 -3.236255e-01 -2.889368e-01 -1.860485e-01 -1.602567e-01 2.706592e-03 1.822319e-02 1.769754e-01 1.517568e-01 -8.355455e-01
<VARIANCE> 25
 2.861507e+01 3.987654e+01 4.642886e+01 4.596318e+01 6.747132e+01 5.338873e+01 5.581471e+01 4.861839e+01 4.310748e+01 4.323801e+01 3.871958e+01 3.293500e+01 1.636226e+00 2.970987e+00 2.777882e+00 2.642339e+00 3.314694e+00 3.172939e+00 3.363383e+00 3.307272e+00 2.967414e+00 2.814714e+00 2.693558e+00 2.228506e+00 4.019665e+00
<GCONST> 1.050717e+02
<STATE> 4
<MEAN> 25
 -3.460428e+00 -6.034980e+00 -5.757628e+00 -5.413034e-01 7.039104e+00 2.922705e+00 2.701136e+00 1.226767e+00 1.793362e+00 -1.368643e+00 -1.350556e+00 6.383702e-01 4.306123e-01 3.589408e-01 4.762848e-02 -1.280381e-01 -4.433523e-01 -1.353586e-01 -9.303096e-02 -2.430285e-01 -1.842815e-01 -1.643539e-02 -1.715190e-02 -2.102446e-01 -1.581308e-01
<VARIANCE> 25
 3.235259e+01 4.850756e+01 4.285302e+01 3.592398e+01 4.866822e+01 4.152562e+01 4.311805e+01 3.892546e+01 3.733303e+01 3.446022e+01 3.318283e+01 2.794756e+01 2.019057e+00 2.258792e+00 2.143972e+00 1.940878e+00 2.224049e+00 2.163863e+00 2.387310e+00 2.271099e+00 2.279274e+00 2.119787e+00 2.012490e+00 1.947888e+00 2.708819e+00
<GCONST> 9.981622e+01
<TRANSP> 5
 0.000000e+00 1.000000e+00 0.000000e+00 0.000000e+00 0.000000e+00
 0.000000e+00 4.728525e-01 5.271475e-01 0.000000e+00 0.000000e+00
 0.000000e+00 0.000000e+00 5.645861e-01 4.354139e-01 0.000000e+00
 0.000000e+00 0.000000e+00 0.000000e+00 7.476617e-01 2.523383e-01
 0.000000e+00 0.000000e+00 0.000000e+00 0.000000e+00 0.000000e+00
<ENDHMM>
~h "I"
<BEGINHMM>
<NUMSTATES> 5
<STATE> 2
<MEAN> 25
 -4.279397e-01 1.306643e+00 1.368755e+01 2.141852e+00 -9.217726e+00 -5.713170e+00 -3.201008e+00 -2.312355e+00 -7.490179e+00 -7.453719e-01 3.707118e+00 8.758979e-01 6.151592e-01 7.051031e-02 3.020152e+00 -4.316733e-01 -3.079299e+00 2.803566e-01 -1.280137e+00 -6.837145e-01 -1.887368e+00 3.926495e-02 1.252427e+00 -4.117469e-01 1.823053e+00
<VARIANCE> 25
 2.855327e+01 3.666892e+01 4.813998e+01 3.799273e+01 5.016354e+01 4.402642e+01 5.069521e+01 5.238589e+01 4.587547e+01 3.740205e+01 3.170722e+01 2.670764e+01 5.513213e+00 3.237411e+00 4.744085e+00 4.700995e+00 4.427742e+00 4.754825e+00 6.326676e+00 6.109200e+00 5.511964e+00 4.951963e+00 3.678523e+00 3.360028e+00 4.095237e+00
<GCONST> 1.101051e+02
<STATE> 3
<MEAN> 25
 -2.222127e-01 3.106980e+00 1.932018e+01 -7.604564e-01 -1.384365e+01 -1.731052e+00 -6.309688e+00 -5.259979e+00 -9.757358e+00 1.359211e-01 4.908611e+00 -9.507401e-01 6.498983e-02 1.070953e-01 2.508376e-03 -1.422575e-01 -1.891037e-01 9.937257e-02 1.192325e-02 -6.763911e-02 4.272071e-02 1.598818e-01 2.024030e-02 -4.124807e-02 -7.592439e-02
<VARIANCE> 25
 1.115609e+01 2.810796e+01 2.956308e+01 3.940640e+01 2.529061e+01 4.379004e+01 3.665975e+01 4.517545e+01 3.919896e+01 5.010906e+01 3.570680e+01 3.153252e+01 5.454593e-01 1.205447e+00 1.431807e+00 1.386443e+00 1.623748e+00 1.945776e+00 1.866741e+00 2.225492e+00 1.755290e+00 1.588689e+00 1.421220e+00 1.222978e+00 8.790324e-01
<GCONST> 9.207708e+01
<STATE> 4
<MEAN> 25
 9.665009e-01 3.954072e+00 1.333630e+01 2.331836e+00 -9.671514e+00 -4.896446e+00 -1.945601e+00 -3.648225e+00 -6.771666e+00 2.254040e-01 2.968997e+00 1.865367e-01 1.917118e-01 3.224441e-01 -1.702391e+00 5.757427e-01 1.560089e+00 -2.651606e-01 7.401747e-01 3.644401e-01 1.021264e+00 -1.180247e-01 -6.909065e-01 1.961278e-01 -1.923414e+00
<VARIANCE> 25
 1.892240e+01 3.546965e+01 3.896482e+01 3.668916e+01 4.834018e+01 5.555333e+01 4.500988e+01 5.355492e+01 4.276459e+01 4.133280e+01 3.850308e+01 3.071155e+01 2.164870e+00 2.658131e+00 2.568328e+00 2.781553e+00 3.721314e+00 3.392662e+00 4.047516e+00 4.482310e+00 3.971222e+00 3.281440e+00 2.965317e+00 2.425184e+00 3.859517e+00
<GCONST> 1.049980e+02
<TRANSP> 5
 0.000000e+00 1.000000e+00 0.000000e+00 0.000000e+00 0.000000e+00
 0.000000e+00 6.286030e-01 3.713970e-01 0.000000e+00 0.000000e+00
 0.000000e+00 0.000000e+00 7.863948e-01 2.136052e-01 0.000000e+00
 0.000000e+00 0.000000e+00 0.000000e+00 7.754143e-01 2.245857e-01
 0.000000e+00 0.000000e+00 0.000000e+00 0.000000e+00 0.000000e+00
<ENDHMM>
~h "J"
<BEGINHMM>
<NUMSTATES> 5
<STATE> 2
<MEAN> 25
 4.646048e+00 8.587628e+00 9.782146e+00 5.503737e+00 -2.250892e+00 -4.357493e+00 -4.858655e-01 1.395439e+00 -1.560458e+00 -3.042539e+00 -2.475298e-01 1.084307e+00 -1.214857e-01 1.354506e+00 4.975826e-01 3.138683e-01 8.536527e-01 1.549513e-01 9.111015e-01 6.851637e-02 2.856088e-01 -1.023216e-01 -3.030827e-01 -1.258845e-01 -1.405343e+00
<VARIANCE> 25
 2.996427e+01 3.998169e+01 3.676973e+01 2.726121e+01 4.278871e+01 4.470484e+01 5.050059e+01 3.841513e+01 4.115318e+01 3.083705e+01 2.698357e+01 2.688933e+01 4.690238e+00 2.992133e+00 3.064850e+00 2.940641e+00 3.926523e+00 3.158126e+00 4.154457e+00 3.920190e+00 3.907006e+00 2.953203e+00 2.535462e+00 2.395444e+00 5.829120e+00
<GCONST> 1.049659e+02
<STATE> 3
<MEAN> 25
 -7.453016e+00 8.979850e+00 8.298639e+00 2.790842e+00 3.048473e+00 -3.055377e+00 1.581812e+00 -8.667045e-01 -2.209209e+00 -1.294661e+00 6.869121e-01 2.933747e+00 -1.642668e+00 -1.166637e+00 4.502822e-01 -4.541574e-01 -1.222254e+00 -9.122733e-01 -9.624131e-01 -4.439133e-01 -6.286097e-01 -8.463520e-02 9.373671e-01 1.003787e+00 3.417473e+00
<VARIANCE> 25
 6.711843e+01 3.896982e+01 4.764667e+01 3.324164e+01 4.801875e+01 4.509791e+01 3.651511e+01 3.012058e+01 3.071727e+01 2.194252e+01 2.205834e+01 2.053953e+01 1.312888e+01 3.687294e+00 4.729411e+00 4.249839e+00 9.551485e+00 4.521567e+00 4.075366e+00 3.989745e+00 3.780802e+00 2.676078e+00 2.493092e+00 2.183143e+00 3.371558e+00
<GCONST> 1.071550e+02
<STATE> 4
<MEAN> 25
 2.229703e-02 2.147942e-01 1.126575e+01 1.158281e+00 -1.070246e+01 -8.935884e+00 -6.580835e+00 2.506651e+00 -2.250848e+00 -2.302043e+00 5.442648e+00 5.463941e+00 2.540730e+00 -2.896821e+00 -1.354839e+00 -1.097672e+00 -1.918551e+00 1.666731e-01 -1.581668e+00 2.270211e+00 1.606037e+00 5.907366e-01 2.950250e-02 -1.054851e+00 1.499031e+00
<VARIANCE> 25
 1.439077e+01 2.815180e+01 2.694482e+01 3.853631e+01 2.700171e+01 2.196025e+01 3.197407e+01 5.268253e+01 4.379090e+01 2.892699e+01 2.442770e+01 2.030210e+01 2.803518e+00 2.761697e+00 4.756327e+00 3.088356e+00 7.541139e+00 3.469587e+00 5.992393e+00 7.051826e+00 5.277479e+00 3.138734e+00 4.627873e+00 3.024743e+00 1.157518e+00
<GCONST> 1.033960e+02
<TRANSP> 5
 0.000000e+00 1.000000e+00 0.000000e+00 0.000000e+00 0.000000e+00
 0.000000e+00 8.000856e-01 1.999144e-01 0.000000e+00 0.000000e+00
 0.000000e+00 0.000000e+00 7.745837e-01 2.254163e-01 0.000000e+00
 0.000000e+00 0.000000e+00 0.000000e+00 6.263651e-01 3.736349e-01
 0.000000e+00 0.000000e+00 0.000000e+00 0.000000e+00 0.000000e+00
<ENDHMM>
~h "K"
<BEGINHMM>
<NUMSTATES> 5
<STATE> 2
<MEAN> 25
 -9.825537e-01 3.375401e+00 -1.844646e+00 1.272636e+00 1.410218e+00 -2.692905e+00 1.206029e+00 -6.150389e-01 -2.373904e-01 1.451985e+00 -9.132233e-01 -6.195297e-02 -1.169988e+00 -3.097672e-01 -6.603171e-01 2.597583e-01 6.421365e-01 -2.174286e-01 1.549321e-01 2.329181e-01 1.404358e-01 -2.023824e-02 -1.171349e-01 5.331286e-01 -1.048604e+00
<VARIANCE> 25
 3.227628e+01 3.169138e+01 3.909818e+01 3.621301e+01 4.526463e+01 4.616404e+01 4.436621e+01 4.505977e+01 4.167397e+01 3.539056e+01 3.246469e+01 2.993637e+01 2.382835e+00 4.047117e+00 3.702355e+00 3.230978e+00 4.529037e+00 4.027153e+00 3.927071e+00 3.812081e+00 3.546818e+00 3.215871e+00 2.897840e+00 2.526810e+00 8.534112e+00
<GCONST> 1.064804e+02
<STATE> 3
<MEAN> 25
 -5.391752e+00 -2.730330e+00 -6.616300e+00 8.231071e-01 5.379930e+00 -3.926438e+00 -5.701813e-01 1.229766e+00 -6.381690e-01 2.631564e+00 -1.513272e+00 2.510562e+00 -8.487202e-01 -2.208361e+00 -2.268823e+00 -1.005693e+00 1.453365e+00 -6.532336e-01 -1.175737e+00 9.187390e-01 8.077086e-03 1.024697e+00 -5.795727e-01 2.568563e-01 4.948094e+00
<VARIANCE> 25
 2.730933e+01 6.136829e+01 6.864043e+01 4.658959e+01 5.607032e+01 5.562202e+01 5.612166e+01 4.464174e+01 4.552509e+01 3.481520e+01 3.106227e+01 2.893783e+01 3.649098e+00 5.020051e+00 6.718636e+00 5.312673e+00 6.190884e+00 6.221892e+00 5.453000e+00 5.328291e+00 5.162654e+00 4.414369e+00 4.151171e+00 3.756103e+00 9.646920e+00
<GCONST> 1.131251e+02
<STATE> 4
<MEAN> 25
 -3.517572e+00 -2.970763e+00 -7.788200e+00 -2.477442e+00 4.972305e+00 -3.948848e+00 -1.923731e+00 2.865986e+00 3.392562e-03 4.169154e+00 -2.641097e+00 1.775970e-01 2.114493e+00 4.252580e-01 1.573763e+00 -9.763612e-01 -1.797054e+00 7.182760e-01 1.984544e-01 1.917329e-01 2.625904e-01 -4.956522e-01 4.001799e-01 -1.369663e+00 2.660411e+00
<VARIANCE> 25
 3.772957e+01 3.907819e+01 6.471146e+01 4.955766e+01 6.029490e+01 6.402820e+01 5.205738e+01 4.912423e+01 5.246546e+01 4.017943e+01 3.676239e+01 3.878377e+01 4.475137e+00 4.963008e+00 5.803945e+00 5.214161e+00 5.543694e+00 5.219226e+00 6.038850e+00 5.613578e+00 5.706937e+00 4.067486e+00 4.201913e+00 4.253220e+00 6.719440e+00
<GCONST> 1.136691e+02
<TRANSP> 5
 0.000000e+00 1.000000e+00 0.000000e+00 0.000000e+00 0.000000e+00
 0.000000e+00 6.751627e-01 3.248373e-01 0.000000e+00 0.000000e+00
 0.000000e+00 0.000000e+00 5.325211e-01 4.674789e-01 0.000000e+00
 0.000000e+00 0.000000e+00 0.000000e+00 5.398868e-01 4.601131e-01
 0.000000e+00 0.000000e+00 0.000000e+00 0.000000e+00 0.000000e+00
<ENDHMM>
~h "L"
<BEGINHMM>
<NUMSTATES> 5
<STATE> 2
<MEAN> 25
 6.492624e+00 -4.629981e+00 1.523520e-01 -5.730989e+00 -2.464440e+00 1.342122e+00 -8.032220e+00 -4.587732e+00 4.900483e+00 4.315883e+00 1.197887e+00 -2.318280e+00 6.397702e-01 1.882710e-01 6.436272e-01 -6.749944e-01 5.655855e-01 8.146751e-02 -1.460705e+00 -1.545927e+00 2.480132e-01 1.162797e+00 4.267763e-01 -1.600846e-01 -3.544720e-01
<VARIANCE> 25
 1.859167e+01 2.705802e+01 5.322166e+01 6.144049e+01 4.724791e+01 6.661561e+01 7.140665e+01 8.944726e+01 5.989708e+01 4.593218e+01 4.858385e+01 4.027747e+01 1.110476e+00 2.038651e+00 3.216897e+00 4.586751e+00 5.165509e+00 5.596150e+00 5.005484e+00 5.463170e+00 5.078951e+00 4.069740e+00 4.554618e+00 3.332611e+00 1.484095e+00
<GCONST> 1.089001e+02
<STATE> 3
<MEAN> 25
 7.994063e+00 -3.816131e+00 2.479736e-01 -8.826503e+00 -1.627320e+00 3.433050e+00 -8.928386e+00 -7.895388e+00 4.481517e+00 6.442780e+00 3.324331e+00 -2.446842e+00 -1.632580e-02 1.976518e-01 7.319547e-02 -2.141758e-01 2.254633e-01 3.923388e-02 -2.007427e-01 -5.556261e-02 -1.115920e-01 2.332878e-02 6.294888e-02 6.920955e-02 -1.683080e-01
<VARIANCE> 25
 1.231715e+01 2.572874e+01 5.108352e+01 6.790269e+01 4.575115e+01 5.339771e+01 8.265560e+01 7.337520e+01 5.770436e+01 4.459726e+01 4.490372e+01 4.089500e+01 3.809088e-01 8.924101e-01 1.612080e+00 2.197672e+00 1.649917e+00 2.402216e+00 2.456836e+00 2.978441e+00 2.587313e+00 2.096894e+00 2.177549e+00 1.773857e+00 6.311375e-01
<GCONST> 9.787234e+01
<STATE> 4
<MEAN> 25
 6.217532e+00 -2.623768e+00 1.349915e-01 -6.636092e+00 1.489282e-01 2.022001e+00 -8.168433e+00 -5.221832e+00 3.786628e+00 4.683671e+00 8.368299e-01 -2.111941e+00 -6.879093e-01 -2.823645e-01 -4.833472e-01 8.092415e-01 -1.434823e-01 -2.263665e-01 1.193292e+00 1.605872e+00 -5.092466e-02 -1.011527e+00 -8.969541e-01 -3.298185e-02 -2.997089e-02
<VARIANCE> 25
 1.923902e+01 3.397361e+01 6.327264e+01 7.249509e+01 5.380564e+01 6.019757e+01 8.332501e+01 7.942845e+01 5.928147e+01 5.229211e+01 5.268287e+01 4.200938e+01 9.937222e-01 3.041472e+00 3.445277e+00 4.368529e+00 4.551220e+00 5.044646e+00 5.208656e+00 6.324756e+00 5.440571e+00 4.151435e+00 4.874189e+00 3.485451e+00 3.320124e+00
<GCONST> 1.110783e+02
<TRANSP> 5
 0.000000e+00 1.000000e+00 0.000000e+00 0.000000e+00 0.000000e+00
 0.000000e+00 4.627126e-01 5.372874e-01 0.000000e+00 0.000000e+00
 0.000000e+00 0.000000e+00 6.565949e-01 3.434051e-01 0.000000e+00
 0.000000e+00 0.000000e+00 0.000000e+00 5.106854e-01 4.893146e-01
 0.000000e+00 0.000000e+00 0.000000e+00 0.000000e+00 0.000000e+00
<ENDHMM>
~h "M"
<BEGINHMM>
<NUMSTATES> 5
<STATE> 2
<MEAN> 25
 7.886447e+00 -5.711416e-01 1.356726e+00 5.652517e-02 -9.131581e-01 5.481536e+00 -6.759077e-01 -6.727778e+00 -5.946788e+00 -4.057684e-01 1.406816e+00 -2.459538e+00 5.597951e-01 1.049550e+00 1.849584e+00 2.072638e+00 -6.519943e-03 6.033452e-01 4.949629e-01 -2.559267e+00 -2.780824e+00 -4.052141e-01 -4.946195e-01 3.299697e-01 -6.089587e-01
<VARIANCE> 25
 2.600854e+01 3.434418e+01 4.007581e+01 5.978597e+01 3.930845e+01 4.716585e+01 5.355570e+01 6.148450e+01 5.864079e+01 3.937275e+01 4.895531e+01 3.643767e+01 2.210279e+00 2.674605e+00 3.193537e+00 4.312758e+00 3.597431e+00 3.883989e+00 5.085055e+00 5.401745e+00 5.505029e+00 4.266905e+00 5.906065e+00 3.988011e+00 5.207811e+00
<GCONST> 1.096947e+02
<STATE> 3
<MEAN> 25
 8.411825e+00 7.408485e-01 5.715683e+00 3.770714e+00 -1.651546e+00 7.000829e+00 -8.041177e-01 -1.037154e+01 -1.047749e+01 -2.125154e+00 -8.107612e-01 -1.286049e+00 -2.603857e-02 1.382510e-01 2.139256e-01 1.450272e-01 9.473251e-03 1.527853e-01 1.500569e-01 -1.148895e-01 -2.599558e-01 -2.015009e-01 -2.318625e-01 1.213530e-01 -3.491515e-02
<VARIANCE> 25
 9.944396e+00 2.288170e+01 2.501166e+01 3.993792e+01 4.090047e+01 5.613893e+01 6.197673e+01 5.940547e+01 5.165579e+01 5.287817e+01 6.022254e+01 4.099633e+01 3.729852e-01 9.065121e-01 8.803303e-01 1.269886e+00 1.375132e+00 1.562863e+00 1.497915e+00 1.789193e+00 1.995162e+00 1.753372e+00 2.013103e+00 1.437593e+00 1.111520e+00
<GCONST> 9.315384e+01
<STATE> 4
<MEAN> 25
 7.976003e+00 9.270081e-01 3.726684e+00 1.444113e+00 -1.366652e+00 6.156676e+00 5.491095e-01 -8.997414e+00 -9.215741e+00 -2.169999e+00 -5.658006e-01 -1.098355e+00 -1.217480e-01 -5.530958e-01 -1.639775e+00 -1.906067e+00 -3.618451e-02 -4.752036e-01 -3.090523e-01 1.923829e+00 2.053296e+00 4.730418e-01 8.000047e-01 -3.423719e-01 9.267551e-01
<VARIANCE> 25
 1.406660e+01 2.757880e+01 3.350402e+01 4.933402e+01 4.089197e+01 4.880831e+01 5.253354e+01 5.733111e+01 5.625611e+01 4.231288e+01 5.417570e+01 3.556114e+01 1.054143e+00 2.559777e+00 3.708079e+00 4.637140e+00 3.586867e+00 3.532307e+00 4.171545e+00 4.595292e+00 5.368906e+00 3.617908e+00 4.825163e+00 3.527941e+00 3.624633e+00
<GCONST> 1.066843e+02
<TRANSP> 5
 0.000000e+00 1.000000e+00 0.000000e+00 0.000000e+00 0.000000e+00
 0.000000e+00 6.174210e-01 3.825790e-01 0.000000e+00 0.000000e+00
 0.000000e+00 0.000000e+00 7.621517e-01 2.378483e-01 0.000000e+00
 0.000000e+00 0.000000e+00 0.000000e+00 5.674658e-01 4.325342e-01
 0.000000e+00 0.000000e+00 0.000000e+00 0.000000e+00 0.000000e+00
<ENDHMM>
~h "N"
<BEGINHMM>
<NUMSTATES> 5
<STATE> 2
<MEAN> 25
 7.787296e+00 -3.401653e+00 3.213534e+00 2.246204e+00 -3.723338e+00 -1.988170e+00 -4.488020e+00 -1.470206e+00 1.652570e+00 8.884226e-01 -4.361614e+00 -2.910409e+00 5.713060e-01 2.256943e+00 1.852548e+00 2.175619e+00 -5.997058e-01 -5.119678e-01 1.796379e-01 -3.693526e+00 -1.103766e+00 9.922612e-01 -5.518164e-01 6.199982e-01 -2.151322e+00
<VARIANCE> 25
 9.865170e+00 3.663499e+01 3.853446e+01 4.010476e+01 3.730606e+01 4.301883e+01 4.584628e+01 1.022951e+02 5.573009e+01 4.045386e+01 3.849118e+01 3.631990e+01 6.944604e-01 1.859027e+00 3.245044e+00 2.862006e+00 3.693022e+00 5.015077e+00 5.220235e+00 5.779924e+00 5.181632e+00 4.696279e+00 4.672383e+00 3.274054e+00 9.529917e-01
<GCONST> 1.046588e+02
<STATE> 3
<MEAN> 25
 8.409185e+00 1.644647e+00 7.150671e+00 6.029683e+00 -5.281106e+00 -1.544813e+00 -3.256201e+00 -8.536628e+00 -1.439290e+00 2.398164e+00 -4.680641e+00 -6.753323e-01 2.005073e-02 5.906318e-01 1.975356e-01 2.886672e-01 8.613632e-02 1.416999e-01 2.100539e-01 -3.367091e-01 -4.106123e-01 8.029299e-02 -2.605673e-02 2.258018e-01 -6.521768e-01
<VARIANCE> 25
 8.963491e+00 1.982684e+01 2.675620e+01 3.074603e+01 3.363246e+01 4.610872e+01 5.309769e+01 6.034589e+01 5.334277e+01 4.539988e+01 5.100892e+01 4.412381e+01 3.103077e-01 8.858302e-01 9.710020e-01 9.984710e-01 1.416877e+00 1.531461e+00 1.786365e+00 2.267045e+00 2.046137e+00 1.762777e+00 1.810143e+00 1.508362e+00 5.982816e-01
<GCONST> 9.139415e+01
<STATE> 4
<MEAN> 25
 5.367732e+00 4.287204e+00 5.710545e+00 6.626944e+00 -6.947523e-01 -1.619273e+00 -9.577605e-01 -6.129348e+00 -2.634469e+00 1.175458e+00 -4.988398e+00 -3.503965e-01 -9.447864e-01 6.129741e-02 -6.073043e-01 -4.495895e-01 9.594960e-01 8.079273e-02 1.995804e-01 1.159666e+00 5.455629e-02 -5.769159e-01 4.122988e-01 -1.262657e-02 -1.010751e+00
<VARIANCE> 25
 2.633675e+01 3.353780e+01 3.006925e+01 3.499091e+01 4.802449e+01 3.830257e+01 5.318415e+01 6.853217e+01 5.002449e+01 4.766028e+01 4.760785e+01 3.663046e+01 1.666926e+00 3.280160e+00 2.731661e+00 3.060522e+00 3.730865e+00 3.599905e+00 4.347786e+00 5.474349e+00 4.148198e+00 3.503550e+00 3.475864e+00 2.895403e+00 4.438887e+00
<GCONST> 1.067134e+02
<TRANSP> 5
 0.000000e+00 1.000000e+00 0.000000e+00 0.000000e+00 0.000000e+00
 0.000000e+00 6.195062e-01 3.804938e-01 0.000000e+00 0.000000e+00
 0.000000e+00 0.000000e+00 7.596130e-01 2.403870e-01 0.000000e+00
 0.000000e+00 0.000000e+00 0.000000e+00 6.771038e-01 3.228962e-01
 0.000000e+00 0.000000e+00 0.000000e+00 0.000000e+00 0.000000e+00
<ENDHMM>
~h "O"
<BEGINHMM>
<NUMSTATES> 5
<STATE> 2
<MEAN> 25
 6.614896e+00 -2.671587e-01 -5.487320e+00 -9.813547e+00 -3.581224e+00 6.504893e+00 -4.677526e+00 -1.855766e+00 1.319542e+00 1.727665e+00 4.350288e+00 -5.671446e-01 1.760889e+00 -4.801714e-01 -6.868964e-01 -2.967508e+00 -1.318625e+00 2.487154e+00 -2.888235e-01 -1.683578e-01 5.369624e-01 9.615806e-03 1.283114e+00 -4.316252e-01 2.021804e+00
<VARIANCE> 25
 2.645061e+01 3.474775e+01 3.880024e+01 8.140461e+01 5.145897e+01 5.522329e+01 7.207063e+01 5.260034e+01 5.624152e+01 5.318338e+01 4.478239e+01 3.479679e+01 4.116621e+00 2.964542e+00 5.686863e+00 5.675697e+00 6.959626e+00 5.312705e+00 5.440054e+00 6.441914e+00 5.337747e+00 5.580196e+00 4.558498e+00 3.788010e+00 4.635230e+00
<GCONST> 1.132949e+02
<STATE> 3
<MEAN> 25
 8.685501e+00 -1.326864e+00 -6.595668e+00 -1.673159e+01 -5.249767e+00 1.247540e+01 -3.124671e+00 -1.905609e+00 1.700969e+00 -1.171801e-01 6.904519e+00 -2.376718e-01 8.234982e-02 -7.527456e-02 -1.463256e-01 -4.827851e-01 7.440223e-02 4.818910e-01 2.413068e-01 -1.159109e-02 -6.017686e-02 -1.413875e-01 1.744380e-01 6.262606e-02 9.278457e-02
<VARIANCE> 25
 1.046955e+01 2.898437e+01 2.682620e+01 4.866696e+01 4.014257e+01 3.663637e+01 5.625071e+01 4.592653e+01 4.298855e+01 5.330989e+01 3.941890e+01 3.718628e+01 3.376160e-01 1.078014e+00 9.026597e-01 2.023289e+00 1.547264e+00 1.782846e+00 2.063782e+00 1.919422e+00 2.248576e+00 2.358738e+00 1.671349e+00 1.610252e+00 7.267014e-01
<GCONST> 9.333616e+01
<STATE> 4
<MEAN> 25
 7.824052e+00 4.513975e-01 -6.494783e+00 -1.284075e+01 -2.693568e+00 8.735303e+00 -2.476010e+00 -2.113853e+00 4.223340e-01 1.563070e+00 4.563079e+00 -4.623431e-01 -3.241979e-01 2.264566e-01 4.448614e-01 1.856524e+00 5.485536e-01 -1.405980e+00 8.398078e-02 -7.846517e-02 5.101332e-02 3.180637e-01 -8.738834e-01 -1.771357e-01 -1.484240e+00
<VARIANCE> 25
 1.458583e+01 4.137096e+01 2.946187e+01 5.240397e+01 4.598966e+01 4.415455e+01 6.988412e+01 4.888007e+01 5.327389e+01 5.667122e+01 4.386361e+01 4.309453e+01 1.063196e+00 2.352362e+00 1.977003e+00 3.590011e+00 3.343313e+00 3.342862e+00 3.804011e+00 3.652073e+00 3.993841e+00 3.953674e+00 3.136007e+00 2.819106e+00 3.214191e+00
<GCONST> 1.050291e+02
<TRANSP> 5
 0.000000e+00 1.000000e+00 0.000000e+00 0.000000e+00 0.000000e+00
 0.000000e+00 5.971717e-01 4.028283e-01 0.000000e+00 0.000000e+00
 0.000000e+00 0.000000e+00 7.766969e-01 2.233031e-01 0.000000e+00
 0.000000e+00 0.000000e+00 0.000000e+00 7.670794e-01 2.329207e-01
 0.000000e+00 0.000000e+00 0.000000e+00 0.000000e+00 0.000000e+00
<ENDHMM>
~h "P"
<BEGINHMM>
<NUMSTATES> 5
<STATE> 2
<MEAN> 25
 1.600365e+00 5.364733e+00 -1.589334e+00 5.022773e-01 1.848240e+00 7.149400e-01 2.098914e+00 -2.615385e+00 -8.090445e-01 4.892935e-01 -5.230551e-01 -5.250889e-01 -1.310954e+00 1.235147e-01 -1.402706e-01 4.342283e-01 2.038672e-01 -6.732313e-01 2.659133e-01 3.149332e-01 2.367527e-01 -5.299183e-02 -7.476372e-02 4.400587e-01 -1.339242e+00
<VARIANCE> 25
 3.869352e+01 2.375237e+01 3.290056e+01 3.459617e+01 2.700826e+01 3.969535e+01 3.276853e+01 3.274267e+01 3.888306e+01 2.822591e+01 2.745383e+01 2.771539e+01 1.677393e+00 2.360289e+00 2.018929e+00 2.382330e+00 2.330495e+00 2.682982e+00 2.477109e+00 2.451579e+00 2.808324e+00 2.378007e+00 2.413924e+00 2.055678e+00 7.062604e+00
<GCONST> 9.943737e+01
<STATE> 3
<MEAN> 25
 -4.250906e+00 3.041319e+00 -1.108615e+00 2.398832e+00 2.616714e+00 -1.727112e+00 2.116964e+00 -8.717797e-01 -4.052307e-01 -5.603517e-03 -3.800917e-01 1.789336e+00 1.669994e-01 -1.928410e+00 -5.679826e-01 -8.228028e-01 -2.510228e-01 -5.703731e-02 -6.994194e-01 4.433485e-02 1.087140e-01 6.963154e-02 6.379799e-01 1.641939e-01 5.581270e+00
<VARIANCE> 25
 2.149214e+01 2.846243e+01 2.240342e+01 2.211512e+01 2.527600e+01 2.481974e+01 3.194967e+01 2.944290e+01 3.013604e+01 2.162658e+01 2.069674e+01 1.903026e+01 4.399005e+00 3.020406e+00 3.694317e+00 4.219778e+00 3.358841e+00 4.754945e+00 3.578423e+00 3.709828e+00 4.073337e+00 3.195297e+00 3.078395e+00 2.743845e+00 6.868140e+00
<GCONST> 1.016293e+02
<STATE> 4
<MEAN> 25
 2.167388e-01 -2.085896e+00 -4.507946e+00 -2.919398e+00 5.098926e-01 2.856108e-01 1.919732e-01 -1.910156e+00 1.219371e-01 6.321248e-01 1.893753e+00 5.800786e-01 2.997376e+00 -2.218945e+00 -9.487670e-01 -3.164920e+00 -1.279338e+00 2.143893e+00 -1.199179e+00 -1.279124e-01 4.008262e-01 2.852835e-01 9.565832e-01 -1.331462e+00 6.716284e+00
<VARIANCE> 25
 4.520942e+01 2.817402e+01 2.630796e+01 6.214310e+01 2.904894e+01 5.931334e+01 3.082284e+01 2.869747e+01 2.825891e+01 2.416508e+01 2.455093e+01 2.446040e+01 3.937908e+00 6.352754e+00 6.242126e+00 7.552804e+00 5.659497e+00 8.722498e+00 5.991527e+00 5.982039e+00 6.088907e+00 4.532674e+00 4.571888e+00 4.846547e+00 8.832146e+00
<GCONST> 1.108025e+02
<TRANSP> 5
 0.000000e+00 1.000000e+00 0.000000e+00 0.000000e+00 0.000000e+00
 0.000000e+00 7.523722e-01 2.476278e-01 0.000000e+00 0.000000e+00
 0.000000e+00 0.000000e+00 3.822888e-01 6.177112e-01 0.000000e+00
 0.000000e+00 0.000000e+00 0.000000e+00 4.156145e-01 5.843855e-01
 0.000000e+00 0.000000e+00 0.000000e+00 0.000000e+00 0.000000e+00
<ENDHMM>
~h "Q"
<BEGINHMM>
<NUMSTATES> 5
<STATE> 2
<MEAN> 25
 -4.270982e+00 -2.197962e-01 -4.364965e+00 1.018492e+00 4.409740e+00 -1.430181e+00 5.020687e-01 -1.855499e+00 2.612786e-01 2.334873e+00 -1.888854e-01 8.362174e-01 -2.380029e-01 -4.775635e-01 -9.362600e-01 -3.364843e-01 7.589145e-01 2.040235e-01 2.100682e-01 1.524677e-01 4.109456e-02 2.880146e-01 -2.901103e-01 1.972429e-01 4.597740e-01
<VARIANCE> 25
 4.640822e+01 6.202038e+01 6.365263e+01 4.499238e+01 5.979031e+01 7.926492e+01 6.367881e+01 5.632238e+01 4.310807e+01 4.319388e+01 3.882786e+01 3.627080e+01 5.080585e+00 7.251410e+00 6.018742e+00 5.310814e+00 6.654972e+00 6.400009e+00 5.134578e+00 5.384007e+00 4.379577e+00 4.390924e+00 3.902317e+00 3.344443e+00 1.564126e+01
<GCONST> 1.157176e+02
<STATE> 3
<MEAN> 25
 -3.957954e+00 3.422463e-01 -4.997416e+00 -7.421023e-01 3.063363e+00 -1.451562e+00 1.256379e+00 -1.493678e+00 -1.040891e+00 4.282385e+00 -9.881198e-01 8.030931e-01 3.045716e-02 5.464602e-01 1.834658e-02 1.606151e-01 -1.080020e-01 1.108698e-01 4.563196e-01 4.123311e-01 -3.170318e-01 -4.292853e-01 4.526294e-02 8.274858e-02 -1.300136e+00
<VARIANCE> 25
 3.107957e+01 3.607051e+01 6.345166e+01 4.887530e+01 5.251962e+01 5.807701e+01 5.327203e+01 4.828497e+01 4.596122e+01 3.092068e+01 3.083428e+01 3.362762e+01 2.026726e+00 2.442969e+00 2.710292e+00 2.485430e+00 3.386980e+00 2.341584e+00 2.733291e+00 2.650890e+00 2.823662e+00 2.621193e+00 2.309661e+00 2.429495e+00 6.548853e+00
<GCONST> 1.042512e+02
<STATE> 4
<MEAN> 25
 -3.619427e+00 1.926883e+00 -2.189209e+00 2.739328e+00 1.995470e+00 -2.435998e+00 2.947320e+00 -9.010634e-01 -2.056414e+00 1.455052e-01 -2.102068e-01 2.042036e+00 -1.262699e-02 5.221496e-02 6.176798e-02 8.453076e-03 1.104086e-01 9.741806e-02 6.655218e-02 1.641948e-01 2.918237e-02 -1.317906e-01 -8.391475e-02 -6.587244e-02 -3.423500e-02
<VARIANCE> 25
 1.487427e+01 2.969418e+01 2.616732e+01 2.458877e+01 2.336695e+01 2.714533e+01 2.877581e+01 2.885719e+01 2.347569e+01 2.452989e+01 2.145065e+01 1.747716e+01 7.332050e-01 1.225168e+00 1.462621e+00 1.329037e+00 1.517039e+00 1.653990e+00 1.667002e+00 2.059981e+00 1.983596e+00 1.856387e+00 1.743191e+00 1.680526e+00 1.134699e+00
<GCONST> 8.917708e+01
<TRANSP> 5
 0.000000e+00 1.000000e+00 0.000000e+00 0.000000e+00 0.000000e+00
 0.000000e+00 7.927658e-01 2.072343e-01 0.000000e+00 0.000000e+00
 0.000000e+00 0.000000e+00 6.690344e-01 3.309656e-01 0.000000e+00
 0.000000e+00 0.000000e+00 0.000000e+00 8.354639e-01 1.645362e-01
 0.000000e+00 0.000000e+00 0.000000e+00 0.000000e+00 0.000000e+00
<ENDHMM>
~h "R"
<BEGINHMM>
<NUMSTATES> 5
<STATE> 2
<MEAN> 25
 6.154347e+00 -6.018024e+00 -4.715688e+00 -4.850678e-01 -3.504490e+00 -9.606838e-01 -5.101497e+00 3.529539e-01 7.003489e+00 2.514079e+00 5.292647e-02 -2.947232e+00 5.167375e-01 -2.666912e-02 4.850450e-02 1.796043e+00 -4.266504e-01 -3.091985e-01 -7.166935e-01 -5.238554e-01 6.966933e-01 -1.981384e-01 2.398407e-01 1.836034e-01 -9.191638e-01
<VARIANCE> 25
 1.919712e+01 2.587926e+01 4.111961e+01 3.903176e+01 4.609167e+01 4.931911e+01 5.452471e+01 7.374189e+01 5.241032e+01 4.222277e+01 4.118742e+01 3.780946e+01 2.323539e+00 2.379021e+00 3.427115e+00 5.559593e+00 5.235332e+00 5.292719e+00 5.223576e+00 5.325092e+00 5.359734e+00 5.125995e+00 4.710887e+00 3.621685e+00 3.583138e+00
<GCONST> 1.093476e+02
<STATE> 3
<MEAN> 25
 7.195675e+00 -5.516797e+00 -3.921520e+00 3.197406e+00 -4.158397e+00 -1.620878e+00 -6.824573e+00 -6.084008e-01 7.233353e+00 2.492752e+00 9.948159e-01 -2.792953e+00 -3.768678e-02 3.263814e-01 6.182773e-01 6.726258e-01 3.994907e-01 -4.068514e-01 -2.204901e-01 -2.545766e-02 -7.655700e-01 -1.142815e-01 1.245792e-01 5.135212e-01 -1.036293e+00
<VARIANCE> 25
 1.521224e+01 2.165195e+01 4.298419e+01 3.420219e+01 5.193313e+01 4.702554e+01 5.146949e+01 6.658965e+01 5.180443e+01 4.510478e+01 3.820861e+01 3.398462e+01 1.854206e+00 2.146915e+00 3.037674e+00 3.080423e+00 5.022267e+00 4.634953e+00 4.457584e+00 4.979166e+00 4.820710e+00 4.035053e+00 3.832401e+00 3.314493e+00 2.854522e+00
<GCONST> 1.063265e+02
<STATE> 4
<MEAN> 25
 4.046031e+00 -3.391615e+00 -2.078911e+00 3.271204e+00 6.060631e-02 -2.392579e+00 -4.055161e+00 4.110431e-01 3.737464e+00 1.285183e+00 7.712886e-02 -5.664529e-01 -3.046533e-01 3.017491e-01 4.717057e-01 -1.371084e-01 1.129759e-01 5.250368e-03 3.157011e-01 1.046048e-01 -8.187112e-01 -2.189520e-01 7.604234e-02 3.321137e-01 -6.065136e-01
<VARIANCE> 25
 3.483083e+01 2.791855e+01 5.172161e+01 3.490403e+01 5.391600e+01 5.451666e+01 5.791314e+01 5.649218e+01 4.736892e+01 4.277227e+01 4.122808e+01 3.181766e+01 2.312626e+00 2.615108e+00 2.920360e+00 2.315132e+00 3.923576e+00 3.476433e+00 3.589677e+00 3.689118e+00 3.933393e+00 2.990187e+00 2.937044e+00 2.591992e+00 3.141878e+00
<GCONST> 1.057440e+02
<TRANSP> 5
 0.000000e+00 1.000000e+00 0.000000e+00 0.000000e+00 0.000000e+00
 0.000000e+00 3.580636e-01 6.419364e-01 0.000000e+00 0.000000e+00
 0.000000e+00 0.000000e+00 3.799441e-01 6.200559e-01 0.000000e+00
 0.000000e+00 0.000000e+00 0.000000e+00 5.780416e-01 4.219585e-01
 0.000000e+00 0.000000e+00 0.000000e+00 0.000000e+00 0.000000e+00
<ENDHMM>
~h "S"
<BEGINHMM>
<NUMSTATES> 5
<STATE> 2
<MEAN> 25
 -7.697472e+00 6.352198e+00 3.249321e-01 1.992020e+00 5.608508e+00 -4.732912e+00 1.574825e+00 2.387231e+00 8.063495e-01 2.480489e-01 -1.107014e+00 2.161385e+00 -4.684442e+00 1.878848e+00 -7.328748e-01 4.897625e-01 1.645415e+00 -3.086171e-01 1.368344e+00 7.906352e-01 1.747138e-01 -2.748444e-01 5.407383e-01 7.542231e-01 -3.499483e-01
<VARIANCE> 25
 6.889551e+01 4.333436e+01 4.385478e+01 3.517239e+01 4.505439e+01 4.143271e+01 6.911651e+01 4.850675e+01 4.396905e+01 3.193792e+01 3.515732e+01 2.744862e+01 3.090591e+00 5.402218e+00 4.298138e+00 4.454637e+00 5.509841e+00 4.506240e+00 5.472801e+00 5.211201e+00 4.127656e+00 3.543319e+00 3.524703e+00 2.786673e+00 2.986974e+00
<GCONST> 1.094501e+02
<STATE> 3
<MEAN> 25
 -2.264084e+01 7.052712e+00 -4.464714e+00 1.349861e+00 7.155991e+00 -3.577408e+00 4.242760e+00 3.735336e+00 1.661311e+00 7.769114e-01 1.937169e+00 4.426942e+00 -6.362534e-01 -5.383986e-01 -3.960190e-01 -2.195413e-01 -1.756511e-01 5.092525e-02 5.256509e-02 5.717572e-02 1.182969e-01 9.597175e-02 1.694079e-01 1.852272e-01 -2.421376e-01
<VARIANCE> 25
 1.540670e+01 2.356337e+01 3.587978e+01 3.484183e+01 3.651378e+01 3.869570e+01 4.878076e+01 3.679485e+01 3.752732e+01 2.378087e+01 2.560535e+01 2.126082e+01 2.609026e+00 1.412600e+00 1.731969e+00 1.404890e+00 1.630894e+00 1.741355e+00 1.865885e+00 1.883743e+00 1.889919e+00 1.729227e+00 1.659683e+00 1.442642e+00 8.649704e-01
<GCONST> 9.321882e+01
<STATE> 4
<MEAN> 25
 -1.475683e+01 3.564121e+00 -3.293644e+00 4.712587e-01 4.842624e+00 -4.816896e+00 1.926952e+00 2.935289e+00 2.113894e+00 4.314256e-01 8.206355e-02 3.035026e+00 4.517616e+00 -5.523275e-01 1.060886e+00 -2.552425e-01 -1.170611e+00 9.041560e-02 -1.536502e+00 -1.006781e+00 -3.313490e-02 -6.125032e-02 -7.370291e-01 -1.150024e+00 1.569009e-01
<VARIANCE> 25
 6.759490e+01 3.068923e+01 4.135036e+01 3.264172e+01 3.710601e+01 4.061063e+01 5.868156e+01 4.105821e+01 3.761282e+01 2.693588e+01 2.893317e+01 2.597730e+01 6.624383e+00 3.995703e+00 4.764301e+00 4.095830e+00 3.778329e+00 4.491791e+00 5.418461e+00 4.907517e+00 4.577935e+00 2.955126e+00 3.015125e+00 2.776705e+00 6.246500e+00
<GCONST> 1.083609e+02
<TRANSP> 5
 0.000000e+00 1.000000e+00 0.000000e+00 0.000000e+00 0.000000e+00
 0.000000e+00 7.209899e-01 2.790101e-01 0.000000e+00 0.000000e+00
 0.000000e+00 0.000000e+00 8.492203e-01 1.507797e-01 0.000000e+00
 0.000000e+00 0.000000e+00 0.000000e+00 7.069306e-01 2.930694e-01
 0.000000e+00 0.000000e+00 0.000000e+00 0.000000e+00 0.000000e+00
<ENDHMM>
~h "T"
<BEGINHMM>
<NUMSTATES> 5
<STATE> 2
<MEAN> 25
 4.419708e-01 4.480819e+00 -1.554773e+00 1.167060e+00 1.665840e+00 -3.469241e+00 -5.639201e-01 -1.233931e+00 2.467653e+00 1.623811e+00 -1.917048e+00 -1.201954e+00 -9.452940e-01 2.447974e-01 -1.870323e-01 2.069997e-01 7.284104e-02 -3.165800e-02 6.843419e-01 7.522621e-02 -2.120111e-01 -2.241428e-01 9.715075e-02 4.331330e-01 -2.077720e+00
<VARIANCE> 25
 3.084684e+01 2.479842e+01 3.485009e+01 3.125584e+01 3.419390e+01 3.486062e+01 4.586325e+01 3.941558e+01 4.096321e+01 3.107977e+01 3.255592e+01 2.754015e+01 2.071788e+00 2.742477e+00 2.176351e+00 2.627432e+00 3.096497e+00 2.617043e+00 3.002178e+00 2.814792e+00 2.715846e+00 2.348652e+00 2.345258e+00 2.121647e+00 6.816802e+00
<GCONST> 1.011954e+02
<STATE> 3
<MEAN> 25
 -3.893628e+00 3.846902e+00 -8.199487e-01 2.313293e+00 1.906960e+00 -3.172220e+00 1.698875e+00 -1.133617e+00 2.116638e-01 2.210973e-01 -8.240395e-01 1.249740e+00 -1.837012e+00 -2.237075e+00 -6.251553e-01 -1.106635e+00 3.917921e-01 -4.191414e-01 3.778995e-02 6.082909e-01 -5.610307e-02 -1.555448e-01 4.469249e-01 6.852587e-01 4.543788e+00
<VARIANCE> 25
 2.736835e+01 2.999913e+01 2.995695e+01 2.589343e+01 3.017484e+01 2.918364e+01 3.674693e+01 3.478218e+01 3.455526e+01 2.438587e+01 2.637984e+01 2.123000e+01 2.962078e+00 3.344024e+00 3.998035e+00 3.629496e+00 3.828495e+00 4.135040e+00 4.136166e+00 4.340675e+00 4.673625e+00 3.122529e+00 3.546849e+00 2.886111e+00 9.200437e+00
<GCONST> 1.041531e+02
<STATE> 4
<MEAN> 25
 -6.777783e+00 -2.974795e+00 -3.361976e+00 -2.188786e+00 1.975720e+00 -5.016916e+00 2.274842e-01 7.370555e-01 1.486316e+00 4.514995e-01 -4.370648e-01 1.666966e+00 1.633154e+00 -1.159774e+00 -8.016450e-02 -1.497620e+00 -7.001679e-01 2.598037e-01 -1.737968e+00 1.644385e-02 7.067102e-01 2.806636e-01 -1.971558e-02 -1.031248e+00 6.134405e+00
<VARIANCE> 25
 3.012535e+01 2.562639e+01 2.755357e+01 3.020147e+01 3.260001e+01 3.620958e+01 4.111165e+01 3.328534e+01 3.685042e+01 2.698291e+01 2.805162e+01 2.679016e+01 4.913895e+00 4.819054e+00 6.219046e+00 5.500620e+00 5.028030e+00 5.858508e+00 6.271862e+00 6.252695e+00 7.385068e+00 3.692700e+00 4.517974e+00 4.000746e+00 1.168567e+01
<GCONST> 1.095470e+02
<TRANSP> 5
 0.000000e+00 1.000000e+00 0.000000e+00 0.000000e+00 0.000000e+00
 0.000000e+00 7.503040e-01 2.496960e-01 0.000000e+00 0.000000e+00
 0.000000e+00 0.000000e+00 3.998668e-01 6.001332e-01 0.000000e+00
 0.000000e+00 0.000000e+00 0.000000e+00 4.785539e-01 5.214461e-01
 0.000000e+00 0.000000e+00 0.000000e+00 0.000000e+00 0.000000e+00
<ENDHMM>
~h "U"
<BEGINHMM>
<NUMSTATES> 5
<STATE> 2
<MEAN> 25
 6.397772e+00 4.199654e+00 -1.357364e+00 -3.711826e+00 -3.920251e+00 3.210191e+00 -8.457334e+00 -5.303967e+00 -3.045746e+00 2.127155e-01 3.433922e+00 6.325508e-01 2.192533e+00 1.070761e+00 -2.336732e-01 -2.412931e+00 -1.945887e+00 2.449956e+00 -1.445107e+00 -1.097776e+00 -1.061646e+00 -1.117421e-01 1.494778e+00 -2.496327e-03 1.250778e+00
<VARIANCE> 25
 2.424683e+01 3.505274e+01 3.186014e+01 7.031253e+01 4.883764e+01 5.002129e+01 7.643052e+01 6.824382e+01 5.018588e+01 4.601924e+01 3.866813e+01 3.143473e+01 4.276854e+00 3.244972e+00 4.657278e+00 5.264535e+00 5.864594e+00 4.645851e+00 6.688443e+00 7.689455e+00 5.657368e+00 5.561289e+00 4.184107e+00 3.702462e+00 3.836938e+00
<GCONST> 1.122231e+02
<STATE> 3
<MEAN> 25
 9.486956e+00 7.205739e+00 -2.156649e+00 -1.086775e+01 -7.822048e+00 9.326710e+00 -7.984994e+00 -4.735784e+00 -5.639886e+00 -2.384157e+00 5.269378e+00 1.206399e+00 1.495299e-01 9.543938e-02 -1.503765e-01 -5.860673e-01 -1.153515e-01 5.255989e-01 1.648332e-01 -1.440951e-02 -1.636051e-01 -6.872811e-02 2.133230e-01 1.548507e-01 -9.293356e-03
<VARIANCE> 25
 1.064452e+01 3.397064e+01 2.424113e+01 5.375542e+01 3.950000e+01 3.877919e+01 5.773790e+01 7.150275e+01 5.233974e+01 5.222865e+01 4.418312e+01 3.906683e+01 4.555518e-01 1.970952e+00 1.124268e+00 2.778218e+00 2.262184e+00 2.290126e+00 2.915109e+00 3.652718e+00 2.977353e+00 3.162617e+00 2.728457e+00 2.215581e+00 1.298482e+00
<GCONST> 9.938123e+01
<STATE> 4
<MEAN> 25
 8.201294e+00 5.545486e+00 -2.041287e+00 -6.441236e+00 -4.062437e+00 6.124464e+00 -6.950104e+00 -6.316538e+00 -4.290942e+00 6.583898e-01 4.506545e+00 8.759116e-01 -5.808369e-01 -4.658468e-01 5.370978e-01 1.866842e+00 1.113434e+00 -1.541465e+00 6.309757e-01 7.153413e-02 8.834911e-01 5.589657e-01 -9.275678e-01 -4.571375e-01 -1.274799e+00
<VARIANCE> 25
 1.427831e+01 4.009593e+01 3.214257e+01 6.419431e+01 4.880769e+01 4.967484e+01 8.204659e+01 7.095795e+01 5.460764e+01 5.572646e+01 4.713293e+01 3.872553e+01 1.354487e+00 3.094916e+00 2.767476e+00 4.082476e+00 4.490905e+00 3.884770e+00 5.527659e+00 5.377790e+00 4.681559e+00 4.801492e+00 4.237974e+00 3.705232e+00 4.202600e+00
<GCONST> 1.093330e+02
<TRANSP> 5
 0.000000e+00 1.000000e+00 0.000000e+00 0.000000e+00 0.000000e+00
 0.000000e+00 5.546263e-01 4.453737e-01 0.000000e+00 0.000000e+00
 0.000000e+00 0.000000e+00 7.495314e-01 2.504686e-01 0.000000e+00
 0.000000e+00 0.000000e+00 0.000000e+00 7.006832e-01 2.993168e-01
 0.000000e+00 0.000000e+00 0.000000e+00 0.000000e+00 0.000000e+00
<ENDHMM>
~h "V"
<BEGINHMM>
<NUMSTATES> 5
<STATE> 2
<MEAN> 25
 -1.832648e+00 2.677649e+00 -2.785992e-01 3.178013e+00 3.201700e+00 1.555343e+00 2.010957e+00 4.094706e-01 -2.087681e-01 7.560943e-01 6.505507e-01 1.665672e+00 -3.906543e+00 2.186804e-02 2.547350e-02 1.564323e+00 1.123329e+00 -8.325794e-01 5.376557e-01 6.950051e-01 8.886245e-01 3.580527e-02 -3.064097e-01 4.776013e-01 -1.212043e+00
<VARIANCE> 25
 4.300896e+01 1.900030e+01 3.818901e+01 4.692872e+01 3.296161e+01 4.335637e+01 3.294534e+01 3.733522e+01 3.220134e+01 2.368649e+01 2.498092e+01 2.089577e+01 2.352963e+00 3.969386e+00 3.888195e+00 4.886550e+00 5.407903e+00 5.330366e+00 4.507757e+00 4.939332e+00 3.823717e+00 3.528846e+00 3.547368e+00 2.619961e+00 2.347012e+00
<GCONST> 1.047458e+02
<STATE> 3
<MEAN> 25
 -1.375763e+01 -2.486421e+00 -2.864311e+00 4.205265e+00 2.293019e+00 -1.818449e+00 6.940175e-01 1.150851e+00 1.222833e+00 1.394480e+00 8.809847e-01 2.841267e+00 -6.615428e-01 -6.161456e-01 -3.044297e-01 -5.962984e-02 -1.101857e-01 -1.847319e-01 -1.301719e-01 -4.937945e-02 2.243974e-03 4.050207e-02 9.772961e-03 4.046925e-02 -7.499473e-02
<VARIANCE> 25
 1.821672e+01 2.000424e+01 2.785714e+01 2.210767e+01 2.580321e+01 2.617323e+01 2.924179e+01 2.816680e+01 2.450257e+01 2.100313e+01 2.027832e+01 1.825563e+01 2.307819e+00 1.428732e+00 1.692621e+00 1.628006e+00 1.757962e+00 1.897743e+00 1.788026e+00 1.741477e+00 1.773530e+00 1.688694e+00 1.611603e+00 1.398104e+00 1.507589e+00
<GCONST> 9.052185e+01
<STATE> 4
<MEAN> 25
 -8.524526e+00 -3.021013e+00 -2.955591e+00 3.183861e+00 2.424075e+00 -1.572457e+00 6.998020e-01 1.156114e+00 1.184636e+00 1.220190e+00 4.236553e-01 1.576837e+00 5.032928e+00 4.874904e-01 7.330531e-01 -1.926626e+00 -1.536522e+00 3.771811e-01 -4.753645e-01 -6.735764e-02 -6.845880e-01 -5.458218e-01 3.262909e-01 -1.056183e+00 2.035974e+00
<VARIANCE> 25
 6.088976e+01 2.027243e+01 3.528772e+01 4.195636e+01 2.793841e+01 3.843856e+01 2.677250e+01 2.928117e+01 2.393510e+01 2.053447e+01 1.899315e+01 1.943125e+01 4.404611e+00 4.374619e+00 6.873947e+00 7.508008e+00 4.316731e+00 7.311079e+00 4.187808e+00 4.670996e+00 5.039905e+00 3.103600e+00 3.531606e+00 3.312700e+00 3.863299e+00
<GCONST> 1.060058e+02
<TRANSP> 5
 0.000000e+00 1.000000e+00 0.000000e+00 0.000000e+00 0.000000e+00
 0.000000e+00 6.659999e-01 3.340001e-01 0.000000e+00 0.000000e+00
 0.000000e+00 0.000000e+00 8.527277e-01 1.472723e-01 0.000000e+00
 0.000000e+00 0.000000e+00 0.000000e+00 5.878525e-01 4.121474e-01
 0.000000e+00 0.000000e+00 0.000000e+00 0.000000e+00 0.000000e+00
<ENDHMM>
~h "W"
<BEGINHMM>
<NUMSTATES> 5
<STATE> 2
<MEAN> 25
 8.194880e+00 1.737762e+00 -3.347848e+00 -9.065056e+00 -2.863037e+00 6.822189e+00 -3.145046e+00 -1.822067e+00 -1.920482e+00 8.107345e-01 3.905981e+00 -3.635298e-01 1.515289e+00 1.333532e+00 1.682901e-01 -1.856521e+00 -1.424141e+00 1.124129e+00 -1.799448e-01 -2.117136e-01 -1.117089e+00 -7.472314e-01 7.419053e-01 8.657014e-01 1.422252e-01
<VARIANCE> 25
 2.830269e+01 6.058128e+01 3.532684e+01 8.273315e+01 4.282361e+01 5.952859e+01 6.408314e+01 4.652760e+01 5.110844e+01 4.738446e+01 4.419595e+01 3.812877e+01 2.310123e+00 2.478088e+00 2.519568e+00 4.012116e+00 4.010196e+00 4.392015e+00 3.964609e+00 4.160685e+00 3.597088e+00 3.495806e+00 3.495551e+00 3.577521e+00 4.510995e+00
<GCONST> 1.087340e+02
<STATE> 3
<MEAN> 25
 1.188098e+01 5.139456e+00 -2.039123e+00 -1.641086e+01 -8.884977e+00 1.004953e+01 -4.172885e+00 -3.588360e-01 -2.361727e+00 -2.979385e+00 4.212384e+00 2.095834e+00 -1.786332e-02 -4.650936e-01 -2.509457e-01 -5.529306e-01 -3.607041e-02 4.870948e-01 3.325900e-02 -1.603213e-01 1.911991e-01 1.556155e-01 3.878743e-01 1.646104e-01 5.167701e-01
<VARIANCE> 25
 9.730418e+00 3.538890e+01 2.078186e+01 4.840898e+01 3.476974e+01 3.904627e+01 3.919718e+01 4.307301e+01 4.529838e+01 3.568612e+01 3.630225e+01 2.954760e+01 3.951311e-01 2.484725e+00 1.326737e+00 2.292336e+00 2.074527e+00 2.551578e+00 2.028205e+00 2.013720e+00 1.988902e+00 2.452543e+00 2.542646e+00 1.812690e+00 1.857119e+00
<GCONST> 9.561251e+01
<STATE> 4
<MEAN> 25
 9.230688e+00 -3.767254e+00 -6.777222e+00 -1.594099e+01 -2.895081e+00 1.286023e+01 -2.818690e+00 -3.311416e+00 1.200156e+00 2.432137e+00 6.960191e+00 -2.546672e+00 -9.367764e-01 -2.004314e+00 -6.153471e-01 1.329621e+00 1.743130e+00 -6.038249e-01 -6.898852e-02 9.777518e-02 1.488176e+00 9.411404e-01 -9.740425e-01 -2.239288e+00 1.300432e+00
<VARIANCE> 25
 1.119058e+01 3.301283e+01 2.634181e+01 4.776821e+01 3.362914e+01 4.282667e+01 5.331097e+01 3.620219e+01 5.018168e+01 4.254486e+01 4.690247e+01 4.535340e+01 3.218974e-01 1.230167e+00 1.483126e+00 2.330010e+00 2.186899e+00 3.493910e+00 2.595842e+00 2.900733e+00 2.570293e+00 2.790866e+00 3.263938e+00 2.441422e+00 6.638777e-01
<GCONST> 9.716525e+01
<TRANSP> 5
 0.000000e+00 1.000000e+00 0.000000e+00 0.000000e+00 0.000000e+00
 0.000000e+00 6.942968e-01 3.057032e-01 0.000000e+00 0.000000e+00
 0.000000e+00 0.000000e+00 7.829587e-01 2.170412e-01 0.000000e+00
 0.000000e+00 0.000000e+00 0.000000e+00 6.933475e-01 3.066525e-01
 0.000000e+00 0.000000e+00 0.000000e+00 0.000000e+00 0.000000e+00
<ENDHMM>
~h "X"
<BEGINHMM>
<NUMSTATES> 5
<STATE> 2
<MEAN> 25
 -1.338332e+01 -3.728842e+00 -4.174009e+00 6.536348e+00 2.703839e-01 -8.506300e+00 3.481756e+00 2.608782e+00 2.359546e+00 3.368918e-01 3.878615e+00 3.793453e+00 -2.690376e+00 3.857313e-01 -1.148391e+00 8.230724e-01 1.609866e+00 3.130914e-01 2.576906e-01 3.713444e-01 8.147894e-01 -2.739277e-01 8.182617e-02 7.326474e-01 1.308861e+00
<VARIANCE> 25
 7.964880e+01 1.746416e+01 5.529622e+01 3.011977e+01 2.910298e+01 2.916296e+01 4.020289e+01 5.102316e+01 3.831905e+01 2.784289e+01 2.289590e+01 3.597919e+01 6.579686e+00 4.423136e+00 5.585443e+00 2.329196e+00 4.685567e+00 4.045271e+00 4.353539e+00 7.240223e+00 4.633453e+00 3.926107e+00 3.925920e+00 3.399146e+00 7.145628e+00
<GCONST> 1.084467e+02
<STATE> 3
<MEAN> 25
 -2.114491e+01 5.174968e+00 -4.446198e+00 4.310931e+00 6.324352e+00 -5.525351e+00 4.030130e+00 3.701949e+00 3.781139e+00 -5.024821e-01 3.223259e+00 4.019088e+00 7.567932e-01 4.486233e-01 3.007307e-01 -4.706229e-01 2.033435e-01 1.633708e-01 -1.653188e-01 -3.828259e-01 -4.722811e-01 -1.596392e-01 -6.204125e-02 -1.425790e-02 -1.546886e+00
<VARIANCE> 25
 3.206466e+01 1.771146e+01 6.085740e+01 1.833455e+01 1.631290e+01 2.551308e+01 3.995833e+01 2.923738e+01 2.838909e+01 1.751491e+01 1.542842e+01 2.214463e+01 1.564791e+00 1.608338e+00 2.436645e+00 1.771586e+00 1.831348e+00 2.427595e+00 2.945614e+00 1.660408e+00 2.888912e+00 1.356430e+00 1.635156e+00 1.516235e+00 3.180342e+00
<GCONST> 9.333900e+01
<STATE> 4
<MEAN> 25
 -7.671821e+00 9.092743e-01 -3.314546e+00 4.341877e+00 3.918537e+00 -2.740390e+00 3.260041e+00 -9.809161e-01 -3.161333e-01 -2.172424e+00 2.594220e+00 1.314979e+00 3.148105e-01 -3.412876e-02 2.653535e-01 1.829628e-01 -9.043260e-02 3.634585e-01 -9.982131e-02 5.321030e-02 -4.136314e-02 6.987994e-02 -7.825192e-03 -1.048348e-01 -5.011123e-01
<VARIANCE> 25
 2.875936e+01 3.433811e+01 1.845136e+01 1.246706e+01 2.034663e+01 1.321512e+01 2.174368e+01 3.255143e+01 1.226714e+01 1.599661e+01 1.454239e+01 2.138241e+01 9.740858e-01 1.091875e+00 9.194680e-01 8.884165e-01 1.225430e+00 1.789909e+00 1.128917e+00 1.320779e+00 1.160524e+00 1.159119e+00 1.022625e+00 1.718706e+00 9.880531e-01
<GCONST> 8.334852e+01
<TRANSP> 5
 0.000000e+00 1.000000e+00 0.000000e+00 0.000000e+00 0.000000e+00
 0.000000e+00 8.646861e-01 1.353139e-01 0.000000e+00 0.000000e+00
 0.000000e+00 0.000000e+00 8.968589e-01 1.031411e-01 0.000000e+00
 0.000000e+00 0.000000e+00 0.000000e+00 8.828989e-01 1.171011e-01
 0.000000e+00 0.000000e+00 0.000000e+00 0.000000e+00 0.000000e+00
<ENDHMM>
~h "Y"
<BEGINHMM>
<NUMSTATES> 5
<STATE> 2
<MEAN> 25
 1.396171e-01 -1.150526e+00 9.411954e+00 -2.170546e+00 -7.759237e+00 -4.923335e+00 -2.267711e+00 3.886724e+00 -2.954417e+00 -4.004644e-01 2.605096e+00 1.043272e+00 -6.810053e-02 1.019762e+00 2.778165e+00 -1.561446e-02 -1.593832e+00 -4.170418e-01 -1.029065e+00 -7.865487e-01 -1.585205e+00 -5.186041e-02 1.372149e+00 5.764260e-01 5.852954e-01
<VARIANCE> 25
 3.098340e+01 5.812672e+01 6.182425e+01 4.024053e+01 6.155541e+01 5.196353e+01 5.337076e+01 6.868587e+01 5.253797e+01 4.071564e+01 3.785933e+01 2.708364e+01 2.351455e+00 2.563194e+00 3.525029e+00 2.812117e+00 4.105909e+00 3.721086e+00 4.157869e+00 4.648665e+00 3.674288e+00 4.011092e+00 3.095681e+00 2.716782e+00 4.768745e+00
<GCONST> 1.083005e+02
<STATE> 3
<MEAN> 25
 3.017727e-01 2.224362e+00 1.824458e+01 -1.720505e+00 -1.227992e+01 -4.111508e+00 -6.948446e+00 -1.037056e+00 -8.240479e+00 -9.008471e-01 6.063734e+00 2.084006e+00 1.344474e-01 -6.338056e-01 -5.308992e-01 -2.087793e-01 -5.196180e-01 -4.357368e-01 6.072313e-02 5.118718e-01 5.204130e-01 2.574693e-01 2.958457e-01 2.348798e-01 6.927723e-01
<VARIANCE> 25
 1.032172e+01 3.074141e+01 3.924729e+01 3.916628e+01 2.791978e+01 4.156980e+01 3.484856e+01 4.095324e+01 4.414161e+01 5.886139e+01 3.219548e+01 3.105466e+01 5.893536e-01 2.217696e+00 3.142689e+00 1.506474e+00 2.165697e+00 2.021738e+00 2.213696e+00 3.429720e+00 3.028772e+00 1.991987e+00 1.512967e+00 1.346783e+00 2.019105e+00
<GCONST> 9.667296e+01
<STATE> 4
<MEAN> 25
 2.441316e+00 -6.195045e+00 7.272262e+00 -5.124851e+00 -1.238378e+01 -7.541741e+00 -1.927495e+00 9.240218e+00 8.689749e-01 -4.169778e-01 3.662697e+00 1.292968e+00 4.562235e-01 -1.510262e+00 -2.856094e+00 -2.566190e-01 1.683692e+00 6.776468e-01 1.116586e+00 1.654685e+00 1.936911e+00 -8.141448e-01 -2.077655e+00 -1.179724e+00 6.647484e-01
<VARIANCE> 25
 8.190503e+00 1.948162e+01 3.947695e+01 2.943913e+01 2.668391e+01 2.829467e+01 4.646531e+01 4.650848e+01 4.477982e+01 3.789624e+01 3.972329e+01 2.575430e+01 3.446611e-01 1.126206e+00 1.929859e+00 1.287022e+00 2.470576e+00 2.010334e+00 2.702793e+00 3.534004e+00 2.639702e+00 3.297119e+00 2.377888e+00 1.786478e+00 5.423037e-01
<GCONST> 9.357079e+01
<TRANSP> 5
 0.000000e+00 1.000000e+00 0.000000e+00 0.000000e+00 0.000000e+00
 0.000000e+00 7.397057e-01 2.602943e-01 0.000000e+00 0.000000e+00
 0.000000e+00 0.000000e+00 7.870107e-01 2.129893e-01 0.000000e+00
 0.000000e+00 0.000000e+00 0.000000e+00 7.136918e-01 2.863082e-01
 0.000000e+00 0.000000e+00 0.000000e+00 0.000000e+00 0.000000e+00
<ENDHMM>
~h "Z"
<BEGINHMM>
<NUMSTATES> 5
<STATE> 2
<MEAN> 25
 -2.452155e+00 8.467636e+00 2.509407e+00 4.393159e+00 2.605971e+00 -7.716795e+00 -3.326154e+00 -1.043146e-01 9.546132e-01 -5.570084e-01 -2.131376e+00 2.928933e+00 -2.154472e+00 2.549067e+00 -3.837186e-01 9.965357e-01 1.510378e+00 -3.320917e-01 8.627198e-01 -5.453996e-02 1.876211e-01 -2.715814e-01 1.883079e-02 4.608862e-01 -3.328269e-01
<VARIANCE> 25
 4.043009e+01 4.323569e+01 3.897878e+01 3.549798e+01 4.541361e+01 3.846088e+01 6.423489e+01 3.892097e+01 4.151812e+01 3.273877e+01 2.960396e+01 2.740331e+01 3.490686e+00 3.530518e+00 3.156557e+00 3.637366e+00 3.617609e+00 3.801251e+00 4.596985e+00 5.107647e+00 3.647798e+00 2.971509e+00 3.036691e+00 2.528381e+00 3.534814e+00
<GCONST> 1.062622e+02
<STATE> 3
<MEAN> 25
 -1.337647e+01 1.442546e+01 1.269573e+00 6.655059e+00 7.193734e+00 -5.480554e+00 4.731832e-01 1.404379e+00 6.044576e-01 -3.946891e-01 -1.038452e-01 3.782912e+00 -1.016511e+00 -1.071478e-01 1.908198e-02 9.223822e-02 2.624277e-01 2.976374e-01 2.603770e-01 1.210989e-01 -8.177397e-02 2.701596e-02 2.415283e-01 1.346912e-01 6.360769e-02
<VARIANCE> 25
 5.097866e+01 3.089317e+01 3.725236e+01 4.063266e+01 3.393010e+01 4.064719e+01 4.855826e+01 3.214215e+01 3.123230e+01 2.366563e+01 2.772861e+01 2.138612e+01 1.674727e+00 1.438429e+00 1.325428e+00 1.122695e+00 1.589281e+00 1.663623e+00 1.722350e+00 1.655599e+00 1.611160e+00 1.401343e+00 1.367306e+00 1.218779e+00 9.802264e-01
<GCONST> 9.280592e+01
<STATE> 4
<MEAN> 25
 -1.015048e+01 8.821593e+00 3.040849e+00 4.406180e+00 3.106916e+00 -6.440524e+00 -1.581178e+00 2.933545e-01 1.085436e+00 -5.392343e-01 2.163345e-01 4.835558e+00 2.595667e+00 -1.912475e+00 6.643956e-01 -7.915761e-01 -2.235756e+00 -3.792689e-01 -1.386547e+00 -5.347054e-01 2.584290e-01 9.390667e-02 5.871857e-02 -2.355799e-01 1.333713e+00
<VARIANCE> 25
 6.243299e+01 4.479489e+01 5.520421e+01 3.535585e+01 5.021954e+01 4.841187e+01 6.650775e+01 3.928262e+01 4.235679e+01 2.254825e+01 2.634063e+01 2.100423e+01 5.069057e+00 4.508267e+00 3.626888e+00 3.498338e+00 4.017911e+00 3.627976e+00 3.933321e+00 5.033014e+00 4.177845e+00 2.366174e+00 2.399906e+00 2.362206e+00 2.704693e+00
<GCONST> 1.066572e+02
<TRANSP> 5
 0.000000e+00 1.000000e+00 0.000000e+00 0.000000e+00 0.000000e+00
 0.000000e+00 7.397723e-01 2.602277e-01 0.000000e+00 0.000000e+00
 0.000000e+00 0.000000e+00 8.250103e-01 1.749897e-01 0.000000e+00
 0.000000e+00 0.000000e+00 0.000000e+00 7.692919e-01 2.307082e-01
 0.000000e+00 0.000000e+00 0.000000e+00 0.000000e+00 0.000000e+00
<ENDHMM>
~h "e"
<BEGINHMM>
<NUMSTATES> 5
<STATE> 2
<MEAN> 25
 4.802700e+00 -1.138076e+00 -1.150174e+00 -3.625310e+00 -1.924982e+00 -7.797452e-01 -6.187270e+00 -1.579375e+00 1.264796e+00 3.141063e+00 1.990472e+00 -1.322343e+00 2.194765e+00 -1.259877e+00 -1.795239e-01 -1.761322e+00 -1.390944e+00 6.415149e-01 -2.059753e+00 7.748972e-01 1.534251e+00 1.047059e+00 6.753404e-01 -1.404628e+00 2.692680e+00
<VARIANCE> 25
 2.580894e+01 2.547961e+01 3.716409e+01 5.101342e+01 4.051395e+01 6.897414e+01 5.302229e+01 4.909053e+01 5.153319e+01 3.655177e+01 4.170835e+01 2.746390e+01 6.230412e+00 3.435377e+00 6.387825e+00 5.524226e+00 6.286744e+00 6.152404e+00 6.818225e+00 8.892391e+00 7.757470e+00 5.135904e+00 5.439554e+00 4.191127e+00 4.620245e+00
<GCONST> 1.130964e+02
<STATE> 3
<MEAN> 25
 6.453765e+00 -3.949165e+00 -1.569369e+00 -5.411084e+00 -3.345213e+00 5.806577e-01 -8.696692e+00 3.714308e-01 3.705439e+00 4.422478e+00 2.643653e+00 -3.321452e+00 1.067430e+00 -9.774888e-01 -1.073927e-02 -6.033374e-01 -7.925701e-01 5.074483e-01 -1.012041e+00 6.861163e-01 1.097373e+00 5.523748e-01 1.465054e-01 -9.518028e-01 1.002852e+00
<VARIANCE> 25
 1.461493e+01 2.601391e+01 4.155804e+01 5.188149e+01 4.410291e+01 7.021275e+01 5.595366e+01 5.892327e+01 5.834996e+01 4.247769e+01 4.777694e+01 3.501874e+01 2.745227e+00 2.084177e+00 3.015071e+00 4.225682e+00 4.064118e+00 5.051036e+00 4.141044e+00 6.900535e+00 5.800480e+00 4.005724e+00 4.409796e+00 3.111075e+00 2.076997e+00
<GCONST> 1.080991e+02
<STATE> 4
<MEAN> 25
 6.115360e+00 -3.567900e+00 -9.372402e-01 -4.810794e+00 -3.789754e+00 -4.552501e-01 -9.035097e+00 1.337423e+00 4.414679e+00 4.752397e+00 2.104547e+00 -4.092398e+00 9.811580e-02 3.192344e-01 2.430235e-01 5.983250e-01 8.325990e-02 -1.030913e-01 3.933985e-01 -2.809279e-01 -1.592818e-01 -2.322678e-01 -2.586032e-01 1.386573e-01 -8.204625e-01
<VARIANCE> 25
 1.269504e+01 2.581495e+01 4.075513e+01 4.702925e+01 4.984138e+01 5.976108e+01 6.292078e+01 5.886767e+01 6.087584e+01 4.432010e+01 4.581623e+01 3.639787e+01 7.605557e-01 1.576297e+00 1.530600e+00 2.626629e+00 2.313220e+00 3.023158e+00 2.600065e+00 3.373223e+00 3.561743e+00 2.653134e+00 2.673641e+00 1.995058e+00 2.404888e+00
<GCONST> 1.013199e+02
<TRANSP> 5
 0.000000e+00 1.000000e+00 0.000000e+00 0.000000e+00 0.000000e+00
 0.000000e+00 1.485761e-01 8.514239e-01 0.000000e+00 0.000000e+00
 0.000000e+00 0.000000e+00 9.906477e-02 9.009352e-01 0.000000e+00
 0.000000e+00 0.000000e+00 0.000000e+00 6.452176e-01 3.547824e-01
 0.000000e+00 0.000000e+00 0.000000e+00 0.000000e+00 0.000000e+00
<ENDHMM>
~h "AI"
<BEGINHMM>
<NUMSTATES> 5
<STATE> 2
<MEAN> 25
 4.684664e+00 -1.236113e+01 -3.331718e+00 -5.832798e+00 -2.180848e+00 -1.011586e-01 -6.481556e-01 8.202812e+00 6.321005e+00 -2.799121e+00 -4.423197e+00 -4.777741e+00 -3.094653e-01 -3.104738e-01 1.047181e+00 2.456607e-01 -1.121692e+00 -1.197558e+00 8.900498e-01 1.469379e+00 -5.303311e-01 -7.148364e-01 6.173752e-02 7.055730e-01 2.389710e-01
<VARIANCE> 25
 9.359558e+00 1.684011e+01 4.341276e+01 2.728671e+01 4.884883e+01 5.385234e+01 4.945321e+01 5.101749e+01 4.478120e+01 3.745472e+01 3.855363e+01 2.910188e+01 4.176731e-01 1.431854e+00 1.768188e+00 1.503155e+00 2.698644e+00 2.871109e+00 2.255205e+00 2.825689e+00 2.315781e+00 2.324389e+00 2.980752e+00 2.066712e+00 4.984127e-01
<GCONST> 9.540807e+01
<STATE> 3
<MEAN> 25
 2.739291e+00 -7.433834e+00 8.090343e+00 -5.146384e+00 -1.312710e+01 -7.646264e+00 -9.669954e-02 9.254462e+00 -1.442286e+00 8.973303e-01 3.794071e+00 2.418623e-01 -2.956282e-01 1.188374e+00 1.781342e+00 7.245656e-02 -1.096539e+00 -3.047798e-01 -4.834003e-01 -1.424703e+00 -1.456779e+00 9.071713e-01 1.261924e+00 4.507446e-01 -6.123450e-01
<VARIANCE> 25
 8.723665e+00 1.827994e+01 3.832698e+01 2.492734e+01 2.471535e+01 3.074067e+01 4.201274e+01 4.731921e+01 4.145209e+01 3.684547e+01 3.871210e+01 2.293721e+01 2.782295e-01 8.841850e-01 1.464661e+00 9.042975e-01 1.972357e+00 1.422142e+00 1.954423e+00 2.309437e+00 2.044050e+00 2.020682e+00 2.239724e+00 1.262706e+00 2.317148e-01
<GCONST> 8.864182e+01
<STATE> 4
<MEAN> 25
 1.542982e+00 6.724387e-01 1.265274e+01 -1.520467e+00 -1.171111e+01 -5.946949e+00 -1.519292e+00 2.901783e-01 -5.476510e+00 1.881571e+00 3.819777e+00 4.103571e-01 7.348633e-02 7.512520e-01 -5.961303e-01 7.751985e-01 1.077715e+00 2.449264e-01 1.414708e-01 -5.115960e-01 2.051665e-01 -2.361216e-01 -5.139269e-01 -1.117938e-01 -1.789492e+00
<VARIANCE> 25
 1.567570e+01 3.882218e+01 4.711016e+01 3.649064e+01 3.996367e+01 4.754000e+01 4.716150e+01 6.182210e+01 4.854819e+01 4.750872e+01 4.022866e+01 2.834826e+01 1.280279e+00 2.106880e+00 2.833791e+00 2.229756e+00 2.960426e+00 2.569120e+00 3.195582e+00 3.544842e+00 3.321442e+00 2.629492e+00 2.202541e+00 1.916812e+00 2.471011e+00
<GCONST> 1.019216e+02
<TRANSP> 5
 0.000000e+00 1.000000e+00 0.000000e+00 0.000000e+00 0.000000e+00
 0.000000e+00 7.869838e-01 2.130162e-01 0.000000e+00 0.000000e+00
 0.000000e+00 0.000000e+00 7.986518e-01 2.013482e-01 0.000000e+00
 0.000000e+00 0.000000e+00 0.000000e+00 8.468620e-01 1.531381e-01
 0.000000e+00 0.000000e+00 0.000000e+00 0.000000e+00 0.000000e+00
<ENDHMM>
~h "AU"
<BEGINHMM>
<NUMSTATES> 5
<STATE> 2
<MEAN> 25
 5.012283e+00 -7.081712e+00 -8.067955e+00 -1.044088e+01 5.463247e-01 7.557079e+00 -3.640266e+00 2.335903e-01 6.097015e+00 2.330950e+00 -6.835344e-01 -6.616367e+00 7.315679e-01 -6.460294e-01 -7.967260e-01 -1.464820e+00 3.877493e-01 1.984188e+00 -1.709347e-01 -3.400519e-01 3.566792e-01 1.509762e-02 5.448478e-01 -9.723629e-01 1.100952e+00
<VARIANCE> 25
 1.476237e+01 2.735364e+01 2.900308e+01 4.389311e+01 3.930647e+01 5.965280e+01 5.378615e+01 5.030895e+01 4.230764e+01 3.963788e+01 4.138081e+01 3.064078e+01 2.332248e+00 2.561153e+00 2.082304e+00 3.321094e+00 3.387162e+00 4.319782e+00 3.619727e+00 4.087440e+00 3.379162e+00 3.563899e+00 4.057345e+00 3.214377e+00 3.665147e+00
<GCONST> 1.047841e+02
<STATE> 3
<MEAN> 25
 7.497656e+00 -2.740331e+00 -8.196219e+00 -1.685030e+01 -2.171193e+00 1.341587e+01 -3.352408e+00 -2.859017e+00 3.432929e+00 9.463943e-01 5.709742e+00 -3.008869e+00 3.947068e-01 1.147267e+00 3.074121e-01 -7.204952e-01 -6.931738e-01 1.444142e-01 -1.676642e-01 -2.208778e-02 -9.033238e-01 -3.258528e-01 5.777183e-01 1.170310e+00 -6.682780e-01
<VARIANCE> 25
 9.733149e+00 3.186165e+01 2.024769e+01 3.267274e+01 3.421947e+01 3.263209e+01 4.441588e+01 3.492079e+01 3.861827e+01 4.013825e+01 3.698982e+01 4.541352e+01 2.502350e-01 9.537479e-01 5.863463e-01 1.153165e+00 1.274313e+00 1.405049e+00 1.580981e+00 1.515262e+00 1.617917e+00 1.780326e+00 1.899296e+00 1.946641e+00 3.325420e-01
<GCONST> 8.821234e+01
<STATE> 4
<MEAN> 25
 9.443585e+00 6.120129e+00 -4.328885e+00 -1.381011e+01 -5.026297e+00 8.143215e+00 -4.893219e+00 -1.583090e+00 -2.633945e+00 -1.560364e-01 3.613790e+00 1.578393e+00 -2.851132e-01 3.375342e-01 5.287890e-01 1.923707e+00 4.487055e-01 -1.148260e+00 1.470881e-01 -1.578280e-01 -1.161132e-01 1.028676e-01 -5.941768e-01 -1.885092e-01 -1.575843e+00
<VARIANCE> 25
 1.478657e+01 3.823949e+01 2.779103e+01 7.066293e+01 4.753411e+01 4.728811e+01 6.682446e+01 6.086551e+01 4.733397e+01 5.712147e+01 4.117005e+01 4.011712e+01 1.291269e+00 2.682180e+00 1.825976e+00 4.115313e+00 3.763271e+00 3.468608e+00 3.764342e+00 3.733122e+00 3.337291e+00 3.536214e+00 3.175000e+00 2.806287e+00 2.122285e+00
<GCONST> 1.050863e+02
<TRANSP> 5
 0.000000e+00 1.000000e+00 0.000000e+00 0.000000e+00 0.000000e+00
 0.000000e+00 6.918041e-01 3.081960e-01 0.000000e+00 0.000000e+00
 0.000000e+00 0.000000e+00 8.535222e-01 1.464778e-01 0.000000e+00
 0.000000e+00 0.000000e+00 0.000000e+00 8.524091e-01 1.475909e-01
 0.000000e+00 0.000000e+00 0.000000e+00 0.000000e+00 0.000000e+00
<ENDHMM>
~h "NG"
<BEGINHMM>
<NUMSTATES> 5
<STATE> 2
<MEAN> 25
 8.071021e+00 -1.781521e+00 2.779706e-02 -1.672212e+00 -3.449551e+00 3.052871e+00 1.257947e-01 -3.342105e+00 -2.154484e+00 2.354702e+00 -1.047761e+00 -4.428978e+00 4.677162e-01 1.024584e+00 1.704404e+00 9.699304e-01 -1.703397e+00 3.528320e-01 8.220933e-01 -1.983368e+00 -9.433729e-01 5.747617e-01 -7.212539e-01 1.313579e+00 -1.298298e+00
<VARIANCE> 25
 9.116807e+00 2.843669e+01 4.170520e+01 4.267266e+01 4.979036e+01 4.810955e+01 4.989742e+01 5.545518e+01 5.560630e+01 4.193519e+01 4.398021e+01 4.357554e+01 5.731380e-01 1.688567e+00 2.838670e+00 3.352733e+00 3.549590e+00 4.034178e+00 4.685343e+00 4.695553e+00 5.293808e+00 3.982918e+00 4.123319e+00 3.612066e+00 6.982449e-01
<GCONST> 1.033718e+02
<STATE> 3
<MEAN> 25
 8.488551e+00 3.802670e-01 4.693874e+00 -7.980742e-01 -7.661870e+00 4.876149e+00 -3.470114e-02 -6.335910e+00 -2.848505e+00 1.393739e+00 -1.808962e+00 -8.428670e-01 2.806240e-02 3.725800e-01 3.990951e-01 3.524763e-01 -1.507554e-01 -3.797291e-02 1.282110e-01 -3.041779e-01 -2.179600e-01 5.329383e-02 -1.323137e-01 2.385871e-01 -4.700514e-01
<VARIANCE> 25
 8.598633e+00 2.180400e+01 2.864241e+01 4.572426e+01 3.725541e+01 3.804793e+01 5.235766e+01 5.049606e+01 4.582806e+01 4.248675e+01 3.839378e+01 3.615262e+01 2.573195e-01 7.639692e-01 1.073542e+00 1.117020e+00 1.368410e+00 1.322649e+00 1.576646e+00 1.592844e+00 1.608477e+00 1.483052e+00 1.397242e+00 1.349774e+00 4.699319e-01
<GCONST> 8.912226e+01
<STATE> 4
<MEAN> 25
 6.664262e+00 3.272675e+00 3.721907e+00 1.948390e+00 -3.276252e+00 2.525780e+00 2.588375e+00 -5.912626e+00 -4.460069e+00 1.906847e+00 -3.383312e+00 -9.623737e-01 -8.422526e-01 3.998267e-01 -6.200202e-01 2.294575e-01 1.344788e+00 -6.518960e-01 1.017776e-01 7.571278e-01 8.457234e-02 -1.803531e-01 1.639767e-02 -2.901141e-01 -9.721909e-01
<VARIANCE> 25
 1.960528e+01 2.989768e+01 3.301559e+01 4.484846e+01 6.507479e+01 3.976421e+01 4.858732e+01 5.425383e+01 4.696785e+01 4.935149e+01 4.335426e+01 3.654865e+01 1.334325e+00 2.451555e+00 2.639915e+00 3.144703e+00 3.781430e+00 3.296530e+00 3.513141e+00 4.118927e+00 3.915588e+00 3.316563e+00 2.882251e+00 2.961609e+00 3.604391e+00
<GCONST> 1.049598e+02
<TRANSP> 5
 0.000000e+00 1.000000e+00 0.000000e+00 0.000000e+00 0.000000e+00
 0.000000e+00 5.724839e-01 4.275161e-01 0.000000e+00 0.000000e+00
 0.000000e+00 0.000000e+00 7.469218e-01 2.530782e-01 0.000000e+00
 0.000000e+00 0.000000e+00 0.000000e+00 6.563610e-01 3.436390e-01
 0.000000e+00 0.000000e+00 0.000000e+00 0.000000e+00 0.000000e+00
<ENDHMM>
~h "NY"
<BEGINHMM>
<NUMSTATES> 5
<STATE> 2
<MEAN> 25
 5.529474e+00 4.068572e+00 8.856709e+00 -3.205372e-01 -5.970484e+00 -2.540336e+00 -2.417165e+00 -1.806774e+00 -6.936722e+00 -1.036480e+00 2.624516e+00 1.198944e+00 -2.418263e-01 -2.651026e-01 6.125144e-01 -7.352335e-01 -6.102549e-01 2.442392e-01 1.942888e-01 4.247952e-01 -2.716375e-01 -1.640761e-01 3.724047e-01 5.008554e-02 5.844911e-01
<VARIANCE> 25
 1.918210e+01 2.809774e+01 3.644086e+01 6.141177e+01 3.520272e+01 3.922661e+01 4.523818e+01 6.335532e+01 4.772828e+01 4.382337e+01 3.855120e+01 3.945179e+01 2.428919e+00 4.802103e+00 3.508348e+00 5.773561e+00 4.009297e+00 3.960916e+00 4.508584e+00 9.390028e+00 4.918354e+00 3.559212e+00 3.349119e+00 2.811074e+00 3.527663e+00
<GCONST> 1.084549e+02
<STATE> 3
<MEAN> 25
 2.769030e+00 -6.630632e+00 7.783221e+00 -5.387594e+00 -9.487614e+00 -2.357409e+00 9.636452e-01 9.673317e+00 -2.533040e+00 -5.008119e+00 9.887855e-01 1.988346e-01 2.819579e-01 -1.881791e+00 -2.050092e+00 6.568353e-01 1.150935e+00 -4.521400e-02 1.527396e-01 1.449584e+00 1.662151e+00 -1.196565e+00 -1.504245e+00 -3.636993e-01 7.003658e-01
<VARIANCE> 25
 8.327850e+00 2.164575e+01 3.348539e+01 3.054009e+01 3.237272e+01 2.811899e+01 3.356187e+01 3.992087e+01 4.407301e+01 3.678340e+01 3.279786e+01 2.875361e+01 2.829935e-01 1.213035e+00 1.148985e+00 1.186286e+00 2.393107e+00 1.953584e+00 2.066068e+00 3.000406e+00 1.939892e+00 2.226751e+00 1.708087e+00 1.877975e+00 4.943596e-01
<GCONST> 9.085698e+01
<STATE> 4
<MEAN> 25
 3.712373e+00 -7.870905e+00 4.377331e-01 -9.293099e-02 1.832020e+00 -1.422414e-01 7.751088e-01 8.972953e+00 1.401652e+00 -7.668009e+00 -4.719081e+00 -3.208741e-01 1.571449e-02 3.040023e-02 -9.635648e-01 4.673598e-01 1.217128e+00 3.646180e-01 -1.946786e-01 -4.647449e-01 4.455267e-01 1.693465e-01 -3.922802e-01 -3.236657e-01 -9.414757e-01
<VARIANCE> 25
 9.716033e+00 2.769867e+01 2.903321e+01 4.331708e+01 7.483224e+01 3.438503e+01 4.522319e+01 3.930494e+01 4.259029e+01 3.265403e+01 3.178040e+01 2.735151e+01 5.323347e-01 1.229388e+00 1.529344e+00 1.702455e+00 2.225114e+00 1.529774e+00 1.841426e+00 1.706955e+00 1.970975e+00 1.637167e+00 1.734934e+00 1.645114e+00 1.087400e+00
<GCONST> 9.322729e+01
<TRANSP> 5
 0.000000e+00 1.000000e+00 0.000000e+00 0.000000e+00 0.000000e+00
 0.000000e+00 8.798437e-01 1.201564e-01 0.000000e+00 0.000000e+00
 0.000000e+00 0.000000e+00 7.231551e-01 2.768449e-01 0.000000e+00
 0.000000e+00 0.000000e+00 0.000000e+00 7.281274e-01 2.718726e-01
 0.000000e+00 0.000000e+00 0.000000e+00 0.000000e+00 0.000000e+00
<ENDHMM>
~h "OI"
<BEGINHMM>
<NUMSTATES> 5
<STATE> 2
<MEAN> 25
 7.928556e+00 3.543554e+00 -6.534501e+00 -1.581932e+01 -8.862869e+00 9.710342e+00 -2.899353e-01 -2.822363e+00 4.003721e-01 -4.059761e+00 2.471436e+00 2.719918e+00 2.134502e+00 -4.962981e-01 -8.035874e-01 -3.706846e+00 -1.546419e+00 2.159368e+00 -8.499752e-01 -5.807785e-01 1.236730e-01 8.771344e-01 1.223319e+00 1.453630e-01 2.228294e+00
<VARIANCE> 25
 1.779600e+01 2.154720e+01 2.416508e+01 4.653245e+01 4.623427e+01 3.204612e+01 4.336494e+01 3.614991e+01 3.197967e+01 2.986093e+01 3.936575e+01 3.738921e+01 6.023067e+00 3.256072e+00 3.133420e+00 1.044336e+01 5.253718e+00 5.082830e+00 6.184882e+00 3.687617e+00 2.711957e+00 4.562340e+00 4.379237e+00 3.927428e+00 1.540730e+00
<GCONST> 1.064041e+02
<STATE> 3
<MEAN> 25
 7.860848e+00 -3.244162e+00 -8.233930e+00 -1.485289e+01 -4.403138e+00 9.551018e+00 -3.753205e+00 -3.460541e+00 1.636501e+00 5.024627e+00 6.588940e+00 -3.233315e+00 -4.416329e-01 -1.337738e+00 5.975788e-01 2.004933e+00 6.889982e-01 -2.215380e+00 -1.330784e+00 8.601916e-01 7.689644e-01 1.748287e+00 -4.343601e-01 -1.559539e+00 5.570482e-01
<VARIANCE> 25
 9.528629e+00 3.296739e+01 3.230912e+01 4.809174e+01 2.632826e+01 4.335849e+01 6.986105e+01 4.245064e+01 4.035510e+01 5.381718e+01 5.162121e+01 5.675935e+01 2.650604e-01 9.262168e-01 1.900770e+00 2.917222e+00 2.020371e+00 5.744614e+00 2.660335e+00 4.838240e+00 2.702108e+00 3.398891e+00 3.854710e+00 3.524249e+00 4.097355e-01
<GCONST> 9.899546e+01
<STATE> 4
<MEAN> 25
 1.164675e+00 -1.292397e+00 1.107841e+01 -4.497830e-01 -1.104896e+01 -7.044620e+00 -4.330291e+00 5.370657e-01 -5.502278e+00 3.934531e+00 2.471234e+00 -3.700786e-01 -4.457214e-01 5.334421e-01 9.610476e-01 5.496706e-01 -2.943997e-01 -4.852897e-01 5.107067e-01 -1.354207e-01 -6.981417e-01 -6.321090e-01 1.107817e-02 5.771152e-01 -8.776256e-01
<VARIANCE> 25
 1.805636e+01 4.931868e+01 7.614915e+01 3.003303e+01 3.873481e+01 4.961731e+01 5.503967e+01 9.339050e+01 7.496045e+01 4.431352e+01 5.238066e+01 2.786468e+01 8.586545e-01 1.346803e+00 5.212660e+00 2.038264e+00 4.060771e+00 4.664487e+00 2.750776e+00 4.455568e+00 4.973579e+00 2.625136e+00 2.772855e+00 2.754756e+00 1.174633e+00
<GCONST> 1.046932e+02
<TRANSP> 5
 0.000000e+00 1.000000e+00 0.000000e+00 0.000000e+00 0.000000e+00
 0.000000e+00 6.692727e-01 3.307274e-01 0.000000e+00 0.000000e+00
 0.000000e+00 0.000000e+00 8.236998e-01 1.763002e-01 0.000000e+00
 0.000000e+00 0.000000e+00 0.000000e+00 9.250008e-01 7.499912e-02
 0.000000e+00 0.000000e+00 0.000000e+00 0.000000e+00 0.000000e+00
<ENDHMM>
~h "SY"
<BEGINHMM>
<NUMSTATES> 5
<STATE> 2
<MEAN> 25
 -1.027566e+01 4.617648e+00 4.595589e+00 1.261000e+00 2.890973e+00 -2.915777e+00 2.176516e+00 2.219766e+00 -6.034135e-01 -8.278975e-01 2.101909e-01 2.898588e+00 -3.993770e+00 5.639371e-01 -7.376944e-02 -4.727725e-01 9.355361e-01 5.019527e-01 7.243628e-01 3.671006e-01 3.073339e-01 1.249392e-01 7.102780e-01 3.296418e-01 4.429303e-01
<VARIANCE> 25
 7.800174e+01 3.723923e+01 5.027847e+01 3.304240e+01 4.896645e+01 4.527027e+01 4.744036e+01 4.967198e+01 3.966604e+01 3.038308e+01 3.200560e+01 2.427159e+01 4.136577e+00 4.924201e+00 4.346667e+00 3.625674e+00 4.635513e+00 4.366608e+00 4.843967e+00 4.284458e+00 3.790549e+00 3.374487e+00 3.245684e+00 2.592376e+00 3.427487e+00
<GCONST> 1.082771e+02
<STATE> 3
<MEAN> 25
 -2.421693e+01 2.782326e+00 2.713969e+00 -2.883604e+00 3.738014e+00 1.155222e+00 3.678981e+00 2.946200e+00 2.175341e+00 2.041129e+00 3.882074e+00 4.227829e+00 -2.133442e-01 -4.712882e-01 -6.493463e-02 -2.297481e-01 -4.243150e-01 7.232713e-02 9.860860e-02 -7.398558e-02 1.958445e-01 2.056556e-01 1.246656e-01 1.402953e-01 1.855863e-01
<VARIANCE> 25
 1.046242e+01 2.753367e+01 3.383084e+01 2.402320e+01 4.020163e+01 4.368850e+01 3.474244e+01 3.200400e+01 3.239977e+01 2.335059e+01 2.275425e+01 1.886705e+01 1.526044e+00 9.034089e-01 1.124355e+00 1.156345e+00 1.564708e+00 1.605794e+00 1.483544e+00 1.580486e+00 1.511903e+00 1.518768e+00 1.392095e+00 1.250248e+00 5.667046e-01
<GCONST> 8.866084e+01
<STATE> 4
<MEAN> 25
 -1.115964e+01 5.609589e-01 6.354086e+00 -1.500369e+00 -3.768237e+00 -3.992618e+00 6.525149e-01 1.428356e+00 2.495824e-01 -2.681853e-01 2.496330e+00 3.733275e+00 5.448218e+00 -8.361186e-01 9.234702e-01 2.758424e-01 -1.921570e+00 -1.440079e+00 -1.708358e+00 3.614537e-01 -3.256379e-01 -7.457409e-01 -5.255094e-01 -7.387396e-01 1.428352e+00
<VARIANCE> 25
 1.080957e+02 2.499043e+01 5.686601e+01 3.293140e+01 5.635529e+01 4.013289e+01 4.927761e+01 3.844236e+01 3.788642e+01 2.727240e+01 2.972785e+01 1.987066e+01 3.787336e+00 4.072313e+00 5.332004e+00 3.426427e+00 4.328824e+00 3.716696e+00 4.341903e+00 5.443036e+00 5.768906e+00 3.000268e+00 3.396353e+00 2.367831e+00 2.142102e+00
<GCONST> 1.072554e+02
<TRANSP> 5
 0.000000e+00 1.000000e+00 0.000000e+00 0.000000e+00 0.000000e+00
 0.000000e+00 7.900102e-01 2.099899e-01 0.000000e+00 0.000000e+00
 0.000000e+00 0.000000e+00 8.774173e-01 1.225827e-01 0.000000e+00
 0.000000e+00 0.000000e+00 0.000000e+00 7.504442e-01 2.495558e-01
 0.000000e+00 0.000000e+00 0.000000e+00 0.000000e+00 0.000000e+00
<ENDHMM>
~h "sp"
<BEGINHMM>
<NUMSTATES> 3
<STATE> 2
~s "silst"
<TRANSP> 3
 0.000000e+00 2.029152e-01 7.970847e-01
 0.000000e+00 9.517715e-01 4.822847e-02
 0.000000e+00 0.000000e+00 0.000000e+00
<ENDHMM>
~h "sil"
<BEGINHMM>
<NUMSTATES> 5
<STATE> 2
<MEAN> 25
 -6.053519e+00 5.113020e-01 -7.180129e-01 4.761138e+00 3.636127e+00 3.660454e-01 5.139472e+00 1.318038e+00 -1.255645e-01 -4.859338e-01 2.260277e-01 3.540787e+00 -1.243062e-01 -2.051824e-01 -7.081743e-02 2.797222e-02 -1.438934e-01 -1.803343e-01 -3.529221e-02 8.571728e-02 -5.995806e-02 -1.176965e-01 3.496177e-03 1.197692e-01 -7.518443e-03
<VARIANCE> 25
 2.318923e+01 2.890693e+01 3.789553e+01 5.160586e+01 4.343255e+01 5.026754e+01 3.873481e+01 6.165520e+01 3.793845e+01 3.900353e+01 3.508147e+01 3.349245e+01 1.680989e+00 2.881614e+00 2.698024e+00 3.767795e+00 3.357843e+00 3.615057e+00 2.989315e+00 4.737649e+00 3.083596e+00 3.328745e+00 2.712708e+00 2.680696e+00 3.084040e+00
<GCONST> 1.043513e+02
<STATE> 3
~s "silst"
<STATE> 4
<MEAN> 25
 -4.998980e+00 4.009231e+00 -1.554563e+00 3.943310e+00 4.222309e+00 3.849700e-01 4.846828e+00 6.595257e-01 8.889497e-02 -3.030001e-02 4.880111e-01 2.497950e+00 -1.209997e-02 2.037800e-02 -4.583043e-04 -1.001464e-02 1.883208e-02 1.784925e-02 2.486679e-03 -7.973658e-03 6.579745e-03 2.004877e-02 8.799434e-03 -1.683399e-02 -1.821557e-02
<VARIANCE> 25
 6.810785e+00 8.345811e+00 1.393249e+01 1.289067e+01 1.573354e+01 1.880972e+01 1.946816e+01 2.228806e+01 1.982308e+01 1.697985e+01 1.771845e+01 1.507159e+01 1.342431e-01 2.951243e-01 4.636196e-01 6.573611e-01 8.651479e-01 1.064249e+00 1.209738e+00 1.351429e+00 1.394395e+00 1.392766e+00 1.323367e+00 1.209826e+00 6.909813e-02
<GCONST> 7.280170e+01
<TRANSP> 5
 0.000000e+00 1.000000e+00 0.000000e+00 0.000000e+00 0.000000e+00
 0.000000e+00 8.066875e-01 1.197810e-01 7.353150e-02 0.000000e+00
 0.000000e+00 0.000000e+00 9.151977e-01 8.480234e-02 0.000000e+00
 0.000000e+00 3.313541e-02 0.000000e+00 9.472101e-01 1.965453e-02
 0.000000e+00 0.000000e+00 0.000000e+00 0.000000e+00 0.000000e+00
<ENDHMM>
